Variable_N 128
Cart -0.22921108 0.141146 0.03333095 -0.08605443 -0.20701343 -0.019935582 0.17952953 0.13971283 -0.080812655 0.13164395 0.26607305 0.18460084 0.06836967 -0.20220374 0.06894254 -0.057207063 0.20475833 0.3118729 -0.08412355 -0.01301258 0.18203546 -0.06691898 0.020664643 -0.121304564 0.061873965 0.20878395 0.25253946 -0.12714118 0.29654405 0.012205934 0.13486247 -0.02972916 0.11308851 0.12928225 0.008689179 -0.031169245 0.13047671 0.15007709 0.12116441 -0.35943782 -0.24953218 0.14013582 -0.15792553 -0.15494266 0.18908897 0.16350406 -0.086619906 0.14308313 0.03465797 -0.16697289 0.03439634 -0.13393113 -0.062993534 -0.38499972 -0.17307803 -0.015730945 0.2193572 0.29679525 -0.11589199 -0.3066637 0.3277317 -0.32738706 0.2904168 0.12824984 -0.08517578 -0.315639 0.01015646 0.010307306 -0.06449369 -0.20207478 -0.16221099 0.053367127 -0.065768294 0.2853426 0.06223181 -0.09930499 -0.11550804 -0.09168551 -0.003064977 -0.21903208 0.13908538 0.019883571 0.1608845 -0.1304864 -0.06375763 -0.05394557 0.24048674 0.022373946 -0.0074236523 -0.012460935 -0.062457617 -0.048636504 0.019408101 -0.0052784216 0.15305361 -0.012339875 0.28219166 -0.2114558 0.08095485 -0.09161524 -0.26112732 -0.027891697 0.089600556 -0.29300922 -0.10065834 0.08061053 -0.14942738 -0.22374971 0.35485166 0.06969834 -0.03193877 -0.11819403 -0.13658457 -0.20411463 -0.12976779 0.08948243 -0.20447169 0.22364841 -0.19188257 0.23252091 0.016222617 0.16681567 -0.21264924 -0.018495684 -0.10226132 0.22682188 0.2799258 -0.058328327 
Item 0.31907824 -0.40713152 -0.14155369 0.18313088 0.09792397 0.3734211 -0.28937405 -0.30401316 0.041339885 0.3955256 -0.15614307 -0.021199798 0.054816835 -0.111552335 0.30445147 0.2837528 0.035586342 -0.22556642 0.35437462 -0.39940247 -0.28709042 -0.0530949 -0.31420398 0.24474044 0.13876078 0.18734016 0.16391842 0.4250508 0.19669698 0.045801457 -0.35707498 -0.41184378 0.03257166 0.13366982 -0.09349901 -0.19195497 -0.2998573 -0.39419994 -0.1493519 0.39044127 0.33038384 -0.27458122 -0.2954463 0.36152124 0.28996578 -0.15505001 0.40213874 0.0287081 0.10321286 -0.045354955 -0.09577082 0.14584576 0.12779778 -0.32962745 0.37181437 -0.071220905 0.16816123 -0.29606587 -0.25637183 -0.1503862 0.34741828 0.09508036 0.10115552 0.2306129 0.0280627 -0.36550212 0.26618242 -0.29703954 0.08309266 -0.20703068 0.11705494 -0.043626364 -0.2484009 0.38281915 0.21310523 0.0018548393 -0.29388985 0.23232058 0.28981876 -0.375029 0.05806492 0.06198015 -0.23938873 -0.26186585 -0.13682532 0.109185144 0.13351701 -0.29946622 0.04603633 -0.0875696 -0.3943464 0.010116257 0.40174317 -0.03282366 0.14092405 0.21527821 0.20381881 -0.37981245 0.389423 0.11954084 -0.044485096 -0.0040247343 -0.09996965 0.121227205 0.36297363 -0.10801455 0.39957574 -0.20807914 0.07245753 -0.3299434 -0.1353359 0.078295454 -0.29109693 0.05370817 0.057028674 0.16266511 0.036200933 -0.28590727 -0.08653744 0.2162558 0.21726935 -0.13126224 0.15798065 -0.007207362 0.28969023 -0.1071577 0.27690706 0.1282011 
CartItem -0.14175262 0.035340153 0.018750168 -0.11573551 -0.06660742 -0.19553395 -0.12056336 0.22212082 0.33991393 0.22614564 0.023932334 -0.2371554 0.28911135 0.27656978 -0.16835605 -0.05779304 0.1868939 0.0050342386 0.36257753 0.22716111 0.15246147 -0.3108293 -0.087503925 0.32665315 0.23806855 0.15109016 -0.35700938 0.2615285 -0.20417073 -0.11498596 -0.38877383 -0.004706745 -0.21895903 -0.04959365 -0.26415312 0.18796253 0.02955272 -0.066952564 -0.2825381 -0.17326237 -0.16374889 -0.07254419 0.0022458525 -0.18829533 0.2295276 -0.19370113 0.20040193 0.25755957 0.28127846 0.204817 0.19150618 0.027612614 -0.2964024 -0.13349411 0.036159344 0.12807323 0.24496494 0.012412582 0.13949107 0.16499725 0.19902603 -0.19185798 -0.13170141 0.060987603 0.27180654 -0.2496346 -0.08660209 -0.31376925 0.044577498 -0.28172052 0.13865879 -0.1277618 -0.044620983 -0.09150515 0.112276845 -0.2410477 0.03965077 0.17003886 -0.12889239 0.2041255 -0.2818451 0.31317726 -0.32244253 0.05696104 -0.0027465748 -0.12157858 -0.20730229 0.0907958 -0.084576875 0.02602483 -0.17004621 -0.061913673 0.32142124 -0.28392482 -0.015740756 -0.27080977 0.16205841 -0.055877183 0.28676066 -0.07134943 -0.117162056 -0.047703754 0.003886739 -0.16909626 -0.09346266 0.24895412 -0.23447828 -0.19887008 0.02817272 0.2129485 0.24490084 -0.124123104 -0.052822325 -0.23476665 0.091498174 -0.13806625 0.18134934 -0.090479955 0.20509517 0.22227226 0.31712157 0.21683045 0.37850544 -0.2788204 -0.23991086 -0.21313177 0.19805941 0.03929391 
LineItem -0.20234187 0.11856429 0.022508573 -0.06502158 -0.20234789 0.012989821 0.17347798 0.11511295 -0.10097706 0.13454238 0.2553029 0.19857395 0.05687541 -0.2258317 0.09883874 -0.042834006 0.19939178 0.300525 -0.08676295 -0.051163584 0.15802777 -0.04716758 0.008563933 -0.12833051 0.051441804 0.20914239 0.2808093 -0.116797134 0.3200965 0.02695103 0.13650683 -0.051417872 0.13105029 0.138434 0.015971681 -0.05266576 0.11418291 0.1328083 0.12931073 -0.33053023 -0.22140099 0.12802328 -0.17602535 -0.122800276 0.19646226 0.16554391 -0.07324682 0.13054071 0.019260112 -0.18438783 0.015094258 -0.12675174 -0.03645618 -0.39576417 -0.15458319 -0.023242941 0.21248505 0.27933633 -0.1403513 -0.32391244 0.33547136 -0.31312647 0.30375472 0.13762696 -0.09993164 -0.32517335 0.034283753 0.012445029 -0.06644658 -0.19266643 -0.16540818 0.058430407 -0.07367247 0.31340027 0.062331606 -0.08515993 -0.12817265 -0.08999539 0.013479316 -0.24974337 0.1567025 0.006736239 0.16821039 -0.15245886 -0.073602535 -0.039025616 0.2616871 0.0051510143 0.0021104133 -0.019280668 -0.08074557 -0.039583445 0.023718612 0.0072082905 0.1605499 0.014516882 0.28714052 -0.22676486 0.08432438 -0.08647659 -0.25896 -0.030270005 0.08475634 -0.2768101 -0.079638824 0.06381702 -0.113791764 -0.21972308 0.35819653 0.037449874 -0.054596294 -0.11225509 -0.14432535 -0.19121177 -0.12800725 0.1054511 -0.21051463 0.21496335 -0.20593207 0.23466039 0.005238304 0.14319625 -0.22555901 0.0006051816 -0.07767566 0.23498996 0.2851036 -0.055820353 
