Variable_N 128
Cart 0.1557879 0.12737213 -0.016241748 -0.21702129 0.2752194 0.11635907 -0.3147905 -0.47717705 0.24019437 -0.07126137 0.18620743 -0.2588119 0.34469408 0.26008254 -0.07049462 0.06427629 -0.58686024 0.010813291 -0.40901268 0.17964123 0.40045285 0.18463409 -0.12492433 -0.027971983 0.13656597 0.28948593 -0.019784674 -0.40112767 0.13776265 0.11091839 0.006032052 -0.019042937 0.20730501 -0.16704126 -0.085567065 -0.08966017 -0.2585268 -0.02820597 -0.5017841 0.055715438 0.14435011 -0.25107458 0.03342024 0.29713413 -0.008932968 -0.36292344 0.16738734 0.25168118 0.41063428 -0.50468737 0.34566268 -0.20998603 0.2063264 0.06068981 0.10023791 0.1504516 -0.03885918 0.0764898 0.15012553 0.037013195 -0.23283355 -0.013814315 -0.1450096 0.08942231 0.32532382 -0.12646997 -0.16801523 -0.15792467 -0.18817768 0.0034005141 -0.30144837 0.23279735 0.3864862 -0.049528107 0.18563358 -0.21745948 0.39015636 0.15232456 0.06874341 -0.16767962 0.066706404 -0.14495154 0.044768654 -0.03354056 -0.22164787 -0.06662393 -0.03703929 -0.45171985 0.10054695 0.3376332 -0.02685231 0.013753285 -0.12046988 0.042626712 0.5222786 -0.47011083 -0.0062502865 0.20358585 0.29766992 -0.31591183 -0.07848881 -0.2723862 0.069183685 -0.005531334 -0.37218732 -0.19972305 0.20672764 -0.45042872 -0.0056142793 0.014435079 0.25012067 0.32877576 0.18947007 -0.1333942 -0.3428028 0.02699116 0.1886809 -0.083034545 -0.08468708 0.08010014 0.23333494 0.004162996 -0.33880314 -0.09984456 -0.1191204 -0.06718989 0.120986715 0.45483476 
Item 0.27225366 -0.010396076 0.34197405 -0.032444604 0.61181784 -0.032711957 -0.12461004 0.03259235 0.17011108 0.38068557 0.3831524 0.47857702 0.13742822 -0.3842037 0.08422026 -0.20518196 -0.14061865 -0.45341206 -0.39831933 -0.28099275 0.20374088 -0.26322776 -0.12304558 0.19570085 -0.25944096 0.058245245 0.020027364 -0.07109964 0.08746784 0.2553115 0.17092156 0.1278255 0.3133706 0.3925431 0.13361046 0.30890036 0.03967389 -0.26584092 -0.16403982 -0.39899215 0.07881663 -0.0995675 0.11456577 0.25790417 -0.06310262 -0.15547259 0.06760364 0.47052452 -0.005600727 -0.36560988 0.22733031 0.27033666 -0.2573083 0.24968852 0.24940005 0.025150197 -0.13781984 -0.16125545 0.21842164 0.13420993 0.36314654 -0.2018078 -0.21707965 0.004617469 0.21291205 -0.0107664615 0.6133245 -0.083228655 -0.19610585 -0.5907249 0.029887576 -0.026192112 0.019978786 0.21922362 0.08727788 -0.21288936 0.43345636 -0.11681337 -0.35435188 -0.012041351 0.054326817 -0.060124025 0.20600407 -0.10066339 -0.2363468 -0.04080698 -0.18315236 -0.034206398 0.42599514 0.27516693 0.19327883 0.14036277 -0.08368521 3.0882205e-05 0.04065691 -0.11546824 -0.1170929 0.08864552 0.2740461 -0.16815594 0.09010192 0.17233393 0.040822264 0.5708191 -0.04389993 -0.30045745 -0.18528344 0.31176 -0.22596844 0.14213835 0.23915729 -0.17548853 0.062024307 -0.25977913 -0.027218116 -0.24261732 0.07573691 -0.211446 0.11950747 -0.09019208 0.032654196 -0.04438006 -4.7237227e-05 -0.52686155 -0.081351824 0.1521786 0.18568891 -0.20497254 
CartItem 0.1660398 -0.076833166 0.1663812 -0.0881126 0.4054529 -0.19434291 0.21327886 -0.3136653 0.30244154 0.3045171 0.08777432 0.13720103 -0.007215221 -0.15317985 -0.0854259 0.0025182867 -0.110739864 0.3659843 -0.050338626 0.16180837 -0.010989811 -0.1680724 -0.47609052 -0.097404115 -0.1607538 -0.06022774 0.34543502 -0.14530472 0.17111091 0.15369205 0.28551838 -0.14759773 0.4969394 -0.08710217 0.24838604 -0.13612723 -0.1913323 -0.14184037 0.03373577 -0.49925873 0.3233309 -0.27171448 0.253581 0.016159227 0.1046438 0.29908034 0.159367 0.3297303 -0.06474462 -0.34789228 0.21241729 0.081536636 -0.09164823 0.0032124557 0.21865869 0.048749745 -0.29058248 -0.39641488 0.09211212 -0.16904204 -0.013921855 -0.27663782 0.088428624 0.29565233 0.2162899 0.08974236 0.3051826 0.044332664 -0.29547638 -0.025872447 -0.36614233 -0.27736574 0.016184885 0.38218442 0.48660114 -0.26497078 0.15135385 -0.123680614 0.4112944 0.1329111 0.16414031 -0.13265507 -0.045265537 -0.042369913 -0.38410246 0.0040743807 -0.13604088 -0.20026743 0.17369604 0.016043397 0.15569274 -0.22539733 0.28745893 0.41012377 -0.2943225 -0.09999133 -0.024693605 -0.32591516 0.04932478 0.19195874 -0.082560055 0.034767628 -0.3220927 -0.3087343 -0.02570358 -0.18442106 -0.08275779 0.097323015 0.020888358 0.08944148 0.31918257 0.47529566 0.18283215 -0.0918298 -0.27207628 0.19567578 0.044544037 0.016178776 0.22998282 -0.27621627 0.10960997 0.43063793 -0.122360654 -0.28289393 -0.19259867 -0.49624068 0.26310152 0.38911387 
LineItem 0.0076384232 -0.21527329 -0.2937668 -0.01620971 -0.16913316 0.7554133 0.17998867 -0.9207122 0.37468922 -0.7408833 0.7491715 -0.5602909 0.077430874 0.7517199 -0.578403 0.6145086 -0.19574095 -0.43532398 -0.15923989 0.0485985 0.026286626 0.27516553 0.14647844 -0.18803641 0.20814914 0.7077417 0.53035307 -0.38563573 1.0442687 -0.24765643 -0.28318587 -0.5282861 0.2015055 0.41555288 0.14846216 -0.20901911 -0.38616222 -0.6392568 -0.5457789 -0.004645074 0.31794748 -0.45486555 0.43865022 0.756863 -0.27311045 -0.2587553 0.3783347 0.6991717 0.39352852 -0.78889036 0.22603163 -0.48032543 0.17241733 -0.028340545 -0.08990449 0.15011539 0.12053651 0.24607132 0.8033512 0.17618613 -0.13741486 -0.01779329 -0.49442053 -0.47918966 0.45072415 0.3256339 0.4030223 -0.24273445 -0.042623807 -0.41836396 0.108416975 0.67463267 0.15158042 0.32566813 0.80890596 0.3121992 0.5073667 -0.8112864 0.31274635 -0.4512984 -0.37544388 -0.16724464 -0.11921852 -0.08730269 -0.49375352 -0.2083291 0.40363136 -0.3609595 0.39643386 0.21403904 -0.45593706 0.081339456 -0.1073219 0.4221402 0.3466819 -0.6483408 0.12122181 -0.16046032 0.7386171 0.1498015 -0.7977763 -0.3827171 0.6232489 0.3391537 -0.0037758055 0.31026027 0.108996525 0.44327566 0.08792797 0.5925956 0.013417308 0.63573813 0.4470654 -0.22670117 -0.37577504 0.38987094 0.19008297 0.35552266 0.7574479 0.3135223 0.48126933 0.13932362 -0.56835705 0.091806166 0.0090850815 0.4324418 -0.36519668 -0.09414183 
OrderService -0.15466312 -0.41951022 -0.26481792 0.54975116 -0.19358909 0.67187023 -0.10918878 -0.0894526 -0.3821476 -0.3345671 0.41005504 -0.059858095 -0.64092565 0.17551924 -0.056283455 0.2981388 0.048677783 0.049909346 0.2778185 -0.26076946 -1.0012133 -0.47819555 0.43242794 -0.3192181 -0.19395979 0.33210728 0.13235396 -0.17808448 0.59912694 -0.49642965 0.07305213 -0.22660983 0.46855175 0.01206708 0.4079186 -0.31778404 -0.4240493 -0.48082688 0.021214608 -0.0047926093 0.098230086 -0.29778078 0.48325703 -0.0998489 -0.03052511 -0.3287005 -0.042883947 -0.04522102 0.33750698 -0.25573024 -0.28343424 0.08533256 0.111696504 -0.16346446 0.7755728 0.47410294 0.9332869 0.34990886 -0.0453996 -0.020553704 -0.04134201 -0.24171282 0.41969517 -0.3437977 -0.1375947 -0.1027716 0.08979895 -0.6559131 -0.10599717 -0.40888163 0.07854047 0.6562085 -0.58309305 -0.08417407 0.8646855 0.15299232 0.4736858 -0.31187275 -0.25872877 0.100566626 -0.043969613 0.49980712 0.17524828 -0.4401984 0.1369626 -0.2929861 -0.12966184 0.01876939 0.06394277 -0.14098428 -0.43856785 0.09340968 0.26719305 -0.00053109037 -0.36289874 -0.14335988 0.08668469 -0.3856707 0.78925395 0.30170658 -0.36265942 0.025359359 0.45274696 0.20543812 0.6922818 0.26897028 0.44271508 -0.34369758 -0.08899626 0.33207396 0.079635695 0.4006494 1.0229162 -0.3847372 -0.4517664 -0.028698863 -0.53213054 -0.41994464 0.17056885 -0.0073229754 -0.09382463 0.36132264 -0.2888492 -0.023299739 0.016498169 0.06518444 -0.27177933 0.27902216 
OrderMapper -0.031227907 -0.05715536 0.37473792 -0.026636878 -0.3957944 0.49991655 -0.45281172 -0.981425 0.23399055 0.107951835 0.36616394 0.7312719 0.10097058 -0.4686535 0.5310579 0.6982246 0.4108433 0.555395 0.1298808 0.29693004 0.53690106 -0.5101281 0.075846195 -0.48114473 0.08821288 0.48754385 -0.44826475 0.03184748 0.34155104 0.10755595 0.043449845 0.050042387 0.28009015 -0.13501349 0.091099 0.4368294 -0.48165438 -0.29684332 0.059569597 -1.1091503 -0.23700023 -0.3378463 -0.19554786 0.2472302 -0.444706 -0.24554446 -0.14736153 -0.111627355 0.03284281 -0.5654062 0.51338977 1.2617986 0.8241694 0.3155987 -0.16227041 -0.27181855 -0.34096366 -0.5656858 0.029256912 0.6248572 0.7134431 0.18497255 -0.994286 -0.44154587 0.74899906 -0.5900098 0.1431996 0.30709404 0.060015716 -0.79563355 -0.12683895 -0.04658946 0.22489245 -0.95984125 0.0953279 -0.097334065 0.22603692 0.21739326 -0.75060767 -0.024258852 0.15037146 -0.6244734 0.3779339 0.1923445 -0.40923312 0.17824887 0.002860794 0.20815074 -0.32556862 -0.12530597 -0.7254779 0.500435 0.24244897 0.26777086 -0.004194365 -0.4155788 -0.14479046 -1.2232178 0.29524553 -0.6659623 -0.3384748 -0.30127892 -0.24637403 0.8267319 0.4122214 -0.4711947 0.4803037 0.0123952245 -0.13228746 1.2022647 0.50035924 0.14293598 0.23021325 -0.52221143 -0.07279877 -0.71731955 0.8666843 0.3119853 0.090131976 0.25265557 0.112157375 -0.7166717 0.14656095 -0.8983314 -0.81533295 -0.72310436 -0.40562087 0.32258034 
CatalogActionBean 0.0023144942 -0.038147442 0.14666133 0.05768678 0.09994731 -0.1754836 0.05964723 0.041164815 0.28805318 -0.08246661 0.1301475 -0.0367539 -0.012860151 -0.00842325 -0.14331073 -0.055757508 -0.11201551 -0.09480678 -0.20635232 -0.16783012 0.18806449 0.11376954 -0.39231047 -0.052686602 -0.061844837 0.18658686 0.26848948 -0.20531009 0.14183 -0.14512391 -0.36155713 -0.11414296 0.14151783 -0.028663991 -0.073568985 -0.00898119 -0.29092333 -0.010260798 -0.13405341 0.08322411 0.070461266 -0.06241343 0.059569042 0.04744354 0.06766318 -0.15091982 -0.15408324 0.14764391 -0.06309934 0.065335855 0.32104355 0.28176594 0.00994267 0.011044174 0.13487661 0.3827184 -0.19373925 -0.4239183 0.32349375 -0.26679724 -0.14481522 0.38326213 -0.11782965 -0.08388285 0.003946475 0.12595671 0.011087413 0.015344556 0.08246728 -0.17227066 0.10720322 -0.38966864 0.23844078 -0.05487638 0.1359873 -0.02253937 0.1629067 -0.0921951 0.07876486 0.07223538 -0.10230287 -0.3162295 -0.0006509836 0.0144939795 -0.0598683 -0.2769057 -0.018098017 -0.32956678 0.060872354 0.21712753 0.4051228 0.11810976 -0.10654888 -0.01910375 -0.14360504 -0.26257285 -0.072510496 0.27529928 0.122456044 0.032391384 0.088583514 -0.16671747 -0.0628375 0.0039549684 -0.2436877 -0.05152345 -0.08861726 -0.10952897 0.2700434 0.07034341 -0.009339454 0.26366335 0.044456303 0.20123145 -0.29715654 0.27942988 0.009099964 0.035282053 0.09619094 -0.026625337 0.040611498 -0.027257506 -0.21578678 0.012077061 0.09380799 0.0014495772 -0.015572562 0.05140845 
AbstractActionBean -0.029598765 -0.20591629 0.20900638 0.07046006 0.090016834 -0.06063296 -0.1875585 0.10851157 0.28553575 -0.06732942 -0.03316559 0.13437375 0.02290612 0.11195541 0.078545325 -0.14554185 -0.2081036 -0.03800314 -0.4193026 -0.20049298 0.13511077 0.09639851 -0.3223187 0.01777137 0.16496933 0.2696505 0.14470434 -0.10582145 -0.0029539075 0.19560054 -0.3108924 -0.243637 0.20357613 -0.12500148 -0.09236684 0.1596353 -0.09548238 0.013800575 -0.13297862 -0.058857456 0.10870088 -0.0066325874 0.1193219 0.15541066 0.08903403 -0.24351916 -0.2089398 0.055838093 -0.057982676 -0.020495819 0.2634747 0.26953062 -0.106708206 0.0065115425 0.025809437 0.14088514 -0.12669925 -0.4142904 0.07495012 -0.08680062 -0.1267576 0.30635238 -0.14922412 -0.04653734 0.20023799 0.022080934 -0.007177523 -0.010973303 -0.023455188 -0.16555673 -0.0020711934 -0.10254008 0.13306536 -0.09569534 0.24070756 -0.075201735 0.21372876 0.17893107 0.043809857 0.0540889 -0.13713506 -0.13667788 0.24963409 0.028767342 -0.15984187 -0.29266214 -0.057575595 -0.16254316 -0.05620223 -0.005556918 0.19595279 0.094770245 -0.17960508 -0.21736427 -0.08692746 -0.14025015 -0.272659 0.24877578 0.17580591 -0.024572257 0.24235336 -0.26393008 -0.058899317 -0.054737076 -0.104768276 -0.020299364 0.0020681415 -0.10659598 0.10001133 0.011287981 0.04763948 -0.013148399 -0.048494287 0.13405755 -0.19099039 0.1544889 0.016890282 0.02893706 -0.059439726 0.075570725 -0.11214219 -0.112832434 -0.23072109 0.011211559 -0.05966328 -0.12761158 0.026714254 0.04477292 
CatalogService 0.24426816 -0.9549042 -0.54345095 0.32869938 -0.59948176 0.62664056 -0.6504142 -0.6829693 0.57549757 -0.48507172 0.32016838 -0.17450973 -0.7726224 0.85124964 -0.55135685 0.000522064 0.5999359 0.575252 0.016389828 -0.08721293 -0.78734577 -0.08291498 0.801129 -0.686624 0.46196112 0.7152627 0.54604876 0.26445422 -0.077774845 0.15148115 -0.0809447 -0.71269333 1.0203254 -0.6383518 0.24453129 0.6000882 -0.4496137 -1.0709585 0.2803715 -0.8916536 -0.34110102 -0.75177395 0.19359602 -0.041372657 0.62828916 -0.75668496 -0.6072528 0.02255117 0.3241669 -0.8144651 -0.44468743 0.30372158 0.33534053 0.08592856 0.32531983 -0.09960833 0.7002646 0.10295662 -0.44191048 -0.16773787 0.6391476 0.33273605 -0.9723423 -0.47650653 -0.24046448 0.36918128 -0.012177994 -0.62298167 0.26772 -0.13168825 0.12354865 0.17487328 -0.95014536 0.14593966 0.70677745 0.252766 0.23152168 -0.028333915 -0.04215032 0.1894534 0.25160918 1.0869465 0.9185572 -0.320198 -0.6000702 -0.33506486 0.11190736 0.5907446 -0.35817075 -0.30794832 -0.7295034 0.7661377 0.91728014 0.43357658 -0.052429713 -0.63219446 -0.055256102 -0.6277614 0.7217303 0.028631257 0.24941023 0.25713286 -0.39733854 -0.79062426 0.9280001 0.09094442 0.3461592 1.3982084 0.5432838 0.35237426 -0.5474314 0.49350256 -0.3503707 0.53057927 -0.6925213 -0.58931535 -0.77822405 -0.120317414 1.2784721 0.33233336 0.01661308 0.3799808 0.10731903 0.11641918 0.5550883 -0.57820415 -0.14259304 -0.32668993 
CategoryMapper -0.008165551 -0.56737953 0.7026397 0.377887 -0.1339874 0.50382704 -0.41129184 -0.3914552 0.054636464 0.086759456 0.925859 0.40211493 -0.30322254 -0.113163695 0.5433667 0.25742936 0.499575 1.1000676 0.034958087 -0.20519589 0.8625441 -0.38269272 -0.33520442 -0.24608529 -0.69949996 0.49693832 -0.82350767 0.04003356 0.24217297 -0.26212674 -0.2762513 0.8826211 0.41688123 -0.08307922 0.076912016 0.43812367 -0.8796184 -0.34484836 0.1303489 -0.14088829 -0.31962824 -0.32403716 0.11612974 -0.5009561 -0.31510994 -0.75084794 -0.40480086 -0.5901537 0.33934557 0.14675641 0.21884994 1.4227848 0.66100425 -0.15218028 0.58261627 0.66738623 -0.42233714 -0.8299274 -0.53214276 0.62325054 0.24003318 0.08508428 -0.60842067 0.25073254 0.5382097 -0.43677607 -0.74203485 0.19195522 -0.3724605 -0.6957675 0.24872783 -0.2510915 0.25092807 -0.9651239 -0.00065595953 -0.17646201 0.15846953 0.8973537 -0.0015756328 0.025235925 0.06889215 -1.0762273 0.5162066 -0.15953325 0.27585933 -0.0357444 0.04671943 0.13869724 -0.13780884 -0.19879402 -0.63728136 0.45268044 -0.1269349 0.20910254 -0.7378906 -0.4559227 -0.25165477 -0.6481285 0.08778179 -0.8711476 0.028377205 -0.5819262 -0.46485385 0.6213963 0.047739238 -0.17040655 0.72430444 -1.086744 -0.56321704 1.2896488 0.13695325 0.3332679 1.1099933 -0.43092757 -0.48488873 -0.3333562 -0.19461867 -1.0852908 -0.07178929 -0.059523832 0.00026656155 -0.4012645 -0.1518316 -0.60255563 -0.40879864 -0.9208142 -0.49346823 0.37058783 
Order -0.031826984 0.19760817 -0.13219252 0.31054637 -0.23197113 0.1550499 0.2104172 -0.11838738 0.25989804 -0.16966876 -0.3244458 0.25050437 0.16333573 0.07130338 -0.40490705 -0.13275144 -0.13568245 -0.097048104 -0.2566677 -0.10887553 -0.25575396 -0.14809741 -0.23716497 -0.13213515 0.27663535 0.3112952 0.042471357 -0.6117921 0.29244864 0.1056224 -0.21930857 -0.4962529 0.029740669 -0.18399557 -0.0151848355 0.07750912 0.032850727 0.1787132 -0.110209525 -0.42663658 0.068162754 -0.50474006 0.18284091 0.44567016 0.027317422 -0.18295452 -0.18937553 -0.01761241 -0.060450874 -0.043217946 0.17551194 0.25479057 -0.16526173 -0.26171547 -0.27324608 0.0009780213 -0.18296841 -0.34255233 0.37130195 0.0077624223 -0.21025513 0.06807486 -0.12309799 -0.023397816 0.32496238 -0.31633633 0.17599751 -0.18053274 0.23113391 -0.30144095 0.107900254 0.17323227 0.036068417 -0.33391502 0.16532473 0.14149752 0.07994934 -0.085482605 -0.15067068 0.18013737 0.007580578 0.22940849 0.096082404 -0.03325237 -0.43724927 -0.09280202 -0.18802483 -0.1833549 -0.049741372 0.048871644 0.14404002 0.16369626 -0.15009125 0.37540123 -0.017983783 -0.29358882 -0.11623936 -0.45886943 0.27161163 0.056945972 0.35436943 0.19054197 -0.0564023 0.0024310804 0.15130499 0.25036064 -0.22924294 0.3086914 0.35116515 -0.16683765 -0.0146164065 -0.022678671 -0.10397336 -0.11076792 0.09721471 -0.1314084 -0.2227006 0.42543623 -0.0021354703 0.21882121 0.18236148 -0.22791784 -0.14760773 0.0014176904 -0.5451838 0.13333671 -0.18599804 0.16216493 
LineItemMapper -0.019192081 -0.046980944 0.33822292 -0.04670822 -0.36420926 0.46368092 -0.41647926 -0.924836 0.2130742 0.09446322 0.3496528 0.65613467 0.10214854 -0.42740324 0.48268414 0.65873027 0.3905115 0.5316774 0.1260658 0.27562177 0.5112515 -0.46210518 0.07888536 -0.452739 0.090839885 0.46088088 -0.42803413 0.0058021224 0.3164327 0.09390399 0.04310266 0.053123053 0.26570338 -0.12526302 0.0973257 0.4003881 -0.46131405 -0.28616062 0.050269894 -1.0415107 -0.23787718 -0.32207263 -0.17923439 0.23046999 -0.41202453 -0.24575353 -0.14067078 -0.097364165 0.057150763 -0.551195 0.47630003 1.1749772 0.77896726 0.29114452 -0.15426472 -0.24278173 -0.33091277 -0.5086945 0.03612692 0.5771329 0.6587291 0.16853444 -0.91995186 -0.40769717 0.68794495 -0.5424171 0.122891754 0.28839982 0.061603926 -0.73752284 -0.11737612 -0.026208317 0.21518321 -0.89012593 0.0840379 -0.0989336 0.21005984 0.2077768 -0.68504834 -0.03803359 0.1448335 -0.5794947 0.33830294 0.16569968 -0.3785252 0.1810608 -0.0041417964 0.19123848 -0.30613625 -0.10471716 -0.68828636 0.45889938 0.240041 0.27359125 0.003352503 -0.40525857 -0.107299514 -1.1524738 0.28897876 -0.6212451 -0.32306606 -0.2673728 -0.22894603 0.7622479 0.38738948 -0.45465058 0.4525024 0.0033755424 -0.113949545 1.115509 0.4846706 0.14016327 0.22395185 -0.50031745 -0.08335791 -0.6616179 0.8064596 0.2927214 0.09635142 0.22444591 0.13131954 -0.6574118 0.14291102 -0.82856923 -0.77026004 -0.67879546 -0.39239392 0.31092674 
ItemMapper -0.042552885 -0.3310389 0.5680565 0.16233845 -0.23887114 0.505937 -0.37529585 -0.65931535 0.0956012 0.09806113 0.7001618 0.49135217 -0.091166615 -0.23386548 0.5615826 0.50405663 0.49863926 0.907471 0.12374091 0.050945796 0.7847665 -0.45382157 -0.13435799 -0.24197216 -0.39138308 0.4750677 -0.78210396 0.04987165 0.3064136 -0.12153707 -0.10563363 0.64314157 0.31614313 -0.08515828 0.12198879 0.4589745 -0.6665374 -0.31325498 0.12763463 -0.5591421 -0.33137575 -0.3049777 0.020230766 -0.1890096 -0.42617 -0.5118774 -0.23899981 -0.40894425 0.21211082 -0.20054354 0.31082764 1.3130509 0.764266 0.022351617 0.2207879 0.23556356 -0.46552593 -0.6833336 -0.334119 0.70811415 0.45163235 0.0006163223 -0.8012152 0.018905606 0.69516915 -0.50580186 -0.3770498 0.27910972 -0.26319832 -0.68033755 0.09812295 -0.10282244 0.26496154 -0.9505214 -0.027033303 -0.12539548 0.1524418 0.61411464 -0.2599059 -0.04282763 0.08292139 -0.9325277 0.43881738 -0.02011361 0.0055064177 0.18443547 0.07780545 0.2294717 -0.15853862 -0.19082284 -0.7792956 0.42788061 -0.0037512695 0.2946392 -0.44847572 -0.39992294 -0.17124245 -0.98029286 0.1284951 -0.84098667 -0.15647477 -0.46805647 -0.34434813 0.74128884 0.18268925 -0.2834851 0.61124724 -0.6143036 -0.49456573 1.2859623 0.29843816 0.22852361 0.77412575 -0.5500001 -0.22293839 -0.52749825 0.25541118 -0.5118359 -0.01987434 0.05618828 0.092983164 -0.5123189 -0.015534259 -0.7380348 -0.63135415 -0.8648931 -0.49044734 0.37564582 
ProductMapper -0.0014472348 -0.5678099 0.7054216 0.37964493 -0.1376379 0.4956224 -0.4312664 -0.3795633 0.05376501 0.09563801 0.91447103 0.41931918 -0.30635428 -0.13191165 0.55383784 0.25508672 0.5020405 1.1068614 0.029328134 -0.21299423 0.8620936 -0.39555138 -0.33206847 -0.25639278 -0.6959715 0.49711585 -0.829147 0.04033787 0.21928695 -0.26211688 -0.27339503 0.8844723 0.4143529 -0.09296572 0.069513746 0.44291437 -0.8872912 -0.33903068 0.13129863 -0.15046352 -0.33556104 -0.3278105 0.10895917 -0.50766087 -0.29989865 -0.7531322 -0.42389914 -0.59835213 0.33357528 0.14743754 0.21731736 1.4410416 0.6716329 -0.14311498 0.5904904 0.6671894 -0.41586378 -0.8303415 -0.5410498 0.61242425 0.24960098 0.09769754 -0.61019343 0.25279754 0.52720845 -0.43827707 -0.74545217 0.19571312 -0.3618762 -0.6995107 0.24790709 -0.26478082 0.24781713 -0.97084814 -0.014788154 -0.1818621 0.15391089 0.906513 -0.019222463 0.033220455 0.074728854 -1.0730505 0.530348 -0.15487203 0.28334633 -0.03937192 0.034053545 0.14230876 -0.15105365 -0.2040853 -0.62965673 0.46292448 -0.10921439 0.2019688 -0.73583937 -0.46131742 -0.25253448 -0.6443749 0.08191855 -0.8718329 0.045385327 -0.57620627 -0.47141486 0.6212618 0.057979207 -0.1905424 0.73141074 -1.0909368 -0.5573602 1.2814845 0.14394498 0.32845265 1.1026295 -0.43348244 -0.4959313 -0.35016805 -0.19857933 -1.087031 -0.07950592 -0.061097983 -0.0046507064 -0.4114759 -0.14246938 -0.61309516 -0.41138497 -0.9317633 -0.4960872 0.37295324 
Serializable 0.3650694 0.055673305 -0.05873382 0.5964874 0.25086263 0.37259436 0.097675994 -0.3278861 0.16677879 -0.07197686 0.06137064 -0.08287134 0.079067335 0.085977 0.0179473 -0.07457011 -0.25732857 0.08742112 0.03759404 0.036023714 -0.4968162 -0.29416323 -0.0323957 -0.020271016 -0.47226992 -0.0417522 0.11830736 0.124060236 0.14426301 -0.14264937 0.09955377 -0.20957711 0.10868599 0.068650715 0.24628176 0.2211797 -0.123590566 -0.24991827 -0.25228494 0.49271056 0.3445334 -0.5943942 0.17215557 0.37490183 -0.26037347 -0.22481553 0.2560915 0.07608373 0.14825594 -0.08143398 -0.4102051 -0.08462245 -0.14229216 -0.16612683 0.4627534 0.6360815 0.07664165 0.019793471 0.008910222 0.24350919 0.029498206 -0.42326203 -0.18061627 0.17739855 0.42158985 -0.40413415 -0.10732233 -0.5411259 -0.04726402 -0.19501138 0.15802641 -0.008010884 -0.052308515 0.08833621 0.6027367 0.4074298 0.028886773 -0.18900542 -0.06698741 0.01865732 -0.013572095 0.09600671 -0.056550853 0.0548582 0.23032026 -0.3443642 -0.08463606 -0.5097714 0.3477491 -0.10636975 0.20687611 0.4275666 -0.36382803 0.11421571 -0.3277772 -0.029525956 -0.3681547 0.0018194814 -0.13727601 -0.30081737 0.27148604 -0.31039718 0.12220064 0.09413881 -0.06181529 0.4067257 0.083493076 0.13185398 -0.15011036 -0.13190703 -0.35982653 0.5835807 0.6021338 -0.068245776 -0.0072677196 -0.22201039 -0.43412817 -0.45122293 0.290482 0.06307371 0.025774173 0.06053968 -0.25569507 -0.25735453 -0.09675185 0.19008572 0.32843435 0.06771153 
CartActionBean 0.101418614 -0.05571062 -0.021433048 0.16784957 0.08766611 0.035604246 0.0024906548 -0.015287996 0.15637495 -0.057640538 0.17506021 0.16724156 0.0013489465 0.027045213 -0.10776509 -0.18411085 -0.14525715 -0.09767144 -0.3535977 -0.20612179 0.22539544 0.10820254 -0.277293 -0.03661681 0.10509515 0.32915452 0.16047141 -0.32189596 0.19958664 0.033075675 -0.3782444 -0.20760399 0.046853565 0.08882639 -0.011114306 0.022671891 -0.13039525 -0.041808687 -0.22483751 -0.08589741 -0.029954996 -0.024909182 0.050478976 0.192651 0.1074293 -0.18512078 -0.2538542 0.14607538 0.107205614 0.034009825 0.2798291 0.24735601 -0.2555532 -0.116754636 -0.038372982 0.21394008 -0.16443725 -0.29652116 0.357442 -0.22445187 -0.23747386 0.13385928 -0.009043376 -0.05247235 0.026451325 0.042906396 0.16508569 -0.05114309 0.02296669 -0.41162768 0.2009761 -0.026090022 0.15225644 0.022305463 0.17693008 -0.17197946 0.13405941 -0.07644929 0.10536296 -0.18286665 -0.078659356 -0.20029293 0.11510784 -0.02133667 -0.20851253 -0.30281848 -0.23181394 -0.11762938 0.085923634 0.22977674 0.18773304 0.00922722 -0.15443765 0.090184815 -0.028470485 -0.24304543 -0.065971635 -0.030826436 0.24624296 0.091796525 0.11878606 -0.009665554 0.026149908 0.1515634 -0.033659384 0.15447533 -0.05122646 -0.14344402 0.16743542 0.0954411 0.22789165 0.09778358 0.12775008 -0.0906634 -0.2671926 0.31483036 -0.030353384 0.076454975 0.0210907 0.06300525 0.099559575 -0.16660096 -0.11843378 0.017392587 -0.22822243 0.07671577 -0.14584915 -0.035560213 
Category 0.1351637 -0.3147779 0.48902437 -0.77958244 0.09847835 0.104459696 0.03589963 -0.9973503 0.45330024 -0.13908276 0.48206908 0.19222799 0.47764802 -0.2778066 0.36203626 0.9038375 -0.00627445 0.31245047 -0.15826488 0.16783115 0.50254834 -0.19999814 -0.21608163 -0.3587452 0.278158 0.54139644 0.44691572 0.014153965 0.3862943 0.20737466 0.006794136 -0.43090472 0.58979666 0.29252568 0.3680357 0.1901222 -0.56033385 -0.39961907 -0.15214387 -0.76314837 0.12470295 -0.22984222 0.09746364 0.68954813 -0.21597694 -0.027220301 0.21838062 0.550049 0.038374726 -1.1014299 0.88686466 0.6374181 0.7143786 0.46516532 -0.31819445 0.008809122 -0.83939534 -0.5017523 0.73764753 0.13728759 0.6600474 0.4880596 -0.66008204 -0.52671313 0.6977684 -0.073387206 0.5547431 0.6602546 -0.098719075 -0.5625084 -0.3858714 -0.22404677 0.4963353 0.003682507 0.811257 -0.1231386 0.6112642 -0.2717262 -0.27486512 -0.31544396 -0.27040026 -1.1037169 -0.14481868 0.072459474 -0.67070365 -0.22382785 0.08963848 -0.2614699 -0.028705506 0.09413368 -0.07546539 0.0040930193 0.19858342 -0.048193242 -0.16804583 -0.48409885 -0.16471139 -0.5354651 0.5307724 -0.10705198 -0.7556947 -0.688483 0.040465508 0.44787222 0.16821611 -0.9308336 0.3489526 0.24763802 0.2693907 0.8153841 0.70346797 0.45511782 -0.064709894 -0.2517944 -0.17535856 0.12395567 1.4255592 0.82461584 0.41845885 -0.10408058 0.20963198 -0.3429411 -0.2861881 -0.6114125 -0.45767957 -0.72200847 -0.20224842 0.28838974 
AccountActionBean 0.038453985 -0.111617185 0.13064247 0.16282329 -0.06660596 0.1032392 -0.09147745 -0.09559745 0.20853743 -0.016908184 0.010300821 0.26114905 0.058214754 0.04742832 -0.11036573 -0.1542691 -0.2282039 -0.010554821 -0.2933066 -0.1604788 0.02923543 0.024735497 -0.2154583 -0.2508409 0.07218838 0.22219169 0.34337404 -0.16561365 0.0831143 -0.052147176 -0.2867905 -0.2316553 0.10761532 -0.050838374 -0.08509155 -0.057612773 -0.10365888 0.077993594 -0.13050921 0.016225796 0.111296654 -0.15028447 -0.079698205 0.0799428 0.15253085 -0.24652947 -0.24787864 -0.046499018 0.016016016 0.08171714 0.34711525 0.3227497 0.00088476605 -0.0963447 0.045005172 0.32291728 -0.06299074 -0.3116395 0.28803477 -0.12546246 -0.07704722 0.47376028 0.0336463 -0.124483824 0.017294783 -0.19769862 0.014047041 -0.0814384 0.09602941 -0.18445022 -0.00014880665 -0.25596163 0.07540689 -0.23488641 0.18416698 0.003080789 0.11117172 0.13238704 -0.23162481 0.19829035 -0.03373585 -0.17396832 0.08652214 0.019520165 -0.14405133 -0.3757733 -0.1397519 -0.24947715 -0.073257014 0.20364769 0.3754126 0.1276045 -0.17104493 -0.15533632 -0.061300263 -0.19883895 -0.259914 0.23709494 0.1537891 -0.0037029705 0.18652691 -0.14276633 -0.075380616 0.041211654 -0.09250173 -0.020091916 -0.077610634 -0.16808882 0.26919788 0.013727763 -0.13404952 0.012567444 -0.17189173 0.2719631 -0.13378619 0.10993109 -0.000503041 0.022571217 0.008828057 -0.031903785 -0.15209761 -0.28836393 -0.11036759 -0.07412187 0.04299227 0.005650726 0.09586039 0.01579048 
ActionBean 0.13767433 0.12672323 -0.020017998 0.3806734 0.2647924 -0.062450476 -0.18212079 -0.023869501 0.10780057 -0.09779929 -0.22702117 0.08202253 -0.21112211 0.07318294 0.26656958 -0.080988765 -0.54803646 0.059285715 -0.29213965 0.18322049 -0.14830735 -0.19322896 -0.20847945 0.26942736 -0.047992464 0.41447008 0.2344447 -0.0823852 0.027518528 -0.23945254 -0.36720568 -0.1902791 0.0375385 -0.34569976 0.035842545 -0.0009423037 -0.107253544 0.05805727 -0.460663 0.3298864 -0.10156732 0.10335138 -0.027937625 0.16473626 0.3427858 -0.17667696 -0.1604656 -0.110240676 -0.1131444 -0.15253706 0.17325512 0.223472 -0.007812413 -0.029664718 0.35162076 0.5813934 0.20644225 -0.23913808 0.026015202 -0.31486306 -0.046077456 -0.20289822 0.024538577 -0.05724396 0.13295846 -0.054029156 0.09954145 -0.6057477 -0.17619933 0.09013651 0.10943131 -0.35706267 0.0990312 -0.006043612 0.19180332 -0.011907982 0.036614135 -0.23900226 -0.2017497 -0.067715295 -0.16871138 -0.12212541 0.34859842 0.22628042 -0.0006513949 -0.4179005 -0.3049792 -0.25462615 0.36858752 0.30899432 0.29203284 0.101585485 -0.31787395 -0.15826191 -0.14450315 -0.063267216 -0.4216824 0.20780653 -0.06564224 -0.05549495 0.5395208 -0.31420714 0.27643207 0.047585033 -0.25163993 0.21757096 -0.24053238 -0.16317618 -0.13375296 -0.13306642 -0.11445459 0.48763606 0.033642557 0.1913863 -0.19165787 -0.010826241 -0.17918128 -0.1439569 -0.24049024 0.016690113 -0.31033817 -0.022823948 -0.21427847 -0.18883578 -0.023689982 -0.104412235 0.15591918 0.281683 
AccountService -0.13693535 -0.23304988 0.30692223 0.9955343 -0.54622895 0.45964852 -0.25450528 0.24572103 0.095453605 -0.5036687 -0.19814985 0.033204857 -1.0739292 -0.17179427 -0.09398407 0.16961093 0.25649688 0.10212688 -0.38919547 -0.8959093 -0.88491595 0.0051401625 0.02718213 -0.86072606 0.20237403 0.80760014 0.17787747 -0.63830984 -0.09443743 0.2086703 -0.14082113 -1.3434845 0.57395726 -0.87919664 -0.52495646 0.6500914 -0.9988368 -0.9141527 -0.341134 -0.58044124 -0.046699733 -0.8169511 0.40971518 0.5400524 0.60413724 -0.3271056 -0.57750183 -0.43580619 -0.540775 0.2926495 -0.27848122 0.50058293 -0.005016044 0.12679826 0.64476955 -0.4728224 1.2034246 -0.072499014 -0.39834726 -0.57839227 0.18638733 0.22585501 -0.5389261 -0.324458 -0.09323223 0.52614635 0.32131633 -0.6230112 0.8477015 -0.7268188 0.7167222 0.058636114 -0.7491538 -0.033774633 0.062545076 0.34847462 0.10297715 -0.39959592 -0.05389428 0.40410227 -0.13004811 0.6921558 0.98160756 0.29857713 -0.81379145 -0.50003564 0.13419639 0.0036056526 -0.72874427 -0.87046033 -0.42034218 0.641892 0.84166056 0.65744245 -0.36401886 -1.0374913 -0.30192688 -0.16164088 0.9230581 0.48968148 0.81513983 0.25365487 -0.45854002 -0.5751497 0.2761154 0.08743396 -0.2192364 1.2733364 0.8359673 -0.26064458 -0.29085168 0.399137 -0.06421024 0.35696054 -0.8934927 -0.39679363 -1.309508 0.504823 0.4074725 0.51332015 -0.43172482 0.30113748 -0.44499624 0.23959807 0.12654246 -0.29835817 -0.90346175 -0.095963895 
AccountMapper 0.075779706 -0.1456077 0.5590331 -0.23093458 -0.61643964 0.0237315 -0.6681318 -0.537976 -0.48160604 0.062460147 -0.069156356 1.0428901 -0.5633589 -1.0897121 1.0244839 0.855745 0.42803773 0.87940615 0.19503236 -0.029974347 0.5589757 -0.75626296 0.28756317 -1.1031109 0.18003766 0.76457274 0.07157236 -0.026694246 -0.75273377 -0.22937405 -0.08129297 -0.05600018 0.3199951 -0.36511427 -0.35735092 0.19352798 -1.1200902 0.050741546 -0.24302718 -0.72670704 -0.9647499 -0.3085185 -0.83300555 -0.1625033 0.6327466 -0.17427538 -0.7706668 -0.77130324 -0.28474486 -0.09747611 0.7246841 2.0329351 1.43449 0.8386272 0.11961313 -0.109857775 0.18386093 -0.8388231 -0.071469575 -0.05722079 1.3363578 0.7852462 -0.53076845 -0.84889936 -0.20269674 -0.3715766 -0.00062214525 0.17168988 0.82688755 -0.6398547 0.10430587 -1.1740861 0.15616444 -1.199677 -0.48713005 -0.33268243 -0.05234066 0.27854797 -1.5070491 0.063425206 0.059777666 -0.8928946 0.52673674 0.26277748 -0.10052156 -0.8005013 -0.5117634 0.22862515 -0.7149283 -0.06102614 -0.207671 0.66354674 0.8852233 -0.08449524 -0.18502598 -0.7671008 -0.4544558 -0.7983148 0.21478899 -0.009047956 0.081922196 -0.23537901 -0.076894715 0.85404205 0.67536277 -1.1302614 0.6412348 -0.20470311 0.53710204 0.9183052 0.41663408 0.44519892 -0.38778445 0.029953219 -0.50990075 -1.151431 0.769829 0.49421573 -0.25162593 0.2731847 -0.65790766 -1.0422192 0.33118016 -0.8728334 -0.26422188 -0.7344068 -1.1282868 0.14621605 
SequenceMapper -0.02659537 -0.06359775 0.35776782 -0.060597878 -0.35600603 0.45901498 -0.4102189 -0.9282932 0.2092479 0.09617841 0.34049216 0.6552329 0.109981105 -0.42617035 0.49781752 0.67961484 0.37055704 0.524173 0.12386677 0.27835223 0.5108971 -0.47333708 0.08075058 -0.44667318 0.08582364 0.4509886 -0.41059795 0.022873128 0.30830538 0.10296849 0.06123566 0.04725881 0.2725121 -0.11085378 0.09667881 0.39564964 -0.46010777 -0.28209525 0.045730013 -1.0263011 -0.21994473 -0.3259085 -0.16891392 0.2441634 -0.41303664 -0.22327396 -0.11740839 -0.09283137 0.040474962 -0.55956495 0.47859314 1.15838 0.7900597 0.30811226 -0.15546802 -0.2571562 -0.3317202 -0.51914304 0.03265168 0.5925122 0.68520635 0.15555523 -0.9241313 -0.40113893 0.7058783 -0.5329042 0.12965302 0.29388812 0.053516034 -0.72422975 -0.13273151 -0.041305367 0.21737877 -0.8689865 0.10312985 -0.09693904 0.22182739 0.19485903 -0.68600017 -0.04046015 0.13321517 -0.5894508 0.32965827 0.17001319 -0.3786236 0.16744067 0.011061721 0.18086755 -0.2944536 -0.11900095 -0.6841555 0.45537627 0.24106665 0.25475454 -0.0006930273 -0.3985464 -0.12673236 -1.1388649 0.28232443 -0.6135891 -0.33117634 -0.29378048 -0.21515809 0.7691589 0.38271588 -0.4701883 0.45937023 0.024050113 -0.12609424 1.1157699 0.47322038 0.14794743 0.21883063 -0.49844763 -0.07234 -0.6709618 0.81980264 0.3021688 0.093759105 0.23191042 0.109139964 -0.64537203 0.12412707 -0.83508795 -0.7596043 -0.67347664 -0.39374027 0.31148198 
Sequence 0.014204433 -0.19396739 0.46258307 -0.53020537 -0.10577175 0.26370856 -0.13169879 -1.0609273 0.3515661 -0.022572644 0.43398595 0.3716226 0.39697626 -0.34520355 0.48131973 0.9124359 0.15946783 0.45137888 0.013013861 0.2917969 0.5957162 -0.32908222 -0.09763931 -0.34007287 0.18764608 0.48229858 -0.0076414566 0.051167566 0.40196398 0.14822169 0.05063128 -0.14959092 0.41606343 0.12857014 0.28770784 0.29439116 -0.48460457 -0.32662 -0.036961034 -0.92669815 -0.014681614 -0.23598227 -0.014957089 0.5117341 -0.40773854 -0.06618392 0.1409546 0.26245216 0.032853898 -0.9226786 0.75305766 0.8781139 0.82867074 0.40418258 -0.31446266 -0.12822329 -0.7272691 -0.5370333 0.42188084 0.4307923 0.7028047 0.29081213 -0.8404802 -0.46257415 0.8093671 -0.33144853 0.3627065 0.5812664 -0.105178505 -0.5951789 -0.32566848 -0.13648044 0.4462945 -0.4272465 0.47631916 -0.109947555 0.44130513 -0.05670314 -0.44859225 -0.2198849 -0.12103345 -0.99497426 0.04149575 0.13639714 -0.5479267 0.054771572 0.11264557 -0.054384254 -0.1188382 -0.012159238 -0.40586057 0.16762434 0.17221291 0.08233647 -0.11079899 -0.40557718 -0.13998513 -0.88995755 0.37819266 -0.42407823 -0.6448828 -0.59626013 -0.062361453 0.6480592 0.23225078 -0.76201254 0.41228124 0.12240194 -0.0006615853 1.0373045 0.6383909 0.3054895 0.08068234 -0.42632416 -0.039986838 -0.24529897 1.2906313 0.6441654 0.24126285 0.03701904 0.20666438 -0.5083275 -0.121413544 -0.76031613 -0.6725134 -0.77992296 -0.2890811 0.35190597 
OrderActionBean 0.0449832 -0.0696853 0.12738952 0.21786165 0.024770781 0.011493377 -0.052420042 0.09088402 0.24912015 -0.12653449 0.029176282 0.2526633 -0.13364242 -0.13349898 0.033259485 -0.2093367 -0.13206795 -0.026586708 -0.2904701 -0.08992046 -0.11124731 -0.059964597 -0.39295888 -0.27178496 -0.083512776 0.15083921 0.1549553 -0.09028375 0.110477306 0.09165345 -0.19162269 -0.31262535 0.07030817 0.015150424 -0.114767514 -0.031111073 -0.23928306 0.026748938 -0.19887294 0.183189 0.3435229 -0.07122884 0.06358295 0.07548723 0.02445206 -0.05747317 -0.08980917 0.09901138 0.019999353 0.26229694 0.15012608 0.23720177 -0.13415924 0.020854194 0.09448865 0.24173057 -0.03429943 -0.3885617 0.0117292125 -0.091125265 -0.014442098 0.31954455 0.018963201 0.014686399 0.10117349 -0.05302577 -0.08872766 0.030407408 0.12103978 -0.29964146 -0.03413491 -0.17581737 0.15147585 -0.17541978 0.3418234 -0.13168485 0.23238437 -0.003173525 -0.12565246 0.10567941 -0.08985472 -0.14196478 0.13681139 0.100414164 -0.055910297 -0.41302136 -0.12754057 -0.3700033 -0.13197426 -0.019338328 0.36955193 0.090792134 -0.14432788 -0.33362886 -0.03013582 -0.17003614 -0.17994219 0.21575369 0.020560756 0.027796803 0.09974999 -0.25225455 -0.10438021 0.009729389 0.035744555 -0.06888212 0.08084078 -0.18423617 0.12670055 0.08298119 0.042588066 0.101988025 0.115918644 0.012780319 -0.22390358 0.14579539 0.12988254 -0.024116762 -0.18203911 0.11896354 -0.011445819 -0.13201424 -0.23031385 -0.06916754 -0.1489465 -0.053831965 0.03705109 0.062039472 
ActionBeanContext 0.14973676 0.16891545 -0.025619559 0.3738485 0.2728997 -0.06983525 -0.14117187 -0.018987209 0.1542969 -0.101614 -0.20901711 0.09092524 -0.21496959 0.025637552 0.19680071 -0.09358948 -0.50748295 0.003590791 -0.26910263 0.20238599 -0.2214881 -0.22145888 -0.22609669 0.23240623 -0.08476236 0.3720946 0.24558137 -0.093902655 0.083837524 -0.22784783 -0.313685 -0.21819776 0.060245547 -0.32013208 0.043563582 -0.017608602 -0.12440706 0.034398865 -0.44241786 0.2973081 -0.034264423 0.062956795 0.00045033716 0.18044418 0.30597448 -0.14786854 -0.10662775 -0.032030705 -0.11920861 -0.16887861 0.16209342 0.19646707 -0.025255091 -0.0104040345 0.3618715 0.55900484 0.20682837 -0.218058 0.05325359 -0.31425273 -0.023201542 -0.18520625 0.014210588 -0.059959818 0.13808274 -0.038579367 0.13322756 -0.5864033 -0.15031987 0.056781694 0.079912886 -0.33734384 0.0922003 0.006159202 0.23073702 -0.0048237983 0.08054335 -0.29981261 -0.22678694 -0.02445442 -0.13724944 -0.070521936 0.30957174 0.22488675 -0.027774293 -0.38632634 -0.2868601 -0.29046115 0.36232564 0.31364918 0.32065314 0.107666306 -0.28639752 -0.14116196 -0.1121143 -0.07666956 -0.3704079 0.20295578 -0.054278556 -0.040569272 0.4860062 -0.26824972 0.24442962 0.036031973 -0.23186494 0.18050861 -0.25787356 -0.09514889 -0.102806754 -0.13468559 -0.107163526 0.492301 0.03807162 0.17241007 -0.19530903 -0.015038392 -0.14897583 -0.12919466 -0.20894073 0.008905341 -0.25419456 0.020820998 -0.21045105 -0.2118507 -0.022183165 -0.07935866 0.19385879 0.29061848 
Account 0.17766692 0.095318146 0.21644235 -0.43713814 0.4038833 -0.53416127 -0.34457448 0.021405395 -0.16927043 0.28418708 -0.17619346 0.0425942 0.34890953 -0.57047474 0.38917124 0.10870595 -0.39448085 0.06476199 -0.259303 -0.38877058 0.39769056 -0.17999652 -0.0036132634 -0.112197556 0.14303587 0.10829135 -0.08042038 -0.39447677 -0.7319291 0.06633307 0.044309918 0.05118772 0.37470958 -0.20698617 -0.02678979 0.33396456 -0.43765196 0.17824723 -0.23667374 -0.26817846 -0.41840968 -0.30136 -0.23898388 0.15609384 0.24315397 -0.3764551 -0.29001114 -0.05820502 0.113534234 -0.30348915 0.4027673 0.6368692 0.47610664 0.47945565 0.2059804 0.2305154 -0.19894327 -0.3569135 0.13584805 -0.26142466 0.36271647 0.27241933 -0.13937047 -0.12643796 -0.13680786 -0.3052997 -0.05414343 0.037965182 0.31250304 -0.2350107 -0.043788787 -0.5392809 0.33743358 -0.29609102 -0.2619679 -0.31995013 0.38078246 0.31204346 -0.62704974 -0.029028194 0.09301922 -0.24144275 0.087207854 -0.24589814 0.06030958 -0.3609779 -0.4415995 -0.35176536 -0.117369965 0.26283655 0.508933 0.36160347 0.28923318 -0.1933597 0.044371035 -0.49322462 -0.06847186 0.05530341 0.36814046 -0.2528838 0.3965224 0.012762182 -0.017531155 0.24305606 -0.007322486 -0.8198787 0.3501582 -0.25948983 0.4818991 -0.2972553 0.45899063 0.172263 -0.050223343 -0.10008386 -0.25327677 -0.53082716 0.20804636 0.24802946 -0.23239264 0.059663422 -0.012858427 -0.2863006 -0.13038354 -0.2365579 -0.17102948 -0.15084527 -0.2745398 0.27449355 
Product 0.3924961 0.20662397 -0.02701415 0.19228062 0.13090616 0.076321214 -0.28489518 -0.22229552 0.2778007 0.13064903 0.037472405 0.1348327 0.24905401 -0.31245592 0.34580198 -0.053821683 0.079196945 0.3225276 -0.042972177 0.22070564 -0.11552125 -0.010687008 0.007050977 0.0047153817 0.11333299 0.06821603 -0.09015082 0.23186128 0.09517493 0.19105889 -0.15441643 -0.34598553 0.13189715 -0.29911134 0.33169097 0.41190055 -0.1160573 -0.34681395 0.1149318 -0.20744857 -0.14588672 0.19085583 -0.17772965 0.35252246 -0.2106597 -0.31367993 -0.1408313 0.1050034 0.11236316 -0.39491367 0.10850275 0.34849504 -0.15518989 -0.11945163 0.10748422 0.26167375 -0.23753653 0.26641768 0.2791911 -0.3824695 -0.18590319 0.19378738 -0.22648194 -0.20610641 0.2001907 -0.2826307 0.08012202 0.049387448 -0.09885892 -0.39589703 0.0699343 0.10148993 0.052589294 0.056826785 0.49649462 0.013896191 -0.035202898 0.018999105 -0.07958161 -0.28299507 0.23621604 -0.1907529 -0.0819248 0.307101 -0.13259646 0.029466035 -0.2805458 0.043383945 -0.2276904 0.11721023 -0.009244931 0.1330379 -0.0999879 -6.90421e-05 -0.18418549 0.12581883 -0.03262542 -0.2345524 0.1272173 -0.34789374 0.041737467 -0.13227503 -0.36393502 -0.1317295 -0.0680881 -0.009256185 0.121221416 -0.22478904 0.2687034 -0.042656746 0.48855364 0.22349425 0.15490276 -0.035268996 -0.22260603 0.39193746 0.48033172 0.084050536 0.17303851 -0.2934739 0.064993754 -0.21536116 0.2688422 -0.25144506 -0.32990116 -0.5229936 0.5148029 0.36794803 
