Variable_N 128
com.spark.meizi.widget.PhotoViewPager -0.14632829 0.16280887 0.03403793 0.5732385 0.18281579 -0.39536336 -0.41741523 -0.38422835 0.05864781 0.33719927 -0.5255216 0.017262733 -0.13064228 -0.5772045 -0.5422962 -0.025326362 0.18627517 -0.73303694 -0.43176523 -0.30480883 0.426334 0.1989028 -0.13450034 0.6256325 -0.103279956 -0.21494065 -0.29189163 -0.5764101 -0.099715434 -0.17665179 0.08135215 0.36374643 0.53746015 -0.8322258 -0.16244368 0.29480854 0.7411213 -0.8447633 -0.270064 -0.23451339 -0.06849701 -0.41636202 0.58147603 -0.4657464 -0.38197854 0.06225685 -0.5959328 0.2898946 -0.32115775 0.18822284 0.2889493 -0.25538495 0.89243054 -0.057660833 -0.11162786 0.19993162 0.5011623 0.19479279 0.21213531 0.35353255 0.48911542 0.03293878 -0.5524499 -0.08268223 0.48053652 -0.5926474 0.32927832 -0.96441436 -0.0006511368 0.13420793 -0.15364102 0.22678277 -0.13461965 0.539543 0.08776914 0.55540866 -0.2331702 -0.15775521 0.6937837 0.25745976 -0.29835066 0.077251 -0.12853055 0.8533594 0.080139436 -0.23157226 -0.045309667 0.34276652 0.14934236 0.0021084384 0.47745433 -0.38623336 -0.07662916 -0.29993856 -0.112884015 -0.24882847 0.17035303 -0.21363004 -0.17380734 0.39482287 -0.70011073 0.46544096 0.16667072 -0.18879221 0.6109831 0.07205686 0.5241186 -0.34390777 0.84188676 -0.13572595 -0.2336424 -1.1070952 0.7346254 -0.2365097 0.7123644 0.35344905 -0.22520393 -0.31842494 0.092499025 1.3278337 0.45060587 0.19825138 -0.07459865 0.23726967 0.2154504 0.081932046 -0.8081938 -0.16723093 
com.spark.meizi.meizi.detail.DetailActivity 0.11227227 0.38391283 -0.2342715 0.10271172 -0.25188357 -0.5864645 -0.44880265 0.0349577 0.0034540943 0.009185847 -0.1554736 -0.28436315 -0.10194652 -0.45204955 -0.13790165 -0.008749803 -0.18369725 -0.6550972 -0.3567631 0.14004426 0.23301855 -0.48029736 -0.1985055 0.38174883 0.061011683 -0.18897976 -0.30813095 0.026504507 -0.544384 -0.24210608 -0.3086789 0.18478215 0.08163741 -0.11678913 -0.15091018 0.69734883 0.02258333 -0.65009415 -0.3072064 0.23874444 0.25775373 -0.42469773 0.037276465 -0.6283274 0.12209901 -0.34747532 -0.8099618 0.012590864 0.3223459 0.2580613 0.23925203 0.15335518 0.39402464 0.27850488 0.42314833 0.5145181 -0.30325118 -0.3765166 -0.12323494 -0.15258774 0.59116715 0.284299 -0.39660907 0.06371822 0.12298999 -0.5060262 0.041728795 -0.07066561 0.076042525 -0.24329503 -0.010769942 0.25235093 -0.19661166 -0.09907215 0.28112337 0.37707385 0.09759778 -0.55758315 0.5583319 -0.13473712 -0.2663911 0.46610457 -0.19931938 0.561893 -0.26568398 -0.13804045 0.21871425 0.40295157 0.5395756 -0.03768095 0.0009251844 -0.75833243 0.2504038 0.1052997 -0.30051386 -0.20933126 -0.19259769 -0.40215445 0.5131627 -0.12351531 -0.27955696 0.16376252 0.12765764 -0.110425726 -0.06444514 -0.29174742 0.37885356 -0.5951084 0.13853146 -0.41398525 0.07786701 -0.21243107 0.39165857 -0.41302395 0.39138258 0.040577643 -0.20915823 -0.2796465 0.28342706 0.1773687 0.49493146 0.015444318 0.5269453 -0.1807617 0.47510886 0.33327082 -0.26537582 -0.333072 
com.spark.meizi.base.BaseFragmentPagerAdapterTextendsFragment 0.090452865 0.410332 -0.11231968 0.3348235 0.5511553 -0.8143501 -0.61458313 -0.27094305 0.40773764 0.25058785 -0.6348757 0.041932374 -0.28184628 0.38783517 -0.25797686 0.011410152 -0.31212044 -1.0906632 -0.48187375 0.23729298 0.32768 0.0623866 0.22200315 0.4988905 -0.064938135 -0.53944606 -0.15138987 -0.55891675 -0.34839773 -0.36928827 0.3626986 0.28648385 0.033761144 -0.0022982233 0.24615824 0.53894967 0.13480876 -0.48205575 -0.48608217 0.40663373 0.074917525 -0.38608712 0.3035941 -0.38241178 -0.32716563 -0.076603934 -1.139445 0.21528412 -0.4521824 0.18059833 0.7321297 0.13598275 0.63704497 -0.12047613 -0.15203239 0.12203517 0.33812913 0.058791675 0.17610243 -0.0685726 0.4703913 -0.122733496 -0.20351988 0.23395333 0.3934087 -0.16538715 -0.17845759 -0.08219045 -0.11032936 0.26210555 0.5433285 0.29112116 -0.23735829 0.2682405 -0.28486148 0.46641734 0.010095676 -0.3641826 0.46977517 -0.040600397 -0.19616668 -0.08569005 -0.2413858 0.5507415 0.09991557 -0.38398987 -0.14152211 0.6544148 0.55749565 -0.05190066 0.21840255 -0.46912032 -0.04787561 -0.45322904 -0.016675528 -0.3205142 -0.21323685 -0.4603812 -0.3105896 0.21938659 -0.4979887 -0.4130193 0.3710923 -0.2683897 0.032301344 -0.15941583 0.1272566 -0.3609182 0.7370646 0.12076313 -0.2780171 0.033962924 0.27867725 -0.20879498 0.7132398 0.14071424 -0.5730057 -0.24966556 -0.07942474 0.61301184 0.3771291 -0.22093722 0.5923575 0.42799217 0.48045975 -0.12466512 -0.38087037 -0.12508246 
com.spark.meizi.meizi.detail.IDetail 0.074564956 0.34881696 -0.15918688 0.18406826 0.1949431 -0.8772858 -0.35981888 -0.29161263 0.18876736 0.46467623 -0.101369515 -0.3468015 -0.18578623 -0.36759067 -0.61200553 0.36382288 -0.16967759 -0.8847862 -0.23608308 -0.20569599 0.4569133 0.074677035 -0.055689838 0.6199592 -0.05704859 -0.65946645 -0.24492948 -0.6506929 -0.6260418 -0.15844387 0.34000745 0.29055387 0.35717326 -0.5399145 0.2842661 0.46184728 0.5603635 -0.37429065 -0.12507719 -0.17513292 0.13577758 -0.34961298 0.27962443 -0.60560495 -0.7294571 0.20549469 -0.49613982 0.12746641 -0.42201233 0.045766715 0.24134105 -0.09424028 0.5119031 -0.014665727 0.10474677 0.25821528 0.7239741 0.3836041 0.23319875 0.264377 0.62134004 -0.35062584 -0.2777664 0.0051314915 0.28228885 -0.27783567 0.37644133 -0.51197153 0.04923381 0.39469317 0.44660395 0.30422667 0.13425668 0.08189667 0.22692952 0.63145554 -0.38096833 -0.37343648 0.79965675 0.31449816 -0.4700106 0.35064623 -0.10099754 0.5964203 0.027550898 -0.037319846 0.14754657 0.33729702 0.32604843 0.1476288 0.6850656 -0.27335235 -0.18359146 -0.14457624 -0.17127863 -0.42504385 0.026629997 -0.16030943 0.059809614 0.06364692 -0.30022 0.42735937 0.17129171 -0.17999671 0.25031075 -0.23945391 0.5450013 -0.24649294 0.7485176 -0.09854546 -0.118290745 -0.48183498 0.53702724 -0.26930523 0.48093346 0.19078371 -0.38832855 -0.26614523 -0.19076133 0.9538762 0.21042165 -0.09205168 -0.33393702 0.41278592 0.51062346 0.05457429 -0.40943533 0.007886069 
com.spark.meizi.base.BaseActivityTextendsBasePresenter -0.13918951 -0.35119408 -0.0403632 -0.18192232 0.51711047 -0.53017807 -0.24148382 -0.18722163 -0.056377467 -0.003954088 -0.26415542 -0.13110757 -0.76310134 -0.25908226 -0.10386767 -0.22027655 -0.1358839 -0.09207905 0.28850874 0.19342941 0.48621175 -0.3337152 -0.21600996 1.0711558 -0.44339946 0.032152977 -0.8474762 -0.2643847 -0.23486803 0.2676244 -0.15803526 -0.10921567 0.17285487 -0.36031336 0.2513436 0.7126863 0.5354471 -0.0048771794 -0.06460468 -0.47502404 -0.0075541893 -0.028929153 0.2719755 0.17060284 -0.14782313 0.4354284 -0.41992685 0.15722042 -0.4206748 0.16913609 0.6760042 0.2680801 -0.22911648 0.5176303 -0.42783922 0.05014649 0.26505154 0.4409092 0.48490447 -0.021831544 0.6073181 -0.90530914 0.018228164 -0.18653421 0.41432098 -0.11181002 -0.13818668 -0.22786976 0.01169511 0.24438132 -0.24826646 0.40695843 0.056888964 0.53270733 0.032629468 0.056039926 -0.15665017 -0.66748327 -0.09947872 -0.42285228 -0.35171658 0.445013 -0.44570592 0.3788081 0.47003052 0.6887219 -0.068122946 0.50217265 0.24690238 -0.31125844 0.054877304 -0.009064224 0.040639035 0.13227598 0.3543459 -0.62207925 0.2699253 -0.024791095 0.31538114 0.2949678 -0.23065907 0.73025227 0.06438191 -0.23870128 -0.20069803 0.014764881 0.1909954 0.09758523 -0.36636233 -0.2364393 0.056648634 -0.7305115 0.7113125 0.31591433 0.1619063 0.40384465 -0.08321284 -0.7013677 0.013783638 0.009683885 -0.14483729 0.093036264 -0.4167735 0.558376 0.8806217 0.11586799 -0.23022108 -0.2928727 
com::spark::meizi::base::BaseActivityDetailPresenter 0.08766065 -0.040843062 -0.3391382 -0.060454663 0.17688242 -0.7837247 -0.43888867 -0.37811825 0.061840687 0.5931897 0.024547728 -0.19483653 -0.41654998 -0.36423463 -0.3780166 0.44903946 -0.30951026 -0.6944935 0.21481143 0.04766874 0.4708253 -0.2488568 0.16900475 0.99531704 -0.22984058 -0.5907883 -0.094118 -0.08344985 -0.5995754 0.18376729 -0.06569728 0.29777944 0.3024043 -0.8241053 0.31777614 0.39511186 0.9584596 -0.26064834 0.032855317 -0.06003951 0.10790162 -0.3013356 0.37238932 -0.41391551 -0.6574571 -0.01844522 -0.5270666 -0.28044984 -0.17465556 0.4982338 0.38033777 0.13408405 0.2961042 0.19351557 0.31362972 0.5995511 0.14185582 0.41166937 0.35719445 0.21617444 0.97631824 -0.65622103 -0.20177378 -0.12589078 0.5876521 -0.17872272 0.2832789 -0.544155 0.02175197 0.23758021 0.114846356 0.21999061 0.13885106 0.21062759 0.070643954 0.9782559 -0.42108497 -0.50320524 0.62839377 -0.19606479 -0.27684456 0.3869808 -0.25048548 0.44622508 0.14817983 0.22451656 0.014642464 0.28598645 0.14358197 0.0017865578 0.76571566 -0.16615808 -0.24983582 0.016474318 -0.13667113 -0.58306265 0.15749323 -0.23558325 0.36988136 -0.28663114 -0.15291838 0.55694395 0.3950946 -0.38495353 -0.1402239 -0.2320431 0.49737516 -0.26789954 0.4085988 -0.03782755 -0.36124805 -0.6304561 0.5680191 0.11750409 0.17597222 0.32199225 0.2243432 -0.71159035 -0.10105995 0.5765138 0.2718336 0.0615452 -0.61259526 0.5825053 0.81568176 0.07334266 -0.37956145 -0.26800653 
AppCompatActivity -0.41181225 0.18117996 -0.3648963 -0.008188904 -0.17801933 -0.5453525 -0.11776459 -0.3422356 -0.033488676 -0.50562316 -0.12910764 -0.3515135 -0.09740445 -0.43098703 -0.2634291 -0.4513783 -0.07156189 -0.34550327 -0.028123733 0.0953297 0.71964467 -0.20229626 -0.12698032 0.7660248 -0.05876502 -0.21538204 -0.77517855 -0.73890144 -0.8535517 0.0044719693 -0.15433869 -0.024291284 0.21761128 -0.26146048 0.23919417 0.9766224 -0.09690415 0.23515621 0.038306456 -0.57047004 0.49779752 -0.089610144 0.012387384 -0.12167848 -0.09717148 0.2940708 0.3587299 0.3354007 -0.3219585 -0.18858731 0.27054712 0.1659595 -0.19547053 0.22438677 -0.2768333 -0.025906987 0.80340415 0.22223917 -0.08385923 0.18913607 0.20448425 -0.5142285 -0.10255989 0.1931868 0.15146373 0.18221681 -0.13176198 0.24846636 -0.2402543 0.45694768 0.26429012 0.2850399 -0.19469203 0.006447083 0.5419513 0.04548542 -0.3369926 -0.23843284 0.15907907 0.03230626 -0.6188064 0.7420242 -0.38892305 0.6727672 0.48220927 0.4119268 0.25197318 0.21721667 0.21984248 0.06752474 -0.048344553 -0.39454708 0.05176127 0.17127517 0.15528782 0.058347527 0.12431803 0.16173328 0.159755 0.3300011 -0.38747805 0.5129254 -0.14054541 0.102116115 0.23233286 -0.38312694 0.25906122 0.18621783 -0.20541796 -0.54327947 0.14118627 -0.5055348 0.3638085 0.016599672 0.051830597 0.2193133 -0.18800423 0.080518655 0.18997964 0.16779451 -0.06814957 -0.36811945 0.0002921474 -0.1775162 0.3206839 -0.2120723 -0.18796253 0.15512621 
com.spark.meizi.base.IView -0.0041656704 0.13442522 -0.085614875 -0.08965621 0.19433689 -0.71854943 0.08414003 -0.54502696 -0.18912278 -0.29643896 -0.05477392 -0.5558888 -0.16567604 -0.29175296 -0.015777051 0.027785236 0.2340775 -0.24264857 0.1882866 -0.12420079 0.8561755 0.04909073 -0.17053407 0.15034914 -0.2763715 -0.3912037 -0.7088513 -0.89708227 -0.8817426 -0.2592847 -0.028026892 0.09015917 0.20145534 0.055738453 0.18223767 0.37862927 -0.14549164 0.49779803 0.16236481 -0.12217486 0.5827374 0.1437362 -0.11188297 -0.34540915 0.07617825 0.66614753 0.26019627 0.34696183 -0.14896418 -0.3548527 0.065545775 0.017856019 -0.19930096 0.071892746 -0.07948999 0.221904 0.08577128 0.1413535 0.22822131 -0.045104492 0.20150185 -0.42455906 0.20108365 0.21318945 -0.08331875 0.045889035 -0.052940615 -0.005688854 0.2019116 0.2702108 0.7409591 0.4232564 -0.11365905 -0.21377727 0.42388293 0.61343384 -0.041017614 0.024850847 0.052145097 0.068926945 -0.21395831 0.6222291 -0.023861755 0.13339423 0.6793023 0.17257933 0.02174779 0.44677892 0.4181707 0.28970677 0.05267393 -0.14723808 0.11567647 -0.07812247 0.05919915 0.13052325 0.469573 -0.045612108 -0.03965509 0.033214226 -0.05664877 0.11940407 -0.11482588 0.53517324 0.18445243 -0.31573677 0.54292 0.38944876 0.01666483 -0.5605699 -0.04850128 -0.48144963 0.49753743 0.085698254 -0.20436499 0.6510362 -0.3191541 0.4062634 -0.03968328 0.017147863 -0.20274925 -0.5190215 -0.11690368 -0.08721806 0.31810093 -0.22600207 -0.16603498 0.3528413 
Application 1.0429916 0.20785195 0.45308006 -0.05193355 0.21147189 -0.5179965 -0.482663 0.16264829 0.42818642 0.8550884 0.79214084 0.6544905 -0.2556225 -0.1206447 0.15617919 -0.18152238 -0.35810038 -0.0058874856 -1.2457561 0.6301318 0.3714245 -0.16647385 -0.6159359 0.253132 -0.22694156 -0.26754564 -0.5064389 -0.41347808 -0.13530041 -0.036109 0.44826666 -0.29269028 0.34421566 0.55872595 -0.13204046 0.74543583 -0.42504907 -0.21701406 -0.29341257 -0.33667576 0.1344958 0.32299826 -0.4444894 -0.016394116 -0.106398195 -0.52141386 -0.69041926 -0.3054247 0.5161378 0.16102763 0.3464206 0.13118629 0.37261406 0.34383208 0.089472435 0.4015268 -1.322425 -0.75519973 0.5039523 -0.68609685 0.44744173 -0.49314904 0.20410311 0.11603456 -0.81055564 -0.008651634 -0.032212432 -0.020182893 0.19633046 -0.23098537 0.86128294 0.3024541 -0.15735097 0.081496745 -0.24096113 0.43416426 0.3447158 0.41455033 0.3717568 -0.6020899 -0.83539057 -0.15235892 -0.7720824 0.104720764 0.4379196 0.11568245 0.5614085 0.36664373 -0.072705075 0.11803923 -0.017960325 -0.4104264 0.18350886 0.18186498 -0.09503975 -0.14474726 0.4919973 -0.5820122 -0.16041209 0.09600589 -1.1014174 -0.6073961 -0.39009374 -0.22327936 0.20350905 -0.07001379 -0.07806569 -0.12909414 -0.10559662 -0.13800637 -0.58801025 0.18188916 0.35868242 -0.21558526 0.49128413 -0.36060393 -0.19529402 0.27002344 -0.4567229 -0.42855826 0.08125146 -0.17883186 0.18862505 -0.7626634 0.23817131 0.079084 -0.4656889 -0.45655876 
com.spark.meizi.MeiziApp 0.93363583 0.014088636 -0.16456202 -0.0906195 0.4169975 0.009063564 -0.08419243 0.18616994 0.45266813 1.1293342 0.39263433 0.56759745 -0.022588097 0.0669683 0.30476344 0.123097636 -0.46225178 -0.30225584 -0.4629763 0.793912 0.15392005 0.07920848 -0.4985038 0.72065175 -0.39291307 0.3743233 -0.23959117 -0.19535723 -0.37068635 0.17473233 0.7474718 -0.42221254 0.14474164 0.4772889 -0.20429538 0.25387836 -0.46302745 0.042418998 0.4772386 0.1759068 -0.28152248 -0.73384386 -0.18704349 0.27115387 -0.07370996 -0.118723586 -0.46684086 -0.1400351 -0.017205453 -0.23189418 0.48047248 0.07355308 -0.016221724 -0.16041608 -0.19100508 0.50614804 -1.2953942 -0.49942097 0.25928253 -0.105575524 0.11577046 -0.10461757 -0.28838465 -0.27919054 -0.67171735 -0.38351542 0.2741789 0.32424575 0.013270381 -0.11342001 0.9199681 0.3887936 -0.028580906 0.3162203 -0.39587155 -0.16099815 0.529402 0.7100995 -0.15199517 -0.14835075 -1.0580435 -0.022637134 -0.68341357 0.08503323 0.6517398 0.32858306 0.39293262 0.3966999 -0.087156005 -0.07101159 -0.20561583 0.09586168 -0.54437435 0.23202428 0.16390741 -0.45600304 0.6466428 -0.8003234 0.0015099141 0.09626521 -0.9170378 -0.9559873 0.17025302 0.009948863 -0.0070897583 0.14950387 -0.23601937 -0.48025146 -0.115867 0.077276364 -0.35234955 0.39096266 0.0810489 -0.12516743 0.8445086 0.11839734 -0.6435615 0.10534633 -1.0841585 -0.5608831 -0.22116975 -0.30503616 0.37362692 -0.8238411 0.05639026 -0.056640245 -0.2589047 -0.45941722 
ReferenceT -0.09183027 -0.19709268 -0.30684742 0.11409795 0.49091074 -0.2959369 -0.25553867 -0.022219336 0.5353822 0.08578865 0.5481584 0.028529432 0.42854196 -0.049019247 0.12400769 0.38483858 0.017152464 -0.31812024 0.2295105 0.04936087 0.20131157 0.4016097 -0.2167387 -0.1970129 0.04346624 -0.21486259 0.10093373 0.098786026 -0.19291647 0.101939656 -0.17833212 -0.07843834 0.2055571 0.0048662247 -0.08509354 -0.07499326 0.27539986 -0.24194136 0.15118305 -0.29597133 -0.7640647 0.16915137 0.306053 0.15267791 0.1216894 -0.27154127 0.20085184 0.46044543 -0.29804367 -0.030365286 -0.15618776 -0.35109678 -0.2404264 0.04349664 -0.3296139 -0.05257518 0.0028786922 -0.36092725 0.18050991 0.16763961 -0.06805876 0.15716138 0.061142895 0.11814819 -0.09087182 -0.025375739 0.18176705 -0.36099508 -0.08149083 0.3165898 -0.2667106 0.15325458 0.07082623 0.22939253 0.057546154 0.12596045 -0.34818605 0.037804075 0.8307769 0.23803096 -0.6483841 0.7054387 -0.20983462 0.016823124 -0.13773434 0.055043213 -0.067819126 -0.31357476 -0.31321815 0.14090133 0.040191233 0.34865266 -0.5630585 0.16417511 0.4990104 -0.15655378 -0.21226339 -0.21297258 -0.015610911 -0.17914698 0.29778937 0.6616863 0.029372135 -0.13677618 0.09771291 0.49609756 -0.021202933 -0.6493403 0.12657076 0.14414555 0.15426561 -0.21565641 0.2228152 0.47505143 0.2631066 0.24284875 -0.47967306 -0.5297796 -0.07537128 0.42306742 0.47596532 -0.03934691 -0.12339436 -0.19126076 0.23620853 0.5942875 -0.41762778 0.18635106 
com::spark::meizi::base::BasePresenterIDetail -0.015539635 0.048787717 0.08796827 0.14725387 -0.44882154 -0.47893232 0.17255703 0.39287755 -0.5857708 -0.48714045 -0.05764965 -0.20339328 0.45055172 -0.33896673 0.1529381 -0.076622926 -0.7245863 -0.76348156 0.5532533 0.27882996 0.7734109 -0.105976656 -0.33113277 0.21037075 -0.31452203 -0.048324265 0.06726375 0.34741318 -0.9423696 -0.090366796 -0.29095706 0.12736063 0.109810464 -0.15570597 0.10160363 -0.12665735 0.5717313 -0.30548555 0.4370814 -0.30565196 -0.2284853 -0.22932482 0.17623977 -0.49030355 0.299685 0.294593 0.055738274 0.28955874 0.27436188 0.29549545 -0.3706943 -0.31091267 -0.47674564 -0.41043842 -0.4905805 -0.46995094 -0.24600603 -0.3192862 0.32238328 0.56775093 -0.22224577 -0.4911728 0.24488759 -0.3402691 0.2556331 -0.8684999 0.32889366 -0.35983235 -0.052867524 0.49015588 -0.25528646 -0.042365953 -0.16028841 0.5119933 0.13741335 -0.0043214564 0.5079003 0.54422975 0.73206466 0.025412984 -0.8859976 -0.0028177723 -0.10403942 -0.43199024 0.08775812 0.17630963 0.22182307 -0.4051495 -0.14493111 -0.112177655 0.5034295 0.27527544 -0.1556279 0.420289 -0.03888897 -0.31766945 -0.5644565 -0.5895036 0.19229245 -0.9206159 -0.59718657 0.27148822 0.29453787 -0.2485382 -0.04370988 -0.23596072 0.49958238 -0.5511177 0.19947134 -0.28126636 -0.07019468 0.031205488 0.7069441 -0.14690343 0.62845254 0.20206168 -0.28018445 -0.35996845 0.6805176 -0.16990669 -0.03072897 0.259179 0.13077511 0.3262627 0.39172596 -0.31451413 0.2991626 0.500805 
com.spark.meizi.meizi.detail.DetailPresenter -0.08344153 -0.19829905 -0.3638989 -0.05155257 -0.44803664 -0.37495083 -0.26113746 0.47003558 -0.15213118 -0.29506963 0.26398748 -0.46877113 0.5576114 0.014361872 0.71078223 0.47733882 -0.60798657 -0.5294217 0.6626102 -0.27825987 0.5771477 0.5066836 -0.006477696 0.18050815 -0.46735355 0.06336805 0.0035788615 0.47272396 -0.7251763 0.026053136 0.08896851 -0.61723244 0.40018067 -0.37066647 -0.1783652 -0.5334646 0.32842553 -0.43633878 0.43754256 -0.51697534 0.124947935 -0.6071438 -0.2193663 -0.070064515 0.37075865 -0.16415891 -0.3903249 0.24335346 0.14026558 0.055226415 0.10637612 -0.17711784 -0.36365998 -0.27463037 -0.093855165 -0.1673467 -0.13248438 -0.13262771 0.26120174 0.53474516 0.3120521 0.05573795 -0.27749515 -0.18722452 -0.1739705 -0.44862175 0.7427178 -0.63971525 -0.48613346 0.11372657 0.29824516 -0.5192554 0.09795402 0.49601787 0.0019809827 0.31173736 0.38227323 0.37295 0.6794516 0.15909514 -0.92103076 0.47166073 -0.2127282 -0.13587873 -0.18170996 0.494698 0.17592502 -0.096173495 -0.4242544 0.1246547 0.359993 -0.1326756 -0.5321632 0.4446137 0.49105707 0.27257562 -0.28503096 -0.27253702 0.522431 -0.6229962 -0.3154468 0.13006909 0.28022972 -0.09597127 0.044637658 -0.09250536 0.6917156 -0.4670607 -0.068505496 -0.13603689 0.12125935 -0.067950115 0.52657825 0.39919165 0.36167616 0.6340019 0.16605921 -0.5319507 0.6941859 -0.009181697 -0.14256386 0.27665097 -0.26849216 0.08729813 0.2868899 0.29698494 0.2685579 0.18995406 
com.spark.meizi.base.BasePresenterT 0.060068034 0.01867446 -0.011835052 -0.4852855 -0.14555146 -0.08027339 0.040888272 0.17310967 0.15516071 -0.1386135 0.22493061 0.2968077 0.31717455 0.020165715 -0.4184368 -0.0680312 -0.8426659 -0.2904696 0.04928305 -0.2992842 0.6482072 -0.04856972 -0.26413226 -0.06969522 -0.013582702 -0.3022823 0.33825335 0.5090561 -0.40428948 0.5197945 -0.2857984 0.3765115 0.57043535 -0.090874664 0.033821758 0.17165859 0.28637308 0.38306263 0.07622964 -0.33620143 -0.4347698 0.26110893 0.025857035 0.35529673 0.11072815 -0.24029635 -0.22378166 -0.01472837 0.16747217 0.0417693 0.16253118 -0.3645153 -0.3259397 -0.2784688 -0.102651194 -0.586972 -0.14762086 -0.008824813 0.13162237 0.19765459 -0.5301918 -0.3751759 0.07414224 -0.13325877 -0.063976385 -0.30477157 0.57850105 0.06587235 0.15957388 0.330624 -0.56726974 0.5120298 -0.081046805 0.3060288 -0.34784758 0.03277954 0.043858718 0.26925746 0.87783694 -0.22694628 -0.85298747 0.30566186 -0.46650267 0.045264993 -0.52455974 0.27829647 0.043217123 -0.3329193 -0.15514128 -0.04224968 0.29626244 0.14800155 -0.19241717 0.09093219 0.4822988 -0.8145287 0.072401196 -0.70802015 0.6127322 -0.21210286 0.4117054 0.16787794 -0.06636414 0.17811252 0.029254312 0.4603733 0.16197017 -0.5045305 0.17366982 0.357217 -0.28277537 0.014923548 0.09928068 0.078535914 0.37773803 0.12039153 -0.62550473 -0.44022816 0.2557879 -0.16316348 -0.2981804 0.21553242 -0.24827379 -0.17316811 0.17805724 -0.0020131767 -0.0644933 0.50689495 
ViewPager -0.13973421 0.064647935 -0.1990178 -0.18372837 -0.1829821 -0.77264243 -0.3266691 0.24021985 0.071578324 0.0110482415 -0.40821436 -0.53718704 -0.2073827 -0.6369704 -0.3501189 0.1684668 -0.6107201 -0.044143178 -0.3541513 -0.06336214 0.15494256 -0.24746701 -0.26208177 0.44725087 0.062108655 -0.131183 -0.9353562 -0.4611961 -0.35005692 -0.18754216 0.5272772 -0.08294065 0.14394219 -0.084210485 0.40378904 0.71718025 0.5429733 -0.46778566 -0.11823453 -0.3827498 0.11360522 -0.6299387 -0.17177244 0.13862567 -0.3377625 0.31159887 -0.51712775 0.56557643 -0.54638165 0.020744648 0.50152683 -0.20537727 -0.032492325 0.13965943 -0.34972224 0.095568314 0.4852025 0.35702115 0.5643658 -0.007687484 -0.14811824 -0.23199849 0.08925001 -0.13933063 0.05763729 -0.34697688 -0.12598708 0.22505493 0.27690217 0.0793099 0.35648653 0.5617502 0.20706318 -0.24001515 0.16516346 -0.4267663 -0.2681725 0.03367323 0.15414074 0.4666565 -0.7434233 0.23117344 0.12593132 0.60762477 0.031197501 0.015200137 0.25744987 0.095949076 0.46165153 0.19455211 0.55658025 -0.17680657 -0.37379178 0.012082335 -0.10176786 -0.3480387 0.03501829 -0.039276943 0.43362853 0.5993617 -0.32853132 0.08502835 -0.20547546 -0.1996743 0.12805416 -0.4521234 0.28202337 -0.44414297 -0.2157891 -0.30886045 0.44311804 -0.34867585 0.28774413 -0.37577412 0.0323191 0.014115248 -0.78017646 -0.3836444 0.047954958 0.0036629017 -0.297005 -0.07218411 -0.16905145 0.49644604 0.55677015 0.14999168 -0.07659599 -0.022210965 
com.spark.meizi.about.AboutActivity 0.023777017 -0.4788332 -0.8285779 0.64726007 -0.79287905 -0.6429901 -0.4768395 -0.015666345 -0.5183515 -0.14288859 -0.5742884 0.35564438 -0.80585533 -0.41757625 0.30124483 -0.72300625 -0.012263349 -0.02557633 -0.4848242 0.9538035 0.5505101 -0.45885557 0.39408612 0.9868558 -0.40016237 0.021367425 -0.3021983 -0.1410531 -0.6548516 0.4609043 -0.38508013 0.07606178 -0.46646303 -0.4653976 0.22380143 0.9165104 0.6047854 -0.114089146 -0.31124297 -0.13583982 1.0736601 -0.60648674 0.3487748 -0.23665778 0.48071104 -0.91672087 0.39586204 -1.0254976 0.01579095 0.21369056 0.8977017 0.6519557 0.43783757 0.70014644 0.3369918 0.68726206 -1.1704593 -0.24118957 0.35832915 -0.54417056 -0.11494799 -0.047559574 -0.6181872 -0.39267954 0.12520817 -0.88009846 -0.8449416 0.4423037 -0.089961655 0.631734 -0.031230588 -0.17707418 -1.0825808 -0.4824693 -0.054778375 0.54479265 -0.10632042 0.35412025 0.0057798927 -0.89041 -0.29315105 0.51171637 -0.8076852 0.26420176 0.49999964 0.10214577 -0.040610284 -0.39313835 0.12717283 0.039558187 0.0041239755 -0.4882581 -0.17614318 0.13891825 0.105457686 0.561531 -0.43080425 -0.22061364 0.3263503 0.5766876 -1.0027112 -0.12999175 -0.019623332 -1.0883445 0.35961002 -0.56126106 0.39120477 0.067093596 -0.82008106 -0.98765653 -0.7991723 0.0633881 0.6174724 0.16575503 0.20256567 0.11629915 0.20917724 -0.24187215 0.21764234 -0.22897747 0.09133375 -1.0180508 1.0892045 0.0051851314 0.29636726 0.3979472 -0.5368999 -0.32979372 
Toolbar 0.023365004 -0.06864993 -0.25666478 -0.35594872 -0.05181561 -0.96890014 -0.2871291 -0.16669458 -0.1354569 -0.33246818 -0.06897479 -0.17323886 -0.7818853 -0.34820396 0.017210532 0.0010496925 -0.28404996 -0.086886674 -0.09872837 -0.37295726 0.12278199 0.15363376 -0.47916505 0.6146394 -0.7462435 -0.23079957 -0.78182524 -0.57298785 -0.51997626 -0.1851867 0.37933034 -0.48991358 0.36014086 -0.031050857 0.5438159 0.4282396 0.08086405 -0.14222671 -0.7012537 -0.934999 0.14672452 -0.46580842 -0.317868 0.41002643 -0.10919814 0.46907714 -0.009666567 0.46565887 -0.46783844 -0.08290611 0.5436225 0.21388169 -0.1814023 0.38726634 -0.1868903 -0.17560013 0.4197489 0.4188978 0.45241553 -0.044786833 0.18706404 -0.46772936 0.098171495 -0.02302283 -0.39463237 -0.10714346 0.20736413 -0.4094544 -0.21070206 0.70048124 0.8567077 0.08463149 -0.4956825 -0.04668189 -0.021900175 -0.30283442 0.062015418 -0.33035225 0.20266849 -0.07707828 -0.8810734 0.6492044 -0.45106992 -0.010013391 0.30912024 0.6729107 -0.21552464 -0.17665526 0.15455554 -0.1792641 0.21001238 -0.2465318 -0.24992463 0.128785 0.5664965 -0.3918494 -0.041600056 0.4737293 0.3992271 0.65106475 -0.3551348 0.57176423 -0.660645 -0.27425265 0.102412954 -0.2328398 -0.30275756 0.005039652 -0.64888954 -0.46998927 0.3672132 -0.07803427 0.6138316 -0.07530525 -0.2443204 0.44172633 -0.32195047 -0.39693546 0.03950081 -0.239618 -0.5365341 -0.101120375 -0.20683043 0.31640932 0.71487445 0.6816706 -0.010312557 -0.23119767 
com.spark.meizi.base.BaseFragmentTextendsBasePresenter 0.30861205 0.041441325 0.03744769 -0.3367413 -0.06467373 -0.12963852 -0.08540782 -0.07159929 0.031242564 0.015456697 -0.18945868 -0.15443219 -0.35943997 0.26436862 0.102645375 0.24053782 -0.12117698 -0.66680104 0.17517112 -0.31660116 0.8014564 0.70380443 0.0073053986 0.02565671 -0.69174975 -0.36436555 0.19586885 0.35228026 -0.23156358 0.1258605 0.097848594 -0.036854252 0.5645264 0.09700802 -0.05012008 -0.076165 0.41401085 0.0031727613 -0.41704252 0.21146625 0.60761434 -0.904377 -0.14926682 -0.05525413 -0.059103124 0.4316577 -0.08744217 0.6701552 -0.028907081 -0.08135837 -0.21430203 0.022060916 0.50475764 0.06557049 -0.06811686 0.52537864 -0.789579 -0.005537118 0.07730558 0.23904082 -0.0050921408 0.22763738 0.078463115 -0.5192004 -0.10849685 -0.5632011 0.88199395 -0.7164834 0.79050535 0.23698151 -0.009009044 -0.2951632 0.20503773 0.026665248 -0.19959648 -0.23299403 0.13688274 -0.2976034 -0.2535938 0.19261408 -0.5480696 0.3397915 0.10021995 -0.06558601 -0.10716955 -0.1257079 0.06197262 -0.23382205 0.5987859 -0.1411228 0.3236384 -0.24023195 -0.221943 -0.009744392 0.36750463 0.1623685 0.5709112 -0.91908514 0.29324427 -0.24173966 -0.1663628 -0.24695548 -0.30222964 0.44356918 0.2180104 0.2226021 0.6177547 -0.03614278 -0.44741237 0.16869809 -0.24285278 -0.30033994 0.24380124 -0.08881561 -0.03643532 1.3774396 -0.061552633 0.2972217 0.08888168 -0.44472986 -0.2682395 0.014032958 -0.15144782 -0.019647935 0.2121112 -0.24806574 -0.0024329347 -0.023470217 
com.spark.meizi.meizi.detail.DetailFragment 0.17638998 -0.19142857 -0.22130917 0.44843656 0.16175754 -0.52482736 -0.036059547 0.13525511 -0.5580235 0.57870054 -0.32054082 -0.21818548 0.34320205 0.4996137 0.23946607 0.46187204 -0.3337469 -0.6513607 0.27512175 0.21271138 0.40952462 0.07158323 -0.2014274 -0.1668071 -0.025453024 -9.9536264e-05 -0.04588824 0.10664891 -0.93369573 -0.33290735 0.43257257 0.3606639 0.07578306 -0.10939769 -0.3763654 0.0097556515 -0.35235903 -0.13401231 0.26777765 0.25702244 0.23528728 -0.71269965 0.27534717 -0.4454848 -0.1463039 0.24300487 -0.5065332 0.30086574 0.016201083 -0.39331684 -0.009711633 -0.27240115 0.13153334 0.097834356 0.17333153 0.4760189 -0.4489813 -0.14193217 0.41045102 0.5585308 0.08356251 0.56386656 -0.25046477 -0.081772715 0.36464775 -0.7878671 0.26353878 -0.045579433 -0.14717478 0.04566211 0.022394264 -0.036234584 -0.44382662 -0.52716583 -0.012280434 0.43146724 0.28277716 0.15049805 0.36896327 -0.022833277 -0.3632307 0.16725041 -0.15464193 -0.5923107 0.06935798 -0.26987788 0.28643346 -0.2143975 -0.03592098 0.24671507 -0.18002567 0.15521508 0.25386843 0.30717137 0.26280186 0.0014429818 0.16296211 -1.331731 0.32328355 -0.5805238 -0.3443181 -0.34882867 0.56081456 -0.09202807 0.104346216 0.1417843 0.7129604 0.13157639 0.3123196 -0.09163022 0.13441056 -0.09843609 0.6318248 -0.29646927 0.7782458 0.438753 -0.10159097 -0.34425345 -0.0830709 0.03392082 -0.21562424 0.4628825 0.1729576 0.16522466 0.39001286 0.23815584 0.12067864 0.0010646705 
PhotoView 0.02298082 0.4569958 -0.53930277 0.1379079 -0.6858677 -0.5534461 -0.2667954 -0.20340489 -0.041670248 0.11012467 -0.23546387 -0.0384394 0.62628937 0.04678164 -0.06687537 0.79702777 -0.2508145 -0.9930013 0.7240776 -0.03834846 0.52858764 0.101233065 0.07692872 -0.16967615 -0.39123306 -0.5968721 0.20394278 0.14907424 -0.5306762 -0.325191 0.1431766 0.36497164 0.24352303 -0.6194116 0.17710151 -0.18753874 0.8155534 0.0537243 0.29169318 -0.049280982 0.111785166 -0.83217406 0.03860786 -0.30538118 -0.04359852 0.9423174 0.00839755 0.19670162 -0.33722046 -0.6458067 -0.15739807 -0.67379385 0.28236178 -0.18715234 0.20551537 0.2826333 -0.43546784 0.033763308 -0.18739054 0.32739866 -0.10733332 0.49591196 -0.4516686 -0.4496919 0.09674719 -0.75323355 0.91685194 -0.6392104 0.09622131 0.5997905 0.64080125 -0.08233373 -0.09498796 0.008993867 0.15412879 0.32637694 0.34022245 -0.117058404 0.65393853 0.6817368 -0.8901885 0.23182969 -0.23729764 0.17720346 0.23537299 -0.008088595 0.026802449 -0.68060684 -0.099218145 0.32986382 0.4307791 0.1670135 -0.4735374 0.02474756 0.05544707 0.09039452 0.26640776 -0.80398554 0.20962751 -0.32409164 -0.3620213 -0.20891179 0.17856562 -0.014077397 0.18529928 -0.51273906 0.78581154 -0.22284852 0.14423823 -0.11386791 -0.0560984 -0.3825784 0.4364874 -0.009032773 0.37304056 0.63396686 -0.1709862 -0.15249377 0.14082842 -0.0023912634 -0.16102117 -0.30755928 0.0371237 0.24862044 0.13547915 0.05590561 -0.13803044 0.64381117 
PhotoViewAttacher 0.046375994 0.46706638 -0.6460712 0.19160905 -0.6983463 -0.54352504 -0.22035153 -0.10189086 -0.0468305 0.13700566 -0.2723062 -0.023369934 0.6557416 0.027192352 -0.0064843176 0.8144935 -0.2424891 -0.9923019 0.76705223 -0.023086028 0.5073253 0.04134966 0.045892794 -0.19937508 -0.33129862 -0.52872735 0.19455723 0.15128775 -0.54785854 -0.36655644 0.11993629 0.35329583 0.24021952 -0.6588993 0.2543708 -0.21309279 0.7636059 0.07092325 0.26208654 -0.027146017 0.104008056 -0.8385314 -0.009093003 -0.33990625 -0.07372828 0.9031352 0.01862683 0.22436912 -0.39336875 -0.62252355 -0.123667024 -0.69338506 0.2979445 -0.2230291 0.2466006 0.25462636 -0.46859595 0.0043727504 -0.20224506 0.32353824 -0.039987117 0.53431684 -0.4218625 -0.43348914 0.14172913 -0.7738407 0.8485308 -0.6346488 0.07148888 0.54414564 0.5871009 -0.09882567 -0.15468507 0.007170592 0.14723596 0.35472387 0.32999927 -0.13716021 0.6192274 0.76919717 -0.8794526 0.13190675 -0.21877499 0.19093977 0.2855493 0.0058357017 0.08993432 -0.7268891 -0.089193985 0.33572826 0.4074641 0.21544343 -0.4445802 0.0038019868 0.013072334 0.055405155 0.25562543 -0.8504436 0.16262631 -0.37526375 -0.443348 -0.24310635 0.13878071 -0.087257735 0.11270672 -0.4715938 0.7490893 -0.21644787 0.13387199 -0.0490043 -0.021749496 -0.39339995 0.48928267 -0.028860347 0.38015607 0.5757742 -0.14555635 -0.13100983 0.13372722 0.024226418 -0.17930378 -0.26413688 0.022264834 0.22586806 0.19005701 0.05288709 -0.1552289 0.6472196 
Fragment -0.10105865 0.26288253 -0.19807723 0.10168334 0.39094618 -0.3593877 -0.23167029 -0.37783048 -0.14512166 0.020919023 -0.3410655 -0.4712617 -0.101250514 0.33125997 -0.24178278 0.5876209 0.13764769 -0.17417622 0.26346353 0.025804203 0.82719105 0.35257736 -0.08307688 -0.5303808 -0.44294778 -0.54874223 -0.115376964 -0.46118173 -0.19582647 -0.47709927 0.1967825 -0.22402988 0.23944762 0.50492024 -0.07558272 -0.1366656 0.14683637 0.14629877 0.20599394 0.3620285 0.024791917 -0.2065283 0.006002761 0.043611255 0.03720212 0.9651405 0.12894014 0.5432276 0.1059958 -0.3053908 -0.38141665 -0.3677633 0.059879113 -0.0009670483 -0.14157614 -0.052157387 0.01689879 0.18082328 0.27944043 0.1594453 -0.13178182 0.36692956 0.35173944 -0.4642589 -0.11804446 -0.88936436 0.63501453 -0.120707415 0.4826228 0.72549176 0.42735887 0.21709588 -0.08396079 -0.033259913 -0.023263214 0.12880877 0.00856956 -0.15748839 0.74011916 0.33028206 -0.42437407 0.51861066 0.11422902 0.0978255 0.22360697 -0.40310678 0.013672391 -0.034787137 0.4306794 0.4484941 -0.27237236 -0.28073582 -0.425078 -0.037408654 0.14182137 0.12866732 0.17935526 -0.43481848 -0.046012223 -0.452359 -0.32390174 0.0012020409 -0.18611346 0.08832137 0.00020334526 -0.56544715 0.36690235 -0.118523404 -0.26404402 0.08767095 0.4871559 0.2585851 0.37251872 -0.112345695 0.08468399 0.95045686 -0.35783994 -0.017141124 -0.36808178 -0.16524269 -0.35359183 -0.78496194 -0.041166294 -0.29229638 0.3105065 0.20309606 0.024918634 0.03753344 
ListT 0.28175297 0.43068954 0.123169206 -0.006863595 -0.1380628 -0.52698183 -0.32207224 -0.02027319 0.007893383 0.4850579 -0.018372022 -0.29005173 -0.6175828 -0.41523352 -0.29838258 0.15867177 -0.49866176 -0.92197317 -0.7249718 -0.38696578 0.35190564 0.2007312 -0.08223073 0.59228295 -0.007500925 -0.7390961 -0.14145401 -0.36646953 -0.7887606 0.012494735 0.16959172 0.13803338 0.5536938 -0.49210298 0.04695293 0.5384075 0.20426983 -0.3538661 -0.5428135 -0.2690828 0.39335647 -0.4245461 0.21334523 -0.6473992 -0.5817857 -0.40720242 -0.52152306 0.12795635 -0.4833826 0.067281015 0.2927623 0.2879548 0.58769757 0.050718855 0.12837136 0.27091214 0.40393606 0.28233635 0.26140487 0.34948874 0.27519748 -0.31458887 -0.49233776 0.16912101 0.33296213 -0.26450813 0.22153488 -0.48308882 0.1414071 0.21967338 0.49399 0.034513827 0.27057424 -0.17164142 0.12859093 0.24433173 -0.120064385 -0.16338563 0.36066356 -0.0059353425 -0.38322896 0.39921302 0.087015726 0.13046047 -0.51852643 0.035308376 0.32164356 0.2914677 0.41336757 -0.1375982 0.67650723 -0.4798567 0.051332764 0.053808507 0.0059527433 -0.33054024 0.118350886 -0.3524128 0.3180819 0.096344024 -0.2373823 0.42019832 0.28282112 0.031163385 0.2247571 -0.011773249 0.42925662 -0.2967685 0.73365027 -0.2822913 -0.3342426 -0.31275827 0.3860633 -0.49952614 0.38179365 0.22232372 -0.3639877 -0.057753325 -0.23663986 0.6617994 -0.06979339 0.35614243 -0.26575634 0.21047989 0.18813944 -0.16222012 -0.034350935 -0.17381331 
ListString 0.3179004 0.47823367 0.13773023 0.0109676495 -0.11818093 -0.562696 -0.29257578 -0.020029947 -0.016084231 0.43343583 -0.016485456 -0.2658278 -0.60268515 -0.45510504 -0.2890422 0.14246142 -0.5078252 -0.98477995 -0.767379 -0.44113976 0.3127059 0.25675926 -0.08628769 0.64558715 -0.09096299 -0.71194947 -0.14949892 -0.38919228 -0.8117795 0.0050479993 0.19443466 0.11654523 0.5929119 -0.486339 0.054622136 0.5021447 0.18095997 -0.35796764 -0.56682277 -0.29022726 0.4064675 -0.4816264 0.19134256 -0.66498935 -0.5988024 -0.42221478 -0.453243 0.14077535 -0.4956858 0.0707142 0.30174917 0.28439012 0.6015781 0.006187885 0.07038911 0.23308368 0.40037036 0.22768332 0.22439785 0.36720374 0.23616855 -0.28220746 -0.50404805 0.16846284 0.31448606 -0.2838958 0.26676816 -0.4809799 0.09265542 0.22932522 0.49302527 0.084814124 0.3071688 -0.1415832 0.13144419 0.20845197 -0.10448065 -0.09801797 0.36815715 0.047672678 -0.3971395 0.38168448 0.09731244 0.13153313 -0.5174348 0.044787087 0.3033443 0.25221977 0.378107 -0.16078547 0.696457 -0.44951168 0.07678504 0.035630003 -0.040598273 -0.29124644 0.062179767 -0.39159936 0.28275046 0.0780538 -0.29402414 0.4094143 0.27629557 0.011094312 0.24537961 0.045035426 0.40252572 -0.28676283 0.7990256 -0.2700917 -0.32851973 -0.34345806 0.41047117 -0.5020136 0.40889004 0.19129011 -0.37950814 -0.07325351 -0.20510036 0.68212926 -0.0486918 0.33024156 -0.24577332 0.19048855 0.17689611 -0.18828338 -0.057416406 -0.13242003 
FragmentStatePagerAdapter 0.31886727 0.44969973 0.15348923 0.024024496 -0.116504125 -0.50838655 -0.32184884 -0.0010327953 -0.0075572804 0.47590598 -0.032749493 -0.29676467 -0.60298765 -0.41068667 -0.28968683 0.17414849 -0.5193086 -0.934689 -0.76933974 -0.38971838 0.32954952 0.2381717 -0.08122602 0.5945297 -0.032786194 -0.7012398 -0.11224646 -0.3737599 -0.78070986 0.005363077 0.19250204 0.11726552 0.5931683 -0.4749218 0.02342383 0.4961055 0.21837956 -0.39219302 -0.56589156 -0.28331867 0.36396357 -0.45686582 0.2058837 -0.6570687 -0.5824683 -0.4289901 -0.5135081 0.1584707 -0.46413842 0.10813692 0.30357316 0.27661598 0.6043688 0.043650355 0.09227665 0.26987207 0.41166586 0.2617336 0.26481616 0.35435453 0.25533015 -0.31887338 -0.48026246 0.16005653 0.32110077 -0.257357 0.23819199 -0.47955397 0.14131297 0.21172725 0.47507295 0.020002758 0.29758748 -0.13747343 0.12949821 0.2253257 -0.10544408 -0.13629478 0.36642236 -0.013677968 -0.3802504 0.37435672 0.11601213 0.111468874 -0.50114924 0.008496089 0.31871057 0.26714027 0.40176207 -0.15021448 0.69909275 -0.46071675 0.049540903 0.029369632 -0.0091368295 -0.30833584 0.07876405 -0.37364706 0.27309734 0.073443934 -0.26590976 0.3869082 0.26751342 0.018849544 0.23551132 0.012868942 0.4263804 -0.29426083 0.7295087 -0.2617679 -0.33262372 -0.31922418 0.3822015 -0.4896915 0.38039175 0.23102957 -0.37856817 -0.08010164 -0.20832893 0.6708613 -0.058797583 0.36123425 -0.28418487 0.18854733 0.17905074 -0.18339583 -0.04503136 -0.16816497 
RealmObject -0.3637733 0.93318766 -0.36513785 0.25439095 -0.521274 -0.5439088 -0.14252158 0.29543975 0.61776435 -0.09841002 -0.4299873 -0.1362876 -0.47802436 0.5279754 -0.9213439 -0.13550693 -0.20091619 -0.87558144 -0.14845386 -0.29388502 0.7904277 0.21170908 -0.013987152 -0.5465184 0.16406438 -0.71024996 0.31777135 -0.36685354 -0.51296145 0.35701686 -0.034573887 0.21785484 0.09136052 0.059764385 0.06734029 0.23415479 0.077596076 0.27359742 0.110220104 -0.34652928 -0.23673566 -0.72757334 0.4015128 -0.23144144 -0.05454644 0.057450287 -0.2391965 -0.12214134 -0.81667095 -1.0814527 0.07331506 -0.27683008 0.103292234 -0.2884421 -0.17036487 -0.007671471 0.34055847 -0.44677305 -0.3713561 -0.24029608 -1.1312412 0.23110677 -0.8854788 -0.31951138 -0.12301865 -0.73342705 0.2570582 0.35844976 0.37681845 0.93191636 -0.37319157 0.120034866 0.015773783 -0.079429194 0.31096154 -1.1231254 -0.32897404 -0.2389831 0.3329365 0.4412324 -0.68747556 0.8219039 -0.2932553 0.5691313 -0.7807532 0.86010057 0.12027936 -0.13656354 0.19438419 -0.055626687 0.27436364 -0.119283944 -0.4514052 -0.22123115 0.11761145 0.49147293 -0.042109206 -0.16696176 0.258366 0.12731636 0.15211713 0.26015708 0.5651596 0.2346276 0.53513014 -0.50532466 0.7615021 -0.05409928 -0.021460613 -0.08610552 -0.21435307 0.06600414 0.075166084 0.24930154 0.37695473 0.32276154 -1.0539933 -0.48469993 -0.18737794 0.14253587 -0.347018 -0.5397308 1.1102474 0.004179413 -0.7021248 -0.062123578 -0.5190327 0.41931278 
com.spark.meizi.meizi.entity.MeiziRealmEntity -0.22207877 0.08662528 -0.1718008 0.4183884 -0.3322358 -0.4065783 -0.40201634 0.23839198 0.20063132 0.04091482 -0.3438612 0.18711933 -0.29035205 0.4788759 -0.030580286 -0.35543913 -0.0860692 -0.6546943 -0.3565432 0.045342196 0.20687233 0.18727721 0.26579523 0.30139282 0.30985594 -0.2687995 -0.21756804 0.08888576 -0.6801753 0.33919483 0.43761903 0.16658768 -0.15846463 -0.13152757 -0.42345342 0.53064334 -0.6874455 -0.23251337 0.20189211 -0.29858357 -0.15449785 -0.6733169 0.6348249 0.16895315 0.20407379 -0.8517912 -0.7171223 -0.33346438 -0.61432314 -0.85272264 0.35091728 0.11943124 -0.17015742 0.16491354 -0.6119562 0.5653611 -0.19058031 -0.65887713 0.19950904 -0.048902582 -0.9889943 0.428587 -1.0440307 0.37380356 0.018306391 -0.11103761 -0.5422273 0.50096834 -0.35962716 0.16427946 0.083909206 0.18922308 -0.27678213 -0.42137668 0.017778818 -0.39387086 -0.18316437 0.35399905 0.12554877 -0.5094797 -0.44368732 0.80726194 -0.7448282 -0.060671963 -0.56917495 0.5013479 0.14798646 0.04896453 -0.23379299 -0.101063676 -0.13148151 -0.53760165 -0.24830744 0.22948106 0.6587123 0.6603273 0.18088388 -0.715027 0.5890382 0.48389456 -0.12822695 -0.098369464 0.9631035 0.114809655 0.54594904 -0.20746543 0.4312234 -0.04365435 0.068724185 -0.41083413 -0.3498777 0.10683126 -0.029397555 0.22517018 0.8050916 -0.015773974 -0.7905847 -0.82542646 -0.23545842 0.29777724 -0.22578831 0.35518503 0.9134897 -0.045984764 -0.5694431 0.3975507 -0.48175028 -0.029068137 
com.spark.meizi.meizi.MeiziPresenter -0.43865994 -0.17867872 0.31033778 -0.0399099 0.24046138 -0.045562804 -0.273775 0.41823095 0.28652602 0.36190185 0.56707454 -0.02560811 -0.1713141 0.15437739 0.019624423 0.4254146 0.26127213 -0.055213116 0.1623332 -0.27664435 0.41040722 0.20802924 0.014229715 -0.0057635657 -0.12922546 0.05776105 -0.18004121 0.43228915 -0.22335993 -0.036286358 -0.14582019 -0.23889692 -0.18059158 0.010695007 -0.19513763 0.47820726 -0.013988136 -0.055096895 0.8588677 -0.685771 -0.27424073 -0.12132605 -0.10406248 -0.1740114 0.10655399 -0.23290966 -0.15182929 0.19931407 -0.1289645 -0.024490418 0.10971826 0.071818806 -0.3022712 -0.4247925 -0.13575579 0.27131984 -0.2792163 -0.36399168 0.062393207 0.0075917495 0.2631492 -0.2621327 -0.32461205 0.008600185 -0.5590775 -0.63253886 0.6592342 -0.10494132 0.25795323 0.10536481 -0.09209641 0.43918645 -0.040077295 0.020562965 0.010255659 -0.37053937 0.12390824 0.31591263 0.6378003 0.24139012 -0.5988781 0.4112787 0.20131816 0.3528007 -0.4833811 0.6594408 0.149555 0.73400337 -0.10248893 -0.34566167 0.44276538 0.10905622 -0.24279684 0.38366982 -0.26518235 -0.41528478 0.35891142 0.011994684 0.45672417 -0.019931387 -0.037959505 0.47814798 0.41976076 0.24485624 0.11506851 -0.10305886 0.40014392 -0.6833133 0.53258246 -0.2844962 -0.32563242 -0.47203687 0.09187001 0.38109708 0.44798666 0.08499441 -0.31672314 -0.15543374 -0.21502464 0.25513786 -0.08584941 -0.4418783 0.67839146 0.09418943 -0.15759575 0.24387738 -0.016368303 0.48958457 
ImageView -0.34598643 0.15227844 -0.16982277 0.20846115 -0.18264791 -0.051162183 0.3670866 -0.116208024 0.09577261 0.484961 0.20253277 0.33231685 0.10874506 -0.13877726 0.011260421 0.4354599 0.17699264 0.34638596 0.3450858 -0.043552827 0.35134792 0.19981582 -0.5940018 -0.21026962 0.4799145 -0.3639651 -0.53356266 -0.68712425 -0.1543803 -0.36526713 0.31487554 0.020332484 0.49332833 -0.04374699 -0.019352267 0.090564795 0.4093718 0.07409163 -0.020606877 -0.000411143 -0.19562508 -0.41536838 0.35678905 0.09768924 -0.21503705 0.414928 0.55469763 0.34163243 -0.408149 -0.82068664 -0.41606045 -0.54816264 0.38793138 -0.06577234 -0.085822 0.2675935 0.002451318 0.38461643 -0.033108015 -0.12765849 -0.21304366 0.05008209 -0.59009 0.013312178 -0.38580596 -0.529166 0.45974955 -0.3759247 0.14094248 0.07174147 0.32995853 -0.058857344 -0.7723072 0.040098235 0.25705677 0.08510089 -0.14039159 0.07808985 0.2063095 0.504873 -0.9523858 0.46040413 -0.20432775 0.10752105 0.21638294 0.4714096 0.48073837 -0.7083837 -0.1931885 0.28465107 -0.23887818 -0.115604006 -0.6049215 0.12613727 0.0448955 -0.14426306 0.78073245 0.27261347 0.36804223 0.19890577 -0.4883178 0.25554946 0.05090382 0.2475127 0.8835938 -0.57895833 -0.24016048 -0.4606567 -0.48046142 -0.54926175 0.15216875 0.1217499 0.5995074 0.08126076 0.3999768 0.35570225 -0.17868407 -0.27569276 -0.27736673 0.19705118 -0.4363106 -0.18451467 -0.3147112 -0.15082842 0.12053268 0.60434526 -0.3339686 0.0113282185 
com.spark.meizi.widget.ScaleImageView -0.16908136 -0.13404833 -0.26020047 0.18790226 -0.48805967 0.38809577 0.14538923 0.23089227 -0.29168087 0.40278018 0.23699422 0.09370466 -0.26470673 0.020044666 0.017343702 0.05285815 -0.3647427 0.2597439 -0.33438823 0.31006196 -0.050789896 0.2717563 -0.5496338 -0.068937786 0.45874554 0.07057989 -0.61194 -0.22916561 -0.4990477 -0.20702566 0.05062918 0.1525982 0.42541945 0.075722836 0.027827593 0.26124066 0.044964783 -0.0016480337 -0.2713447 -0.3859651 -0.0879532 -0.66399205 0.30522832 -0.17737705 0.106727414 0.027553283 0.31135622 0.28064036 -0.56675273 -0.8223593 0.008583776 -0.20198059 0.26678187 0.2332849 -0.031222558 0.24634212 -0.38420936 0.17282031 0.1361612 0.14584634 -0.5179502 0.0944881 -0.4934502 0.06055088 -0.39697346 -0.65101045 0.17490478 -0.024150603 0.0050415103 -0.1184856 0.36450422 -0.33301744 -0.98382515 -0.3246736 0.13413447 -0.19534534 0.2240203 0.5158285 -0.21322356 0.0028136317 -0.8138334 0.28793362 -0.24249963 -0.17167093 0.15706111 0.3613689 0.5349824 -0.8058185 -0.13539244 -0.12555724 -0.35214588 -0.17202136 -0.068500035 0.22795635 0.047202777 -0.25741348 0.2337923 -0.25836486 0.3970289 0.38426667 -0.5308536 -0.075662546 0.20742498 0.32313558 0.7118355 -0.06323145 -0.22790623 -0.12480095 -0.26262796 -0.6012709 -0.21148211 -0.03812775 0.3451618 -0.14860715 0.4200036 0.1951387 -0.14404325 -0.08319913 -0.079854675 -0.30901384 -0.5529491 -0.052410074 0.10302951 -0.0832033 0.0068478943 0.4681671 0.06884498 0.12358813 
com.spark.meizi.meizi.MeiziAdapter.MeiziViewHolder -0.14800109 0.0010434688 -0.039314803 0.1732952 -0.48528486 0.3144591 0.06786763 0.28851402 -0.2878376 0.39050722 0.14278843 0.29767433 -0.19515063 -0.031066163 0.1357434 0.3205917 -0.37840745 0.29125938 -0.2131762 0.19048297 -0.17926224 0.41086826 -0.5708896 -0.08726105 0.43978363 -0.17129989 -0.5717281 -0.34408385 -0.31892058 -0.06175514 0.0029819098 0.024353022 0.5608037 -0.16828361 -0.16033317 0.27378565 0.34538066 -0.024206975 -0.2303555 -0.432426 -0.21023451 -0.47244486 0.23835093 0.027903976 -0.1643689 0.02531262 0.29972535 0.5312457 -0.656977 -0.60462695 0.1450376 -0.28721404 0.39661825 0.1837142 0.0743048 0.06083056 -0.23432781 0.3343834 0.2450611 0.038253464 -0.34034726 -0.18126059 -0.62239873 0.08210018 -0.3529498 -0.56752264 0.1948778 -0.34141907 0.15663786 -0.18186113 0.3727933 -0.5263863 -0.908149 -0.10650317 0.10181154 -0.31730524 0.32414445 0.46109632 -0.21763913 0.052241385 -0.7984412 0.27604678 -0.08142561 -0.36930084 -0.12165031 0.5840182 0.56170106 -0.6728397 -0.031988464 -0.09831774 -0.13643585 -0.1599029 -0.056510855 0.19422282 0.06376281 -0.2002277 0.44679964 -0.09056767 0.4491905 0.31873918 -0.3126636 -0.044128817 0.10148084 0.2164001 0.64057064 -0.024832934 0.0040831533 -0.177525 -0.44720516 -0.51521707 -0.2662964 -0.2474403 0.28084925 -0.06815627 0.2679905 0.44287032 -0.13547742 0.03788136 0.12171822 -0.1454076 -0.5278293 0.020338636 -0.09994541 0.15971027 0.075913005 0.4621495 0.027432997 0.2724671 
ViewHolder 0.9744311 -0.3848516 0.27728608 0.9803824 -0.4212122 -0.5852584 -0.9385261 0.6462418 -0.09116592 0.59031516 -0.060148146 0.6063146 -0.816537 0.12314162 0.31738806 -0.8005589 -0.9572693 -1.3759626 -1.320641 1.2619363 0.558063 -0.023897063 -0.112749085 0.26983735 -0.5880721 0.030745946 0.060831983 -0.23270029 -0.23566994 1.067353 -0.043048833 0.16307336 -0.536149 -0.65106833 0.48902822 0.5654573 0.38659537 -0.054652303 -0.7085529 -0.3867776 0.56695896 -0.30767706 0.12162491 -0.3761631 0.3000038 -1.3330451 -0.51982176 -0.47502208 0.17157166 -0.10435997 1.4194695 0.7796861 1.287428 0.16268371 0.5398492 -0.36782056 -1.4710087 0.2130533 0.2917269 -0.22387001 0.0037570759 -0.2771332 -0.2282144 -0.33276576 -0.70502293 -1.0936997 -0.59690505 -0.1608181 -0.1709973 0.62044936 0.3859564 -0.5484874 -1.1636044 0.054854907 -0.43905014 0.4187649 0.57023877 1.2034363 0.5444652 -1.0357997 0.0680605 -0.3021947 -0.7760191 -0.7192624 0.27999496 -0.35546076 -0.109602705 -0.12900716 -0.08163199 -0.5055637 0.5236114 -0.21637313 0.23798925 -0.5546542 -0.1589624 -0.2527804 -1.4536455 -0.95016617 -0.7605971 0.28911486 -1.1882361 -1.1066597 0.3637076 -1.8102529 0.15886977 -0.010903153 0.652801 -0.02956038 0.5495461 -0.42399964 -1.7124809 0.51738566 0.865852 -0.077424265 0.22563644 -0.368758 0.09010885 0.68116736 0.51432693 -0.03316358 0.49962822 -1.2397528 1.3789965 0.051087692 0.22389731 -0.31080317 -0.20164023 -0.27534574 
com.spark.meizi.base.listener.BaseRecyclerAdapterD,VHextendsBaseRecyclerAdapter.BaseViewHolderD.BaseViewHolderD 1.1865226 -0.8020519 -0.71954894 0.5924427 -0.13786623 -0.67605716 -1.0915579 0.051574733 -0.10953354 1.1802676 0.91112876 0.77452844 0.15370436 -0.343102 0.26514915 -0.007824191 -0.7501868 -0.71310353 0.01330127 1.4173387 0.22734721 -0.60837585 0.20617734 0.9534083 -0.9681143 0.3531767 0.598982 0.3423367 -0.29229277 0.60703325 -0.26397577 0.10413703 -0.37026006 -1.0206716 0.402736 -0.15809365 0.9913875 -0.17716637 0.6898472 -0.61377275 -0.4206371 -0.34751943 0.5998179 -0.115103014 0.19826452 -0.46103397 -0.52685034 -1.22606 0.101685055 0.3260184 1.1026918 0.35546494 0.102718666 0.15289794 0.74822706 0.20497048 -1.7502956 -0.557956 0.48449492 0.08677877 1.1278063 -0.70193607 -0.21210326 -0.7313007 -0.3537084 -0.7785617 0.41464293 -1.1898515 -0.73518705 0.8622573 0.89743376 -0.17236462 -0.5666551 0.98642534 -0.3206522 0.86197776 0.70983416 0.45101514 1.3023883 -0.591268 -0.67937183 -0.14400005 -1.2390534 0.25695768 1.2336322 0.4678136 -0.61439735 -0.19730565 -0.8948196 -0.22303152 0.7616506 0.3659061 -0.40351778 0.29969534 0.17408417 -0.6521108 -1.2261276 -0.51946056 -0.4936238 -0.3708716 -1.1928887 -0.27464664 0.41107962 -1.9426326 -0.3018694 -0.19037107 0.5512213 -0.5241034 0.30759618 -0.04957319 -1.2064654 -0.08172999 0.8473767 0.62555385 0.8695955 -0.40978673 0.26659846 -0.32124728 -0.07236008 0.059706185 0.8446587 -1.1208955 0.91839135 -0.22808841 0.5885897 0.07418955 -0.45511177 -0.027563622 
com.spark.meizi.utils.ActivityUtil -0.060559157 0.15457259 -0.37666816 0.21850853 -0.9717286 -0.08314081 -0.038862396 0.019637885 -0.15937483 0.09078902 -0.20592958 -0.112950586 -0.5538628 -0.3324211 0.063714236 -0.3096114 -0.13380496 0.13600905 -0.35621867 0.02143233 0.36716133 -0.13380411 -0.48935646 -0.055599175 0.06261749 0.11623664 -0.15232795 -0.13001281 -0.028530492 -0.05023252 0.21732341 0.17706192 0.13260381 0.008622426 0.055947125 0.085598044 0.6332986 -0.24028374 -0.09464935 -0.61017615 0.3606045 0.051438536 0.37982044 -0.329863 0.1566963 -0.12597868 -0.22438426 -0.32752806 -0.25943658 -0.6832996 0.12814432 -0.26562545 0.33936745 0.56187236 0.29503903 -0.064323865 0.13208501 -0.117583126 0.22246878 0.0033537415 0.08459582 -0.13341196 0.038641132 -0.2068577 -0.15636739 -0.73722184 -0.020799376 -0.72329587 0.2191717 0.10056815 0.1065166 -0.4968888 -0.2652784 0.08887173 0.5023714 0.107610695 0.2654306 -0.14809996 0.13143413 -0.024518454 -0.46793258 0.18558076 -0.5816135 0.22684638 0.23348622 0.6274057 0.18108232 -0.24585679 -0.4135813 -0.0691699 -0.27597746 0.14994109 -0.1972773 0.14877665 0.19415492 0.46594474 -0.3417197 0.28805652 -0.39284927 0.62984776 -1.0201863 0.23693529 -0.0074129384 -0.05344677 0.4536649 -0.32116926 0.3634779 0.26751643 -0.41333866 -0.8039779 -0.22963464 -0.32445407 0.6014134 -0.18218158 0.26946208 -0.12341789 0.1277896 -0.19102032 0.001190985 0.15880625 -0.32683104 0.19975112 -0.09330688 0.041326996 0.2716459 0.28693855 -0.48811197 -0.39008835 
com.spark.meizi.utils.ActivityUtil.startActivityForResult -0.47960523 -0.22411057 -0.19547401 0.2492261 -0.6422059 0.029733853 -0.10604106 -0.2315008 -0.29197657 0.25474125 -0.12361948 0.27436447 -0.88753545 -0.12311606 -0.5795905 -0.17634492 0.13755476 0.36722568 -0.28373888 -0.14828143 0.31059813 -0.0056414786 -0.42824295 0.20871682 0.47086462 0.17199051 0.095121995 -0.27176157 -0.2701723 -0.012447908 0.12529173 0.65402716 0.5779449 0.051330786 -0.07624968 0.20546646 0.4361479 0.24126473 -0.3511261 -0.39310578 -0.1260993 -0.08802725 0.73001844 -0.54537815 -0.3486523 -0.28530025 0.11184903 -0.055500466 -0.15792179 -0.17629875 0.33645552 -0.13086918 0.45924667 0.5877873 0.6767135 0.035877585 0.33102435 0.25611627 0.23995088 0.01558879 -0.31765738 -0.31976905 -0.054355502 0.10453391 -0.22060405 -0.69169015 0.2841455 -0.3285242 0.31113297 0.41419265 -0.2438385 0.07571342 -0.94955623 -0.099731 0.04753233 0.37541744 -0.1463478 -0.029495502 0.4431422 -0.35833082 -0.26322675 0.42588192 -0.24301134 0.25349426 0.39206743 0.40343365 -0.01989702 -0.1943811 -0.22110467 0.04350347 -0.06661095 -0.00029604085 -0.2750862 -0.15594116 0.21608996 -0.28421894 -0.16992012 0.45011476 -0.06173478 0.52161807 -0.33911917 0.2592616 0.06283209 -0.13296211 0.5953929 0.35504097 0.17427702 0.06726992 -0.23697942 -0.8714325 -0.72052664 -0.5592574 0.348916 -0.06313694 -0.039946966 0.03172056 -0.041309673 -0.34803447 0.02586814 0.63747686 -0.3611676 -0.31285965 0.550328 -0.12466414 0.17673847 0.38791496 -0.7106658 -0.12903997 
com.spark.meizi.home.HomeActivity -0.01904689 -0.03635167 -0.3039588 0.2924125 -0.41399392 -0.38702777 -0.08662774 0.58474797 0.32483676 -0.004334851 0.100221805 -0.010052376 0.067412116 -0.46718547 -0.0956438 -0.45424083 -0.32011172 -0.18075672 -0.20350878 0.1880803 0.14720915 -0.119327515 0.039399754 0.29935396 0.24645896 0.10297121 -0.55793285 -0.39168736 -0.38523614 0.2718182 -0.13765234 0.2651215 0.12874664 0.029193617 0.13793008 0.57592916 0.777729 -0.32548118 -0.40184012 -0.5750293 0.3049938 -0.22977492 0.13824037 0.15972559 0.14708307 0.3870417 0.27858785 -0.092233025 -0.2697019 -0.34585807 0.6758921 -0.30334148 0.3249074 0.3102728 0.1484787 -0.02247373 -0.2632789 -0.04792814 0.23349181 -0.5007922 -0.0573089 -0.40927914 0.09716942 0.022590091 -0.40494907 -0.47596636 -0.090035975 -0.41518515 0.029459361 -0.2302944 0.06369597 -0.11317013 -0.41491196 0.35648552 0.16210502 -0.013896795 0.00443539 -0.17201397 -0.20186265 -0.119097896 -0.60706127 0.14560953 -0.75982577 0.51282936 0.42412332 0.29890335 0.012987574 -0.22863609 0.1453 -0.03207451 -0.03304354 0.045232676 0.36597574 -0.35743302 -0.040983204 -0.19445474 -0.2514845 0.3736859 -0.5020204 0.5509337 -0.72605866 0.02335274 -0.394377 0.028336922 0.3058048 -0.084936336 -0.11493459 0.10528187 -0.70859253 -0.81352764 -0.19597442 -0.5132809 0.22565943 0.26217017 0.1945426 -0.18057646 -0.19573165 -0.24428299 0.4783552 0.103902824 0.07440511 -0.2648667 0.21020222 0.69527864 0.5973679 0.32000205 -0.6102482 0.27791762 
com.spark.meizi.utils.DoubleClickUtil.isFastDoubleClick 0.06354372 0.24803765 -0.6139446 -0.09507085 -0.6044174 -0.57617027 0.079339206 -0.4144682 -0.05932585 0.17825952 -0.26959178 0.046253756 -0.3221929 -0.18430631 -0.34284306 -0.15279329 -0.36413646 -0.30127823 -0.13287446 -0.09076666 0.47715142 -0.1670136 -0.7132051 0.265676 -0.21923208 0.067212224 -0.09589038 -0.4526877 -0.16224067 0.12731212 0.33898565 0.19228832 0.17285529 -0.022541245 0.5716441 0.33517492 0.7038792 0.07122958 -0.40502158 -0.505437 0.06605674 -0.64287 -0.01982811 -0.16328418 -0.14071055 -0.2888104 0.16798969 -0.18603101 -0.1065261 -0.54150486 0.5026189 -0.06887187 0.41154417 0.08933095 0.66456574 0.024982316 -0.12039858 0.23770158 -0.07389783 -0.2703395 0.19253404 -0.34763512 -0.2950213 -0.41254452 -0.4875362 -0.40271252 0.18808267 -0.411549 0.028882353 0.06380873 0.16332991 0.12611672 -0.8389261 -0.05184885 0.50955683 -0.21010232 0.29296032 0.1138653 0.120034836 -0.09096735 -0.7935624 0.24674073 -0.5672337 0.13398708 0.51050645 0.66959965 -0.19371372 -0.1924901 -0.34599555 -0.13857621 0.22331983 0.47571307 -0.0073227324 -0.31995413 -0.22924979 0.12384316 -0.29271698 0.41564286 -0.15262625 0.54742473 -0.7819619 -0.19311811 0.23462589 -0.33298516 0.6097439 -0.3549413 0.12928855 0.1481761 -0.4249598 -0.5711282 -0.26254603 -0.2967455 0.64786845 -0.060514215 -0.048897646 0.15362743 0.05515993 -0.37497 0.011915015 -0.23278224 0.11506967 -0.44905046 0.4973572 -0.0086888 0.33692586 0.11453173 -0.27978626 -0.28075865 
com.spark.meizi.utils.DoubleClickUtil -0.47969654 -0.13187554 -0.18513058 0.21710166 -0.68119603 0.02781098 -0.08431656 -0.16674893 -0.18814 0.27612013 0.0036911385 0.2818927 -0.91521186 -0.16352597 -0.53093445 -0.17178546 0.13263671 0.51152325 -0.37240568 -0.08676219 0.22480081 -0.0594751 -0.48539793 0.15029986 0.5189648 0.12691268 0.120212406 -0.2804634 -0.15433094 -0.026825065 0.09448551 0.5268369 0.5340246 0.17886245 -0.11365671 0.18664102 0.49252772 0.11227662 -0.40241495 -0.40970078 -0.2824918 -0.093189284 0.7047987 -0.6145882 -0.38546368 -0.44370592 0.0025975257 -0.063105196 -0.19620813 -0.13667952 0.3685533 -0.15773694 0.4700431 0.5533455 0.6458379 0.017480826 0.39290905 0.13287279 0.32082173 -0.038590387 -0.25719142 -0.37578565 -0.018362306 0.15107547 -0.3477823 -0.7645563 0.27579272 -0.3788165 0.2739194 0.3441624 -0.23044826 0.00014147584 -0.96372455 0.020880748 -0.05472457 0.39907658 -0.13070782 -0.029996064 0.48192 -0.38574073 -0.32166705 0.3369583 -0.28998977 0.28338572 0.41429153 0.39321333 0.030407028 -0.14915441 -0.12635168 0.029947812 -0.03202942 -0.025858056 -0.36420605 -0.17940137 0.18545994 -0.32091096 -0.22826894 0.57133776 -0.11159546 0.5211671 -0.44104445 0.2372365 0.077034645 -0.2106846 0.63127905 0.3751215 0.06353518 -0.058381665 -0.21591966 -0.8748673 -0.7422598 -0.3934142 0.36057726 -0.098959416 0.017889474 -0.061244965 -0.13135517 -0.3834684 -0.0053937696 0.6106563 -0.28130206 -0.3957898 0.5527132 -0.16680698 0.19868734 0.4885116 -0.7354112 -0.17254919 
com.spark.meizi.utils.ActivityUtil.startActivity -0.22881089 -0.35862553 -0.20629345 -0.15807961 -0.6357075 -0.28742006 -0.22924438 -0.10629512 0.12176243 0.1553409 -0.072133206 0.33214587 -0.8972942 -0.33907208 -0.20407745 -0.39036858 -0.095237635 -0.08501782 -0.23442768 -0.3021963 0.4822814 0.015367833 -0.24025857 0.6464524 0.16647166 0.21863538 0.046585243 -0.44998804 -0.3663929 0.22753593 0.39080483 0.4078656 0.49635175 0.100307345 0.18622038 0.20768565 0.3482797 0.07827762 -0.39638805 -0.28978753 0.06017869 -0.47159487 0.2803934 -0.19722442 -0.016612265 -0.38445404 -0.17568688 -0.1203607 0.06742572 -0.004393525 0.62190217 0.012802418 0.30880764 0.29553288 0.52303475 0.27397498 -0.18355367 0.1973228 0.0553042 -0.20921245 -0.2991719 -0.454571 -0.017169788 0.19972816 -0.637114 -0.30799097 0.26935905 -0.37194198 0.09723921 -0.0001899546 0.17570944 0.39012596 -0.71809185 0.17481926 0.055031285 0.31763405 -0.06230105 0.15487604 0.13136272 -0.2400066 -0.27500737 0.34689257 -0.27625415 0.4281381 0.48035708 0.48569304 -0.258449 0.17015006 -0.18854505 -0.11047176 0.2777764 -0.06796157 -0.4706353 -0.41587466 -0.0698804 -0.17609128 -0.04864308 0.7388736 -0.17972998 0.5171934 -0.6180803 -0.09183435 0.03541027 -0.021675529 0.43769324 0.14164913 -0.24505453 -0.18252495 -0.24218832 -0.9458214 -0.81279826 -0.4665932 0.19716272 0.063123375 -0.16700321 0.008499427 -0.071487635 -0.32317463 0.058128696 0.35872978 -0.29023442 -0.37282166 0.6252199 -0.20733625 0.107827835 0.30679747 -0.8527692 -0.39416194 
com.spark.meizi.meizi.MeiziPresenter.MeiziPresenter 0.11045757 0.07744475 0.6629555 0.28892168 0.31278244 0.22418007 -0.24857701 0.24679708 0.3936374 1.1096026 0.9374162 0.35577753 -0.4608508 0.2951917 -0.43724078 0.1679938 -0.013853426 -0.27716267 -0.0032800832 0.23296759 0.4334172 -0.20705894 -0.59206694 0.07587442 0.46322107 -0.29513094 -0.31287926 -0.36898404 -0.50265115 0.3930035 0.27570271 0.44319984 0.32784927 -0.588471 -0.18788356 0.28891215 -0.15255763 0.020293819 0.56015426 -0.32601053 -0.5573941 0.06271926 0.72158635 -0.37857342 -0.7085005 0.22262946 -0.7482511 0.27872235 -0.25792953 -0.76515555 -0.19404316 -0.21610321 0.22790411 0.1704197 -0.07300812 0.20325108 0.4214988 0.34014666 0.060639564 0.4901869 0.27698964 -0.8098001 -0.21965402 -0.052014563 -0.48558822 -0.001526445 0.47769707 -0.47235847 0.48526818 0.5866237 0.011590814 0.07530335 0.21784574 0.44872004 0.18678628 0.26687077 -0.45980182 -0.039770372 0.98103064 -0.31156152 -0.7402956 0.32312125 0.04067941 0.442568 0.40833843 0.6855495 0.5607357 0.031413365 -0.06276699 -0.009765932 0.17150335 0.14425302 -0.23074462 0.4193046 -0.0026725046 -0.49416322 0.46899635 -0.30818513 0.104424514 -0.41692725 -0.25090304 0.3745953 0.64883643 0.11727245 -0.09558968 -0.34574026 0.49071914 -0.4074669 0.24289621 0.008415365 -0.7955486 -0.19427973 0.42811054 0.26181173 0.5589496 0.0063682664 -0.16493107 -0.019198436 -0.5608745 0.86608016 -0.26163572 0.24982008 -0.50087726 -0.16277638 -0.06838661 -0.040464327 -0.35884324 -0.14045669 
com.spark.meizi.net.RequestFactory.createApi -0.32279375 0.19457135 0.78956765 0.09636056 0.183431 -0.41088808 -0.2006105 0.07411581 0.31008092 0.59759754 0.44287106 0.80910003 0.120969616 0.36072916 -0.50449795 0.5162068 0.036107756 -0.42569947 0.00782411 0.0744579 0.18064635 0.1517783 -0.2730779 -0.010947649 0.24805975 -0.31011918 -0.00026912452 -0.3315779 -0.11046217 -0.1642362 0.78149205 0.3642931 0.4481563 -0.07162779 -0.29603782 0.14558408 -0.12827954 -0.5261536 0.80846447 -0.021224478 -0.4013202 -0.054927025 0.23055539 -0.5258998 -0.53785276 0.31081906 -0.6189058 0.18119305 0.18394355 -0.37411636 -0.4409226 -0.37046614 -0.049708106 0.3020851 0.07950643 -0.06003539 0.534857 0.23448732 0.25644052 0.16541064 0.29199648 -0.03232479 -0.065987095 0.09783722 -0.58856213 -0.30683863 0.6209738 -0.39184102 -0.21796048 0.2611864 0.51514286 0.049527142 -0.02285961 0.5546789 -0.080910735 0.9247576 -0.025594816 0.4005101 1.0681704 -0.01257691 -1.0963751 0.37244064 -0.6518382 0.31623465 -0.22604963 0.4591974 0.53835917 0.27445692 -0.64286673 0.31200185 0.17835335 -0.13522893 -0.6624903 0.49539673 0.080231905 -0.26402068 0.29138044 0.06738406 0.31741795 -0.40528536 -0.5835788 0.0056551686 0.50479686 -0.16733746 0.5811729 -0.40328386 0.2990026 -0.5525692 0.8208367 -0.14839043 -0.6161611 0.56047237 0.2767892 0.08784659 1.2728686 -0.09732498 -0.30658168 -0.07383373 -0.29682422 0.90297407 -0.30060962 0.08706805 -0.07356633 -0.09189917 -0.28492767 0.4985137 -0.6215977 -0.13006613 
com.spark.meizi.net.RequestFactory 0.19122824 0.089286 0.6967013 0.121217325 0.6657425 0.1972657 -0.010200153 -0.1752115 0.28058276 0.8174046 0.83882624 0.4908098 -0.4146389 -0.010461252 -0.59103346 0.1713413 0.27743074 0.037185457 -0.21006797 0.22291315 0.5420491 -0.029290354 -0.6019131 0.010852925 -0.15668875 -0.3441343 -0.3297798 -0.17313054 -0.13095249 0.09757987 0.071652025 0.30010355 0.25758046 -0.050956056 -0.18688697 0.43270984 -0.15188035 0.066259675 0.6269606 -0.32004365 -0.4877603 0.2457093 0.39302623 -0.50977445 -0.4263758 0.27679658 -0.40697643 -0.04964493 0.26224175 -0.3623989 -0.582066 -0.03790325 0.025232604 0.21940078 -0.3329786 0.34187093 -0.29926372 -0.3077765 0.35692397 0.18698044 0.09953885 -0.48842287 -0.07279726 -0.14816856 -0.55112594 -0.017204115 0.35682985 -0.047810756 0.5941574 0.59593636 0.13137592 0.43728626 0.12684768 0.20587005 0.15698382 0.27459794 -0.30642256 0.3824423 1.0378736 -0.6356201 -0.9060441 0.5600066 -0.30537224 0.35911393 0.34630612 0.44888997 0.5734853 0.11147499 -0.20006123 0.025668051 0.15123402 -0.03900081 -0.40371823 0.6050296 0.013232448 -0.21420874 0.84572196 -0.34500548 0.25344095 -0.13505712 -0.3387395 0.5306651 0.36936662 0.24931185 0.30318096 -0.33954826 0.32241327 -0.15411137 0.39110872 0.09157851 -0.6593347 -0.10064512 0.43778083 0.26916644 0.60884917 0.13736847 -0.15064472 0.038036544 -1.0744067 0.37846673 -0.20482448 0.009403726 -0.13057558 -0.517952 -0.14419302 -0.056422316 -0.29576197 -0.24808632 
com.spark.meizi.net.RequestFactory.getBaseUrl 0.22598794 0.20958276 0.36738816 0.11299013 0.50646603 -0.6810344 -0.38765004 -0.032092884 0.63290006 0.8404715 0.790701 0.45327824 0.2883538 0.02065411 -0.38637435 0.5340277 -0.18137509 -0.38661236 -0.14496236 0.07380729 0.3959812 0.08244427 -0.613559 0.10600442 -0.13194403 0.023023283 -0.044235326 -0.32989174 -0.007784995 0.008987231 0.63276845 -0.027707558 0.0260909 -0.22940618 -0.21361534 0.35137555 0.2505662 0.08879177 0.76213163 -0.58432543 -0.65117013 0.22198996 0.22688618 -0.20628895 -0.7757416 0.04574076 -0.6298782 -0.13194759 -0.15886804 -0.53243107 0.3127128 -0.51655716 0.35932615 -0.11788445 0.38093677 -0.2663962 0.34171033 -0.09725281 0.022438899 -0.0034963212 0.7787585 -0.5462617 -0.30729932 -0.11754858 -0.64072275 -0.4635837 0.7911115 -0.5543135 -0.23170538 0.4583236 0.436809 0.44187802 0.10412591 0.53725755 -0.102652065 0.5790888 0.007555694 -0.08635198 1.2968817 0.24282548 -0.9100511 -0.012537884 -0.624764 0.418705 0.4334662 0.62014693 0.26997325 0.58593214 -0.4575859 0.38951772 0.11804221 0.26225007 -0.5615325 -0.011357421 0.18353103 -0.78703934 0.4528465 -0.2612504 -0.03489278 -0.059902623 -0.51266605 -0.20308223 0.271044 -0.4394892 0.34424475 0.30708662 0.6235729 -0.402191 0.8397983 0.07021723 -0.4514924 -0.23310493 0.6832242 0.02035097 0.83341414 -0.45132983 -0.4542577 -0.051251214 -0.43394777 0.7199256 0.18862946 -0.29244572 -0.107521586 -0.2793431 0.20048992 0.33704126 -0.7033148 0.12705702 
com.spark.meizi.meizi.MeiziPresenter.requestMeizi 0.7481404 -0.40138894 -0.17941013 0.40443403 -0.07052942 -0.22668362 -0.2958369 0.30462372 0.01095444 1.1276298 1.001771 -0.07321974 0.18404083 0.02344709 -0.713158 0.27767378 0.2363157 0.04408874 -0.31539404 0.14740093 -0.09959791 0.42775726 0.4567312 0.69362646 0.2237293 -0.06208556 -0.2282589 -0.05715375 -0.84148574 0.3227701 0.6053667 -0.122426204 0.27257434 -0.5234015 0.096294396 0.11979453 -0.25927302 -0.25432894 0.58332425 -0.83773047 -0.7772534 -0.3407321 -0.011032729 0.43954983 -0.4255928 0.27723646 -0.09073791 -0.50478655 0.028578434 0.0020901544 0.048628096 -0.16163573 -0.14084849 -0.11176248 -0.29247573 0.7260372 -0.4886289 0.28488874 0.6457434 0.14837186 0.0043277503 -0.1731573 -0.4645654 0.006014935 -0.7550418 -0.09098533 1.1065816 -0.3382914 0.15367955 0.6009124 0.876709 0.5499078 -0.42294165 0.06589537 -0.3487933 0.15040235 -0.3327981 0.90651184 1.0212533 0.04704495 -0.38466883 0.21004371 -0.48369917 -0.13895355 -0.34440917 0.054978777 0.14968942 -0.32958567 -0.016408054 0.19946307 0.75682175 -0.40086308 -0.051624194 0.28560665 0.18276651 -0.49257573 -0.4048423 0.03859113 0.4066086 0.03607357 0.54392385 0.3962587 -0.08166188 0.13191526 -0.081952386 -0.565212 0.22583474 -0.04249265 -0.1080567 0.05088279 -0.23713402 0.08903331 -0.6354368 0.20470424 0.5255562 0.0298899 -0.43640122 -0.18806173 -0.08941276 0.8785263 -0.38690785 -0.32108107 -0.119454935 0.126144 -0.14724037 0.4591283 -0.021954002 0.62395483 
com.spark.meizi.MeiziContext.getInstance -0.08098785 0.008489543 0.89401543 -0.0625123 0.5243832 -0.33579654 -0.11145015 0.68636715 0.6885576 -0.0732139 0.6937684 -0.004292679 -0.33603343 0.3892256 0.10838178 -0.23581879 -0.7644494 -0.35033306 -0.26091805 0.49086088 0.42092815 -0.02598569 -0.645053 -0.62762475 -0.084958695 0.06427207 -0.43248054 -0.17098968 -0.2417702 0.22311974 0.17327215 0.004112311 -0.3390784 0.5539129 0.035202555 0.7570062 -0.4974945 -0.32889503 0.12890032 -0.36662984 -0.024244828 0.06323998 -0.041451044 -0.23887408 -0.031359043 -0.26700053 -0.706374 0.74729455 -0.111129686 -0.4854687 0.07116624 0.08897134 -0.17682196 0.52029717 -0.13133112 -0.52197874 0.32225806 -0.3268035 0.5416901 0.042584687 0.0783546 -0.41918573 1.0231926 0.24026272 -0.79436433 -0.0015047 -0.4339583 0.2516282 0.036712497 0.14490664 0.24272823 -0.066820085 0.1253582 0.27271318 0.0860359 -0.22910702 -0.06340958 0.46573624 0.59377867 -0.62078696 -0.886285 0.21865818 -0.42443743 -0.07316649 0.32931215 0.14682247 0.51363885 0.21582803 0.27714366 0.16802458 -0.21963198 0.11772983 -0.18503433 -0.0104281735 0.36235064 -0.08707195 0.017415222 -0.3694538 -0.22377159 -0.21405081 -0.8155544 -0.5147132 0.24825484 -0.3397473 0.1600388 -0.03236339 0.101681106 -0.2855673 0.31191722 -0.05342185 -0.56597584 0.61890876 0.5669718 0.06922559 0.4144775 -0.030297773 -0.42307302 0.42620027 -0.03721453 -0.32144284 0.008251191 0.07675136 0.22812814 -0.16199498 0.2650618 -0.16685645 -0.095618576 -0.248415 
com.spark.meizi.MeiziContext 0.7588598 0.38705933 -0.009460217 0.5894833 0.07694687 -0.62572944 -0.5517336 0.35462296 0.77658844 0.6112295 0.65610224 0.34562722 0.6191703 0.08140097 -0.46597472 0.07997659 0.086885184 -0.8748197 -0.77657825 0.7441872 -0.017554669 0.026754532 0.062502846 -0.07138604 0.12803125 -0.49176836 -0.020016367 -0.33311597 -0.22295102 0.24892941 0.36602864 -0.23941204 -0.11955914 -0.15885286 0.067903034 0.5153169 -0.66333467 -0.00045630703 0.41758478 -0.36706477 -0.35997987 0.15686494 -0.020470886 0.15601397 -0.3599093 -0.24122527 -0.080880515 -0.23974892 -0.17823236 -0.6583088 -0.07224217 -0.13790089 0.33437693 0.0045281383 -0.09355189 -0.03824296 -0.39803645 -0.5859248 -0.04485162 -0.2713161 0.041248553 0.41997248 -0.09840835 0.007677138 -0.56048924 -0.011374033 -0.009457832 0.114871755 -0.38126066 0.23113604 0.6800294 -0.07529579 0.21971834 -0.13894032 -0.035359472 0.29492503 -0.19004638 0.124002464 0.7776987 0.13074529 -0.3342758 0.16744669 -0.9719709 0.06549274 -0.029100131 0.14036244 0.48815683 -0.031408396 -0.3671777 0.15727292 -0.1908695 -0.3381733 -0.082054645 0.099973656 -0.064470634 -0.016222384 -0.13473906 -0.85109437 -0.17585857 0.0027588208 -0.3528476 -0.47951403 -0.19655992 -0.6708347 0.41402856 -0.19080591 0.29072896 -0.15505497 0.4923434 0.22181536 -0.29986852 0.37742254 -0.030960267 -0.07490617 0.68876946 -0.7095122 -0.5041883 0.18957202 -0.3792545 0.23319644 0.24851862 -0.6603348 0.18926173 -0.83737046 -0.29540345 0.1761006 -0.7050643 0.038072377 
com.spark.meizi.MeiziApp.onCreate 0.8687198 -0.081537604 0.09929708 -0.015284693 -0.40665618 -0.25301138 -0.6274719 0.5340826 0.6392913 0.8820744 0.26861835 0.9277177 0.19352473 0.013778043 0.2859956 -0.24849369 -0.25881436 -0.7638609 -1.0755738 0.72209257 0.08437656 -0.14704229 -0.21840507 0.5916437 0.46948814 -0.21221596 0.004127406 -0.29311398 -0.32059622 0.41243005 0.7335175 -0.040011212 -0.039207853 0.08692116 -0.51113385 0.6703038 -0.9492266 0.21541096 0.037746347 0.3700375 0.10388925 -0.0037007874 0.008380365 0.056242716 -0.07078975 -0.8643775 -0.72547394 -0.4653838 0.13494952 -0.53460944 0.44035855 0.029731955 0.80024505 -0.009331963 0.36140743 0.20527093 -0.9690992 -0.6534902 -0.18558137 -0.715276 -0.3435189 0.3567213 -0.6879955 0.08967054 -0.62621725 -0.21087535 -0.19086178 0.29328012 -0.20031348 -0.09117238 0.9612201 0.039996944 -0.14606282 -0.23846775 -0.26843584 0.31011263 0.41623935 -0.024246333 0.43617558 -0.5152687 -0.5393082 0.30161968 -0.6903685 -0.009094026 -0.004063355 0.15743442 0.781796 0.5049781 -0.37112483 0.16387263 -0.6468847 -0.7911225 -0.22824402 0.18381687 -0.07020705 0.026434889 0.49313766 -0.88327265 0.071056284 0.12858753 -0.8880109 -1.3166889 -0.03680879 -0.5859126 0.31427678 0.018448906 0.18882254 -0.48387927 -0.11439618 -0.6442185 -0.65599155 0.5025573 -0.21394132 -0.35205114 0.8583102 -0.7156527 -0.37528172 0.11277414 -0.48450324 -0.0880783 0.058986694 -0.36746946 0.71810305 -1.1078129 -0.16456343 0.30142704 -0.626821 -0.4255142 
com.spark.meizi.home.HomePresenter.initAdapterData 0.7643678 -0.24502145 0.3726699 0.24678972 0.7963948 -0.32269102 -0.62983596 0.5212225 0.35603136 0.5037861 1.0180916 0.24131656 -0.16338052 0.0020834154 -0.122594185 0.201683 -0.17294069 -0.570303 -0.4479059 0.69737756 0.30309233 0.5742501 -0.22689094 0.53303325 -0.23076952 -0.40184847 -0.40461364 -0.6130109 -0.45786783 0.44611543 -0.0010669683 -0.91201097 0.5322789 -0.37242156 -0.060848467 0.082267225 -0.5932 0.06809394 0.23118162 -0.38136455 -0.5153198 0.31539655 0.1318439 0.40758127 -0.2934398 0.20952857 -0.1687831 0.3907277 -0.350588 -0.18654932 -0.13520226 0.112515286 0.053457532 0.21949917 -0.690178 -0.43108207 -0.12998794 0.1196451 0.22407089 0.1311013 0.3709883 -0.12847029 -0.018737547 -0.1987606 -0.19099645 -0.15464337 0.35061085 -0.47645393 -0.30150244 0.5869198 0.40279385 -0.3850022 0.509515 0.69214493 -0.22605371 0.27635276 -0.30125368 -0.48733774 0.5819458 -0.0053506354 -0.38964212 0.6702845 -0.377045 -0.05906901 -0.14752129 0.83103466 0.5216504 0.08492977 -0.09711148 -0.24282247 -0.47531933 -0.6999085 -0.28338957 0.6133816 0.28720227 -0.69454396 0.1510342 -0.71413773 0.4410034 -0.561946 0.04526363 0.35976005 -0.56934196 -0.42120358 -0.03682672 0.20122892 0.13897207 -0.5080131 -0.06893902 0.36678392 0.11483335 0.2932096 0.40322912 0.31286663 0.57445353 0.033101633 -0.2556564 -0.04690558 -0.2104291 0.0008333372 -0.23107171 -0.34451753 -0.9948675 -0.88692075 0.23266594 0.37353516 -0.42295647 -0.2577384 
com.spark.meizi.home.HomePresenter 0.61208254 0.4315164 0.029391116 -0.045511004 0.27492917 -0.46078035 0.05951464 0.521785 0.40559143 0.38964158 0.84450525 -0.2257484 0.24413274 -0.055741306 0.40347975 0.24150015 0.16268438 -0.22594541 -0.36261746 0.049488347 0.5547551 0.33293012 -0.20685752 0.12501301 -0.16644506 -0.13637498 -0.12233849 -0.17836124 -0.53839606 0.24853176 0.31481665 -1.1338711 0.3494768 0.24229732 -0.08489369 -0.06012772 -0.7312881 -0.33045653 0.41337398 -0.31531483 0.031460878 -0.39689177 -0.4129043 0.29182348 -0.33253905 -0.76598704 -0.16789193 0.24855463 0.024254138 0.1961766 -0.2914202 0.114314705 -0.07491941 -0.32661286 -0.60737896 0.25675547 -0.21662839 -0.62539643 0.39791358 0.18691266 0.4647336 0.1562851 0.09327291 -0.038716655 -0.40681252 -0.26711512 0.47526726 -0.02600743 0.026245097 0.099826604 0.14922763 -0.21672805 0.50859106 0.15126303 -0.09459662 0.11810342 -0.34253332 0.25722 0.51879495 0.16930202 -0.8157093 0.5097791 -0.25915465 -0.04860614 -0.18957312 0.5721736 0.79409784 0.21923077 -0.053202778 -0.04798819 0.16027035 -0.47041643 -0.6573121 0.56035966 0.18789953 -0.03136928 0.53998095 -0.6112553 0.48229015 -0.5152103 -0.5302618 0.14682193 -0.3747933 -0.061799493 0.32830122 0.058642372 0.15399899 -0.5884005 -0.29222462 0.13177091 0.10088339 0.484454 0.41063008 -0.0740141 0.42069647 0.32502672 -0.4584789 -0.13040556 -0.4223424 -0.029890118 -0.2658035 0.060866315 -0.77122796 -1.1025891 0.011008829 0.29141054 -0.37588412 -0.53014 
com.spark.meizi.MeiziContext.getContext -0.30506632 0.17453769 0.5880143 0.2000922 0.5861518 -0.19634235 -0.023120401 0.62113285 0.7387845 -0.08791114 0.7280909 -0.036706105 -0.1719585 0.348126 -0.069995426 -0.19812185 -0.33601078 -0.13936168 -0.3150762 0.37550515 0.43785462 0.062445927 -0.7144142 -0.917601 0.045124076 -0.0385088 -0.41593748 -0.044960357 -0.13911822 0.31858486 -0.094039656 0.023683794 -0.39401996 0.6774757 -0.14153056 0.73127407 -0.632784 -0.15553512 0.25931835 -0.29570016 0.010604885 0.40313622 0.11471267 -0.21221621 -0.102578916 -0.43465227 -0.44131014 0.61423177 -0.06798105 -0.5212278 -0.07403178 -0.0038237886 0.022261756 0.2905315 -0.07400744 -0.69381356 0.55080265 -0.59898615 0.335617 0.1407717 0.12899296 -0.20401485 0.8720014 0.23694731 -0.773849 -0.2793944 -0.38605702 0.30018994 0.15605807 0.295202 -0.0744073 -0.23182304 0.022193048 0.029309962 -0.0071772938 -0.0652653 -0.19322349 0.38678584 0.9456038 -0.5517303 -0.89181626 0.50157845 -0.60895723 0.14074522 0.2596805 0.10131299 0.67691237 0.22785404 0.13521889 0.25076032 -0.5249124 -0.21801661 -0.19465043 0.2022398 0.518021 -0.16246302 -0.042486925 -0.54731023 -0.44019747 -0.14028125 -0.84304196 -0.21785429 0.27027017 -0.36195573 0.16073239 0.199254 0.32235685 -0.20536098 0.25599417 0.037602995 -0.56683105 0.49106634 0.6875728 -0.006065344 0.54873663 -0.07613706 -0.33946246 0.38239494 -0.19712524 0.12661587 0.077572584 0.065563574 0.29327217 -0.21640076 0.28531379 0.10484501 -0.27637464 -0.24059886 
com.spark.meizi.base.listener.BaseRecyclerAdapterD,VHextendsBaseRecyclerAdapter.BaseViewHolderD.BaseViewHolderMeizi.ResultsBean -0.17297772 -0.12137032 -0.24100594 0.38321224 -0.018670207 0.06264892 0.50234246 0.15806215 -0.06821007 0.428459 0.14457543 0.1341035 -0.09221059 -0.2833048 -0.06279692 0.6038215 0.011212561 0.54310626 0.23257717 0.0071352776 0.07095096 0.40101606 -0.7209906 -0.39095995 0.2932689 0.04967288 -0.61677504 -0.64494205 -0.10030421 -0.44858378 0.17190593 0.10866417 0.28165507 -0.05687843 0.25490913 -0.119831234 0.5468238 -0.044960823 -0.024715783 -0.06496735 -0.32394862 -0.5415963 0.31465855 -0.17484494 -0.07173778 0.5673464 0.24399115 0.23686619 -0.48615402 -0.51537746 -0.16327031 -0.5999784 0.26797184 -0.019982325 -0.107178 0.21574704 -0.176958 0.1230446 0.27132756 -0.19309963 -0.35615668 0.24944776 -0.31189957 -0.13773037 -0.24247666 -0.66074973 0.26701376 -0.19941038 0.29619697 0.0927254 0.28009132 0.09207814 -0.90756106 0.065678984 0.3011677 -0.09452618 -0.12678719 0.40002254 0.16415541 0.46745515 -0.8855429 0.42568463 -0.03386899 0.15841624 0.20059706 0.43274078 0.3973976 -0.76504177 -0.09795711 0.35584122 -0.1992951 -0.060105067 -0.5860738 0.23621766 0.009559515 -0.1616278 0.64537615 0.35373652 0.36063495 0.21261759 -0.40045127 0.30030978 -0.18399213 0.26849186 0.7007799 -0.3027191 -0.21898374 -0.22671558 -0.45831028 -0.3269511 0.22780423 -0.03840269 0.76074916 0.2553853 0.44057062 0.31995288 -0.19147287 -0.41049597 -0.33920884 0.21771601 -0.45051387 -0.011947788 -0.16528246 0.13892666 0.41635048 0.65291786 -0.18858215 0.15119928 
com.spark.meizi.meizi.MeiziAdapter.MeiziViewHolder.onClick 0.14080174 -0.13658397 0.29483533 0.12912995 -0.709192 0.02129254 0.21434656 0.5392071 -0.16809031 0.016339777 0.17120169 0.13568743 -0.6251649 -0.28042382 0.77476203 -0.24440615 -0.73835194 0.3118082 -0.48252714 0.037951965 0.7228702 0.54164225 -1.0280904 0.047433358 0.11778361 0.40787387 -0.46789962 -0.32829198 -0.51000786 -0.1300064 0.37134385 -0.5023705 0.8834855 0.29254374 -0.5044061 0.1580814 0.12878151 -0.032486875 -0.32428932 -0.93871605 0.07322966 -0.17620398 0.3884314 0.07554057 0.19091403 -0.63346934 -0.011860617 0.3810838 0.037052065 -0.57513654 0.16858728 -0.15884097 0.18081562 0.4874996 -0.12240569 -0.32679424 -0.30706903 -0.05792105 0.64064693 0.31341267 -0.33988377 -0.44534126 0.037104085 0.2522051 -0.647469 -0.68186575 0.07374378 -0.58018076 -0.05968099 -0.16467199 0.14963774 -0.67441726 -0.81694204 0.27669096 0.2856802 -0.118399836 0.2928729 0.66337764 -0.01610465 -0.54610443 -0.9685726 0.3920022 -0.6726468 -0.75070477 0.20759049 0.87679595 0.6774497 -0.48533005 -0.33031368 -0.021000432 -0.46078256 -0.042789448 -0.62143964 0.2533467 0.6563907 0.27227405 0.27466923 -0.044652585 0.36222714 0.3313384 -1.049022 -0.0939262 -0.15876421 0.15894835 1.0243565 0.15723099 0.054495156 -0.09334194 -0.6489185 -1.0246098 -0.31372848 0.14924935 1.0193281 0.0024361643 0.24042678 0.2716151 -0.06823043 -0.07347501 0.2556823 -0.4641668 -0.84005886 0.4096404 -0.34043655 -0.77713406 0.41420445 0.30263895 -0.17692287 -0.7014178 
com.spark.meizi.utils.ActivityUtil.startActivityNotInActivity -0.54752696 0.2785058 -0.25694194 0.047841527 -0.34060785 -0.24117723 0.25497788 -0.74501354 -0.3190849 -0.0705737 0.20421426 0.26094097 -0.80438846 -0.18873394 -0.30451047 0.12851007 -0.13657331 0.77359015 -0.30833045 -0.22784613 0.42662153 0.39246708 -0.8639305 -0.21212092 -0.1877297 -0.014558684 0.022345725 -0.3691762 0.05501567 0.02071073 -0.26837608 0.21657518 0.38698727 0.48476276 -0.045207854 0.37310818 0.5564705 0.12836187 -0.75311756 -0.41778997 -0.14361034 -0.5842389 0.16361009 -0.56525034 -0.52534324 -0.994732 0.5730325 0.21325617 -0.00909656 0.22946228 0.22250931 -0.06245219 0.5801066 0.36352307 0.7306754 0.17220399 0.003927588 -0.37449065 0.36753514 -0.14475086 -0.09703933 -0.38529906 -0.0766349 0.015373191 -0.4297805 -0.63329697 0.21266386 -0.31819522 0.48353693 0.3428737 -0.27190226 -0.05157151 -1.2560843 -0.07091391 0.08313361 -0.07186324 -0.006186399 0.6503686 0.46477243 -0.5208807 -1.112926 0.56803334 -0.23278776 -0.20688683 0.4288921 0.38730615 -0.011009624 -0.42990336 -0.053477157 0.23688973 0.12909713 -0.09523384 -0.3284755 -0.040990833 0.2880783 0.24116538 0.15434368 0.5009908 -0.0012334281 0.18580481 -0.59787357 0.2483569 0.22583933 -0.13991043 0.86765164 0.6799756 0.21417038 -0.0014740563 -0.47771984 -0.592085 -0.6423909 -0.43102005 0.8633699 -0.017575677 -0.2209911 0.7362958 0.29315618 -0.2563015 -0.07154407 0.06317734 0.23997113 -0.22332539 0.7035077 -0.3189039 0.30668747 0.24663857 -0.3247536 -0.16436815 
com.spark.meizi.meizi.MeiziFragment -0.09699428 -0.466495 -0.33201563 0.10232009 -0.12336938 0.30196345 -0.50259554 -0.096315086 -0.13232304 0.14793484 -0.2995347 -0.15774474 -0.48152128 0.3536683 -0.057284657 0.09559033 0.064160034 0.038827784 -0.01664097 0.33662885 0.45194748 0.23349065 0.4739393 -0.01433831 -0.0063991644 -0.29843515 0.115610026 -0.042809166 -0.07921414 0.15182371 -0.31847912 -0.101464346 0.3865902 0.045700695 -0.089933485 0.0023045414 0.10292028 -0.19065335 -0.108180985 0.03345603 0.19038507 -0.13014777 0.13801628 -0.08946779 0.25425324 -0.0990536 -0.0116630215 0.112423666 0.365408 0.42355567 0.26316756 0.19528319 0.13393232 0.26656318 -0.21566908 0.5185193 -0.71797615 0.13145502 0.36615726 -0.08823236 -0.09632351 0.047111057 0.42536822 0.03547205 -0.23796391 -0.44864368 0.27503112 -0.015756631 0.27443376 -0.35339108 0.2581099 -0.3915869 -0.61998767 0.061491087 -0.048791748 0.5918558 0.22587168 0.40227482 0.15194507 -0.57248324 0.014619385 0.55092055 -0.3500383 -0.062275477 0.15559949 -0.42550322 0.43989953 0.15602954 0.036994223 0.0036151793 -0.050950028 -0.5358872 -0.30973956 -0.04920347 0.037514474 0.055489656 0.061168287 -0.51235074 -0.16332443 -0.25152063 -0.6915352 -0.12480626 -0.23137555 0.13436718 0.16929156 -0.12472431 -0.09199583 0.24995498 -0.29568085 0.1298939 -0.5252393 -0.12120767 0.0026180656 0.20208493 0.15333681 0.7247302 0.10399615 -0.13231637 0.07405552 -0.13251455 -0.4380061 -0.36715245 -0.238382 -0.100585446 0.38295388 0.10771236 -0.20366193 -0.3357072 
com.spark.meizi.meizi.MeiziFragment.newInstance 0.33954835 -0.37722784 -0.6424545 0.47653282 0.4854189 0.36601633 -0.15476674 0.08011481 -0.43414178 0.43297648 -0.07658791 -0.32188103 -0.16746229 0.14930633 0.020245949 0.13632423 -0.40443444 -0.09924021 0.1435082 0.6676287 0.76240724 0.4660187 0.17674801 -0.12493463 0.11353926 -0.18015324 -0.11373169 -0.23327872 -0.2669699 0.30849874 -0.468818 -0.07508238 -0.1298672 0.12204532 0.2943513 0.26424947 0.40216583 0.45808926 0.2360007 0.4368018 0.13854691 -0.41074616 0.19107111 0.1601096 -0.13148421 -0.5936147 0.71698487 0.17035657 0.30797386 0.32611686 0.29095334 0.20537497 0.6821295 0.117580086 0.45398694 -0.004276195 -1.0523243 0.15225364 0.4559591 0.06692852 -0.06040446 -0.17339203 0.50975627 -0.4674589 -0.27137473 -0.67692924 -0.10855702 0.31492546 0.55201715 0.12684445 0.18651433 0.031171964 -0.91255856 -0.03190935 0.16118057 0.08522383 -0.12986512 0.8223435 0.60270476 -0.3273224 -0.16298214 0.84026724 0.26408857 0.17704432 0.3596907 -0.19397534 0.23269986 -0.07501676 0.21097995 0.4193534 -0.46381393 -0.27010262 -0.1372306 -0.20466322 -0.12224972 0.50361097 -0.11147189 -0.118721455 -0.32012892 -0.2758061 -0.55417186 -0.34462023 -0.17319529 -0.5723674 0.18969585 0.21792312 0.51403844 -0.014801677 -0.7463213 0.26313025 -0.22713433 -0.24432208 0.076792344 0.3387023 -0.07909738 0.94943136 0.3156629 0.36831835 -0.33187112 -0.04840912 -0.21648933 -1.2525364 0.24807365 -0.45769796 0.5328075 -0.29664287 -0.11548751 0.043632176 
SwipeRefreshLayout::OnRefreshListener -0.019958831 -0.14609186 -0.28587478 0.17710537 0.24544775 0.14135931 -0.044787496 0.34221056 0.29545888 0.06772001 -0.14800066 -0.4862704 -0.57028323 0.30413648 -0.79205406 0.15242755 0.081346564 -0.20647064 -0.13798974 0.04960759 0.6900906 0.5754788 -0.025939226 -0.38460335 0.3640383 -0.31177145 0.046257034 -0.53580576 -0.3077233 0.20454293 -0.2954544 0.09844789 0.34813768 0.063365504 0.2668733 -0.0029881424 0.16903745 0.11171801 -0.14014578 0.1801795 0.037434578 -0.20862238 0.16473104 -0.37922144 -0.1315801 0.3538716 -0.037315723 0.50907904 -0.037980136 0.06478076 -0.16004212 -0.092860766 0.3905916 -0.116410494 -0.22342457 0.09122733 0.15834312 0.27748153 -0.00806864 -0.199259 -0.31908417 0.048405256 0.38876724 -0.324999 -0.29294452 -0.5304868 0.46705675 0.13702157 0.8423615 0.399184 -0.20860147 -0.28666338 -0.44613177 0.1182845 0.20528536 -0.23301436 -0.4264806 -0.111537516 0.43371406 0.06592739 -0.22729707 0.79309565 0.19073942 0.32924306 -0.23441334 -0.06970397 0.69877154 -0.02077165 0.68447596 0.17391425 0.15035163 -0.68144965 -0.50513154 -0.10885588 -0.11499056 -0.03502676 -0.0800625 -0.023110501 -0.00048473748 -0.27957696 0.012549705 0.15726982 -0.64358556 0.1817569 0.28708145 -0.28645223 0.36583862 0.09956689 -0.59843504 0.28245384 -0.31794927 0.042993195 0.10439549 0.32372382 -0.034655806 0.80287164 -0.32211885 0.11506888 0.16945787 0.32392633 -0.24931328 -0.5657358 -0.019290406 0.08431388 0.44867066 0.012737236 -0.17857963 0.103365965 
OnRefreshListener -0.11456444 -0.19108988 -0.18850186 0.15327334 0.12783393 0.18377383 -0.005551669 0.40934688 0.3880534 0.03581935 -0.039553206 -0.55073565 -0.4792758 0.31751707 -0.81011844 0.12609307 0.13160238 -0.24418491 -0.07664744 -0.01251701 0.81324357 0.53679615 0.05647045 -0.5252532 0.4207734 -0.25840774 0.14022027 -0.5255559 -0.33284503 0.25261888 -0.2802382 0.16924123 0.32888338 0.06195431 0.3086766 -0.02575562 0.17803982 0.08276467 -0.056522083 0.0928035 0.12367329 -0.15073127 0.11606978 -0.51963377 -0.03716042 0.34514537 -0.034216553 0.46001884 -0.01587772 0.027714636 -0.1635228 -0.10100632 0.3494093 -0.12612206 -0.21330857 0.110295266 0.17722136 0.22904252 0.0045719757 -0.28675628 -0.38180703 0.053656127 0.53581065 -0.26423925 -0.40947244 -0.5067458 0.504785 0.10692657 0.91821635 0.3376911 -0.1582604 -0.2750495 -0.34702095 0.1294082 0.31649092 -0.15522622 -0.38227257 0.010544538 0.47276154 0.049538266 -0.21530989 0.78723353 0.19729471 0.3730641 -0.20912907 -0.12037242 0.75480384 0.04524409 0.55490315 0.18241344 0.23939967 -0.5793408 -0.53007966 -0.16606618 -0.19671926 -0.015512071 -0.09722602 0.011606357 -0.14306106 -0.300942 -0.073589906 0.10212648 -0.6343081 0.31100923 0.33956254 -0.35095885 0.37530681 0.14974271 -0.5148903 0.17071687 -0.4229177 0.03821335 0.07184836 0.37030238 -0.013149482 0.7341034 -0.35193413 0.14214264 0.24201424 0.3596777 -0.27150202 -0.5725431 -0.049796928 0.07561962 0.37843922 -0.112489685 -0.21333952 0.17548446 
com.spark.meizi.meizi.IMeizi -0.02429809 -0.17261711 -0.21218276 0.06762866 0.07108616 0.06524995 0.04344488 0.38997924 0.50817007 0.12320392 0.10204333 -0.671985 -0.54888445 0.3728711 -0.8804776 0.16850458 0.025822377 -0.25823385 0.011273152 -0.015694683 0.8406611 0.51243675 -0.00012111924 -0.61735517 0.37604448 -0.36038953 0.15288317 -0.44179502 -0.42633653 0.39495543 -0.30523723 0.20207259 0.26995885 0.12980442 0.41818672 -0.010184427 0.15321416 0.18050636 -0.11729651 0.061901912 0.19792287 -0.22412945 0.11198207 -0.46203834 -0.09154528 0.23372409 -0.12247522 0.48026243 -0.06880542 0.048124038 -0.11869482 -0.07172224 0.31573948 -0.08436633 -0.13502085 0.16123675 0.16449793 0.21940461 0.12596168 -0.24321102 -0.34405577 0.00063853146 0.74044734 -0.2720601 -0.45277563 -0.40701458 0.51338303 0.12941955 1.0419362 0.37379223 -0.07996435 -0.27848017 -0.3055637 0.060484555 0.33594528 -0.19854388 -0.43499666 0.04217963 0.5405399 -0.02020472 -0.214944 0.9051849 0.13014671 0.3461344 -0.14574882 -0.07865659 0.6649992 0.029232753 0.63071895 0.20156541 0.2897992 -0.55051917 -0.5232263 -0.15819763 -0.090508714 -0.08852529 -0.08261924 -0.059864506 -0.20444848 -0.29862761 0.055547852 0.05055236 -0.6467521 0.37151775 0.3492995 -0.22583018 0.48480195 0.15401928 -0.52915883 0.20063631 -0.51101893 0.03575328 0.09374323 0.37595713 -0.12656829 0.7841505 -0.42512175 0.06781892 0.17112106 0.22946648 -0.2907331 -0.5322572 -0.085865915 0.09522514 0.47725958 -0.16580135 -0.29642293 0.12245327 
com::spark::meizi::base::BaseFragmentMeiziPresenter 0.3634823 -0.2565248 0.041229255 0.04084128 -0.027846145 0.334751 -0.12512998 0.48643532 0.0828709 0.27734485 -0.22321261 -0.22922595 -0.75369275 0.10648096 -0.34071153 -0.063099414 0.011427634 -0.26609966 -0.22267975 -0.07140366 0.81262267 0.63441426 0.2871507 0.09570714 -0.00024115524 -0.13566284 0.09333526 0.07950442 -0.40373027 0.25955427 -0.3024063 -0.055964142 0.74129444 -0.29422963 -0.20926036 0.046508573 0.43046087 0.02493294 -0.3127402 -0.10326274 0.47813553 -0.43498805 0.030271314 -0.07747746 -0.17162034 0.17637935 -0.058134727 0.28338474 0.18754011 0.37733963 -0.01597127 0.123417884 0.69168323 0.17119913 -0.10780931 0.47757298 -0.7205269 0.25705215 0.24921888 0.0020994984 -0.102431506 0.056157913 0.1826766 -0.32362726 -0.09906562 -0.59446204 0.6498643 -0.30392715 0.9319081 0.16366158 -0.23304641 -0.42623383 -0.22538663 0.23729695 -0.11008738 0.012098006 -0.22394899 -0.07868891 -0.06822379 -0.22702324 -0.02026292 0.34718728 0.030947091 0.1049727 -0.2563951 -0.20081455 0.5779678 0.028216103 0.74852926 -0.012744631 0.28605157 -0.64579797 -0.29153243 -0.17551951 0.1575635 -0.13262135 0.43150204 -0.47189313 0.22195278 -0.17874192 -0.106834985 -0.05021499 -0.78575397 0.3061057 0.32167983 0.044563662 0.51065904 0.19476305 -0.6367699 0.12868153 -0.5324606 -0.30444184 0.028174307 0.124669 -0.208193 0.9463335 -0.014310055 0.3060011 0.24421015 -0.013171113 -0.5686966 -0.1779228 -0.45044607 -0.02726063 0.30265275 -0.16472234 -0.3549024 -0.15022284 
SwipeRefreshLayout -0.110162705 -0.19622059 -0.26802236 0.14273861 0.19624628 0.17135105 -0.08420135 0.3043484 0.27347532 0.04460564 -0.1983306 -0.4239554 -0.58265036 0.30308685 -0.8392108 0.16845769 0.20962487 -0.15061566 -0.07696536 -0.005108832 0.74736345 0.5286679 -0.07309514 -0.43958226 0.3387496 -0.2606 0.09183607 -0.5511345 -0.25503346 0.19890018 -0.33145717 0.09581707 0.38488907 -0.0082459105 0.24583782 -0.07109215 0.1393581 0.11188781 -0.079396926 0.13891417 0.024870526 -0.15456985 0.16335562 -0.47976238 -0.08435975 0.42647982 -0.027941082 0.45662466 0.034958612 0.09339487 -0.18333086 -0.12431043 0.34569693 -0.16918837 -0.19666477 0.09105017 0.20774803 0.28591406 -0.06741812 -0.20567909 -0.3393399 0.10114477 0.34874994 -0.35541505 -0.30038565 -0.62493247 0.54049367 0.14896384 0.7991465 0.4179985 -0.31225944 -0.2924876 -0.4896484 0.10979422 0.21889304 -0.11783279 -0.4488773 -0.10076556 0.4713638 0.048751764 -0.17746824 0.7626785 0.20794815 0.3839025 -0.1872545 -0.07870106 0.7088173 0.02229214 0.5989586 0.16587707 0.20143731 -0.6310536 -0.5561983 -0.12895148 -0.214708 -0.08469944 -0.04914811 -0.029465819 0.013856074 -0.30532253 -0.027040565 0.2071266 -0.63860524 0.15218456 0.31932217 -0.31270856 0.34266663 0.14000124 -0.5060066 0.2999988 -0.3628907 -0.02177229 0.16794421 0.31915087 -0.06619007 0.7550345 -0.2903144 0.10328722 0.21053988 0.33875453 -0.27667993 -0.62750185 -0.01825205 0.054817587 0.37123114 0.06978908 -0.20588112 0.09053276 
com.spark.meizi.base.listener.BaseRecyclerOnScrollListener -0.17237182 -0.26699445 -0.42815158 0.28913158 0.029887764 0.31834507 -0.47028878 0.021033417 -0.07915365 0.028018132 -0.46822837 -0.15983053 -0.32479283 0.40396523 -0.18558049 0.08212377 0.05736461 -0.2517353 -0.0924196 0.57145035 0.32293135 0.31302088 0.4694808 0.33072755 0.21697713 -0.24894373 0.12842768 -0.21196193 -0.34528592 0.17502604 -0.37276214 -0.19814529 0.46214023 0.008921986 -0.24850918 -0.03896087 0.24687427 -0.033033777 0.05586986 0.23668407 -0.10503642 -0.2706606 0.49854073 0.060330924 0.14387389 0.15215579 0.17217991 0.42002985 -0.13293192 0.11495685 0.28790697 -0.0002593181 0.24350612 0.18838604 -0.33354896 0.14356324 -0.21905226 0.44140407 0.14334615 0.17740004 -0.13593143 -0.005429642 0.24784808 -0.14997293 -0.06045932 -0.5753713 0.2227657 -0.13050258 -0.03150863 -0.11535685 -0.019414268 -0.63646954 -0.57415134 0.2091818 -0.15526544 0.38104618 0.035448194 -0.006185244 -0.046886366 -0.39984894 0.24045047 0.59775233 -0.25336426 0.038028274 0.21918467 -0.23974518 0.37870744 0.060478136 0.26526785 -0.09047012 -0.30080852 -0.5329277 -0.3153571 -0.098583736 -0.02218367 -0.074142754 -0.16749427 -0.4227833 -0.1655913 -0.23927887 -0.46636808 -0.2520492 -0.1130283 -0.10072607 0.07773963 -0.07622834 -0.036288936 0.09886371 -0.44153798 -0.048236705 -0.45175612 -0.09282278 -0.09228176 0.26729065 0.10630186 0.6728341 -0.031584885 -0.14772828 0.3405799 -0.09684898 -0.24876897 -0.7417674 -0.11786746 -0.18826836 0.25365743 0.26203305 -0.45281985 -0.25403622 
com.spark.meizi.base.BaseRecyclerView -0.017549971 -0.18748349 -0.0430383 0.10391735 0.12546185 0.26633105 -0.45355952 0.07757669 -0.019891504 -0.16838872 -0.4573853 0.12216864 -0.50450313 0.38690573 -0.056875113 -0.062214583 -0.056081936 -0.17652552 -0.08018592 0.4956067 0.3046489 0.45587212 0.31678984 0.3080604 0.07119174 -0.4545343 -0.17477766 -0.3747415 -0.24226256 0.13120896 -0.29350373 -0.37267885 0.44331878 -0.047757182 -0.08837588 0.114509635 0.065573044 -0.017826067 -0.07534648 0.22628441 -0.03960828 -0.22584046 0.20368432 0.23377182 0.15840396 0.16334972 -0.054052122 0.5111717 0.06537821 0.34874347 0.28280267 0.13524361 0.14573705 0.0911918 -0.56494665 0.06688658 -0.28600392 0.46742848 0.10496711 0.018158646 -0.20518273 -0.26941803 0.10414017 -0.12558286 -0.21198969 -0.21521297 0.07560636 0.117013596 0.11551101 0.08846457 0.2560978 -0.49543124 -0.64952046 0.43849695 -0.24577855 0.16703229 0.04583325 0.22109756 -0.027149098 -0.38769495 -0.017980592 0.44043124 -0.052455146 0.14565419 0.112340085 -0.10989263 0.3799043 0.15458332 0.52877146 -0.021175478 -0.13591805 -0.7948434 -0.39162582 -0.09182659 0.016738556 0.0723886 0.12893659 -0.25179812 0.042037465 -0.19189739 -0.33992076 -0.41709653 -0.36298925 -0.005427737 0.1940148 -0.30292916 -0.08442001 -0.095631495 -0.51713806 0.15558624 -0.5699688 0.16102514 -0.14270845 0.30485335 0.06886279 0.8094592 -0.19236411 0.178284 0.35309052 -0.1544103 -0.43531817 -0.7303648 -0.022461677 -0.14220257 0.16369863 0.16602726 -0.37813997 -0.11899623 
com.spark.meizi.meizi.MeiziFragment.MeiziFragment 0.37953147 -0.39960217 -0.25460783 0.23296335 -0.10269731 -0.119267315 -0.05955516 -0.2739171 -0.20030828 0.4054303 0.19694328 0.04671531 -0.30329695 0.3121482 -0.44435185 0.22228952 -0.15510537 0.4125109 -0.19166355 0.89177287 0.5580481 0.29564556 -0.2893993 -0.29138508 -0.22838369 -0.463668 0.060884155 -0.6969323 -0.37554875 0.4177119 -0.50078493 -0.13916586 0.22021349 0.12864321 0.20165014 -0.15512004 0.50080085 0.23446694 -0.28429273 0.48440674 -0.082071654 -0.09831212 0.12309688 -0.037039556 0.43315938 0.14213386 0.32757783 -0.17077735 0.22980905 0.20592883 0.24288829 -0.2295228 0.44251066 0.06336431 0.50766385 0.27253765 -1.1153252 0.22122529 0.46723273 -0.64687914 -0.09423833 0.1387824 0.25418502 -0.6373931 -0.28224567 -0.6323402 0.33657354 -0.23957716 0.7230541 0.15975493 0.281821 -0.13177027 -0.9637214 0.14385055 0.06431483 0.19708481 0.26571712 0.6783459 0.29918292 -0.64274687 -0.11655319 0.6684466 -0.3231181 -0.28255436 0.17968395 -0.250477 -0.078460425 -0.23272276 0.32698298 0.22938077 -0.17175056 -0.20871054 -0.00043634704 -0.16109827 -0.3450222 -0.18882643 -0.088591814 -0.409305 -0.08461722 -0.5013312 0.047805242 -0.48775664 -0.23108399 -0.11889005 0.27287203 -0.23763518 0.28034922 0.071965165 -0.58957165 -0.06487882 -0.5537445 0.39375272 0.5891572 0.37545735 -0.043982185 0.88824093 0.061592285 -0.19536006 0.3284712 -0.82639974 0.36035705 -1.1755259 0.2604696 -0.32551923 0.4126495 0.16148968 -0.1937342 -0.13381499 
com.spark.meizi.MeiziContext.init 0.95908886 -0.25921386 0.67928666 0.16636868 0.9523944 -0.6833339 -0.1055038 0.43205088 0.67866844 0.30272484 0.8167269 -0.04287072 -0.5765864 0.18909666 0.015818287 -0.17943452 -0.5790611 -0.54666406 -0.7163452 0.6075905 0.4026919 0.676652 -0.7163684 -0.10798156 -0.54288805 0.063453086 -0.5305089 -0.5547628 -0.37141535 0.22061437 0.5335679 -0.483662 -0.24530633 0.65263164 0.25086105 0.49227753 -0.762185 -0.009969146 -0.05365298 -0.3834521 -0.31259283 -0.08452424 -0.062153682 -0.20477702 -0.041515917 -0.57357043 -0.5305308 0.24720657 0.020246299 -0.44095317 0.22243406 0.35974744 -0.012464894 0.22839448 -0.3320432 -0.30726498 -0.560764 -0.4999076 0.6374475 -0.16851962 -0.020919876 -0.316263 0.7077641 0.13589539 -1.0949235 0.024065858 -0.39184082 0.24296232 -0.13439745 0.16134854 0.8329087 0.34200737 -0.08175843 0.22943147 -0.040773343 -0.16087249 -0.07583819 0.9834531 0.48045006 -0.52052593 -0.6175826 0.26473016 -0.60363555 -0.43324015 0.41502556 0.15479909 0.21486175 0.3818678 0.2727697 0.114738844 -0.19872263 0.0436052 -0.23638734 -0.23917812 0.33650666 0.02611805 -0.22381413 -0.46565172 -0.19687556 0.13622552 -0.521358 -0.72149026 0.07535848 -0.39504007 0.5156611 0.40538636 0.06593592 -0.20741446 0.6965797 0.11456361 -0.60189575 0.7313584 0.68736935 0.14992544 0.51061684 -0.0581294 -0.68214375 0.47702727 -0.44385007 -0.37239298 0.16589448 -0.55350494 0.5048812 -0.6809959 0.24349678 -0.14021622 -0.16116828 -0.3555774 
com.spark.meizi.base.BaseRecyclerView.onLoadingError 0.27328002 -0.3964268 -0.3435864 0.17109492 -0.15217929 0.25026366 -0.39431396 0.5811616 0.09543171 -0.13462102 -0.18198997 -0.48182634 0.33447215 0.27538037 0.21676765 -0.3225926 -0.76795346 -0.5906598 -0.10189741 0.9826856 0.81230265 0.42209 0.57592225 0.26668957 0.24554773 -0.45498654 -0.08388403 -0.36969572 -1.0571034 0.4998414 -0.18399522 -0.9100633 0.43064448 -0.13651711 -0.12562045 0.18640174 0.43405858 -0.29290405 0.14716047 0.3534935 0.27894643 -0.25105634 0.005137886 0.63707274 0.7562725 -0.5370275 0.36451194 0.3586936 0.14857815 0.14966533 0.41737914 -0.06158609 0.29221916 0.3751274 -0.31577614 -0.052824795 -0.6315689 0.5133663 0.51242596 -0.05344626 -0.3113491 0.2594086 0.458256 -0.49445158 -0.19638693 -0.324691 -0.20737225 0.10762866 0.065857984 -0.07636557 0.15557876 -0.53228855 -0.28811002 0.4017458 0.26210892 0.21145523 -0.1011553 0.2886395 0.37102327 -0.4430939 -0.2304453 1.0801643 -0.16228138 0.4894506 -0.19266146 -0.16644055 0.5375794 0.0069686943 0.37331685 0.13728264 -0.8494015 -0.32608458 -0.27460647 -0.14316668 -0.10509343 0.37713268 -0.08180144 -0.5909851 -0.06042201 -0.2467123 -0.51711357 -0.8190776 -0.51158357 -0.047039166 0.43155795 -0.42776093 0.22668344 -0.45074636 -1.0909748 -0.41083473 0.119495384 0.56283414 -0.13309321 0.2700798 0.37225676 0.6191837 -0.38929695 -0.24891764 0.6381284 -0.7170435 -0.3364222 -1.1471496 -0.6065527 -0.95903724 0.33565643 0.30074093 -0.9345019 -0.39251012 
RecyclerView -0.5209545 -0.23353632 -0.24327616 0.1228142 0.21040222 0.059338015 -0.09789268 0.20253253 0.27563572 -0.18911634 -0.22200973 -0.30212966 -0.31814483 0.30541572 -0.6535925 0.37232995 0.32424146 -0.10968974 0.19824031 -0.06267489 0.57758003 0.6736072 0.16118747 -0.2414109 0.28932402 -0.50324064 0.014930545 -0.44649145 -0.31729257 0.11067367 -0.22688334 -0.23683067 0.20567597 -0.27216947 0.15953052 0.18662108 0.16263181 -0.078781135 0.10720957 0.26140025 0.11533259 -0.30144414 0.13572784 -0.20261075 -0.099427976 0.24775557 0.3406057 0.52237034 -0.16870041 -0.06658503 -0.29367658 -0.21127847 0.39304793 0.054677147 -0.2961913 0.24475515 0.40877008 0.5235204 0.026586043 -0.15610832 -0.24601023 0.51298106 0.15752123 -0.30287185 -0.17219591 -0.45464614 0.31537578 0.033576164 0.4545542 0.27759078 -0.26435742 -0.36959118 -0.60955685 -0.13385843 0.30764598 0.081777215 -0.78942794 -0.25334826 0.53670883 -0.05389958 -0.24158987 1.190381 0.13432518 0.48168877 -0.45603973 -0.005656786 0.71531427 -0.18272875 0.43989593 0.1905992 -0.18010719 -0.7345324 -0.66429317 0.02718261 -0.21690042 0.16641755 0.35757124 -0.052467994 0.34971923 -0.20240861 -0.025004163 0.22358412 -0.46421912 0.12875807 0.4339915 -0.6458494 0.18422382 -0.07929025 -0.65251535 0.1227087 -0.04474777 0.12287728 0.114775516 0.3530204 -0.061401915 0.80623686 0.0056487457 -0.14457794 0.24664694 0.1858495 -0.31078365 -0.666327 -0.46528518 -0.13576183 0.30548346 0.5599856 -0.5163232 -0.120605715 
