Variable_N 128
com.xiaochao.lcrapiddevelop.Data.HttpData.HttpData.HttpDataToSchoolList 0.14796624 0.38052562 0.361444 -0.58280736 0.24277073 0.048648287 -0.26698726 0.6454388 0.6447533 0.03201608 0.21325903 0.3406509 -0.33545557 -0.30242285 -0.10535311 -0.80545664 -0.08552317 -0.5872771 -0.3119679 -0.107676126 -0.085321136 0.14027816 -0.10534719 0.31527895 0.9054205 -0.022299033 -0.14742352 -0.122206956 -0.32442352 0.94734114 0.19359359 -0.53990996 -0.14268328 -0.7393967 -0.4047552 -0.63051385 -0.6503999 -0.10117731 -0.4767423 0.17281744 0.563694 -0.2905618 0.100068316 0.30484807 -0.058413453 -0.5381394 0.2481565 -0.5454466 0.00813163 -0.4204652 -0.11725304 0.43090263 0.2192218 -0.27921146 -0.5960489 0.67716736 -0.43245178 -0.68411803 0.23149538 0.10279829 0.3936868 -0.31208438 -0.67320305 -0.55312526 -0.031678665 0.8845407 -0.28749463 -0.3526276 -0.3045305 -0.17078598 0.22117361 0.557535 -0.35375887 0.27851704 -0.0633883 0.0883303 -0.34397447 0.11491237 -0.47031426 -0.04324058 0.2409669 0.12541275 -0.11284222 0.08269669 0.20725667 -0.08020516 -0.058458973 0.061373193 0.39797094 -0.13886373 0.02317584 -0.062589094 -0.3193682 -0.38051257 0.24975024 -0.22645448 0.12719497 -0.46482828 0.27555057 -0.23272598 0.2624083 -0.07307048 -0.022509597 0.230418 -0.5466791 0.32557508 0.08988894 0.3582575 0.028347507 0.65440947 -0.4721815 -0.64526075 0.0982918 -0.17831491 0.22224814 0.035862245 0.090118 0.037680913 0.24218895 0.0034272303 -0.73112833 0.45198315 -0.3960335 0.025493775 -0.27684036 0.031687625 0.23125926 -0.2925379 
com.xiaochao.lcrapiddevelop.Data.HttpData.HttpData.setSubscribe 0.17022382 0.090477005 0.15416373 -0.3111402 -0.26969126 0.11241698 -0.37819275 0.13373135 0.8999701 0.18417442 0.11196999 0.05855225 -0.31340516 0.30675852 0.1733511 -0.48614308 -0.36730424 -0.3587283 -0.81040466 -0.3730445 0.048272423 0.4856999 -0.2546827 0.71434057 0.84980685 -0.30460626 -1.0237654 -0.6572242 -0.6710217 0.7274001 -0.106517605 -0.0053332173 -0.23099267 -0.8065631 -0.17387046 -0.4052925 -0.36618987 -0.22531971 0.22295018 0.08260459 0.19446607 0.3328284 -0.1983497 0.22082715 -0.13005586 -0.29894748 -0.35133317 -0.5098028 0.27402958 -0.47895944 -0.38517877 0.7973413 0.648775 0.25329936 -0.7676887 0.67410463 0.10869973 -0.27322313 -0.3880447 0.052432463 -0.02514152 -0.69464153 -0.28430545 -0.39336047 -0.098758526 0.9640067 -0.061479475 -0.0022541755 -0.3306141 0.024418876 0.4559318 0.49140057 0.22201176 -0.23079352 -0.6339783 0.72185606 0.24997304 0.19525965 -0.12734112 0.17323492 -0.19642994 0.6338313 0.40683708 0.13745393 -0.17867784 0.10308407 -0.37428847 0.31716457 0.2535889 0.5984613 -0.70976084 -0.0039553843 0.071143344 -0.6972195 0.15239389 -0.09795303 -0.4729802 -0.27390087 0.14785609 -0.12524325 0.1414024 -0.20758186 -0.25003156 -0.5102932 -0.8139554 -0.35917592 -0.24434225 0.37321725 -0.24122639 0.4495364 0.19416963 -0.22438002 0.32330284 0.055868346 0.21514829 -0.47348973 0.25828215 -0.39412576 0.6807069 -0.15192392 0.23037523 -0.007686082 -0.32184628 -0.43280944 0.026060905 -0.31568685 0.21145742 -0.04747578 
com.xiaochao.lcrapiddevelop.Data.HttpData.HttpData -0.055294473 0.5327635 -0.18848391 -0.42489955 0.59927297 -0.15138242 -0.33187008 0.37176 0.7637531 0.13061778 0.32456738 0.03800491 0.140601 -0.013732224 0.17109516 -1.1651399 0.19702132 0.24128301 -0.25634876 0.12978221 -0.7408461 0.59911054 -0.30183384 0.06637628 0.030085819 -0.2621902 -0.53331983 -0.80264115 0.16112427 0.022409316 -0.10365635 0.19935958 -0.12393324 -0.228415 0.055001218 -0.2354002 -0.5856817 -0.43523678 -0.43186596 -0.041590128 0.74531066 0.41769657 -0.74890393 0.8066706 0.018219 -0.673105 -0.2260208 -0.5149253 0.04849812 0.40449515 -0.33624107 0.2854647 0.081349835 -0.19973153 -0.78850555 0.19141343 0.17492655 -0.6005208 0.060666975 -0.2736612 0.3352183 -0.02655413 -0.3861359 0.18128644 0.3644232 0.4803434 -0.04485872 0.010576326 0.42369857 -0.013860533 0.4967697 0.17161188 0.07939667 0.09580483 0.08405214 -0.47432914 -0.3276583 0.111460574 -0.1514748 0.09674941 -0.12594809 0.07780969 0.19553536 0.09008645 -0.007831567 -0.47883737 -0.67356735 0.6456801 0.090186864 -0.15332489 -0.72030133 -0.18746513 -0.43876028 -0.46933463 0.32992375 0.5547309 -0.09004317 -0.002006537 0.02607953 -0.2750991 -0.19574283 0.004261214 0.13432585 -0.48686603 -0.33396477 0.5056721 -0.19915 -0.3143066 0.089200854 0.14024614 -0.7574787 -0.6537241 0.24914604 -0.22620279 0.28894293 0.039656438 -0.07367309 -0.19855277 0.22826214 0.25962946 0.16103761 -0.32701626 -0.22238053 0.009199271 0.09198058 -0.45880985 0.8570989 -0.033489306 
com.xiaochao.lcrapiddevelop.Data.HttpData.HttpData.verfacationCodeGetCache 0.013828801 0.07847728 -0.21593677 -0.554915 0.6515147 0.6325093 -0.716658 -0.06214547 0.7332556 0.33662108 0.3529801 0.45695493 0.37005383 1.1681726 -0.16864593 -0.3944082 0.07822134 0.22179681 -0.5973479 0.34298602 -0.22039443 0.84075963 -0.5539572 0.05602654 0.16356955 -0.60188186 -0.618476 -0.63267076 -0.1636259 0.39978758 0.2703786 0.43620414 0.008221716 -0.4071648 -0.11191811 -0.38136277 -1.0573988 -0.09654546 0.058133483 -0.4229112 0.7701745 0.81306237 -0.28745738 0.99685216 0.84319675 -0.31171176 0.13007078 -0.5387267 -0.8415576 -0.36032265 -0.54226184 0.44552302 0.2315873 -0.25890356 -0.55745846 0.3106043 0.12895566 -0.63276285 0.13732858 0.50068384 -0.23382886 -0.2763845 -0.21765175 -0.32912132 -0.41489998 0.56624514 -0.18587145 0.6779836 0.59988755 -0.2003994 0.046259146 0.06821917 -0.049736544 -0.5037518 -0.8202326 -0.22689967 -0.19347823 0.77771634 -0.48812276 0.040734917 -0.35782605 -0.19236611 -0.09466273 -0.40769324 -0.33142942 0.07870649 -0.2946375 0.31295657 0.24677072 -0.31331134 -0.7518402 -0.23337649 -0.29565898 -0.6595604 0.22193319 0.23910111 0.14265893 -0.11809842 -0.6614274 -0.588549 0.18019852 0.31990698 0.07156128 0.10467798 0.1092448 0.67143613 -0.39096835 0.059401818 -0.06730644 0.50553346 0.18570131 0.05027948 0.22022374 -0.19362651 0.31612596 0.1305248 0.5565475 -0.17721196 0.22954723 0.20185475 0.15384966 -0.81752604 -0.115228385 0.38583228 -0.47202805 0.40151587 -0.0004405595 -0.46107244 
com.xiaochao.lcrapiddevelop.MVP.Model.VideoListModel -0.029129073 0.48055634 -0.04356166 -0.21418618 0.7290166 0.16841012 -0.015551617 -0.46802503 0.43384326 0.2805764 0.37700734 -0.3160151 0.1369404 0.14743514 -0.13042606 -0.4129624 0.50184625 0.21292585 -0.4187966 0.25370836 -0.43478334 0.48479432 0.22599833 -0.073700644 0.25911763 0.21504962 -0.5351004 -0.55463505 -0.22656414 -0.60320127 -0.14669277 -0.18122868 -0.5011448 -0.37972158 0.18158674 -0.12371274 -0.6958288 -0.15862839 -0.41565827 -0.28370678 -0.07498423 0.54864997 -0.24520746 0.8078097 0.39728543 -0.17973086 -0.079014346 -0.534853 -0.5003413 -0.47006345 0.16484323 0.89112556 0.77371776 -0.004852597 -0.65631646 0.28560287 -0.3641236 -0.5833435 0.29971284 0.06706011 0.54987985 -0.710509 0.25930125 -0.06554375 -0.11096366 0.41231197 -0.3315619 -0.04875423 -0.340504 0.30943644 0.5250985 0.39874443 -0.13459441 -0.42550865 -0.34921232 -0.25722042 -0.545903 -0.5259201 -0.123479016 0.5695485 -0.15579368 0.07101003 0.27444738 0.18790556 0.17600982 0.43062678 -0.12275915 1.1252028 0.0013763253 0.04888982 -0.13392828 -0.75072557 -0.5872711 0.029979998 0.6442779 0.111325115 -0.039157614 0.4905457 -0.21077266 0.6109963 0.20309082 -0.25542924 -0.2666244 0.25554666 -0.07327198 0.29099864 -0.0133804735 -0.071022496 -0.62527514 0.52792543 -0.9761678 -0.33353725 -0.11727509 -0.27209726 0.08250728 0.036734786 0.64189106 -0.58923596 -0.40114328 0.43917698 0.74495834 0.19057359 -0.15075709 0.5833545 -0.03965554 -0.3882295 0.27534562 0.26675817 
com.xiaochao.lcrapiddevelop.Data.APi.APIService 0.3384735 0.6779781 -0.2902905 -0.44227722 0.46108398 0.21817511 0.29996258 0.32520217 0.65681916 0.31733802 0.63328904 0.044375494 0.27602097 0.29566848 -0.040017392 -1.1455165 0.6292461 0.27497742 -0.83252424 0.5363554 -0.7115305 0.463963 -0.28848436 0.06611362 -0.11227617 -0.36008972 -0.43534595 -0.57281643 -0.14530067 -0.070611395 -0.2037936 -0.24897283 -0.026536843 -0.88295573 0.34791163 -0.2546707 -0.5786777 -0.5781568 -0.68885875 -0.3958064 0.93242335 0.27756625 -0.74577975 0.9970263 -0.12683363 -0.5629968 -0.16473939 -0.62093794 -0.07738026 -0.15849623 -0.052838676 0.5560537 0.28468975 -0.2110274 -0.65627366 0.07882969 0.0870331 -0.75764734 -0.38552755 0.044912957 0.65130234 -0.5121925 -0.7440046 -0.15464734 0.31565377 0.52466685 0.14091477 0.14146027 0.36296493 0.38733718 -0.04381276 -0.0083983205 0.30516246 -0.026901042 0.5089312 -0.6605548 -0.2452581 0.4166479 -0.28902626 0.5391301 0.027789596 -0.15471262 0.26403317 0.17669728 0.16312422 -0.47065032 -0.8395762 0.20258419 0.24898317 0.37132508 -0.7599442 -0.29980984 -0.004354858 -0.5773123 0.06464586 0.36177316 -0.075994395 -0.0016063164 0.06842687 -0.20669349 0.099130675 0.30596516 0.04589814 -0.40282723 -0.27680317 0.923739 -0.18228343 -0.16872492 0.42973277 0.18803725 -0.8460343 -0.7461992 0.082896486 0.13891621 -0.14835826 0.34659234 -0.11879524 -0.3583698 -0.2050826 0.33905023 0.06698815 0.36824575 0.11694782 -0.12474272 -0.23250371 -0.50967574 0.6788287 0.026574504 
com.xiaochao.lcrapiddevelop.MVP.Model.BookListModel 0.054555178 0.29657048 0.2368754 -0.3614814 0.055828594 0.22175604 -0.40321693 -0.07314001 0.86559623 -0.43770736 0.5380608 -0.65981025 0.39227447 0.23937762 -0.5083131 -0.42012703 0.67058164 0.08224186 0.08623556 0.16548155 -1.1381333 0.487102 0.056110315 0.27570072 0.13799259 -0.27190167 -0.10160588 -0.1589331 0.48173967 0.03293422 0.0043525533 0.3160477 -0.5638396 -0.10052403 -0.111600906 -0.27219033 -1.0537834 0.083667755 -0.5459905 -0.14854486 0.92462397 0.3635291 -0.03982969 0.82818025 0.28745764 -0.14596757 0.020896418 -0.38675827 0.1274318 0.06941696 -0.20985387 0.4718455 0.5444716 0.09929644 -0.45974284 0.43270954 0.18660878 0.070302874 0.045909606 -0.3196284 0.50256205 -0.38148597 0.052092124 -0.0797811 -0.3436165 0.4142612 0.01584022 -0.57695425 -0.6857614 -0.48127076 0.25897565 0.5735052 0.09887257 -0.11202579 0.13359404 0.3561779 -0.1933501 -0.23576252 -0.17102143 0.33248612 -0.2392989 0.6143716 -0.032686852 -0.016964542 -0.20747437 -0.057172477 -0.28369397 0.516596 0.14760412 -0.1466686 -0.39362654 -0.33504322 -0.38247225 -0.41061756 0.7580997 -0.1079172 -0.13291143 0.41452074 0.08394184 0.12828848 0.28213948 -0.0046834573 0.63272357 0.15180779 -0.11657158 0.298832 -0.1332111 0.044155266 -0.80584943 0.58245015 -1.0680219 -0.6433001 -0.026639964 -0.11653598 -0.09118574 -0.3919098 0.3091294 0.15160011 -0.030989131 0.2332416 0.20171905 0.11932046 -0.58923024 0.53735495 -0.14382201 -0.2584013 0.42800438 0.28857017 
com.xiaochao.lcrapiddevelop.Data.Retrofit.RetrofitUtils -0.074639745 0.82527006 -0.64273554 -0.054454163 0.2762665 0.14909083 -0.28430152 0.37333715 0.35645565 0.065328665 -0.3077095 -0.18849893 -0.11642575 -0.4916826 -0.18577048 -0.8057761 0.25967413 0.40703425 -0.11992632 -0.246123 -0.40326872 0.388062 -0.19551171 0.33898386 -0.08261296 -0.40869927 -0.64853853 -0.36300474 -0.22192635 -0.04134736 0.06260837 -0.21017101 -0.43313354 0.25680384 -0.050263815 0.21920559 -0.46501553 -0.21816187 -0.28505003 -0.7352191 0.81026065 -0.36274588 -0.6052776 0.7479212 0.4664975 -0.10745529 0.31127393 -0.12808481 0.10321343 -0.22730884 -0.20451744 0.43216187 0.38916796 -0.70053613 -0.21008545 -0.32529673 0.028656676 -0.9847581 -0.21272233 -0.021684544 0.3361038 -0.38927796 -0.4084463 0.41651836 0.17527355 0.8031912 0.7834121 0.07719474 0.053548496 0.0054552252 0.55213886 -0.11393219 0.13806733 -1.1375017 -0.12983054 -0.5123236 -0.48193637 0.51599604 -0.14819866 0.91973996 0.0052436 -0.017239999 -0.18615855 0.5170446 -0.12242938 -0.29618615 -0.5894241 0.37411556 0.58269507 1.0402434 -0.22617336 0.022689171 -0.64486545 -0.19446754 0.12104219 -0.16041905 0.37260437 0.30282816 0.82621425 -0.021746961 0.7361298 0.25775823 0.39038345 -0.35420313 -0.35217348 0.7965025 -0.29893777 0.4454683 0.5807055 0.32510927 -0.95017725 -0.25979587 -0.325329 -0.34204173 -0.24140622 0.34446788 0.7337621 -0.72947216 0.27255142 0.61215264 0.43356746 0.45488334 -0.69005334 0.25351533 0.538796 -0.34855086 0.13161589 0.85215575 
com.xiaochao.lcrapiddevelop.UI.entity.HttpResult -0.31247836 0.32527393 -0.22249272 -0.26884633 0.5545014 0.11786522 0.23490447 0.45756304 0.74753237 0.9432141 -0.4400917 0.20908721 -0.20970617 -0.056828085 -0.2935 -1.095638 0.0640614 0.79685116 -0.3188749 -0.008786305 0.14868748 0.22860481 -0.22244324 -0.013644839 0.5638564 -1.348223 -0.58419055 -0.86797094 -0.35436165 0.06702149 0.78131753 0.18704951 -0.65424985 -0.40720922 0.06661282 0.46962532 -0.6022575 -0.0024490075 -0.13644263 0.029532904 1.0084052 0.9682523 -0.7006447 0.5837745 0.13763137 -0.4885123 -0.40960205 -0.19582665 -0.58279496 -0.688186 -0.60144717 0.28586778 0.1273722 0.16446497 -0.8831132 0.3829656 0.5009725 -0.37152147 -0.5519819 0.09932504 -0.20394856 0.31568977 -0.41284767 -0.4293321 -0.010434019 1.5405387 -0.17848505 -0.5309538 0.19412443 -0.39421135 0.5051289 1.0594983 0.47796968 0.12002764 -0.014987775 0.009085036 -0.0035892772 0.83090144 -0.523365 0.6644787 -0.41635808 0.36101082 0.13554896 0.18019527 -0.26820982 -0.46674287 -0.2950924 0.6220015 0.5314836 0.17931226 -0.95612824 -0.63879853 -0.45225918 -0.38890475 -0.29620346 -0.2283866 0.31286642 0.4447777 -0.06798297 -0.94666386 0.04443188 0.89861155 0.56455994 -0.21114838 -0.38963133 0.4198515 -0.45673886 0.38549265 -0.20045048 0.03923986 -1.0762713 -0.45881942 -0.13365546 0.09975221 -0.33793375 -0.07805004 0.37820023 -0.20548068 0.42348546 -0.38534403 -0.1348808 -0.41344726 -0.3407174 -0.43078646 -0.03660879 -0.41842198 0.09161186 -0.737721 
com.xiaochao.lcrapiddevelop.UI.entity.HttpResult.getCode -0.11112019 -0.47423443 0.030627655 -0.24540775 0.36946082 0.35442984 -0.6095304 0.3814089 0.45129746 -0.44902277 -0.26798037 -0.12272137 -0.10865728 0.36077783 0.29197666 -0.2735725 0.42737004 0.24784563 -0.41635203 -0.38567668 -0.08382572 0.1938556 -0.22391887 -0.23052527 0.9674183 -0.3443462 -1.0992075 -0.31066108 -0.10155374 0.12845595 -0.18805909 0.09658412 0.36603385 -0.44052592 -0.22947662 -0.28602841 -0.35275277 -0.16974483 -0.29364184 -0.005875441 0.33558914 -0.7920961 0.057508204 0.56989986 0.20486684 0.12901084 -0.77144694 -0.4754218 0.14668925 -0.5575161 0.6245665 0.69544786 0.5433082 0.01734168 -0.40487242 0.8477222 0.08870874 -0.3910959 0.011385791 -0.08108845 0.005548554 -0.4623557 0.15838984 -0.25313655 0.15142207 0.7706362 -0.38683218 -0.4483382 -0.14759582 -0.38156378 0.31782445 0.81828094 -0.3612283 -0.56942326 -0.042112924 0.49101186 -0.37496206 0.5168778 -0.23899491 -0.0419926 -0.5867976 0.5978932 0.35738727 0.5012994 0.34574676 0.80822253 -0.45953175 0.48442525 0.09776564 -0.26785254 -0.79426587 -0.275704 0.33984116 -0.78588444 0.18081623 -0.33699402 0.043389507 -0.71964616 -0.006032439 0.10859624 -0.020776931 0.63448983 0.069467686 -0.026365079 -0.13487676 0.19068526 -0.7121366 0.041895285 0.28035623 0.50691634 -0.6727366 -0.25359273 0.23215094 -0.16465776 0.06684742 -0.011030172 0.29489878 0.06724846 0.96525925 0.25390568 0.17095785 0.46678656 0.48905173 0.45836183 0.6087296 -0.21464646 0.25268042 -0.82931423 
com.xiaochao.lcrapiddevelop.Data.Retrofit.ApiException.ApiException -0.89140314 0.15801421 -0.116336696 -0.5494523 0.69209534 0.5721585 0.8133678 0.6336054 0.10080449 0.65145165 -0.92195445 -0.30359575 0.17575462 0.20807374 -0.40894866 -0.69797057 0.06367289 0.9099228 -0.39526293 -0.076844275 -0.09272113 0.46738705 -0.20226426 -0.371029 1.0870789 -1.0859863 -0.51586026 -0.47696272 -0.992323 -0.1864264 1.3261383 -0.09589838 -0.4123597 -0.9765243 -0.29486844 0.56914485 -0.78320414 0.025932657 -0.3219814 -0.0882524 0.48460183 0.5054541 -0.33751038 0.59179175 0.29866183 -0.17404686 -0.35295388 -0.7968205 -0.21203257 -0.47281688 -0.46160063 0.8609065 0.72697115 -0.3398116 -0.9534722 0.65914774 0.48703703 0.24193825 -0.57105076 -0.38313344 -0.012145311 0.26885772 -0.15584797 -0.12821855 0.8416696 0.5163282 -0.33105165 -0.3660158 -1.0416096 -0.6714582 -0.3977173 0.36632544 0.3366124 -0.10648964 -0.0045263455 0.29481146 0.08264612 0.9612685 -0.6974301 0.44321018 -0.3440711 0.8885371 -0.6981934 0.97665644 0.07541393 0.04410858 -0.052641597 0.025852239 0.45734185 -0.2744893 -1.0927305 -1.4970721 0.03170315 -1.1625036 0.03722461 -1.0258348 0.6628187 0.5936107 0.2796015 -0.3710318 0.2005579 1.0589964 0.50084513 0.28590995 -0.053801093 0.15484436 -0.08948593 0.3716016 0.5899514 0.6182614 -1.1474212 0.4184193 -0.40553918 0.44303173 0.059740357 -1.0829452 0.8774448 -0.8270541 0.64053077 -1.0463775 -0.191277 0.24623114 0.26296687 -0.45975316 0.03692625 -0.75078547 -0.49085099 -0.71699286 
com.xiaochao.lcrapiddevelop.Data.Retrofit.ApiException -0.6894593 -0.34499344 0.6987846 -0.2735513 1.4078984 0.4509162 0.2269056 0.28551313 -0.072004184 0.40061548 -0.98226905 -0.37849358 -0.3244883 0.46141478 -1.2807307 -0.2913392 -0.031412296 0.4279745 -1.1028174 -0.017566618 -1.0376958 0.62417775 -1.0566032 -0.37194926 0.81804645 -0.88833916 -0.89597815 -1.3141912 -0.39794236 -0.7829694 0.14059265 0.034935445 -0.32721287 -0.48355234 -0.6852296 0.31780726 -0.7823801 -0.21320213 -0.4482227 -0.19650224 0.44010046 0.094962485 -0.51978475 0.3999656 0.07607423 0.018228138 -0.40462708 -0.14164084 -0.2309489 0.18003824 -0.019434037 0.5067084 -0.03358935 -0.27831635 -0.1385225 0.6700118 0.44944277 0.31670853 -0.70232904 0.49285093 -0.8761702 -0.2868556 -0.3906791 -0.111479126 0.22183983 0.40716106 -0.6053376 -0.18519677 -0.07872619 -0.29777557 0.7693476 0.8553704 0.054959916 -0.6274565 0.6077813 -0.037017364 -0.060292754 0.7364596 -0.3601021 0.8156397 -0.1457021 1.198148 0.13413085 0.74802995 0.72414917 0.23180482 0.014780998 -0.37129903 -0.1983342 -0.1393921 -0.23412491 -1.0493267 -0.23154496 -0.61415756 0.31516048 0.23342784 -0.25704333 -0.2880395 0.22073781 -0.8161054 0.17430991 0.44108254 0.07794834 0.3509956 0.19796741 -0.1340947 -0.2985464 -0.116638556 -0.3083592 -0.18030995 -1.2947309 1.3430564 -0.31482425 -0.08041374 0.19079871 -0.3518224 0.8853747 -0.46935874 1.1157173 -0.25659883 0.29065654 -0.36760703 0.28346333 -0.0017576588 -0.1404701 0.14560935 -0.13818161 -1.1122003 
com.xiaochao.lcrapiddevelop.UI.entity.HttpResult.getData -0.17160928 -0.4303735 0.04195457 -0.3443148 -0.0507555 0.71995455 -0.5634087 0.5051805 0.64719677 0.19504298 -0.152115 -0.33677393 0.019711835 0.049448922 0.57796925 -0.48225993 0.06587504 0.3873613 -0.3954485 -0.13711908 -0.0049967864 0.19095604 -0.24937977 -0.061197978 0.7654639 -0.28121904 -1.0051703 -0.2848179 -0.28301886 0.43912506 0.069467254 -0.17710012 0.115922734 -0.554443 -0.3144664 -0.75882554 -0.4448236 -0.19313224 -0.4953604 -0.20677204 0.56681335 -0.3883137 -0.33958456 0.595608 0.30494255 -0.19423315 -0.9769067 -0.9525416 0.4955352 -0.27072245 0.23081775 0.856604 0.676603 -0.04704655 -0.41391206 1.4135824 0.31421265 -0.7165646 0.13799787 -0.48895139 -0.36260244 -0.30044094 0.0836396 -0.0917859 -0.08404214 0.77960354 -0.42843407 -0.19406271 0.042136565 -0.2820167 0.51461774 0.6465663 -0.112964086 -0.20020346 0.038135603 0.43595466 0.017375432 0.14087263 -0.019543257 0.13985452 -0.39034978 0.62867534 0.6346412 0.2700891 0.02923114 0.36440572 -0.6689944 0.5363542 -0.067808166 0.088314496 -1.0410737 -0.33808365 -0.021946145 -0.80717516 0.24843605 -0.38876072 -0.039902423 -0.9528947 -0.17725256 -0.13131094 0.12881191 0.18878114 0.24002407 -0.3074477 -0.44157648 0.24838509 -0.44749695 0.10200822 0.045384407 0.6385498 -0.69602346 -0.91352797 0.2900905 -0.095012926 0.2239692 -0.021983577 -0.06768076 0.05980244 0.92537075 -0.01269921 0.14490727 0.4700877 0.06491969 0.634901 0.5190308 -0.015326989 0.4418637 -0.13956626 
com.xiaochao.lcrapiddeveloplibrary.Exception.core.RecoveryActivity 0.9423428 0.62174547 -0.25521687 -0.23302965 0.6559223 0.07436673 -1.0733181 0.63205034 -0.3057019 -0.22909927 -0.26827538 -0.774196 -0.64055026 -0.2968152 0.48154587 -0.18632813 0.08290677 -0.3709329 -0.5961873 0.072391525 0.5037509 0.101295136 0.56042457 0.13010931 0.38766584 -0.37197262 -0.41696072 0.20688896 0.6942293 0.074109994 -0.5636443 -0.05649276 -0.30377814 0.0401928 0.1765819 0.013841798 -0.28154263 -0.0016383353 0.34662697 0.04276939 0.62815034 0.4364832 0.03564653 0.64136034 -0.2077895 0.5750066 0.034105837 -0.31352964 0.15050007 0.056969505 -0.309713 -0.33296105 0.28235248 -0.64307934 -0.29078394 0.4089162 0.14275452 -0.29543072 -0.015737865 0.18107724 0.41603196 0.21140356 -0.166336 0.45798627 -0.22734718 0.13665329 0.5187362 1.0268556 -0.21432082 0.6186968 0.43228185 0.183533 -0.3780698 -0.6448085 -0.3852218 -0.3136673 -0.07270205 -0.18978667 0.33265534 -0.118251 -0.17271769 0.2590382 -0.8265339 -0.2096703 -0.15106738 0.1738648 0.26251408 -0.82780445 -0.35533503 -0.11090828 -0.4527308 -0.058852825 0.14861366 0.012999399 -0.42077902 0.43516946 0.47312596 0.622106 0.8486608 -0.032722265 0.36122915 -0.59964573 -0.883131 0.07778552 0.36707819 0.22775963 0.19967397 0.15840416 -0.024773836 0.6376666 0.07297709 -0.3381522 0.22435118 -0.084394924 0.57458353 0.58433574 0.082188316 0.08713414 -0.077602714 0.60366267 0.74265 -0.82396 -0.7205796 -0.17753194 -0.18166056 0.2710942 -0.46557987 0.31886616 
com.xiaochao.lcrapiddeveloplibrary.Exception.core.RecoveryActivity.onStop -0.31987995 1.3226563 -0.47039106 -0.16138539 0.103585385 0.3855718 -1.1431262 0.34487087 0.69083405 -0.90623116 0.78564626 -0.60005504 -0.24137695 0.18911493 1.004588 0.013459436 -0.41040757 -0.7310034 -1.3680745 -0.30571675 -0.010387992 0.55799615 1.2517788 -0.18868692 0.38381338 -0.12907849 -1.5157733 -0.27306464 -0.42153248 -0.5684417 -0.41456813 -0.027558347 -0.71600527 -0.24237321 0.14066416 0.481331 -0.12158048 0.1250253 -0.50853884 0.39499032 0.9848627 1.386773 -0.325916 0.37472013 -1.1395944 0.0310966 0.05633675 -0.66361797 -0.41476175 1.0850593 -0.7712547 0.67263794 1.1207966 0.1035007 -0.69925493 1.1575108 -0.45229626 -0.18935768 -0.7657079 1.0401534 1.4204724 0.032762222 0.021696223 1.027974 -0.02426939 -0.2404829 0.25658038 1.0632632 -1.030846 0.07218671 0.9557295 0.005248259 0.7227234 -0.1570867 -0.6901364 -0.06681161 -0.72398883 -0.35328722 0.048368327 -0.40243968 0.49951676 0.41763213 -0.19524096 0.012180286 0.12685396 -0.29521874 0.2622502 -0.23608133 0.016305616 0.94397825 -0.50253284 -0.8606626 0.652734 -0.61017436 0.39282864 0.24718069 0.5754994 0.21148273 0.97898984 0.321271 0.37535644 -0.18596387 -0.9310987 -0.7042671 -0.5418064 -1.3483548 1.191527 -0.1578647 1.1368773 -0.057249356 -0.040635105 -0.28489932 0.5788797 0.15399157 0.11849509 -0.5500171 0.19126284 0.17252472 -0.29736623 -0.14425892 0.29149702 0.6507996 0.5142769 -0.76849294 -0.811742 1.1844414 -1.2909051 0.5937866 
AppCompatActivity -0.38202506 -0.01782341 -0.87075657 0.33667395 0.33887368 0.48885012 -0.36671048 0.1280806 -0.13556886 0.18532908 -0.09605621 -0.3497089 -0.4344944 -0.12541324 0.08036268 -0.014422182 0.16455847 -0.7565198 -0.18331969 0.26563463 0.058247454 0.28245372 0.4072864 0.13676995 0.3549761 -0.27400246 -0.9886341 -0.5034005 -0.2220358 0.4470603 -0.2944572 -0.7627821 -0.29475954 0.03385615 0.16538571 -0.17155768 0.0077654226 -0.37301844 -0.016502555 -0.61183673 0.77071035 -0.1910132 -0.07193819 0.14864184 0.013130903 0.17390095 0.23386903 -0.06953854 0.09837848 -0.36765158 -0.10824432 0.17335954 0.51091516 -0.051021032 -0.58868945 -0.5837596 0.3551802 0.275475 -0.25699574 0.15418084 -0.58001715 0.183803 -0.06685314 0.03914113 0.011410289 -0.04571036 0.2698954 -0.021341551 0.15153828 -0.35905644 1.0372536 0.9425138 -0.32471985 0.45665184 -0.48813263 0.45878345 0.052877147 0.13408738 0.09580776 0.2957852 -0.3444005 0.35916388 0.10013052 0.31824306 -0.11475862 -0.23099037 -0.0053856215 -0.72301394 -0.4528278 0.319558 0.17934301 -0.33447185 -0.2917411 0.23926178 -0.7737684 1.0051359 0.19400656 -0.23708071 -0.035928573 -0.09734771 0.515589 0.23453043 0.36242136 -0.77675736 0.27705488 -0.04855409 -0.07854433 -0.100849934 0.27806008 0.5283403 -0.18407841 -0.11753375 0.05659708 -0.36634898 0.001109871 -0.20417418 -0.67520654 -0.14603186 -0.281376 -0.75170386 -0.1741411 0.1133647 -0.16022913 0.0036801351 -0.5091061 0.26435938 -0.3436926 0.15560146 
com.xiaochao.lcrapiddeveloplibrary.Exception.core.RecoveryActivity.finish -0.1271913 -0.25087652 -0.1089425 -0.01262167 0.8214509 0.7627086 -1.1862812 -0.14781351 1.3384575 -1.1923431 0.5426885 -0.83278334 -0.848194 0.19000335 0.62766594 -0.15972297 0.49164852 0.3051196 -1.0462806 -0.7257902 -0.5058112 1.4317125 0.9363266 -0.48741737 0.6738201 -0.48432174 -0.939032 0.3576356 0.59351444 0.5272305 -0.8782507 0.16329941 0.29167068 -0.57040054 -0.7572249 -0.11967518 -0.22510564 -0.33433643 0.14180641 -0.6995621 -0.62389046 0.20538357 0.16625588 -0.025907144 0.13758543 0.5442938 -0.31841588 -0.20953731 0.9670122 0.72764176 -0.6736523 -0.028569333 0.9045832 -0.79866207 0.20042734 1.4369711 0.25320575 0.22075307 0.10790093 -0.4447007 -0.23753826 0.09594107 0.4583477 0.5929515 -0.6226724 -0.17912062 0.9278996 0.93625236 -0.27131584 1.4966247 1.4844854 0.5016642 -0.09738129 -0.1455665 0.3573273 -0.01425548 0.77593404 0.32912305 0.93742025 0.33307582 0.14511962 0.66039383 0.023522716 0.20006704 0.5082164 0.43837917 0.782318 -0.098447144 0.2686644 0.37860233 0.16012362 0.44043228 0.65962344 -0.30491298 1.1313133 0.10456679 -0.049473334 -0.37061915 0.6508322 -0.26426008 -0.035346188 -0.40122932 -1.1068944 0.02049588 -0.13491084 -0.9315997 0.41790986 -0.15052699 -0.33895192 -0.10675698 -0.0599174 -0.67477745 0.24022666 0.407273 0.3872928 0.5312972 0.118346 0.7237927 0.0065984274 1.2290741 0.00089782587 0.3811642 0.4005157 -0.3283851 -0.4935717 0.8145503 -0.33278647 0.35859197 
com.xiaochao.lcrapiddeveloplibrary.Exception.core.RecoveryActivity.onOptionsItemSelected -0.14474075 0.65559846 -0.77638537 -0.68687594 0.5192325 -0.4309061 -1.519154 -0.106949575 0.127707 -0.18327843 -0.2051542 -0.5379459 0.08505972 -0.19326657 -0.2977845 0.017582718 0.3858774 0.3443625 -0.7640629 -0.31423143 -0.3056978 0.32400826 0.9045078 0.25445554 -0.36201432 -0.27626255 -0.5562457 -0.06253559 0.6295825 -0.25598338 -0.84604317 -0.090615936 0.038817216 -0.17404768 0.14018969 0.051267423 -0.16202557 0.35965028 -0.42633396 0.23394321 0.6846727 0.24478114 0.027841501 1.0524575 -1.0280583 0.29434046 0.42708668 -0.399478 -0.2854802 -0.6860468 -0.06808245 0.16144517 0.23998815 -0.5014766 -0.171593 0.12562267 -0.10745397 0.26415277 0.009233188 -0.04239185 0.09314432 0.659761 -0.2522428 1.6966742 0.09323841 -0.1581831 0.5284817 0.53170687 -0.6749661 -0.4167717 0.14074394 0.61800945 0.060607094 0.20755154 -0.40659258 0.11983376 -0.11230122 0.18593316 0.60506624 -0.23245992 -0.239065 0.17750978 -0.6003156 -0.4329434 -0.036907084 -0.32065654 0.10239646 0.044360116 -0.08153327 0.6582532 0.16041553 0.19983664 -0.1160253 -0.48122624 -0.2235821 0.116034865 0.7973812 0.4986347 1.5916613 0.4338775 0.60134155 -0.15793827 -0.7885692 -0.16420561 0.35601586 -0.7941717 0.023879483 0.6683364 0.62902755 0.29294294 -0.2058312 0.6545841 -0.057037044 -0.52926034 0.1617168 0.49109766 0.17486557 0.09820248 -0.25556454 0.91835076 0.58903426 -0.114411235 -0.5235439 0.11840476 0.5263262 0.48894614 -0.69226384 0.9696183 
RuntimeException -0.43552086 0.040809836 0.46314582 0.04848917 0.7277254 0.2767802 -0.102497876 0.44639948 -0.13872242 -0.15813884 -0.48540077 0.21604073 0.22384425 0.74700487 -0.33060014 -0.48696586 -0.43315536 -0.035548802 -1.3899271 0.17791723 -0.28825942 0.16631852 -0.050040822 0.2663925 0.39043888 -0.5692296 -0.5918103 -1.2638843 0.4330381 -0.4583162 0.27713484 -0.4041894 -0.114565976 0.05538813 0.0008822339 -0.0019896228 -0.45451182 0.3706616 -0.23051783 0.12631245 0.5666382 0.75055677 -0.4901049 0.65402764 0.33848628 0.25901833 -0.36501795 -0.62187356 -0.28716877 0.10599033 0.19153349 0.14799644 0.49251664 0.20770109 -0.09199227 1.1622155 -0.08231279 0.1834826 -0.6915849 0.20155749 -0.3264316 -0.27784008 -0.21091813 0.1803038 0.46681145 1.1362306 -0.8714323 0.22832611 0.05483644 -0.04337355 -0.07140749 1.0850568 0.1857613 -1.4421601 0.78192496 -0.052684687 -0.11738192 1.305439 0.07068012 0.84634125 -0.7015445 0.55872285 0.036930002 1.084938 0.36120072 -0.4413297 -0.4535657 -0.75165445 0.32230324 0.077575184 -0.4059548 -1.3930001 -0.4928269 -0.77334064 0.101262935 0.10826404 -0.25286493 0.13719948 0.10091478 -0.78801835 0.3040681 1.0668185 -0.12344837 0.6901249 0.21377419 0.7815909 -0.23470612 0.17273593 0.45442188 -0.22749388 -0.7722554 1.26753 0.5362878 0.10796697 -0.18919154 -0.48702127 0.7056358 -0.16362423 0.7496458 0.4849352 -0.09776663 -0.4979689 0.23152949 -0.41839495 0.03082266 0.12397031 -0.34909454 -0.91428494 
com.xiaochao.lcrapiddevelop.UI.GridView.GridViewActivity 0.05445941 -0.10128838 -0.37536246 0.031073937 -0.049079087 0.007518221 -0.18112868 0.1671602 0.05058339 -0.15604094 -0.4606265 0.3357085 -0.48496735 0.06248796 0.25749582 0.26603663 -0.45497763 -0.25897187 0.047623638 -0.39321628 -0.14718483 -0.07228821 0.024290994 0.45477712 0.018003223 -0.36356437 -0.070778005 0.08501514 0.58544666 0.5096685 -0.32155228 -0.19075727 -0.1123311 -0.65511024 -0.30626696 -0.09879782 -0.51531696 0.13217539 -0.34047064 -0.15867645 0.3128159 0.131264 -0.35744354 -0.035863552 -0.10667726 -0.4258607 0.062380046 -0.521583 0.08015105 -0.12787084 -0.22805244 0.3759992 -0.04561481 -0.59320456 -0.21308266 0.120260835 0.34672812 -0.19493707 0.701732 -0.17478469 0.17981541 -0.3975105 -0.09819401 -0.1720929 -0.5900977 0.09395822 -0.36066234 0.3202727 -0.08517951 0.30473676 -0.1496199 0.24758913 0.43310457 -0.07957514 -0.10330994 0.39158487 -0.26953867 -0.29860076 -0.25079042 0.13767551 0.3546052 0.3537608 -0.07687939 0.36185038 -0.26750898 -0.12679137 0.25708553 -0.3789246 0.46856114 0.36981234 -0.40888488 -0.47690937 0.005224341 0.20342812 0.27374855 0.14781104 0.062432535 -0.24270096 -0.1892221 0.3128329 -0.24705115 0.016985154 0.49418354 -0.5170907 0.2955461 -0.43705255 -0.032966286 0.32587868 0.18118721 0.5414366 0.0033560328 -0.34450465 -0.15548733 -0.41608176 0.25444463 0.0019851772 0.40802804 -0.43996376 -0.117244475 -0.076767035 0.012330182 0.088800065 -0.39364693 0.65802413 0.7760875 -0.027668444 0.018284472 0.07911087 
com.xiaochao.lcrapiddevelop.UI.GridView.GridViewActivity.newDatas -0.16062197 -1.0904982 0.031327616 -0.3638726 0.607564 -0.5241825 0.18241587 0.43096843 -0.25388768 -0.34174517 -1.3778121 -0.0750429 -1.179624 0.55428076 -0.2257529 0.5808551 -0.4768454 -0.019501342 -0.40240973 -0.2551517 -0.5127979 -0.17708202 0.36446825 0.4221513 0.115957625 -0.22939394 0.24270548 -0.45999563 0.076737426 0.6075022 -0.7988575 0.10128934 -0.7453913 -0.2717221 -0.54929936 -0.5692407 -0.3366085 0.14411172 -0.3518721 0.19528994 -0.5435734 0.20333402 -0.32430348 0.17338184 0.023171464 0.06544116 0.678862 -0.5268766 -0.22090782 -0.24092579 -0.5321001 -0.4361974 -0.8400664 -0.2836729 -0.87246025 0.16154318 0.40908235 0.24114364 0.73934585 -0.0217699 0.00472278 -0.85780823 0.50516397 -0.37462115 0.022275535 0.29566905 -0.34529814 0.4615248 -0.75838715 -0.5604204 1.1495094 0.574093 0.23605846 -0.4739015 -0.11963899 1.0744987 -0.1842768 -0.39879003 -0.8735296 0.4230219 0.26353297 0.39831904 0.047251895 -0.19102794 -0.97546434 -0.38724828 0.169769 -0.4201915 0.14556937 -1.0863694 0.103934474 0.043159604 -0.9594555 -0.11004191 1.3395042 0.31774732 0.04897615 -0.1557039 0.3485291 0.80414003 -0.014588025 -1.3865832 0.41960576 -0.100479305 0.6389345 -0.2076319 -0.39796123 1.2938184 -0.08968926 0.8034649 -0.42602184 -0.24365595 0.8082282 -0.11968727 0.6896715 -0.19526854 -0.2160103 -0.93542236 -0.24953444 0.16267464 -0.31269562 0.30727226 0.48268816 0.6390745 -0.4092257 -0.01093643 -0.44912946 0.20974356 
SwipeRefreshLayout -0.2670091 -0.30202502 0.017702544 0.2226757 -0.3313898 0.021784874 -0.32323465 -0.33675632 -0.27709717 -0.028177723 -0.46067575 -0.27175933 -0.59444344 0.5521385 0.063002214 -0.24005966 -0.22901063 -0.74865264 -0.20561776 -0.6852164 -0.26686245 0.07572904 0.5269478 0.38699698 0.50921655 -0.10225185 -0.10088114 -0.39807412 0.100565344 0.5746396 -0.21236986 -0.0435102 -0.17703857 -0.08854976 0.15889493 -0.12384655 -0.42684355 -0.59288305 -0.042578686 -0.49277136 0.7796987 -0.23397754 -0.28216347 0.23220485 -0.2266191 0.119816296 0.49846718 -0.02401965 0.375324 -0.049375545 0.008156208 0.026510788 0.27921546 -0.2484781 -0.2684091 -0.042318683 -0.4216932 -0.1553552 0.7669343 0.09635091 0.33854178 -0.52520764 -0.14143933 -0.0074413335 0.007741225 -0.09422761 -0.029010423 0.10849331 0.57077813 0.28478134 0.17227961 0.33716774 -0.08933557 -0.0708976 -0.4729687 0.1046675 -0.16745372 0.25855237 0.122648455 0.33870614 -0.26145548 0.25852898 -0.09112976 0.2165579 -0.015973065 -0.50551695 0.21141332 -0.44660726 0.4450857 0.41342905 -0.5829426 0.13501988 0.44503096 -0.07309201 0.61623603 -0.104302935 0.22216341 0.1992878 -0.11203397 0.6776123 0.16312946 -0.14509316 0.52656466 -0.44228864 -0.11920795 -0.099704474 -0.38452888 0.5454638 0.23459531 0.8952819 -0.4430616 -0.31065664 0.694166 -0.03121858 -0.10874112 -0.14969595 0.11924201 -0.30328968 0.26481476 -0.22016592 -0.4345599 0.23640072 -0.56966513 0.69477594 -0.0975579 -0.109871544 -0.09373899 -0.25030142 
RecyclerView 0.16966915 -0.08244907 -0.30352834 0.47977182 -0.051863927 0.4467373 -0.3502584 -0.23710927 0.43785748 0.38381988 -0.60746205 0.26819167 -0.56079817 -0.21929713 0.27735433 0.09525695 -0.05097686 -0.8494036 -0.4405539 -0.50801253 -0.31397495 -0.0981476 0.2082309 -0.21858905 0.47178286 0.37835392 -0.09518854 -0.071468234 -0.40959558 0.3194122 -0.19042484 -0.045735203 -0.3756378 -0.44385192 0.19222647 0.4758843 0.24366672 -0.310059 -0.41601053 -0.22720854 0.4564874 0.5305766 -0.17794535 0.46076688 0.41585985 0.34618685 0.7905664 -0.5221455 0.7147021 -0.68533844 -0.18907143 -0.005011831 0.6949032 -0.023442049 -0.15312055 -0.022559768 0.05535043 0.17959204 0.3150254 0.38411838 0.101840205 -0.54019994 0.005489115 -0.14510381 0.029753448 0.6998676 0.3114141 0.36765045 0.08537312 -0.32025465 0.015810069 0.8082943 -0.33647645 0.019295927 -0.53130925 0.35493705 -0.14953342 0.1939476 0.31338003 0.2909204 -0.02256909 0.056802507 -0.022521714 0.24428882 0.16922355 0.04476027 -0.3715005 -0.12468222 0.16338599 0.0004293824 0.034279898 -0.027278988 -0.04186314 -0.014226398 0.14241612 0.52809334 0.05955239 0.068554096 0.011954924 0.5089531 0.2719908 0.34298337 0.4097381 -0.42390776 0.21138223 0.49581292 -0.07261832 -0.195845 0.55637044 0.119807534 0.04041339 -0.2737628 0.3173496 -0.61901623 -0.25667512 0.05207795 -0.38401434 0.1524239 -0.088271745 -0.25462332 -0.19411278 0.33590323 -0.043298636 0.23999643 0.3835952 0.35593435 -0.035242237 -0.20795214 
com.xiaochao.lcrapiddeveloplibrary.BaseQuickAdapterT.RequestLoadMoreListener -0.21014112 0.1145508 -0.26516488 0.694584 0.2063857 -0.028168293 -0.1442714 -0.397635 0.12485103 0.04566814 -0.3613107 -0.0018836386 -0.06453465 0.48508635 0.30688116 0.40949804 -0.69344383 -0.5965123 -0.1888564 -0.37582856 -0.54911387 -0.31619668 0.00072149694 -0.020738725 0.58500385 0.013798284 -0.3592148 -0.08093333 -0.047145188 0.50389636 0.19152398 -0.6255216 -0.1754334 -0.040046506 0.10837161 0.17094155 -0.20201959 -0.16269912 0.016303018 -0.009589388 0.38263145 0.16240698 -0.28127357 0.074105665 0.319454 0.13458896 0.6328297 -0.2296704 0.48759475 -0.40877208 -0.5823285 0.3325998 0.46799368 0.11990506 -0.27073917 0.23871973 -0.2745361 0.23832746 0.25258785 0.17778884 0.45576715 -0.20776153 -0.28240377 -0.12707572 -0.31309977 0.30230224 -0.07285087 0.24556175 0.4751039 0.18075672 0.30036923 0.6182622 -0.3342564 0.13732597 -0.19399433 0.19165851 -0.48112515 0.19563542 0.1341084 -0.041689314 0.02444024 0.3372804 0.31313366 -0.026707062 0.26320574 -0.010117613 -0.3246331 -0.44208124 0.38907507 0.46142757 -0.18322591 -0.32282963 0.01091554 -0.18347275 0.4149768 0.34376526 0.7130423 0.27811393 -0.34986776 0.6936296 0.46201816 -0.2725829 0.6096804 -0.049839016 0.03982362 0.42527995 -0.44802448 0.31948858 -0.00028865543 0.22120798 -0.32231447 -0.21435684 0.1032209 -0.038456235 -0.35299408 -0.29511234 -0.053565476 -0.37491158 0.25206122 -0.100604065 0.14056617 0.3283146 0.054561235 0.10456525 0.36027154 0.2306455 -0.058353964 0.13394064 
com.xiaochao.lcrapiddevelop.MVP.View.BookListView -0.12500471 -0.18747516 0.15800552 0.15283637 -0.24954934 0.33157408 0.18844207 0.7724641 0.5536933 0.26958075 -0.14344637 -0.14458986 -0.28319448 0.7045722 -0.19719398 0.14736333 -0.12121094 -0.7132703 -0.19055715 -0.35533968 -0.7641703 -0.29062134 0.2006467 0.45230094 0.536257 0.032900278 0.17307064 0.35610408 0.1516924 0.8641499 0.041965384 -0.039186344 -0.21079566 -0.29675782 -0.34641784 0.22418655 -0.083529964 -0.060160473 -0.49276665 0.32026982 0.45593175 -0.124459155 0.068885624 0.4666608 0.13734782 -0.41292015 0.13038056 0.04396395 -0.34784743 -0.22002342 -0.11672607 0.519582 0.11522537 0.087501176 -0.45853236 0.40423486 0.007921273 0.32127398 0.13864414 -0.4835224 0.3346965 0.0096967695 -0.16117974 0.7452367 -0.14432755 0.7062732 0.32857642 0.8301443 0.15900068 0.046964068 0.35150626 0.13519055 0.34592363 0.36921522 0.2939782 0.60963905 -0.23832649 0.5825717 0.015903145 0.31800026 -0.20135912 -0.12416286 -0.20376275 0.16208388 0.1135019 -0.34827963 0.17457718 -0.5988562 -0.026898494 0.14915031 -0.72157025 -0.28615534 0.01958924 -0.60417587 0.33998728 0.09240888 0.15301351 0.43442202 -0.27399358 0.9745224 -0.051001985 -0.20941463 1.0456737 -0.28614765 0.30298758 0.26686957 0.06925669 0.26830563 0.48603347 0.3915173 -0.037645835 -0.5722948 -0.29198638 -0.085496604 -0.21936661 -0.31006166 -0.23743276 0.17178743 0.13362235 -0.6229069 -0.081868716 -0.04734582 -0.068203546 -0.30263105 -0.18751852 0.07743682 0.06951096 -0.11007097 
OnRefreshListener -0.18737738 -0.29788643 -0.008213235 0.6097104 -0.3789337 0.00094205217 -0.34414214 0.19383295 -0.36822018 0.2877021 -0.5482868 -0.25820768 -0.5498067 0.34709182 0.17021412 -0.12788075 -0.44706324 -0.7405297 -0.3406316 -0.62456334 -0.18398789 -0.032105707 0.50531816 0.05581883 0.34560376 -0.32040343 -0.25344604 -0.092708334 0.031164136 0.66974473 -0.047731668 -0.1084851 -0.21176942 -0.18573117 -0.045225997 -0.078145064 -0.1586847 -0.5501019 -0.17566586 -0.02435585 0.42797872 -0.47088662 0.20327742 0.31763333 0.09492497 0.39555696 0.4510747 -0.020311348 0.19425496 -0.075549856 0.041685257 0.44161662 0.43004066 -0.39255255 -0.77402323 -0.12610447 -0.4615115 0.021246772 0.6837405 0.077753395 0.19553837 -0.19508877 0.114413306 -0.03754928 -0.23404692 0.15051635 -0.3158747 0.6295214 0.38835838 0.26892018 0.1350664 0.3479638 -0.21444085 0.47955054 -0.22782607 0.014242264 -0.49533162 0.09659711 0.4726538 0.24985747 -0.45088628 0.21566841 -0.19959775 0.1817757 -0.16270714 -0.34200475 -0.17052965 -0.76175034 0.65305674 0.1389905 -0.31329143 -0.21896623 0.076246925 -0.4153248 0.60626096 0.25439665 -0.1177652 -0.029589783 -0.14913899 0.6098101 0.5989215 -0.19300927 0.57331467 -0.3082425 -0.30748904 -0.15968607 -0.05935081 0.48313805 0.20139922 0.44634977 -0.12596583 -0.22311443 0.6246556 0.11460573 0.10194054 -0.11189606 0.115416355 -0.0655349 -0.025947673 0.03404012 -0.4355676 0.35386422 -0.61644685 0.53135574 0.15027119 0.007371309 -0.122251466 -0.24195631 
com.xiaochao.lcrapiddeveloplibrary.viewtype.ProgressActivity -0.2969756 0.08904735 0.06069717 0.33458114 0.0014529101 0.16655232 -0.21221498 -0.528774 0.13442263 -0.06363357 -0.20792067 -0.078452736 -0.17617996 0.31935978 0.16278578 0.2589266 -0.1563657 0.12547646 -0.4072995 -0.14008217 -0.16741261 -0.1378399 0.07287173 0.46176535 0.236228 -0.06586012 -0.1111195 -0.2047768 -0.14780068 0.25775138 -0.21432279 0.09247515 -0.1586392 -0.33415905 0.05456254 0.169635 -0.14377087 0.5541318 -0.85249025 0.116615996 0.050647564 -0.065091304 0.029370997 0.092987314 0.09981788 -0.108209446 0.282675 -0.2828383 0.17965718 -0.6245817 -0.26815638 0.058320582 0.062611155 -0.08332918 -0.17199774 0.51509976 0.10682691 0.2227525 0.030547187 0.1061286 -0.2134741 -0.32422855 -0.15822703 0.18013102 -0.03739175 0.42014003 0.051940978 0.16066244 0.45942923 0.17953321 0.2884906 0.21965219 0.019218383 0.22288254 0.08703613 0.31904766 -0.29416543 0.1992345 -0.08204078 0.30660057 -0.17618877 0.45918825 -0.35622936 0.054041266 -0.21882777 0.109513074 -0.090050526 -0.18851544 0.00093374006 0.27402458 -0.14035068 -0.09076974 -0.084752485 -0.119110316 0.52776873 0.5783008 0.25520006 -0.03051942 -0.19896634 0.090748064 -0.21120952 -0.33194748 0.5923033 -0.10743676 0.07907673 -0.6141132 -0.22262688 0.39949372 0.46916232 0.34917 -0.0911352 -0.42524046 -0.10290748 -0.16152501 0.04672321 -0.3171591 0.0053766286 -0.04247144 0.22500408 -0.08123848 -0.19986655 -0.0910886 -0.18373387 0.47198486 0.4017002 0.35475925 0.023045108 0.22779131 
com.xiaochao.lcrapiddevelop.UI.Video.VideoListActivity.newDatas -0.33004287 -0.9638247 -0.36582673 -0.03597324 0.82381797 -0.1909688 -0.6335644 0.2980398 0.19655281 -0.15518704 -0.9942231 -0.29979983 0.023133224 0.65071166 0.8954529 0.65151244 -0.30197126 0.33336985 -0.1397454 -0.2178579 0.22812174 -0.021841455 0.675889 0.36133245 -0.2487065 -0.1848776 -0.38106227 0.08386918 0.01888502 0.5444445 -0.0140516 0.7585174 -0.08849992 -0.065051295 -0.15963148 -0.32088444 -0.07417538 0.49631232 -0.6859125 0.17169918 -0.50547993 0.27983937 0.21575293 0.6995467 0.74556327 0.36485937 0.5707924 -0.63595444 0.020141786 -0.26570973 -0.9970779 -0.17670812 -0.40013075 -0.23966593 -1.1034601 0.49880362 -0.07438976 -0.43159837 1.1160251 0.6690598 -0.20942451 -0.19895142 0.39592907 -1.1341752 0.0939193 0.8878186 -0.0733272 -0.048504867 0.005692396 0.33522627 0.6665593 0.57627964 -0.74400514 -0.010326503 -0.6400039 0.8877341 0.42874077 0.4757017 -0.64226305 0.2590751 0.021397071 0.2930402 0.20727147 0.05074663 -0.105405174 0.26620853 0.17868866 0.43936732 0.2491316 -1.1104385 0.09870973 -0.17739223 -0.19970348 0.38237432 0.7000074 0.380044 0.25673464 0.16681898 -0.7107274 -0.050158076 0.106879085 0.06976587 0.626177 -0.12723927 -0.34514248 -0.35502598 -0.42517692 0.38269255 -0.872021 0.30456895 -0.5737652 -0.42244044 0.8976396 0.011642227 0.42474663 0.42075065 0.18247283 -0.49438575 -0.35405242 0.013869942 -0.26406953 -0.022873586 0.3049418 0.2099902 -0.4198453 0.8539482 -0.61843777 0.030349877 
com.xiaochao.lcrapiddeveloplibrary.BaseQuickAdapter.setNewData -0.072307795 0.12779287 -0.60019726 -0.117433436 0.47485256 0.112958215 0.26931897 0.27207068 -0.22560157 -0.010754894 -0.102603205 -0.4233749 -0.42517677 0.7786568 0.25165692 0.42590436 -0.11045839 -0.2855593 -0.7551071 -0.2603344 -0.93342006 0.20632121 0.1175882 0.3839018 0.27521828 0.1071835 -1.0207318 0.13723558 -0.077846795 -0.05597471 -0.022532884 1.0484074 -0.73421556 -1.0119941 -0.19880697 0.5729956 -0.3953489 0.5367985 -0.75015724 -0.11890536 0.993942 0.15230301 -0.52467734 0.2630907 -0.45137534 -0.19007924 0.1787888 -0.48627287 -0.0005033166 0.11130845 -0.6748265 0.14562427 -0.6404071 -0.49679607 -0.83558846 0.56525934 -0.11160545 -0.17113721 -0.36078537 0.3152132 0.31495404 -0.21641004 -0.026082974 -0.47501922 -0.121679805 -0.07989831 0.214924 0.7072506 0.2182886 -0.68844503 -0.21005169 0.3991234 -0.50558484 -0.012875027 -0.24979667 0.5919733 -0.43914986 -0.21922569 -0.28276005 -0.055990346 0.27830213 0.42835572 -0.5068148 0.81764036 0.17992136 0.31316313 0.02558399 -0.9024476 -0.43436465 0.20526992 -0.51898015 0.27860928 -0.43788835 -0.40865973 1.0089457 0.7857392 0.055386975 0.27784315 -0.53388566 0.079673424 -0.19133708 0.4852691 -0.2753732 -0.04731097 0.2382919 -0.5245949 0.58481425 0.06512247 0.09356609 0.73403823 -0.13056034 -0.67028236 1.0287025 0.04274823 -0.022142021 -0.4534472 0.37325254 -0.9061604 -0.24441853 -0.23737511 -0.059189014 0.18346605 -0.05946234 0.74405515 0.1652161 0.44657272 -0.7665254 -0.5310586 
com.xiaochao.lcrapiddevelop.UI.ListviewGrouping.ListviewGroupingActivity.newDatas -0.16291364 -1.3327476 -0.3316751 -0.2032578 0.20689586 -0.5633964 0.04040903 -0.18022458 0.017435674 0.20041572 -0.5429453 -0.1405017 -0.95178634 0.24452801 -0.050307292 0.26593542 -0.26059905 0.30544388 -1.1527303 -0.36504537 -0.041654766 -0.3037444 0.4406528 0.92523396 0.42417923 -0.5297972 -0.32102436 0.1483062 0.31584504 0.62201077 -0.6239119 0.14375316 -0.7304868 -0.19872104 -0.09926934 -0.8384636 0.15583673 -0.43873075 -0.054572262 0.07108429 -0.004449324 -0.6655442 -0.37461936 0.058788866 -0.02991731 -0.36691508 0.6730783 0.014694239 0.40809518 -0.48071223 -0.45173737 -0.35186332 -1.0862726 -0.8741626 -0.6833088 0.3121853 -0.19531591 0.6466009 0.36500227 -0.29099858 -0.2125932 0.05658886 0.010440107 -0.5197419 0.17793591 0.11626148 -0.96743613 0.70135987 -0.5362963 0.3014529 1.0089364 0.7634395 -0.19456701 0.066866696 -0.54314184 0.67138904 0.31404972 0.40079305 0.10193554 0.391984 0.21410875 0.81419766 -0.27349156 -0.62027436 -0.82009476 0.25452426 0.4387884 -0.5355607 0.13110642 -0.38900724 0.38676596 0.39313504 -0.6891458 -0.29548487 0.98130286 0.26987886 -0.20142971 0.23055954 0.54832584 1.2270058 -0.39903557 -0.97520846 0.1310683 -0.07244577 1.0023898 -0.2777717 -0.4885861 0.8372735 -0.6318588 1.2187771 -0.13592942 -0.2938711 0.2533266 0.10084848 0.7062003 -0.5480172 0.21924724 0.314809 0.25019222 -0.029682046 -0.16583282 0.29656908 -0.045798525 0.66286665 0.49711785 0.33001104 -0.42303398 0.04403259 
com.xiaochao.lcrapiddeveloplibrary.BaseQuickAdapter -0.15305151 -0.8853615 -0.2971155 0.16270186 0.65842557 0.07316727 0.5489317 0.32845458 0.7725719 -0.01753093 -0.10807648 -0.03152914 -0.24474731 -0.061709296 0.24281515 -0.12744936 -0.7885527 -0.033889312 -0.30265018 -0.3024365 -0.57638645 0.14060889 0.2766448 0.2351946 0.30298817 -0.09419416 -0.3906594 -0.37220782 -0.29410928 0.7929686 -0.10240022 0.39981696 -0.26715946 -0.8983919 -0.12520649 -0.1868643 -0.052420605 -0.24279407 -0.92898273 -0.021814575 -0.18407713 0.32733166 0.10422574 0.2766572 -0.2695001 0.37720075 0.3131768 0.17781465 0.47779465 -0.2255623 -0.6638601 0.17468224 -0.3055282 -0.56816673 -0.34043515 -0.12701711 0.22692108 0.022417346 0.5763517 0.33808947 -0.21862786 -0.2524361 0.063860275 -0.3749066 -0.10602766 0.29671502 0.29984367 -0.033396367 0.084237255 0.06369701 -0.07199141 0.36557594 -0.49149573 -0.27073485 -0.4252255 0.59755194 -0.3432281 0.60693294 -0.6257098 0.12816884 -0.10525315 1.5705942e-05 -0.64772224 -0.16216218 -0.08331959 -0.023399357 -0.24402434 0.097302325 0.18090704 -0.46972224 0.017147163 -0.3544525 -0.59600794 0.39548498 0.838896 0.34397832 0.45082313 0.2753597 -0.38652647 0.21863538 0.06440223 0.15972902 0.42054898 -0.5140452 -0.23043945 0.110694714 0.018297942 -0.014489882 0.08157732 0.549995 -0.81650335 -0.3190148 0.32003194 -0.20421907 0.3177744 -0.5683603 0.5077396 0.19137251 -0.28714597 0.30122396 -0.8001863 -0.3366644 0.20455424 0.28155726 0.058276903 0.3932044 -0.7261694 0.19570296 
com.xiaochao.lcrapiddevelop.UI.ListvView.ListvViewActivity.newDatas 0.27201977 -0.8715685 0.52275276 0.01515006 0.21397066 0.29735982 -0.2836651 0.7409366 0.3959631 0.29773512 -1.160807 0.08977919 -0.78944063 0.30533528 0.2746592 0.77336675 -0.6820855 0.3540364 0.038339857 0.23021156 -0.2870071 -0.7925448 0.5649868 -0.39918524 0.10615614 -0.608235 -0.30434626 0.33634496 -0.87221545 0.40202454 0.2505925 0.36498758 -0.15759243 -0.32250327 0.07868259 -0.41353765 -0.42686334 0.3947226 -0.84442276 -0.111121766 -0.1768501 0.29044 0.37978593 -0.029986637 0.4492813 -0.3746997 0.16144563 -0.52054936 0.91074437 -0.2592474 -0.5750106 -0.022516057 -0.53260964 -0.24923748 -0.5635293 0.5787076 -0.21876305 -0.4839875 0.22372705 -0.09195416 0.35946172 0.2125851 0.45074335 -0.5984636 0.34109104 0.24015649 0.5210004 0.48299822 -0.28001156 -0.37339857 0.9289729 0.43154275 -0.5615053 -0.40019092 -0.028658515 0.29494864 -0.678677 0.23077859 -0.5747453 0.16425145 0.61940956 1.0737042 -0.023198092 0.31178164 -0.3620468 0.38349107 0.31213138 -0.5537785 -0.29801488 -0.70019794 0.54198855 0.09180565 -0.72078764 0.037299838 0.42443997 0.6505926 0.31965187 0.5868715 -0.14440572 -0.58824944 0.6572522 -0.19124374 0.5763193 0.13396242 0.1432055 -0.11386278 -0.08626955 0.95596474 -0.78735197 1.1730741 -1.0634195 -0.7043379 0.3888374 -0.15801226 0.7681974 0.09357261 0.15300661 -0.7346904 0.2777258 -0.59822726 -0.4385762 -0.01605495 0.20552 0.44160518 -0.4904295 0.8297155 -1.2201167 0.4623918 
com.xiaochao.lcrapiddeveloplibrary.BaseQuickAdapter.OnItemChildClickListener 0.06293165 -0.22170173 -0.33333182 -1.1167657 0.36689007 -0.5832918 -0.4006596 1.0226555 1.1403607 0.29341647 -0.40884876 -0.2448616 0.064790875 -0.4588231 -0.19916415 -0.22350998 -1.0790623 -0.39442343 0.11283155 -0.1726072 0.27978855 1.1901108 0.25002858 -0.08413806 0.38469982 -0.96574056 -0.4810386 0.018958956 -0.39814505 0.48508582 0.082464576 -0.6867862 -0.6579927 -0.47101775 0.44379747 -0.049342327 -0.27232784 -0.87854755 -0.8733127 -0.76011467 0.68260735 0.38550183 0.24531955 0.14029723 0.15065251 0.08936705 1.1271931 -0.09180981 0.2832029 -0.029581964 -1.0639864 0.56718665 0.035268147 -0.68657875 -0.18160059 -0.22359928 -0.48853138 -0.92552185 0.25542286 -0.4925235 -0.0824082 0.22547501 -0.63704026 -0.25703272 0.006487303 0.62909 -0.03753232 0.3770133 -0.29917407 0.101832084 0.027799353 -0.63370335 -1.2146217 0.110899396 -0.19529966 -0.48049775 -0.7249332 -0.018274806 -0.29663703 0.12648389 0.61716014 -0.32932833 -0.27306673 -0.19525228 0.090860866 0.6593627 -0.5637271 0.27031332 0.2783317 -0.01575102 -0.3327179 0.0014381655 0.03388635 -0.08089984 -0.3166112 0.1697753 0.7513028 0.13056429 -0.5287387 0.34697384 0.42726687 0.3598781 0.81207365 -0.55897397 -0.15095793 0.56304413 -0.33227417 0.29792795 0.6119439 0.71764857 -1.269403 0.1089979 -0.1837252 -0.34368038 0.02368936 -0.27199805 0.75843465 0.006722141 0.3363883 -0.19292149 -0.9312757 -0.48421377 -0.543068 0.29473367 0.683967 0.50048155 -1.136168 -0.06369208 
com.xiaochao.lcrapiddevelop.UI.ListvView.ListvViewActivity 0.3390935 -0.12764424 0.10645047 -0.10225077 0.22408274 0.5511035 -0.4826889 0.42931613 0.59708345 0.35974383 0.11874767 -0.12216931 0.22636932 -0.040679708 0.16814804 -0.10724002 -0.36937466 -0.27535725 -0.61463267 0.077781744 -0.38848728 -0.33162192 -0.008765547 0.7470657 0.30325043 -0.11266183 -0.41582406 0.28406808 0.31548375 0.12490538 -0.43533686 -0.077504404 0.049776368 0.12943774 -0.68035644 0.20153856 -0.2795909 0.09213423 -0.88753 0.14164324 0.47399697 0.3131628 -0.13897926 -0.10484972 -0.14111152 -0.1552097 0.5652542 -0.24734625 0.1601738 -0.17605495 -0.28310218 0.29705963 0.08081868 -0.32838312 -0.35796103 0.021451587 0.1620337 -0.06445503 -0.1101057 -0.33303252 0.17771202 -0.3823504 -0.011950191 0.124632396 -0.120228305 0.25778228 0.2167352 0.6081076 0.02460104 -0.35150442 0.59553635 0.0060687754 0.17700161 0.12445454 0.259454 -0.07449132 -0.4043763 -0.12251801 0.10959529 0.109952055 -0.13194178 0.2571797 -0.5480405 -0.20536281 0.05464418 0.04978282 0.04207798 -0.08243936 0.2960271 0.3108088 0.24214102 -0.42948416 0.5931113 -0.059994098 0.3663664 0.06234125 0.002050482 -0.060796686 -0.26092982 0.24637073 -0.10307419 -0.4447813 0.5887679 -0.21884644 0.06914228 -0.19175665 -0.45194647 0.19480592 -0.12392585 0.13367397 -0.09396454 -0.597445 -0.29415026 -0.78965765 -0.26323283 0.037182886 -0.20413254 -0.32276866 0.054078225 0.10446887 0.1334618 0.062091757 0.3343655 0.4269294 0.40260908 0.51234996 -0.3479443 0.14749704 
com.xiaochao.lcrapiddevelop.UI.Video.VideoListActivity -0.37251332 -0.11139406 -0.41696888 0.25262854 0.18443206 0.5103812 -0.31709346 0.0059409393 0.09389342 0.1987017 -0.10806731 -0.068147816 0.12863587 0.50836843 0.2200674 0.59002614 -0.47171515 0.020770818 -0.6820801 -0.2328133 -0.391723 0.36809787 0.06053074 0.56665057 -0.049398173 0.05198849 -0.4064478 0.10110213 0.16949393 0.43154025 0.18113095 0.23863494 -0.054334983 -0.14770317 -0.2678036 0.0967084 -0.31962004 0.33526826 -0.48846918 -0.13427891 0.020149892 0.12274694 -0.08902061 0.23033585 0.33343062 -0.1805869 0.48991424 -0.64392275 0.28104725 -0.44213068 -0.36776054 0.38381758 -0.16261165 -0.11184626 0.02745517 0.15182354 -0.2642794 -0.3375053 0.44244528 -0.23065373 -0.25127092 -0.058046985 -0.07395544 0.20545106 -0.050858915 0.20121546 -0.12862724 0.3836506 0.28609946 -0.10696886 -0.17790247 -0.20766366 0.080398425 -0.14314897 -0.3101412 0.038639184 -0.1616464 0.008825073 -0.42413628 0.39132088 -0.14071546 0.24940686 0.14630054 -0.46130487 -0.19570778 0.35505763 -0.19641683 0.42463925 0.10944725 0.069948 -0.1277301 -0.24654332 -0.23276803 -0.058807258 0.24480382 0.46669132 0.51750046 -0.04817759 -0.28002802 0.2825283 -0.031159654 -0.12807555 0.17118908 -0.33597437 -0.46957472 -0.2441529 -0.044976633 0.46311605 -0.11785482 0.23114592 0.22505708 -0.13961366 -0.0076918085 -0.40040892 -0.064382136 -0.08008896 0.12269974 -0.11129715 0.076036274 0.2669311 0.16671856 -0.025341036 0.08266436 0.415451 0.098339304 0.18990321 0.006937002 0.08256747 
com.xiaochao.lcrapiddevelop.UI.MainActivity 0.004261493 -0.7022957 -0.38876814 0.05832681 0.23299156 -0.10295723 0.10195559 1.1348171 0.4334765 -0.32310152 -0.38548753 -0.47145212 -0.29454386 -0.078308925 0.3993363 -0.2094043 -0.6313484 -0.264671 -0.7097291 -0.3865417 0.46984982 0.21056022 0.60458994 0.16035974 0.031983033 -0.03553411 -0.46028697 -0.49714455 0.020446884 0.55743873 -0.050436884 -0.18648727 -0.22425279 -0.47898674 0.081893876 0.04641057 0.39328298 -0.9177289 -0.5840996 -0.6342187 -0.2733008 0.6064036 0.98267263 0.2580609 0.06477725 0.20946479 0.51475835 -0.102806196 0.83067125 -0.54486895 0.13816373 -0.07067049 1.1444032 -0.457417 -0.31262287 0.28034118 0.54826504 -0.3728378 0.20875312 -0.6092433 -0.10160005 0.44585162 0.17310533 -0.45449683 0.17107499 0.08581651 0.43610874 1.1046722 -0.43295032 -0.12723105 0.6191642 0.46238506 -0.17483675 -0.30057612 -0.5016992 0.19597565 -0.2789723 -0.22175014 0.56186813 0.3438124 0.84640396 -0.17727575 -0.8609536 -0.28663728 -0.006997845 0.33147892 -1.0225296 0.21468952 0.14107332 -0.31891024 -0.17510578 0.53492874 0.13605724 -0.1639038 -0.47460818 0.32719883 0.3253819 0.33338118 -0.24749777 0.35119504 0.45776665 0.3090014 0.8519546 -0.66577935 -0.3415499 0.06306168 -0.5483185 0.13505131 0.41177353 0.7403595 -0.23978 0.38349104 0.3830297 -0.48577836 0.046913654 0.012421142 0.16158557 -0.030621517 0.028917702 -0.061928727 0.07631754 -0.0770508 0.26107508 0.18155396 0.5042874 -0.08211344 -0.9644687 -0.021088667 
com.xiaochao.lcrapiddevelop.UI.ListviewGrouping.ListviewGroupingActivity -0.43243447 -0.144626 0.02044124 0.09357546 -0.1664633 0.19461177 0.1792458 -0.42147395 -0.016353117 0.1580367 -0.37665203 -0.2227324 -0.15231326 -0.17720465 0.21921661 -0.33825308 -0.27158484 0.20756702 -0.48633274 0.11741041 -0.25506917 -0.37583488 -0.06346388 0.62557095 -0.13462996 -0.25235757 0.011091843 -0.037732955 0.42684585 0.39268398 -0.26893756 0.10265608 -0.27899835 0.058204718 -0.26517558 -0.30559632 0.47498733 0.20283021 -0.33557698 0.35293648 0.76550806 0.14751661 -0.05494774 0.20038098 0.032118384 -0.27465096 0.49278268 -0.3845831 0.42375147 -0.5969315 -0.29949382 0.5680374 -0.050342157 -0.6116242 -0.49320745 0.27123496 0.014094098 0.0611163 -0.06865242 -0.15161076 0.12975919 -0.21539383 0.109921075 -0.047855616 -0.036263574 0.3224907 -0.4011392 0.24809293 -0.050791215 -0.020377036 0.21618704 0.17088164 0.27129528 -0.30102828 0.043625794 0.24871737 -0.48196912 0.054788023 -0.10711228 0.01930847 -0.32235068 0.5177647 -0.3731715 0.09329693 -0.45396426 -0.30434147 -0.028146034 -0.1637531 0.29619625 0.15126896 -0.45436257 -0.1083365 -0.16888458 -0.017995507 0.26255482 -0.2387342 0.10653954 0.5148114 0.047161672 0.38356134 0.05498928 0.101980984 0.48983407 -0.54818004 -0.102977976 -0.52388924 0.046887547 0.06292279 0.2291424 0.94549334 -0.24535272 -0.16301131 0.0212422 -0.35414752 0.0402086 -0.26770005 0.36983255 0.15323353 0.31878495 -0.12222529 -0.16922364 0.10216735 0.026745861 0.66558176 0.080899976 0.033964835 0.18531945 -0.07600088 
com.xiaochao.lcrapiddeveloplibrary.BaseQuickAdapter.openLoadMore -0.46531254 0.19547027 -0.45781252 -0.09688957 0.32563606 -0.28653002 0.15474012 0.35234264 -0.2099716 -0.07282199 0.1705457 -0.64162594 -0.17363793 0.5815771 0.20375028 0.3539424 -0.34004077 -0.14515205 -0.354999 -0.43752906 -0.7377084 0.22201204 -0.051681615 0.4155699 0.60771954 0.30687496 -0.7004917 -0.28178024 -0.22852135 0.5047508 0.21937335 0.7971298 -0.5863243 -0.92861164 -0.44612068 0.6663456 -0.7627498 0.53194714 -0.6298636 0.23548044 0.60473305 0.106649004 -0.36624578 -0.02217804 -0.40323484 -0.44770843 0.3975406 -0.65887195 0.43400255 0.12650558 -0.3515792 0.022953555 -0.25473067 -0.3521297 -0.4986478 0.52157694 -0.09212058 0.0026504686 -0.6262535 0.8605118 0.106277145 -0.24252212 0.062011376 -0.682581 0.18466361 0.03245979 -0.24444896 0.6930809 -0.498179 -0.43776166 -0.011836074 0.70392776 -0.5867308 0.17514196 -0.4253054 0.6499268 -0.31993154 0.19873169 -0.3451568 0.16488709 0.08856369 0.2727111 -0.24046184 0.31289196 0.034368128 0.6892904 -0.25018105 -0.8534926 0.06876438 0.14678895 -0.19136208 0.15680024 -0.23666036 -0.74581593 0.6115829 0.28231326 0.452996 -0.023499921 -0.14032285 0.28988662 -0.25101218 0.49893132 -0.171973 0.048097998 0.092002176 -0.65694314 0.77144307 0.14242338 0.14979763 0.34356973 0.048207577 -0.26822785 0.9650462 0.10925721 -0.07820877 -0.6222593 0.13482328 -0.6160113 0.13585292 0.16650623 -0.28494015 0.13706444 -0.048439026 0.78173476 -0.13449036 0.5156204 -0.6171962 -0.16737667 
com.xiaochao.lcrapiddevelop.UI.ListviewGrouping.ListviewGroupingActivity.onCreate 0.15197441 -1.1080887 -0.048765123 -0.16945067 -0.06355434 0.5321312 0.4595585 -0.4911332 0.4778943 -0.046901952 -0.5556312 0.19008827 -0.23161888 -0.52879447 0.17372166 -1.0711838 -0.43849587 0.28904182 -0.85741174 -0.9189192 -0.3652583 0.49938762 -0.36368775 0.59388125 0.25562316 -0.5228784 -0.28306437 0.26251212 -0.4496827 0.49856737 -0.6857764 -0.75327396 0.07342099 -0.22389595 -0.81020576 -0.28918082 0.1692657 -0.67253673 -0.7079213 -0.06150858 0.16029705 0.14219104 0.19225349 0.5930001 -0.7329961 0.37442678 0.8957212 0.28323263 0.871982 -0.8366284 -0.6426621 0.23018569 -0.30393085 -0.11811013 -1.1243672 -0.057158843 0.17536938 0.096218884 0.5283726 0.044951342 0.34039825 0.3678835 -0.35270017 -0.08011203 -0.24655853 -0.099105224 -0.64621377 -0.008667909 -0.09154502 -0.36333328 0.7459208 0.1813444 -0.4977385 0.21767916 0.120445676 0.7387102 -0.32156262 0.22058117 -0.34041962 -0.07590958 0.9373081 0.5892005 -0.47242475 -0.020319724 -0.19383635 0.051561456 -0.09999773 0.2683031 0.9906394 -0.6272289 0.038670722 -0.07756949 0.11484335 -0.21619709 0.57657814 -0.33940813 0.13018711 -0.30942103 0.23119548 0.9146874 -0.015725983 -0.032683834 0.69635254 -0.6983216 0.2252146 0.03708984 0.36977097 0.5807517 0.47911486 0.73766166 -0.5129563 0.1138914 -0.23747022 -0.17435814 1.0822475 -0.44673872 0.8332689 -0.25510573 -0.2072354 -0.085156456 -0.063530155 0.3632129 -0.56185114 0.1568236 0.29405338 -0.086103365 0.4256916 0.26889962 
com.xiaochao.lcrapiddevelop.UI.Video.VideoListActivity.onCreate 0.15379955 -0.40146223 -0.8116355 0.048567798 0.634652 0.17198712 -0.5532148 0.15556338 0.6762967 -0.23021719 -0.020358488 -0.2101601 0.52942437 0.99356574 0.15212084 -0.10841332 -0.6779311 0.36510175 -0.49578363 -0.51359594 -0.8265813 0.09687281 0.58278567 0.7650996 0.034586385 0.59356546 -0.83212847 0.11013454 -0.11857666 -0.16308545 0.2514371 -0.36222932 0.13413264 0.23310156 -0.51729435 0.20271933 -0.25339112 -0.12932512 -0.17241465 -0.009059623 0.031566024 0.55855966 -0.4125575 0.5192554 -0.02001213 0.34000912 0.29904395 0.2653471 0.12378962 -0.61754954 -0.49770027 0.062799916 0.01586431 0.27784777 -0.38891146 0.28160793 0.40428737 0.22966297 0.30390385 -0.6034969 -0.38003165 -0.49102047 0.4460652 -0.3536874 -0.2699411 0.37533274 -0.50511986 0.16941687 0.55611074 0.10237865 0.72977614 0.2329022 -0.39176294 -0.27388686 -0.7220575 0.73005164 -0.1465434 -0.18158105 -0.8207473 -0.081471436 0.0086983815 0.6015835 0.038545184 -0.56464034 0.016776048 0.10449955 0.036489513 0.51260316 0.30624676 0.083778776 -0.09149074 -0.5230846 -0.40916044 -0.23561662 0.67127955 0.37818617 -0.11901053 -0.3736645 -0.10311225 0.03385751 0.13195974 -0.35876998 -0.17193978 -0.7543874 -0.53772736 -0.5249062 0.2502489 0.25537592 0.8744084 0.070620805 0.47289172 0.23848979 0.37308383 -0.43760437 0.8116573 0.24826562 0.61989754 0.30984184 -0.8138272 -0.0059047723 0.60113007 0.116600886 0.04091163 0.29598358 -0.1324053 0.7747542 0.31365544 0.33663076 
com.xiaochao.lcrapiddevelop.UI.GridView.GridViewActivity.onCreate -0.042536356 -0.39131445 -0.43945196 -0.5129069 0.36360514 -0.21396308 0.313048 0.6568538 0.99893856 -0.07840486 -0.63297653 -0.27548543 -0.7046829 -0.03166729 0.021163842 -0.1927682 -0.46259418 -0.19316885 -0.13939543 -0.7632725 -0.19581869 0.5224042 0.28260475 0.69224995 0.70801675 -0.4173151 -0.32891655 -0.34953645 0.20253542 0.3992548 -0.61949235 -1.0197822 -0.1728557 0.62952673 -0.20877206 -0.64071804 -0.255693 -0.8602286 -0.2596419 0.016136698 0.10948856 -0.053286716 -0.102923796 0.007325902 -0.69768965 0.15778328 0.23523152 -0.25805983 0.54702634 -0.47211158 -0.17851286 0.38021785 -0.25523454 -0.3414 -0.27490953 0.27110973 -0.4013546 -0.02744093 0.4595585 -0.98618764 0.005159368 -0.81011325 0.058874883 0.27864867 -0.16717193 0.48774332 -0.6503472 -0.08679383 -0.21213655 -0.26458016 0.82154346 -0.10336614 -0.12246182 -0.27933976 -0.31542662 0.6791001 -0.705578 -0.12007165 -0.58674127 -0.406225 0.24577014 0.3974129 -0.5131012 0.17696542 -0.39097002 -0.38679528 0.54880434 -0.12704752 0.61090255 0.19650972 0.019646585 -0.37135297 -0.56487787 -0.5387677 0.88025445 -0.015058732 0.11169287 -0.07965565 -0.17572546 0.331657 0.5415839 -0.7051735 0.12617998 -0.03384713 0.12769468 -0.5413181 -0.27943105 0.54988015 0.8207908 0.45269406 -0.1771964 -0.01390522 0.38942704 -0.19396846 0.65179527 -0.020058066 0.87249386 -0.26367235 -0.34570086 0.065040044 0.047151536 0.22122128 -0.5127001 0.77663165 0.67690194 -0.18949778 0.021301566 0.36344784 
com.xiaochao.lcrapiddevelop.UI.ListvView.ListvViewActivity.onCreate 0.1395773 -0.21192703 -0.46427286 -0.6193919 0.22355497 -0.18050389 0.05349945 0.26859844 1.1952109 -0.102391064 -0.7431418 -0.3684082 -0.29744518 -0.11643269 -0.39135322 0.029290544 -0.35954124 -0.088770844 -0.23009863 -0.70051754 -0.39776802 0.15368727 0.75514567 1.028666 1.0999258 0.123191565 -0.2570506 0.47352466 -0.10966951 -0.18012153 0.31520316 -0.6574261 -0.059912473 0.4024041 -0.5076254 -0.32199568 -0.42226633 -0.5114542 -0.73136795 0.04788616 0.3806596 0.411729 -0.22712325 0.37757802 -0.7120141 0.2285437 0.03276104 0.58854824 0.84239554 -0.5998235 -0.282208 0.71627456 -0.42856792 -0.08185668 -0.110540524 0.3039135 0.10010147 0.36722323 0.42002705 -0.6852671 -0.28664646 -0.4456046 0.16193745 0.25779137 -0.16887422 0.027241291 0.34467188 0.21295688 -0.29147148 -0.23280188 0.45098594 0.26522043 -0.19393262 0.17875367 0.046270616 0.40074348 -0.69134283 0.13301206 -0.72514725 -0.4380518 0.4147341 0.92338836 -0.56013596 0.17468432 -0.556026 -0.21893328 0.24229595 -0.04952723 0.1765014 -0.028436402 0.06817266 -0.65232724 -0.34809703 -0.5076916 0.23738168 0.43010128 0.16678871 -0.3346325 0.20150548 -0.19789374 0.72329944 -0.5017476 0.44133845 -0.7124345 -0.23313305 -0.15272282 0.12849191 -0.31110132 0.7078097 0.37957916 0.019633578 -0.13171163 -0.15742455 -0.50930065 0.6931737 -0.77915925 0.4781244 -0.20910878 0.030960834 -0.7906703 0.6952902 -0.008500392 0.15016085 0.13027203 0.105670795 0.49947107 -0.09757578 0.50849503 
SwipeRefreshLayout::OnRefreshListener -0.097894475 -0.28814176 -0.19574443 0.42883253 -0.12086527 0.72486186 -0.21365792 -0.7334079 -0.09441514 0.11919631 -0.17597486 -0.22480774 -0.03387059 -0.19882645 0.2928552 -0.6918928 -0.35800537 -0.36237425 -0.7832357 -0.3824799 -0.3807079 -0.10298523 0.14797667 0.45875224 0.7057544 -0.40123114 -0.33656207 0.20150183 0.27288577 0.3504406 0.19415666 -0.27334496 -0.63271356 -0.2372544 -0.1637712 -0.31889182 0.036601014 -0.5231562 0.08211355 -0.4021866 1.0753386 -0.12864605 -0.103117436 0.29316205 0.119898535 0.2777391 0.6311297 -0.30946073 0.6310726 0.07884728 -0.28267586 0.34926754 0.31676623 -0.46658024 -0.76345754 0.03606762 -0.42867187 -0.061983425 0.14747256 -0.28334606 -0.03875709 -0.3256224 -0.12556644 -0.07209771 0.049242884 0.031364374 -0.057807017 0.37142056 0.08018666 0.6334947 0.25083122 0.3752638 -0.16271819 0.20878708 -0.0055156574 0.08585773 -0.36705434 -0.17839156 0.6749051 -0.029236272 -0.3752791 0.19865635 -0.41058642 -0.02948026 -0.12584162 -0.43428084 0.053089403 -0.34169275 0.3311845 0.39835808 -0.3981655 0.028205162 0.1734162 -0.4596217 0.071718626 0.18416986 -0.12227571 0.17018506 -0.12969452 0.8317422 0.43606874 -0.119134486 0.4742778 -0.3399821 0.1221503 0.09972498 -0.05595129 0.62351936 -0.17161408 0.6116759 -0.21302979 0.1824975 -0.013359381 -0.098380335 -0.018373178 -0.3482104 0.6530909 0.26232496 -0.325737 0.021134477 -0.352351 0.14033197 -0.29971278 0.9637138 -0.1300834 -0.2002875 0.033549916 -0.05554522 
com.xiaochao.lcrapiddevelop.Constant.JsonData -0.2900398 -0.6043142 0.31028098 -0.7997925 0.52152216 -0.3287136 -0.10608653 -0.34583923 0.19658998 -0.21910523 0.017567929 -0.39236385 -0.23268057 0.46682468 -0.18813 0.45556426 -0.21031977 0.17791115 -1.5692203 -0.48335543 -0.43353367 -0.2130139 0.27978742 1.2694738 0.7171104 -0.46387947 -0.44402304 0.01983564 0.5672132 0.6954439 -0.31726605 -0.30651325 -0.28358373 -0.06374552 -0.32139775 -0.24827561 0.09687379 0.12352595 -0.06276415 0.58303565 0.70289433 -0.1789249 -0.79896873 0.074516095 -0.05824056 0.3187797 0.41066638 0.30868623 0.61584675 -0.91411114 -0.41613808 -0.5203377 -0.8815643 -0.44012007 -0.78926754 -0.021241158 0.3803182 0.2725559 -0.20155059 -0.118474565 -0.18702294 0.048585236 0.039013293 -0.4761386 0.67771757 0.8124788 -0.38748172 0.38114357 -0.50651616 0.7218951 0.8773928 0.7131288 -0.91425794 0.26081795 0.23825215 0.2486162 -0.2102176 0.22338833 0.57525456 -0.041473243 -0.34906614 0.7078938 -0.36875713 0.054785676 0.39018396 1.2100772 0.33830446 -0.07383955 0.3615809 -0.3867949 -0.4447772 -0.4602092 -0.90063804 -0.43928617 1.3538438 0.5843934 -0.15894227 0.3435645 0.26738194 1.0490429 -1.0007254 -0.37905565 0.007245582 0.09186987 0.6601098 -0.2184564 -0.13217963 0.12429062 -0.8403318 1.3880992 -0.08995424 -0.11706237 0.2706015 -0.5071243 0.4474067 -0.70916957 0.33793014 0.56889963 0.6836433 -0.58337665 -0.058916036 -0.1854885 0.08429205 0.27806714 0.8636217 0.5992846 0.12194373 -0.30826196 
com.xiaochao.lcrapiddevelop.Constant.JsonData.getSampleData -0.5691186 -0.021093141 -0.23354788 -0.061625537 0.05329492 0.37663993 1.0481569 -0.10379282 0.15638323 0.06935969 0.15343362 -0.28577065 0.08094238 0.3126049 0.67369413 -0.66416174 -0.3645594 0.25313005 -1.4992328 -0.008849862 -0.0772272 -0.4490878 -0.32725662 1.0157938 0.70152605 -0.64226925 -0.549368 -0.27386323 0.40962133 0.95495725 0.7083112 0.6903537 -0.79768467 -0.7114765 -0.09089983 0.53912824 -0.23446709 -0.11769543 -0.9168856 0.2816507 1.0852549 0.9034269 -0.7138101 0.17596991 -0.38089225 -0.2102868 -0.1253308 -0.04302054 0.77314484 -0.92884016 -0.17371267 -0.05571329 0.16657525 -1.0574918 -1.2001611 0.595793 -0.32942522 -0.037050255 -0.15828066 0.2446067 0.71329767 1.120053 0.1381298 -0.39741078 0.23165879 0.20007525 -0.0892693 0.23219135 0.2601157 0.966036 0.06824953 0.73222536 -0.58208007 0.46711066 -0.011764769 0.6196947 -0.5692361 -0.2923131 0.43935078 0.113903984 0.37899625 0.823511 -1.0996803 0.7687752 0.21524018 0.41680148 -0.15046813 -0.37616596 0.19217367 0.32580188 -0.42769194 -1.0041447 -0.45859215 -0.6633609 0.8147717 -0.49533367 0.0030623178 0.59257656 -0.33628353 0.1356733 -0.6094054 0.1793334 0.004676971 0.16639122 0.1564531 -0.057146683 0.33888957 -0.47119915 -0.15793176 1.2094998 -0.28427902 -0.32195622 0.5083705 -0.6742152 0.6915782 -0.043533523 0.99572736 0.027369738 0.31928983 -0.46125382 -0.3308956 0.8324572 -0.17244235 0.50505835 0.07619333 -0.283675 -0.32558292 -0.22019058 
com.xiaochao.lcrapiddevelop.UI.ListviewGrouping.ListviewGroupingActivity.addDatas -1.2007573 -1.7197837 0.040495165 -0.6562872 0.5894668 -0.9028081 -0.31270427 -0.26011962 0.6221457 -0.16310132 -0.21855903 0.010856427 -0.68048084 0.24739292 -0.037880853 -0.0557675 0.11926274 0.07884778 -1.2802682 -0.5104696 -0.3928907 0.23323694 0.19350867 1.3043821 1.198778 -0.41991553 -0.6258255 0.15388666 0.51560044 1.1677861 0.09096406 -0.061902273 -0.14105082 -0.3376499 -0.2996879 -0.5690317 0.44261378 -0.42893073 -0.19836672 -0.027153343 1.1784132 -0.44023907 -0.2572727 -0.017325034 0.13953166 -0.16722602 0.5438235 0.6167079 0.4877114 -0.89873123 -0.31908292 -0.10142091 -1.2959694 -0.8193073 -0.8757353 0.13634346 0.2667227 0.21135677 0.4250125 0.23141263 0.6419545 -0.14765254 -0.5915618 0.44593382 0.52874756 0.38665238 -1.3337994 0.33402994 0.20190126 0.7832333 0.88538045 0.5505826 -1.2886744 -0.17710352 0.5115322 -0.30605718 -0.25806695 -0.07096526 0.05129689 0.10190286 -0.058833253 0.26377904 -0.48512334 0.46210748 0.5172619 0.6929653 0.49991634 0.3781167 0.71365225 -0.18511303 -0.35024515 -0.61716324 -0.58911014 -0.2869459 0.20242493 0.81810176 -0.3528904 0.43264788 -0.055273347 1.064004 -0.5735762 -0.6058004 0.8988734 0.45803413 -0.30293033 -0.011998852 -0.106498264 -0.16979627 -0.1897501 1.3085908 -0.6574773 -0.29884237 -0.35205704 -0.4071848 0.19967432 -0.05481157 -0.12549344 0.9392062 -0.009064414 -0.3863376 -0.26449695 -0.21102436 0.024872478 0.16232562 1.1802431 0.44643393 0.5441412 -0.13975139 
com.xiaochao.lcrapiddevelop.UI.WelcomeActivity 0.5213297 0.09850474 -0.11981118 0.119314775 0.4169439 0.81904423 -0.6371448 1.3469927 1.4751264 0.75942075 -0.29199284 -0.029026432 -0.27590343 -0.047368325 0.46172857 -0.3836177 -0.35321048 0.3348595 -0.6298576 -0.18532069 -0.28848687 -0.4438371 -0.57985616 0.43565008 1.0135865 -0.62827444 0.02441095 -0.29224026 0.029708942 0.826359 1.0188247 0.3837316 0.014351827 -0.57825583 -0.77829546 0.12662295 -0.65388703 0.13098645 -1.0902615 0.30887976 0.8559036 0.18172169 -0.54750437 -0.19225171 -0.027340023 -0.5293065 0.105300516 0.2785087 0.9698411 -0.4646078 -0.72309554 0.5000933 -0.5064241 -0.37773827 0.08881428 0.4282779 -0.29539296 -0.31386635 -0.6138894 -0.08363214 0.64725983 0.528895 -0.26432183 -0.71906835 0.2981136 0.6274139 0.55029035 0.49931556 -0.63790166 -0.5323562 0.096288785 0.29883555 0.26035887 0.28753802 0.32295033 0.45627177 -0.21643703 0.07172741 -0.30301657 -0.20343676 0.41440088 1.3818412 -0.22980145 -0.2933376 -0.41189015 0.5983916 -0.10215594 0.11938226 0.54439783 -0.013033224 -0.5719786 -0.62527525 0.06573773 -0.7268232 0.73387 0.47120616 0.5765599 0.3606076 -0.06541612 -0.45063537 0.41988707 0.19532321 0.105138846 0.122760795 0.09037439 -0.024993079 0.3977531 -0.080942295 -0.43026766 0.13844478 -0.14015684 -0.09048259 -0.58642745 -0.7399824 0.37614638 0.026660796 -0.06841175 -0.5112529 0.3905217 -0.4743559 -0.11609619 0.31983516 0.5244235 -0.5772255 -0.33910516 0.75009817 -1.0597297 -0.0022421358 
com.xiaochao.lcrapiddeveloplibrary.widget.SpringView.OnFreshListener 0.49267843 0.06940614 -0.3282836 0.25723186 0.62540823 0.21939352 -0.76141304 -0.5466566 0.68253654 0.6272647 -0.679778 -0.10832815 0.4597702 0.52197397 0.18457156 0.21403354 0.14458223 -0.23779257 -0.55022705 -0.23418812 -0.50038254 -0.2248752 0.1964677 0.2093633 0.5110282 0.13555452 -0.5198418 -0.18487269 -0.5559816 -0.016923398 0.06356807 -0.9434252 -0.49938697 0.31604162 -0.028993832 -0.2537309 -0.4415078 -0.25861987 -0.39128268 -0.13780485 0.34394777 0.37841582 -0.74995744 -0.029364938 0.13766627 -0.35585234 1.1053927 -0.36416078 0.0017803465 -1.0090835 -0.5033312 0.11225387 -0.079612054 0.19416834 0.27745157 -0.11394621 -0.15696022 -0.24264011 -0.101988144 0.21369132 0.06595105 -0.3800775 0.4545 -0.31143707 0.059799306 -0.012128897 -0.16250612 0.57474387 -0.004416868 -0.0004620929 0.36144042 0.18245287 0.13566181 -0.27913016 -0.21616286 0.119682774 -0.36334696 0.37101093 0.4684814 0.32341656 -0.13938336 0.080221765 0.3917308 -0.36472374 -0.0132716345 0.26073277 0.006240161 -0.05650666 0.53453404 -0.08693313 -0.30012754 -0.44302607 0.036011424 -0.604496 -0.15196986 0.5571921 0.41089633 -0.14406382 -0.40651402 0.87578803 0.21854274 0.25064486 0.32937855 -0.49397272 0.27003092 -8.851009e-05 -0.31500888 -0.042954065 0.118485965 0.11572064 -0.23108773 -0.15368436 -0.374746 -0.17791381 -0.33872342 0.15901172 0.0045496253 -0.23070714 0.7150159 -0.32424656 -0.13853106 0.37313485 0.35926744 0.34616548 0.37608284 0.662476 -0.3792822 0.20017233 
com.xiaochao.lcrapiddeveloplibrary.widget.SpringView -0.10779962 0.07706266 -0.37283865 -0.14466089 0.41046426 0.3513179 -0.25530237 -0.49386817 0.78421056 0.41848812 -0.6400087 -0.47548404 0.3736436 0.30445528 0.009416472 0.4480047 -0.81030506 -0.24978103 -0.55223376 0.15865037 -0.6813097 0.17404121 0.24512324 -0.04929396 -0.2894675 0.30589515 -0.18031895 -0.22958349 -0.14155717 0.21377271 0.10788403 -0.04003902 0.44192478 -0.07536838 -0.33095163 -0.08432262 -0.4803449 0.084373154 -0.6427969 -0.27266538 -0.122492775 0.033367667 0.018233342 -0.302951 0.15740275 0.1300555 0.17135908 -0.38801605 0.27368155 -0.5965743 -0.37538907 0.2669136 -0.25099888 0.39909422 0.24599811 0.25616795 -0.19621466 -0.21046509 0.23291723 -0.64617634 -0.19506659 -0.34200597 0.027410964 -0.4836528 0.17579496 0.43776813 0.029168546 0.44664657 0.36371285 -0.07333709 0.20935458 -0.079215966 -0.19383301 0.090110004 0.27564868 0.07896756 -0.32678065 0.057250753 0.06374843 0.2896403 -0.12380488 0.42544654 0.09171643 0.06693226 0.18476501 0.47731736 0.43419707 0.5760022 0.12814853 0.3183282 -0.5300916 -0.18006419 0.10226438 -0.40485963 0.23494616 0.41270941 0.38580257 -0.45512483 -0.3397633 0.10593222 -0.2617049 -0.054295287 -0.041275606 -0.39684898 -0.33364528 -0.6296055 0.35838398 -0.42025593 -0.44355503 0.47769368 0.13985154 -0.47429776 0.3073037 -0.070218824 0.37860096 -0.091711655 -0.29563242 0.14305578 0.44457942 0.10932387 -0.18491438 -0.03369616 0.5497181 0.084045306 -0.46147364 0.395956 0.15387404 -0.1854954 
com.xiaochao.lcrapiddevelop.MVP.Presenter.BookListPresent 0.22936243 0.14182377 -0.17897668 -0.13136278 -0.4061269 0.44316676 -0.34881356 0.40808418 0.2381303 -0.35615373 -0.36550066 -0.13884285 0.053820793 0.01931114 -0.6260318 -0.7207403 0.12817514 -0.1681406 -0.34863666 -0.10191505 -0.35049576 -0.053370982 0.08556875 0.7892021 0.24237545 0.22297204 0.2577666 0.09819118 0.34319124 0.15361914 -0.13289821 0.11808821 0.06532388 -0.28879625 -0.12780136 -0.07207868 -0.7332256 -0.15641892 -0.1754352 0.015779393 -0.028386299 0.13980465 -0.3065741 0.6075531 0.064573385 -0.4982449 -0.33229706 -0.5140167 0.076293856 -0.009209775 0.13050191 0.0963883 0.2977625 0.009116352 -0.7810038 0.49417174 0.21834946 0.22862633 0.3915617 -0.5002579 0.30747545 -0.16730678 -0.14758769 -0.04185483 -0.51724917 1.0751915 -0.041132495 0.24314019 0.09923722 0.10553928 0.15042783 0.597334 0.21957548 0.00092333264 0.31376195 0.2638005 -0.24002755 0.051913045 -0.4163765 -0.045497213 -0.42213532 0.09860239 -0.21896613 0.5058329 0.11677734 -0.3198459 0.00833469 -0.06930506 0.1528864 -0.18110694 -0.16515866 -0.47101372 -0.33134097 -0.19816627 0.3389591 0.31568933 -0.014330326 0.56984115 -0.38818806 0.30299237 0.29117355 -0.2358726 0.30963695 -0.18974777 0.118923604 -0.22272344 -0.08274114 0.2228709 -0.10154132 0.5676417 -0.51544195 -0.6928989 -0.40760207 -0.17908973 0.055258002 -0.6440068 -0.096326046 0.37185737 0.3375488 -0.1536994 -0.017635856 -0.042211294 -0.246222 0.44934013 -0.056871496 -0.4926372 -0.11990658 0.09727215 
com.xiaochao.lcrapiddeveloplibrary.Video.JCVideoPlayer -0.11319269 0.13670944 -0.11433902 -0.79150224 0.2105103 0.028880203 0.08799008 0.086256064 0.21261819 -0.22907726 0.12447097 -0.18677613 0.0062297797 0.4836593 -0.21827987 0.051099807 0.22942314 -0.18507756 -0.38433945 -0.19369058 -0.14786741 0.35919544 -0.010960556 -0.6818564 -0.05915132 -0.09579451 -0.12112176 0.24556118 -0.18387568 -0.3149216 0.03600093 0.3703523 -0.20424318 -0.43356985 0.022585468 0.11704233 0.083166994 -0.02117077 -0.11849951 0.3029666 -0.22594805 -0.010662544 0.0050634393 0.29479757 0.00033763208 0.08311267 0.10949593 0.19167535 -0.20619826 0.34372002 0.014201262 -0.19102158 0.3531276 -0.25039953 -0.2540053 0.1899449 -0.30959544 -0.18166266 0.18749698 0.087685615 -0.028715955 0.33514106 -0.13332175 -0.4673629 0.110446155 0.3532861 0.28452823 -0.2411561 0.06980307 -0.14968704 0.16108194 0.21670088 0.30431265 -0.037785552 0.28905183 -0.3823199 0.17362294 -0.22835782 -0.39111614 0.54651964 0.025209019 0.14406207 -0.123623095 -0.43981847 -0.109411016 -0.06896888 0.21174286 -0.018808339 0.28312722 0.01311768 0.26736334 0.5711141 -0.07496018 0.116276994 0.15272486 0.08524671 0.25277466 0.22442323 0.25684524 -0.114861906 -0.09856044 -0.055403575 0.09688285 -0.23997042 0.7349187 -0.33692774 0.039494753 -0.27071455 0.17053463 0.21805975 -0.099008486 -0.059579346 0.21006231 -0.12106847 -0.068337254 -0.38568008 0.4270137 0.19446181 0.18588626 -0.1772799 -0.011076983 0.32159686 0.07983904 0.008663383 -0.2490597 0.22684501 -0.12659185 0.02698322 
com.xiaochao.lcrapiddeveloplibrary.Video.JCVideoPlayer.onPrepared -0.1456123 -0.01801121 0.55243486 -0.52294666 0.39213848 -0.4666077 -0.6942689 -0.029683026 0.2829695 -0.2294667 -0.38199782 -0.13629773 -0.29686242 -0.13227491 0.17419583 0.7613837 -0.2812593 0.28129154 -0.23546633 -0.70961607 -0.27424702 0.4749208 0.17979148 -0.59569746 -0.17730375 -0.3113908 0.15071058 -0.3599349 0.040677413 -0.668622 -0.045269974 0.12211201 -0.3060793 -0.29009202 -0.02933936 0.18357813 0.13685802 0.21095456 -0.32085168 0.16254611 -0.22037348 -0.3245402 0.10798654 0.123713695 -0.10922737 0.20443198 0.30325425 0.07075858 -0.34995472 0.13374013 -0.11246739 -0.20132548 -0.17807415 -0.36507896 -0.035475325 0.453417 0.25289714 -0.07774616 0.023989657 0.44603497 -0.09578284 -0.1480808 -0.1602648 0.82069075 0.7953819 -0.14071335 0.20421138 -0.79873556 -0.4226082 0.16037251 0.15094025 0.6214285 0.50638807 0.047771987 0.6194175 -0.26997536 0.26918575 0.0957427 0.0689804 0.9553584 -0.14629406 0.40145686 0.29741406 -0.57173145 -0.32913592 -0.12097553 0.4515679 0.11370945 0.048245344 0.12295988 -0.3238478 0.5026805 -0.18339053 0.20080766 0.29358292 0.8970282 0.11225863 0.25042635 0.5886598 0.3686394 -0.111894116 0.5491964 0.22101557 0.12330337 0.577854 -0.37361437 0.37215966 0.23370288 0.09208027 0.38711178 -0.012445238 0.22352967 -0.32163793 -0.3030329 0.5097404 -0.46766382 0.096002415 -0.22214009 0.3131789 0.6280733 0.47645935 -0.2809864 -0.28108436 -0.21256727 -0.11709716 0.19145028 -0.48299927 0.024887573 
com.xiaochao.lcrapiddeveloplibrary.Video.JCFullScreenActivity 0.4085864 0.1642353 -0.21937805 -0.21549077 0.85878325 -0.32972938 -0.04367075 0.17812341 0.30601767 -0.019218395 -0.85422647 0.4224382 0.8807316 0.15421227 0.48786423 -0.17686091 -0.2118625 -0.34438425 -0.40883404 -0.43571147 -0.41261685 -0.23929979 -0.1003906 -0.37418982 -0.018227473 -0.98333645 -0.26914543 0.52413183 0.29318783 -0.3192366 0.17944422 0.0494642 -0.1605671 0.6674677 0.3621323 -0.38022274 -0.3201935 -0.052018613 -0.041605346 0.5382219 0.096425004 -0.5397397 -0.041208997 0.20400095 -0.09661912 0.1551877 0.4431969 -0.20937659 -0.08090488 0.3955032 -0.23981513 -0.0065087574 0.3102414 -0.14396888 -0.5493262 -0.23834395 -0.13692208 0.44633222 0.2044526 0.30922714 0.14482701 0.37523487 0.10329404 -0.110978924 0.1236608 0.32086653 -0.24892345 -0.54884714 0.7878632 -0.18359245 0.25624058 0.61888605 0.18182795 0.401997 0.5158833 -0.36957106 0.10543373 0.12646611 -0.38328296 0.42968532 0.26630598 0.26555493 0.582264 0.24493228 -0.04953407 -0.4426493 0.06910526 -0.2568523 0.42810577 -0.06535602 -0.18942358 0.009273895 0.40606636 -0.895262 -0.29190502 -0.6880746 0.30207062 0.6601083 0.29281136 0.24330299 0.111083135 -0.1691114 -0.11250153 -0.8340829 0.5359982 0.02612254 0.56942976 -0.38630795 0.4705967 0.6582954 -0.25346786 -0.49998575 0.32927996 0.068691745 0.36924434 -0.07626741 0.23574744 0.58612216 -0.06633849 -0.07540111 0.22263977 -0.21185671 0.02347236 -0.1351691 -0.1883252 0.17328216 -0.3407172 0.17767675 
com.xiaochao.lcrapiddeveloplibrary.Video.JCVideoPlayerStandard -0.25177705 -0.15502374 -0.2353348 -0.26301837 0.054830857 -0.1550295 -0.32715848 0.11218092 0.29377577 -0.22698754 0.1313401 -0.12023601 0.33231628 0.5980987 0.42993405 0.0830584 0.14811298 0.36976784 -0.4242168 0.10185483 -0.12764531 0.3539214 -0.016206773 -0.625053 0.2413588 -0.2892882 0.20795791 -0.022417502 -0.2885334 -0.44219726 -0.26422724 -0.21983948 0.08145764 -0.16319428 -0.123203725 0.030421993 0.1790492 -0.07584612 -0.2562365 0.23486766 -0.1919267 -0.23592368 0.27784097 -0.031319585 -0.006636827 0.10879995 -0.013777431 -0.28781554 0.17280741 0.25597692 0.02338751 -0.41891113 0.0816698 -0.3203669 -0.6580987 0.23234539 -0.37323353 -0.3827218 0.059644494 0.17169502 0.040669747 0.38051 0.063969776 -0.5620585 -0.21108626 0.45699826 -0.2588827 0.2195341 0.0043174666 -0.052101422 0.42545497 -0.0005864591 0.24034227 -0.24676862 0.3313286 -0.4353641 0.38907138 -0.21700293 -0.08312598 0.17267288 -0.18450212 -0.17037116 0.24465893 -0.09203276 -0.317422 0.18117693 0.31152752 0.09356259 0.5263581 0.21723926 0.08822384 0.47919324 -0.293828 -0.12076154 0.11939797 0.20069416 -0.056632813 0.5888358 0.21863677 0.20424072 0.042607654 0.07822294 0.21921653 -0.29741845 0.76906353 0.043318104 -0.023731565 -0.051000655 0.40226838 0.08212931 0.6060809 -0.26930365 0.0034946252 -0.050154906 -0.19240846 -0.14863065 0.47271127 0.034346692 -0.22453222 -0.008841171 0.17191929 0.14108802 -0.3162272 -0.058922637 -0.12236827 0.77966475 -0.093953416 0.132289 
SeekBar::OnSeekBarChangeListener -0.021898432 -0.1374891 -0.173668 -0.24217129 -0.22895485 -0.24096236 -0.64083385 0.17498639 0.22817574 -0.45292318 -0.555348 0.025301237 -0.011183611 0.7315831 0.0752611 0.22071663 -0.28646356 -0.43372637 -0.33281606 -0.507127 -0.36446095 0.1197836 0.062384997 -0.6578073 -0.1543865 -0.67932373 -0.50840676 -0.28384212 -0.33538184 -0.22272176 0.09297617 0.22008424 -0.3734915 0.015924752 0.25899124 -0.27179682 0.06925787 -0.35925454 -0.02082612 -0.19744419 0.08979158 -0.07744143 0.061385006 0.65480286 0.35605472 0.23416762 -0.37791526 -0.14636055 0.017561125 0.55811864 0.27908987 0.104549676 0.381751 0.14794976 -0.33211607 -0.2804185 -0.5393304 -0.11543462 0.29691187 0.26362482 0.026762366 0.17482655 -0.0653407 -0.08088749 -0.26360285 0.0021353287 0.3972539 0.13439822 0.25174153 0.49070707 -0.4495771 0.51404196 0.098482594 -0.1474766 -0.027472023 -0.92380345 -0.28691086 -0.21831477 -0.027988657 0.29986763 -0.1263004 0.16795808 0.73167324 -0.21507761 0.00393283 -0.35170573 -0.014784866 -0.1739283 0.14329115 0.20108965 0.23059283 0.5074935 -0.07766067 -0.23471737 0.13567926 -0.06385877 0.18788935 0.19584681 0.124704555 0.60763013 0.5286743 0.017175226 0.041330308 -0.5309998 0.5338948 -0.26508555 0.02597663 -0.04969066 0.0012798607 0.44096574 0.28508744 -0.21433127 0.20874994 0.06353758 0.096724704 -0.6147112 0.25127292 0.022938432 0.27771363 0.17210945 -0.14999062 -0.051655058 0.3656317 -0.10160841 -0.7595738 0.05958477 -0.363551 0.5386595 
MapString,String 0.08136721 -0.2337743 -0.17250532 -0.38648808 0.3892695 -0.033981934 -0.42085278 0.006470506 0.5777267 -0.553767 -0.35323668 -0.30686542 0.11782518 0.7558026 -0.029719628 0.21565108 -0.08472325 -0.36506227 -0.079282865 -0.41251746 0.09588659 0.30079678 0.23240182 -0.93490404 -0.5066202 -0.5218958 -0.15626793 -0.5156681 -0.46565685 -0.19321735 -0.15595543 0.04167444 -0.09420279 0.2886511 0.024008501 -0.05996414 0.100300476 -0.3627219 0.15420428 0.017051436 0.100738265 -0.44628885 -0.012736446 0.285407 0.119045265 0.36429676 -0.1496379 -0.0990773 0.25045744 0.26536041 0.21391757 0.12558909 0.3934458 -0.21462934 -0.50749177 -0.14872117 -0.42179358 -0.18359765 0.57063705 0.09129573 0.5477761 0.19135548 0.11155273 -0.29071057 -0.046908192 0.16121072 0.36430684 -0.25600904 0.6143559 0.110443376 0.016008604 -0.028368197 -0.07660332 -0.29826823 -0.0696126 -0.21433792 -0.06542581 -0.08481011 -0.29343778 0.28627038 -0.08306693 0.29008782 0.4351828 -0.25143993 0.17825748 -0.29224658 0.36238962 0.24094297 -0.0082114665 0.39531934 0.2305443 0.41456902 0.1836572 -0.40081102 0.54613346 0.0536656 -0.2866261 0.18775809 0.23583388 0.5591706 0.51365477 -0.14053439 -0.2598483 -0.68040216 0.59906584 -0.033336755 0.2100905 -0.011170606 0.56003094 0.59373194 0.16142513 -0.39914045 0.5394085 -0.28864753 0.3634172 -0.1926254 0.5247994 0.017063031 0.16133912 -0.18341686 0.09605909 0.074228115 0.07208022 -0.033521257 -0.84349984 0.061282497 0.12900245 0.5458954 
com.xiaochao.lcrapiddeveloplibrary.Video.JCResizeTextureView 0.1627501 0.36694875 0.2922116 -0.70383674 0.17423928 0.16412824 -0.5422132 -0.070205726 0.50615525 -0.32508942 -0.19551863 -0.1250625 -0.19645238 0.59861314 -0.35326096 0.44588283 -0.3808704 -0.18375994 -0.27542827 -0.645579 -0.15141907 0.0076167425 0.33486268 0.16242673 0.14059615 -1.1387147 0.038937397 -0.6624509 -0.16870466 -0.59180105 0.52055496 -0.21210283 -0.7320461 0.610378 -0.11032716 0.07033447 0.10274677 -0.49100044 0.017792616 0.35026044 -0.09871859 0.20507926 0.19214585 0.058708005 0.19043978 -0.4582659 0.24611193 -0.24904104 -0.36788985 0.037962917 -0.18672246 -0.23698364 0.32613823 0.12933388 -0.112537295 -0.036931533 -0.47787976 -0.13616249 -0.16927521 -0.13254064 0.1815663 0.17024459 0.5538762 -0.6606645 0.015387951 0.8201022 -0.055851456 -0.39695555 0.30315822 0.480042 0.22682494 0.6218859 0.37387142 0.11062975 -0.28999147 -0.4220874 -0.5518572 0.10861603 -0.21727812 0.53893507 -0.22177611 0.14775397 0.4112443 -0.21790366 0.1137338 -0.36382204 0.6496597 0.0016158329 -0.2888751 0.77273357 0.42999265 0.23215163 0.0824437 -0.069861025 0.08280516 -0.1402556 -0.2428634 0.3699296 0.6702701 -0.030208614 0.42138943 -0.4322154 -0.17007878 -0.59176713 0.33173746 -0.5474586 -0.08584497 0.41983292 0.2837439 -0.11948971 0.16012023 -0.20877196 0.098176464 -0.25091743 -0.34685206 -0.61504525 0.21573459 0.52521086 0.569025 0.28923085 0.097777955 0.08084785 -0.41428664 -0.118881635 -0.5056712 0.5250593 -0.64545006 0.010294223 
com.xiaochao.lcrapiddeveloplibrary.Video.JCVideoPlayer.ProgressTimerTask 0.027151471 -0.2342925 0.12338147 -0.4847434 0.38818008 -0.09848463 -0.43265802 0.28546277 0.13732779 0.049296547 -0.4008093 -0.2847863 0.51805675 0.033414636 0.140869 0.39824653 -0.08556378 -0.43880454 -0.5578482 -0.39318427 -0.32959124 -0.22849435 0.21861023 -0.6465988 0.34365693 -0.38670796 -0.029477922 -0.7879457 -0.38672587 -0.3192802 -0.1053946 0.11887252 0.26968816 0.14620484 0.47903985 -0.1948894 0.42259 -0.21918249 -0.4122883 0.09756235 -0.08054222 -0.008181062 -0.29565543 0.16443238 0.50704044 0.05242455 -0.21940796 -0.12877366 0.30329615 0.67553943 -0.1471161 -0.11446454 -0.029102188 -0.1665408 -0.7064698 0.3420255 -0.30693537 -0.24685527 -0.04228743 0.45526788 0.27426428 0.017024048 -0.6827799 -0.34421313 -0.16954279 0.22028573 0.32886314 -0.36559364 0.49480414 0.13338146 -0.09112074 -0.35639733 0.21869703 -0.03555492 0.22925456 -0.14569905 0.008351669 -0.23014948 -0.18806072 0.16031212 -0.14460288 0.7970345 0.39172643 -0.2766013 0.5528541 -0.0530281 -0.14422567 -0.3344189 0.25131762 0.29212305 0.42502806 0.45101207 0.36362016 -0.30841276 0.28910053 -0.08773447 -0.38710865 0.080854304 0.50943327 0.5298202 0.28815758 -0.2704499 0.28828466 -0.36297116 0.7600898 -0.21833155 -0.03117504 -0.1634172 0.83380854 -0.16467988 0.30369598 0.25230408 0.18154489 -0.01641445 0.5696395 -0.30856687 0.16113059 0.0384027 0.44944847 0.4612822 -0.03742039 -0.41403282 -0.12549049 0.30963817 -0.64402986 0.54783255 -0.5292065 -0.024306452 
TextureView::SurfaceTextureListener 0.23653498 -0.11698641 -0.79000336 -0.53372306 0.049191143 0.088479966 -0.6985911 -0.2869446 0.477854 -0.5438881 -0.3198153 -0.18242793 0.029139858 0.61450106 -0.08887505 -0.024396753 -0.51978266 -0.5047421 -0.58272976 -0.36091176 -0.26224983 -0.062193785 0.17583075 -0.94520336 -0.26827165 -0.6568205 -0.5075399 -0.5543768 0.04408551 -0.21021467 -0.05978067 -0.11671105 -0.16670384 0.036334287 0.23366152 -0.21798782 0.24718991 -0.31200317 0.12699075 0.032546654 -0.2094919 -0.30722994 0.14442986 -0.001425939 0.27005315 -0.12191063 0.34790215 -0.20353343 0.06070686 0.5910693 0.14945649 -0.12826921 0.35975814 0.28320763 -0.28044894 -0.13929763 -0.28352204 0.05676003 0.42106685 0.18596931 0.3056495 0.014129706 -0.056109603 -0.43799707 0.250843 0.7869833 -0.07863265 -0.10921568 0.19673812 0.06014842 -0.30595315 -0.10743512 0.09457551 0.0006609697 -0.15435553 -0.23811318 -0.20046154 -0.15668757 0.035205677 0.4797482 -0.07627119 0.5546841 0.4630091 -0.18238011 -0.13113697 -0.6988479 -0.14895794 -0.0915475 0.03953383 0.5717166 0.14514862 0.16835745 0.18717414 -0.13098411 0.08405897 -0.20134117 -0.0152038345 0.2485607 0.50883806 0.12496737 0.33584616 0.17613769 -0.054905716 -0.64832383 0.6541824 -0.1069426 0.080942005 -0.06975886 0.06978143 0.21360445 0.14850476 -0.26120427 -0.12767436 -0.16512683 0.1678193 -0.118242234 0.5625305 0.5664705 0.040561773 0.0014622579 0.35931185 0.2869753 0.1927121 0.2417845 -0.5455792 0.23701303 -0.32996038 0.38090137 
TextView 0.42503586 -0.6764673 0.43925208 0.16032365 -0.12625337 0.51458275 -0.19650953 -0.48157457 0.03515509 0.19048378 0.16943493 -0.19004081 -0.23627962 0.6478799 -0.19169018 0.32058966 0.4569268 -0.63069576 -0.09856988 0.095241 0.736839 0.33532882 0.18904938 -0.15407729 0.08947083 -1.1112607 -0.4499791 -0.20571758 -0.03033052 0.110759266 -0.1707991 -0.4179574 0.10654699 -0.34753782 -0.06455218 0.3016071 -0.24492182 -0.483816 -0.24565993 -0.1977183 0.6017669 0.11056023 -0.3955387 0.26308933 -0.3751119 0.27739474 0.1951884 0.10655037 0.2381297 0.3112227 -0.07767523 -0.06312139 -0.27316603 -0.13098252 0.054504503 -0.15931034 -0.3868056 -0.02091303 0.6719294 0.12284377 0.38828805 -0.68410087 0.6114702 -0.6792311 -0.2934251 -0.23387575 0.48427612 -0.27469784 0.13510084 -0.12317348 -0.16142645 0.38893554 0.39143506 0.15545821 -0.019840147 -0.719841 -0.056401756 -0.14715421 -0.43106094 -0.047803868 -0.32010558 0.533766 0.7586282 0.04574845 0.25229904 0.27100343 -0.30385488 -0.25150084 0.63233376 0.34082136 -0.12659928 -0.195924 0.5702811 -0.25842893 0.29060686 0.28526762 0.3893999 0.26456964 0.21018171 0.1738979 0.38763475 0.08502611 0.91422135 -0.9354677 0.5836757 0.03920872 0.064470276 0.4810192 -0.04763756 0.2905191 -0.25866967 -0.5802015 0.120170936 0.05755371 -0.71012187 -0.081730835 -0.09775554 0.0717883 0.12030737 -0.034306727 0.49813002 -0.08276387 0.23848172 0.34738618 -0.5867655 0.85005236 0.09950481 -0.08140352 
com.xiaochao.lcrapiddeveloplibrary.Video.JCBuriedPoint -0.08120599 0.16678178 -0.2629283 -0.10748883 0.36831295 0.64478034 -0.37369788 -0.101789825 0.4061381 -0.13506688 0.22790845 -0.14873417 -0.10972347 0.23894207 0.09900074 0.4174818 0.8584562 0.014800326 -0.7971197 0.54625505 0.14260474 0.8363617 0.23706843 -0.7827458 0.2082812 -0.42316547 -0.4422011 0.07721889 0.12843508 0.2720347 -0.04706436 0.342254 0.03215978 -0.4904763 0.1678469 -0.27195156 0.121275425 0.6233907 0.36655608 -0.34386748 -0.34366763 -0.017373694 0.07494182 -0.14084604 0.7179788 -0.33079654 0.474188 0.061746467 0.09830243 0.5122395 -0.005130066 0.112078354 0.38375342 -1.0987048 -0.7256019 0.44372487 -0.22886308 -0.2554623 0.3017008 0.24962032 0.60719675 -0.47424847 -0.20236017 -0.1651937 0.33728844 0.27109107 -0.22286735 0.38057515 -0.30341932 0.48060474 -0.11262125 0.036491692 0.5794028 -0.13011725 0.3619895 -1.040373 0.49765134 0.10977722 0.11247532 0.3864341 -0.030662898 -0.29199663 0.43514696 0.26852727 0.42716894 0.14197265 0.5627238 0.5114918 0.6240444 0.508769 0.2867556 0.23347068 -0.015592923 0.3806475 0.39655036 -0.027663724 0.05078168 0.33814546 0.45983115 0.53849584 -0.15068339 0.15397392 -0.10854902 -0.31601244 0.6212614 -0.6771496 -0.18810955 -0.7059046 0.03999796 0.7535785 0.0302795 -0.20249544 -0.072631426 -0.239087 -0.14015743 -0.51510775 0.2800427 -0.17709133 0.4797026 0.3087132 -0.828259 -0.04239637 -0.18300486 -0.34195542 -0.6864492 -0.18751009 -0.40425828 -0.22398114 
View::OnTouchListener 0.0048469556 -0.06557327 -0.3501227 -0.3741915 0.18025889 0.29225156 -0.61503386 0.2713401 -0.07642935 -0.3122976 -0.12222871 -0.072804414 -0.20101649 0.389038 0.1147548 0.30988505 -0.3017781 -0.33120513 -0.69839793 -0.2078512 -0.08709431 0.005750305 0.12612486 -0.97427464 -0.094363585 -0.6867968 -0.24242942 -0.72694594 -0.50642675 -0.21312357 -0.0057341135 0.17841396 -0.14026123 0.017790424 0.23391089 -0.11771306 0.2900374 -0.35081786 0.06329563 0.1377204 -0.12443346 -0.19390492 -0.05318574 0.27544004 0.42425197 0.3032483 0.038935415 0.083256654 0.104511775 0.3632344 0.20129143 0.24450926 0.79222876 0.06993348 -0.2796468 -0.2163165 -0.3753284 0.004809709 0.27585176 0.24346733 0.25434408 0.08449775 -0.2134434 0.08523726 0.3010983 0.3799047 0.2727517 -0.19988924 0.6159626 0.18473224 0.30822498 0.084933996 -0.08852984 0.16533442 0.018555991 -0.10906202 0.108153254 -0.110196106 -0.034992777 0.20746584 -0.10090623 0.3066677 0.54531497 -0.23232172 0.19383337 -0.22969289 0.32907853 -0.114048034 0.044147007 0.6166712 0.2939522 0.552292 0.14790305 -0.0432408 0.06551533 -0.041988734 -0.14345501 0.018028375 0.3239003 0.42964402 0.46368906 0.18512444 -0.26625988 -0.77221054 0.5603582 0.15993053 0.04726989 0.17534533 0.19997086 0.37295184 0.1900952 -0.36961746 0.058409806 -0.33694533 0.33582422 -0.4518786 0.009016035 0.33797434 0.006459514 -0.20737056 0.116980575 -0.30837286 -0.098934494 -0.10271023 -0.7337789 0.3504336 -0.1910797 0.18845503 
SeekBar 0.04542312 -0.2476743 0.09736415 -0.38128132 0.14365508 -0.10358801 -0.84277636 0.28337228 0.7258733 -0.5449495 -0.24547437 -0.09576661 0.05788546 0.4474921 -0.020276716 0.40125927 0.26928106 -0.29160222 0.014556615 -0.26577964 -0.39282915 0.08415989 0.122395135 -0.944563 0.183439 -0.7780236 -0.1244207 -0.3870807 -0.10311013 -0.08488748 0.19376117 0.07165072 -0.05793152 0.08899946 0.14846024 -0.1818149 0.068274945 -0.23486908 -0.23420249 0.17924598 0.27532208 -0.30005395 -0.02915488 0.112237446 0.31296962 0.16178392 0.19734271 0.21887325 -0.11562209 0.4382083 0.102309525 0.08179939 0.13488573 0.05350403 -0.5720653 -0.09694144 -0.56843424 -0.3288416 0.13444781 0.37980956 0.566629 0.05434928 0.430008 -0.09720257 0.048294086 0.38837162 0.5419224 -0.17725345 0.52128017 0.2310108 0.026244096 0.31627244 -0.005250219 0.14689225 0.005319564 -0.25673988 -0.12879322 0.09614809 -0.27038372 0.37764883 -0.033122167 0.06925285 0.21170655 0.15780063 0.00787119 -0.12714712 -0.1436016 -0.2923756 0.030486634 0.19349697 0.27273402 0.30777964 0.58021235 -0.65363485 -0.18339396 -0.06987749 -0.15257488 0.027611872 0.52818614 0.2506218 0.51223946 0.14876673 -0.016068552 -0.77005035 0.42954123 -0.16242878 -0.1944757 -0.46695554 0.43991983 0.11863758 0.14962862 -0.12558463 0.119223654 -0.3658963 0.07653924 -0.24024123 0.4007523 -0.058496565 -0.14219642 0.19173943 0.06314412 0.15726079 -0.14359981 -0.089910194 -1.1383824 0.1241665 -0.56972915 0.30581594 
Handler 0.24589807 -0.0071766023 -0.2906567 -0.48809263 -0.19934712 0.43993872 -1.0160483 0.4702366 -0.23383845 -0.32374072 -0.4015639 0.14821662 0.0026690175 0.27970406 0.21023746 0.57276 -0.22966792 -0.20158614 -0.2720785 -0.26103315 -0.5146522 0.19398162 0.077399805 0.24954115 0.6179038 0.03866992 -0.13963363 -0.0055509075 -0.17867987 -0.6613704 0.41301295 -0.11979285 -0.12440606 0.43181956 -0.0063817264 -0.36252475 0.2816692 -0.3478741 -0.1533077 0.44964767 0.32698336 0.20560184 0.15305425 0.20684977 0.24379748 0.100666344 0.4376502 -0.016687877 0.17466359 0.088739455 0.51886946 -0.0039016192 0.2947818 0.22198293 -0.061106108 -0.1822589 -0.25036615 -0.040474832 0.8900166 0.6312329 0.12651542 0.58848965 -0.023771154 -0.02589932 -0.04613715 0.38435683 -0.013851483 0.5721811 0.1583617 0.20087524 0.30489936 0.5554626 0.2332472 0.032912552 0.2706258 -0.46031144 -0.15146175 -0.023159113 0.15183741 0.72348386 0.27476767 -0.3162484 0.713692 -0.17727652 0.14868455 -0.13028874 0.07558648 -0.14556341 0.3951168 0.24752188 0.35282862 0.16279124 0.16689907 0.28141233 -0.23361073 -0.10890315 -0.17417362 0.5103624 0.5332928 0.1004772 0.5857089 0.092210196 -0.015980104 -0.22320889 0.028916126 -0.101306856 0.38928577 -0.017885488 0.81506526 0.35623106 0.20218462 -0.2176154 0.8234112 -0.17779143 0.4329367 -0.32595107 0.38194004 0.14702812 -0.0030377882 -0.03882516 0.19739538 -0.38406163 -0.3263306 0.12670949 -0.77050173 0.08112406 -0.5819306 0.68044764 
ImageView -0.035786636 -0.5260719 0.097033374 0.12993297 -0.64854467 0.41217667 -0.85141736 0.040401127 0.27554852 -0.10504115 -0.1912036 -0.70497096 0.29585257 0.6912145 0.28186312 0.031985562 -0.66829765 -0.27662063 0.025276534 -0.32953689 0.48363107 -0.14013985 -0.28697184 0.1361919 -0.07087016 -0.54951805 -0.31861022 -0.37382632 -0.3297995 0.5180191 -0.28518847 0.23367874 0.09777752 0.8522541 0.15675399 0.121239595 -0.34746343 -0.28405306 -0.07583681 0.2577971 0.40697113 0.19165401 0.038879048 -0.38081804 -0.060562897 -0.16676125 0.43015704 0.026822718 0.22214139 0.1450968 0.15687658 -0.082388505 0.4869894 0.118023925 -0.0026441964 0.24160203 -0.2982992 -0.22918694 0.36058882 0.12343013 0.44314975 0.6224376 -0.44815928 -0.2356592 0.27295172 0.34049043 -0.14007846 -0.16734603 0.1754902 -0.23794688 0.16962324 0.85775095 -0.55787295 0.6571871 -0.3466756 -0.6745376 -0.33744597 -0.49301392 0.32232916 0.3050265 -0.24989592 0.27787268 0.1138648 -0.13116355 0.17976932 0.15662909 0.012678557 -0.15984845 -0.18152173 -0.17491607 0.0829112 0.12556773 -0.36033705 -0.07183521 0.89821243 0.25255364 0.31076476 0.28461277 0.07906444 0.46591383 0.672256 0.5290878 0.50952494 -0.84416133 0.7650225 0.4447262 0.24357249 -0.056979474 0.46538162 0.38217536 0.22938809 0.001410395 -0.076998755 -0.5253657 -0.39098203 0.13150229 0.17602962 -0.23321342 0.14079623 -0.27919593 0.28999916 -0.36560255 0.117297605 0.16469851 -1.0624796 0.7184039 0.44893914 0.55901396 
ViewGroup -0.37806118 -0.2508448 -0.6138665 -0.35712484 0.37693554 0.49390987 -0.8538178 -0.2570105 0.2994577 0.5469337 -0.5509801 -0.26833278 0.32073185 0.5970576 0.05453436 0.7123259 0.10853451 0.34548077 0.26144713 -0.00016939471 0.048910085 -0.10716245 0.36277732 -0.42008984 0.04138609 -0.49744517 -0.14033404 -0.4407039 -0.70332444 0.36133367 0.32005313 -0.03866923 -0.3395507 0.11033845 -0.45627922 0.075091444 0.19768603 -0.98372495 -0.69479305 -0.24376558 0.30400565 0.095628634 0.55068797 -0.38055843 0.053878047 0.092317164 -0.40900013 -0.12371625 0.3472596 0.4486045 0.31727597 0.29113007 0.32701758 -0.041776326 -0.12993664 -0.020521468 0.24785744 -0.006218932 0.82435465 0.05904859 0.024642808 0.08856116 0.150052 0.020569388 0.6111789 0.32921213 -0.22212188 0.5455174 0.31555653 -0.2579285 -0.12670213 0.10038499 0.017006045 0.47620225 -0.15277806 -0.465353 0.07107263 0.15581986 -0.30626872 0.6867159 -0.9339044 -0.14185047 0.5752746 -0.3230973 0.23362543 -0.37741733 -0.12830317 -0.017996894 -0.36437 0.63642365 0.57075745 0.044671588 0.9235717 -0.47324768 -0.000107230684 -0.34493527 0.2639013 -0.59792554 0.52613693 0.7252157 -0.15212771 -0.40662304 -0.028027572 -0.64482385 0.18892957 0.53684896 -0.59335065 0.23990992 -0.005666942 0.39527535 0.3502111 -0.36818984 0.14647518 -0.0067927744 0.28800362 -0.18543923 -0.78918284 -0.25258535 0.119015686 -0.022665901 0.5909211 -0.39777547 -0.44211596 0.14720668 -0.57964283 0.4699718 -0.5009635 0.5538158 
