Variable_N 128
com.kingston.im.chat.net.ChatServer -0.3260714 -0.061431088 0.24733156 -0.02809221 0.76565886 0.78934723 -0.6786868 -0.3650216 -0.31567085 -0.195778 -0.44898129 0.45104092 0.29667318 0.16130716 0.31294635 0.06421451 -0.63307947 0.14516771 0.8588862 0.5910188 0.33383706 -0.17388307 -0.13654788 0.21759109 -0.6121472 -0.2937719 0.7391626 -0.47178498 -0.39284512 -0.27699363 -0.20289668 -0.43174958 -0.2886084 -0.7082297 0.24081367 -0.10362778 -0.14723718 0.013344287 -0.24639684 -0.5801394 0.07763985 -0.027759787 -0.45758548 0.107669406 0.4138119 -0.27613822 -0.18942222 0.2765166 0.29868075 -0.12346469 -0.055338234 0.6763491 -0.37918642 0.63167924 -0.010406097 -0.4635834 0.1343511 -0.51284343 -0.412273 0.28322354 0.2183868 0.019768156 0.64171356 0.44250405 0.4071849 -0.07181492 -0.29981133 0.2778277 0.05104143 -0.005399692 0.6448117 0.10496982 -0.46805602 -0.67167354 0.3875415 -0.10990593 -0.57756436 0.34269238 -0.25081483 0.47166753 0.1951513 -0.47770515 -0.014286144 -0.03450903 -0.38516518 0.20793651 0.47887966 0.47324446 -0.18720694 -0.005079782 0.33864436 -0.32660496 -0.5257381 0.34134465 1.0052315 0.0969534 0.6078868 -0.06837917 -0.6903906 -0.23314892 -0.19792491 0.07356401 -0.30087617 -0.028609345 -0.3882869 0.3323141 0.09960713 -0.52082413 0.09780847 -0.43333074 -0.12308423 0.0662154 -0.13839301 0.27555674 0.74265796 -0.108222805 0.08345332 0.2024078 -0.16245122 -0.24620724 0.26006857 0.4177359 -0.0672313 -0.44984064 0.4631763 -0.60334647 0.36645097 0.40764722 
com.kingston.im.chat.ServerConfigs 0.14338659 -0.09682825 0.09392643 0.404174 -0.023260415 0.36608377 -0.35341993 -0.849314 0.58061135 -0.6374482 -0.18755713 0.68005633 0.703035 0.07582829 0.45437968 -0.29595825 -0.112959355 0.5704504 0.035996497 0.18148178 0.23106791 -0.42152503 -0.1984463 1.2132914 0.22292075 -0.5874241 1.0539049 0.48613232 -0.44697568 0.39741802 0.09864183 0.50932395 -0.5807585 -0.4307467 -0.0109237945 -0.34279922 0.6291488 0.09070028 -0.2073637 -0.28607002 0.09015748 0.087222606 -0.71892583 0.46102518 0.22510378 -0.18524821 -0.16816808 -0.38865486 0.2945586 0.40925646 -0.07991399 0.08107177 0.4822927 0.6850208 0.07979377 -1.1472025 0.29281312 0.20264657 -0.4652315 -0.13733378 0.5946896 -0.6188456 0.12708898 0.20101027 0.7871601 -0.44881755 -0.6145577 -0.007166786 0.019311583 -0.2908871 0.6034605 -0.24884985 -0.0866752 -0.405421 0.81894475 -0.5796208 -0.8602402 0.46809486 0.42009166 0.13711452 0.21688314 -0.1866629 0.5554077 0.1710074 -0.6041634 -0.13307412 0.80714494 -0.033680342 0.3965345 0.21661144 -0.0651946 0.21193106 0.17876987 0.597545 0.13059105 -0.32555783 0.5379564 0.022097873 -0.47811353 -0.064371444 -0.14237744 -0.32424676 0.18196549 -0.18912475 0.04990709 -0.11397189 -0.37129468 -0.34124312 0.14136548 0.05936159 0.37127843 0.47475532 -0.22477052 0.7465633 0.72877926 0.34900266 0.8590119 0.058157355 -0.26731318 -0.59636825 1.145026 0.39743817 0.2581392 -0.118290775 0.29673263 -0.37959376 0.4319368 0.9836585 
com.kingston.im.chat.http.HttpServer -0.46060848 0.5072395 0.3616788 -0.53256214 0.10973125 0.8611596 -0.49827585 -0.22021648 -0.14345922 -0.8111869 -0.7407682 0.34348345 0.87016034 0.34792134 -0.028322153 -0.41698962 -0.002260512 0.17004226 0.42150363 0.39153162 0.18082279 -0.36574292 0.2600225 0.6665906 0.13809505 -0.064724594 0.7447224 -0.1635483 -0.4436877 -0.5545366 -0.5908486 0.020437786 0.008219646 -0.59399754 -0.1509404 -0.33860832 0.24586636 0.11034024 -0.44500965 -0.71497864 0.16641782 0.013613595 -0.6022216 0.17229974 0.3750838 -0.16355461 -0.37758556 0.027338844 0.5143925 0.003062232 -0.41065067 0.19350395 -0.17187817 0.20782048 -0.0029498758 -0.75501126 0.3734728 -0.32476658 0.12529677 0.13266091 0.4031114 0.11430571 0.92021686 0.033372734 0.104909584 -0.41765043 -0.41553524 0.11709608 -0.101775356 -0.15181914 0.62602335 -0.2554815 0.15626505 -1.0275657 0.6501787 -0.5428227 -0.7226572 0.22036462 -0.11724623 -0.13017488 0.46655717 -0.16972971 0.19715205 0.2779721 -0.319805 0.3828548 0.7769471 0.116118446 0.04498966 0.16957682 0.08914918 -0.5890219 -0.32404017 0.7258314 0.5176484 0.117919855 0.34778365 0.028641235 -0.259924 -0.23021054 0.089138284 -0.013209203 -0.448275 -0.14140292 -0.25212762 0.39405367 -0.26157546 -0.61780405 0.098539986 0.27189994 -0.051344775 -0.40458405 0.27226898 0.6698308 0.46623358 0.114282496 0.32202289 0.107831925 -0.5358354 -0.22581516 0.042074595 0.46142095 -0.14357814 -0.64472646 0.5619815 -0.31575543 0.64208823 -0.021903124 
com.kingston.im.chat.net.message.AbstractPacket -0.32585064 0.16710408 0.4073491 0.18776704 -0.14936075 -0.03994428 -0.3500466 -0.37904367 0.07489423 -0.18603912 -0.15110987 0.08186596 0.38830313 0.03139297 -0.40956515 -0.24121356 -0.04841222 0.21374741 -0.033114064 0.31443986 -0.34107277 -0.026352903 0.061004933 -0.12621583 0.31328776 -0.035988905 -0.13497578 0.09309226 0.026116174 -0.27578646 0.037453 0.17400275 -0.37422517 0.079566635 -0.37889615 0.021582695 -0.0010335852 0.21306227 -0.29419366 -0.10643979 -0.2356325 -0.072148845 -0.05969706 -0.15768075 -0.28821027 -0.2242529 0.040633846 0.0960584 0.27389607 -0.32831237 -0.07306441 -0.09790466 -0.16414788 -0.26448265 -0.12755224 0.18116178 0.19936493 -0.43222746 -0.2250061 0.28047028 -0.25962132 -0.08778184 -0.20324276 0.14409459 0.16811427 -0.03836516 -0.14896078 -0.17137894 -0.39645293 -0.31465152 -0.34320363 -0.39099762 -0.051710635 -0.010921383 0.3636236 0.10054979 0.19068894 0.29259336 -0.042470567 0.24746169 0.07350771 -0.12768008 -0.05298742 0.17796825 -0.38977227 -0.32318625 0.24603283 -0.63121694 -0.36034214 -0.08424171 0.43789044 0.122288816 -0.07633843 0.47537014 0.23982266 0.3668436 -0.25841525 0.104205005 0.17822604 0.06910563 0.24600956 -0.6503378 -0.003690751 0.18093415 -0.2897669 -0.8959152 -0.5624002 0.25156718 -0.14020763 -0.23320694 0.21565004 -0.4677895 -0.06885374 0.063255884 0.043080457 0.1741599 -0.16468099 0.3780478 0.07876978 0.27648392 -0.011488677 0.5149108 -0.12849069 0.2916176 -0.21575871 -0.29612994 0.19330806 0.09441441 
com.kingston.im.chat.logic.chat.message.res.ResChatToUser 0.7240509 0.4150034 0.6401041 0.16765663 0.64620924 -0.4067286 -0.0122749405 -0.22548519 0.44901216 0.043066125 -0.17622283 0.16773207 -0.024215866 -0.07772729 -0.40340716 0.2286429 -0.25486064 -0.1245034 0.11950448 0.044504073 0.2861993 0.1999715 -0.21875903 0.06277056 -0.3328118 -0.7029404 -0.29592127 0.67089313 0.044578142 -0.17087457 0.31271482 0.40482235 -0.2150215 -0.3180643 0.64749074 -0.5263745 -0.3037245 0.053480804 -0.27907193 0.06267777 0.06664225 0.036173545 -0.7875031 0.3230936 -0.7494629 -0.42724627 -0.14213155 -0.157858 -0.29820845 -0.097337514 -0.33560017 0.16174462 -0.030317822 0.15069853 0.094328076 0.3657531 0.041987974 0.22436851 -0.47689027 0.24979697 -0.06524927 -0.09771625 -1.0720602 0.042834945 0.26230294 0.48061982 -0.7862405 -0.8611061 -0.1674314 -0.13771021 -0.11999124 -0.35901868 -0.24898845 -0.007586439 0.42796803 -0.32350606 0.6060783 0.77119845 -0.04029235 -0.01743214 0.17243068 -0.21382067 -0.22287785 -0.16895379 -0.36733595 -0.5813923 0.2675843 0.15316038 -0.2460484 -0.124750696 -0.13112041 0.24217914 -0.3306505 0.31620374 0.0340957 0.25139928 0.22914445 0.6200023 -0.2122446 -0.57156473 0.1958589 -0.70342094 -0.09996568 0.06921317 -0.06259755 -0.15525092 0.1087735 0.6311987 -0.45158887 -0.19207717 0.2593581 -0.14004984 0.1418665 -0.00035558996 0.34646752 0.46989876 -0.2708031 0.39542812 0.21615829 -0.32849127 -0.11191021 0.8995109 0.006759011 0.5037584 0.5931919 -0.00014692178 0.039830625 -0.073003955 
com.kingston.im.chat.logic.chat.ChatService 0.35400498 0.32650024 0.21971066 0.4344458 0.06523266 -0.4056427 0.07804924 -0.062202893 0.5638275 -0.47894022 -0.34545496 -0.35112056 0.26746956 -0.18023954 0.050724585 0.361428 0.15991297 0.6707685 -0.14576964 0.3665144 0.17468524 -0.6165949 -0.2389268 0.92496276 0.062197022 0.1283031 -0.58802027 0.50846714 -0.021335648 -0.105392136 0.14994152 0.14480495 0.72365516 0.10453867 0.24883956 -0.07733681 0.7120577 -0.6942731 0.14930645 0.14339723 -0.09941347 -0.04984502 0.06553556 0.39505133 -0.14841466 -0.69906545 0.38360006 0.4606163 -0.114794806 0.2340918 -0.31476682 0.2156664 0.31303272 0.12271005 -0.12049684 0.024802905 0.13344812 -0.08025952 -0.8306994 0.22965768 -0.34994483 -0.1626096 -0.16539727 0.41761908 0.50157666 -0.4287951 0.113524854 -0.5650217 -0.33821234 -0.25444466 0.42297462 -0.46315563 0.32014695 0.13427027 0.708465 -0.87771297 0.43163052 0.46952474 0.050429188 -0.3114578 -0.19470797 -0.34838423 0.06370491 0.284543 0.14049618 -0.48768824 0.44470114 0.012176884 -0.03327512 -0.016699001 0.17957379 0.124713495 0.03538053 0.46808386 0.3090178 0.38110572 -0.09228796 0.08605635 0.062356297 -0.23964043 -0.0627069 -0.14076866 0.428697 -0.51573306 -0.040152155 0.76936084 -0.29883364 0.86786795 -0.47263038 -0.2693582 -0.13706434 0.17233846 0.2008855 0.2195262 0.42851996 -0.14072956 -0.11933959 0.71112305 0.11648011 -0.35655007 0.15215723 0.6248459 0.10111397 0.28822428 0.45754173 0.006399888 -0.054409597 -0.5927522 
com.kingston.im.chat.logic.user.message.req.ReqUserRegister -0.029137854 0.6018727 0.1893038 -0.13198628 -0.48724306 0.024201281 -0.08438959 -0.2024427 -0.5299956 0.33428746 -0.2666621 0.39520687 0.22774768 -0.28220096 -0.3577066 0.031380538 0.13229461 0.16899048 -0.02213375 0.7859895 0.14654472 -0.3694834 -0.3105147 -0.18117504 -0.6593818 0.14800031 0.2884638 0.24673507 0.08186306 -0.20607868 -0.17632976 -0.35160995 0.22177939 -0.007440963 -0.18331161 -0.25994578 -0.35893443 0.018096583 0.07472602 0.1949151 0.078059174 0.12646998 -0.27962166 -0.3825692 -0.10562235 -0.44374028 0.12665312 0.26048166 0.024683567 -0.404834 0.15382323 0.14695448 0.25293592 0.10131893 -0.24814999 0.04987174 -0.4431087 -0.016682355 -0.51906663 0.013195685 -0.30698514 -0.33789128 -0.025748251 0.17238633 -0.13303961 -0.32863703 0.42290083 0.081987984 -0.12234527 -0.60469645 0.38400057 0.31113428 -0.31057003 -0.32770136 0.7904598 0.2882772 0.3015231 0.8495175 -0.22161603 -0.21617879 -0.41041264 -0.34830347 -0.45124063 0.05015954 -0.5374872 -0.54004604 0.30777064 0.32943147 0.027686005 0.33965096 0.29959008 -0.37719405 0.010970124 0.49906114 0.6297893 0.14134295 0.14578857 -0.04913168 0.3783874 0.21439525 0.16009143 0.38932708 -0.647652 0.25198138 0.44698405 -0.18553682 -0.3112603 0.014835183 -0.672997 -0.59645426 -0.53833485 -0.7052253 0.06392879 0.25389713 -0.04235463 -0.0974896 0.19043998 -0.0065109082 -0.3496217 -0.6324705 -0.1640304 0.4890532 -0.9546102 -0.20707078 0.39122298 0.14671512 -0.15136275 -0.31134343 
com.kingston.im.chat.logic.user.message.req.ReqUserRegister.writeBody 0.5082984 -0.29292595 0.29716143 -0.53631395 -0.5487259 -0.5327141 -0.36495724 -0.24809584 -0.008554197 0.107436895 0.46635103 0.17650004 -0.060950596 -0.39021835 -0.9375527 0.5951403 0.22784479 0.8221729 -0.07932708 0.9346736 0.8070132 -0.56115526 0.13207053 1.2444232 -0.073199496 -0.52722985 -0.08706306 0.9095477 -0.8022818 -0.5667533 -0.11134926 -0.11439918 0.42013264 -0.26077563 -0.32777712 -0.5837364 -0.23941907 -0.22912599 -0.26740095 -0.21827672 -0.061823178 -0.7096191 -0.54695445 -0.12101662 -0.6608395 0.2649473 0.22756352 0.04151347 -0.27055243 -0.32629493 0.7298736 0.80190086 -0.13019836 0.013167712 -0.30479133 0.8622599 -0.7141106 0.3754265 -1.4502095 0.43371427 -0.6786773 0.075792804 -0.27488595 -0.22772576 0.47979823 -0.06410548 -0.5436465 -0.6729934 -0.6684648 -0.8180675 -0.65190077 -0.20018692 -0.1328316 0.34556946 0.41301993 -0.37418678 0.53508824 0.43921298 -0.37616107 -0.42781982 -0.48117897 -0.3536338 -0.14939131 0.2890832 -0.14098921 -0.5933792 0.2793714 0.31556413 -0.5632424 0.6865478 0.19027704 -0.32231447 -0.27205867 0.30886057 0.5882288 0.0449634 -0.51301444 0.73853076 -0.91590357 -0.88657415 0.16326503 0.044605143 -0.09015125 0.965594 0.018519875 0.10447922 0.02448664 0.44617155 -0.60254455 -0.56390184 0.65015066 -0.5740797 -0.39173883 -0.13280705 -0.3066862 0.18623747 -0.04356026 0.95498574 -0.07544742 0.1634937 -0.6394263 0.78674054 -0.86043227 0.4970866 0.2133758 -0.6793864 0.17589167 -0.14423117 
com.kingston.im.chat.logic.chat.message.req.ReqChatToUser.writeBody 0.6525377 -0.7263478 0.088483885 -1.0775946 -0.21098024 -0.27788025 -0.15702544 -0.86144924 0.14950934 0.07873896 0.117167875 0.3398994 0.8464173 0.46808222 -0.46045095 0.33940348 -0.28954962 0.19371603 -0.18990123 0.5020706 0.900807 -0.702963 -0.25454438 0.3995666 0.0095254565 -0.7283563 -0.34031925 1.0721188 -0.27071244 -0.5860155 -0.4870969 0.6637669 -0.7737593 -0.40287855 0.15242745 -0.30123678 0.19605494 -0.36073235 0.08721325 -0.59692895 -0.27770212 -0.52520883 -0.19279444 0.9609015 -0.30877325 -0.5539221 0.39798066 0.23080593 0.2807543 0.4570766 0.74045795 0.6901608 -0.2603782 -0.31210572 0.25842634 0.6561885 -0.4313202 0.1568119 -0.85009605 -0.109728575 -0.07454689 -0.4597713 -0.8643008 -0.49442482 0.20230563 0.36241233 -0.4116036 0.11145121 0.16671667 -0.71296096 -0.5232639 -0.22186983 -0.21862479 0.108519256 0.54789555 0.099112004 0.70131433 0.42024848 0.23192784 -0.2288834 -0.23670411 -0.5549837 -0.39093572 0.49956983 -0.13715975 0.03981082 0.478755 0.31669074 -0.54433566 -0.08806913 -0.59810865 -0.015586021 -0.43861565 0.4692011 0.5524808 -0.12179836 0.07546074 0.6675616 -1.1567962 -0.8998032 0.24217379 -0.27714142 0.24419957 0.46316797 0.11905377 -0.08487999 -0.6620568 0.46693072 -0.043240927 -0.08736715 0.02249981 0.18804412 0.30595526 -0.18681502 -0.15456064 0.5136735 -0.2854364 1.5233009 -1.0705067 -0.47207624 0.11903251 0.91879594 -0.39742896 0.64208025 -0.02273334 -1.3881519 0.028209182 0.61951363 
com.kingston.im.chat.net.message.ByteBufBean.writeUTF8 0.16229962 0.23057327 0.30511072 0.22048822 -0.39220852 -0.013024102 -0.07607178 -0.45803708 0.71375954 0.32170492 0.4613366 0.40928024 0.12818171 0.32712936 0.3267038 0.08116585 0.08532668 0.00044986024 0.49671337 -0.15650485 0.32911736 -0.48994863 0.08986347 0.0766327 -0.05143762 -0.42981532 0.44059333 0.7597367 0.007491288 0.35547602 0.16100153 0.16782612 -0.280644 -0.6127593 -0.29024422 -0.05450478 -0.2161166 -0.5861188 -0.23047565 -0.03317046 -0.1044147 -0.30647096 -0.35649294 -0.0625386 -0.6022288 0.20118208 0.33485523 0.079393744 0.43743443 0.113154165 -0.40291387 0.2792882 0.2013838 -0.22671485 -0.27716267 0.08722495 0.15759426 0.55751324 -0.41612366 0.1948597 0.21281904 0.614389 -0.15810834 -0.40646687 0.3826805 -0.3724177 -0.40018067 -0.42233965 -0.49973884 0.05044937 -0.26049533 0.547029 0.14694783 0.18635757 0.37008095 -0.5313005 0.49119076 0.42665744 -0.27461877 0.05599053 0.31672448 -0.10808217 -0.09815711 -0.025966713 -0.6905436 -0.5768999 0.6143363 -0.10790579 -0.24546598 0.1644293 0.31285882 -0.2065889 0.27616122 0.6327046 -0.50975615 0.08868977 -0.006658103 0.28110346 0.002078841 -0.59861857 0.2277314 0.2283745 0.18894754 0.980662 -0.53106946 -0.71636784 -0.32069284 0.30320176 0.14699757 0.023767844 0.7254175 -0.3199972 -0.032462046 1.0346434 0.84404016 -0.11280283 0.13312407 -0.051067527 -0.23849103 -0.37065372 -0.08066405 0.48202682 0.14728324 -0.22374468 0.07183656 0.14687921 0.47555113 -0.15564851 
com.kingston.im.chat.logic.user.message.res.ResUserRegister.writeBody 0.51728016 -0.16057476 -0.657471 -0.6201285 -0.19068854 -0.12840018 -0.08721529 -0.17898345 -1.2640135 -0.23308772 0.5079837 0.8392732 -0.009304936 0.10134137 -0.9100375 -0.03820243 0.28758228 0.11083601 0.18116869 -0.32689258 0.9118994 -0.6444755 -0.22898394 0.09920356 0.033292342 -0.43160924 -0.0075361105 0.7725291 -0.923573 -0.60305953 -0.36346993 0.20912495 -0.6588629 -1.1601125 -0.6135733 -0.46602777 -0.52323073 -0.24530214 -0.1284682 0.12403786 -0.49475354 -0.25551075 -1.1339475 0.30214992 -0.15427074 0.15667398 -0.116314195 0.23204386 -0.7554213 -0.041374717 0.09692171 0.8817476 0.34461772 0.21158685 -0.02241616 0.2476147 -0.42156842 -0.15692317 -0.52372235 0.062306553 0.27383885 -0.1209165 -0.6898503 0.20707636 -0.178743 0.3755812 -1.1979563 -0.09765472 -0.5167857 -0.7100791 -0.5914576 0.24208461 -0.33845112 0.1337258 -0.14982106 -0.104281574 0.7734263 0.12212037 -0.28392342 -0.4430309 -0.1893464 -0.48781613 -0.3365748 0.014577969 -0.16211554 -0.67832696 0.010155592 0.71052927 -0.5640113 0.5325082 0.3988833 -0.24433954 0.10720592 0.72373044 0.8426711 0.4987357 0.23899013 0.73889077 -0.5719928 -0.41616935 -0.094559975 0.27344263 -0.21125494 0.07156645 0.3376034 -0.39218313 0.36313203 -0.12572026 0.07079053 0.04666012 -0.48686925 -0.5195703 -0.19549678 0.14735349 -0.20701614 0.42958754 0.8735865 0.2679 0.52582216 -0.43941292 -0.81292903 0.6280924 -0.27270305 0.103459395 0.20142247 -0.9833577 -0.7287688 0.5065331 
com.kingston.im.chat.logic.friend.message.vo.FriendItemVo.writeBody 0.68080497 0.21127218 0.8286755 -0.63178456 0.09281356 -0.20733115 -0.10154605 -0.42255193 0.33812892 -0.3518723 0.03444471 0.78699887 0.8976108 0.6250898 -0.8360993 0.43101394 -0.41818565 -0.13108984 0.35184416 0.5325107 0.08527839 -0.8659241 -0.41022515 -0.15594523 -0.055705003 -0.3372046 -0.505901 1.1324934 -0.52225333 -0.65216506 -0.31142512 -0.1832279 -0.78291696 -0.7809645 0.3632692 -0.7731474 -0.10878825 -0.93578094 0.0019155273 -0.8005405 -0.18512216 -0.58509505 -0.4131661 0.61826676 0.13333318 -0.55662984 -0.02047295 0.30891845 0.17368859 0.12754124 -0.20066157 0.80784106 0.11694084 -0.77096903 -0.38036638 0.5192141 0.27445996 0.14039297 -0.33776203 0.3843966 0.20222107 0.09244796 -0.5382471 -0.43070835 -0.17975007 -0.07729133 -0.73521 -0.5736592 -0.7765737 -0.40037945 0.04617788 0.14716305 9.189904e-05 0.031433262 0.3630237 -0.64519316 0.7587686 0.47687083 0.035889816 -0.051180817 -0.34322098 0.09331356 -0.65317714 0.061593965 -0.19247438 0.05082283 0.19349897 0.20121837 -0.8181349 0.20494345 -0.21464837 -0.21581694 -0.221359 0.5513757 0.7562555 0.6443061 0.3846678 0.8666874 -0.63961446 -0.9144108 0.20028892 0.051467504 -0.15033607 0.19240953 0.46854186 0.46799907 -0.23671213 0.49109444 0.06972523 0.24967898 0.35843545 -0.075244345 0.7958498 0.20282684 0.29798526 0.6806767 0.2857796 1.4475262 -0.6733187 0.37188464 -0.30301124 0.450263 -0.13603972 0.1715645 -0.7594999 0.06269738 -0.56417865 0.13022651 
com.kingston.im.chat.logic.user.message.res.ResUserInfo.writeBody 0.97858286 -0.29365835 -0.17185985 -0.30376425 0.07106859 0.10605635 0.010146154 -0.85420346 -0.96612257 -0.40360615 0.78499466 0.48249114 -0.61932343 0.109800525 -0.84453475 1.0863763 0.2531282 0.34679034 0.5890091 -0.103715375 0.43073457 -0.4272433 -0.24440205 0.2771925 -0.24347048 -0.5225856 -0.3589608 0.8943816 -0.4959349 0.002008533 -0.5756599 0.108389735 0.16474198 -1.3129241 -0.6841442 -0.3753768 -0.49919567 -0.7985123 -0.5125765 0.1497219 -0.2701788 -0.42266658 -0.65177995 -0.049246043 -0.33282474 -0.11884691 0.69828105 0.5176096 -0.5105705 -0.25785625 0.63091743 0.33135557 -0.09297848 -0.3068096 -0.85800594 0.70998865 -0.2721464 -0.32679254 -0.7503561 0.007076014 -0.25025493 -0.08136833 -1.0237 -0.24544132 -0.19957493 0.2748541 -1.154427 -0.6611667 -0.80236757 -0.99795336 -0.49354544 0.03199796 -0.30802214 -0.1329937 0.0016654914 -0.3268761 1.0219672 0.1627985 -0.18724501 -0.28386304 -0.41539326 -0.020231167 -0.3174685 -0.15723169 -0.3145907 -0.11954464 -0.2875403 0.09222868 -0.44035125 -0.10480032 0.017017938 0.1698368 -0.14091994 0.23687771 0.4363571 0.346295 -0.093008414 0.30488148 -0.3066066 -0.7984998 0.31469327 -0.050486486 0.019038979 0.24693169 0.7259909 -0.21675637 0.18935144 0.49502754 0.10981977 0.108699955 -0.12854265 -0.79185134 -0.1054237 -0.37969065 0.23201337 0.4888397 0.26434305 0.02453132 0.22229138 -0.45540065 -0.24120069 0.59419966 -0.60595554 0.088503376 0.033918608 -0.9424844 -0.74372834 -0.28325334 
com.kingston.im.chat.logic.login.message.req.ReqUserLogin.writeBody 0.55362475 0.27527958 0.30559886 -1.275819 -0.08869974 -0.18628228 0.59673345 -0.52905864 -0.41496837 -0.4212007 -0.20629306 -0.05229819 -0.091402054 0.19568564 -1.059243 0.3675318 0.061407298 0.5578632 0.24680476 0.24538618 -0.06224794 -0.6112338 -0.07122796 0.52945596 0.43806297 -0.98571724 -0.3638643 0.15786128 -0.79793227 -0.66104305 -0.5284468 0.20249328 -0.54179907 -0.69973165 -0.1270475 -0.14620438 -0.2651345 0.17133069 0.34613287 -0.8391447 -0.20870425 0.047093794 -0.48144028 -0.43934873 -1.0309722 -0.7656307 0.260395 0.1363287 0.53719133 -0.42936814 -0.015608788 0.793417 -0.92630696 -0.2505635 -0.11249574 0.4645759 -0.47950497 -0.104620986 -0.61141175 0.2592748 -0.35123903 0.5933513 -0.0644885 0.0495878 -0.11181087 0.86086744 -0.3498529 -0.3488864 0.25017637 -0.5732024 -1.234733 -0.075879924 -0.036227193 0.033985276 0.39713052 -0.19620754 0.5534998 -0.5022129 0.1314238 -0.5149786 -0.5369955 -1.1074268 -0.17153664 0.541785 -0.76533973 -0.34997192 0.7397013 0.27960137 -1.1353669 0.003794231 -0.2917624 -0.8518982 -0.8132497 -0.033170465 0.30283493 0.60819846 -0.19847912 0.22963354 -1.316821 -0.9163295 -0.043720424 -0.08156829 0.74744 1.1104968 0.19889213 0.7428366 -0.07798463 0.26678446 0.061344136 0.37445977 0.31087866 -0.2563553 -0.37540677 -0.16595857 -0.194377 0.21458036 -0.53798175 0.96020037 -0.1526709 -0.5572367 -0.05524579 0.3758703 -0.7885811 0.35560673 -0.06849631 -0.79997146 0.5117175 0.13540015 
com.kingston.im.chat.logic.chat.message.res.ResChatToUser.writeBody 0.9271409 -0.43163323 0.24875388 -0.401366 0.2426207 -0.15994589 0.112726085 -0.84301317 -0.22965357 -0.1727046 0.57483375 0.019831404 0.6282604 0.024755653 -0.7253457 0.90368545 -0.49982783 0.6406404 0.31441745 0.35119522 0.8826079 -0.50876534 0.04188095 0.73927724 -0.19334379 -0.7823246 -0.24716078 1.1344683 -0.87436026 -0.29015175 -0.15121369 -0.069179 -0.157438 -0.7678924 -0.1351806 -0.3062275 0.05355574 -0.3338966 -0.44554636 -0.4479765 -0.5400516 -0.65424526 -0.36803213 0.7675485 -0.2370896 -0.5159863 0.42097527 0.81758976 -0.18271215 0.35682693 0.13349396 0.56326187 0.08930135 0.13649498 -0.64031833 0.59783256 -0.08089409 0.006888007 -0.28106067 0.50952923 -0.38204032 -0.16846105 -0.36983934 0.047238264 -0.16332836 0.30009103 -0.96125644 0.15165007 -0.68271303 -0.79009074 -0.2679887 -0.15694804 -0.00623302 0.10725178 0.21777123 -0.7123234 0.9869782 -0.21777068 0.008189733 -0.17511459 -0.33180496 -0.4763106 -0.27687246 -0.48333982 -0.2052172 -0.52119815 0.4290905 0.24751997 -0.03217374 0.07744802 -0.12157984 -0.08090509 -0.5170429 0.6157254 0.55449593 0.05400181 0.024644706 0.81968105 -0.7548673 -1.0040039 0.1629524 -0.39017722 0.19957653 0.2767752 0.1964799 0.44753647 0.039918307 0.44675463 -0.07545804 0.2696664 0.24682848 -0.12662242 -0.2306069 0.0031106414 0.28116348 0.45863461 -0.07952913 0.6916731 -0.21794032 -0.35555306 -0.14140335 1.2474029 -0.098651454 0.30808982 -0.2881023 -0.7660528 -0.16519304 0.08658961 
com.kingston.im.chat.net.message.ByteBufBean -0.015844312 0.43868777 0.4682532 -0.0025278241 0.033205688 -0.09987026 -0.017543595 -0.03183588 0.12001451 -0.21662182 0.18864141 0.37190446 0.27579936 0.02218471 -0.2964878 -0.04432853 0.25079745 0.076949015 0.2910801 0.49973205 0.07643371 0.018379958 -0.112632416 -0.11297008 -0.14881049 -0.16106433 -0.023400633 0.25350177 -0.0775301 -0.28494117 -0.073898435 0.18286896 -0.34183705 -0.47115535 0.10817147 -0.060529355 -0.14006452 0.03635826 -0.089422286 0.18336363 -0.28406504 -0.026169779 -0.45287922 0.09609795 -0.036452837 0.120454684 0.3115231 -0.08128727 0.112564854 -0.30068964 -0.11922541 -0.010684922 -0.43875554 -0.06433859 0.23483662 0.3271972 -0.106461346 0.29981908 -0.32612926 -0.13588724 0.16374534 -0.26619837 -0.5348715 0.12634572 0.29161057 0.269233 -0.56044227 -0.44008914 -0.53218246 0.12878832 -0.51619464 0.08385696 -0.058504768 -0.035285734 0.31122983 -0.27425513 0.12778868 0.1253161 -0.019848056 0.2542878 0.18294321 -0.43679184 -0.5114336 -0.09033614 -0.124872446 -0.3155071 0.1770379 -0.21957572 -0.31511185 0.015530601 -0.00390692 -0.20639041 0.049908947 0.17408866 0.6207126 -0.13776001 0.07869808 0.087798536 -0.16207382 -0.3281453 0.27191186 -0.25594792 0.10075623 0.17570093 0.21546917 -0.091374 -0.21538623 0.033685498 -0.012271235 0.11548185 0.46233732 -0.19733554 -0.17729577 0.32678396 0.3646464 0.04758771 -0.2998009 0.29084247 0.091571994 -0.037527386 0.15003942 0.13719213 -0.12949625 0.58947486 0.039549127 0.31881276 0.12068231 0.14880301 
com.kingston.im.chat.logic.search.message.vo.RecommendFriendItem.writeBody 0.21441068 0.1921945 0.8458223 -0.20250645 -0.6316694 -0.29858017 -0.07062954 -0.16780697 0.32091576 -0.44543475 -0.0040156776 0.20031488 0.24687876 0.45331126 -0.63848376 0.3342025 -0.36552328 0.10924093 0.298982 0.34760535 0.5841681 -0.4642089 0.42013156 0.2509234 0.7063385 -1.3384739 -0.41941264 0.48433375 -0.4863345 -0.4419003 0.03179547 0.111000985 -0.3553297 -0.7042184 0.048566032 -0.6556915 -0.13540107 -0.6163206 0.11870016 -0.30785713 -0.19927095 -0.5158569 -0.45318854 -0.3107858 -0.22464716 0.09954632 0.443172 -0.25418118 0.67497134 -0.33135524 -0.058326013 0.2200316 -0.42609563 -0.6439632 -0.3915218 0.54752654 -0.30306286 0.3841232 -0.5699523 0.26881593 -0.20423914 0.11897882 -0.3236386 0.24872059 -0.10782293 -0.052742638 -0.50082433 0.05852941 -0.5207491 -0.6224792 -0.9610395 -0.4946263 0.3243866 -0.3650299 0.28367582 -0.38129693 0.31292295 0.011007354 0.12975337 -0.3932544 -0.121959485 -0.42254946 -0.30610025 0.39824924 -0.35027066 -0.16067849 0.12915312 -0.41069475 -0.5584897 0.40372235 -0.10697018 -0.43061107 -0.19851118 0.3635742 0.69845694 0.6184125 -0.6300753 0.20795275 -1.1024644 -0.80608976 -0.3329239 -0.14654052 -0.02068641 0.86605644 0.4137345 0.1357006 -0.531695 0.8034053 -0.3732191 -0.5583146 0.70760065 0.008639051 -0.07741683 0.5078829 -0.08855536 0.2347724 -0.06141982 0.9394023 -0.14398402 0.026595585 0.06819996 0.62445915 -0.70081836 0.28509682 -0.048459984 -1.073533 0.40562448 0.42210868 
com.kingston.im.chat.logic.login.message.res.ResUserLogin.writeBody 0.31446552 -0.418111 0.15992431 -1.0317388 0.029593784 -0.924357 0.91891 -0.6417226 -0.42525303 -0.43959382 0.2100896 0.14908896 0.3449566 0.09154889 -0.90039426 0.21675709 0.27187696 0.13672213 -0.40405774 0.017037004 0.38125807 -0.54993653 -0.47011942 0.23167397 -0.46012992 -1.2679225 0.058742322 0.428763 -0.2509199 -0.45872727 -0.7275503 0.33934733 -0.6927424 -0.7201272 -0.54521334 -0.2726728 -0.65968037 -0.20178999 -0.38894904 -0.52693784 0.4619379 0.08783942 -0.64416593 0.62067837 -0.3698548 -0.62604 0.52261823 0.17602535 -0.22192673 -0.060129486 0.1318206 0.16505355 -0.33065233 -0.55268687 -0.24515873 0.3123492 -0.20935896 0.002264608 -0.7009558 0.040384594 -0.17236125 -0.2308363 -1.0009679 -0.5294067 0.06985754 -0.0973066 -1.2888983 -0.62869984 -0.6865881 -0.97421265 -0.69505733 -0.046021774 -0.03279531 -0.030254515 0.2908178 -0.2502582 0.35376227 0.30800328 0.5151309 -0.22418025 -0.08649547 -0.16189286 -0.0041032084 -0.1128854 -0.7485805 0.28467748 0.5566961 0.38243303 -0.99278533 -0.53858835 -0.7434343 -0.63396436 0.02999727 0.056746073 0.070175536 0.69168586 0.12095701 0.9677294 0.09043943 -0.095810056 0.021076234 -0.25218248 0.018624712 0.2728001 -0.44580716 -0.1632844 -0.11577678 0.60786164 0.18697155 0.85981214 0.4602608 -0.4807525 0.78998584 -0.21291521 0.4081437 0.6768626 0.5377707 1.0983542 0.36872002 -0.98886395 -0.5523897 0.36400262 -0.36516988 0.09105169 -0.2986694 -0.61065865 -0.046610508 -0.078378245 
com.kingston.im.chat.logic.search.message.req.ReqSearchFriends.writeBody 0.48434886 -0.061805982 -0.10446834 -0.8074574 -0.27282816 -0.17638986 0.43445462 -0.59196657 -0.46802908 -0.4506789 0.057355985 0.42087588 -0.17155547 0.042949956 -0.666972 0.33816597 0.62309563 0.6275037 0.11860685 1.062583 0.47873053 -0.54511756 0.007192462 0.5908371 0.34054574 -0.89532095 -0.16337876 0.19550887 -0.26319212 -0.81704605 -0.88230246 0.47630545 -0.29378167 -0.7519433 -0.10270405 -0.25693703 -0.48119816 -0.5515132 -0.28167254 -0.8172381 0.6107563 0.18922487 -0.05308288 -0.18199891 -0.9274227 -0.21736251 -0.006542513 -0.6931973 0.39459342 -0.7279258 0.70185906 0.51082474 -0.91383517 -1.005006 0.40394002 0.11935591 -0.97061014 -0.08456795 -0.7131025 -0.042518605 -0.37139425 -0.0644815 -0.77506924 -0.49349928 -0.16125378 -0.007836035 -0.78553903 -0.15641911 -0.1789363 -0.96311903 -0.9416118 -0.48914787 0.37234727 -0.7591541 0.50555146 0.14027052 0.1434822 0.03965326 0.17929058 -0.027292637 -0.16375533 -1.0419961 -0.45916715 0.09137974 -0.2653998 -0.16130556 0.6465015 0.054281887 -0.7631019 -0.4163912 -0.29827872 -0.631541 -0.48824826 0.2816006 0.9043878 0.13891722 -0.42666978 0.671658 -1.4416491 -0.48332474 0.37340117 -0.19481224 -0.13680679 1.4217187 0.30766633 -0.008766484 -0.16968499 0.5704555 0.18300852 0.38436833 0.12044792 -0.08381914 -0.077252984 0.63246036 0.10241297 0.25734392 -0.26439843 0.24771558 0.05658208 0.06126785 0.0915874 0.42432478 -0.63143027 0.5998975 -0.4138969 -1.3325906 0.54181296 0.2113828 
TestCase -0.015119001 0.20089084 0.655569 -0.41295424 -0.39036646 -0.2036848 -0.48013684 -0.37985414 -0.7559725 -1.1336141 0.39157203 -0.14406447 0.48358205 0.0854452 -0.82815206 0.294577 -0.027266001 0.70562744 0.8152826 -0.6852646 0.41578898 0.40090147 0.9057238 0.6032492 1.041139 -0.33321142 -0.6277076 0.61676085 0.32274213 -0.25589955 -0.74856234 0.4107343 -0.28105485 -0.18907613 0.5439884 -0.44995034 -0.44958624 -0.28138676 -0.49292335 -1.8002806 0.21301138 0.19715312 -1.2349228 0.025903076 0.50476044 -0.42986283 0.57544816 -0.64253086 -0.2195806 -0.68138516 0.38339105 -0.09424511 0.2768945 0.11797202 -0.21755181 0.10694256 0.59625435 0.35680842 0.6413665 0.19113496 0.70860654 -0.3651403 0.39873046 0.67383265 -0.43902832 -0.29872283 -0.8861758 0.25348222 -0.20980982 -0.75235885 0.4624812 -0.4351537 0.18441598 -0.7526587 0.7117095 -0.6121382 -0.6085435 0.5122307 -0.31716743 -1.1383505 -0.49699584 -0.18624419 0.25077242 -0.057323974 0.4781587 -0.9881174 -0.297707 0.057116035 0.3426669 0.4228107 -0.54106677 0.024370814 0.015449645 0.2613461 -0.20317172 -0.2592726 -1.4243972 0.30759466 -0.2626521 -0.35257834 0.82959473 -0.039708756 -0.13109136 0.55329865 -0.11833015 0.73694557 -0.49679852 0.94791704 0.624822 0.92698807 0.57285607 0.19399004 -0.81470823 0.18133403 0.13111189 1.1236535 0.8577357 0.54467154 0.01895382 0.18432687 0.10091786 -0.39488965 -0.7117054 -1.1896496 0.054450475 -0.18429734 0.51410925 0.033841826 
com.kingston.im.common.AppTest 1.2693875 0.22400239 0.06101637 0.5433444 -0.3165261 -0.5093517 -0.09586296 -0.7167823 0.81192654 0.31613374 -0.17743932 0.109940484 -0.5797515 0.5105542 0.051308446 -0.36647862 -0.018207336 -0.535039 0.06830631 -0.29796147 0.53056663 -0.7539259 0.5020024 -0.1516118 0.086891174 0.24452855 -0.87643075 0.020248123 0.30062327 -0.6295463 0.56109774 0.22917187 -0.51925194 -1.0774821 -0.17055342 -0.33700374 0.052324474 0.10225588 1.0891225 0.2355344 0.9432841 0.85870075 -0.07975794 -0.11612266 0.3141043 -0.36408672 0.8931502 0.13405102 0.29480332 -0.8646618 1.0305613 -0.13640754 0.08299407 -0.39439774 0.2404838 0.34426197 -0.2267386 0.19223389 0.35268238 -1.4575081 1.0490252 0.25195873 -0.89234227 0.462249 -0.10057607 0.22452179 -0.10432921 -0.49721873 -0.69294816 0.55812156 -0.99288756 0.47171512 -0.6133194 -0.36434096 0.35123044 -0.07894215 0.30511004 1.2259613 -0.16193508 1.6572773 -0.2636812 0.11837495 0.54337317 0.15672714 -0.8616373 0.24443091 0.58333814 0.25123793 -1.139689 -0.38458955 0.56084996 -0.25464603 0.38126 0.052328236 0.14363566 -0.51531327 -0.012952544 -0.4061084 -0.9202848 -1.5439763 1.0890158 -0.33342266 -0.59466934 0.021544721 -0.4664937 -0.52994967 -0.39434162 1.0908942 -0.6451039 -0.09196267 -1.4738896 -0.8222905 -0.5326969 0.1853082 0.42128226 -0.28380275 -0.6440797 0.5163888 1.0282497 -1.4763436 0.4800176 -0.20581429 -0.2231299 -0.3798003 -0.56607753 -0.6115415 0.006979811 0.7107149 
com.kingston.im.chat.logic.login.message.res.ResUserLogin -0.06012623 -0.059687953 0.741499 -0.15209234 0.21932685 -0.57872385 0.12082264 -0.32789108 -0.197995 -0.53331584 -0.09705623 0.62051713 -0.39734915 0.23032595 -0.42008936 -0.14729269 -0.3128965 0.1213552 0.042079084 0.18325387 0.13585924 0.37147954 -0.30764407 0.20573391 -0.26271725 -0.99170953 -0.0051328084 0.62747496 0.28818315 0.10509366 0.11949639 0.509511 -0.71672547 -0.41334283 0.24929656 -0.24565734 -0.5358435 -0.4731557 -0.6853274 -0.72483027 -0.21108231 -0.018718036 -0.8227612 0.4457137 -0.06805599 -0.8053341 0.4096024 -0.12856533 -0.19990157 -0.059968013 -0.3193322 -0.14805649 -0.5479017 -0.5701658 -0.21866041 0.6084678 -0.33853588 0.1340682 -0.07900592 0.050241657 -0.04934019 -0.14189017 -0.15226425 -0.30838624 0.10800551 -0.22359416 -0.32442322 -0.3775647 -0.090718426 -0.35723197 0.39078534 -0.16654642 -0.16196471 0.20676377 0.6342535 -0.3754842 0.03853601 0.21351355 0.28271943 0.36577222 0.013292509 -0.1931138 0.66008466 -0.24797297 -0.8516589 -0.05168497 0.53374547 -0.2491414 -0.50133526 -0.0051759654 -0.6358456 -0.042522218 0.626365 -0.050446812 0.724567 0.32863396 -0.18197247 -0.13615705 0.49933037 0.05859626 -0.20498481 -0.79686004 0.11990428 0.26123074 -0.7156562 -0.015206076 -0.25645176 0.36190817 -0.40964165 0.6992695 0.4469014 -0.30835402 0.11191015 0.1467806 -0.102910265 -0.09958222 0.33039454 0.48574835 0.77266026 -0.8271595 0.48293728 0.9422859 0.05514361 0.2645315 -0.1881125 0.38180327 0.03761877 0.08091165 
com.kingston.im.chat.logic.user.UserService 0.17300576 -0.29947242 -0.15451545 -0.2829891 -0.35399088 0.52981544 -0.396928 0.21641406 -0.17885807 -0.31126684 0.20300488 0.12497528 -0.50545603 -0.32207623 -0.51857567 -0.37835008 0.31730732 -0.24190943 -0.078743935 0.20382407 -0.53424054 -0.4479136 -0.22207056 0.3143146 -0.10535161 -0.2893074 -0.41899857 -0.049396772 0.101038806 -0.120054536 0.065480575 0.069616474 0.61178255 -0.11592843 -0.5547346 0.13796987 -0.5337991 -0.053801678 -0.028699175 -0.2245584 0.021893255 -0.30300057 -0.51071876 0.20705181 -0.036427572 -0.20037946 0.30363482 0.048292786 0.0234014 -0.37420395 -0.15028521 0.5440924 -0.38406366 -0.36994848 -0.24572217 -0.3906244 -0.5134001 -0.3869977 -0.2621887 -0.094630145 -0.054442443 -0.7535171 0.04278202 -0.26304492 0.2485338 -0.54269624 -0.49858505 -0.542217 -0.08056919 -0.48129877 -0.00025458058 0.333028 0.17185035 0.07122722 0.0154754035 -0.30199546 0.076949164 0.20959847 -0.055735357 -0.12018753 -0.25652394 0.04685944 -0.2606611 -0.35215154 -0.1044266 -0.058091637 0.070855916 0.1463643 0.37459946 0.38449588 0.79867524 -0.25133607 0.28913245 0.17544629 0.49175784 -0.20534834 -0.022348346 0.049938664 0.109568916 0.18444704 0.1369519 -0.46618682 -0.19341478 -0.42483804 -0.47115225 0.12755863 -0.04630239 -0.011290661 0.25981626 -0.6183632 -0.535896 0.33954942 0.353037 0.23295584 0.5789265 -0.16964686 0.01515586 0.057891764 -0.23789893 -0.48232648 -0.21332319 0.1759808 -0.0075200545 -0.039032325 -0.002303399 -0.2803181 -0.25573388 -0.14445956 
com.kingston.im.chat.logic.user.message.res.ResUserInfo -0.18446305 0.04481774 -0.051186137 -0.30212313 -0.16080607 0.32213145 -0.18540414 -0.2822735 -0.605375 -0.18850158 -0.007877261 0.3032938 0.10078398 0.3184957 -0.5593628 -0.18734464 0.3447327 -0.25541565 0.2527944 -0.24349996 0.7312578 0.37727123 -0.009005273 -0.13386902 -0.0011573723 -0.48759043 -0.017099105 0.7049938 0.23545077 -0.23862526 0.013437277 0.2657097 0.039382607 -0.53858787 -0.5713487 -0.31512862 -0.4007062 0.3167954 -0.23743178 0.14254244 -0.41390187 -0.3875896 -0.44315335 0.5243171 0.026501456 -0.042220175 0.32903183 0.9730056 0.40527493 -0.015583651 0.8209073 0.13780975 -0.23006943 -0.27806282 -0.0935202 0.30838105 -0.43246904 0.31338105 -0.69647866 -0.45549124 0.7097677 0.050571192 0.07601194 -0.58430266 -0.27919298 -0.13810876 -0.41248584 -0.6305397 0.020409754 0.14026502 -0.3513322 0.14933966 -0.2995661 0.8756217 0.30631518 -0.3257426 0.13135776 0.6185662 0.0034863276 -0.29714566 -0.13942389 -0.07217674 -0.2171027 0.1750347 -0.033918586 0.03955591 -0.12798126 0.081699885 -0.14483663 0.6679382 0.053745713 0.18753254 -0.3710991 0.7775268 -0.15986572 0.6488621 -0.037192687 -0.37005013 -0.3658388 -0.07103902 0.13083695 -0.22815964 0.006095748 0.08674532 0.36069718 -0.02015105 -0.071639836 -0.10445634 -0.27657923 -0.7857253 -0.014858793 -0.39971614 0.08983044 -0.03703495 0.40389752 -0.4082469 -0.11937408 0.57999885 -0.100879066 -0.49859238 0.01746212 1.24832 -0.058558494 0.5158076 0.7708517 -0.8736636 -0.1780574 -0.37401438 
com.kingston.im.common.utils.NumberUtil 0.08793875 -0.009187365 0.7412519 -0.27162123 -0.2712474 -0.627014 -0.19404292 -0.5659076 -1.095926 -1.0388771 -0.10193354 0.2568255 -0.30185893 -0.4247145 -0.59994173 0.84382856 0.3806475 0.73920375 0.38902453 -0.41113076 0.24218734 -0.12008611 1.3075306 1.1668524 0.32077733 0.45048591 -1.1206719 -0.0035903375 0.093700714 -0.35727805 -0.4814227 -0.1515663 -0.5729189 -0.054491326 0.036591943 -0.420072 -0.6454557 -0.22859214 -0.09391427 -0.8429618 -0.13223065 0.13111085 -1.3167298 0.4527688 -0.22414804 0.047267754 1.0607969 0.39383543 -0.46725553 -0.4378043 0.78635126 -0.036863104 0.6277356 0.8149701 0.8946009 0.2371518 0.09100614 0.12691215 -0.305271 -0.65086937 -0.3271417 0.23885106 -0.38031942 0.64974594 -0.37762088 0.28783086 -1.077722 -0.22051002 -1.1414843 -0.65104526 0.16733842 -0.1564848 0.09085691 -0.5074041 0.44754893 0.07852165 -0.75037813 0.40215862 -0.63916254 -0.56931657 -0.37997642 -0.18117541 0.29548857 -0.26956564 0.50214744 -0.3727904 -0.53004867 -0.08953565 0.6403808 -0.22399443 0.118267104 0.69562495 -0.15538196 0.68420607 0.43716282 -0.54141474 -1.4479355 -0.09836899 -0.5036098 -0.19905843 1.1528153 0.20987418 -0.23648073 0.71798384 0.14304583 0.78222007 -0.66409 0.63248414 -0.07723933 0.42310554 -0.68588865 -0.091201365 -1.3913462 -0.260222 -0.39917615 1.3545489 0.3637793 0.6190505 -0.340457 0.470417 0.08924943 0.021367822 -0.90102535 -1.2307353 0.1336534 -0.56512344 0.33638078 -0.4098981 
com.kingston.im.common.utils.NumberUtil.booleanValue 0.32968748 0.24717072 0.19135505 0.34913278 -0.181804 -0.17757714 -0.22949623 -0.6651156 -1.1147065 -0.7026016 0.043291073 0.34167266 -0.76229763 0.103697225 -0.26091406 0.1353467 0.66572154 -0.08878677 0.514244 -1.0621592 0.3329195 -0.384386 1.256468 0.2875917 0.17326415 0.6282352 -1.4182942 -0.7212379 0.31317437 -0.2542487 -0.11058946 0.26014605 -0.59138525 -0.15719165 -0.12457855 0.042131893 -0.122193694 0.31824324 -0.21687345 -0.42475706 0.08861931 0.21997912 -0.89437866 0.41730046 0.086745284 -0.09687526 1.0727109 0.78957164 -0.11657329 -0.69567937 0.90904135 -0.4853687 0.5610857 0.36227867 0.8043065 0.1175001 -0.19244383 -0.49923798 0.40413272 -1.1203494 -0.2112538 0.080859095 -0.18094319 0.49663615 -0.270522 0.33984894 -0.7494298 -0.04713567 -1.040114 -0.41620174 -0.015747532 0.252209 0.14373803 -0.75892234 0.57710886 -0.36002398 -0.3880409 0.68924814 -0.42665452 0.04761782 -0.0059117316 0.26388735 0.8925143 -0.05698278 0.00028427644 -0.2622463 -0.6142445 -0.2726823 0.34315822 -0.50458837 0.2716162 0.2498317 0.33261162 0.386114 0.4893858 -0.97608435 -0.98321044 -0.8610122 -0.017453872 -0.6599367 1.2162648 0.10454413 -0.09831259 0.6028362 0.07310273 -0.17527662 -0.8338363 0.61356735 0.07805773 0.37396038 -1.51869 -0.47663856 -1.2027422 0.35450083 0.065050684 0.34654605 0.32147112 -0.32244796 0.06619049 -0.47835174 -0.082545675 0.20917322 -0.46291575 -1.2458668 0.4520667 -0.7959961 0.4996054 -0.6199987 
com.kingston.im.common.utils.NumberUtil.booleaneValue 0.08627972 0.1735052 0.76712817 0.12720653 -0.87107843 -0.18927349 -0.6166022 -1.0827332 -0.8385663 -0.844611 0.44875124 0.07445977 -0.8537457 0.09857775 -0.49181917 -0.22451477 0.3911374 0.029301796 0.7359465 -0.7747766 0.5881729 -0.25960362 1.238045 0.66176254 0.28981224 1.0225873 -0.8583594 0.083232634 0.5272492 -0.011325146 -0.6515381 0.27494866 -0.19466609 -0.31545177 -0.48749 -0.12745875 -0.15941843 0.17122039 -0.0051707565 -0.38100874 0.23194166 0.57007766 -1.0273942 0.17214212 0.5634436 0.020751245 1.322732 0.26518857 -0.44604954 -0.22339658 0.41906497 -0.4944854 0.08709741 0.10951874 -0.04806825 -0.32854593 -0.4398116 -0.150211 0.16100039 -0.9445136 -0.11577043 -0.021382337 -0.17260674 0.7184457 -0.07303321 -0.20680964 -0.802207 0.2850035 -1.0850518 -0.46844524 0.11839693 0.26123634 -0.032356072 -0.7572957 0.25557145 -0.30665055 -0.6545539 0.42187157 -0.41865376 0.26539966 0.10506498 0.08340201 0.90062505 0.1040157 0.34084177 -0.2975309 -1.0994148 -0.37159517 0.8375114 -0.37129807 0.69022936 0.33474207 0.3718324 0.6133895 0.7716338 -0.47236124 -0.78117704 -0.1495876 -0.15620549 -0.64192426 1.2428577 0.13977873 -0.820875 -0.051763076 -0.11383062 -0.26848915 -0.90324545 0.6698415 0.09214616 0.62449974 -0.8203904 0.11557662 -0.83821404 0.089365676 -0.38150334 0.9333337 0.44885683 0.63102823 0.23495388 -0.580058 0.2109093 -0.61380774 -0.8270961 -1.1597087 0.3733404 0.026698349 0.63764536 -0.24209441 
com.kingston.im.chat.logic.user.UserService.userLogout 0.7357053 -0.6787086 0.8145013 -0.45046228 -0.09169443 -0.052634843 -0.49374834 -0.110198215 -0.7353509 -0.5446329 0.21946587 0.027909413 -0.57940733 -0.09129025 -0.5753325 0.5901984 -0.21248977 0.07797801 -0.05826898 0.41960406 0.2196591 -0.16194943 -0.31998026 -0.025908997 -0.008332181 0.138992 -0.3264695 0.84250706 -0.15746935 0.087525345 0.033213776 -0.031456944 -0.344344 0.1874666 -1.0303252 -0.118733965 0.26862314 0.17922975 -0.60866916 -0.7042475 0.08334784 -0.48653704 -0.49170196 0.16720207 0.099599525 0.050865516 0.44222718 0.014722334 -0.2618433 0.08417529 0.34884918 0.589266 -0.1087195 0.15621583 -0.24281007 -0.31899974 -0.39637527 -0.45094424 -0.38874513 -0.9086535 -0.3164127 0.05087869 -0.43595886 -0.39448503 0.2608466 -0.26555133 -0.04991932 -0.120339714 0.3316082 -0.57656527 0.17653614 0.020400517 -0.077930875 0.35110933 -0.061862268 -0.11925273 -0.060874797 0.7147104 -0.07333887 0.10682393 0.03578601 0.6521293 0.21167845 0.21888427 0.15796594 0.047639847 -0.48207727 0.1350576 0.24970756 0.136463 -0.35559145 0.1916177 0.2057938 0.40246186 0.71718293 -0.9209772 -0.067810506 0.21315701 0.48420775 -1.1070222 0.24795993 -0.045888234 -0.16077675 -0.24524893 -0.08530827 0.3007119 -0.3125891 0.088855326 0.25237003 -0.07305684 0.19783871 0.10741969 0.045251608 -0.08523242 -0.11608115 0.106124595 -0.19757175 -0.068578005 -1.0429453 0.35335362 0.19150643 0.9277956 0.13866481 0.055784017 0.44108486 -0.19984226 -0.11327644 -0.18491964 
com.kingston.im.chat.logic.friend.FriendService.onUserLogout 0.48927566 -0.6284267 0.6415648 -0.004562908 0.059183963 0.46336305 -0.8939569 -0.31591883 -0.3669273 0.080116935 0.10093684 0.46256354 -0.20574601 -0.18417747 -0.47541764 0.38902584 -0.365853 0.104660176 0.2552398 -0.054134645 -0.045965873 0.38056436 -0.44056758 0.38376087 0.17681265 0.24954607 -0.18780789 1.1524137 0.33033633 -0.5310766 -0.01720532 0.33250457 -0.688211 -0.33345985 -0.23154247 -0.31400573 0.089329906 -0.25955635 0.07679431 -0.15986772 0.19702326 -0.08260529 -0.08746075 0.43702668 -0.19383828 -0.11185102 0.5650681 0.23438178 0.14422618 -0.024420563 -0.20093878 0.491162 -0.25755656 -0.068749346 0.039629705 -0.5702174 0.070998736 0.21709448 -0.2633169 -0.75438946 0.4935061 -0.016096251 -0.5633123 -0.46522248 0.09443047 -0.088456854 -0.12974763 -0.49222633 0.38035202 0.12262593 0.5876614 0.67303693 -0.20041673 0.26605648 -0.1326066 -0.3474265 0.1717812 0.31984684 -0.22159557 -0.19918506 -0.6477795 -0.32856506 -0.63554466 0.037662115 0.5250727 -0.36937302 -0.29930845 0.724512 0.2948897 -0.09014949 0.22931089 0.076458864 -0.0047351015 0.42995664 0.35386515 -0.9894137 -0.05023197 0.16916905 0.09459255 -0.5012 0.9671597 0.039337777 0.2711207 -0.09466477 -0.3521597 0.23324926 -0.38601163 0.3080137 0.8581538 -0.47455466 0.034515418 0.10993077 0.11042136 0.2336227 0.4385117 0.60627115 0.0077939243 0.16229945 -0.8996774 -0.1125641 1.0133902 0.4463912 -0.13035363 0.041305307 -0.056866404 -0.011526383 -0.20295228 -0.058779627 
com.kingston.im.chat.logic.friend.FriendService 0.1671651 -0.08631153 0.9855563 0.1345065 0.27836528 -0.2877527 0.13913397 0.36743462 -0.69135416 -0.99864006 0.31177866 0.6140539 -0.47469673 0.025636273 -0.39736846 0.2427712 0.049829338 0.27759415 0.031579927 0.32657966 -0.35450357 -0.10771623 0.015052302 -0.32497278 0.15260954 -0.09140056 0.12319611 0.16315489 0.18682283 0.08590581 -0.14938702 0.42103225 0.070859894 -0.50363785 -0.32806683 -0.09319591 -0.41905537 -0.6820833 0.5092702 -0.55695957 -0.11048685 0.010486874 -0.1835366 -0.04631427 -0.23429076 -0.19468875 0.51161397 0.42013705 0.26930994 -0.6297851 0.27701294 0.1239025 -0.17980334 0.122866765 -0.03165784 -0.2717037 0.00086947944 0.26570964 -0.7561811 -0.23441832 0.048829872 0.08150052 -0.63917094 0.0010938362 0.42853525 -0.7330879 -0.19708475 -0.72838295 -0.28710368 0.09222921 0.38823837 -0.045017127 0.4819669 0.85018396 -0.0352625 -0.5815686 -0.35816866 0.07008485 0.046811394 -0.7939576 -0.0054833996 0.06986357 0.033954788 -0.21335588 0.14509177 -0.27835205 -0.5237579 0.113688305 -0.29298612 0.7136716 0.017418876 -0.33677188 0.57292396 0.6595738 0.21160784 0.032879747 -0.35118914 0.6438395 -0.15411225 -0.44094756 0.28264794 -0.46691802 0.4533766 -0.35291505 0.3085872 0.4421686 0.23751205 0.14471832 0.3040933 -0.21282499 0.059383728 0.1572939 -0.2557161 -0.12902321 0.7755604 0.511933 0.75703174 0.16607991 0.059851214 -0.11484019 0.6480491 0.10713977 -0.056088857 0.021243595 0.001224632 0.09634414 0.057585493 0.156355 
com.kingston.im.chat.logic.friend.message.res.ResFriendLogout.setFriendId 0.17746334 0.33435166 0.71755403 -0.2854547 0.18733743 0.7744253 -0.12887923 -0.9526853 -0.699691 -0.23945531 0.16629252 0.078162536 -1.269968 -0.13333383 -0.7587135 0.14072572 0.15293191 0.38163733 -0.10345765 -0.014185822 -0.09615135 0.48882806 -0.12161991 -0.19213644 0.63626605 0.040200908 0.30443978 0.9269729 0.18353176 0.014447356 -1.0446813 0.287679 -0.37066498 -0.72236055 -0.21229163 0.19103695 -0.5784867 -0.11053839 0.13502575 -0.45247042 -0.711188 0.22739393 -0.55775076 0.7085931 0.8840904 -0.80238825 0.35220817 0.24716261 0.21181269 0.18110399 -0.3451987 0.5091596 -0.012767675 -0.29567054 -0.021265043 0.17131943 -0.28891742 -0.42821628 -0.81781805 -1.0898877 0.50070155 0.45621473 -0.5329594 -0.11939961 0.2010551 -0.3633668 -1.0464327 0.0871631 -0.82130814 0.39874443 0.120470956 0.04707045 0.07737441 -0.48643777 -0.3966119 0.5412246 0.080897674 0.97012216 -0.2701298 -0.009263303 0.080650136 0.002702807 -0.035116345 0.20020825 -0.4944193 -0.03264784 -0.1135249 0.052730914 -0.47297323 0.3137212 0.22917376 0.12358333 -0.20459081 0.8439837 0.6494774 0.1125399 0.19028978 0.36395603 1.1573596 0.5087044 0.32784814 0.32428908 -0.27967465 0.027543724 -0.043451715 0.5815461 -0.730385 0.85315853 0.7663089 -0.2019663 0.28840485 -0.356365 0.5327098 0.07548517 0.91324955 0.4231307 0.8170048 0.42927077 -0.30408454 0.19960286 0.0053526266 0.6048237 0.3762537 -0.2565366 0.34179938 -0.027221527 0.39250076 0.03318513 
com.kingston.im.chat.logic.friend.message.res.ResFriendLogout 0.24176008 0.51809007 0.4271367 -0.13827915 -0.052647 0.68602014 -0.746157 -0.8375201 -0.71980983 0.1099495 -0.25318378 0.46424702 -0.4491239 0.6485345 -0.78320706 0.026265245 -0.1744799 0.13394538 0.6476628 -0.57942796 0.26341724 -0.018225655 -0.74723595 0.8369778 0.5056174 0.3459543 -0.2861055 0.9481756 0.10724531 -0.42853293 -0.9556425 0.3446726 -0.9604288 -0.5329571 -0.023142552 -0.29210526 -0.64698356 -0.44545177 0.19564809 -0.34658787 0.14276093 0.50005823 -0.5661842 0.31087154 -0.46583086 -0.4708232 -0.15087882 -0.016150024 0.56401867 -0.14634801 -0.1846893 0.4654254 -0.8524074 -0.29700145 -0.15426536 0.15285319 -0.115022555 -0.6353755 -0.3323963 -0.96942186 -0.019685466 0.20870267 -0.31060502 0.3973982 -0.27672696 0.39257273 -0.68627805 -0.014781212 -0.74618036 0.106008574 -0.1647241 -0.18942143 0.008421129 0.113881536 -0.08511841 0.108877294 0.4793381 0.46134594 -0.24817267 -0.4863053 -0.36862564 -0.7656028 -0.038400944 0.17847767 0.06708856 -0.9490776 -0.15309359 0.07286374 -0.13493723 0.023268702 0.6493431 -0.34697908 -0.0134912785 0.28361577 0.6082772 -0.3943895 -0.15570816 0.46352583 0.7772376 -0.008015509 1.3353878 0.095546596 -0.1213597 -0.037009973 -0.17221755 -0.3013426 -0.9838369 0.6870026 -0.086946905 -0.07535908 0.1140709 -0.8218049 -0.047068756 0.40926263 0.39262763 0.8610077 0.5958955 -0.078785375 -0.37555927 0.101866774 0.3650286 0.44506618 -0.21698375 -0.25703877 -0.033952318 0.78388774 -0.21824421 -0.27835009 
com.kingston.im.chat.logic.chat.message.req.ReqChatToUser 0.43017045 0.1608537 -0.0466501 0.30824792 0.27138934 -0.21777004 -0.26830417 -0.01608741 0.23294531 0.04196748 -0.20121981 0.32819724 0.5414825 0.39405674 -0.0110481735 -0.015862685 0.34021944 0.28482646 -0.17630103 0.081249095 -0.089023516 -0.2519907 0.5449525 -0.19042781 -0.2747377 -0.5885182 -0.105728075 0.45288104 0.08404334 -0.30946445 0.38635033 0.17346531 0.19823654 0.24273533 0.16134492 0.11765601 -0.20726047 -0.25694016 -0.4231117 -0.70291394 -0.040693384 0.1626264 0.24434868 0.29012263 -0.26699036 -0.6875216 0.51184994 0.09056777 0.37897825 0.2025668 0.2962144 0.18442392 -0.15119715 0.08658125 -0.24416238 0.13235562 -0.23777266 -0.03269881 0.060579903 -0.018582335 0.05991509 -0.47198665 -0.5450913 -0.10330983 -0.23728748 -0.2317492 -0.3625727 0.11473171 0.112922534 -1.047719 0.4957669 -0.16595018 0.3120527 -0.2363278 0.74272597 -0.18425643 0.31648833 0.23906101 -0.022418223 -0.12735458 0.32989877 0.15046352 -0.68728226 0.25357983 -0.30434796 -0.22555223 0.39635336 -0.21010554 0.11253088 -0.019581137 -0.11937434 -0.12844878 -0.16632988 0.76969665 0.33212733 -0.13248566 -0.10133568 0.1438712 0.004456002 -0.61699694 0.12125502 -0.6226401 0.49925995 0.30002153 -0.041423798 -0.055742268 -0.29259557 -0.36271322 0.004529086 -0.20965165 0.10281426 0.037479065 0.35179263 0.20146686 0.43631044 -0.20613192 -0.7465831 0.2145294 -0.29014292 -0.6414325 0.27613884 0.86529094 -0.07525416 0.10352667 0.06376404 -0.080752455 0.6441911 -0.21500827 
com.kingston.im.chat.logic.chat.message.req.ReqChatToUser.execPacket 0.33742517 -0.2945319 0.13654824 0.13940637 -0.34272534 -0.14949104 0.10348144 -0.6489948 0.33147132 -0.72188026 -0.8352138 0.4210949 0.19308887 0.26332873 0.23508473 -0.051852547 0.1743336 0.52441454 -0.03161687 0.13264406 0.28490376 -0.25361678 -0.20110841 1.037343 -0.046337698 -0.15666659 0.06899041 0.6570779 0.037200294 -0.19192994 -0.2686248 0.77540934 -0.19299889 0.1942696 0.926833 -0.34194514 0.6887073 -0.49423373 -0.39585355 -0.12535636 0.27014446 -0.14593534 -0.00628178 0.14223017 -0.33560106 -0.63382155 -0.100183666 -0.14950807 -0.56063455 0.98689973 0.48225567 0.98562974 -0.15338038 -0.035801217 0.28362668 0.18167982 0.21193576 -0.05671042 -0.3128649 -0.78734285 -0.5644078 -0.58584124 -0.84805053 -0.027501252 0.36737376 0.22087923 -0.34588978 0.044810947 -0.42550102 -0.9870667 0.394556 -0.4694534 0.3272491 -0.39868265 1.4921656 0.09662195 0.053961936 0.9693378 0.32501584 -0.097587176 0.6728745 0.39522785 0.6833717 -0.047022793 0.017113667 0.20218864 0.4283471 -0.5676887 0.03748965 -0.28406078 -0.52481073 0.17473419 0.08852464 0.6201456 1.0935662 0.18811817 0.36096898 0.3057119 -0.48073697 -0.52621216 0.042938653 -0.50117475 -0.18045336 -0.108558215 -0.16181648 -0.10150133 0.015575567 0.3884409 -0.5180439 0.2834255 -0.36370602 -0.10916622 0.07333567 0.5487184 0.17552648 0.8851894 0.31427076 0.5395539 -0.18552187 -0.10376403 0.5200869 0.43376788 -0.34726578 -0.28885308 0.87597024 -0.21088107 0.070200846 -0.44512424 
com.kingston.im.chat.base.SpringContext.getChatService 0.22112721 -0.48979273 -0.3681377 0.2675363 -0.081577584 0.4079037 0.114214875 -0.7372795 -0.32109264 -0.42809168 -0.108888626 -0.35994676 -0.3997317 0.3503985 -0.41386336 -0.32934204 0.24663486 0.257022 -0.22080351 -0.38465035 -0.042195223 0.3899441 0.15517253 0.018522177 0.46076882 -0.015929954 0.42868617 0.6186393 -0.02233837 -0.6319333 -0.28202075 0.69121367 0.32154766 -0.5505619 -0.17011236 -0.47267932 0.3462936 0.52659136 -0.20954217 0.07741707 0.35422033 0.07696538 0.14948645 0.35135266 -0.06558236 -0.27479172 0.30718023 -0.20201044 0.21472275 -0.032266956 0.3030976 0.35952127 0.14506873 0.058764923 0.2835346 -0.8691942 -0.1297473 0.43189046 0.19230084 -0.44073117 0.15087868 -0.2905732 -0.41027725 -0.41213003 0.68281054 0.13896272 -0.6263041 0.2813107 0.45174158 -0.118699156 -0.8577492 -0.6049942 0.17401505 -0.066870086 -0.043731257 -0.26761523 0.03476155 0.23720324 0.6683021 0.15996014 0.15915923 0.042311817 0.43265006 -0.042885657 -0.51264596 -0.36634177 0.6482394 0.037339415 -0.03706644 -0.0027273775 0.18875252 -0.41561317 0.18180527 1.005169 0.450196 -0.3109944 0.20908643 0.36925092 -0.45754752 0.4003596 0.14101234 0.07296162 0.016684378 0.3792776 -0.0067472784 -0.44968984 -0.48086905 -0.35547706 0.70470977 0.19422697 0.3690604 0.013654036 -0.29035243 0.83690286 0.35439354 -0.12725927 0.32073152 0.115068704 -0.19028303 -0.40745977 0.3015119 0.32300535 -0.021079091 0.62395656 0.7821549 -0.3005959 1.2240695 0.3874375 
com.kingston.im.chat.base.SpringContext 0.3405399 0.4483708 0.120627254 -0.62067026 -0.31763324 -0.0010276419 -0.16469474 -0.75592107 -0.04188884 -0.40632594 0.16595544 0.23618966 -0.354543 0.66085076 -0.13398653 0.07178863 0.3532427 -0.09196839 0.27191976 0.16027124 -0.24495783 -0.2739607 -0.3570398 0.049452066 0.49670234 0.30902392 -0.29486704 0.26205266 -0.27279168 0.1018932 -0.23712648 0.116184704 -0.15057407 -0.32550386 0.0015866503 -0.275516 0.3616213 -0.25731567 -0.1946323 -0.60178596 0.27675664 -0.4501044 -0.47191817 0.45047852 -0.44322002 0.19642946 -0.08012017 -0.015739113 0.42523047 0.0070627066 0.30684477 0.43386912 -0.44716033 -0.28992772 0.19425824 -0.12229461 -0.063421994 -0.090166606 0.5248523 -0.5887936 -0.20196544 -0.0050880234 0.21196967 -0.36223865 0.29721308 0.24056631 0.3151308 0.36491367 0.39286375 0.14696416 -0.5940087 0.0038438688 -0.04253919 0.08438749 0.27537477 -0.14927137 -0.06806808 0.34689432 0.45333308 0.22966094 -0.050000947 0.18700123 0.53004867 -0.016345322 -0.4187004 -0.32725665 0.29706478 -0.009690345 0.07956974 0.10910796 0.102302834 -0.27280518 0.4343453 0.5305425 1.0633444 -0.57850945 0.06220077 -0.20487885 -0.7769484 -0.06049055 0.42555887 0.13411413 -0.29848143 0.50046635 -0.111285284 0.43842745 -0.92284995 -0.6238592 0.43504605 0.044513088 -0.15033627 -0.11023947 -0.3090029 0.27557084 0.08085326 -0.20208868 -0.2405114 0.31335863 -0.9136103 0.38338804 0.18688522 0.101591595 0.34259346 0.120048575 0.32140353 -0.12288696 0.66018146 0.50597024 
com.kingston.im.chat.logic.chat.message.req.ReqChatToGroup.execPacket 0.25033936 0.21150099 0.38210195 0.19182591 -0.19762231 0.27946097 0.0759412 -0.5143875 0.38775066 -0.5750205 -0.55456746 0.5970028 0.32450324 0.53985053 0.048047435 -0.61742663 0.36892372 0.77624017 -0.5976048 -0.57414347 0.2359152 -0.22041892 0.25726065 1.3796204 0.35035896 -0.40236333 0.2634346 0.47047007 -0.70574033 -0.40190738 0.0925202 0.43141252 0.4015504 0.01209682 0.52503145 -0.4535329 0.674683 -0.42707992 -0.4574855 0.13107137 0.019560145 -0.05196559 -0.2553955 0.0065058284 -0.22374776 -0.8049785 -0.20402698 -0.20792139 -0.5436822 0.27444124 0.5015428 0.57680017 -0.06916479 0.40812156 0.65700054 0.23852468 0.47660002 0.045214478 -0.5004159 -0.5368637 -0.10063768 -0.5166254 -0.43818316 0.043066893 0.87427443 0.071295634 -0.40923306 -0.15883502 -0.26638094 -0.76941663 -0.2203821 -0.50497323 0.34667304 -0.10498849 0.9751486 -0.29685968 -0.019683436 0.62117165 0.42014137 -0.6983793 0.24154396 0.3900124 0.7936413 -0.3639778 -0.33091265 0.5267895 0.7454279 -0.40175042 -0.012455445 0.07703719 -0.41149154 0.07852041 0.22733943 0.20696957 1.0281703 0.08694361 0.42876333 0.2842014 -0.6484509 -0.2949613 0.27963543 -0.577018 -0.0238413 -0.45642695 -0.14274862 0.5457989 -0.48391625 0.27011716 -0.6703133 0.32964435 -0.6951208 -0.6455067 0.057269968 0.3606073 0.12527238 0.7396056 0.0031417198 0.28923744 0.4617922 -0.26608324 -0.22082861 1.0579084 0.20869088 -0.38361353 0.8565597 0.015981602 0.14816093 -0.10914519 
com.kingston.im.chat.net.codec.PacketDecoder -0.2639272 -0.05334366 -0.100505956 -0.02598336 -0.16949484 -0.5822995 -0.8123992 -0.3776093 0.1110874 0.23898368 0.34162343 0.13708328 0.4744833 -0.11859571 -0.31514335 0.36188594 -0.098941505 0.22524467 -0.23616609 0.6168721 0.06973339 0.39190105 -0.1755426 0.08159065 -0.2808476 0.10262978 -0.12395172 0.4732699 0.11340033 0.020029424 0.03459383 0.07027212 -0.07992676 -0.34927908 0.039351102 -0.5691584 -0.69130516 -0.25117257 -0.45933336 -0.2752761 0.81486785 -0.024339195 0.03614591 -0.115703836 0.050709944 -0.29591888 0.14310934 -0.050908964 0.14200482 -0.49609056 0.1901037 -0.03507867 -0.795455 0.31209967 0.1966082 0.28857327 -0.10733486 0.35174438 -0.08164442 0.17508441 0.032468334 -0.23351575 0.14125499 0.07613792 0.06556086 -0.16492908 -0.41213584 -0.050229307 -0.43610823 0.09808646 -0.029358732 -0.31979913 -0.18111168 0.57824945 0.13684471 -0.06531792 0.06634318 0.7176707 -0.08390619 0.4754921 0.086690255 -0.016742455 -0.019744234 0.15099572 0.09565566 -0.2598662 0.20530905 -0.33507574 -0.51203066 0.13146359 0.06592213 0.06968346 0.4409198 0.43854785 0.21787095 0.021146292 0.05805806 0.046129003 -0.4644044 -0.1410525 0.610354 -0.6176937 -0.19238286 -0.4843297 -0.49587202 -0.34204486 -0.12078063 0.07187883 -0.15810902 0.029790556 0.24906935 -0.34626663 0.2496138 0.25960112 0.30762482 -0.2608756 -0.034245193 0.91367394 0.3777246 0.1718824 0.6404784 0.34583035 -0.21977027 0.19861358 -0.50128925 0.021422317 0.08802781 -0.034570992 
com.kingston.im.chat.net.codec.PacketDecoder.decode 0.3265494 0.19799487 0.048932143 0.37689194 -0.86702466 -0.41698527 -0.22896962 -0.2637075 0.39287576 0.36446637 0.15105279 0.85152376 -0.13761605 0.52114683 0.11503366 -0.7556958 0.49778056 -0.28592035 -0.4039637 1.141134 0.54771805 -0.6756349 -0.17900908 -0.15546069 -0.54292876 -0.2618492 0.036159787 0.13083003 0.07739732 -0.4945315 0.4837882 0.5350748 -0.7304883 -0.48701748 -0.5209446 -0.4290323 0.0663794 0.29821804 -0.06487108 -0.0855804 0.6608055 -0.28887886 -0.030370273 -0.19264391 -0.027783142 -0.46032876 0.14088069 -0.15249366 0.36727124 -0.9538567 1.1440794 -0.17180444 -0.1888477 -0.6417172 0.5577107 0.16511267 -0.70193505 0.4105389 -0.9227505 -0.34433547 0.15053573 -0.17907545 -0.5415036 -0.029658297 0.8228531 -0.49927822 0.009063993 -1.064294 0.15948178 0.35445392 -0.27622628 -0.034727164 -0.16884224 0.5655285 1.0884006 -0.080379605 0.18172091 0.90692794 0.22653839 0.574682 0.60781884 0.4097783 0.3372906 0.44859913 -0.6855461 0.21202487 0.3691543 0.0242516 -0.8233204 -0.06390307 0.037556954 -0.12905796 0.37499958 0.16232714 0.60883814 -0.28277457 0.101858966 -0.071084075 -0.5120572 -1.2605641 0.6108032 -0.6571472 -0.44860482 -0.19180368 0.1893058 -1.3080202 -0.071081154 0.28383246 -0.65345997 -1.0669513 -0.5876146 -0.8065196 -0.16177456 0.3335701 0.1640796 -0.6930844 -0.044661537 0.91798115 0.2519135 -0.48031482 0.48231754 0.2207186 -0.08407982 0.6662231 -0.67841595 -1.2697695 0.25036776 0.96001726 
com.kingston.im.chat.net.message.ByteBufBean.readBody 0.7111704 0.20228982 0.34239966 0.08132061 -0.1785805 0.25039724 -0.51831526 -0.5983647 -0.22230224 0.35612905 0.8141523 0.23025936 -0.22664507 0.25057414 -0.3103057 0.38375738 -0.47182316 0.22744714 0.8283741 0.12151171 0.7177912 0.18371403 0.3988796 0.25704953 0.5667853 -0.4923295 -0.41575634 0.023503672 -0.15033028 -0.86930656 0.19581123 -0.38634992 -0.03429932 -0.62540144 -0.124610454 -0.8984437 -0.37101376 -0.07902597 0.042406462 -0.01957016 0.41182554 -0.65624017 0.51432973 -0.3850795 0.21618262 -0.13257004 0.09018976 0.5274485 0.6437628 -0.2307679 0.7967757 -0.14891519 -0.69057554 -0.6013762 0.117002085 0.53354967 0.35444698 -0.23511566 0.16696288 -0.15038437 0.0756232 -0.24838325 -0.37233657 0.9554309 0.28018042 -0.31937495 -0.6533967 0.13911805 -1.1129456 -0.13104878 -0.81138784 -0.72454095 0.18138656 0.5410563 -0.20617077 -0.3045328 0.47734502 0.7830716 -0.073187724 0.39671883 0.0054423413 -0.5050872 0.30376512 0.09225681 -0.16402222 -0.26576522 0.27455133 -0.22435887 -0.424125 0.2419459 -0.17773224 -0.2333792 -0.05678513 0.2540705 0.42228782 0.2646364 0.15697165 0.43240875 -0.40303987 -0.20845802 0.6493287 0.2304836 0.00032920134 0.49586952 -0.278793 -0.0039273594 -0.31887117 0.2706259 -0.43438542 -0.7221756 0.07881174 -0.4747553 -0.2665713 0.3936305 0.45105 0.47411057 0.5374751 0.8536392 0.61235416 -0.08784737 0.5063973 0.078714706 0.010266038 0.42179435 -0.43054926 -0.35734278 -0.046048027 0.30345297 
com.kingston.im.chat.logic.user.message.res.ResUserRegister 0.26552263 0.3286219 0.023429284 0.43867078 0.10784403 -0.16993098 -0.32109937 -0.01526346 -0.61590177 -0.5028699 -0.1364548 0.7416011 -0.020686975 0.14489858 -0.6809627 -0.50418836 0.4350216 0.4739012 0.13578391 0.103139676 0.761389 0.113735825 -0.25244573 0.4398261 0.109167255 -0.36755958 0.09412649 0.78843987 -0.16053277 -0.5895238 -0.27945462 0.83315325 0.2217428 -0.5839428 -0.22051302 -0.4786753 -0.022416446 -0.44338223 -0.30215326 -0.048280332 -0.083902635 -0.22970401 0.0694424 0.054657485 -0.036642883 0.043375622 -0.26048744 0.081779666 -0.6325784 -0.4958202 -0.094500534 -0.38107246 -0.42004934 -0.55920726 -0.2846523 -0.13364594 0.08061961 0.061115734 0.45757565 -0.44944882 0.08698599 0.27235714 -0.3905993 -0.66106963 0.07749618 -0.41328698 -0.38213918 -0.5441088 -0.4591368 -0.61226106 -0.2648017 0.08936782 -0.049413618 0.118466616 0.38376564 -0.7623176 -0.08135446 0.3606405 0.13576744 0.15891469 -0.32874554 -0.14670686 0.22396462 -0.21052615 0.46090502 -0.2751952 0.18053535 -0.41747865 -0.23063159 0.32261145 -0.633483 0.22976133 -0.124818124 0.9100072 0.3051681 0.55745286 0.17262653 0.29559985 -0.029097017 -0.19081552 0.10556322 -0.7056684 -0.40800643 0.14330065 0.05247263 0.31242344 0.07465619 -0.13124374 -0.20638077 0.055815313 -0.05564489 -0.47329053 -0.009493236 0.9276557 -0.040612992 0.06606972 0.16175781 -0.50304884 0.6827598 -0.45148265 0.34950998 0.35157079 0.2484268 0.47724438 0.74764127 -0.09398861 -0.93869174 -0.16583282 
com.kingston.im.chat.http.HttpServer.init 0.15698983 0.5052933 -0.08341613 -0.6474178 0.55258346 0.53713703 0.098710254 -1.1866102 -0.39994806 -1.2179253 0.19608997 0.017629359 0.8043864 -0.036646456 0.1685161 0.117005795 0.024494972 0.7206092 0.4718189 -0.07545975 0.32498083 -0.03376543 -0.2878801 1.3590231 0.22271219 -0.10555584 0.85221726 0.25908664 -0.36087328 0.31469646 -0.6140736 0.48665997 -0.045534555 -0.9876889 -0.3450831 -0.35637277 0.7986871 0.18920463 -0.7545084 -0.23582025 -0.051221527 0.07169606 -1.0634958 1.0331658 0.12649181 -0.3428801 0.098545246 0.59521383 0.23133004 0.38773587 -0.5512763 -0.10580636 0.5365907 0.35192567 -0.41446167 -0.75923026 0.6962478 -0.45220146 0.08876294 -0.053848516 0.70815045 -0.7669192 0.51369506 0.30509147 0.14234038 -0.28647226 -0.69050884 0.49261463 0.118931554 0.06700749 0.92846215 -0.41356578 -0.06545146 -0.87688315 0.7534321 -0.7347894 -0.30815855 0.4104807 0.3581253 -0.24702719 0.08582416 -0.30989534 0.7556766 -0.35063705 -0.8190863 -0.4440484 0.8814469 0.42272905 0.4596479 0.029412428 0.38558 -0.16205576 0.30139965 0.88923866 0.28428623 -0.068970196 0.5787218 0.22086251 0.16900901 0.5458071 0.14881924 -0.046883684 0.116696015 -0.4563297 -0.4483513 0.22448197 -0.32783064 -0.29876742 0.37361723 0.19681056 0.12744951 -0.62561566 -0.33654383 0.03219572 1.2218612 0.41816095 0.86985433 0.21684311 -0.057281964 -0.7075925 0.48825723 0.5394138 0.24009548 -0.40687597 0.55307645 -0.4116307 0.47658747 0.3108706 
com.kingston.im.chat.ServerConfigs.getHttpPort 0.46315372 -0.14837015 0.07225118 -0.10631852 0.34611169 0.8630812 -0.531576 -0.73329127 -0.08050489 -1.1336427 -0.4536806 0.043464433 0.79691774 0.9713014 -0.5231687 0.14568113 -0.2396216 0.34058288 0.426294 -0.043817654 0.51782 -1.3319317 0.051912174 0.78723043 0.22475787 0.21762896 0.18764669 -0.29590726 -0.33275715 -0.038616255 -0.542699 -0.022841366 -0.5590102 -0.5697492 0.00356807 -0.55314785 0.733914 0.25382525 -0.14793833 -1.3392459 0.2046955 0.11525153 -1.3627756 0.8881925 0.31206912 0.06581366 -0.76937574 -0.292063 -0.05633064 -0.28464618 -0.23191336 0.19773626 0.84500206 0.2878877 0.38765225 -0.94197005 0.54110116 -0.58550024 0.3168033 0.1669531 0.40317327 -0.19827865 0.6429074 -0.2842662 0.16069399 0.036358364 -1.0455939 -0.116582215 -0.053644396 -0.30901188 0.94982225 -0.23792976 -0.54707474 -1.0905045 0.17936249 -0.8781719 -0.5434102 0.3726863 -0.43024743 0.33648494 -0.35647193 0.143968 0.9119362 0.17411411 -0.38104796 -0.038270984 0.43485245 0.47860017 0.22110352 -0.32226405 0.20541263 0.12359406 -0.18328694 0.25639153 -0.22386831 -0.30755636 0.36706012 0.13775747 -0.2970928 -0.6606398 0.46838897 0.40522528 -0.17962575 0.5448668 0.2990452 0.39514107 -0.5388441 -0.5945006 0.16560495 1.0148969 -0.09511873 0.15305884 0.10325161 0.885733 -0.13763903 0.44474715 0.85594624 0.07596952 -0.8962229 0.015224334 0.109319404 0.15309766 -0.13346256 -0.73453826 0.2859152 -0.060537267 -0.107520275 0.5782722 
ThreadFactory 1.4193593 -0.3448141 0.3108531 0.58166724 -0.8339164 0.6182801 -0.2146531 -1.4397169 0.6647467 -0.80135673 0.43875092 0.558779 -1.2886987 1.0235306 -0.41852865 -0.17739327 0.7660944 -0.19395465 0.003871115 -0.45146385 0.26009807 -1.1761243 0.82523596 -0.5345109 0.6381528 0.3233065 -0.96858424 -0.76774985 0.5420243 -1.2542579 0.89753604 0.95612717 0.23387426 -0.978746 -0.17939527 -0.28234777 -0.047355935 0.4375064 0.54099214 0.06234544 0.5329816 0.21483746 -0.9536117 0.03836703 0.6832247 -0.041055188 0.6194735 0.17420927 0.20976396 -1.0398841 1.3977712 -0.12378778 0.30600175 -0.30461293 0.39330164 -0.19742112 -0.66313463 -0.08099368 0.60465693 -1.3621368 0.48759767 -0.1804544 -0.8085434 0.03671196 0.1912701 -0.1011851 0.03620484 -1.1031009 0.32120076 0.23938063 0.23787458 0.4808539 -0.4471262 -1.2727183 0.01238237 -0.9424857 0.621976 0.86901087 -0.72723484 0.92236 -0.2219416 0.47614846 0.91701925 0.6310266 -1.2077074 0.29851297 -0.50111616 0.22523943 -1.0326169 -0.7421106 0.49540812 -0.1487745 0.59681314 0.2753442 0.49108267 -0.19617838 -0.38638872 -0.55546194 -0.3014371 -0.9195495 0.30772805 -0.72109884 -0.9562873 0.16896755 0.20812331 -0.026470015 0.18583015 -0.016382193 -0.021092987 -0.3743629 -1.0496955 -0.21811415 -0.5353787 0.2079002 -0.083390534 -1.0216616 0.47363937 0.67577934 1.1931803 -1.6369495 -0.17950001 -0.35275298 -0.16851959 -0.12243607 -0.088590704 -1.2926407 -0.34700206 1.3136295 
com.kingston.im.common.thread.NamedThreadFactory 1.1495209 -0.025474414 -0.25205386 1.2296225 -0.31962252 0.50229067 -0.29210442 -1.544046 0.29174405 0.48852837 -0.16169816 -0.3094971 -0.87614733 0.5947813 -0.13746835 0.30218828 0.20393115 -0.1710134 -0.15263405 0.12576354 0.13231382 -1.1460629 0.37022173 0.06940871 -0.150329 0.84859216 -0.5641843 -0.8082024 0.70725155 0.05407461 0.06254886 0.114889435 -0.25135198 -0.897945 -0.31579396 0.039773576 -0.21155502 0.68702763 1.0544113 -0.3536711 0.90266395 0.9939355 -0.39575043 -0.5925897 0.71710587 -0.96528196 0.80559736 0.1171423 0.34552577 -0.8409698 1.0248655 -0.64110714 0.42154276 -0.10441736 0.7177615 0.1714203 0.22275832 -0.07190549 0.42692366 -1.0765083 0.6013101 0.35894823 -0.23109232 0.38990653 0.17113918 0.42862585 -0.20551462 -0.5641985 -0.2676378 -0.13631037 -0.45780486 0.93364275 -1.2556407 -0.57302076 0.5725423 0.1768889 -0.17078368 1.3402478 0.16220346 1.8324336 -0.32987082 0.47271323 1.055652 0.39792672 -1.4156262 0.91222465 0.7857501 -0.4877043 -0.673491 -0.64688975 0.43866202 0.10483307 -0.029458046 -0.2100856 0.11069583 0.06477734 0.12764472 -0.7070911 -0.34343266 -1.8451756 0.45484856 -0.52078015 -0.09469922 -0.035858322 0.20881379 -0.6630175 -0.40466654 0.43994972 -0.33257172 -0.4137511 -0.8722797 -0.60165966 -0.5679123 0.56687725 0.75216985 -0.32073328 -0.1458241 1.0058966 1.0211015 -1.3928173 1.1355331 -0.866488 -0.31782195 -0.47865582 0.28319034 -0.82756513 0.0694011 0.34883857 
com.kingston.im.chat.http.HttpServerHandler 0.6536724 -0.42270955 -0.07918094 -0.40548345 0.34644982 0.22309574 -0.22293644 -0.7639477 -0.6387092 -0.35202077 0.2751551 -0.3901267 -0.21855073 -0.10982891 -0.4403882 0.38247907 -0.53173494 0.2287499 0.4593615 0.029689066 0.12079895 0.13640404 0.119178556 1.0094016 -0.17514867 -0.41977575 -0.06992832 -0.08991085 -0.3103768 0.010128251 -0.3089547 -0.002682501 -0.34651425 0.03217579 -0.61066216 0.3126225 0.52380407 0.39220092 0.006900799 -0.3420828 -0.013147579 0.05242812 -0.9051473 0.14321847 0.6007559 -0.1046598 0.42028272 0.615915 0.17224874 -0.047381975 -0.0711939 0.48507744 0.66735077 0.98557097 -0.014912432 -0.39261225 0.14251155 -0.7722725 0.07981773 0.122837774 -0.06312697 -0.5620773 -0.18679208 0.103947416 0.33138347 0.29694033 -0.42788807 -0.045942824 -0.5750574 -0.88524735 0.25869676 0.6561544 -0.9381504 -0.067597926 0.1968312 -0.49707195 0.08734846 0.741514 -0.08874364 0.5685512 -0.2033234 -0.10714951 0.33521783 0.37399477 -0.3381631 -0.48072952 0.6113076 0.99237597 0.16675793 0.20159128 -0.04535166 -0.20724712 -0.009635308 -0.18530443 0.26934293 -0.38806054 0.45916015 0.20825157 0.7317546 -0.20385984 -0.35366926 0.19675238 0.828694 -0.14753966 -0.7296817 -0.28056434 -0.016912904 -0.28176335 0.28304508 -0.53251433 0.24922861 0.46367338 -0.84028435 -0.1420275 0.41244075 0.20200917 0.2348554 -0.2847252 -0.22386497 -0.7818242 0.2618533 0.22533464 -0.19365774 -0.3985089 0.63787764 -0.34608877 -0.36268085 -0.34386247 
com.kingston.im.chat.http.HttpServerHandler.channelRead 0.47948334 -0.11543194 0.42593786 -0.540767 -0.059657928 0.7958153 -0.46206424 -0.7036147 -0.6239363 0.21671347 0.0016067796 0.019835962 0.021847451 0.28219974 -0.68264097 -0.04846909 -0.42451203 -0.018481493 0.31428242 -0.07547091 0.29621848 -0.16916183 0.22421402 1.2089558 0.30200663 -0.075754546 -0.5137219 -0.21009126 -0.108437136 -0.18802166 -0.3631565 -0.1426563 -0.6362625 0.2488425 -0.2585682 0.08287831 0.050990872 0.7788752 0.5385983 -0.7983774 -0.022888234 0.017849762 -1.0304836 0.71138394 0.36611947 -0.2081568 -0.085704714 0.44610983 -0.17911905 -0.51197517 0.08915087 -0.015184015 0.5444681 0.65119886 0.27714464 -0.2640771 0.1680598 -0.6638401 0.33303523 -0.44492188 0.20475362 -0.33927158 0.4128718 -0.0018366409 -0.24738257 0.44755325 -0.8882996 -0.47505054 -0.6085244 -0.33075705 0.3103661 0.36271384 -0.9234165 -0.3287309 0.53449166 -1.1332738 -0.3671255 0.30698135 -0.21031259 0.34511593 -0.5266926 -0.4153334 0.64282155 0.4857024 0.13032635 -0.6097927 0.006576208 0.1995415 0.443236 -0.09294414 0.07867237 -0.06620363 -0.03191475 -0.41724947 -0.47573334 -0.8268885 0.43873882 -0.12677892 0.97363967 -0.34667346 0.2961304 -0.02056532 0.77389085 0.01534662 -0.06879881 0.21242155 -0.85703105 0.2010435 -0.16709906 0.047939125 0.30826116 0.47718525 -0.72641855 0.33793274 0.06690634 -0.0055990582 0.9369153 0.08509508 -0.58437186 -0.3532302 0.39180297 -0.039489906 -0.30475244 -1.0314639 0.3566937 -0.170916 -0.75432336 -0.2491096 
com.kingston.im.chat.http.HttpResult.valueOf 0.4801912 -0.0019649123 -0.312666 -0.2602907 -0.0046648416 0.92946744 -0.1838339 -0.45592737 -1.0518048 -0.03650241 -0.092587955 -0.022815665 -0.22693533 0.006237064 -0.7070632 -0.24524295 -0.41328746 0.41550222 0.46089348 0.8126293 0.59120613 0.27239978 0.36644962 1.0588737 0.39159387 -0.28225744 0.21973743 0.26837724 -0.5655235 0.3479824 -0.21191978 -0.048497718 0.2278626 -0.48230588 -0.6309267 0.17909084 0.30232742 1.1008612 -0.62853914 -0.4371924 -0.4814161 0.10163287 -1.0021492 -0.18794748 0.35458386 -0.33837175 0.45060483 0.60644794 -0.45741743 -0.76670194 -0.2703243 0.45788473 0.8097343 0.58329356 -0.25988844 -0.04404349 0.016875818 -0.53229904 0.16477703 0.1466095 0.54289466 -0.06655257 0.16653071 -0.12883161 0.16818169 0.282706 -0.7375835 0.17483701 0.2512356 -0.48231453 0.11377058 0.010860743 -0.96886855 -0.31902358 0.71099025 -0.6919751 -0.24869587 0.787454 -0.32946032 1.0100299 0.15240815 0.21740313 1.0032587 0.42022267 -0.053769656 -0.54324543 0.38594392 0.10558825 0.08933131 0.15155149 -0.0075071645 0.32371497 -0.3218234 0.7242999 -0.08026004 -0.08429115 1.0501579 0.05485381 0.7501182 -0.7849194 -0.4903952 -0.21280304 0.7379579 0.213978 -0.6181967 -0.08508862 0.01238314 -0.3219823 -0.39379987 -0.25495273 1.1296182 0.33619064 -0.5465522 0.2009717 0.031786796 -0.39597702 0.44701102 -0.01866963 0.08048509 -0.018134532 0.1030569 0.32840878 -0.8310932 -0.87664104 1.2389356 -1.0570673 -0.23690614 -0.7938704 
com.kingston.im.chat.http.HttpResult 0.46525192 -0.19334951 0.0921549 -0.4797826 0.20240791 0.7517411 -0.335851 -0.8205156 -0.9332009 0.25465667 -0.015025995 0.2452686 0.010134495 0.14094228 -0.5585733 0.04388655 -0.15537864 -0.06884218 0.42830783 -0.08232229 0.44634482 -0.14198463 0.43452135 0.964807 0.41443965 0.023441209 -0.73985386 -0.32566106 -0.27696753 -0.12689531 -0.39195612 -0.32216826 -0.4172677 0.049303453 -0.20431325 0.11104697 -0.10335164 0.852993 0.2870819 -0.9391677 -0.4361446 -0.13746779 -1.1160011 1.0782163 0.31308407 -0.047378916 -0.10664086 0.68654156 -0.4700733 -0.63182145 0.17550246 -0.14608057 1.0437044 0.53325695 0.7835283 0.003314449 0.21898222 -0.657676 0.46726188 -0.4332599 0.48046458 -0.31740707 0.2752727 -0.0833053 -0.038692966 0.43875274 -1.1251031 -0.45740274 -0.48403105 -0.442627 0.24983393 0.54333574 -1.1965811 -0.6384064 0.6209774 -1.1009824 -0.27775493 0.5000468 -0.44122484 0.52031904 -0.51947546 -0.15465674 0.8143017 0.46454877 0.113957115 -0.57454526 0.27786833 0.21429624 0.49240398 -0.106887065 0.13174115 0.24313378 -0.24433234 -0.057973888 -0.5548359 -0.75680834 0.28563353 -0.37476507 0.6279748 -0.30470893 0.23448938 0.27660567 0.6293181 0.65005547 -0.0045933058 0.32221156 -1.0474923 0.119314 -0.14231203 0.39302143 -0.06584946 0.35480863 -0.91324204 0.43400878 -0.017489133 -0.34035367 0.8177869 -0.02275349 -0.7213773 -0.13261977 0.025587251 0.16758336 -0.033781495 -1.0393589 0.66890836 -0.781389 -0.6307562 -0.34898368 
com.kingston.im.chat.net.IoHandler 0.15731686 -0.1917768 0.44923794 -0.6109485 -0.3021249 0.16598634 -0.4130291 -0.03928337 -0.6748129 0.12654322 -0.35066184 -0.053717785 0.056159955 -0.51177585 -0.2777613 0.2695874 -0.4244749 0.022344405 0.088821106 0.69401735 -0.1523476 -0.44146225 -0.18301697 0.17978902 0.12001256 0.2111916 0.008498067 0.056510665 0.20395574 -0.35259393 -0.7947938 -0.586082 0.16250278 -0.124969415 -0.5566226 0.08700034 0.29088336 0.03251108 0.4473523 0.08704156 0.36949962 0.031082468 0.22964905 -0.55464864 -0.119139574 -0.2511903 0.2361164 0.6722182 -0.040778346 0.44938564 0.039875865 0.764161 0.08131862 -0.32539794 0.46614257 -0.82031596 0.2075063 -0.5107899 -0.16023156 -0.5525335 -0.18219656 -0.09701555 0.023825906 -0.039689094 -0.20886637 -0.39688334 -0.18115461 0.2296978 -0.20060845 -0.6392366 -0.07405357 0.63099086 -0.44776583 -0.16194877 0.37700984 -0.2453027 0.10008837 0.28418717 0.19512405 0.5325688 0.024289474 0.2210166 0.05942878 -0.04828096 -0.054882538 0.14398395 0.49015424 0.42440942 -0.10582413 -0.21692367 0.33515054 -0.15224443 0.06394855 0.14775725 0.18242246 -0.08701677 0.66621786 0.18915191 -0.038002096 -0.3813673 -0.2191352 0.045385554 0.025652504 -0.6250132 -0.0699958 -0.061903175 -0.725409 0.30849573 -0.16385157 -0.57277125 -0.2004241 0.49912167 0.3578621 0.47289285 0.37916997 0.45965108 0.14023837 0.26086348 -0.47898552 -0.015677331 0.21469417 0.5732167 0.04402092 -0.34129316 0.53283966 -0.4612165 -0.23889689 -0.53354037 
com.kingston.im.chat.net.IoHandler.userEventTriggered 0.42663366 -0.5324491 0.75183725 -0.18590844 0.12831374 0.559105 -0.49065545 -0.76507914 -0.74840176 -0.5107656 0.026350059 -0.17781301 -0.32307535 -0.22329658 -0.7688852 0.5848937 0.0072078677 -0.36638495 -0.13323297 0.000953734 0.1793931 -0.12310764 0.19557783 0.07774087 -0.064176805 0.6431312 -0.14689113 0.41035223 0.13925503 0.31963232 0.013763325 0.066993535 -0.33302498 -0.100425355 -0.8516098 0.31504348 0.10704909 0.094973914 -0.3057637 -0.40908024 -0.18071198 0.21906729 -1.1652154 0.5513462 0.37595856 -0.1932001 0.41154552 0.05859352 -0.6304258 -0.24662471 -0.93500173 0.100521766 0.09299277 0.39046612 -0.22594687 -0.32839772 -0.28706586 -0.38677216 -0.032848634 -0.5854835 0.26585513 0.077332474 0.005602766 -0.4308016 0.3579876 0.36364883 -0.46247265 -0.66017413 0.2884718 -0.5546829 0.6646655 0.74683964 -0.042318095 -0.39915308 -0.23219861 -0.19192362 -0.21141995 0.5032216 -0.28339797 0.3747556 -0.034601986 0.5775127 0.2845108 -0.29521918 -0.14001273 0.17885022 -0.2896245 0.058025517 0.35949504 -0.13146897 0.71546674 0.09164824 0.45091385 0.23043391 0.41905066 -0.94942886 -0.11929809 -0.065998524 0.33501592 -0.90943927 0.4940687 -0.23535807 -0.56108654 -0.4391095 -0.59357095 0.04972615 0.0012398196 -0.22613023 0.108162425 0.45211712 -0.4632556 -0.2019312 0.42381445 -0.078108236 0.011351765 0.48402858 -0.29075858 -0.010306287 -0.43343353 -0.34933665 -0.053450007 0.92293346 -0.07802633 -0.8686907 0.658191 0.3615323 -0.0024308339 -0.3686688 
com.kingston.im.testdao.TestUserDao -0.20309412 -0.18083762 0.26311457 0.4585834 -0.2875119 0.30226806 -0.34241918 -0.029083733 -0.62563735 -0.85926884 -0.059084687 0.13924862 -0.05695118 -0.024495464 -0.28373903 -0.21391945 -0.09892742 0.44346854 0.5015553 -0.19052248 0.19292018 -0.5090494 0.5198856 0.31904066 0.77969843 -0.20742473 -0.4156346 0.0006604719 -0.12808913 0.03887983 0.22545224 0.13514133 0.1298136 -0.059378892 0.26290184 0.13824575 -0.11772765 0.11287676 -0.061588503 -0.03960716 -0.61932904 0.34424588 -0.70309454 -0.2575919 0.4788472 -0.86554873 0.5538419 0.17798924 0.038367137 -0.56656086 -0.07221871 0.32544234 0.2704724 0.3725751 0.30824965 -0.40424553 -0.37479824 -0.7151772 -0.6275162 0.15967332 0.05682307 -0.5631949 0.19570379 0.59230095 0.17409523 -0.26755172 -0.008388171 -0.3180422 0.20256509 0.01811242 0.7619918 0.16843426 -0.079600036 -0.15291291 0.87229586 -0.81128776 -0.32015574 -0.096116774 -0.4802264 -0.5713339 0.08368297 0.023309685 0.64055866 -0.3113442 0.19657841 -0.5924603 -0.105292715 0.29738888 0.042184275 0.024581881 0.2926183 0.040783223 0.6415201 0.07546143 0.051887263 0.010023965 0.11963542 -0.6231253 -0.04065136 -0.43232718 -0.06402398 0.06212335 0.5626391 0.03330537 -0.17144725 0.12671626 -0.07423334 0.49791306 -0.2615094 -0.16272661 0.29697078 0.77142256 -0.27448514 0.4411803 0.25035197 -0.28067136 0.7593406 -0.05897757 0.057610594 -0.15661594 0.13439265 0.39014718 -0.26637897 -0.5376792 0.0801036 -0.60120845 -0.14816044 -0.08231476 
com.kingston.im.chat.data.dao.UserDao 0.41818798 0.0843188 0.5801972 -0.0024809642 -0.020578736 0.48800585 -0.25764978 -0.08611776 -0.39878225 -0.47184205 0.284605 0.6584484 0.44468588 0.57846266 -0.44881526 -0.42044482 -0.49885333 -0.16333942 0.84983885 -0.3666404 0.23134625 -0.36374936 0.52465504 -0.049146026 1.0085381 0.18223147 -0.941504 -0.5503127 0.13595256 -0.06676941 0.41728908 0.2878064 -0.4055863 -0.79112864 0.29264966 -0.623166 -0.13594496 0.7676339 0.12382717 -1.0918354 -0.120945305 0.15157633 -1.0513781 0.41103324 0.92605925 -0.7242423 0.696383 0.042675857 -0.27141398 -1.3148682 0.05416069 -0.50853217 0.34205738 -0.28486884 0.25942397 -0.12948799 0.54874533 -0.3481174 0.46940243 -0.5137296 1.4233264 -0.7429762 0.23479842 0.4953954 0.19756827 -0.3123612 -0.15449776 -0.43587154 0.6653303 0.19964707 0.9945255 -0.16004586 -0.487055 -0.8502446 0.7678085 -1.1383514 -0.8275783 0.3734752 -0.5917617 -0.18621616 -0.4876473 0.25054234 1.0405712 -0.28253636 0.07669788 -0.028538816 -0.5922278 0.015845409 0.12877631 0.20593236 0.17729773 0.01960591 0.8522965 0.116671264 -0.31943622 -0.51820827 0.14242245 -0.71959776 0.19075662 -0.7900817 0.61802435 -0.5064608 -0.00285288 0.33244854 -0.040953808 0.52351385 -0.59901565 0.71986485 -0.05531468 0.15832284 0.22431283 0.48283955 -0.45824492 0.42758676 0.27795127 -0.08831999 1.2733934 1.0600508 0.037307005 -0.57579 0.47344226 -0.6163838 -0.21166731 -0.9776578 -0.29358044 -0.44320485 -0.22698818 0.6150361 
com.kingston.im.chat.net.codec.PacketEncoder -0.2775275 -0.3702698 0.4517502 0.4215159 0.46349806 0.16719955 -0.5245714 -0.44653955 0.2847037 -0.24940938 0.19409621 -0.1703326 0.06977551 0.28243124 -0.53453445 -0.04907434 -0.08068619 0.4926804 0.36848605 0.375019 0.34959283 0.01487968 -0.009789286 0.32334343 -0.3911654 0.04380651 0.08028598 0.37671614 0.2651534 -0.48978168 -0.27299008 0.07767043 0.11383647 -0.030113038 0.45828938 0.107167356 -0.49328095 0.33158168 -0.25286567 0.026292719 -0.23932533 0.041557133 -0.16157708 -0.050896123 -0.39792746 0.11663677 0.07360474 0.042585835 0.0869028 -0.29156783 0.1583257 0.37233981 -0.5241831 -0.21148449 -0.013503116 -0.18391915 -0.36565477 0.047949005 -0.61428106 -0.059782702 -0.02656724 0.104073316 -0.06473282 -0.15546623 0.81164 -0.45759138 -0.34770283 0.126408 -0.27078778 -0.32352322 0.26080492 -0.23512307 -0.70378166 -0.4440404 -0.37459782 -0.10704535 0.14674942 0.10019183 -0.34607947 0.39345306 -0.3458524 -0.07905287 -0.35019648 -0.04181877 -0.33292243 0.09341188 0.17378408 -0.24904633 -0.4546906 0.49357587 0.6711554 -0.04485948 -0.44351608 0.31136337 -0.022647785 0.34058583 -0.042694 0.19292836 -0.07705846 -0.172154 0.41076604 -0.38978612 -0.042548276 0.22299491 -0.03399492 0.26694787 -0.36272383 0.22167808 -0.25995016 -0.054673504 0.21998248 -0.3619414 -0.048938822 0.49103308 0.1461509 -0.0698473 -0.18539168 0.6572706 0.48528415 0.014658738 -0.04457288 0.23756234 -0.12465333 0.36180776 0.06631634 0.48421422 0.35326445 0.29031295 
com.kingston.im.chat.net.codec.PacketEncoder.encode 0.07905293 0.2191549 0.98427486 0.9676359 0.12701271 0.7210281 -0.37734038 -0.82971156 0.29670197 0.1138881 0.1755894 0.6976141 -0.017996592 0.12517618 0.022613887 -0.31345797 0.046212073 0.2926865 -0.08773491 0.39624876 0.34509754 -0.57224214 0.13717598 0.50625706 -0.116444215 -0.3579265 -0.031525116 0.16002047 -0.15915664 -0.28922334 0.18458852 0.061101247 -0.99409384 -0.03601834 -0.178548 0.12540033 -0.20886469 0.14715861 -0.0020924322 -0.11049731 -0.22489578 -0.03269644 -0.55529404 0.4108153 -0.33825728 -0.001368291 -0.2795404 0.17391407 0.59634566 -0.6490082 0.2700547 -0.73886955 0.032419093 0.17019804 0.6840988 -0.3394201 -0.31318006 -0.0887061 -0.9958684 -0.28410405 0.049823273 0.4539729 -0.11446636 -0.09193322 0.7052058 -0.4555889 -0.5469371 -1.0802358 -0.48018652 0.02759719 0.2687848 -0.16099098 -0.17547147 -0.30882114 0.0027377398 -0.48808986 -0.53724307 0.37698963 -0.06686907 -0.04897049 -0.2660612 -0.9585076 -0.1710484 0.45555973 -0.50906044 0.12337959 0.16961284 -0.66525805 -0.09567174 0.19600691 0.16692208 0.35151243 -0.28706038 0.4369517 -0.29111966 -0.38640648 -0.45879832 -0.17653783 0.08001744 -0.15940112 0.85458684 -0.537063 0.06222216 0.43739736 1.0166346 0.17342295 -1.1149002 0.3662639 -0.39229816 -0.42631015 -0.79991496 -0.49347803 -0.7201776 0.6323681 0.091301374 -0.36741483 0.15314397 -0.23745975 -0.27413318 -0.2894964 0.6349935 0.70061904 0.009592509 -0.096845545 -0.48573267 -0.7864791 0.28172168 0.82157725 
com.kingston.im.chat.net.message.AbstractPacket.getPacketType 0.502042 0.5927243 0.10140952 -0.4667805 0.23666029 0.20499256 -0.37704307 -0.5524567 -0.3269522 0.21158315 -0.20258416 0.13201071 -0.11727282 1.1907636 -0.66605353 0.20922418 -0.13047455 0.1320029 0.0558226 -0.13029626 1.1125875 -0.64736706 0.29387203 0.2711887 0.04031526 -0.094713226 -0.29201692 0.0057441103 0.41553193 -0.7060859 -0.51408947 0.25066963 -0.32656124 -0.23522072 0.3081378 -0.19115935 -0.23600967 -0.07213511 0.40122408 -1.1161395 0.2269866 -0.22722714 -0.25333065 0.80715835 0.08739526 -0.2422704 -0.27542233 0.115382835 0.64066136 -0.6761196 0.89693207 -0.09349886 -0.124945514 -0.660915 0.7229374 0.66733956 -0.089767046 -0.20013916 -0.07940251 -0.47372338 -0.068075135 0.15440275 -0.32419443 -0.06899144 0.3289576 -0.009918514 -0.5463663 0.22991285 -0.58563715 -0.09744133 0.01966551 -0.32679033 -0.65932685 -0.56434846 0.23942548 0.40156817 0.71302164 0.7150118 -0.5528515 0.08353176 -0.41975796 -0.23559436 0.14264698 0.52117705 -0.32180294 -0.034495495 0.27481037 0.4615498 -0.109071106 0.05960409 -0.29307386 -0.074226595 -0.7302007 0.33122656 -0.09051945 -0.042860072 -0.0073773977 0.4200554 0.21054101 -0.4454395 1.1743481 0.22318521 -0.2489874 0.89164805 0.22722554 0.28187487 -1.0275838 0.4550689 -0.37717655 0.036383424 -0.5197906 -0.84800816 -0.099902816 0.55464137 -0.22455153 0.3138417 -0.17226353 0.48492345 -0.63844156 -0.25808847 -0.02382333 0.65746874 -0.098637365 -0.03336179 -0.12741253 -0.3597414 0.17710689 0.4083504 
com.kingston.im.chat.net.message.PacketType 0.57227695 -0.4187822 0.1507168 1.0949318 0.31005895 0.8364452 -0.25072345 -0.98421544 0.35971516 0.39565426 0.036805626 0.2596785 -0.16431665 -0.009412331 0.07440207 0.16939403 -0.34488598 0.03039741 0.5190189 -0.06588196 0.26233488 -0.85848606 0.094544694 0.2787504 0.020385765 0.5441646 -0.19191258 -0.5272883 0.29765874 0.0925236 0.16511925 -0.60214984 -0.67973703 -0.6997905 0.1632299 0.13166511 -0.29895613 -0.028304946 0.5719313 -0.24323681 -0.1309335 0.2957429 -0.47842526 0.68864614 -0.06781511 0.4646606 0.5242569 0.3656303 0.40091023 -0.2885832 0.083388284 -0.34862575 0.28948787 -0.12341617 0.46686345 0.17745861 0.42798686 0.16288047 -0.053174596 -0.11894916 0.3607096 0.022249218 0.10952844 0.30848318 0.6593534 0.27798337 -0.796825 -0.35150805 -0.7683869 -0.1648095 -0.069278926 0.10679413 -0.59589684 -0.48581073 -0.31954086 -0.05881289 -0.06930419 0.41923544 -0.3329224 1.1057806 -0.6824828 -0.8136246 0.22575423 -0.34973487 -0.5986165 -0.17501272 0.4994502 -0.17495264 0.14530483 -0.45362747 0.5953412 0.024509978 -0.32069916 0.1849642 -0.04909849 -0.19296986 -0.041894305 -0.08057246 -0.22322457 0.21764025 0.88207465 0.104103394 0.07268185 0.89201164 0.25014633 -0.053710457 -0.5838886 0.05271249 0.051469658 0.0147690745 -0.7362965 -0.17200938 -0.2013879 0.80985403 0.56149983 0.060681764 0.27039096 0.55563813 -0.35398653 -0.54310066 0.5265387 -0.24000646 -0.14847945 -0.78792936 -0.5243176 -0.3875068 0.123395406 0.68946433 
com.kingston.im.chat.net.message.PacketType.getType 0.039684903 -0.020420281 -0.0024652411 0.5844472 0.76289666 0.52296776 -0.14326891 -0.3600743 0.076715976 -0.5751438 -0.68790203 0.07517076 -0.42921048 0.94566405 -0.50255495 -0.051109333 -0.16056219 0.16288516 -0.13498302 -0.81568515 0.41093957 -0.6063915 0.34084976 0.028995331 0.013752837 -0.53046405 0.32660916 -0.4457426 0.30083156 0.028535476 -0.09417904 0.26034537 -0.49300686 -0.71378404 0.08563694 -0.13284133 -0.4316148 -0.12652725 0.46042374 -0.821086 -0.12947017 0.11125041 -1.0554262 0.5694109 -0.05391465 0.25778788 -0.022488652 -0.09290156 0.54294753 -0.37917647 0.41076627 0.2599238 0.36442235 0.3833947 0.5799621 0.016722929 0.5545137 -0.013829626 -0.51353985 0.03602622 -0.02870919 0.23168708 -0.3329012 -0.24572381 0.7572377 0.1505274 -1.4699947 -0.3887442 -1.0667621 -0.3668031 -0.6494092 -0.6743052 -0.96238893 -0.7584851 -0.25213867 -0.095873274 -0.1277781 0.5989642 -0.0065593985 0.5543324 -0.05357025 -0.14106561 0.2562141 0.20731954 -1.2523116 0.2465616 0.51886094 -0.037594877 -0.29829618 0.055296466 -0.12551956 -0.08942125 -0.90153164 0.50791925 -0.15551104 0.7101701 0.10067059 0.34556797 -0.21059336 -0.0076707085 0.34774593 0.01949302 0.6919491 0.68931293 0.08307585 -0.16374889 -0.6182985 -0.027432702 -0.019399712 0.36160228 -0.04245616 -0.46312222 -0.19734022 0.77730364 0.2335209 0.26825595 0.21471004 0.28178278 0.17645174 -0.4760937 0.003449263 0.7948346 -0.04034131 -0.6276297 0.52839994 -0.42275316 0.17041132 0.68928283 
com.kingston.im.chat.net.message.AbstractPacket.isUseCompression 0.58469635 0.3229345 -0.08075199 -0.38499823 -0.06746853 0.1196838 -0.36060166 -0.5583777 -0.32720545 0.12986007 0.48332554 0.020915337 -0.06973739 0.6313815 -0.18391837 0.3817894 -0.20539688 0.0031098851 0.6764019 0.1118376 1.2565701 -0.39364278 0.23803869 0.3661426 0.08656547 0.011873096 -0.2862424 -0.46616298 0.46708825 -0.7866049 -0.38841397 -0.30187654 -0.426453 -0.29971153 0.2758186 -0.31805226 -0.42271814 0.15435924 0.009926754 -0.76956666 0.6210983 0.03052294 -0.12634957 0.39180562 0.34226465 -0.0642937 -0.24215837 0.08127251 0.70012677 -0.75388175 0.9743381 -0.18312068 -0.27374113 -0.82067156 0.75437766 0.75068855 -0.1374277 -0.22804761 0.14938378 -0.4988908 0.21839727 -0.16561139 -0.29211056 0.8086123 0.30832276 -0.031331588 -0.7439466 0.20743227 -0.827882 -0.2188131 -0.17852888 -0.10645397 -0.40362343 -0.18886653 0.088265985 0.7472569 0.5593169 1.0068828 -0.5645017 0.70929027 -0.1767741 -0.48120126 0.14699697 0.3796533 -0.35228068 -0.041283622 0.5252995 0.34610292 -0.31398 0.17273492 -0.3217834 -0.20430633 -0.10183368 -0.109237514 0.017578432 0.037259515 -0.38954484 0.3571317 0.045522377 -0.03945376 0.98976374 0.586752 -0.52071035 1.0170428 -0.056335036 0.103355944 -0.53997165 0.42143637 -0.82598865 -0.27603325 -0.5120689 -0.6205001 -0.4831627 0.49562395 0.033853296 0.17122723 0.20728415 0.66521186 0.15160292 -0.13279188 0.01745648 0.06900419 -0.15479891 0.09647131 -0.5290996 -0.40611696 0.32175267 0.21365848 
com.kingston.im.chat.net.message.ByteBufBean.writeBody 0.2859026 0.2536806 0.329085 -0.33469096 -0.05086943 0.2648927 -0.15564375 -0.44212717 0.12678981 -0.03572255 0.27381116 -0.08418136 -0.024995493 0.905631 -0.64507216 0.17384474 -0.30313995 0.19405118 0.30869672 -0.0222241 0.5439418 -0.53968906 0.37559435 -0.036740426 0.4053684 -0.57999915 -0.015250088 0.12216153 -0.19858761 -0.4257366 -0.21679425 -0.012747036 -0.15297662 -0.37733594 -0.12795503 -0.26493493 -0.27019453 0.10907126 0.10088943 -0.5086934 0.057826445 -0.49874327 -0.17348076 0.10567978 0.35156482 0.04433168 -0.11141382 0.23612633 0.6690842 -0.6002255 0.5014191 0.225721 -0.07114994 -0.45849207 -0.15897833 0.5381576 -0.104555346 -0.43919295 -0.23603335 -0.07661765 -0.2912361 0.1525866 -0.4115691 0.29954657 0.59110606 -0.07014336 -0.43974167 0.48699194 -1.2006818 0.17483725 -0.7939568 -0.37725323 -0.34972942 -0.20519215 -0.005853124 -0.042073686 0.64908606 0.18973097 -0.23668455 0.27308005 -0.028966088 0.05019347 -0.11071212 0.18983306 -0.30623683 -0.013056268 0.23974124 0.13860707 -0.31762815 0.29953545 -0.14396624 -0.39554828 -0.40273392 0.1701366 0.32547137 0.23285064 0.2486271 0.477943 0.13008933 -0.3572806 0.7148671 0.2960636 0.062419876 0.8032978 0.00021750189 0.13954183 -0.80753374 0.62698454 0.14224672 0.059077397 0.6032475 -0.59043247 -0.03910165 0.78992766 0.15892705 0.18524036 0.13069755 0.22599407 -0.2759763 0.3580965 -0.6004473 0.41524112 -0.116776615 0.27576622 -0.48248678 -0.25214556 0.23587966 0.24087907 
com.kingston.im.chat.logic.search.message.vo.RecommendFriendItem 0.23656993 0.08100943 0.78962594 0.2818936 -0.2799537 -0.01290885 -0.09544327 -0.16666226 0.16975076 0.33590484 -0.15414882 0.30874705 0.024401404 -0.1318767 -0.7883413 -0.16664967 -0.2416499 0.06710518 0.246187 0.37130052 0.27745175 -0.16538993 0.2890102 0.30166188 0.5101936 -0.31003276 -0.15800141 0.43671444 -0.13198394 -0.28285435 -0.16378807 -0.37983823 -0.28268203 -0.6933594 0.18463056 -0.53853947 -0.1117099 -0.17432705 0.22467665 0.09726694 -0.03984493 -0.034875873 -0.28605402 -0.25819108 -0.23775573 0.27675372 0.31777337 -0.31642234 0.2239249 -0.34504542 -0.5143272 -1.1030264e-05 -0.15874961 -0.58285695 0.5074842 0.33853933 -0.30118555 0.44656554 -0.3285076 -0.04427838 0.09737927 -0.20701505 -0.31589475 -0.31739223 0.05974787 -0.073372275 -0.61785 -0.631485 -0.056795623 -0.16818334 -0.051171012 0.045638405 0.075030625 -0.08167035 0.11925952 -0.4469854 0.2298204 0.05596202 -0.0849432 0.29519963 0.16321775 -0.074854575 0.04344775 0.092581056 -0.07348738 -0.41887918 0.21540032 -0.054142598 -0.42248365 -0.07935018 0.22851205 -0.07670725 0.26503742 0.6457914 0.042476673 0.122721 0.21403125 0.2330619 -0.62159824 -0.3738054 0.1283384 0.0077861785 0.11826102 0.72253275 0.41228 0.06297404 -0.12239318 -0.09357599 -0.51668483 -0.2063725 0.5250166 0.055312533 -0.040916767 0.59613746 -0.09736637 -0.16908948 -0.22561751 0.6493842 -0.21513008 0.28353435 0.42118198 0.3095832 -0.43865016 0.35503697 0.03743352 0.29953197 0.045437597 0.14094143 
com.kingston.im.chat.logic.login.LoginService -0.22759052 0.6830345 0.47192234 -0.11774715 0.38878512 0.15156831 -0.17425968 -0.08659516 -0.6223619 -0.5558757 -0.079593115 -0.12781946 -0.33317506 0.16205974 -0.19247548 0.31087252 -0.11652832 0.03966444 0.2752189 -0.5227869 -0.23555395 -0.14581966 -0.20847644 0.17600125 -0.03917194 -0.72334105 0.0060419147 0.49877948 -0.15417351 -0.35306042 -0.8616734 0.17000344 0.30740526 0.2343564 0.32449508 0.03810494 -0.15200147 -0.19935317 -0.21942843 -0.7152521 0.35117123 0.039276842 -0.1082437 -0.35883388 0.065891296 -0.52587086 0.43389827 -0.2610588 0.8131318 -0.11074383 -0.3807246 0.25630262 -0.6751983 0.13004836 -0.23598261 -0.32714453 0.246191 -0.0392485 -0.24822973 0.3661207 -0.47766197 -0.16373911 0.34354404 -0.1307185 0.39048934 -0.122238904 -0.067593195 -0.5880687 -0.13035026 -0.8321929 0.38783956 0.28151247 0.16905817 -0.35157686 0.38870603 -0.47885484 0.43429628 0.3110698 0.34277594 -0.7697138 0.09223822 -0.018439135 0.35998228 0.63492244 -0.18829408 -0.21434505 -0.23383425 -0.18669248 -0.6238187 0.09019209 -0.2671742 -0.6440991 0.2838356 0.03457883 0.21010631 0.52546984 0.09713927 -0.6753064 0.031099765 -0.39273933 -0.3166889 0.023142435 0.79708356 -0.841822 -0.21899232 0.1545368 -0.267656 0.37475055 -0.14534034 -0.32801107 0.031493638 0.13067277 -0.08274891 -0.045660485 0.93846524 -0.5156774 0.18513282 0.46389425 -0.10699619 -0.40655681 0.30996725 -0.058111884 -0.054957673 -0.5945301 0.0037416911 0.10830464 0.48294702 -0.5335002 
com.kingston.im.chat.logic.login.LoginService.validateLogin 0.6851019 -0.16429512 0.07799611 -0.19282107 0.3236622 0.51314676 -0.060454555 -0.36258957 -0.5299353 -0.82771456 0.19444321 -0.80105406 -0.43811542 0.2770859 -0.05178207 0.6956577 -0.5353318 0.6319881 0.3551198 0.63439596 0.012446736 -0.41487938 -0.3257894 0.5182504 0.33091643 -0.90453964 -0.14793141 0.3403158 -0.28673145 0.20951746 0.06959609 -0.09455326 -0.22398515 0.44578424 -0.028050166 0.35908568 0.051602706 0.1826992 -0.98669165 -1.2983415 0.52396244 0.21637298 -0.69805264 -1.0490568 -0.42802724 -0.8901057 0.3155508 -0.04076383 0.6069297 -0.726906 0.13125801 0.98716253 -0.44699654 0.017213378 0.10755738 -0.03297406 0.32224238 -0.45352492 0.22233169 0.20270124 -0.42744792 0.23619013 -0.22973628 0.19125108 0.8490907 0.35149953 0.30675924 -0.041583784 0.6862485 -0.4121064 -0.21375991 -0.30577314 0.023821479 0.9559517 0.552102 0.24976298 -0.09697856 0.809899 0.18393439 0.3901874 0.06608694 0.032614548 0.87159425 0.10285203 -0.47521344 -0.18916279 0.8284303 0.33138424 -0.6423321 0.35532963 -0.7785087 0.028004928 0.39018497 -0.116376914 0.49843082 0.008977291 -0.17499843 0.078584604 0.35984018 -0.84171814 -0.14630052 -0.29261324 0.8955833 0.15592627 -0.5650984 0.47430146 -0.03744795 -0.12455462 -0.48306328 0.08384537 0.5838039 -0.38790438 -0.18691306 -0.06754306 0.19792014 0.14130835 -0.21061897 0.03140488 0.022830557 0.31010687 0.11317226 0.45605507 -0.29694816 0.030461304 -0.11129097 -0.3402323 0.36939096 -0.60687053 
com.kingston.im.chat.logic.login.message.req.ReqUserLogin.execPacket 0.09834031 0.61296475 -0.27606863 -0.48871166 0.1123553 0.12720312 0.2548551 0.5124342 -1.3085327 -0.82289696 0.23190345 -0.31374726 -0.45749703 0.70789945 -0.45814 -0.50680625 -0.14879638 -0.075227775 0.6279802 0.14731352 0.08003593 -0.4298717 -0.6675011 0.5759933 -0.08145612 -0.2521788 -0.030280143 0.26804444 -0.2429885 -0.20938943 -0.027428946 0.09948644 -0.0011048462 0.12991434 -0.34270507 -0.2398955 -0.08849305 0.08014392 -0.54223955 -0.9915755 0.20252487 0.15833265 -0.8103938 -0.4636183 -0.68911856 -0.80447406 0.39209998 -0.21695784 0.32945916 -0.8706368 -0.13249837 0.81486243 -0.5842199 0.11126052 -0.26724547 -0.10666636 0.18154609 -0.566217 0.16428384 0.11312328 -0.26010585 0.5684177 -0.26001963 0.76201636 0.37135187 0.06801639 -0.43021592 -0.1355116 0.3951576 -0.2320484 -0.2462971 -0.37709045 0.17689721 0.6037119 0.6312359 0.7689598 0.2742112 0.75806624 -0.30698255 0.46279588 0.41512898 -0.19656499 0.23578475 0.07070475 -0.015264983 -0.63974893 0.2964043 0.054072376 -0.4367143 0.32232377 -0.44461408 -0.30169663 0.09111619 0.55776674 0.47724205 0.611482 0.24428415 0.30273238 0.48903552 -0.7808246 0.21456365 0.25952238 0.55156595 -0.10632661 -0.19709198 0.18604602 0.27112022 -0.47743303 -0.6057194 -0.3380244 0.2583119 -0.18473358 -0.725885 -0.22841243 0.44963515 -0.33188966 -0.10321553 0.48830292 0.07323179 0.26833674 0.12900816 -0.37662488 -0.9505613 -0.37931016 -0.75892407 -0.56285155 0.44449005 -0.16116959 
com.kingston.im.chat.logic.login.message.req.ReqUserLogin -0.35735008 0.36001107 0.22013485 0.020251883 -0.049917758 -0.0978555 -0.03587286 -0.45883092 -0.6113241 0.2294635 -0.39778998 -0.073087655 0.29130828 0.25349224 -0.36621577 -0.68776786 0.19403033 -0.115999736 -0.5013997 0.020056516 0.24250044 -0.58237445 -0.51131827 -0.12835327 -0.13812174 -0.77713805 -0.23733768 0.45925978 0.1836525 -0.33093908 -0.18333617 -0.009207297 -0.41490066 0.7087272 0.13815747 0.47830647 -0.07262303 -0.000572183 0.119661555 -0.81404483 -0.22375384 0.4465631 -0.51735914 0.14785025 -0.23537709 -0.811738 0.2170444 0.27945796 -0.10336253 -0.17061108 -0.5795893 0.010869894 -0.3362845 0.068602696 0.5533512 -0.2005683 0.1381347 -0.023373412 -0.15064172 0.12085106 -0.13551559 0.4031719 0.023225185 0.30920467 0.19247343 0.3581277 0.11722793 -0.038756814 -0.10315333 -0.24435285 -0.043460164 0.40716547 0.08563625 0.9014051 0.5382316 -0.19316137 0.41456395 0.13888884 0.08466676 -0.096227534 0.06710772 -0.5649553 0.25657007 -0.052579954 0.21293657 -0.71458834 0.682805 0.24194829 -0.65423685 -0.3800388 0.2220211 -0.38144225 -0.0056311754 0.39324778 0.4060174 0.53671235 0.1330985 0.1059853 0.28542587 -0.26236165 0.17476632 0.23527084 0.29293087 -0.56434435 -0.38938966 -0.0125757065 -0.28739038 -0.110808685 -0.010107206 0.10658566 -0.6708633 -0.054488625 0.80292606 0.57693136 0.24536887 -0.04108897 -0.12958303 0.58607394 -0.049094018 -0.44748232 -0.23803304 0.20172846 -0.2779505 -0.10542447 -0.22921208 0.061293915 0.26093152 0.05275987 
com.kingston.im.chat.base.SpringContext.getEventDispatcher -0.20448177 -0.24366091 -0.4190077 0.05179652 -0.33432692 0.09311202 0.13304028 -0.8982512 -0.59752154 -0.2596518 -0.034513753 -0.262765 -0.011177741 -0.09465016 -0.2742582 0.0063488293 0.71446687 0.34175938 0.12149701 0.14982338 -0.111832105 0.39514747 -0.14915267 -0.14126201 0.15475602 0.057547964 0.15938756 0.1969995 -0.031931456 -0.43248123 -0.7866069 0.8145131 0.05435656 -0.18579882 -0.24940088 -0.57568955 -0.227382 0.64699954 -0.034594156 -0.07979026 0.26384562 -0.05607918 0.036371037 0.29636174 -0.054227475 -0.30431673 -0.20536163 0.27612048 -0.0398308 0.5141625 0.3933818 -0.09220318 -0.2688555 -0.263145 0.3680585 -0.6829295 0.2810803 0.030662248 0.14033239 -0.7531374 0.20216161 -0.293267 -0.100024074 0.27237305 0.5993396 -0.27583423 -0.58000225 -0.09273976 0.26495868 -0.13467973 -0.44113246 -0.20322849 0.2029652 0.24497122 0.066324085 -0.6648403 -0.07411071 0.66820294 0.15779378 -0.06582902 0.07056493 0.08212287 1.0529416 0.08104668 -0.11109143 -0.88031733 0.48613337 -0.336449 -0.35545692 -0.26441556 0.29500023 -0.34882936 0.3121472 1.0077705 0.15168755 -0.24354886 0.0092824325 -0.21859692 -0.6072443 0.20021938 0.062302604 0.46272194 -0.12969069 0.43593273 -0.5122813 -0.31262475 -0.29254705 -0.4397461 0.37383965 0.22283755 0.094562136 -0.39307398 -0.23278886 0.22305676 0.24045023 0.56148106 0.7807001 0.6369852 -0.3998857 -0.22162288 0.76444125 -0.8377991 0.049287576 0.12895496 0.4341947 -0.33695957 0.22642618 0.50366724 
