Variable_N 128
Activity -0.096596316 -0.09960567 -0.08284993 -0.07988581 0.049185786 -0.059947252 0.01621797 -0.019472098 -0.19250192 0.008813467 -0.004997343 -0.15034287 -0.04956025 0.06312041 -0.09452338 0.19674265 -0.06352827 0.037600238 -0.110037826 -0.04819617 -0.0038392704 -0.057120703 0.051259693 -0.044763174 0.049473077 0.0020166815 0.03230486 -0.00083531794 -0.0999263 0.12130437 -0.03545858 0.014190453 -0.060059227 -0.10078314 0.14451022 0.07568125 -0.13454707 -0.13703102 0.1296591 0.15103441 -0.044782046 0.021977749 0.011105824 -0.19232522 0.069698445 -0.09149301 0.010055474 0.108650245 -0.09097554 0.004593122 0.043747716 -0.042900693 0.042023107 -0.1489386 0.15074633 -0.100652486 -0.052334316 -0.10981442 -0.05321268 -0.20677869 -0.2053314 0.084398724 0.10729959 -0.03132765 -0.104227014 0.0045364397 -0.14453895 0.18920365 0.05888271 -0.031720895 0.029426776 0.1040388 0.061978538 0.12491266 0.06805113 -0.1363314 -0.032314617 0.07750107 0.16145328 -0.09632292 0.096289165 0.028982759 -0.17743282 0.1681992 -0.011225768 0.034279063 0.05414659 0.09370018 -0.18072295 0.2942387 -0.14252532 -0.036982603 0.060525365 0.20036997 0.23034124 -0.032016266 0.0026586535 0.07101872 0.0023343614 0.0037636983 -0.051582318 0.1417603 0.11377752 -0.004026585 0.12842488 -0.20690657 0.10606393 -0.056281697 0.06870767 0.22515213 -0.15135136 -0.1493249 -0.0629223 -0.13371788 0.0782003 0.1791525 0.06880917 0.20031069 0.021952985 -0.011234226 -0.10428242 0.014641204 -0.015688887 0.14121075 -0.059757605 -0.08278667 -0.06320251 -0.20891951 
com.morgoo.myjavahook.MainActivity -0.082427904 -0.15775551 -0.09062492 0.0184234 -0.010159586 -0.03471694 0.05509809 0.0042760745 -0.11298799 -0.065634005 -0.090673424 -0.1969749 -0.03442413 0.039167248 -0.15507728 0.12935036 -0.09677505 -0.068289705 -0.1773089 0.13667788 -0.043335028 0.04807585 0.0153746 0.0524338 0.04063525 0.13021185 0.04186358 -0.07698886 -0.111732125 0.11763305 -0.14633925 -0.024219176 -0.03305931 -0.14651258 0.20855202 0.035393476 -0.259981 -0.10464884 0.026688613 0.0135951 -0.023940891 0.09391739 -0.05542973 -0.07970181 0.1666697 -0.04337908 -0.058504004 0.092729144 -0.06379274 0.09983703 0.007362038 -0.086442195 -0.19371046 -0.06863771 0.08667345 0.014909277 0.024536274 -0.073236704 0.03097554 -0.1604876 -0.1583776 0.22109987 0.052306127 -0.07550759 -0.08330649 -0.018180871 -0.14997716 0.13067132 0.10824812 -0.09958037 -0.09638231 0.1796704 0.14616133 0.091264576 0.15518655 -0.056584127 -0.17284217 0.12198368 0.10946224 -0.08688141 0.07775882 -0.027885696 -0.17633562 0.12118612 -0.14032328 0.088189915 0.1654701 0.15479952 -0.071733534 0.108628824 -0.21534453 0.07602952 0.014878771 0.22585578 0.06290079 -0.0072337673 -0.0490674 0.08013513 -0.07930486 -0.02985553 -0.060160667 0.13636662 0.13994616 0.009734799 0.13499343 -0.023697538 0.10690457 -0.08953857 -0.01759875 0.05380755 -0.14887992 -0.18212967 -0.18553191 -0.062993415 0.060305025 0.21961743 -0.027887013 0.14751814 0.09624271 -0.098178715 -0.19907549 0.10331215 -0.14279743 0.1099721 -0.04169539 -0.033347435 -0.010960892 -0.12560996 
com.morgoo.myjavahook.MainActivity.onCreate -0.09266826 -0.11529186 -0.13363558 -0.014533236 0.0034693384 -0.0877465 -0.01855261 -0.05003263 -0.18143092 0.019854829 -0.04230313 -0.12776402 -0.07746028 0.09657898 -0.031438492 0.13234326 -0.05636495 0.016777834 -0.057501033 0.011944704 -0.02198118 -0.05799093 -0.010470538 -0.049048934 0.047073852 0.035470907 0.03313213 -0.06748725 -0.12331138 0.086222716 -0.03795136 0.031161632 -0.071111284 -0.15793487 0.17581502 0.045073245 -0.13867283 -0.16304876 0.10196646 0.10161306 -0.025497891 0.09391339 -0.028400274 -0.1715416 0.12115198 -0.124508806 0.0014619349 0.027693523 -0.13461243 -0.014193331 0.025326183 -0.015502662 -0.045604642 -0.108303614 0.16044255 -0.09758276 -0.036719326 -0.101039924 -0.0058271484 -0.18083608 -0.1733466 0.06567597 0.1049101 -0.01439241 -0.11349675 -0.05199366 -0.12663198 0.13827044 0.09721804 -0.06265635 -0.00077914743 0.14846238 0.10716048 0.052897792 0.12554348 -0.13836026 -0.10995057 0.042886294 0.115795426 -0.106660634 0.041401282 -0.025670445 -0.20253794 0.20079885 -0.06575374 0.030109422 0.12556499 0.10020106 -0.15979199 0.2428104 -0.08936655 -0.051399168 0.08564455 0.18080527 0.19311893 -0.05286794 0.007624224 0.06533669 -0.015967553 -0.019506192 -0.10394786 0.110795915 0.18711261 -0.0320707 0.16448912 -0.15515296 0.05258359 -0.000606736 0.013720332 0.1787982 -0.08518853 -0.14444673 -0.040693622 -0.12036467 0.0695532 0.18638648 0.07830562 0.2010585 0.08809383 0.026179176 -0.10965352 -0.027055008 -0.07967007 0.14616564 -0.08669247 -0.037235875 -0.06375999 -0.12049685 
com.morgoo.myjavahook.HookTest.main -0.07756407 -0.15004675 -0.043892115 -0.11563495 0.08553149 -0.03688333 0.10365109 0.004129239 -0.23194778 -0.01291353 -0.017900815 -0.1878964 -0.02957041 0.0131606 -0.14582975 0.21626933 -0.08370816 0.043589596 -0.15171888 -0.079579554 -0.009061844 -0.03388308 0.08162994 -0.046027154 0.071675144 -0.026847396 0.00047886916 0.050508007 -0.08357504 0.17265943 -0.088369876 0.01698568 -0.017688492 -0.06535564 0.12003362 0.09257884 -0.18947512 -0.06260668 0.15623812 0.18915421 -0.09246397 -0.044607315 0.06439334 -0.24000168 0.031010153 -0.029859234 0.011115127 0.1567188 -0.03894689 0.036127158 0.06858047 -0.09873471 0.05616879 -0.14880604 0.12159802 -0.102729276 -0.08252187 -0.12247051 -0.07482804 -0.2407599 -0.2327682 0.16413091 0.098254144 -0.002817983 -0.087742895 -0.0003284898 -0.18261245 0.1923707 0.0408209 -0.024406578 0.030598711 0.06694628 0.036524545 0.18364233 0.0200622 -0.13066742 0.00215388 0.10665256 0.20796262 -0.07533851 0.15701793 0.077815786 -0.13206394 0.10925582 0.00058922096 0.047619104 0.033367023 0.13849264 -0.18325782 0.3088949 -0.19459873 -0.004852369 0.03501896 0.24445763 0.2577938 -0.018076641 -0.059266876 0.041686468 0.014264768 0.0041687936 0.017589044 0.16193987 0.03476545 0.014614622 0.071105234 -0.1821427 0.15407373 -0.14818075 0.07669854 0.23297639 -0.20165302 -0.13559175 -0.10019907 -0.11344757 0.14700098 0.21103705 0.009851771 0.17748265 -0.0013157591 -0.10681502 -0.14767256 0.0487878 -0.016092679 0.14686643 -0.0118696345 -0.14903052 -0.07691107 -0.25706488 
com.morgoo.myjavahook.HookTest -0.08630161 -0.11414604 -0.10409787 -0.05741074 0.038248144 -0.07811795 0.0213413 -0.040448174 -0.22259934 0.031310033 -0.02176971 -0.12356515 -0.061498288 0.07693775 -0.03127809 0.15652952 -0.05939218 0.057422135 -0.04922309 -0.07176789 -0.0050489837 -0.07710014 0.010643284 -0.07945371 0.056319557 -0.019703992 0.017414661 -0.014451342 -0.09828032 0.11310541 -0.022750128 0.051020484 -0.05125122 -0.11598863 0.1288042 0.063234344 -0.11271943 -0.122581415 0.14362901 0.16440731 -0.056214932 0.029798204 0.020243973 -0.22940521 0.05809791 -0.09825749 0.025542349 0.05079816 -0.10965483 -0.030984547 0.05009752 -0.028216323 0.048504826 -0.12761293 0.15641204 -0.13255964 -0.07712882 -0.11156904 -0.04652443 -0.19758455 -0.19043505 0.053734653 0.11025042 0.017963443 -0.10903884 -0.04737356 -0.13740885 0.15280429 0.06177494 -0.03308474 0.047955174 0.09396031 0.06172129 0.09228595 0.06004581 -0.15132126 -0.03930907 0.03857026 0.15523452 -0.08810059 0.084188744 0.019988185 -0.16540486 0.17066458 -0.008253218 0.010232409 0.07033431 0.09996566 -0.18993394 0.2938739 -0.0834189 -0.07153882 0.08737816 0.18284552 0.25505638 -0.055302735 -0.0071594664 0.043183323 0.014509442 -0.0052888687 -0.056947 0.11172015 0.12437375 -0.027190939 0.11910912 -0.19061114 0.07209399 -0.038830075 0.04971231 0.22876592 -0.10858672 -0.11208946 -0.015348273 -0.1208333 0.11194693 0.17700824 0.06793865 0.19319545 0.05091285 -0.00063573214 -0.08803681 -0.04167841 -0.033005003 0.14772327 -0.06857624 -0.09102526 -0.0824299 -0.16671553 
com.morgoo.myjavahook.HookTest.HookTest -0.11346492 -0.11543783 -0.12247438 0.02413632 -0.018411646 -0.038971603 -0.027648114 -0.0074178386 -0.076417305 -0.057841428 -0.0658099 -0.20588367 -0.059832502 0.07021731 -0.16581506 0.16587634 -0.085147776 -0.086304545 -0.18945706 0.17465563 -0.03836177 0.026984405 0.03126074 0.060018096 0.028769217 0.17175657 0.074938856 -0.1082477 -0.13938749 0.103622444 -0.1087141 -0.05605169 -0.07796034 -0.18018952 0.25145483 0.033402853 -0.2430919 -0.19685872 -0.0007331671 -0.008075646 0.031043269 0.15252882 -0.11012082 -0.03102571 0.21003664 -0.10048161 -0.05314377 0.10793957 -0.109240144 0.08791539 -0.016376335 -0.04480023 -0.20346856 -0.10019085 0.12793265 0.022231067 0.047841728 -0.077014245 0.028947426 -0.16546896 -0.16513765 0.1828906 0.082660764 -0.1385263 -0.1004469 0.020038404 -0.14701615 0.17756091 0.120852865 -0.10251753 -0.11024688 0.22431354 0.1709923 0.07446335 0.19914801 -0.06968742 -0.20003594 0.12002747 0.09755766 -0.11976763 0.04336154 -0.065766975 -0.24627377 0.19178633 -0.14679955 0.09847787 0.17751293 0.12720245 -0.086336754 0.13663787 -0.22389053 0.0706235 0.019122433 0.23102511 0.04422499 0.0034327954 0.018214498 0.13056976 -0.08854495 -0.01396441 -0.12550077 0.16027659 0.21542759 0.0081988545 0.20520486 -0.09183355 0.10156747 -0.019406794 -0.0036039897 0.0752086 -0.16077827 -0.2328454 -0.19348389 -0.10921151 -0.019234516 0.21798682 0.038427956 0.19594663 0.09932691 -0.02172988 -0.18934317 0.11693409 -0.13235982 0.1292496 -0.073352866 0.022841137 -0.002146287 -0.14571024 
