Variable_N 128
ErrorPageRegistrar -0.40567237 -0.03856342 -0.07168144 -0.017641768 0.38557705 -0.19114862 0.04390171 0.08490843 0.060652517 -0.023960305 0.068461716 0.06953962 -0.25758594 0.09605013 0.3828005 -0.025147285 0.61791015 0.042652175 0.4563175 0.054701194 0.7977185 0.39103028 -0.6151115 -0.13797693 -0.019950256 0.15276925 0.32063836 0.091176964 -0.51512814 0.027879486 -0.15291297 -0.48592126 0.046764504 -0.08773068 -0.19484785 0.5197245 0.37133208 0.19389932 -0.38970295 -0.53127253 0.6709976 0.364143 -0.036734764 -0.25156435 0.13072374 0.26072136 -0.7299871 -0.8516333 0.36820945 -0.6648579 -0.43849027 -0.42456228 -0.95931184 0.25185838 -0.052756418 0.56386936 -0.8430364 1.2790036 0.7033959 0.21126544 -0.44105867 0.3209489 0.28832197 -0.6040679 -0.76701087 1.1247312 0.6728543 -0.17371184 0.7884366 -0.1762039 -0.32061988 0.045844767 0.7713385 -0.33729973 0.2271811 -1.0817686 0.7563671 -0.65919906 0.7288572 0.6378881 0.269091 0.21514344 -0.402623 0.71770895 -0.22500592 0.5837342 -0.50044656 -0.101777144 0.33825168 -0.66318536 -0.37985727 -0.5537807 0.09295888 -0.14438133 0.5917036 0.99464804 0.16330908 0.27375722 0.54331666 1.1597219 -0.57764703 -0.2922191 0.65004456 0.6256604 0.3649817 0.5061059 -0.25467926 0.52581173 -0.21790354 -0.6845024 0.17758788 0.48098326 -0.36358088 -0.267586 0.25888088 -0.7804946 0.6283378 0.50337726 -0.35925263 -0.3114595 0.6746584 0.19160904 0.0308344 0.32307252 -0.14501199 -0.5858068 0.41887486 0.15059742 
cn.jbone.errors.JboneErrorPageRegister -0.21617593 0.94515765 -0.38431984 0.110182084 0.7798066 -0.717692 -0.45845315 0.16933085 -0.054560363 -0.102956116 0.5962978 0.5536315 -0.48552087 0.15211233 0.015095048 -0.06445311 0.09358909 0.022311212 0.24737094 0.032011285 0.055784207 -0.29170632 -0.6120555 -0.5147975 0.0063785785 -0.77137256 0.35884914 0.076444246 -0.10384709 0.2328833 -0.3646232 -0.4360304 -0.10924528 0.050224103 -0.25579673 0.06565005 -0.036425423 -0.5449539 0.058112163 -0.5356587 -0.19948201 -0.13221157 0.22686453 0.7752448 0.47465283 0.44340783 -0.31027994 -0.7480744 0.81162655 -0.95859396 -0.017976724 -0.20504022 -0.30274105 0.004201287 -0.3124512 -0.20749336 -0.86727077 0.5977406 -0.13898243 -0.009105848 -0.5091473 0.56927097 0.19036001 0.19581881 -0.19008352 0.9280655 0.3702258 -0.60104483 0.7404032 0.03560347 -0.39672142 -0.1533881 -0.20121305 -0.13687243 0.29624876 -0.8094889 0.66857463 -0.6538118 0.6845157 0.30257076 -0.42606306 0.98418605 0.1401079 1.0858599 -0.5902353 -0.14551844 -0.4799184 -0.5256572 0.19945382 -0.2693713 0.49686742 0.19784352 0.84771717 -0.20803662 1.0027164 0.9664628 0.12775306 0.083592996 0.7243525 1.3134785 -0.9140532 -0.24279086 0.2948892 0.38017076 0.3801435 0.166975 -0.8713234 0.7263543 -0.066744134 -0.56597483 0.09957028 0.2537046 -0.31278944 0.21936488 -0.03827505 -0.45067644 0.51389265 1.1194916 -1.3801085 0.24602409 -0.020532282 0.04465601 -0.5561455 0.4234817 -0.87338156 0.2444945 -0.3470708 0.6613024 
ListT 0.22931896 0.3651164 -0.38875484 -0.21574616 0.22190179 -0.681453 0.1988682 -0.062395703 0.17732798 0.35851577 -0.5562977 -0.45069617 -0.38846156 -0.28962475 0.62265426 0.24451159 -0.493379 -0.23765723 -0.36434716 0.055216394 -0.4483295 0.16757278 0.06833296 0.56671923 -0.35760176 -0.72743016 0.15052305 -0.44860947 -0.42682716 0.013616233 -0.2895252 0.21148151 -0.7827576 -0.20821293 0.3873958 -0.19895063 0.21224824 -0.036324807 0.14367308 -0.101626046 -0.12125562 0.82370085 0.15900569 0.13863626 0.19448297 -0.54779625 0.2067012 -0.4816883 -0.51639473 0.24948803 -0.50389075 0.14434941 -0.73258644 -0.023516016 0.11868565 -0.37522107 -0.14868572 0.32163382 0.08687096 -0.05316191 0.3061148 0.15651615 0.38266987 0.23296139 0.09488276 1.1833316 -0.22731596 0.3402747 -0.96278495 -0.14599967 0.045506913 0.32420823 0.21559553 -0.7529548 0.43875617 0.11192073 -0.75843513 -0.9295693 -0.10331489 -0.07903353 -0.14974597 0.6555793 0.21929283 -0.15183353 -0.01617385 -0.21237224 -0.011835941 0.7298361 -0.0727484 -0.59222287 0.73001087 0.45120573 -0.20543383 0.233894 0.46597522 1.2263014 0.80295384 0.40966293 -0.027953967 -0.44594744 -0.28744283 0.14678906 -0.29335704 0.07586677 -0.2285429 0.42576596 -0.55342907 0.68217 0.16429938 -0.47613728 -0.71151376 0.28412858 0.36120152 -0.087154314 -0.28442347 0.83713824 0.42848924 -0.049421057 0.021111371 0.80152446 -0.34174022 -0.30046204 -0.08809128 0.52630377 -0.05356296 -0.6374466 0.57324463 -0.13011679 
cn.jbone.common.dataobject.PagedResponseDOT -0.414483 0.5192844 0.165916 0.14616896 0.40025744 0.16670752 -0.5222187 -0.5199258 -0.03461783 -0.6528895 0.6517166 0.2464869 -0.63664395 0.3619725 -0.4226147 0.099077456 0.43883812 -0.19458891 0.4980776 -0.080550164 -0.17657739 -0.52381396 -0.24127467 -0.5001819 0.37072945 -0.9639531 0.3232962 0.76286715 -0.9153778 0.49101654 -0.2625282 -0.002299429 -0.56015617 0.50380903 -0.72075313 0.5913666 -0.89923847 0.272072 -0.0212986 0.1982605 0.96567386 0.17010169 0.2215667 0.019574793 -0.0649838 0.20738429 -0.3723791 -1.0422479 0.54125607 -0.6502614 -0.24850814 -0.7974346 -0.6637404 0.06407047 -0.34227315 0.50584114 -0.60574794 0.76216024 0.40426043 -0.030937005 0.29937935 1.2365516 0.1709307 -0.19635805 -0.61345655 0.61285263 0.6308831 0.13324419 0.9328898 0.341266 -0.057750143 -0.42900917 0.25875646 -0.11918261 -0.040058624 -0.7867051 0.12811652 -0.5833133 0.34977144 0.5011676 -0.20705822 1.1954153 -0.25873756 0.02227174 -0.16098888 0.17599158 -0.12443772 -1.0865781 0.39701316 -0.75622106 0.63347685 0.0707478 0.56196415 -0.4869072 0.9057024 0.1591221 0.46289358 0.37248453 0.9456733 0.1578301 -0.73669624 -0.60696375 0.10179569 0.4802128 0.23630929 0.5823732 -0.5952574 0.73896575 0.21287973 -0.10162125 0.18750528 0.42140195 -0.19904578 -0.2238066 0.028217942 -0.2821792 -0.20434438 0.9516126 -0.7132586 -0.47522083 -0.027226023 -0.75818133 -0.11045619 0.32854107 -0.9234739 -0.39370713 -0.65923786 0.6931752 
cn.jbone.common.dataobject.PaginationDO 0.22853227 0.36271265 -0.37865525 -0.20867062 0.21212585 -0.67416704 0.19618055 -0.068181075 0.17487387 0.3594528 -0.56556976 -0.44213971 -0.3887145 -0.28468412 0.6189728 0.2419093 -0.49640965 -0.2269845 -0.3659071 0.061768603 -0.45819175 0.1548556 0.0793144 0.5596403 -0.36399445 -0.7287172 0.15078637 -0.45371842 -0.4203152 0.00094452046 -0.28665853 0.21715985 -0.78541183 -0.20547913 0.38890114 -0.20790564 0.21003665 -0.03345357 0.1512492 -0.09616876 -0.119266026 0.821078 0.16354398 0.14375442 0.1954017 -0.5495644 0.20543127 -0.48570958 -0.50931525 0.245515 -0.49986553 0.13720515 -0.73548 -0.021324905 0.110567674 -0.37748894 -0.14326808 0.31647408 0.09302156 -0.04537628 0.30421647 0.1563248 0.38639128 0.2305024 0.10294714 1.1847205 -0.220451 0.34031132 -0.9716892 -0.149259 0.038952474 0.3348498 0.21503875 -0.7595405 0.441188 0.11743232 -0.76694065 -0.92215323 -0.10841053 -0.07902102 -0.15755822 0.65499574 0.21669641 -0.16625057 -0.0074757743 -0.21046486 -0.015052042 0.73260474 -0.07448184 -0.60392904 0.7316734 0.44654527 -0.21169259 0.2367879 0.46660295 1.2207148 0.80057234 0.41710088 -0.023916302 -0.4560436 -0.27211457 0.14109814 -0.29192927 0.077869914 -0.23822948 0.43000975 -0.5544214 0.6855344 0.14929052 -0.47614884 -0.7154042 0.28557265 0.3716938 -0.08173632 -0.2877206 0.8429635 0.4311092 -0.054582365 0.035063624 0.79709685 -0.34153157 -0.31287345 -0.08516078 0.5245891 -0.04938092 -0.6288297 0.5687889 -0.12362318 
cn.jbone.common.rpc.Result 0.1827556 0.037703075 -0.43388742 0.22909664 -0.4369025 0.18790743 0.18499717 -0.50403714 0.54083407 -0.55895317 -0.23781532 0.027275227 -0.42315122 0.622967 0.32518914 0.2623667 -0.037211616 0.43738085 -0.3935891 -0.7498052 -0.35063025 -0.2918443 0.6629146 0.3867209 -0.4581949 -0.5435566 -0.4157042 0.1411125 -0.13407603 0.48867288 -0.21403779 -0.22212872 -0.78569293 -0.1297056 -0.6327726 -0.05664844 -0.5017255 0.18699148 0.28925028 0.02085503 0.43751776 1.2449017 -0.22439437 -0.64968014 -0.42108658 -0.44329935 0.5396501 -0.34596947 -0.5642073 0.07306338 0.44654796 -0.015998876 0.1262549 0.02608969 -0.4017876 -0.44717497 -0.16217457 0.20088796 -0.052396134 -0.4658808 0.1694173 0.34738046 0.17108396 0.5720594 0.025670987 0.7882846 0.7227463 -0.15136322 -0.4382019 0.6320835 -0.3615703 0.047241885 0.11179827 -0.23591827 0.12423225 -0.60491025 -0.51616746 0.05495309 -0.033011828 0.045189276 0.15153435 0.41621748 0.44360417 0.17249112 0.23373158 0.5435119 0.061433785 -0.13633884 -0.02938304 0.023514051 0.48733246 0.18800135 0.09819056 -0.1571975 0.09409671 -0.34103355 0.16318476 0.7682 0.20174724 -0.5558291 0.5961286 0.4510412 -0.38263422 -0.08050826 0.16379859 0.38867548 0.051497974 0.58635783 0.43060794 -0.8845964 0.14786606 -0.38799307 0.16193125 0.1498445 0.10278688 0.0505108 0.10885115 -0.03036168 -0.18942894 -0.10646731 -0.22511351 -0.1970684 0.5744938 0.05016939 -0.2888358 0.20000432 -0.009964361 -0.23844415 
cn.jbone.common.rpc.Result.wrapSuccess -0.08259752 0.32931155 -0.07108431 0.35875803 -0.41403344 -0.33029124 -0.08836269 -0.35004622 -0.012592128 -0.37599885 -0.35123682 0.117437035 -0.9355237 0.6178133 0.36799687 0.14536647 0.29808292 0.12961598 -0.24194866 -0.18140869 -0.67124605 -0.44609517 0.79957795 0.023234649 -0.5120697 -0.65918654 -0.5127668 -0.09778742 -0.34854695 0.26632893 -0.4308588 -0.101389505 -0.29342026 -0.09343395 -0.4713676 0.15837067 -0.42312664 0.37251458 0.5647892 -0.10832173 0.47933403 0.8467999 0.27339217 -0.34384263 -0.30109558 -0.40294817 0.4288862 -0.7047549 0.32170507 0.0033505221 0.061719757 -0.35272467 -0.5653933 -0.05957754 0.19826941 0.062595785 -0.34220198 0.43527132 0.33599705 -0.29335237 0.18803106 0.38463056 0.10463942 0.2844322 -0.010285921 0.93455094 0.37987953 0.3759719 -0.445238 -0.10284389 -0.5802044 -0.026059601 0.07372487 -0.34413904 0.55144656 -0.39817753 -0.37167847 -0.42980653 0.10807903 0.13765481 -0.08015314 0.7476574 0.08600159 -0.23174147 0.32681224 0.31337008 -0.33017924 0.09081107 -0.16789939 -0.65016145 0.82170147 0.23056564 0.024746684 -0.1479654 0.5472538 0.42024893 0.3287125 0.41480365 0.3756271 -0.5324742 0.17181547 -0.35225362 0.299109 0.40073103 -0.15969338 1.0268323 -0.74119043 0.61014634 0.17061366 -0.58868 -0.23840755 0.082560726 0.256183 -0.25547478 -0.14344981 0.11197538 0.023601862 0.32947788 -0.24505965 -0.026795855 -0.18341996 -0.83163255 0.503454 0.19744821 -0.7548557 -0.31230086 -0.27305886 0.6365245 
cn.jbone.common.dataobject.SearchConditionDO 0.24862695 -0.22571445 -0.24108358 -0.30220202 -0.31723252 -0.23941231 0.49995717 -0.29251552 0.26282963 0.12055183 -0.15049015 -0.5494545 0.22488922 -0.079826966 1.1943628 0.41949487 -0.26818162 0.19084679 0.038499687 -0.3238933 -0.3271311 -0.19275045 0.42617998 0.550628 -0.59388256 0.0025935387 0.18891568 -0.39819318 -0.23231079 0.80052614 -0.6270532 -0.049755402 -0.33171093 -0.13417047 0.18797214 0.10821798 -0.14988777 0.37461585 0.09945399 -0.45039245 -0.23686613 1.5840538 -0.16444105 -0.3786759 -0.06469929 -0.49618858 0.34055707 0.004350385 -0.787012 0.66200465 0.13230304 0.46313295 -0.49875382 -0.41177517 0.18223302 -0.5528841 -0.76131433 0.47627172 -0.04995076 -0.056220874 -0.29338244 0.8919113 0.012785613 0.7218152 -0.4619716 1.0480864 0.6280254 -0.59051967 -0.20579335 0.5248735 0.08290242 0.943206 -0.13629468 -0.13169722 0.058501583 -0.7895247 -0.2748916 -0.5699386 -0.023627542 0.25139257 0.11079064 0.27401802 -0.21679805 1.0136864 -0.06890136 -0.2377481 -0.06351678 0.47275433 0.2574488 -0.31406066 -0.047278475 0.13690634 -0.10345586 -0.91416895 0.47305474 0.7341912 0.28013936 1.1634117 -0.19590849 0.024877863 -0.44640332 0.6202345 -0.104030974 0.17408022 0.7322632 0.53594047 -0.46332833 0.96323216 0.34490326 -1.0028865 -0.06420476 0.014743145 0.4396855 0.26481685 0.29128426 -0.23385149 1.0383097 -0.23367004 -0.45116544 0.20810504 0.15469415 0.34311885 0.30115774 0.4165217 -0.37760216 -0.040093634 -0.07948105 -0.010796451 
cn.jbone.common.dataobject.SearchConditionDO.build -0.23115182 0.054190535 0.30299693 -0.23923284 -0.0939845 -0.38433367 0.12157102 -0.3900081 -0.20585601 -0.11669409 -0.030060345 -0.40141067 -0.082388796 -0.12647532 0.61030716 0.1810033 -0.15405518 0.09068966 0.21203592 0.2588286 -0.3382456 -0.3059135 0.35985047 0.18167058 -0.5100719 -0.27248874 -0.003560488 -0.31665313 -0.47810763 0.60324025 -0.57365286 0.12748018 -0.1309742 0.11196126 0.28511435 0.37945685 -0.20942259 0.6279256 -0.049787775 -0.3123492 -0.11934025 1.1017233 0.076863885 0.2532846 0.28316057 -0.33538574 0.04436441 -0.56598395 -0.0622944 0.4241424 -0.36913338 0.13812102 -1.0724182 -0.39883363 0.47300977 0.0625698 -0.853841 0.51690245 0.36102077 0.17245913 -0.44074938 1.0876759 0.4216121 0.30146557 -0.3927803 1.058279 0.43158737 -0.2658574 0.20070063 -0.057101257 0.20977792 0.5546286 0.012577713 -0.079481676 0.1812617 -0.40378729 -0.29784885 -0.80415994 0.049703725 0.44424084 -0.040885504 0.6707303 -0.6718554 0.7152183 0.0795298 -0.25821754 -0.4199036 0.44100618 0.33063003 -0.9824819 0.23461685 0.20566227 0.13972068 -0.938899 0.60886604 1.0898817 0.14461578 0.7292039 0.26334235 0.2941684 -0.92305243 -0.050715916 0.30330226 0.73734033 0.38867494 0.68164635 -1.0504129 0.7157288 -0.1916106 -0.51547164 -0.095265284 0.36528298 0.29461265 -0.18948601 0.1257571 -0.41666612 0.82068527 0.18808644 -0.37133956 0.045532428 0.35855338 -0.17015319 0.15548453 0.4231974 -0.3547292 -0.37451547 -0.23631173 0.89840126 
cn.jbone.common.dataobject.SearchConditionDO.SearchConditionDO -0.09109646 0.12187585 -0.25044733 -0.6419037 -0.028067088 -0.09656408 0.20771927 -0.12514107 -0.0068765627 -0.028628388 0.1422806 -0.20328987 0.24995856 -0.026506873 1.4054468 0.17244932 0.6324368 0.3767135 0.48847136 -0.2803309 -0.30741554 -0.30396104 0.014458511 0.15830173 -0.7206299 -0.014241885 0.6801756 0.028934285 -0.06781146 0.66657424 -0.621245 -0.09011532 -0.1970451 0.45615667 -0.38545346 -0.07239992 0.32198736 0.08870292 -0.14898364 -0.6259462 0.009588264 1.1067204 0.06969031 -0.25512376 -0.21218875 0.3399951 0.261856 0.06194449 -0.18901335 0.028018182 -0.5132437 0.21500362 -0.7874777 -0.71933717 0.18353917 -0.06971631 -0.7254427 0.88360876 0.14241974 0.41570377 -0.36137587 0.5087616 0.16419129 0.2757713 -0.35602987 1.0366292 0.6094107 -0.68036246 0.697065 0.13661174 0.0021601515 0.8736588 0.050875008 0.06867677 0.56026673 -1.1078119 0.067575596 -0.8224137 0.70220476 0.2960784 -0.02686998 0.67916954 -0.69987994 1.0902417 -0.35261032 -0.28475773 -0.081263945 0.739203 0.11365515 -0.24278453 0.059487116 0.23935121 -0.048912965 -0.7091578 0.6015481 0.92722726 0.13583583 0.8687351 0.089750245 0.7986844 -0.8167949 -0.11847402 0.35485214 0.45738328 0.79696304 0.9277588 -0.6392423 1.1538284 -0.08360031 -0.52916944 -0.15910204 0.30561554 0.36165518 0.10357578 0.569435 -0.78995895 0.8678407 0.18928665 -0.5463233 0.05847913 0.2350998 0.27010226 -0.41594806 0.15218164 -0.5092509 0.15598242 -0.23434085 0.16695362 
Serializable 0.43277088 -0.0557226 -0.0008537725 0.6737156 0.4739044 -0.44073665 0.1684417 0.42475393 0.04393748 -0.029676303 0.24081057 0.07114217 -0.17432854 0.24248344 -0.25288898 0.10434883 0.67735964 0.07429585 -0.00908639 -0.24290533 0.3854526 0.25184467 -0.0860001 -0.12312663 0.0063917814 -0.28169036 -0.29705504 -0.28864488 -0.72671646 0.06945608 -0.33589396 0.2523219 0.12034423 -0.17610799 -0.5962506 -0.32068384 -0.09995066 -0.46368018 -0.2668222 -0.6299106 0.3449176 0.51303583 0.10552444 0.07726322 -0.0640345 0.13677482 -0.3167502 -0.21382973 0.15470846 -0.6880078 -0.6787952 -0.09907687 0.07513592 -0.2180674 0.40204743 -0.32386196 -0.57559955 0.99260825 -0.39117548 -0.03894771 -0.40032482 0.06702376 -0.26785094 0.26336777 -0.7651002 0.14920379 0.17197305 -0.09341338 0.29344666 0.027450403 -0.0144524025 -0.076005846 0.5979726 0.22238734 0.14469385 -0.012767922 -0.10018606 -0.6607838 0.6757997 -0.0065887147 -0.18997097 0.5722366 -0.08301612 -0.44103262 -0.5598775 0.27357823 0.4594362 -0.02862467 0.4466154 -0.42673823 0.51575196 0.30157584 0.036309637 0.5635911 -0.050280146 0.35293743 0.6735543 0.00897731 -0.079612434 0.15881531 -0.5845623 -0.055166014 -0.074064866 0.025078163 -0.55780035 0.33507222 -0.109870955 -0.34648085 0.12106546 0.3520695 0.20709626 -0.068133615 -0.41012263 -0.18066745 -0.17103831 -0.2818699 -0.08425363 -0.0128427455 -0.13665292 -0.7202027 -0.04719617 0.4275903 -0.7324277 -0.2176992 -0.23304446 -0.0015964367 0.8018758 -0.14923695 
cn.jbone.configuration.props.rpcs.ItemServerFeignProperties -0.12886956 0.16217296 0.034217574 0.46458557 0.045015078 0.11547515 -0.25980765 -0.025761817 0.07963762 -0.09941551 0.21550882 -0.09051139 -0.27600965 0.22781159 -0.017485142 -0.022670511 0.46071368 0.30384868 -0.1739782 -0.017814837 -0.21694629 -0.14354296 -0.07752952 -0.20848863 -0.2555262 0.0069095134 0.1535376 0.31602028 0.118044086 -0.014548465 -0.1494851 -0.09187845 -0.24572764 0.1451237 -0.31319526 0.1026302 -0.11479705 -0.1715382 0.075800754 -0.032087617 0.30632898 0.21092995 0.07790908 0.042623114 -0.036558706 0.04325861 -0.023488011 -0.5544092 0.07825628 -0.39533126 0.08432789 -0.35468203 -0.10816403 -0.08051134 -0.2100919 0.26078156 -0.15284854 0.6073259 0.2493928 0.08165649 -0.08528248 0.2220154 0.100949414 -0.24989448 0.116310745 0.25080958 0.4152689 -0.009617913 0.09579125 0.10485525 -0.18518654 -0.16156329 0.2566237 -0.12580393 0.12230839 -0.25400123 0.060093824 -0.093398295 0.17685631 0.24212046 0.04036687 0.11921145 -0.12935895 0.006895501 -0.09759908 0.10499439 -0.09655169 -0.2640415 0.28362614 -0.23482944 0.16768949 -0.2013723 -0.08295979 -0.086580485 0.20678155 0.40085 0.21161774 -0.06842453 0.38707492 0.1991245 -0.13242398 -0.09738245 0.1459657 0.109537855 -0.2862701 0.15423371 -0.15185829 0.13223776 -0.20543173 -0.1156833 0.1356841 0.24340807 -0.09748907 0.07953295 -0.051503237 -0.07766768 0.21713908 0.07429494 -0.03566057 -0.06037328 -0.15434022 -0.2449735 -0.37927964 0.006857406 -0.09777568 -0.018743005 -0.07465963 0.27823797 
cn.jbone.common.dataobject.SearchListDO 0.29399255 0.16602017 0.061807238 0.85902077 0.55735195 0.054178696 -0.32271105 0.15985869 0.1335494 0.26292634 0.7310623 -0.7824122 -0.56561846 0.07000388 -0.28998497 0.18124539 0.60049045 0.27686602 -0.6715767 0.21648425 -0.2536576 0.042594798 -0.2271103 0.3709134 -0.42791587 0.43175685 0.19768293 0.16082151 0.1374215 0.42215008 -0.36023945 -0.14007749 -0.9109774 -0.6677999 0.2709339 0.04546034 0.01065041 -0.5709477 -0.25356477 -0.30519727 -0.11735 0.62981206 -0.3127901 0.5256555 0.6444839 -0.13766263 -0.2702407 -0.92437136 -0.7103861 -0.21550235 -0.027858835 0.026869008 -0.043068107 0.26476422 0.036332563 0.40160716 -0.61357343 1.2228366 -0.109780125 -0.027039511 -0.44130832 0.384968 0.09884946 0.0065669874 0.24918884 0.9515869 0.22225547 -0.29181102 -0.0022782404 0.23661608 0.25339898 -0.036755458 0.31785965 -0.41414428 -0.21525602 0.28322634 -0.027273152 -0.067324586 -0.05407625 0.14794113 -0.15585685 0.051468957 0.08997201 0.505774 -0.42279568 0.13878681 0.21989556 -0.17943083 0.9879697 -0.25046858 0.31002736 -0.16028057 0.28754583 -0.19435832 -0.0657737 1.5366304 0.81578803 -0.23118143 -0.07038403 0.32613364 -0.6656812 1.0740942 -0.012729001 -0.09535829 -0.4717796 -0.25932643 -0.24883993 -0.45395905 -0.004456206 -0.64252627 0.36580974 0.3753052 -0.11277439 0.3121974 -0.21466084 -0.104769535 1.0783333 -0.07544715 -0.003997108 0.22387996 -0.4495054 0.66600704 -1.0351542 0.16450454 0.18930238 -0.14851302 0.8515695 0.47259715 
cn.jbone.configuration.props.rpcs.DecorationServerProperties -0.07016775 0.10556687 0.005621222 0.26743576 0.013030552 0.06281271 -0.14615469 -0.032327622 0.04466493 -0.062266644 0.11163247 -0.055179507 -0.15660225 0.12873074 0.0050524054 -0.0019872577 0.24522017 0.17920871 -0.116359234 -0.018194228 -0.12625754 -0.087226406 -0.03631532 -0.120146036 -0.15346725 -0.017081292 0.07639376 0.17388749 0.05767246 -0.012367915 -0.09750169 -0.039401 -0.14922647 0.07713503 -0.18902066 0.060970753 -0.082351334 -0.103139296 0.052937288 -0.013905901 0.19086343 0.1403275 0.054150555 0.014885053 -0.027867265 0.015339359 -0.0010744134 -0.3303367 0.038768504 -0.230451 0.061375175 -0.20886593 -0.06583736 -0.046504844 -0.14350738 0.12591977 -0.0856565 0.3388319 0.14820229 0.04038713 -0.039680578 0.1398471 0.065255016 -0.13064611 0.07470648 0.15407814 0.2544515 0.0018163822 0.026132237 0.07783392 -0.11577258 -0.08620527 0.15404646 -0.0826237 0.06906566 -0.1556763 0.01814716 -0.06604327 0.09341073 0.146591 0.021341924 0.07159072 -0.05534733 -0.0040965555 -0.04636421 0.07577568 -0.07135789 -0.15830183 0.16226313 -0.14101566 0.10906254 -0.11255104 -0.051677924 -0.041369658 0.12323735 0.22017902 0.12463085 -0.015119864 0.23620093 0.09712875 -0.06595075 -0.044537902 0.0652405 0.06678073 -0.17123225 0.091870084 -0.08543508 0.101762936 -0.123289585 -0.07045177 0.08174399 0.13243347 -0.047080126 0.037333403 -0.03814319 -0.022781942 0.13075398 0.041113503 -0.030700123 -0.03755793 -0.09049536 -0.14799534 -0.20429064 0.005811081 -0.057103038 -0.008565788 -0.043599438 0.15710118 
cn.jbone.common.rpc.Result.wrapProtectedError -0.16011986 0.41809213 -0.11948026 0.18994655 -0.38614133 -0.10969504 -0.090770714 -0.77292883 0.07794779 -0.7190362 -0.2181923 0.10059875 -0.8617776 0.6545895 -0.02515292 0.10067645 -0.046734374 0.22927532 -0.30947036 -0.204744 -0.41513544 -0.35358688 0.6440176 0.0725789 -0.32155856 -0.896332 -0.6208168 0.023595607 -0.37051293 0.32230252 -0.24997719 -0.28684318 -0.6230462 -0.13214612 -0.28986734 0.30108798 -0.6037789 0.5491518 0.32474798 0.10264931 0.44243535 0.8598097 -0.11888406 -0.124630615 -0.045422036 -0.39118364 0.29068974 -0.9040873 0.066540666 -0.076976754 0.31395876 -0.19111697 -0.5165067 0.19502011 -0.13257484 -0.03140997 -0.14734603 0.2345417 0.2415295 -0.4361757 0.10281353 0.67191476 0.50353193 0.33640742 0.16673681 1.0959014 0.5094109 0.15844825 -0.23869509 0.27404276 -0.32542503 -0.21849065 0.109875485 -0.29219225 0.24228793 -0.43131834 -0.5337089 -0.20692626 -0.06518964 0.2084749 -0.0918674 0.7840194 0.2713631 0.08174086 0.45544446 0.5960765 -0.5095541 -0.27800712 -0.096706234 -0.6078646 0.7713875 0.113396846 0.37696862 -0.18971288 0.325606 0.13928635 0.05143248 0.51284564 0.6499075 -0.2557114 0.17561051 0.05132607 -0.093323365 0.3978974 -0.046780854 0.6056849 -0.6012362 0.5014615 0.030583847 -0.6721304 -0.031147813 -0.070902206 0.15679859 -0.23779647 -0.13014343 0.0037784877 0.034344587 0.39069772 -0.28400552 -0.016497787 -0.017041551 -0.8022253 0.66316235 0.22017467 -0.22568673 -0.21829106 -0.13487789 0.5991473 
cn.jbone.common.utils.PasswordUtils 0.76672494 0.8019014 -0.47537908 0.23643906 0.32412013 -0.098733634 -0.5482955 -0.32769606 0.3269298 0.08587109 0.63527834 -0.4019696 -0.5332547 0.10622058 -0.13996206 0.543491 0.30005464 -0.24981225 -0.097706676 0.14781381 0.4857595 -0.002766253 -0.54020315 -0.28792498 0.45563805 0.03459928 0.39964375 0.03710185 -0.6412502 0.2694273 -0.1785618 -0.18357143 -0.013100589 -0.20517065 -0.13305527 0.09347257 -0.38415557 -0.1554586 -0.18735966 0.26469123 0.53397965 0.08264789 0.12782823 0.009068989 0.15068564 0.015942708 -0.53453034 -1.199089 -0.040728185 -0.8833919 0.23160148 0.26303077 -0.39497587 0.79298705 -0.68806076 0.02761207 -0.1750497 0.7806501 0.46707726 -0.88546264 -0.2561523 0.37675604 -0.08753412 0.3493698 0.04999972 0.5464975 0.6277242 0.058185987 -0.41108695 0.1493446 -0.3424377 0.049149845 0.22107674 -0.681171 -0.32157475 -0.08994131 0.3582848 -0.036174607 0.16285866 0.57191527 -0.23250788 0.15150914 0.7212105 0.25722656 0.34813026 0.8907394 -0.76401424 -0.70883054 0.36230165 0.22275773 0.58783257 -0.3910325 0.34025753 0.24309139 -0.28905413 0.23860383 0.6857218 0.07458988 0.7903049 0.25121072 -0.11972648 1.1946882 -0.7283933 0.1964431 -0.58534694 -0.76445204 0.42268246 0.45485926 0.53389275 -0.44605243 0.2523838 0.26583257 -0.4847551 -0.36412147 -0.47346416 0.44833583 0.40777263 0.11664886 -0.94033563 -0.05624182 0.019115852 0.46500957 0.24426536 0.22391409 -0.5010531 -0.2659762 0.3610486 -0.092328675 
cn.jbone.common.utils.PasswordUtils.main 0.33880633 1.0244693 -0.3127596 0.07007143 0.13443187 -0.13246007 -0.31296426 -0.658702 -0.13589185 -0.07867483 0.33002004 -0.2136625 -0.60474384 0.03869045 -0.1030948 0.21573423 0.02916229 -0.16317782 -0.2602342 0.498793 0.5188128 -0.25507942 -0.47849974 -0.7334297 0.5519373 -0.5131508 0.24959156 -0.06913353 -0.62826806 -0.17209183 -0.062397365 0.089928955 0.07290101 -0.17748746 0.018019956 0.20333223 -0.5639245 -0.019700779 -0.07868449 0.22853114 0.84797335 -0.16186497 0.23419492 0.3083748 0.34683537 0.0024797777 -0.5954544 -1.371863 0.4089742 -0.8717324 0.1253433 -0.050180696 -0.7206909 0.6653371 -0.8285326 -0.0155239655 -0.13549009 0.33685306 0.71403956 -0.77031654 -0.011203314 0.63000965 0.06355061 0.0608021 0.22109254 0.53532827 0.6839896 0.16136871 -0.54558164 0.2573079 -0.55884314 -0.04922511 0.4642859 -0.70121866 -0.06288465 -0.055571362 0.13113177 -0.2361788 0.029066302 0.642941 -0.27840027 0.2509879 0.8832883 0.07033708 0.45180055 0.8662406 -1.0080853 -0.6409623 0.37334466 -0.16648532 0.61261886 -0.47601122 0.26129058 0.29772556 0.0642639 0.40784478 0.41449884 -0.09202289 1.1293027 0.019702682 -0.035320815 0.6941237 -0.51833045 0.36033303 -0.7245941 -0.6245735 0.09869596 0.60018766 -0.002594827 -0.1448029 0.28603974 0.44093964 -0.24525227 -0.6291421 -0.4837224 0.64128804 0.26801038 0.27830803 -0.97500485 -0.062335186 0.17872381 0.2439142 0.30143946 0.16652569 -0.23993795 -0.3825361 0.18001662 0.2642339 
cn.jbone.common.utils.PasswordUtils.matcher 0.62662464 0.5268056 -0.6425672 0.49820814 -0.11499018 0.3549363 -0.022845212 -0.38111475 0.33549383 -0.13157634 0.06889282 -0.25226355 -0.20386848 0.07636698 0.19510244 0.21934699 -0.054482482 0.43392232 -0.55564123 -0.2564622 0.17397402 -0.48475644 -0.16837727 -0.21239337 0.14710848 -0.24191336 0.17312239 0.14977938 -0.3840329 -0.08035175 -0.116367005 0.39997005 -0.27624154 -0.018273426 -0.6168158 -0.23522112 -0.46874797 -0.48448947 -0.009380608 0.006482831 0.9748651 0.59468377 0.3076485 -0.30348596 -0.2431052 -0.16869947 -0.0594743 -0.9511032 -0.36572927 -0.7413258 0.21305 -0.18357429 0.16167244 0.2862231 -1.0770639 -0.56966525 -0.051880557 0.2787332 0.49549085 -0.6649601 0.018987816 0.38339067 -0.13977511 0.21737799 0.07101058 0.27653676 0.97474927 -0.049013633 -0.94060487 0.5712121 -0.5836213 0.18615733 0.5138376 -0.74213076 0.04541756 -0.24148901 -0.20313193 0.09207494 -0.1471 0.3751758 0.14937453 0.016628318 0.9722856 -0.24485026 0.19520694 0.7552481 -0.19479628 -0.38925144 0.5613347 0.15546218 0.59443307 -0.27632228 -0.2124733 0.4495259 0.0044699702 -0.12824467 0.696349 0.34621495 0.94348896 -0.71766776 0.601445 0.8408596 -0.77414984 -0.20225205 -0.6769109 -0.6309687 0.6576453 0.6673243 0.07761184 -0.28538924 0.40446723 0.10120171 -0.032720726 -0.11375546 -0.12318675 0.82388103 0.38860908 -0.31717554 -0.44592547 -0.20992398 -0.22314097 0.5064372 0.017449627 -0.09094107 -0.17467245 0.2155952 0.22464882 -0.7814363 
cn.jbone.common.utils.PasswordUtils.getMd5PasswordWithSalt 0.63886976 0.5165341 -0.63532287 0.50443965 -0.116772495 0.35860905 -0.028218023 -0.39236403 0.32236588 -0.1343845 0.06750153 -0.2591827 -0.2195925 0.060988214 0.18863681 0.21252327 -0.06606019 0.44074798 -0.55876034 -0.24971326 0.15247332 -0.4900483 -0.16328853 -0.20439418 0.14757015 -0.22502999 0.14231887 0.14351787 -0.37962863 -0.08236268 -0.112388276 0.41322795 -0.27814278 -0.030176176 -0.5930161 -0.24250132 -0.47052237 -0.47425383 -0.0072194715 0.013359459 0.9601011 0.6005875 0.3052898 -0.28114095 -0.23701437 -0.17845519 -0.06459625 -0.96904784 -0.38104844 -0.73346084 0.21619605 -0.1815573 0.1731067 0.290233 -1.0745416 -0.5657531 -0.060014937 0.2631411 0.50659275 -0.68482167 0.032310404 0.39513355 -0.15179428 0.2315926 0.07487492 0.26954654 0.9774421 -0.047455918 -0.9569378 0.57177085 -0.58215225 0.19197541 0.5121815 -0.74872696 0.04177195 -0.20498253 -0.2217392 0.10185179 -0.17911811 0.37587023 0.15553653 0.010472226 0.9810922 -0.26708493 0.21145695 0.75300694 -0.19922082 -0.3856814 0.5705478 0.1558768 0.60326827 -0.27418745 -0.21592562 0.4425376 -0.00674027 -0.12262135 0.7016682 0.33539385 0.9558193 -0.7450643 0.6154137 0.870797 -0.7867992 -0.21851613 -0.69294375 -0.64611316 0.6575115 0.65501034 0.07377134 -0.28377533 0.41087985 0.10890582 -0.02397094 -0.12131394 -0.13478847 0.8450769 0.38488677 -0.32794365 -0.43161964 -0.20712051 -0.23112832 0.5093506 0.013968967 -0.08604179 -0.1559271 0.20952488 0.23481005 -0.78455347 
cn.jbone.common.dataobject.SearchListDO.setSort 0.74604183 0.35778868 -0.21419382 1.174884 0.6693553 -0.057881642 -0.65596485 -0.089060515 0.38068247 -0.13523969 0.61790955 -0.5049243 -0.88188106 0.47020942 -0.6262568 0.19287246 0.74648035 0.22079855 -0.6024121 0.014883295 0.0034537874 -0.322879 0.10817724 0.4984507 -0.05842429 0.2329025 -0.27061334 0.0643185 -0.6406611 0.7790015 -0.2321638 -0.49127942 -0.82270604 -0.5520644 0.0133513585 0.0009757201 -0.48122585 -0.4956003 -0.08968446 -0.28031382 -0.08006613 0.5309888 -0.04582527 0.3952183 0.2864816 0.014325932 -0.11479771 -1.0171158 -0.3748489 -0.6591346 0.15053847 -0.25117356 0.30312383 0.7265133 0.33492848 0.218981 -0.57792383 1.0858756 -0.1561566 -0.41490716 -0.6719181 0.64652306 -0.0803383 0.26208207 -0.08496116 0.8742105 0.23329817 -0.08725301 0.11419068 -0.1133466 0.34981093 -0.26247236 0.026816469 -0.50113344 0.0030037172 0.23062061 -0.10883925 0.08514315 0.014307798 0.01794055 -0.17104521 0.47332752 0.31492743 0.23949307 -0.3550522 0.7940626 0.13157456 -0.43856505 0.73058707 -0.26258478 0.81085855 -0.1826797 0.58070934 0.3568459 -0.022862926 0.58979017 1.1773525 0.17842202 0.19592386 0.022832105 -0.4372349 0.9897168 -0.48071787 -0.13331275 -0.5527 -0.30063647 0.022517521 -0.4272652 0.25971857 -0.7595407 0.15184411 -0.039502777 -0.27974176 0.27910691 -0.22614247 -0.2925499 0.7338489 -0.24250834 -0.3708709 -0.3435069 -0.5242436 0.46563116 -0.50507 0.3764664 -0.11919651 -0.21793155 0.9355789 -0.07644168 
cn.jbone.common.dataobject.SearchListDO.clearSort 0.24657196 -0.23929156 -0.3032718 0.8664725 0.54971933 -0.04266179 -0.45684594 0.55651534 0.6877517 0.104964085 0.5114253 -0.4441709 -0.45767808 0.2358456 0.24062009 0.19284332 0.9540709 0.47197157 -0.20349464 -0.34935874 -0.2191053 -0.1915232 -0.13863894 0.5335108 -0.5798805 0.26176044 0.4704296 0.33699197 0.010088907 0.79658335 -0.36800084 -0.5953659 -0.9759802 -0.108342364 -0.3975427 -0.3266556 -0.083192386 -0.5650175 0.2060556 -0.22624408 -0.19205719 0.72131217 -0.1014616 -0.20114616 -0.108796485 0.26454163 0.19872431 -0.43032235 -0.5833879 -0.5701553 0.031384625 -0.20739071 0.39475793 0.18414967 0.009324245 0.25077108 -0.80540556 1.3137925 -0.110683076 0.15591398 -0.3213736 0.3484993 -0.22040688 0.15226786 -0.37070763 0.6513789 0.62572587 -0.32369342 0.47457802 0.25800076 -0.073634356 0.10930033 0.35312 -0.031803023 0.36504933 -0.46054214 0.280624 -0.104003705 0.42604786 0.19218555 0.19852109 0.26139718 -0.020887071 0.5594851 -0.738364 0.18017118 0.63644826 -0.17262204 0.5785545 0.018056002 0.098894216 -0.011705108 0.12984948 0.054342035 0.12966622 0.6115445 1.0760638 0.3139178 -0.14955114 0.35795948 -0.20729774 0.5234721 -0.06816045 -0.34425533 0.056147706 0.1756059 0.19435944 0.18182077 0.49986532 -0.7757506 0.0036798539 -0.08507866 -0.31273136 0.70475435 0.017207699 -0.59853 0.6753576 -0.10089756 -0.41449544 -0.18863125 -0.63182026 0.24121857 -1.0099771 0.19873303 -0.5564626 -0.12322943 0.6438023 -0.59014463 
cn.jbone.common.dataobject.SearchListDO.addSort 0.18701652 -0.24950258 -0.26641354 0.88893193 0.5227651 -0.01241237 -0.473721 0.5566246 0.6637116 0.094454624 0.51824224 -0.44862908 -0.46217436 0.22333494 0.21865897 0.18901843 0.92207056 0.5082696 -0.21914017 -0.3332619 -0.2776307 -0.19817619 -0.15292826 0.5264227 -0.6106335 0.26138544 0.46194276 0.3735198 0.06868705 0.76872814 -0.37198573 -0.5567564 -0.98648083 -0.10325691 -0.40200648 -0.29905602 -0.083044305 -0.55589944 0.18750827 -0.20212562 -0.16666667 0.7396236 -0.1276204 -0.18016466 -0.074566245 0.24189903 0.18406704 -0.48358575 -0.6014931 -0.54712456 0.03702392 -0.21253474 0.3800743 0.16315824 -0.045685746 0.28364307 -0.7968657 1.3148571 -0.084452845 0.16663787 -0.30843696 0.34606513 -0.15968446 0.13967012 -0.34055355 0.6639184 0.6455369 -0.31506726 0.47229397 0.27147114 -0.08130603 0.09636509 0.3821236 -0.02484182 0.33674413 -0.44922325 0.272351 -0.07967665 0.39103323 0.21327114 0.21337031 0.23422794 -0.0400676 0.52880996 -0.7099903 0.14350754 0.6172089 -0.20550217 0.60000294 -0.015360886 0.09380246 -0.017973581 0.13846181 0.005790942 0.11909026 0.65051144 1.0505924 0.2948694 -0.10412359 0.35594392 -0.20236313 0.5214307 -0.031362 -0.3276904 0.047883164 0.15652505 0.16488475 0.17208071 0.45358768 -0.7579867 0.024978068 -0.057662494 -0.29715967 0.69438004 0.0025895108 -0.565477 0.68262273 -0.05861833 -0.36200815 -0.158018 -0.635978 0.20264243 -1.0344279 0.18354158 -0.5421248 -0.11684704 0.6135749 -0.5159293 
cn.jbone.common.ui.result.Result 0.011592702 0.27348375 -0.6010883 0.22080669 -0.49585396 0.52456486 -0.10006868 -0.078488596 -0.2977063 0.12546061 -0.15074097 -0.80845773 0.048842397 0.6322651 0.35917535 -0.33397 0.31483048 0.6672297 -0.0057837567 0.013388143 -0.35874143 -0.7945528 -0.028710913 -0.32041228 -0.61961615 0.025087299 0.29059044 0.11534466 -0.0023645132 -0.092324235 -0.14533466 -0.041644607 -0.11214841 -0.080451615 0.13813397 -0.19919702 -0.5337017 -0.71124154 0.62976855 -0.094302386 -0.40200213 0.25224102 0.6164136 -0.74576885 -0.55495054 0.32295308 -0.14393488 -0.16711335 -0.58843845 -0.6997678 0.43686417 0.13487247 -0.18868467 -0.2518966 -0.81546324 -0.35935727 0.1866876 0.53814673 -0.10414247 -0.26634035 -0.25940958 -0.23326023 0.041346747 0.08397216 0.45101088 0.6869438 0.23173876 -0.26929808 -0.4046222 -0.2519829 -0.31748715 0.104869455 0.50331473 0.0791767 0.33574444 0.0066249766 -0.22514507 -0.5103558 -0.35522535 0.3179089 0.45962924 0.0041518635 -0.62352943 -0.373902 0.0016457855 0.08585221 0.045847356 0.21249299 -0.43090984 -0.32916197 -0.16128616 -0.11036785 -0.20299694 0.51164794 0.10386415 0.6335348 0.6847239 0.12366898 0.8220888 -0.51512694 -0.01792508 -0.05999732 -0.28952432 0.038083035 -0.43447065 0.089963794 0.32045946 0.33820435 -0.2653276 -0.16992646 -0.62970066 -0.22207822 0.37195277 0.26497096 0.28644043 0.45300534 -0.030015143 -0.08072583 0.53065574 0.11430577 -0.15117215 -0.11374365 -0.30662093 -0.49780783 -0.29823458 0.3220537 0.424329 -0.6966048 
cn.jbone.common.ui.result.Result.Result 0.19226958 0.37819344 -0.33449438 0.03982188 -0.11811532 0.16409318 0.25923038 -0.20396943 -0.64356816 0.42584047 0.46434495 -0.6137328 -0.24523634 0.43275192 0.567701 -0.33132687 0.67160594 0.24734019 -0.12663275 0.03188516 -0.4385309 -0.24366602 0.12638007 -0.40927055 -0.821978 0.3944507 0.092258625 -0.15041968 -0.14671792 -0.14429304 -0.20753555 0.31887424 -0.023796862 -0.4469045 0.07700745 0.021170314 0.09591941 -0.7046567 0.36646616 -0.92300177 -0.1372482 0.4092271 0.5232128 -0.30555147 -0.4788295 0.19165039 -0.19561261 0.1557559 -0.40253735 -0.73287123 -0.23034629 -0.04051837 -0.7014849 -0.48514655 -0.19990365 -0.1955454 -0.19746964 0.9991454 -0.05612417 -0.16144896 -0.37386215 -0.23612155 -0.40282828 0.042325668 0.55239576 0.8793546 -0.032240376 -0.4015616 -0.42657703 -0.23706417 -0.35900784 0.37172884 0.41685194 -0.1791122 0.3114147 0.0413528 -0.32135317 -0.90558183 -0.017304137 0.12017355 -0.13647516 0.15252092 -0.5624627 -0.40757883 -0.22300662 -0.06572736 0.14882515 0.70546967 -0.2166377 -0.47616667 0.35894698 0.14363141 -0.22810107 0.29348633 0.52031916 1.4594864 0.7115304 -0.11148517 0.44470406 -0.16715495 -0.51166886 -0.16636606 0.08904649 0.2611849 -0.62618154 0.64224845 -0.27128688 0.006922543 -0.5293718 -0.15852264 -0.30163705 0.14464869 0.59963655 0.19798915 0.37527525 0.44851336 0.13058192 -0.07106513 0.79452646 0.2196646 -0.21346648 0.320382 -0.8812781 -0.36469927 -0.33052954 0.41378435 0.76892763 -0.11604799 
cn.jbone.common.ui.result.Result.setMsg 0.6191806 0.767733 -0.21693179 0.55438715 -0.049644403 0.19765502 0.034128632 -0.24490799 0.506232 -0.06968591 0.36871666 -0.12467581 -0.38928553 0.92800164 0.1558908 0.0796903 0.7935016 0.6258272 -0.31891412 -0.43530208 0.13945606 -0.6949563 -0.0017552151 -0.5742185 -0.24720684 -0.06555384 0.61533546 0.1832411 -0.5965842 -0.022104435 0.009331278 0.015753774 0.0961722 0.072079 -0.71795267 -0.019877689 -0.5914839 -0.77758646 -0.27835009 -0.3489508 0.6672922 0.33210137 0.47795242 -0.45868492 -0.4646389 0.17074707 -0.22587651 -0.5333754 -0.3963972 -1.3714356 0.09249123 -0.048182063 -0.12535931 0.0074841343 -0.5526235 -0.14524823 0.20247519 1.0779543 -0.18560229 -0.17061895 -0.7219393 -0.35197207 0.2736111 0.011980966 0.2725644 0.5913421 0.33341917 -0.31631604 0.12960735 -0.47796366 -0.1182992 0.0297645 0.43517956 -0.44905612 0.04648954 -0.29918963 -0.039164353 -0.21734087 0.54295945 0.15904471 -0.014853801 0.28682527 -0.27984557 -0.2805602 -0.05690327 0.6226451 -0.08970616 0.10958107 0.11087134 -0.33575025 0.71992767 -0.31480348 -0.14413452 0.53088486 0.15519169 0.4192632 0.7363775 -0.08620444 0.97370076 -0.037578683 -0.29144785 0.0050025624 -0.3549462 0.6184631 -0.7546691 -0.23901305 0.012480079 0.06169972 -0.42713198 -0.15843141 0.10764311 0.18630843 0.17800912 -0.18310264 0.30866286 0.11722879 0.20925285 -0.2223092 0.0113619445 -0.286591 -0.10156111 0.34580484 -0.45801866 -0.19670004 -0.25329673 0.63354903 0.24867775 -0.040321186 
cn.jbone.common.ui.result.Result.setStatus 0.63255465 0.7691188 -0.22318645 0.56692606 -0.051647343 0.19457704 0.020613711 -0.24845932 0.52133614 -0.0674625 0.37695286 -0.12597524 -0.3887887 0.9469451 0.15280414 0.07430716 0.8287635 0.6314062 -0.3361387 -0.43225577 0.13576083 -0.69640785 -0.0022831133 -0.5795365 -0.2521984 -0.05617368 0.620007 0.18896426 -0.5942348 -0.03788696 0.010121178 -0.006116103 0.089947544 0.075881556 -0.72292507 -0.015174547 -0.6019995 -0.78618103 -0.26492178 -0.3447888 0.65952176 0.31878883 0.46902454 -0.4621426 -0.4814153 0.18378292 -0.20896973 -0.5203103 -0.39239287 -1.3920894 0.10778557 -0.05782533 -0.11028272 0.016957656 -0.55267334 -0.14413364 0.22000247 1.0903225 -0.19930375 -0.16463956 -0.7169376 -0.36706135 0.25846887 0.006612106 0.29026064 0.57658195 0.33457428 -0.29719266 0.13575763 -0.47752148 -0.12086816 0.026288152 0.4295222 -0.43676007 0.050749537 -0.29290372 -0.04416201 -0.20472124 0.55067784 0.16032717 -0.01981062 0.2754601 -0.2742797 -0.29342267 -0.06131776 0.6303559 -0.086569816 0.09839091 0.107204765 -0.3226991 0.72381324 -0.32951966 -0.16017787 0.5474894 0.15489827 0.41029978 0.7362944 -0.09899763 0.97034556 -0.03528472 -0.2836159 -0.004236365 -0.36848193 0.6077131 -0.77411693 -0.24277896 0.017933456 0.052994635 -0.4314319 -0.15320951 0.10274803 0.17875947 0.17196535 -0.16760552 0.294397 0.11480186 0.20147845 -0.23319022 0.0089540705 -0.29284665 -0.11607805 0.33290517 -0.46789598 -0.19488367 -0.24520168 0.6334308 0.25787622 -0.04152565 
RuntimeException 0.3982109 -0.10771721 -0.59242266 0.12001078 -0.21201973 -0.031669095 0.1437549 0.43150857 0.7362769 0.37476465 -0.306622 -0.6497596 0.44148767 0.093016185 1.0167631 0.23189552 0.4455648 0.6012924 -0.58710486 -0.70882285 0.0647721 -0.2439215 -0.19149931 -0.06309643 -1.0000947 0.4188849 1.0074811 0.155697 0.7183293 -0.36980388 -0.018914128 0.41920552 -0.96828896 0.35254258 -0.50222117 -0.25435922 0.083722815 -0.66348535 -0.1428603 -0.013448485 0.27774283 1.2037671 -0.0945899 -0.32299423 -0.4698053 -0.26721126 -0.24112286 0.1373502 -0.56799144 0.06461476 0.1868892 0.018208727 0.20103635 -0.42938593 -1.1200382 -0.6695003 -0.50917697 0.44137242 0.10766518 0.55103534 0.579647 -0.4113636 0.092030555 0.22467394 -0.012965147 0.64034355 0.8718933 -0.0618659 -0.2495055 0.77608484 -0.69003654 0.7030554 0.333573 -0.57916236 0.05944176 -0.99844253 -0.34369183 -0.27838528 0.12507461 -0.08845764 0.5171925 -0.5553729 0.32433897 0.26876613 -0.5601172 -0.10214742 0.42946425 0.5088535 0.6932416 0.1695871 0.06577231 -0.4509731 -0.7063076 -0.5810047 0.3187896 1.1066172 0.6797243 -0.20398444 -0.20761013 0.12580615 0.40546796 0.6075152 -0.22987768 -0.4363952 -0.28564742 -0.16390581 0.59888947 0.7872908 0.41878775 -0.97423065 0.1205041 0.28609532 -0.09984408 0.5549588 0.26379946 0.3016521 0.64084685 -0.43997207 -0.26943263 0.2468405 -0.62062067 0.6476778 -0.30523166 0.16621497 -0.29202545 0.28802553 0.46659195 -0.089875884 
cn.jbone.common.exception.JboneException -0.2755373 0.35274693 -0.22460905 0.6142832 0.18623577 -0.019913848 -0.25849006 -0.44386858 -0.39321563 -0.21613078 0.22424339 -0.4649526 -0.2265968 -0.23142423 -0.4182407 0.20308027 -0.5589164 0.04087138 -0.73298234 0.16387801 -0.0352691 -0.12558179 0.20288287 0.43197298 0.027749583 -0.46723765 -0.7870491 -0.24156277 -0.58829767 0.37396854 -0.40300557 0.2961161 -0.74620885 -0.50614 -0.013769681 0.3033727 -0.64461136 0.1237539 0.26336253 -0.27992627 0.5493397 0.5969352 0.21779965 0.28401113 0.39320225 -0.34735182 -0.030107148 -0.6343721 -0.27518892 0.18002601 -0.04990033 -0.20214966 -0.4416173 0.49162087 -0.3052331 -0.2714802 -0.57817614 0.073947854 0.10058133 -0.39327145 -0.1065189 0.94150585 0.31470865 0.5657998 -0.009599494 0.96146256 0.3089904 0.22625487 -0.762398 0.3512402 0.06462029 -0.21920007 0.41020897 -0.37164208 -0.10442698 0.021167317 -0.52088416 -0.43632784 -0.5465722 0.074271046 -0.1123608 0.26015598 0.5352823 -0.067333534 0.27842698 0.28398132 -0.047788996 -0.57635283 0.74853253 -0.59362715 0.4803185 0.3046434 0.45518616 0.29691544 0.13758798 0.49671027 0.53600824 0.53816557 0.36792302 -0.46109053 -0.11945259 0.5277259 -0.2648726 -0.23812215 -0.13276882 0.08107754 -0.37766698 0.04465841 -0.08371627 -0.3396233 0.09951571 0.04317434 0.004502488 -0.04330143 -0.28281352 0.6326978 0.4161277 0.26656446 -0.2994251 0.012412021 -0.28292418 0.0982179 0.19896106 0.15145312 -0.17193215 -0.44113448 0.84090346 -0.032789376 
cn.jbone.common.utils.SpecificationUtils -0.69987094 -0.24214467 -0.7078054 0.1025715 0.18480738 0.7293902 0.05205033 0.2457177 -0.026575936 0.6258796 -0.47145244 -0.70461607 0.7959648 -0.5254831 0.7193049 0.09867833 -0.5984072 0.06661353 -0.37212276 0.14530689 -0.058497056 0.22298415 -0.35535 -0.1595787 -0.2489276 -0.68494344 0.6794599 0.1297978 0.29352412 -0.3820118 -0.55472285 0.659003 -0.12853914 -0.28938755 0.4189332 -0.29439503 0.2881652 -0.6962987 0.35834107 -0.24629143 0.49217907 0.85746634 0.07939582 -0.005419482 0.12577766 -0.0861381 -0.077584825 -0.2855472 -0.55621046 -0.00011725793 0.15008591 -0.116700344 -0.3637309 -0.46741 -1.0996432 -0.81066597 -0.46394226 0.46878746 0.41985023 0.4739397 0.114945635 0.8205341 0.09076417 -0.18211989 0.27271536 0.5400727 0.96631575 -0.4585946 -0.89245415 1.2367438 -0.27976695 0.42872182 0.8917028 -0.4593898 -0.31206152 -0.18239385 -0.1792256 -0.6856583 -0.09200638 0.49463415 0.11548135 -0.07040041 0.31244895 0.34882677 -0.45788535 0.005358307 -0.010138223 0.114046656 0.3433391 0.046692986 -0.86565864 -0.0041076657 -0.16957158 -0.3624254 0.2625312 0.65002227 -0.071211554 0.91304815 -0.03925608 -0.062409244 -0.0017196845 0.30352938 0.040222075 -0.10149679 0.1732685 0.14505923 0.7490847 0.86022776 -0.55686486 0.028918201 0.2228615 -0.3037789 0.29208475 0.5193551 -0.2259975 0.76873857 0.9030303 -0.008749811 0.22102158 0.15690477 0.064395934 0.14059396 -0.3594546 -0.055921834 0.21035516 0.154347 0.4700248 -0.36262345 
cn.jbone.common.utils.SpecificationUtils.generatePredicates 0.1312562 0.37531263 -0.40521127 0.53982747 0.06321142 0.36954072 -0.27419016 -0.30015653 -0.38116574 0.24708365 -0.36325032 -0.42325163 0.098608196 -0.50666827 -0.010389065 0.02802181 -0.6886752 0.25635505 -0.6078613 0.45175856 -0.2761097 -0.2748785 -0.42192218 -0.21821378 -0.17250249 -0.56777877 -0.12573515 -0.26439106 -0.4583141 -0.45229256 -0.3790522 0.8788388 -0.25245762 -0.18095362 0.7435995 -0.23337118 -0.0072091427 -0.4588599 -0.093484804 -0.07491751 0.34794965 0.95649385 -0.026450932 0.5188912 0.5096433 -0.15003864 -0.34102917 -1.1993898 -0.18004498 -0.5225931 0.019582404 -0.3018583 -0.3558883 0.14227796 -0.8584714 -0.61127406 -0.13266987 0.18486238 0.98164 0.030794619 0.12406274 1.1141244 0.37366405 -0.08083324 0.22183312 0.60376495 0.81976575 0.101885766 -0.885347 0.58320713 -0.09544578 0.41846398 0.53606755 -0.82090026 -0.2704777 0.29689837 -0.75135505 -0.23767333 -0.3588022 0.41069287 -0.22099203 0.050536767 0.85675204 -0.6146186 -0.075072475 0.38409585 -0.70914286 -0.31447697 0.47215477 -0.64345175 0.3155692 -0.26883054 0.25339282 0.027978014 0.12617986 0.65623164 0.5843579 0.5539529 0.7681423 -0.38513455 0.21237391 0.7271936 -0.46722183 0.13847849 -0.79990625 -0.3469384 0.3178169 0.24662338 -0.5295932 -0.057766654 -0.1350129 0.038909942 0.2500623 0.34286135 -0.64559543 1.0600338 0.6910171 -0.17965253 0.22609575 -0.27720624 0.046601627 -0.18783231 -0.4146951 0.28437355 0.60146725 -0.14087813 0.722739 0.035960518 
cn.jbone.common.ui.result.ListResult 0.19365974 0.6708007 0.025097283 0.3527427 0.13863584 -0.05850258 -0.071695134 -0.14530186 0.103460975 0.017212123 0.34786683 -0.11742788 -0.48676714 0.68122613 0.096996486 -0.015334539 0.7347725 0.33477482 -0.22261013 -0.084368885 -0.012499718 -0.450605 0.003539192 -0.45638138 -0.36972573 -0.14941837 0.5428935 0.046902813 -0.39840335 0.04393712 -0.035526004 -0.16316809 -0.11620655 -0.011087022 -0.27084205 0.16453174 -0.3228202 -0.44566864 -0.10042327 -0.31511438 0.2578619 0.022803947 0.29889998 -0.026314901 -0.14400889 0.25596353 -0.21079545 -0.3244627 -0.04874835 -0.9615716 -0.05472238 -0.17370458 -0.40964416 0.008548048 -0.15567707 0.13472751 0.0004191841 0.9222783 -0.124448664 0.15263073 -0.5707377 -0.15368587 0.349887 -0.14750114 0.31199852 0.6858537 0.0067654243 -0.1739133 0.40454647 -0.48302236 0.042738985 -0.024593437 0.2773512 -0.29810065 0.19766228 -0.19021988 -0.065485835 -0.4077121 0.48137322 0.057730064 -0.19093761 0.37255982 -0.4252317 -0.025301626 -0.20723452 0.21195188 -0.074401155 0.18887845 0.04466468 -0.5332084 0.5454739 -0.20561455 0.044996403 0.27532363 0.3891116 0.80528533 0.5538258 -0.17492704 0.54644907 0.32656398 -0.59310675 -0.25403133 0.09122324 0.60060817 -0.4560937 0.10568517 -0.42718285 -0.062223345 -0.4669066 -0.15432438 -0.110075355 0.2551692 0.22779271 -0.018639 0.19059949 -0.14307518 0.28445014 0.057731856 0.019133642 -0.016471699 -0.12802725 0.0011285413 -0.63051486 -0.046309352 -0.19420044 0.22675534 0.25199166 0.43240958 
cn.jbone.configuration.props.rpcs.SystemServerProperties -0.15824181 0.19306149 0.049846932 0.5640234 0.0647934 0.12751363 -0.3136856 -0.031863127 0.08254014 -0.112047225 0.2719471 -0.11872494 -0.32151642 0.25247914 -0.027821738 -0.025306502 0.55706686 0.367013 -0.20395051 -0.0038277851 -0.24916291 -0.1725575 -0.11186136 -0.25041127 -0.30268946 0.019478751 0.18622991 0.37420225 0.13228951 -0.009555304 -0.18602835 -0.10885748 -0.2854704 0.15946503 -0.3599782 0.12885328 -0.14405248 -0.21850446 0.07937178 -0.039554723 0.35830966 0.24463272 0.0849993 0.09317161 -0.022442542 0.06402423 -0.04416302 -0.67160064 0.079945564 -0.48391512 0.10599394 -0.4221764 -0.124885656 -0.094715066 -0.25781938 0.3075194 -0.19317853 0.7329988 0.30163905 0.103718586 -0.11463486 0.27785984 0.13133217 -0.294605 0.13960399 0.29455438 0.50236905 -0.013462601 0.12684658 0.13211648 -0.21604738 -0.19070391 0.32514188 -0.1434352 0.13613646 -0.29621464 0.074375674 -0.121282406 0.21053915 0.3009793 0.034370467 0.13435462 -0.15883453 0.010799387 -0.12611118 0.122565955 -0.1321912 -0.3201567 0.3536046 -0.2888988 0.19832323 -0.25071725 -0.08746312 -0.102715194 0.23776355 0.49437195 0.25299838 -0.06992107 0.4686991 0.26238263 -0.18659064 -0.093772106 0.1709606 0.14453274 -0.33446726 0.16604976 -0.18429738 0.14089404 -0.2651316 -0.13035695 0.16553941 0.28609222 -0.11642431 0.09246562 -0.07126611 -0.09829484 0.28385714 0.08322462 -0.04664638 -0.08319732 -0.18475783 -0.27249658 -0.48058745 0.0021667897 -0.10864743 -0.026280314 -0.06362787 0.34880114 
cn.jbone.common.rpc.ResultStatus -0.1401267 0.18724932 0.052541118 0.5241495 0.054398652 0.12007098 -0.29054686 -0.025206476 0.094914764 -0.10039223 0.24426016 -0.10505201 -0.3045863 0.24598357 -0.014007641 -0.016159609 0.5262416 0.34967962 -0.19736506 -0.013100354 -0.24335511 -0.15888967 -0.09313261 -0.22766918 -0.29100153 0.019893885 0.17682268 0.3604066 0.14768669 -0.00811305 -0.1764525 -0.09871934 -0.27246585 0.15357779 -0.34127074 0.11186677 -0.12898834 -0.20410825 0.07999877 -0.03623318 0.33885312 0.24419077 0.076870486 0.06262569 -0.026828108 0.035856564 -0.023717828 -0.63200635 0.07216392 -0.43520677 0.0996314 -0.3930642 -0.118503965 -0.09469673 -0.232018 0.30168563 -0.17252964 0.69213074 0.28052995 0.093031205 -0.09968102 0.24876754 0.11795315 -0.28225484 0.14403541 0.27579686 0.47172126 -0.013937735 0.09480421 0.12425294 -0.2103717 -0.17650805 0.29057437 -0.1470123 0.13274665 -0.27856418 0.06972262 -0.0994748 0.1959181 0.27956393 0.03376625 0.12356983 -0.14305909 0.023871541 -0.11593605 0.11030111 -0.11811871 -0.2945138 0.32837567 -0.26291433 0.18705665 -0.2307898 -0.095743254 -0.110016726 0.21886903 0.46533847 0.23975612 -0.07932754 0.42864454 0.23271215 -0.16379984 -0.09053301 0.16815498 0.12739353 -0.32008713 0.16267888 -0.1740183 0.14039394 -0.22644782 -0.13562553 0.16717131 0.28293833 -0.11013064 0.08407761 -0.062075425 -0.092872135 0.2635298 0.06946208 -0.045965664 -0.06702879 -0.1768381 -0.25515965 -0.43672964 0.0069025587 -0.10587754 -0.015214919 -0.087446004 0.32825634 
cn.jbone.configuration.props.JdbcProperties -0.15258853 0.18920216 0.051135145 0.56454295 0.06510207 0.12809142 -0.32208496 -0.027429882 0.08331042 -0.1169289 0.27906236 -0.116476186 -0.3332094 0.2524091 -0.03182067 -0.021097982 0.5520755 0.3659084 -0.2010272 -0.0073907343 -0.24977927 -0.16604868 -0.1117123 -0.24292448 -0.29021415 0.030434841 0.17970671 0.37724656 0.14138106 -0.0047396594 -0.18205288 -0.10192044 -0.28286707 0.15827993 -0.3701157 0.12857784 -0.14471692 -0.2146144 0.06910413 -0.040215418 0.37258133 0.24616973 0.08476375 0.08362867 -0.012911195 0.050416913 -0.05089322 -0.691686 0.08640438 -0.48155543 0.09692606 -0.41897225 -0.12842694 -0.09049123 -0.253292 0.32288334 -0.19687226 0.7412514 0.31846988 0.09751956 -0.11484117 0.28450882 0.12486471 -0.2925212 0.13451034 0.29106325 0.5079747 -0.016612751 0.123702705 0.13435823 -0.21525662 -0.18885274 0.32333392 -0.1499508 0.12855226 -0.2930115 0.08221096 -0.115086675 0.20352049 0.30247876 0.040142756 0.13755621 -0.15052289 0.014264834 -0.11789242 0.12559828 -0.13426745 -0.3268862 0.36649448 -0.28265986 0.20198269 -0.24354345 -0.08336174 -0.11491486 0.23143883 0.49274415 0.25982144 -0.075400196 0.47479805 0.2601401 -0.18056434 -0.082876615 0.17396446 0.14398481 -0.3403903 0.16176309 -0.1803638 0.13885514 -0.24320428 -0.13174985 0.18369257 0.29582596 -0.12948056 0.07562701 -0.06843007 -0.10753371 0.27886668 0.0887751 -0.04989367 -0.08265563 -0.18015014 -0.26323092 -0.46849743 0.0050112596 -0.113799974 -0.02519671 -0.07921349 0.3408679 
cn.jbone.common.service.AbstractService 0.05403998 0.1599141 -0.61699027 0.46760288 0.03851522 0.18961938 0.006046074 0.052555464 0.08563466 0.7511923 -0.051209558 -0.65666753 0.59503645 -0.42432103 0.621677 0.007934972 -0.083652094 0.4113454 -0.73678 -0.18804233 -0.27496102 -0.020892462 -0.25654525 -0.12829387 -0.9402612 -0.07520541 0.33871308 0.13813499 -0.1469289 -0.64444345 -0.30342007 0.8885826 -0.47954458 -0.15428801 -0.016975345 -0.32889074 0.11766178 -0.75914204 0.46084183 -0.38541988 0.28924984 0.7899377 0.49326453 0.09615322 -0.26211584 0.006491767 0.4272226 0.03409794 -0.76163435 -0.4747571 0.079461895 -0.47152194 -0.17170288 -0.3526656 -0.74928796 -0.6376979 -0.1143678 0.27725974 0.2601357 0.47584018 0.23884118 0.6639016 -0.18982062 -0.24206261 0.4942228 0.13495088 0.9757898 0.22715905 -1.0360351 0.8523348 -0.083037 0.36322913 0.72503227 -0.4861493 0.14412689 -0.12375358 -0.6979569 -0.6081745 0.14768377 0.37090343 -0.069229715 -0.18635775 0.30727884 -0.49910957 -0.39940545 -0.116597146 0.17576692 0.2870916 0.2639716 -0.3140142 -0.0323937 0.08665543 -0.8787246 0.11281241 0.2025358 0.46090057 0.4898315 0.49504346 0.024740508 -0.24940652 0.2258687 0.21219712 -0.19239064 -0.29633495 -0.85836697 0.04927938 0.46603954 0.7121433 -0.8193364 0.07390142 -0.26024613 0.00017698055 0.48257133 0.7243271 -0.36286148 0.9824296 0.62156117 -0.5347561 0.36177737 -0.13151388 -0.5196543 -0.19348904 -1.101755 -0.11351149 0.4744207 0.2338124 0.7882608 -0.4015945 
cn.jbone.common.utils.DateUtil -0.75213194 0.28763387 -0.06391053 0.636137 0.27906254 0.27920592 -0.33224848 -0.21796274 -0.5968098 -0.022917215 0.051713485 -0.32700807 0.4621076 -0.5885018 -0.20474207 -0.06121739 -0.6011139 0.26447204 -0.6342844 0.426372 -0.091794565 -0.037007984 -0.5217345 -0.3171093 -0.2835377 -0.39804652 -0.13945925 -0.11482766 -0.17635901 -0.38637286 -0.5128927 0.7312751 -0.45353246 0.04794626 0.3339388 0.14026363 -0.1449261 -0.3523785 -0.0705824 -0.26666236 0.6474636 0.63132566 0.066143356 0.615755 0.7097159 -0.115821525 -0.44244474 -0.88861245 0.12513278 -0.18173186 -0.11101327 -0.6541329 -0.61328006 -0.116113745 -0.6793077 -0.21464264 -0.34358525 0.3024629 0.780123 0.44382837 0.00094579865 1.2416353 0.49258405 -0.3350771 0.13479432 0.46728683 0.7283531 0.15753143 -0.4228416 0.72861856 0.06460059 -0.07000252 0.62848496 -0.48139063 -0.23791325 -0.23690769 -0.40007508 -0.46730685 -0.242327 0.45608667 -0.2785843 0.0991321 0.42086822 -0.21389183 -0.12767737 -0.028616665 -0.4159322 -0.6234776 0.7977502 -0.814972 0.020527184 -0.24327803 0.19958854 -0.16005173 0.3928892 0.74794614 0.21831974 0.4244145 0.45075193 0.36576885 -0.34218636 0.09583854 0.11007085 -0.044427164 -0.37693962 -0.028439198 -0.29862863 0.034133513 -0.84224236 0.220304 0.06722985 0.2943969 0.05572777 0.35378498 -0.53206605 0.58917975 0.7218828 0.23999195 0.0006971868 -0.27778143 0.07469391 -0.27187634 -0.5801285 0.1359938 0.594619 -0.16078514 0.53853095 0.46081755 
DateUtils -0.48746035 -0.05703138 -0.67150855 0.24443243 -0.0031427545 0.28779647 -0.13174386 -0.0052199685 -0.5244738 0.5963499 -0.35338825 -0.93365 0.3555578 -0.5198076 0.48440817 -0.069436006 -0.6721453 0.009756126 -0.51603025 0.31379282 -0.38544258 -0.13648948 0.07927606 -0.02160364 -0.6576835 -0.59905773 -0.028187118 -0.09681594 -0.18597539 -0.38682544 -0.46503744 0.9166294 -0.29613814 -0.6847347 0.64237857 -0.10901002 0.009512431 -0.40887073 0.69496506 -0.37945828 0.1269369 0.9187868 0.45790392 0.25935394 0.07435325 -0.1282114 0.08167493 -0.18804404 -0.59962934 0.042673077 0.14188996 -0.16017114 -0.6387003 -0.20635295 -0.77231234 -0.7437274 -0.5041151 0.09455483 0.24132837 0.2715367 0.1596663 1.0603721 0.002138029 0.1597096 0.4724659 0.8548522 0.75186807 0.03533724 -1.1464529 0.87666273 -0.18000981 0.38203767 0.7038468 -0.422744 -0.067706175 0.16559699 -0.76915187 -0.9651645 -0.42644536 0.42512938 0.089369856 0.06828639 0.2792882 -0.22771281 -0.13231987 0.037273996 -0.13428651 0.3025496 0.11646868 -0.63849884 -0.24796005 0.33499843 -0.09048936 -0.22644769 0.25987092 0.8251317 0.2985464 0.88063574 0.043924272 -0.4530868 0.0725318 0.3505988 -0.0210933 -0.024141748 -0.39045474 0.3071348 0.37884906 0.64971495 -0.7369232 -0.02560369 -0.32450825 -0.38392296 0.6676674 0.48833588 -0.3470849 1.0700336 0.62152517 0.0009640173 0.4984421 0.08315588 -0.21066271 -0.23326348 -0.3485324 0.005700026 0.15545756 0.0029657148 0.9152677 -0.032730177 
cn.jbone.banner.AbastractJboneBanner 0.28231743 0.4598666 -0.8085931 -0.30121002 -0.17098385 -0.3113514 -0.18463007 -0.5903898 0.17754132 0.1925857 0.064283535 -0.40620065 -0.1246161 -0.027814794 0.5592719 0.26620927 0.26261812 -0.4899346 -0.2489786 0.009249519 -0.07665616 0.115516506 -0.14299084 -0.32546884 -0.33610678 -0.7694577 0.26051316 -0.06067609 -0.46831107 -0.026416423 -0.43105692 -0.47755793 -0.5546765 -0.1841896 0.23961747 0.20230593 -0.43719718 0.33082294 0.51618534 -0.017867232 0.008281518 0.06382473 -0.26641104 -0.06307933 -0.33090347 0.38446906 0.5088412 0.118804455 0.18588392 -0.5637792 0.59730154 -0.15013835 -0.36601394 0.16823468 -0.03663987 -0.5183511 -0.13977069 0.28057122 -0.2781287 -0.011592422 0.6454711 0.6689017 -0.4179699 0.10339266 0.20436594 0.22481255 0.2748689 0.3788166 -0.103146404 0.80408335 -0.08035765 0.4340332 0.07254969 0.11844407 0.19207212 -0.648654 -0.122060426 -0.5433332 0.12885875 0.21936901 -0.5892537 0.27335295 0.50742596 0.19091831 -0.05418725 0.352121 -0.18969269 -0.45942637 -0.2329716 -0.22764374 0.18670991 -0.21117745 0.1506595 0.16838294 0.53766835 0.25091118 0.09355055 0.5963588 0.07135069 0.04134286 -0.13207126 0.032299235 -0.27213445 -0.057249323 0.20876394 0.51291335 0.17760627 0.8722746 0.091336325 -0.23849694 -0.3698322 -0.42425382 0.18706647 0.39258197 -0.5527217 0.4777027 -0.121554725 0.11249262 -0.7439421 0.14300261 -0.21093066 -0.61650014 -0.0022335656 0.2162478 0.0073649697 -0.66005266 0.4098133 0.074531086 
cn.jbone.banner.util.AsciiArtUtils -0.3755651 0.97957456 -0.6449464 -0.35005006 0.1369642 -0.20878978 -0.26621726 -0.75898415 -0.06633948 0.09065371 -0.12031056 -0.44779533 0.09827015 0.1982126 0.2907723 0.050608918 -0.20005117 -0.35250866 0.028907815 0.46801332 0.43055946 -0.390295 -0.6169183 -0.61757123 -0.14293101 -1.253767 0.8244809 -0.15687536 -0.9411993 -0.18490268 -0.18432587 -0.35056412 -0.28723258 -0.1051359 0.8686447 0.3452827 -0.84610015 -0.102854855 0.12600963 0.021371793 -0.0459558 -0.26717654 0.08076128 0.5117256 0.38096282 0.63359094 -0.3163829 -0.14445327 0.07694022 -0.79640675 0.39997858 -0.15973608 -1.0072256 0.45210898 -0.5497741 -0.5498596 0.037744008 0.3224539 -0.14128274 0.29108962 -0.06980417 0.87406325 0.5349663 -0.11706439 0.36533734 1.015654 0.17016277 0.14585954 0.4443953 0.39260092 0.20033357 0.2646827 0.43535817 -0.16869147 0.012500883 -0.34860998 -0.21904352 -0.79596126 0.037678365 0.43632436 -0.5401584 0.66615045 0.10333417 0.37717468 -0.07110986 0.24742724 -0.5791646 -0.3326882 -0.5716852 -0.7287008 0.044820122 -0.36945114 0.47146967 0.18248217 0.70120966 0.5958754 0.3925874 0.6767712 0.39384675 0.6403306 -0.8750881 -0.2224751 -0.20997898 0.60009724 0.25677073 0.011227407 -0.16494502 0.71426386 -0.66762716 -0.117694505 -0.7385523 -0.28402233 0.53052306 0.19520812 -0.25730085 0.2832772 0.3389609 0.5948902 -0.7262043 0.08851121 0.16290687 -0.44076645 -0.022566894 0.2966495 0.159084 -0.505867 0.7870776 0.47133392 
cn.jbone.configuration.props.SsoProperties -0.15925494 0.20397514 0.048963744 0.5757872 0.052693777 0.12574975 -0.32141042 -0.028882198 0.09288003 -0.11221543 0.26565006 -0.11865471 -0.34214494 0.27436268 -0.014219698 -0.02354361 0.5787386 0.3881518 -0.21224399 -0.016391095 -0.271327 -0.18249618 -0.10297036 -0.26075673 -0.3258157 0.016292017 0.20083801 0.3888622 0.15400103 -0.014995678 -0.18513489 -0.11261353 -0.30206987 0.1697053 -0.38221604 0.12836169 -0.14727427 -0.22096238 0.093278095 -0.032049727 0.3704696 0.24619502 0.09674427 0.07160517 -0.039823875 0.062044755 -0.026435161 -0.6846676 0.08711883 -0.4962467 0.11021264 -0.43883574 -0.12945463 -0.10680517 -0.2684623 0.31727085 -0.1923072 0.7570946 0.31758302 0.11479783 -0.11341575 0.27327004 0.1276724 -0.3029592 0.15539512 0.3097941 0.5172559 -0.0066868826 0.121504955 0.12857834 -0.23708808 -0.19001234 0.32735515 -0.14931098 0.15375984 -0.31294844 0.07191457 -0.12094468 0.22300977 0.3035499 0.043603797 0.13596994 -0.15966374 0.014329282 -0.1245148 0.12254084 -0.1277444 -0.31510004 0.3547867 -0.29657862 0.2076216 -0.25491565 -0.10700174 -0.10880515 0.2530781 0.50897247 0.26686358 -0.08119945 0.48680872 0.2648699 -0.17710774 -0.111963086 0.17934713 0.14445484 -0.35481596 0.1817973 -0.18946299 0.15539967 -0.26192558 -0.1456764 0.1621327 0.30019617 -0.1131686 0.099537306 -0.0657008 -0.09835009 0.28335282 0.083315514 -0.044961803 -0.0756923 -0.1956499 -0.30154186 -0.48928466 0.008293864 -0.12219974 -0.023039743 -0.08849018 0.3485464 
cn.jbone.errors.Jbone404Exception -0.27958977 0.35076186 -0.2324862 0.6304775 0.1909448 -0.012349944 -0.26045546 -0.45407772 -0.3951973 -0.21877024 0.22289878 -0.46911532 -0.2320008 -0.23858513 -0.42062825 0.2059268 -0.567753 0.05350681 -0.7438909 0.1575774 -0.04252254 -0.12825677 0.20535979 0.43889764 0.022511417 -0.476896 -0.80089915 -0.24264881 -0.59385586 0.37864465 -0.40507084 0.29706618 -0.76782084 -0.5145565 -0.01370335 0.30235744 -0.6536138 0.123969235 0.26724243 -0.2840951 0.5573902 0.6078266 0.21386309 0.29639474 0.3979583 -0.35021925 -0.023780582 -0.64237916 -0.28430763 0.17758256 -0.047688447 -0.21817403 -0.4395705 0.49659976 -0.31114084 -0.28738812 -0.5936804 0.07417933 0.10386291 -0.3924596 -0.11095824 0.96663564 0.31480262 0.5728251 -0.017034015 0.970943 0.31276107 0.22526166 -0.76471823 0.36443764 0.07181615 -0.21305478 0.41953388 -0.37297982 -0.10771637 0.020155605 -0.54071295 -0.44300026 -0.5568567 0.07456755 -0.117256805 0.27101046 0.5445515 -0.07803102 0.27085397 0.2943572 -0.042408876 -0.58145124 0.7625955 -0.60478055 0.4856859 0.31595722 0.4588224 0.29569516 0.15019794 0.50399435 0.5480036 0.55596143 0.37965444 -0.4698228 -0.11672339 0.53957975 -0.27428612 -0.24643503 -0.13286854 0.08648861 -0.37589535 0.04326788 -0.09392297 -0.3481812 0.1086471 0.037967432 0.00985234 -0.034146994 -0.28913578 0.6397556 0.41818658 0.2705833 -0.29928258 0.0017577873 -0.29424492 0.09349847 0.1905529 0.15137808 -0.16762432 -0.43909344 0.8643572 -0.03157824 
cn.jbone.common.api.dto.SearchListDTO -0.15776382 0.2173899 0.045364935 0.611982 0.062769465 0.13804734 -0.33863488 -0.03121896 0.097793356 -0.118255675 0.30003133 -0.1324715 -0.36825913 0.29282242 -0.024703177 -0.023229262 0.61679256 0.40713966 -0.2230365 -0.014810875 -0.27465454 -0.1924065 -0.10646546 -0.2603747 -0.32988557 0.031217813 0.2098593 0.40765452 0.14995608 0.001047209 -0.19689338 -0.12753448 -0.31575027 0.16778542 -0.39583218 0.13532878 -0.15654966 -0.24360408 0.090244465 -0.044579312 0.37778434 0.2668082 0.09419143 0.07725704 -0.030103166 0.06242662 -0.03576594 -0.7303887 0.07914182 -0.5248346 0.11805891 -0.44420382 -0.12731008 -0.10237592 -0.27224344 0.34108242 -0.20197685 0.8042243 0.31799343 0.10601703 -0.13481972 0.2865823 0.13219798 -0.30543748 0.15247715 0.32885107 0.5400204 -0.021855498 0.12952176 0.12798698 -0.23727952 -0.20102394 0.33726192 -0.16118576 0.15443335 -0.31753448 0.081578 -0.1219595 0.22838964 0.32264766 0.047727067 0.14551467 -0.17133093 0.019317098 -0.13347372 0.13751464 -0.12941979 -0.3335758 0.37362278 -0.30056566 0.22758861 -0.26870143 -0.098165914 -0.10855038 0.2574732 0.5429085 0.29215315 -0.08907449 0.50502837 0.27696997 -0.19767193 -0.096754506 0.1837138 0.15480284 -0.36643454 0.180118 -0.19752428 0.14937548 -0.26347527 -0.16277514 0.18342155 0.31000963 -0.12958173 0.09741967 -0.06334088 -0.11620492 0.30671784 0.08890067 -0.051515248 -0.08310107 -0.20729244 -0.28612614 -0.51443934 0.0041435296 -0.12778245 -0.023121273 -0.078870215 0.363497 
cn.jbone.common.service.AbstractService.getSearchListSpecification -0.72405386 0.48844126 -0.21611442 0.45137778 0.08531439 0.38743803 -0.33782867 -0.19588579 -0.3801159 0.23194954 -0.13392894 -0.4141819 0.48317453 -0.2253002 0.048266534 -0.080406696 -0.3870102 0.30710912 -0.4384474 0.33998507 -0.06689382 -0.2745032 -0.4872822 -0.61783844 -0.3905056 -0.82870567 0.43013877 0.08073397 -0.33499402 -0.7341825 -0.32150543 0.71270895 -0.05444931 0.14852338 0.22438094 0.22103626 -0.39262748 -0.4320308 0.20617509 -0.05196402 0.6970207 0.25162795 0.44798663 0.52846277 0.24729536 0.10830316 -0.3155708 -0.5947235 0.030757358 -0.6086605 0.052249197 -0.6484468 -0.7245143 -0.27859855 -1.0569853 -0.38721102 -0.13493642 0.2620666 0.50853133 0.6792378 -0.09644584 0.9560236 0.58218265 -0.4581209 0.4402298 0.48255083 0.6999058 0.20830289 -0.35649288 0.5183224 -0.00437164 -0.011615379 0.8607543 -0.3535841 -0.116970345 -0.15980548 -0.37040815 -0.76304644 0.039951116 0.51483357 -0.09772319 0.25959146 -0.12846059 -0.39088017 -0.19415615 -0.031005828 -0.43573278 -0.303695 0.33284253 -0.882011 -0.101915725 -0.2289177 -0.19127783 -0.05726629 0.42563486 0.55569285 0.16458146 0.48517954 0.74920434 0.22950022 -0.34382787 -0.35981867 0.12591329 0.34314695 -0.48557058 0.0056086 -0.065983884 0.45243096 -1.2664045 0.5493618 -0.20273733 0.13629778 0.33174938 0.20413813 -0.4274354 0.7178318 0.49380264 0.20632987 0.1389067 -0.124305144 0.038829982 -0.60587037 -0.537992 -0.14170839 0.3990126 -0.013440868 0.4047398 0.5065606 
cn.jbone.common.utils.DateUtil.getDate -0.4619653 -0.151784 -0.11983287 0.38862485 0.4443724 0.4289228 0.054611906 -0.13427065 -0.4190282 0.3272211 0.37505856 -0.14294717 0.18518436 -0.7546268 0.22311066 0.04885669 -0.20094198 0.12672405 -0.49807402 -0.15036957 -0.39793065 0.6179064 -0.34072155 -0.102526 -0.27455488 0.18885866 -0.35291928 0.18562204 0.13551551 -0.22051826 -0.5040918 0.8656222 -0.5458646 -0.008494442 -0.4268456 0.06333251 0.39058077 -0.33303303 0.3107822 -0.4810919 0.95216346 0.8329059 0.19499408 0.29485682 -0.0075517828 -0.32223803 0.018992698 -0.70121145 -0.16778393 -0.06571098 -0.45654693 -0.7285133 -0.49528918 -0.46645907 -0.5993162 -0.20273235 -0.69032526 0.57565457 1.020972 -0.14219253 0.41513175 0.99093145 -0.30161938 -0.3059802 0.029723428 0.11094714 0.9875276 0.07718796 -1.1056145 1.071802 -0.40682998 -0.083861515 0.74495083 -0.5674225 -0.047130283 -0.17869096 -0.34357652 -0.6243676 -0.10050465 0.46431744 -0.13714333 0.047595292 0.487191 -0.36219457 -0.16841327 -0.07516223 0.0050010206 -0.24058528 0.82575095 0.06252254 -0.009482894 0.31245705 -0.46569937 -0.051875327 0.3839989 0.67489535 0.04685108 0.3014685 0.3996533 -0.107087865 0.030336 0.20369314 -0.03864851 -0.5155773 -0.40884408 0.4419674 0.16176014 0.526261 -0.38247794 -0.010749667 0.592324 0.40642288 -0.23927912 0.27155533 -0.307728 0.89795595 0.4704623 -0.024720244 0.27197352 -0.13805391 -0.22934438 -0.054127563 -0.7102809 -0.06190009 0.0018727174 -0.050413355 0.3625613 -0.3131421 
cn.jbone.common.utils.IdGenerator 0.5211829 0.50873584 -0.40877655 0.08796307 -0.109540015 0.35624444 0.4247475 -0.18147801 0.9173094 0.25196642 0.4080788 0.07065748 -0.11126122 0.72452503 0.6886596 0.25985906 0.83374476 0.31877148 -0.2952392 -0.6494096 0.02639058 0.16150284 -0.2839913 -0.12363776 -0.49081412 -0.04913936 0.776123 0.50627816 0.2234602 0.14128885 -0.31310126 -0.5358322 -0.33914742 -0.03516786 -0.70809877 -0.37089306 0.044484705 -0.7789621 -0.07106402 -0.28254 0.43777215 0.5559173 -0.15011421 -0.87964106 -0.3274883 0.011630522 0.39141044 -0.4853998 -0.65215456 -0.7130311 0.3925318 0.028914284 0.15419544 -0.13894896 -0.43871713 -0.095156744 0.19792464 1.2845371 -0.21456791 -0.32313773 -0.23213077 -0.2197797 -0.3588055 -0.4315085 0.41749373 0.3706813 0.80364156 -0.77978724 -0.26431298 0.42093366 -0.41720325 0.11363852 0.27224913 -0.52489424 0.10152781 -0.6982629 0.5957058 0.2087697 0.89412796 0.39048758 -0.27127594 0.099884965 0.105710395 0.8799635 -0.31701306 0.05959281 0.26876217 -0.12247282 -0.0073626605 0.5369099 -0.06478845 -0.41808754 -0.5170944 0.086528964 0.18773782 0.23213384 0.2168876 0.23579264 0.07110794 0.11525352 -0.073063016 0.2693116 -0.10943589 0.07342949 0.011654174 0.04835938 0.1007411 0.77537084 0.13486749 -0.7652756 0.56459826 0.3049587 -0.002251437 0.20046686 0.2513408 -0.24200065 0.78349787 -0.31364542 -0.29892904 0.19222444 -0.109413855 0.6698776 -0.5761789 -0.18749945 -0.013519256 0.44371566 -0.5018207 -0.46099928 
cn.jbone.common.utils.IdGenerator.main -0.05221665 0.5295728 -0.37537307 -0.24648638 -0.5359294 0.12317628 0.39747754 -0.5067363 0.8168864 -0.2432607 0.15990512 0.045057923 0.013890216 0.38101694 0.73840106 0.44983786 0.60894626 0.22754781 -0.015922504 -0.4229234 0.3818675 -0.18202595 -0.6329266 -0.48085058 -0.17120522 -0.21563178 0.9683624 0.64009506 0.26690423 0.0050501204 -0.40095648 -0.309683 0.11494281 0.021371912 -0.87282354 -0.12935024 -0.38394597 -0.45162335 -0.15537877 -0.13363263 0.7214123 0.42750624 0.017990481 -0.45474178 -0.20557885 0.10494775 0.275544 -0.8929929 -0.26118302 -0.8974029 0.7455355 -0.18711405 -0.30475163 -0.16895357 -0.76774955 0.18398383 0.35561863 0.89281815 0.27548036 -0.14898725 -0.16766071 0.3172378 0.19646366 -0.37665462 0.33101395 0.011358511 0.6554521 -0.48658305 -0.10659905 0.70711195 -0.19042476 0.23780556 0.50089866 -0.76267326 0.13244067 -1.148097 0.8146362 -0.06365443 0.45942998 0.6980923 -0.475618 0.48223367 0.32614136 1.087309 0.123558775 0.22837916 -0.51509714 -0.3151231 -0.060316823 0.31211212 -0.07051118 -0.55566907 -0.09631783 -0.100856245 -0.0031130773 0.08620518 -0.092180245 0.5875806 0.31915578 0.5008783 -0.3756413 0.29190528 0.29014227 0.7696683 0.1621122 -0.0016307536 -0.27766076 1.0920933 0.16291696 -0.543601 0.53340614 0.16950756 -0.06303791 -0.316559 0.25841036 -0.2229627 0.28286508 0.028008157 -0.88718927 0.3255036 0.3064283 0.5178432 -0.031063857 -0.22679941 -0.22376974 -0.0769261 -0.7428877 0.08296694 
cn.jbone.common.utils.IdGenerator.getId 0.51151365 0.7255831 -0.7360867 -0.014756137 -0.01247672 0.25522497 0.10276295 -0.37848175 0.6610095 0.04097471 0.040352754 -0.13135517 0.089197926 0.7616372 0.6627576 0.013376677 0.86282873 0.082292125 -0.13461384 -0.23227479 0.26718128 -0.0009180272 -0.072832525 -0.9387546 -0.08051313 -0.2599164 0.7718128 0.48718444 0.16464335 -0.3024353 -0.29262915 -0.48032907 -0.31111908 0.55282027 -0.40947902 -0.0019642967 0.18707064 0.015724344 0.105719455 -0.17516196 0.60685444 0.52465516 0.10301631 -0.863411 -0.4664937 -0.21130657 0.09100882 -0.20785731 0.38876507 -0.55073476 0.24339657 -0.0060657896 -0.49507582 -0.044221014 -0.10935639 -0.222853 -0.056396876 0.90523523 0.12606123 -0.33771667 0.11186269 -0.008605207 -0.42619023 -0.39463905 0.25694677 0.7904142 1.0616539 -0.402285 -0.09419108 0.22255734 -0.90391785 0.22857805 -0.3218005 -0.27897894 0.19560485 -1.1244315 0.14207372 -0.002525159 0.64885116 0.1821859 0.19242142 0.012022738 0.24092095 0.6636276 -0.15415129 0.63931465 -0.19478531 -0.12945029 0.24589011 0.36990252 0.12090726 -0.54643774 -0.7967657 -0.3036247 0.97845 0.5022792 -0.040011622 -0.5240749 0.46251184 0.21322942 0.003460178 -0.2331071 -0.22308111 -0.24191721 -0.3762573 0.57588935 0.21658663 1.1081219 0.05137815 -0.6545489 0.44047698 0.51324016 -0.2243786 0.039079055 0.22752793 -0.17560193 0.63263816 -0.05811935 -0.7956206 0.07583692 0.063703984 0.03639522 0.5610825 0.44818875 -0.13227738 0.41023478 -0.67919385 0.044610515 
cn.jbone.common.utils.IdTargetEnum 0.48435295 0.7662318 -0.64664435 0.04813944 -0.20964076 0.038500763 0.068885036 -0.52652574 1.0236676 -0.30776992 0.19458412 0.012055442 -0.1788356 0.807817 0.51483333 0.32788435 1.0181551 0.15382788 -0.022293415 -0.3635227 0.5050208 -0.31036457 -0.31118476 -0.7455735 0.046863187 -0.33788115 0.9011211 0.58346933 -0.09859665 0.06424933 -0.3328232 -0.6944975 -0.113881186 0.3900019 -0.7778416 -0.06587839 -0.4208782 -0.11881383 -0.07526862 -0.09196664 0.6792568 0.35516596 0.092077054 -0.67523056 -0.3995092 0.09773894 0.2102108 -0.61313033 0.23114245 -1.0627614 0.5865811 -0.12316228 -0.2921726 0.20906892 -0.25365594 0.043447446 0.15350164 0.99400634 0.09450225 -0.3663412 -0.18048576 0.21282911 -0.13902503 -0.23694044 0.13937026 0.38702738 0.86847574 -0.36570254 0.24925981 0.3174174 -0.4728762 0.19368735 -0.015878554 -0.46356043 0.26118645 -1.2192488 0.5365622 0.08504553 0.64685065 0.41080886 -0.15172526 0.44877052 0.38963634 0.87611914 -0.0022957537 0.78470486 -0.40038946 -0.4123938 0.05964922 0.34515718 0.28366467 -0.6330698 -0.2794821 -0.017451797 0.47276226 0.038851917 0.16206032 0.0014453528 0.5052633 0.42304504 -0.19974072 0.061175134 -0.13432522 0.30446675 -0.18845381 0.2037726 -0.013652266 1.0434278 0.28048435 -0.6237419 0.4533027 0.19799119 -0.30310538 -0.18955493 0.21769491 -0.41511154 0.2965215 -0.016597822 -1.2308251 -0.0012690787 0.12571254 0.19460222 0.42436567 0.26026517 -0.38188246 0.060333975 -0.6349325 -0.0057801357 
cn.jbone.common.utils.IdTargetEnum.getTarget 0.14298187 0.6397035 -0.2609255 -0.09721353 0.13725962 0.19111562 0.2751681 -0.2178681 0.5934841 0.42656928 0.63938934 -0.15672763 0.04989776 0.4263928 0.66007334 0.25600797 0.87884665 0.0576988 -0.30350715 -0.1606704 0.1448003 0.41699284 -0.70888937 -0.50314844 -0.4229755 -0.0062728445 1.1571119 0.5351146 0.46325532 -0.17861204 -0.34255543 -0.4350028 -0.43514833 -0.0023452034 -0.22802542 -0.14369611 0.11240081 -0.72892696 -0.2200561 -0.16496408 0.4957408 0.25908467 -0.2903938 -0.39110178 0.13433985 0.04651823 -0.03667079 -0.6128984 -0.23844758 -0.5878359 0.28302938 -0.004702284 -0.3675897 -0.29166362 -0.5216419 0.1282915 -0.012345983 1.3573142 -0.038402095 0.013905177 0.07532202 0.044292282 -0.32867992 -0.7362119 0.538326 0.46167985 0.8442661 -0.64776933 -0.09184526 0.75909007 -0.46371415 0.13052201 0.38579628 -0.46024776 -0.06903854 -0.7813319 0.6977311 -0.065403104 0.86655086 0.5255889 -0.4944266 0.015233464 0.18318565 1.1478949 -0.45940378 -0.109369695 0.009987369 -0.28829005 0.32712793 0.37103856 -0.27409473 -0.6550183 -0.44795442 -0.3491925 0.37385616 0.9918201 0.07926234 -0.2420255 -0.056311827 0.7099478 -0.56448764 0.27771565 0.11130772 0.1492858 -0.0903802 0.056889582 -0.10553899 0.70821565 -0.014031295 -0.5886575 0.7038033 0.6811039 -0.13763958 0.11569615 -0.036655914 -0.24056299 0.94798535 0.0034154414 -0.6447372 0.32032764 -0.036706377 0.6783292 -0.74640846 -0.11923804 0.15653779 0.14834256 -0.3956731 0.35260627 
cn.jbone.configuration.props.SysProperties -0.15994412 0.18867251 0.05057608 0.57122326 0.0706598 0.13084947 -0.32362133 -0.032788966 0.085988164 -0.110676534 0.27319756 -0.11592573 -0.32329878 0.24870455 -0.034122124 -0.0215539 0.55080736 0.3718459 -0.20640297 -0.011506994 -0.25437844 -0.16426885 -0.11054818 -0.23873621 -0.2991798 0.023416227 0.18129659 0.37886935 0.13543047 -0.008721353 -0.18962264 -0.10100989 -0.2938279 0.16753536 -0.36345416 0.12594122 -0.14599392 -0.2130066 0.08265345 -0.031864963 0.3679659 0.25191194 0.08614161 0.08797221 -0.021418212 0.053833008 -0.03535835 -0.67837846 0.08360928 -0.479884 0.10593088 -0.4300432 -0.12044844 -0.096318685 -0.25580823 0.31005463 -0.19178881 0.7295468 0.312085 0.09989357 -0.110319264 0.28972802 0.122532606 -0.2947052 0.13365537 0.28476375 0.51126534 -0.008748578 0.113715515 0.13465214 -0.2159949 -0.19631767 0.32134598 -0.14562982 0.13376369 -0.29469213 0.07215175 -0.11103663 0.19947653 0.29870558 0.0420408 0.13595758 -0.1510023 0.008372628 -0.119793124 0.12294453 -0.12656905 -0.33255368 0.35828924 -0.27784285 0.19922861 -0.2482173 -0.09018406 -0.1041583 0.22754017 0.47934887 0.25804102 -0.07392582 0.46842578 0.25199872 -0.17260088 -0.08878864 0.16395085 0.12864487 -0.34316796 0.16206297 -0.17333639 0.14258884 -0.24948928 -0.12924016 0.17717835 0.2908739 -0.12677208 0.089091755 -0.07257443 -0.096480414 0.27484947 0.08318166 -0.043903228 -0.08628737 -0.1848683 -0.2767306 -0.47397617 0.009072012 -0.10641444 -0.02895324 -0.074335106 0.3306472 
cn.jbone.configuration.props.rpcs.ShopServerFeignProperties -0.16757572 0.20689276 0.054045685 0.61687815 0.081186965 0.1362076 -0.34328583 -0.021335395 0.08515738 -0.114943765 0.3002412 -0.13744488 -0.35874036 0.2738475 -0.032885615 -0.028259352 0.6140799 0.4019012 -0.22317845 -0.0007247484 -0.2696096 -0.17686716 -0.12863435 -0.26741695 -0.32505795 0.037389703 0.20799948 0.40439984 0.15524589 -0.009763629 -0.20085427 -0.11783889 -0.31313756 0.16509596 -0.38930574 0.13650598 -0.1479979 -0.24800955 0.08241881 -0.052145865 0.3812944 0.26136866 0.08930145 0.1006484 -0.018607747 0.06878738 -0.056259263 -0.7281485 0.08646904 -0.5267497 0.10879378 -0.45677954 -0.13109055 -0.10843243 -0.27587664 0.33914447 -0.20882404 0.81201905 0.3298729 0.11161156 -0.13777843 0.29573452 0.136302 -0.31696123 0.15423043 0.32089636 0.5381446 -0.018981596 0.14128108 0.13649292 -0.23279211 -0.20763509 0.3531597 -0.15303741 0.1487489 -0.30933833 0.086751394 -0.13163541 0.22529365 0.32809752 0.040550865 0.13783 -0.17123345 0.015850918 -0.1392774 0.13365975 -0.13006283 -0.34088925 0.38390696 -0.31043613 0.2110079 -0.26834792 -0.09599909 -0.11062903 0.25072715 0.5551747 0.28775656 -0.08640955 0.5100714 0.29376528 -0.20608969 -0.094328836 0.18688095 0.15373662 -0.37258658 0.16740921 -0.18962881 0.14277191 -0.28145155 -0.14571337 0.18303302 0.31870076 -0.12786266 0.10061885 -0.07617974 -0.11422089 0.3150909 0.090213984 -0.04188934 -0.09125955 -0.20410036 -0.28445384 -0.5337486 0.004932593 -0.11726416 -0.021933956 -0.06136893 0.36461464 
cn.jbone.common.exception.ObjectNotFoundException -0.27118278 0.3527898 -0.2262948 0.59778833 0.20357488 -0.029440248 -0.25275275 -0.43436867 -0.39944956 -0.20392446 0.23562147 -0.4719632 -0.23401093 -0.2390374 -0.40487564 0.20719533 -0.5516599 0.02700274 -0.723963 0.16997898 -0.02528677 -0.11255025 0.19413336 0.42741233 0.03621286 -0.45355308 -0.7719563 -0.24963291 -0.5882009 0.38095137 -0.39754748 0.2906426 -0.7457967 -0.51887405 -0.0022680871 0.3067219 -0.6369101 0.11710309 0.2632293 -0.2807552 0.541097 0.58461416 0.21523829 0.29490373 0.3992378 -0.34533364 -0.03673505 -0.627713 -0.27675238 0.18599291 -0.06524775 -0.19593003 -0.4479063 0.48561987 -0.29640725 -0.27624154 -0.5846273 0.07898723 0.100836456 -0.3987035 -0.11104791 0.93494165 0.29927567 0.5655421 -0.01598792 0.96667427 0.29646242 0.21927118 -0.7580921 0.3542559 0.06690707 -0.2162858 0.40913206 -0.37025955 -0.100489885 0.022059867 -0.5141833 -0.4490829 -0.5445775 0.081346795 -0.11392305 0.26739392 0.5343377 -0.05431728 0.26984057 0.2799835 -0.045091048 -0.563547 0.74683493 -0.5826332 0.4725498 0.3148042 0.45576268 0.29693466 0.1478634 0.51643145 0.54279757 0.5291035 0.35579494 -0.44620696 -0.1374625 0.5357314 -0.26399708 -0.24394968 -0.11845548 0.078759745 -0.37449703 0.043271005 -0.07115794 -0.3518087 0.105177276 0.049386736 0.0038387466 -0.047612224 -0.27669322 0.6266116 0.41941938 0.26942793 -0.3095833 0.021660771 -0.2791729 0.11986535 0.19291686 0.15063189 -0.18099813 -0.44566014 0.8550865 -0.031838313 
cn.jbone.configuration.props.rpcs.ItemServerProperties -0.17194739 0.22352578 0.05626768 0.67766505 0.09948141 0.14636414 -0.3756738 -0.017292231 0.103827685 -0.12651272 0.3437352 -0.1438435 -0.3908174 0.29291737 -0.044877555 -0.01914735 0.6655629 0.42859247 -0.23045062 -0.0025657832 -0.2876185 -0.1915488 -0.14381494 -0.2723442 -0.33518466 0.0378971 0.22240168 0.44254228 0.15173388 0.0057787034 -0.2214218 -0.12787756 -0.347887 0.17267385 -0.4286824 0.1398028 -0.15835404 -0.26950294 0.07637705 -0.059382983 0.4131639 0.28794983 0.088913344 0.11245286 -0.01434948 0.07000433 -0.060401186 -0.8122541 0.08721085 -0.5789057 0.11427869 -0.4944518 -0.12971298 -0.10178135 -0.28559938 0.37907293 -0.24203849 0.8948373 0.35128322 0.111151025 -0.14997183 0.33568677 0.13349642 -0.3420676 0.1471958 0.35251004 0.5956455 -0.0342191 0.15749705 0.1556003 -0.25039724 -0.22526282 0.37594366 -0.16653991 0.15084551 -0.3381872 0.10758396 -0.12990616 0.25053352 0.36309376 0.03919797 0.15897211 -0.17246875 0.036356278 -0.16575138 0.14619826 -0.1389865 -0.38896385 0.43594086 -0.32557875 0.2395635 -0.28630954 -0.09183031 -0.12226291 0.2698568 0.594976 0.3248146 -0.087610684 0.5410684 0.31912306 -0.23304117 -0.0793215 0.19705893 0.15804844 -0.39362752 0.1755433 -0.20491648 0.15185589 -0.27722785 -0.16607052 0.2185102 0.34690532 -0.15252383 0.109122515 -0.079448126 -0.13801199 0.34131598 0.099892154 -0.06755827 -0.10483708 -0.2209035 -0.2836698 -0.58488417 0.016454222 -0.13657846 -0.026461814 -0.06540646 0.3890098 
cn.jbone.configuration.props.rpcs.EbPortalServerProperties -0.14736988 0.18427268 0.039111167 0.52633995 0.059605118 0.1137452 -0.2975736 -0.025580745 0.08208001 -0.097006045 0.2524734 -0.11865487 -0.30257493 0.24186862 -0.012025009 -0.027564012 0.522539 0.34598705 -0.19953772 -0.0071807555 -0.23754746 -0.15970536 -0.09712845 -0.22914146 -0.29268944 0.019387875 0.17483187 0.34546834 0.13293177 -0.013794491 -0.17370464 -0.10741848 -0.28006366 0.14692354 -0.33111414 0.11570903 -0.13430198 -0.20942529 0.08967413 -0.040192485 0.33073914 0.22812365 0.084308855 0.07579603 -0.027937965 0.060371947 -0.030074168 -0.6185308 0.07530899 -0.45392844 0.099706985 -0.3997855 -0.117914975 -0.09445094 -0.24199058 0.28850767 -0.1759441 0.6908482 0.28033587 0.10009247 -0.10701121 0.25369143 0.11292274 -0.27434808 0.13757706 0.28120095 0.46993783 -0.011649002 0.10599503 0.12133796 -0.20661533 -0.1736185 0.3057886 -0.14003447 0.13883947 -0.27501518 0.06722255 -0.11295166 0.19392951 0.28004724 0.036128532 0.12410842 -0.14395915 0.0093574 -0.122466505 0.112529084 -0.11049221 -0.28573084 0.32150248 -0.26697585 0.18408854 -0.23172572 -0.08759285 -0.087708145 0.23263666 0.47078636 0.24973768 -0.07020101 0.435304 0.24541111 -0.16363426 -0.09498606 0.1590428 0.12423683 -0.31476682 0.16316277 -0.1678136 0.13407212 -0.23869681 -0.13336429 0.14736405 0.2641944 -0.10569529 0.09448358 -0.06738894 -0.09322969 0.2653991 0.073373236 -0.040408887 -0.06885142 -0.18004528 -0.26180413 -0.45985934 0.0034642592 -0.104632825 -0.018830648 -0.049777996 0.30995086 
cn.jbone.common.rpc.ResultT -0.15072358 0.19443244 0.046971478 0.5499604 0.05814542 0.12592861 -0.31523335 -0.030595634 0.09694889 -0.10534796 0.2641554 -0.103310466 -0.31888235 0.2543564 -0.020341603 -0.022590654 0.55259734 0.3595386 -0.19645461 -0.017195273 -0.24551928 -0.16567661 -0.112948075 -0.25070643 -0.2998577 0.015315889 0.18972993 0.37276408 0.14341687 -0.012644695 -0.17845358 -0.1118088 -0.28522927 0.16447413 -0.3670583 0.12046596 -0.14432614 -0.21251538 0.08033083 -0.03538374 0.35237426 0.23158482 0.08083446 0.07688541 -0.033543877 0.06279881 -0.030669106 -0.6511067 0.08751186 -0.48158127 0.11202953 -0.41685396 -0.11960145 -0.09783687 -0.2483208 0.30954626 -0.17623474 0.7197925 0.2961178 0.10516062 -0.106202215 0.2675192 0.11904101 -0.29072788 0.13976155 0.27810296 0.4940473 -0.012768046 0.124044865 0.12928143 -0.21993405 -0.18671402 0.30733597 -0.13641144 0.13639277 -0.3001506 0.083749995 -0.1086365 0.21047375 0.29429954 0.035024308 0.13154566 -0.14479646 0.018389136 -0.12112114 0.11452555 -0.1209492 -0.32137528 0.33587557 -0.2727282 0.19660535 -0.2427585 -0.092648506 -0.10510577 0.23478067 0.47100085 0.24385269 -0.07484601 0.45395124 0.2623471 -0.17263715 -0.10095463 0.17270628 0.13662405 -0.33156213 0.16294695 -0.17586775 0.14904499 -0.24965373 -0.13217887 0.16310866 0.27949667 -0.1149668 0.09247713 -0.064842045 -0.10124463 0.26820946 0.0858533 -0.05354132 -0.07627215 -0.1843688 -0.27468544 -0.46632558 0.006141955 -0.10832862 -0.020559667 -0.08239955 0.33515307 
cn.jbone.common.dataobject.SearchSortDO -0.45701975 -0.31036174 -0.5289334 0.22607271 -0.01324233 0.40457323 0.4007257 0.6221975 -0.28772017 -0.1556308 -0.6769339 -0.47097093 -0.0016993579 0.050396614 0.62623876 0.100321405 -0.36013052 0.112205364 -0.13662499 0.117847905 -0.057356242 -0.03683313 0.31201598 0.18402348 -0.107434295 -0.5066319 0.24180724 0.122513846 0.5852296 0.3025976 -0.41425276 0.23415883 -0.14900708 -0.68967885 0.07273767 -0.44157466 0.3752314 -0.7804533 0.22151431 -0.46365836 0.410343 1.5783948 0.13634609 -1.2882128 0.26634803 -0.7028511 -0.26164836 -0.7123887 -0.3575379 0.6419942 -0.14672036 0.31788567 -0.49092615 -0.4473196 -0.46158466 -0.36692744 -0.35886967 0.8971634 0.15841876 -0.31234035 0.021492092 0.08110657 0.24648848 0.22556081 -0.2082517 1.2612475 0.37041655 -0.6288871 -0.92886406 0.64417917 -0.8615334 -0.052961033 0.40228572 -0.49606553 0.050961565 -0.77463394 0.12315736 -0.60849655 -0.19124 0.108576134 0.49193898 0.10785189 0.3732861 0.60035783 -0.29310757 0.21868291 0.16947815 0.22383153 0.110858135 -0.21241869 -0.31833723 0.18580247 0.35454813 -0.23598054 0.22255464 0.82580733 0.4089649 0.66604406 -0.44565618 -0.48563337 -0.021267736 0.2732256 0.45579207 -0.04438621 0.3015026 0.8220462 0.2124974 0.39149627 0.8132733 -0.974752 0.020081948 -0.20210092 0.0798341 0.16739678 0.35604158 0.11461597 0.6505935 0.348391 0.054322507 0.46835813 0.17368305 0.65355986 0.6393213 -0.17652056 -0.67001927 0.083324835 -0.039641917 -0.3393586 
cn.jbone.common.dataobject.SearchSortDO.build -0.9573049 0.049351443 -0.05948217 0.18220475 0.14622758 -0.078176685 0.042228755 0.5190419 -0.790218 -0.27654696 -0.5471565 -0.280827 -0.22279651 0.031814102 0.14193621 -0.21440661 -0.27747527 -0.14521235 -0.061381336 0.6673149 -0.104917355 -0.25901273 0.21000908 -0.15193142 -0.008340103 -0.8690841 0.14848974 0.22953393 0.33624503 0.013365562 -0.34773445 0.4296027 0.07698676 -0.5577646 0.33491817 -0.1124939 0.25022492 -0.54268706 0.30364734 -0.39418194 0.39300603 1.0208379 0.4099806 -0.51508653 0.67886364 -0.42584792 -0.6265661 -0.9670484 0.35637602 0.46300986 -0.3693214 -0.008002862 -1.0152174 -0.35855237 -0.19638869 0.095921144 -0.35391477 0.7108405 0.3703034 0.063017845 0.11947465 0.49970415 0.5195551 -0.09568484 -0.06568841 1.3604605 0.23355024 -0.1734953 -0.3863148 0.41017622 -0.84308016 -0.37258255 0.33672294 -0.41648704 0.24486428 -0.6337488 0.17591295 -0.8706382 -0.16282341 0.43552828 0.30889928 0.35636517 0.15559456 0.47393534 -0.27183065 0.04587467 -0.3809212 0.022183869 0.05257385 -0.89985317 -0.07086605 0.14153697 0.6328683 -0.373833 0.4591088 1.2793719 0.21985039 0.20321704 -0.11210476 -0.054174162 -0.4749616 -0.39518458 0.82245785 0.38519987 0.0035988356 0.98946726 -0.39398435 0.1962482 0.26796934 -0.5719509 -0.16683343 0.15922755 0.051915817 -0.17302394 0.14779201 -0.06978187 0.45124128 0.8417389 -0.09366625 0.39469728 0.2500536 0.0008912818 0.39308944 -0.0043016174 -0.6674192 -0.3757481 -0.2128415 0.7237903 
cn.jbone.common.dataobject.SearchSortDO.SearchSortDO -0.95780766 -0.32342526 -0.38838565 0.07616504 0.5541604 0.51924586 0.2886058 0.7799613 -0.43531874 0.15898432 -0.19872311 -0.35664538 0.023415202 -0.106594756 0.7239731 -0.02434375 0.10913136 0.1157577 0.3712105 0.13578919 0.042688895 0.15523954 -0.27653936 -0.42671025 -0.10988013 -0.2704329 0.78812516 0.38843754 0.7173156 0.0015418344 -0.36544436 0.16923489 -0.14557281 -0.16689335 -0.2432634 -0.23656133 0.74977213 -1.0244609 0.12368867 -0.68123853 0.52224356 0.9126459 0.2723934 -0.7549564 0.113178946 -0.20696716 -0.58090466 -0.6038179 0.11466671 -0.023915736 -0.7014173 -0.24578746 -0.88630164 -0.82760453 -0.6430472 -0.17414416 -0.7896015 1.4277824 0.46505144 0.10882634 -0.109259926 0.05093347 0.18602687 -0.45518994 -0.3111739 1.055137 0.34578788 -0.8376233 -0.23817013 0.4285316 -0.74388885 -0.03456201 0.7907441 -0.40677738 0.08807827 -0.94393915 0.38967693 -1.041707 0.35080647 0.1963399 0.30673522 0.44157767 -0.2801934 0.4297315 -0.76025903 -0.19602649 0.41406316 0.28359213 0.10679675 -0.2894064 -0.54413736 0.20654356 0.14276241 -0.32163486 0.8594913 1.2098178 0.42945606 0.3350701 -0.14775681 0.5680564 -0.79886204 -0.55597866 0.8731912 0.017415425 0.3603795 1.1119475 0.12556775 0.5685132 0.25440902 -0.54236454 0.2189134 0.21234001 -0.11045301 0.35226366 0.49046683 -0.014300691 0.6037515 0.7474165 0.21384253 0.33384162 0.27979454 0.49023718 -0.3497232 -0.26364923 -0.70415676 0.43974462 -0.083216354 -0.2248302 
cn.jbone.configuration.props.rpcs.DecorationServerFeignProperties -0.13724191 0.17019057 0.025216496 0.45920923 0.043276396 0.11055801 -0.26554677 -0.023431608 0.06758413 -0.08398782 0.20644331 -0.106826685 -0.26699772 0.21947096 0.0022971826 -0.027113212 0.46359244 0.3182612 -0.17656429 -0.009984635 -0.22327061 -0.15398847 -0.081216976 -0.21513996 -0.27512544 0.009557906 0.17102182 0.30695352 0.117014855 -0.01874333 -0.15236087 -0.09022877 -0.25276726 0.13787527 -0.29439798 0.1047029 -0.12158949 -0.18671708 0.08898144 -0.037391976 0.28814423 0.20469382 0.08786525 0.05827707 -0.039997555 0.055157974 -0.022790592 -0.5403297 0.06137302 -0.40303445 0.08885115 -0.3613454 -0.11851274 -0.093912676 -0.22139487 0.25416481 -0.14763884 0.6113152 0.25660667 0.10240817 -0.08708795 0.22081956 0.10775609 -0.24971192 0.13829553 0.25837907 0.4158335 -9.4558185e-05 0.09353823 0.104267135 -0.18653777 -0.15046136 0.2735904 -0.11678439 0.12988591 -0.25255448 0.04764573 -0.11499791 0.1723485 0.24562238 0.04250815 0.11871772 -0.14270902 -0.0011705325 -0.1071695 0.093375064 -0.10351733 -0.24287525 0.2720129 -0.25087133 0.16479309 -0.20226586 -0.08976374 -0.07923136 0.21301489 0.4266848 0.22524415 -0.059933007 0.39058894 0.20815572 -0.14542767 -0.107625835 0.14836426 0.112757914 -0.2871308 0.15467879 -0.15239838 0.13681734 -0.2301017 -0.11347384 0.11426594 0.23411617 -0.08226583 0.08928653 -0.050790083 -0.06762057 0.23078433 0.066121124 -0.019190228 -0.052342918 -0.16300583 -0.25352928 -0.4028537 0.002926788 -0.09345933 -0.01783528 -0.05433375 0.2805657 
cn.jbone.configuration.props.rpcs.ShopServerProperties -0.14405844 0.16674447 0.041164555 0.48272392 0.042269286 0.114359975 -0.27669674 -0.023275362 0.07860459 -0.09124639 0.22897461 -0.101824656 -0.27383 0.22586198 -0.0023611353 -0.025475353 0.48746037 0.32822338 -0.17730257 -0.010199158 -0.23171934 -0.1504481 -0.09041411 -0.22346741 -0.27540326 0.011130191 0.17304592 0.33202496 0.12856744 -0.015541618 -0.16068715 -0.093166105 -0.25282818 0.15135512 -0.32055673 0.1141526 -0.12491354 -0.18526419 0.08518639 -0.031831414 0.30833158 0.20979318 0.079384364 0.06866676 -0.03334949 0.0550702 -0.020884309 -0.5743049 0.075678974 -0.4131231 0.092275 -0.37001762 -0.112302564 -0.0963317 -0.22578838 0.27186108 -0.15701824 0.6331082 0.26878288 0.10265933 -0.09318314 0.2364857 0.11002317 -0.25978872 0.13380894 0.2570547 0.4437466 -0.0037363947 0.10587879 0.11303957 -0.19900928 -0.15870035 0.27497444 -0.12432176 0.13183802 -0.2681035 0.06536142 -0.10259164 0.18697265 0.26563704 0.03741254 0.11219874 -0.14049877 0.010362808 -0.10866413 0.09478015 -0.10873695 -0.26741728 0.2998711 -0.25141427 0.16763833 -0.21233085 -0.092867166 -0.09959836 0.21493414 0.43268454 0.21575646 -0.06825542 0.40527368 0.22784846 -0.15227272 -0.09658154 0.16132413 0.123993464 -0.29288167 0.15401465 -0.16069652 0.13687237 -0.23068257 -0.10989927 0.13652651 0.2506172 -0.09469331 0.08422709 -0.060371492 -0.08229051 0.24235728 0.07087236 -0.037139375 -0.066655435 -0.16320282 -0.25280946 -0.4172619 0.0023693459 -0.09817632 -0.018802186 -0.073038444 0.2975968 
cn.jbone.common.ui.result.ModelResult 0.1440481 0.74340117 -0.1567236 0.015884299 -0.16727245 0.12946938 0.1914617 -0.17682855 -0.17810382 0.39293128 -0.08309113 -0.741416 -0.058785103 0.56388783 0.45244125 0.077338636 0.005492694 0.53055674 -0.606198 -0.030519553 -0.0616377 -0.5280018 0.010816665 -0.16815731 -0.7984009 -0.37137365 0.79734 -0.40132934 -0.2062638 0.15124196 -0.08520002 -0.06201759 -0.5230414 -0.44146088 0.48131382 0.082873516 -0.47736016 -0.5828666 0.0068611475 -0.098886415 -0.3211588 0.21824938 0.16632782 -0.04957777 0.13465835 0.15546788 -0.27134347 0.013316273 -0.8377066 -0.36202767 0.33249122 0.40781248 -0.54281884 -0.023238549 -0.6077647 -0.40217403 0.05569625 0.439429 -0.52233034 0.28739628 -0.5747585 -0.18702266 0.8629098 0.15495004 0.72480243 1.1367388 -0.28817305 -0.3433592 -0.06288892 -0.258494 0.4396379 0.32433617 0.30545488 -0.41046408 0.07435974 0.16248322 -0.52159804 -0.578159 -0.016829425 -0.19170043 -0.11361493 0.101387374 -0.43766105 0.41437626 -0.16885826 -0.22157496 0.0028125008 0.6545186 -0.002451643 -0.5700015 0.112923734 -0.19547494 0.098386206 0.15072069 0.11523643 1.3524317 0.4876027 0.06655296 0.122473285 0.059067793 -0.60374105 0.4295726 -0.031599265 0.52425617 -0.13595311 -0.28751418 -0.438458 0.018337412 -0.5123684 -0.4660169 -0.47094068 0.030284677 0.71216655 0.20055084 0.18044844 0.120468445 0.8555218 -0.035358924 0.18721892 0.52707595 -0.17065763 0.3801189 -0.63496256 -0.24673529 0.28050706 0.24937603 0.6058995 0.43154582 
cn.jbone.common.ui.result.ModelResult.ModelResult 0.32963374 0.64196813 -0.38796806 -0.0019213771 -0.107059024 -0.15387917 0.21483706 -0.0797463 0.11945497 0.24676588 -0.30852562 -0.23476623 -0.32108974 0.6711818 0.738783 0.15038563 0.44146603 0.34936333 -0.2941083 -0.41312823 -0.22367465 -0.7213494 0.47104073 0.032806236 -0.95814985 -0.4442737 0.6348991 -0.44454235 -0.47392765 0.31339982 -0.16690013 -0.24770358 -0.51317585 -0.1893101 -0.14734656 -0.20456527 -0.23496257 -0.42918214 0.4163636 -0.4708675 -0.21877453 0.40486664 0.44562137 -0.6013689 -0.55819833 0.2581982 0.37429857 0.42320576 -0.39779016 -0.6186173 -0.077053405 -0.0039575915 -0.43836033 0.025137937 -0.13246115 -0.52882683 0.07827099 0.6096636 -0.2696581 0.21854056 -0.53421617 -0.28340757 0.3849006 0.35170516 0.38117704 1.0576645 -0.18284626 -0.26567188 -0.007078384 -0.62811506 0.16964297 0.5239762 0.0878658 -0.54524136 0.6223317 -0.3216213 -0.6138044 -0.7402027 0.40217742 -0.26996586 -0.18371132 0.43508935 -0.29290318 0.07530608 -0.30041516 -0.17848949 0.3717581 0.84959006 -0.51023304 -0.48102883 0.5404143 0.17677538 -0.091896914 0.5624468 0.6527872 0.7315973 0.921476 0.5236583 0.049288616 -0.22888185 -0.2929739 -0.19340758 -0.016546939 0.38715854 -0.11507321 0.42736703 -0.35045063 0.43199962 -0.114423 -0.69500047 -0.8179612 -0.17569034 0.7017045 0.5089247 0.4468131 0.044423245 0.4990604 -0.23440883 0.16267438 0.39746913 -0.32610497 -0.12876388 -0.5351117 0.005263923 -0.52451587 0.21666412 0.43996024 -0.39229235 
cn.jbone.common.ui.result.ResultStatus 0.2991027 0.687439 -0.26190802 0.0115661835 -0.04647448 -0.23460717 0.22117941 -0.072212376 0.08517791 0.2289147 -0.2592606 -0.18995476 -0.40112692 0.6639064 0.6737489 0.14021824 0.46317878 0.29128432 -0.28524697 -0.32784167 -0.21179543 -0.7171001 0.48262617 -0.034291703 -0.882766 -0.44526994 0.6470842 -0.46258977 -0.53059155 0.2722892 -0.1437641 -0.19330949 -0.39484373 -0.20463465 -0.13319464 -0.13289256 -0.21064031 -0.4133767 0.3271108 -0.51057464 -0.14999579 0.34293312 0.474065 -0.49679494 -0.47035438 0.23461078 0.3001549 0.355134 -0.31462708 -0.65297616 -0.17721441 -0.010719337 -0.53809965 0.022874918 -0.03400726 -0.41543618 0.09909579 0.6627515 -0.25152856 0.26823288 -0.60373616 -0.3111228 0.45066062 0.3115065 0.38994431 1.0616642 -0.27694643 -0.23091438 0.06329009 -0.74972963 0.20626123 0.47207797 0.090826444 -0.5706913 0.58048016 -0.2717246 -0.59308594 -0.779495 0.45176914 -0.26332667 -0.23347208 0.4752732 -0.359347 0.021318294 -0.28034872 -0.16220832 0.29314247 0.880745 -0.4835589 -0.5942285 0.6245507 0.18165688 -0.043239705 0.5493702 0.66730595 0.82477593 0.897909 0.44269562 0.08673431 -0.14441332 -0.41652057 -0.2830222 0.06498579 0.5388513 -0.18025045 0.44795552 -0.47479844 0.30556577 -0.20546179 -0.60572565 -0.79818326 -0.09455172 0.71344423 0.4045097 0.43367437 0.03589998 0.47946075 -0.19403858 0.19119169 0.39151528 -0.2756349 -0.1466372 -0.545956 0.038477816 -0.517826 0.20343865 0.43066084 -0.18580726 
cn.jbone.common.ui.result.ResultStatus.getStatus 0.5186288 0.8939307 -0.46565175 0.42745838 -0.15354511 0.111208804 -0.08371676 -0.29245353 0.45527926 0.06999159 -0.18077119 -0.4060171 -0.1317565 0.80106425 0.16888185 0.15812895 0.15991838 0.5165705 -0.5748143 -0.2375617 0.14047633 -0.94059616 0.0947701 -0.3472629 -0.36425424 -0.69230014 0.65130544 -0.2083177 -0.8994449 0.03173782 -0.010318928 -0.03907253 -0.13856593 -0.1517598 -0.034245025 -0.027015189 -0.9353148 -0.6044115 -0.02265395 -0.0708928 0.18193963 0.17558627 0.48219633 -0.25709447 -0.26230904 0.25807378 -0.0573905 -0.1484253 -0.62777144 -1.1024344 0.4460273 0.11668605 -0.1312827 0.38226902 -0.66136515 -0.610406 0.37609395 0.43666738 -0.47930577 0.08810037 -0.68074596 -0.05541674 0.73715806 0.328778 0.46853694 0.8062768 0.05111922 -0.023136634 0.02290203 -0.48093072 0.33803892 0.18474425 0.3457014 -0.49746534 0.03556012 -0.02537927 -0.52943635 -0.31695467 0.2345256 -0.02394993 -0.04929107 0.2826002 -0.06961388 -0.2542418 0.013120395 0.51366305 -0.12824678 0.19882329 -0.18943337 -0.5444894 0.55418795 -0.20808795 0.13359769 0.6842384 0.080054164 0.19680433 0.76292723 0.35421836 0.67659646 -0.28038615 -0.18250334 0.20217685 -0.54676145 0.58676445 -0.53372604 -0.50866234 0.08661685 0.111688145 -0.56515443 -0.21641316 -0.47482315 -0.33557606 0.55958843 0.11967173 0.03550323 0.35543606 0.38885117 -0.24408104 -0.05662762 -0.11596181 -0.18246806 -0.013358058 -0.21169905 -0.043303497 0.028962748 0.36855894 0.6428595 -0.07791817 
cn.jbone.common.ui.result.ResultStatus.getMsg 0.4607853 0.8795908 -0.43332696 0.4777538 -0.17462817 0.1436421 -0.12871824 -0.28585508 0.41949266 0.058649894 -0.2252922 -0.444997 -0.16490477 0.80585086 0.15293631 0.1542982 0.13604574 0.5862413 -0.63810337 -0.22763631 0.0610586 -0.97773397 0.14502965 -0.29256853 -0.45263833 -0.7130638 0.62670445 -0.21147425 -0.8375399 0.07229378 -0.014986061 -0.07018588 -0.2411088 -0.16074413 0.0039693248 -0.0061741415 -0.95274067 -0.57218593 0.047774035 -0.018450776 0.11106084 0.18031435 0.47049442 -0.22224495 -0.23784593 0.2577064 -0.014589868 -0.1477335 -0.6606401 -1.0401068 0.5072428 0.07995513 -0.11216102 0.4003777 -0.68471795 -0.59089655 0.36428016 0.39118925 -0.45885035 0.13917136 -0.6858272 -0.008079951 0.81787246 0.3376605 0.5272133 0.8394888 0.04777198 -0.008516672 0.009674833 -0.4671213 0.38281357 0.16204268 0.34292617 -0.5047497 0.079692826 0.005117149 -0.601882 -0.30314922 0.18507819 -0.05770249 -0.024864793 0.26747125 -0.09373076 -0.23534337 0.011352412 0.46248874 -0.109773025 0.20623687 -0.17760912 -0.58754754 0.53396994 -0.20486103 0.14865124 0.6547163 0.07553042 0.21350038 0.77296275 0.37897626 0.65188384 -0.30309153 -0.13802825 0.23088217 -0.5070782 0.5685104 -0.51859564 -0.51270926 0.055010993 0.097655565 -0.5948891 -0.2570536 -0.52087325 -0.36540172 0.60616904 0.19465886 0.026466178 0.34000883 0.44161102 -0.2535056 3.1336458e-06 -0.073634535 -0.24993809 -0.11050987 -0.25418553 -0.048902307 0.047998648 0.33768934 0.6470252 -0.046830017 
cn.jbone.banner.AbastractJboneBanner.printBanner 0.04576066 0.6326965 -0.8292677 -0.20202656 0.16255514 -0.12951006 -0.28734964 -0.5403465 0.273147 -0.1296318 0.04009263 -0.20389025 0.17261623 0.18004067 0.23383413 0.20070271 -0.16780922 -0.28659052 -0.07855699 -0.00014445215 0.5184464 -0.29039624 -0.4350045 -0.09793942 0.07358742 -1.0088884 0.46300206 -0.24074742 -0.97488916 0.3832374 -0.103043996 -0.60918784 -0.4569996 -0.07688311 0.4191028 0.24261051 -0.83154005 0.008915523 0.005303442 -0.05108357 0.03608081 0.08612185 -0.20661874 0.026131816 0.016935578 0.48623 0.018889379 0.035023477 -0.09209345 -0.6170467 0.4371046 -0.018864471 -0.38085708 0.5979373 -0.46094057 -0.7056648 -0.09193602 0.19423127 -0.31263143 -0.03160137 -0.14338574 0.7837103 0.3776134 0.31197447 -0.11543014 0.7857831 0.15540121 0.09731964 0.537441 0.31087536 0.3001851 0.29954293 0.10248344 -0.14684188 -0.07867182 -0.66486514 -0.05276805 -0.33956805 0.05891979 0.21355444 -0.4596076 0.48606363 0.46782264 0.45242026 -0.1430374 0.5246215 -0.23603912 -0.5117234 -0.33225963 -0.23844376 0.15382777 -0.25644657 0.7183559 0.3109538 0.48180842 -0.20533599 0.4334029 0.99587774 0.24625328 0.37969905 -0.46525604 0.13018154 -0.5361049 0.14160143 0.56582016 -0.18815364 0.16642259 0.6154295 -0.045464292 -0.4641142 -0.40526494 -0.6148195 0.18744405 0.36973217 -0.21732475 0.029639198 0.32055444 0.330618 -0.92951137 -0.15682247 0.11838266 -0.08651033 0.22745901 0.33194476 -0.022369143 -0.31253615 0.6905738 -0.2484143 
