Variable_N 128
Activity 0.16746873 -0.3116486 -0.07771268 -0.26083216 -0.14065452 -0.6001434 -0.3960795 0.4216441 0.038844183 -0.32582143 0.36947337 0.03354002 0.15613396 0.43531355 -0.18485808 0.46836674 -0.20973274 0.14914364 -0.18894827 0.029072631 -0.20343405 -0.3359771 0.1923706 0.20204084 0.028761819 0.1554931 0.5224049 0.20206116 0.27340043 0.1851283 0.18357867 -0.067857265 -0.47723672 0.05264341 0.57808596 0.15005209 0.31207302 -0.34824693 0.15752544 0.17303807 -0.3191619 0.103648156 -0.1581153 -0.20630272 0.3732082 -0.039312433 -0.29891154 0.52046233 -0.15255189 -0.34155798 -0.032973085 0.03148925 0.44578785 -0.18399991 0.5224675 0.15344033 0.15587412 -0.0064301803 0.0065337387 -0.1760433 -0.28526586 -0.27382195 -0.12715878 -0.16063017 -0.5829789 0.096297026 0.2542249 0.28168947 0.0902909 -0.0638326 0.29411417 -0.0048462837 0.10147747 0.15933402 0.13984247 -0.35868856 0.62898993 0.08548242 -0.26734012 0.2023566 0.39793444 0.05952783 0.085828215 0.703501 0.14131582 0.14280622 -0.2718259 -0.21780397 0.04702791 0.17956033 -0.3975729 -0.43147558 0.41966075 -0.16927922 0.110297576 -0.07957179 0.108101524 0.17090142 -0.19323604 -0.4063061 -0.119829446 0.33775717 0.07965092 0.14529605 0.39407918 -0.17642766 -0.012283591 0.05535223 0.47495952 0.31325552 -0.036388136 -0.028964687 0.14198388 -0.4081744 0.053550713 -0.1543394 0.2568241 0.08581018 -0.075443216 0.44368973 0.12614073 0.004825207 -0.074471705 -0.33573315 -0.4190918 -0.19690026 0.5258025 -0.34235463 
com.savinoordine.menuanimation.MyActivity 0.39272836 -0.68689877 -0.19920506 -0.36418122 0.29409596 -0.40056202 -0.5190737 0.40144157 -0.014385882 -0.42029646 0.49344203 -0.2234569 0.41982627 0.4267881 0.08886127 0.25678983 -0.1807841 0.0038872818 0.4566646 -0.054104485 -0.13377221 -0.40156543 0.46938264 0.048195362 0.21998791 0.53846204 0.38554448 0.115616016 0.35739198 0.55556834 0.34456497 0.18308486 -0.39491382 0.11269079 0.6812783 0.35759082 0.102272354 -0.048509695 -0.1946172 -0.1092207 0.1700243 -0.0723099 -0.055942632 -0.05591994 0.43549374 -0.336585 -0.47273126 0.23238896 -0.29097408 -0.46628654 -0.26645818 -0.42502385 0.06712852 0.1674348 0.4571208 -0.28665707 0.34555227 0.07926811 -0.39316887 0.12515931 0.036929503 -0.3258923 -0.29213804 -0.3432475 -0.2972445 -0.016329993 -0.05040834 -0.12766574 -0.015917914 -0.17964642 0.34158796 -0.37602207 -0.11484261 -0.13369113 0.20830062 -0.2759437 0.21462955 -0.3178451 -0.2614625 0.16360623 0.3363018 -0.30449253 0.2762111 0.65853214 -0.021442251 0.38933077 -0.05920364 -0.16736439 0.3538037 -0.14378452 0.14289556 -0.29207897 0.14658912 0.40547982 -0.1503826 0.26253286 0.02835086 0.2181574 0.18911019 -0.44117463 0.28303045 0.22265312 0.2446595 0.19495851 0.21041447 -0.25539038 -0.32825205 0.36564565 0.09956225 -0.108519 0.10569603 -0.015932476 -0.2446472 0.14424837 0.3084242 0.1912415 0.08205395 -0.19026268 0.10192225 0.23715675 -0.364853 -0.14212795 -0.062119294 -0.076534025 -0.5177593 -0.13997114 0.49855402 -0.025141228 
ApplicationTestCase 0.17539077 0.40017197 -0.10737916 0.43944404 -0.3439679 0.08969252 -0.3768584 0.43495813 0.62560946 0.48899892 -0.34061918 0.30753505 0.51865554 0.14531553 -0.0021425753 0.03831042 0.23354007 -0.16192546 0.2904284 0.2216048 -0.1496147 -0.5990185 0.28798735 -0.52367413 0.2952373 -0.4906665 -0.079136394 0.4118364 0.21012719 -0.3041705 0.071219355 0.4181207 -0.20640527 -0.60416013 -0.12442383 -0.34858134 0.20085582 0.37256217 0.17039841 -0.3222969 0.5703188 -0.17998596 -0.11668904 0.50389594 -0.053312138 -0.02037771 -0.29187506 -0.14759284 0.33719283 0.24709952 0.28164157 -0.3686447 -0.541028 -0.40094617 0.2298751 0.32976335 -0.4382 -0.45111567 -0.4453121 -0.07843291 0.3920651 -0.23759325 -0.36152893 -0.19784358 0.47029877 0.46867985 0.3239881 0.25838932 0.27352673 0.41454846 0.24806456 0.41808763 0.090414986 0.06468074 -0.22546352 0.059397057 0.25112653 0.27925274 0.024454312 0.17224324 -0.06091331 -0.2370434 -0.18504733 0.35162276 -0.08325525 -0.003336987 -0.02431254 0.55325824 0.0044408394 0.10392765 -0.023110047 -0.14919606 0.15060316 0.5074786 0.42634535 0.044778984 0.49661154 0.03430485 0.21673247 -0.15713722 0.12980871 -0.15239856 -0.66274196 0.5068216 0.2625094 -0.2711294 0.061357215 -0.3427331 -0.31077105 0.24579059 -0.106044956 0.04598944 -0.06348895 -0.16891843 -0.081560425 -0.16906926 -0.61281615 -0.6955531 -0.39294213 0.23675533 -0.659753 -0.032951567 0.10225682 0.21327111 -0.5602588 -0.19805704 -0.0069319867 -0.1404176 
com.savinoordine.menuanimation.ApplicationTest -0.38048804 0.096906684 -0.26930478 0.59903044 -0.045107298 0.18560669 -0.31033367 0.406643 0.07438323 -0.30740187 -0.11939182 -0.024597796 0.7942032 0.31959012 -0.2440776 0.2778515 0.098093815 0.021871734 0.49681002 0.5833699 -0.59259266 -0.16304201 -0.15039362 -0.39722466 0.12170992 -0.11125235 -0.035031687 0.65905786 0.15238574 0.3226242 0.32445544 0.5070222 0.0048650852 -0.37672698 0.04333603 -0.22851978 0.34542492 -0.19791304 -0.52599186 -0.21210608 0.7563888 -0.056601066 -0.01058185 -0.27394003 -0.06596272 -0.4607855 -0.007000665 0.14253557 0.0731371 -0.2716431 -0.1025978 -0.2883103 -0.29400092 0.47752947 -0.46758035 -0.35085276 0.42446277 0.54499793 -0.17754947 -0.22088987 -0.47855118 -0.04570615 -0.5753677 -0.5379097 -0.43599862 -0.14025298 -0.24339068 0.02619899 0.20533286 0.5723731 0.08223023 0.3124811 -0.08316654 -0.27023628 -0.30000603 0.4546265 -0.44572395 0.38022462 0.5217747 0.071518384 0.13277598 0.12751642 -0.093456894 0.16380481 0.13656807 -0.13802308 -0.17345357 0.007845792 0.17132531 0.37617683 0.5155723 -0.47512218 0.035249595 0.8209646 0.40603295 0.04302343 0.22003265 -0.3437572 0.010320008 -0.013702676 0.42104828 0.28855312 -0.23476563 0.05784762 -0.04259565 -0.4402552 0.36664966 0.4149303 0.11006313 0.00085171225 0.20730469 -0.17180784 0.1115401 -0.34447116 0.26024204 0.4327649 0.15140915 0.017213836 -0.41836286 0.1685703 -0.20989902 -0.3152506 -0.005966679 0.23188579 -0.07319358 -0.23003195 0.03985097 0.2866589 
android::test::ApplicationTestCaseApplication 0.16290334 0.37959352 -0.1292755 0.42757872 -0.33309576 0.07124528 -0.3908509 0.43624696 0.62025166 0.46950793 -0.33694872 0.2916946 0.52521825 0.14158976 -0.0032028924 0.043652486 0.219328 -0.17910506 0.2957183 0.20791791 -0.14175813 -0.5798114 0.27290693 -0.5086878 0.2793599 -0.46783212 -0.08290681 0.40719146 0.20950565 -0.2862492 0.069672495 0.39558733 -0.20381042 -0.57256955 -0.10340005 -0.34412554 0.18736887 0.36798307 0.1369171 -0.329173 0.55903596 -0.17147565 -0.11560198 0.47626942 -0.04848813 -0.028209087 -0.29128864 -0.14161654 0.32320285 0.22974098 0.2570374 -0.35784814 -0.51786286 -0.3844031 0.25100553 0.32889858 -0.4147532 -0.4474526 -0.42547506 -0.06617319 0.38390177 -0.2523676 -0.34998915 -0.21106346 0.45048693 0.46759024 0.302769 0.26283756 0.26736808 0.3864748 0.25255954 0.40238258 0.08472919 0.080315754 -0.21529101 0.033803407 0.25540248 0.2691941 0.018123401 0.18412386 -0.054220866 -0.23094372 -0.17569274 0.38479528 -0.08780741 -0.008796672 -0.014382389 0.5176079 -0.008053042 0.085662596 -0.011261574 -0.15416694 0.15838519 0.49186867 0.414186 0.02766868 0.48708746 0.043924242 0.22133458 -0.1846088 0.13711837 -0.12649031 -0.6345193 0.5161107 0.26602057 -0.29404923 0.041508432 -0.32422844 -0.29095474 0.2495002 -0.11700071 0.027576806 -0.07626873 -0.17052396 -0.0567056 -0.1720126 -0.5961202 -0.67597866 -0.39254585 0.23562995 -0.6426577 -0.057960734 0.1178918 0.20931616 -0.5474519 -0.18536547 0.0046324697 -0.15434077 
com.savinoordine.menuanimation.MyActivity.onCreate 0.54061764 -0.5355049 0.12458081 -0.4155683 -0.20213298 -0.5100055 -0.32912695 0.5220752 -0.37678438 -0.21087423 0.38334593 -0.17156254 0.30319476 0.32754204 -0.07169101 0.5439857 -0.24491452 0.5521012 -0.032597784 -0.00637594 -0.25562274 -0.32104257 0.66656697 0.25183696 0.43759063 0.15024929 0.718331 0.33709952 0.28669226 0.43772778 0.19744937 0.036738977 -0.7750454 -0.14860788 0.7075137 0.0482869 0.35888246 -0.27764535 0.25248957 0.27077666 -0.19628082 -0.045304503 -0.27608752 -0.00505436 0.50079143 -0.18483648 0.071608156 0.63830805 -0.2739232 -0.23537037 0.24382447 -0.2088454 0.21878564 -0.1061507 0.17679445 0.10666074 -0.096037686 -0.0473005 -0.18633014 -0.07812733 -0.1844466 -0.37145466 -0.1330123 0.073132545 -0.3942777 -0.10833528 0.113244064 -0.2359797 -0.16859838 0.13854402 0.08317716 -0.37808546 0.16500103 -0.19571783 -0.03598483 -0.26968917 0.63923377 -0.051793106 -0.11903646 0.3437684 0.44642657 -0.043444615 -0.03672912 0.33153257 0.29447547 0.34230688 -0.19640234 0.21454762 0.1812807 0.203188 -0.44661075 -0.22081997 0.5645214 0.0046172068 -0.21730359 -0.022982419 0.06043383 0.20957756 -0.0956256 -0.35027957 -0.17953931 0.0007439469 -0.28406143 0.12603293 0.16272908 0.15036166 -0.004626975 -0.042413518 0.14422181 -0.09266551 0.1439463 0.26667914 0.25666526 -0.113838375 0.18205915 0.16798918 0.21095209 -0.45388702 0.064006686 0.40302542 0.054390594 0.13356711 -0.31597692 -0.4547848 -0.62704426 -0.15771993 0.7403748 -0.101470895 
io.github.onivas.promotedactions.PromotedActionsLibrary 0.22870512 -0.09288048 -0.0066705714 0.15976492 -0.18909842 0.10882051 0.14479522 0.32919374 -0.31781405 0.23985928 0.19104363 -0.1770077 0.22166942 0.1351782 0.002873915 0.29125667 0.06902291 0.44209096 -0.03149859 0.20556474 -0.31324086 -0.083333194 0.45043752 -0.13212778 0.487186 -0.39890787 0.4746397 0.44414437 0.13497566 0.2227525 0.02107741 0.24099277 -0.3909036 -0.21767454 0.056728642 -0.41412413 0.18412863 -0.18730435 0.31276646 0.32183978 0.2116603 -0.23467343 -0.09185565 0.11071268 0.28501704 0.01718068 0.501111 0.4407827 -0.2844332 0.018517032 0.15505092 -0.11124549 -0.098603316 0.03693594 -0.44020748 0.19818339 -0.40872785 0.044229295 -0.17449287 -0.060971484 0.1445382 -0.0888465 -0.08071535 0.3914079 -0.16542017 -0.15112309 -0.29720086 -0.41479117 -0.34030372 0.3510388 -0.26252827 -0.10420077 0.14851333 -0.30003244 -0.3118373 0.36588782 0.16331421 0.11372722 0.22626439 0.30526227 0.1978462 0.23409672 -0.17812176 -0.4905376 0.4825082 0.16044228 0.0044317213 0.4528114 0.22780128 0.2885498 -0.31601307 0.058166776 0.43295166 0.1563801 -0.048505448 -0.13007675 0.05270684 -0.06688702 -0.27934417 0.09635355 -0.26997495 -0.29639512 -0.4745737 -0.21580541 -0.0519352 0.24977532 0.11407214 -0.3416199 -0.19654119 -0.2853337 -0.006898194 0.23170549 0.3730635 -0.036126774 0.17678162 0.3829432 0.2441107 -0.5967024 -0.033224296 0.1675799 0.29196465 0.1712773 -0.38483366 -0.22689356 -0.07840226 -0.19747096 0.4435173 0.16341755 
io.github.onivas.promotedactions.PromotedActionsLibrary.setup 0.17092548 -0.095689535 -0.04725342 0.2945003 0.03530691 -0.029339304 0.096319444 0.33694404 0.26693097 0.011655937 0.7565308 0.23930842 -0.053273413 0.49351335 -0.014507689 0.1668943 0.16643378 -0.12406867 -0.13391913 0.4938733 -0.08425823 -0.437813 0.20935461 -0.34003872 0.00010555254 -0.1953695 0.45063898 0.23444182 0.25212792 -0.12695059 0.2517908 0.4976752 0.03948356 -0.10832698 0.1943519 0.23229913 0.11708291 -0.16016898 0.31161714 -0.005487362 0.22002839 0.05964523 -0.021687033 0.23409712 0.25304273 0.2662226 -0.13577168 0.10455601 0.045286514 -0.06972581 -0.13033204 -0.16898006 0.21600293 -0.063778065 0.21866082 -0.10237263 -0.060407795 0.17929067 -0.39268547 -0.18427062 0.082688525 0.22883226 -0.41513368 -0.15333585 -0.46631226 0.04691633 0.2797296 0.16505893 0.24228854 0.12774296 0.3338439 0.21717186 -0.1556328 -0.34419087 0.08982582 0.2752467 0.30738744 -0.044382278 -0.15453428 0.18267132 0.019452661 0.18186754 0.1020885 -0.086879395 0.52826977 0.07944701 -0.34451938 -0.23141907 0.4740899 0.2924889 0.18002479 -0.5449234 0.07406695 0.2502248 0.28184938 0.2038861 -0.057247568 -0.21736023 -0.28239316 0.3328868 -0.111091495 -0.0311105 0.13932495 -0.55643046 0.1931234 0.0985526 -0.049001515 0.21475902 0.15792373 0.16032839 0.061989374 0.034299877 0.18744707 -0.4120611 -0.24588618 0.0035291219 0.1961031 -0.011564676 0.023119327 0.27364412 -0.119366154 0.19471453 -0.34580982 0.04582521 -0.08184819 -0.5151676 0.04413286 -0.02356687 
ArrayListImageButton 0.18196034 -0.2844211 -0.42250466 -0.027005006 0.17697133 -0.15140828 -0.3019249 0.25539082 0.391083 -0.12673225 0.143247 -0.08509825 -0.005362265 0.21415977 0.03425412 0.034322467 -0.083764695 -0.1841826 0.1937534 9.392803e-05 -0.3517329 -0.45807037 0.1277835 -0.24102432 0.2121114 0.073029526 0.14714737 0.068386085 0.44510874 0.36919212 0.08688375 0.05738284 -0.18976234 0.1525101 -0.049989432 -0.33761442 0.024762163 -0.001759073 -0.023648879 0.20949374 -0.03347102 -0.16836913 0.05730012 -0.13362549 0.25455505 0.18961057 -0.38322622 0.31011975 -0.3861839 -0.6162262 -0.43820018 0.16661364 -0.05634012 0.03696433 0.30936906 0.25610173 -0.17864996 -0.108754985 -0.13715123 0.03119796 0.5031038 -0.13656385 0.053299572 0.15373664 -0.09274139 0.027062725 -0.19761585 -0.04806484 -0.19018532 -0.0758495 0.00092834444 -0.015794942 0.13086164 0.16550903 -0.1872183 -0.013359852 0.17795704 -0.11828489 -0.29233828 0.16528432 0.3966519 -0.11797811 0.47566047 0.3363113 -0.073069274 0.15124178 0.017917575 0.28436115 0.3537975 -0.16457403 -0.39449543 0.021974038 0.1959248 0.04508359 0.071869135 0.04062282 0.15444139 -0.010201266 -0.15698577 -0.42737296 -0.045923956 0.17189474 0.07769187 0.29116422 0.2938933 -0.21222487 -0.14307214 -0.31475607 0.05944356 0.06693267 -0.22441223 0.11155711 -0.10210562 0.057391632 0.30219185 -0.03292955 0.020032275 -0.20996055 -0.022807464 0.058362156 -0.01631222 -0.008446013 -0.17492515 -0.10837492 0.023025 -0.27620673 0.46401426 -0.15678407 
FrameLayout 0.18065044 -0.2891508 -0.45094657 -0.03215812 0.17062436 -0.17884842 -0.33678007 0.2761406 0.41638398 -0.1433294 0.12062429 -0.08361144 0.016122079 0.22176711 0.030774258 0.04624249 -0.097275585 -0.18827474 0.1954189 -0.010036586 -0.36946246 -0.47839478 0.11826101 -0.23716347 0.21152546 0.07612121 0.15245451 0.08400844 0.46946308 0.37953144 0.08917595 0.03919274 -0.2154102 0.1604724 -0.031457555 -0.36077276 0.042254265 -0.0030567397 -0.03999943 0.20994379 -0.052136425 -0.17251387 0.046527173 -0.15472227 0.25833696 0.18529287 -0.40723827 0.32832274 -0.39049587 -0.6391598 -0.44872576 0.18340982 -0.048711706 0.035292596 0.34947836 0.28344417 -0.17351644 -0.12051918 -0.11749827 0.031685203 0.5005908 -0.16161248 0.055602174 0.14433856 -0.10526273 0.0415044 -0.19133104 -0.024226602 -0.19044751 -0.084936395 0.011024634 -0.0074106893 0.13773625 0.20400165 -0.18916908 -0.039245892 0.20659786 -0.10217354 -0.31264997 0.17776935 0.4235231 -0.12096689 0.49212736 0.3980709 -0.09090084 0.14613359 0.015988741 0.27808613 0.33993578 -0.17430516 -0.42154214 0.014117242 0.22281645 0.039527252 0.078981556 0.020257086 0.17645355 0.005425451 -0.15812503 -0.46680114 -0.044715337 0.19698961 0.0729944 0.3291473 0.3180387 -0.2436945 -0.14124557 -0.32946485 0.08756853 0.09444359 -0.24220829 0.108686745 -0.105359346 0.04146913 0.31256014 -0.051360365 0.024817506 -0.21248002 -0.040428113 0.07211249 -0.009957269 -0.014054206 -0.16521463 -0.1170298 0.0065306216 -0.2782683 0.48690775 -0.18727708 
Context 0.14964278 -0.26122972 -0.46733385 -0.0026957255 0.149509 -0.16690758 -0.3206514 0.27212387 0.41819933 -0.101099454 0.0799791 -0.09838478 0.03869019 0.19407952 0.03200991 0.026501011 -0.08742502 -0.21326315 0.19724664 -0.019605292 -0.34366557 -0.42614067 0.083619535 -0.23119241 0.2033625 0.03970527 0.12536237 0.0894072 0.4356838 0.3532405 0.049878255 0.0073477784 -0.18755919 0.17499621 -0.038108442 -0.38430595 0.015006664 0.019667579 -0.05643407 0.1772571 -0.0359966 -0.1624993 0.053018674 -0.14756326 0.24851358 0.19412883 -0.3663732 0.3082268 -0.3780746 -0.5946952 -0.44431415 0.19111216 -0.047490515 0.038125664 0.34497285 0.31142312 -0.18523625 -0.15113075 -0.08762524 0.044780046 0.500486 -0.17658032 0.06583967 0.15736392 -0.089636885 0.055942442 -0.22489591 -0.015619471 -0.20424187 -0.11420446 0.0060727866 -0.007364847 0.12988882 0.23919155 -0.1720992 -0.047447175 0.21005395 -0.10469072 -0.29183742 0.20269361 0.39698413 -0.10655624 0.45840672 0.4008315 -0.0921715 0.13660993 0.0657534 0.25365025 0.28553113 -0.20443258 -0.41088825 0.03204368 0.22529909 0.017756978 0.06591801 -0.009727938 0.17820923 0.012776322 -0.14899279 -0.4818402 -0.03485288 0.2059273 0.06283502 0.32738945 0.3174988 -0.24827847 -0.17070654 -0.34248766 0.07349408 0.0902776 -0.2859131 0.07270498 -0.10788257 0.040394623 0.33335578 -0.05183191 0.016320236 -0.2233007 -0.054293107 0.07042044 0.0133875515 -0.04784176 -0.12525494 -0.11572384 0.03599456 -0.22878116 0.46930572 -0.19840072 
RotateAnimation 0.17198728 -0.2922029 -0.45121777 -0.022538256 0.15622742 -0.16358098 -0.32709965 0.28302613 0.35848415 -0.120481186 0.09767672 -0.12235568 0.06738209 0.19701381 0.036666673 0.052175406 -0.09715593 -0.16979477 0.21551248 -0.023309741 -0.35009181 -0.4139153 0.12284873 -0.2061933 0.23400465 0.06565567 0.15732351 0.10649793 0.43395463 0.3861713 0.06528723 0.022927476 -0.22162752 0.16542871 0.0016993172 -0.36659992 0.031694964 0.003881469 -0.06340136 0.18995015 -0.025605133 -0.17306936 0.037976407 -0.1550013 0.26463223 0.1483816 -0.33964688 0.32964644 -0.39445597 -0.5968107 -0.41876367 0.16350412 -0.04915891 0.06716288 0.3049789 0.2798696 -0.17173678 -0.12201315 -0.103840545 0.046080466 0.46856272 -0.1915364 0.05811091 0.1548873 -0.10988082 0.034905855 -0.24262202 -0.057669908 -0.22279444 -0.08617363 -0.009756734 -0.042008255 0.13462888 0.19086379 -0.18028067 -0.043439157 0.19262032 -0.1084319 -0.27205083 0.20097162 0.41194308 -0.10994771 0.4411946 0.37916666 -0.06916758 0.14882019 0.063783385 0.26811254 0.29373324 -0.18386978 -0.3948524 0.025010161 0.22823144 0.040250167 0.0413136 0.0020361694 0.16220643 0.017661983 -0.1393499 -0.46923727 -0.03274029 0.19071239 0.051514145 0.320464 0.28663862 -0.23326935 -0.15596764 -0.31482252 0.06167135 0.043946 -0.24924122 0.08168338 -0.099380255 0.06379662 0.34234807 -0.011425826 0.034958046 -0.24927285 -0.049125016 0.07665376 0.011988563 -0.044993486 -0.1458605 -0.12577982 0.012464769 -0.23064081 0.4862149 -0.1667969 
ObjectAnimator 0.17202076 -0.26964575 -0.42242375 -0.019828133 0.12809174 -0.15858395 -0.30171025 0.27132168 0.34444574 -0.102067724 0.08161139 -0.107511654 0.051945005 0.19205275 0.023740215 0.0584108 -0.08867464 -0.14704156 0.1915765 -0.022254372 -0.34650263 -0.40610445 0.124917775 -0.20192987 0.22805043 0.040963307 0.14890993 0.106282875 0.41703466 0.36503628 0.0552634 0.01703785 -0.22497968 0.14323881 -0.024242936 -0.37521982 0.036863126 0.00081437506 -0.038935576 0.19788216 -0.026451217 -0.17636897 0.041180775 -0.14155729 0.25326627 0.15428111 -0.31605276 0.3302235 -0.38048688 -0.57104266 -0.39706856 0.16002078 -0.05833991 0.03825482 0.2801093 0.288591 -0.18689904 -0.12642793 -0.09861277 0.040644906 0.46261188 -0.17461208 0.06151445 0.1698076 -0.085461624 0.026560107 -0.22694181 -0.058869638 -0.21741864 -0.069061555 -0.014551154 -0.0291998 0.14382468 0.1915841 -0.18491255 -0.029607994 0.19504099 -0.08951105 -0.2584858 0.19107638 0.398924 -0.104318835 0.42290822 0.34740725 -0.07072533 0.14851898 0.054298982 0.2820706 0.28732723 -0.16663267 -0.41125876 0.038092528 0.24050891 0.027630603 0.04605331 -0.011835236 0.17103614 0.016000252 -0.1421304 -0.45632687 -0.04845255 0.17196682 0.023812693 0.31638932 0.28694904 -0.21223089 -0.13916618 -0.33278152 0.05332587 0.054759845 -0.24106066 0.096719965 -0.07526583 0.04970084 0.32948926 -0.012492879 0.025734942 -0.24343415 -0.04466642 0.073730364 0.023875877 -0.03008253 -0.15167853 -0.13078065 0.0070096757 -0.22651204 0.48228392 -0.16353932 
ImageButton 0.15688542 -0.2801058 -0.45752302 -0.006007407 0.18003045 -0.1515777 -0.31654412 0.26826367 0.39575723 -0.12604378 0.11683485 -0.10922747 0.05008396 0.20750968 0.038424596 0.024521664 -0.07553068 -0.21175002 0.22226292 -0.009630334 -0.34011638 -0.42872596 0.10026579 -0.23162054 0.20299637 0.064103454 0.12395672 0.086228244 0.42639863 0.36822882 0.06830606 0.04269462 -0.17604983 0.17452738 -0.022750821 -0.34613907 0.009682284 0.015527017 -0.068416 0.17286575 -0.010459759 -0.16956966 0.05268202 -0.1358314 0.25273594 0.17058389 -0.37069413 0.29151624 -0.37533304 -0.5963988 -0.44362843 0.16202283 -0.05529951 0.069085136 0.3182417 0.25880694 -0.16182262 -0.11159635 -0.11534419 0.053713012 0.4880417 -0.16462635 0.04250604 0.1365509 -0.0958135 0.035537504 -0.22632626 -0.040417522 -0.19830501 -0.09808992 0.0014957486 -0.019308263 0.11439399 0.19381228 -0.16844538 -0.02569647 0.17127027 -0.12433071 -0.27500907 0.19039191 0.38858896 -0.11184099 0.46294293 0.37520412 -0.082832865 0.14593588 0.05748066 0.24312797 0.30842155 -0.19200146 -0.36101905 0.02381135 0.19210707 0.058169454 0.062366556 0.018209593 0.15932445 0.0012854399 -0.13574955 -0.45215556 -0.01753126 0.19182709 0.08145246 0.29912913 0.29259685 -0.23492208 -0.16457991 -0.2992998 0.060602956 0.055844076 -0.24958992 0.070346534 -0.11893702 0.062439453 0.33010244 -0.017906392 0.026795706 -0.21398057 -0.048516106 0.06149536 -0.0146585135 -0.049708024 -0.13845025 -0.09964187 0.032220397 -0.23915528 0.45289725 -0.16780685 
io.github.onivas.promotedactions.PromotedActionsLibrary.addItem 0.1752876 -0.15814748 -0.030412251 0.22749925 0.03504661 -0.07812242 0.069738396 0.3372839 0.19219144 -0.103470124 0.75668895 0.19119447 -0.06596914 0.49649063 -0.056326997 0.19998889 0.11034218 -0.049171455 -0.14661615 0.48387614 -0.15547532 -0.42558524 0.19966915 -0.2756504 0.008592933 -0.13455588 0.47575727 0.23711258 0.25829223 -0.031818524 0.27297935 0.45331374 -0.008625547 -0.08581151 0.22822605 0.22854848 0.16147253 -0.22074541 0.28035536 0.07517213 0.112794936 0.074398294 -0.044362467 0.14842013 0.26588234 0.24561475 -0.11464484 0.19442146 0.002509951 -0.16322163 -0.12359797 -0.10339532 0.2612581 -0.011737348 0.18195285 -0.11070788 -0.02470288 0.23806171 -0.33077344 -0.18910599 -0.0056911604 0.21068504 -0.38442117 -0.12765436 -0.54595345 -0.035464283 0.26683295 0.1301452 0.21325411 0.14905685 0.28271943 0.16325071 -0.119077645 -0.3548846 0.04388092 0.24352081 0.3131975 -0.039962947 -0.14296414 0.18097666 0.08767398 0.19846767 0.14734067 -0.069271915 0.522016 0.08350551 -0.3794845 -0.21419325 0.48211598 0.32553014 0.098555505 -0.53830266 0.09377516 0.20045798 0.2378681 0.19427605 -0.08740927 -0.2350539 -0.30877337 0.29643026 -0.12536637 0.011343934 0.15168665 -0.5426664 0.18092348 0.13049659 0.0016906587 0.22537683 0.21879256 0.14892797 0.092517376 0.0766015 0.22119567 -0.4178863 -0.21081096 0.019622061 0.26753712 0.045173097 0.023033803 0.2732321 -0.05499517 0.2066457 -0.39029083 -0.018838257 -0.057562765 -0.51755416 0.10358742 -0.017026866 
io.github.onivas.promotedactions.PromotedActionsLibrary.addMainItem 0.09646017 -0.15943955 -0.44438985 0.45166728 -0.044835087 0.0058011794 0.20228165 0.44846144 0.13521501 0.22867349 0.58353883 -0.03780972 0.0956978 0.31044152 0.07563253 0.18991241 0.10245924 -0.23101854 -0.0692061 0.35144046 -0.103311956 -0.056569427 0.0647467 -0.30211443 0.125742 -0.35047805 0.5072461 0.36949006 0.2694959 0.02129366 -0.04180834 0.15503235 0.046376348 0.1626258 0.19324607 -0.23460935 -0.095078625 -0.13489504 0.07390026 0.0060635325 0.34674785 -0.023118857 0.05632154 -0.01797081 0.37811905 0.32776242 0.2611287 0.23612683 -0.277059 -0.09851726 -0.35683754 0.059881754 0.27454853 0.13339886 0.084692076 0.1958719 -0.20163712 0.06181417 -0.173369 -0.088967 0.2610681 0.10240338 -0.14845382 0.10125473 -0.5459869 0.08994792 -0.32657403 -0.0008584573 -0.19228919 -0.1090254 0.20861661 0.049805313 -0.109540135 -0.12909767 0.083589345 0.31296366 0.32553104 -0.15642235 -0.13077798 0.4609733 0.13594578 0.34521854 -0.035161365 -0.13481048 0.6104358 0.001616796 0.09226279 -0.3050653 0.22969191 -0.040592916 0.09094609 -0.36679977 0.33425248 0.03280126 0.016749395 -0.1553604 -0.084176965 -0.15401559 -0.39161336 0.09244452 -0.16646004 0.1217485 0.08000946 -0.5030145 0.22389743 -0.023300817 -0.2437264 0.060891114 0.10586779 -0.024946295 -0.30717877 -0.18354404 0.28568614 -0.31097814 0.13244116 0.19872908 0.38718042 -0.24638082 0.05084648 0.2176572 0.29858494 -0.036785457 -0.26361954 -0.120468885 0.2279019 -0.286761 0.26952627 -0.08903594 
io.github.onivas.promotedactions.PromotedActionsLibrary.closePromotedActions 0.20598581 -0.07599902 0.15924595 0.048406288 0.098639466 -0.016439425 0.044375822 0.12545954 0.21141732 -0.16107972 0.5726005 0.29265803 -0.26543972 0.40818125 -0.06591086 0.14219013 0.081077814 0.12420268 -0.18724412 0.38254118 -0.24997446 -0.60332954 0.3010132 -0.31059265 0.0789889 -0.04684284 0.35375446 0.048352245 0.32416618 0.010517286 0.3436034 0.53003055 -0.11021986 -0.2511504 -0.08121706 0.16862534 0.24466944 -0.22594406 0.42045826 0.26587358 0.0050021834 -0.03674314 -0.0020598571 0.15651025 0.13342299 0.20155364 -0.31231806 0.18975249 -0.021447927 -0.28503352 -0.050074134 -0.104915604 0.019781638 -0.17150095 0.07054215 -0.12682907 -0.07046433 0.21776854 -0.38753027 -0.24203134 0.12631318 0.29334107 -0.26993808 -0.043648977 -0.22630097 -0.106576696 0.38852006 0.0327041 0.24073163 0.35005286 0.15516336 0.2195636 0.016064677 -0.3745172 -0.15385559 0.3132238 0.14260529 0.10212708 -0.14968859 -0.09917762 0.12081578 0.014883847 0.2762758 -0.19993153 0.2781718 0.11186495 -0.52121097 0.20911868 0.63553745 0.4431468 -0.10513585 -0.32367703 0.014037764 0.24434644 0.346457 0.30931816 0.0012912082 -0.2405728 -0.2586744 0.31781474 -0.17309244 -0.14344606 0.04233477 -0.29216862 0.116091035 0.13626477 0.22958179 0.027399803 0.12967652 0.16444588 0.28719017 0.3281851 0.1615827 -0.2490926 -0.30200014 -0.045409635 0.087435246 0.06344455 0.07136879 0.12622175 -0.17958514 0.37455174 -0.4525143 0.015727218 -0.17405471 -0.5929973 0.097108915 0.08827396 
io.github.onivas.promotedactions.PromotedActionsLibrary.openPromotedActions 0.23729393 -0.054288592 0.15497184 0.050552405 0.094695516 0.02067511 0.062045533 0.1164721 0.2557162 -0.114293806 0.56317866 0.3025081 -0.3324088 0.38866857 -0.054885577 0.10392291 0.08851118 0.1203645 -0.20014392 0.38613534 -0.2743815 -0.6507953 0.3192835 -0.35485613 0.10721101 -0.0958712 0.34578383 0.034756307 0.35001364 0.002243119 0.32995996 0.53903955 -0.113316566 -0.2598396 -0.16300826 0.09591716 0.23121466 -0.19965996 0.4696195 0.31017658 -0.023597162 -0.06411094 0.0014775769 0.19263026 0.13204908 0.26554537 -0.30957335 0.199814 -0.040808376 -0.3075848 -0.058205046 -0.05275035 -0.015049537 -0.19617155 0.054574378 -0.074428156 -0.16696417 0.17409816 -0.3966219 -0.23517543 0.22430544 0.3139058 -0.23891152 0.03193743 -0.16643445 -0.107819326 0.39093524 -0.0044508185 0.21161981 0.37058425 0.109180436 0.22627808 0.04463528 -0.37714687 -0.20660545 0.34480894 0.14747535 0.09062307 -0.1698263 -0.09452495 0.1305746 0.0067692166 0.32973436 -0.26620647 0.27741894 0.11478451 -0.5236516 0.3117673 0.67728657 0.43445796 -0.17945096 -0.26871988 0.016680565 0.22088556 0.34766024 0.31302974 0.017812205 -0.26608437 -0.2908653 0.32312182 -0.22412306 -0.18904357 0.013591101 -0.28398973 0.11776582 0.18011248 0.2380208 -0.07499284 0.0894167 0.16382003 0.2673405 0.3811901 0.17519055 -0.227302 -0.30456272 -0.060215067 0.054128185 0.016898584 0.07527363 0.09461934 -0.17611967 0.4240162 -0.49482405 0.0051052757 -0.13416278 -0.62725097 0.11178428 0.08775938 
io.github.onivas.promotedactions.ApplicationTest -0.40114295 0.10570642 -0.28546625 0.6242654 -0.03825406 0.19677027 -0.3308221 0.41758505 0.096462 -0.323812 -0.1484184 -0.01542893 0.82468706 0.32756397 -0.2556892 0.2805814 0.104120396 0.01395798 0.52581257 0.6044002 -0.6191298 -0.17832834 -0.16322502 -0.4187295 0.13003533 -0.10692799 -0.06282928 0.67660993 0.16454902 0.33481696 0.3347982 0.53243726 0.009321647 -0.39712825 0.033310566 -0.24591215 0.36009055 -0.19037028 -0.5537589 -0.22734313 0.7875863 -0.065465376 -0.0032163896 -0.27823105 -0.08316675 -0.47913253 -0.03479263 0.1348101 0.077821285 -0.28724542 -0.11466039 -0.29933664 -0.32480273 0.4959883 -0.48175713 -0.3637112 0.4412674 0.5568946 -0.18542229 -0.22965603 -0.4837971 -0.04719796 -0.59850496 -0.5614708 -0.43531823 -0.1443501 -0.25001088 0.03395286 0.21978967 0.59573776 0.078715466 0.3342662 -0.078204386 -0.27756828 -0.31778106 0.46995717 -0.47430637 0.4010443 0.5430529 0.05804879 0.13436659 0.11453365 -0.08579372 0.18351324 0.12395824 -0.14746536 -0.175659 0.02543269 0.1854674 0.38879398 0.53416467 -0.48300496 0.022435388 0.8606371 0.43097168 0.048591483 0.23514429 -0.35914528 0.023116143 -0.02747767 0.44850248 0.2991059 -0.24458441 0.08046262 -0.044128288 -0.46583524 0.38254446 0.42325792 0.103961386 0.010374283 0.21695358 -0.17540163 0.09548064 -0.34500238 0.26672146 0.44306245 0.14510404 0.013315283 -0.44269046 0.17403318 -0.23984247 -0.32798913 -0.001978586 0.25624526 -0.07906318 -0.23572004 0.038283415 0.29230407 
