Variable_N 128
com.marquee.dingrui.marqueeview.MainActivity -0.19136132 -0.20755804 -0.016407397 0.15467478 0.23864414 0.23957574 -0.08661334 0.15082623 -0.091658056 0.027965782 -0.056418855 -0.023111263 -0.022195073 0.38273534 -0.1927033 -0.340705 -0.17004488 -0.12526818 0.42595726 0.21753228 -0.1931015 0.3077868 0.010413028 0.22544494 0.038479302 0.02690898 0.099946186 0.11361907 0.19563717 0.052664712 -0.08566666 -0.1251247 -0.17664182 -0.18550852 0.15755534 0.029634869 0.13234594 -0.27461657 -0.08099972 -0.1951189 0.27577037 0.060689148 -0.0029650326 -0.3351723 0.26694298 -0.3429002 -0.3545767 0.25237563 -0.15922119 -0.19092391 -0.21863662 -0.20724708 0.22108003 -0.14231724 0.234131 -0.1754727 -0.08549618 0.11350108 -0.12706669 0.03981581 -0.0919094 -0.41426066 0.36984962 0.06560364 0.15576391 0.0051431246 0.050012544 -0.014128165 -0.032461062 -0.17466167 -0.28538358 -0.4338198 0.29004118 -0.08445 -0.27980146 -0.09155383 -0.28819415 0.029099401 -0.21246743 0.09115876 -0.02919806 -0.17582937 -0.1638194 -0.042322323 -0.1588504 0.12491403 0.08432001 -0.14444102 -0.013620558 -0.2775942 0.03174432 0.15137531 -0.28373584 0.0682735 0.0033709675 -0.24249704 -0.098383784 0.40308234 0.20579244 0.4053767 0.08454511 0.22469854 0.08202864 -0.052832432 0.047966495 -0.37321582 -0.056176525 0.16460447 0.03246335 0.16505474 0.050417513 0.34545973 -0.20309846 -0.26932722 0.023146281 -0.2176091 -0.13463666 0.19625194 0.17196962 0.29052272 -0.00554495 -0.041935064 -0.4204374 0.15408796 -0.19358896 -0.42229235 0.25924343 0.16304138 
com.marquee.dingrui.marqueeview.MainActivity.onCreate 0.19089696 -0.07396196 -0.39646956 -0.14894883 0.009222116 0.15095377 0.20352437 0.22953871 -0.07125898 -0.21586499 -0.124721736 0.2614676 -0.17704727 0.39257354 -0.040980443 -0.011711611 0.12433204 -0.28635257 0.4250197 0.19068107 -0.020750234 0.35449493 0.39269084 -0.27521914 0.1529772 -0.299223 0.59856236 -0.29254955 -0.23673795 0.05983525 0.16414519 -0.44924343 0.049029775 0.11762282 0.08794363 0.40572575 -0.295113 -0.2564264 0.23211397 -0.3693966 0.22814296 0.044813078 0.54361266 -0.09105199 -0.008112034 -0.09767254 -0.44132835 0.11557751 0.080503225 -0.17713872 0.18780671 0.3207591 -0.20854977 -0.13778628 -0.44620672 -0.20726962 0.105060965 0.48400518 -0.025431124 -0.09501508 0.12386933 -0.4370267 0.019186525 0.5526603 0.29224092 0.19723417 -0.23907241 -0.1706458 0.13347168 -0.37330192 -0.42111513 -0.13053578 0.32753065 -0.07824854 -0.43880367 -0.020472217 0.24927828 0.19430499 -0.47179198 -0.028276317 -0.10696193 0.108260706 -0.43360075 -0.25975376 -0.016447254 0.20535971 -0.090142764 -0.27331316 0.4683894 -0.12720142 0.12564641 -0.08049803 -0.046579618 0.22065008 -0.00841053 -0.34993282 0.29221767 -0.0660202 0.07613904 0.69031656 -0.102889426 0.039183136 -0.18682341 -0.40041453 -0.23112617 0.06201416 -0.013371849 0.5734857 0.0011137319 0.24962696 0.12430842 0.16368654 0.010856122 0.047192927 -0.029951578 -0.06981666 -0.077808656 0.38368413 0.5493749 -0.02334969 -0.21263188 -0.09637747 -0.030691931 -0.031433098 -0.09284688 -0.20189035 0.3806222 0.3619725 
AppCompatActivity 0.04499705 0.024591079 -0.5091041 0.06863222 0.13141508 0.00012359943 0.33584815 -0.22104537 -0.13883728 -0.24491183 -0.08286779 -0.04273658 -0.09120098 0.13555105 -0.17805474 -0.13722014 0.18336901 -0.14685108 0.49083588 -0.06004037 0.03372482 -0.09255784 0.17441858 0.044375252 0.27013198 -0.10310798 0.16885434 -0.2554462 -0.21200518 0.022682486 -0.021073325 -0.171672 -0.18819258 -0.104874685 0.33810607 0.25495198 -0.17056876 0.092452556 0.047676314 -0.22484797 0.3799765 -0.13643062 0.1700811 -0.21535552 -0.013974965 -2.3628561e-05 -0.10983521 -0.10220572 -0.07351097 -0.33651343 0.15043786 0.16901033 -0.037425615 0.13548748 -0.15313978 -0.102663346 0.27173918 0.269495 -0.16067813 0.052289844 0.06934927 -0.17640795 -0.230035 0.26593202 0.07991237 0.347507 0.013448555 0.10949065 0.105835505 -0.03440723 0.077984236 0.014514028 -0.07146791 0.057570998 -0.08189746 -0.35888284 0.04984437 0.37777022 -0.24276166 0.27731055 -0.23879287 -0.062485702 -0.32274708 -0.03301463 -0.057233125 -0.19072808 0.1033045 -0.114600025 0.3655358 0.10421528 0.13537244 0.21989323 -0.04764714 -0.1319975 0.20275044 -0.124942556 0.26667047 0.11190121 0.18763225 0.6277397 0.042301305 -0.03586215 -0.10984089 -0.13005611 -0.06529616 -0.15736054 -0.15721846 0.37956575 -0.15516663 -0.1166603 -0.13775793 0.17567126 -0.21271138 0.025684211 -0.3842295 0.008592788 -0.082409754 0.30656305 0.38328373 -0.12262165 -0.24206938 -0.006010041 0.020461624 0.12878549 -0.15806949 -0.25414976 0.19344327 0.28567776 
com.marquee.dingrui.marqueeviewlib.MarqueeView.onDraw -0.20957942 0.06067184 0.3165766 -0.37198013 0.057544645 0.1882864 -0.12239785 -0.11216267 0.31343982 -0.34117964 -0.14042869 -0.027311537 0.07571049 0.28916508 0.17312022 0.32040757 -0.39944214 -0.27640924 0.26552492 0.10428395 0.10512365 -0.21787745 0.07689025 -0.06025364 0.10621583 -0.027701449 0.21949613 -0.18233687 -0.13825524 -0.10313796 0.08869181 -0.013747378 0.17229755 0.009369349 0.10457721 0.06643228 -0.20126769 -0.0068885908 -0.35272357 0.13735467 0.32913476 0.18876243 0.14556783 -0.21322404 0.25775677 0.0016372306 -0.33398074 0.11166811 0.18747368 -0.21483158 0.13957182 0.20756519 0.032413416 -0.1801865 -0.20197622 0.1634353 0.0927897 0.13206941 -0.13986099 -0.056324534 -0.06669561 -0.23384072 -0.108197846 -0.25325587 0.099946134 -0.116611764 0.083422996 -0.008126336 0.12635162 -0.4000968 -0.5462153 -0.22468741 0.13376118 -0.23605779 -0.14906251 -0.22974016 -0.09855032 -0.04455018 -0.035502806 -0.23231184 -0.2799406 -0.062533 -0.3481936 0.3383903 -0.16909428 0.053219702 -0.070147656 -0.123252444 0.15730135 -0.0338648 -0.06764432 0.02942691 -0.048492108 -0.0227085 -0.49651635 -0.38452658 0.2602269 -0.0674315 0.19377016 0.08883064 -0.07371574 0.10322727 -0.16062713 -0.06856551 0.28018463 -0.16600403 -0.024000261 0.092646636 0.06985124 0.09689592 -0.021712633 0.0013412079 0.1352668 -0.16565122 0.27427688 0.23983799 -0.14998883 0.162343 0.45333514 0.117121026 -0.19030619 -0.34205022 0.09706732 -0.1357999 0.18057692 -0.021689791 -0.1443839 -0.2799525 
com.marquee.dingrui.marqueeviewlib.MarqueeView.setTextDistance 0.27926296 -0.36192256 -0.12435065 -0.41905108 0.113820575 -0.18723898 -0.0857201 0.15726931 0.020747298 -0.3753462 -0.044221118 -0.005321753 -0.104084164 0.13066417 0.047103442 -0.111759886 0.10960711 -0.18649091 -0.11281196 -0.011505689 0.11948686 0.23073341 0.12367218 0.34646168 0.27128026 0.052476596 -0.19847077 -0.07077759 -0.011980557 -0.4101748 0.15182976 -0.118459344 -0.13412414 0.03381316 -0.22621366 0.02978049 -0.064283594 0.13486026 -0.35643893 0.3275405 0.15459111 -0.26633662 -0.12013185 0.091488495 0.4330324 -0.025453286 -0.43496794 -0.0035330728 0.26521403 -0.40572158 0.41275802 0.39332697 -0.15154134 -0.203597 0.22150722 -0.21329203 0.30465534 -0.23131815 -0.15812455 0.032281447 0.031202704 -0.39186835 -0.37085998 0.2634162 -0.21277387 -0.0022475014 -0.13418959 -0.018433664 -0.08222703 -0.33298895 -0.047768384 -0.006671823 -0.062612996 -0.06270123 0.13108157 -0.2615842 -0.2619746 -0.1278091 -0.27893895 0.29201666 -0.33297312 0.10544492 -0.32029334 -0.011259083 0.13611507 -0.35866216 -0.018114865 0.3909297 0.089513965 0.07311867 -0.044591807 0.26011848 -0.23507686 -0.16850334 -0.29610774 -0.27463678 -0.20999053 -0.10018383 0.4193384 -0.15940072 0.11596751 0.043367743 -0.39452028 -0.02209979 -0.018127026 0.18781754 -0.10428225 0.25880408 0.41236928 -0.061071686 -0.17022489 0.2656516 -0.07999273 0.46903563 -0.019953445 -0.28650233 -0.08734537 0.010668052 0.05361372 -0.18100458 -0.20754807 -0.305525 0.15925711 0.20678172 -0.3397271 0.24905838 0.07773914 -0.34519672 
com.marquee.dingrui.marqueeviewlib.MarqueeView.setContent 0.19959387 -0.22831134 -0.06729783 -0.44689023 0.31129542 0.053525347 -0.10317803 0.033405613 0.15286909 -0.42622256 -0.17082524 -0.075405255 -0.31714964 0.23082295 0.24403483 -0.3119902 0.089018844 -0.12812655 0.049088728 -0.066251695 -0.11379695 -0.019114358 -0.005720872 0.34707677 0.36576173 -0.03315024 -0.12081287 -0.15857145 0.0790051 -0.223891 -0.15023488 -0.15688223 -0.24668649 0.18294865 0.12384138 -0.19743295 0.15072528 0.10625076 -0.3265625 0.21936078 0.016367977 -0.113719426 -0.10219475 -0.121037684 0.45312425 -0.016451908 -0.40122008 0.14364886 0.29114613 -0.36892366 0.2892298 0.3028805 -0.09481967 -0.07489369 0.06757703 -0.11793585 0.3826694 -0.35485885 0.038417157 -0.12869859 -0.22170557 -0.26309258 -0.41804022 -0.05444621 -0.23742455 0.058956947 -0.11530171 0.09968106 -0.069022916 -0.41315222 -0.23632017 -0.21719399 -0.04412232 0.24062684 0.19420587 -0.36124653 -0.37585554 -0.26527414 -0.13384372 0.29196143 -0.3457844 0.142716 -0.30076247 0.22399455 0.07744901 -0.4534131 -0.17394242 0.22351296 0.2505122 0.2691681 -0.113011844 0.3738519 -0.12998052 0.013171512 -0.42329723 -0.10636286 0.16637692 -0.011402227 0.35745573 -0.030030908 0.14822112 0.14930262 -0.37816 -0.019925818 0.023120102 -0.10634823 -0.11611916 0.19485275 0.19888632 -0.047431596 0.09293117 0.22041169 -0.062065423 0.4192001 -0.031141669 -0.37433976 -0.021177907 -0.18287401 0.27614513 -0.26573756 -0.07408917 -0.17002206 -0.0566235 0.10680902 -0.38694555 0.3392028 -0.028715616 -0.4482897 
com.marquee.dingrui.marqueeviewlib.MarqueeView 0.11028708 -0.20056885 0.29053554 -0.24715525 -0.070833735 0.26623642 0.087300405 0.36752436 0.0185466 -0.21907806 -0.07354465 0.3095752 -0.016259257 0.22825843 0.15881261 0.12795678 0.029208887 -0.1037395 -0.14409347 0.121271655 0.19803543 0.34215707 0.2662011 -0.20383058 0.010105147 -0.32242253 0.31213406 -0.0936249 0.07525569 -0.16119206 0.13291842 -0.08031517 0.17018268 -0.025506398 0.037982844 0.020735513 -0.3786454 -0.302492 -0.06392455 -0.32147795 -0.30025473 0.08671629 0.36287758 0.27388692 0.15289864 0.27395645 -0.37916064 0.21851373 0.22542647 0.043343052 0.091641545 0.20636535 -0.10756782 -0.40238413 -0.37013587 0.25650588 0.057606097 0.19762045 0.22445427 -0.24228342 0.22791803 -0.34848163 -0.1563898 0.21913019 0.17466907 -0.13980085 -0.33490878 -0.26270166 -0.045031153 -0.24986695 -0.36914897 0.05486676 0.2767452 0.12966383 0.08155124 0.23513944 0.012853133 -0.1729022 -0.17740834 -0.2998148 -0.17104086 0.26944962 -0.22766782 -0.07240313 0.26700544 0.106546886 -0.29088676 -0.30256277 0.27193183 0.014617601 0.075997666 -0.27349445 0.024476029 0.2923645 -0.3143451 -0.04788412 0.31788313 -0.28705996 0.092177436 -0.1576688 -0.14080639 0.14317921 -0.35721642 -0.22404185 0.0357015 0.11944804 0.09224437 0.08188479 -0.06143169 0.16134296 0.49094257 -0.025514476 0.1922974 -0.16784437 0.24568258 0.011052181 -0.057624698 0.29683128 0.15516691 0.1317205 0.1262944 -0.20006168 -0.0050128796 -0.14628159 0.11208767 0.43963745 0.20082349 -0.02287357 
Runnable -0.27801305 0.019859083 0.45713982 0.100424506 -0.05561833 0.27267545 -0.08454335 -0.0061297384 0.129525 -0.07098391 -0.1359283 -0.053584743 0.23100717 0.18562445 -0.004176838 0.29267666 -0.41175595 -0.26161334 0.16245942 0.1952868 0.16013128 -0.040587224 -0.015655199 0.05996706 -0.052013725 -0.0011366603 -0.082906745 0.039742313 -0.053925045 -0.04030236 0.10118018 0.08928791 0.17862737 -0.3377265 0.10097333 0.17465386 -0.12582482 0.09857853 -0.39200878 0.06718332 0.22008967 -0.063312136 0.05571787 -0.15365298 0.24192075 0.16439518 -0.27241004 0.12281211 0.01620536 0.0015949471 -0.1339335 -0.10431313 0.15031607 -0.31526795 0.18526328 0.383024 0.10525784 0.2246194 -0.025108503 0.010367319 0.09902763 -0.2890996 0.03004111 -0.17419179 0.13723527 -0.20855479 0.13435794 -0.23007007 -0.016187152 -0.064082034 -0.32831985 -0.20573886 -0.008080572 -0.2194463 0.08163326 -0.14927301 -0.24023992 -0.08779089 -0.03585673 -0.23141046 -0.23210704 -0.07059862 -0.15088086 0.32886487 -0.088631496 -0.031511255 0.19064428 -0.069936156 0.131709 -0.14309464 0.09305776 -0.0036826786 -0.1658081 0.057409517 -0.36783805 -0.24506776 0.19521864 0.14538015 0.26318896 0.018089283 0.02161548 -0.030287694 -0.13539009 0.070937455 0.34410438 0.006893997 0.14511773 -0.0045680804 0.07535251 0.13119757 -0.16807301 0.009128902 0.026463507 -0.31039825 0.24859713 0.34732917 -0.18854837 0.3443066 0.15914355 0.2535954 -0.053741563 -0.32403246 -0.115720786 -0.12273104 0.24522196 -0.060315542 -0.07551301 -0.2137876 
View -0.21757816 -0.196419 0.4692196 -0.21919347 0.040571775 0.18292889 -0.016069843 -0.24757542 0.19801436 -0.0908232 -0.025819756 -0.057395253 0.18365295 0.24834736 0.08095852 0.44410387 -0.36682808 -0.21569009 0.071519054 0.1131098 0.24155016 -0.23324122 -0.009542405 -0.006269208 0.097430795 -0.07594132 0.071731694 -0.12800223 -0.08045962 -0.11905635 0.1347801 0.2762848 0.12592483 -0.28453553 0.1449367 0.031712856 -0.24386755 0.08663416 -0.54844207 0.086699404 0.3098393 -0.006831324 0.011894856 -0.040478196 0.17437954 0.2576673 -0.23446076 -0.080556996 0.22757208 -0.14284012 0.02066638 0.2463187 -0.017620372 -0.10786675 -0.069258615 0.43573532 0.22866511 0.12292704 -0.0038979189 0.039540462 0.110624984 -0.094022974 -0.33187467 -0.28184095 -0.054552767 -0.023663362 0.21801135 -0.09426307 -0.044810645 -0.17897074 -0.31558546 -0.07122282 -0.14554594 0.023806179 0.14219275 -0.097511545 -0.08860523 -0.16396593 0.112326294 -0.1291161 -0.24928857 -0.04146301 -0.30998513 0.3130098 -0.13645716 -0.28523412 0.011220934 -0.064708896 0.1371794 0.14792363 -0.048035648 0.11055976 -0.08729536 -0.16174187 -0.3022177 -0.23971161 0.35885683 -0.16600642 0.116895065 -0.26478675 -0.006424802 -0.035237394 -0.19024543 0.1010522 0.4392445 -0.21510796 -0.12541232 -0.10711289 -0.056225613 -0.1424934 -0.0447956 -0.06801042 0.012062935 -0.3005877 0.049370237 0.2896628 -0.15152219 0.25533295 0.25373647 0.15104559 -0.20869191 -0.2015784 0.22440459 0.035696853 0.24440849 0.25734395 -0.29992267 -0.37258393 
com.marquee.dingrui.marqueeviewlib.MarqueeView.MarqueeView -0.28596413 0.17771809 0.15197967 -0.25856084 0.13531114 0.27461696 -0.06817254 -0.16649872 0.3209244 -0.4184128 0.06988497 0.08481799 0.17976926 0.22662976 -0.1204764 0.24545352 -0.4287445 -0.03277024 0.43174163 0.18609953 0.11991615 -0.34126124 0.14998074 0.160154 -0.056068674 0.053393237 0.24615222 -0.1515022 -0.09155592 -0.3039506 -0.13817717 0.08180853 0.04384743 -0.07994083 0.11374312 0.08702322 -0.091517195 -0.1125777 -0.32660532 -0.24936073 0.20163414 0.3540316 0.16947252 -0.21603094 0.39640322 0.19038787 -0.2912842 0.29708737 0.24478263 -0.44384044 -0.011861565 0.11499537 0.19105664 0.051563438 -0.33203366 0.21258532 0.15548405 0.28855696 -0.23722956 -0.17165715 0.033610534 -0.094004475 -0.34169087 -0.055611275 0.26620948 -0.27705932 -0.17609327 -0.015046791 0.06946482 -0.20923407 -0.4980397 0.11223668 0.06972285 -0.14815396 -0.019901829 -0.21174179 -0.22311093 0.11472123 -0.14035611 -0.2334173 -0.23398863 0.084508404 -0.107023634 0.24217863 -0.14912866 0.23754406 -0.18380497 -0.17868072 0.18666041 -0.083619036 0.10456 0.064532496 0.050976355 0.21718155 -0.2882257 -0.36588976 0.359035 0.032369208 0.21123354 0.18214728 0.11069052 0.26306412 -0.029691383 0.11349516 0.20326574 -0.19680515 -0.23565643 0.3126095 0.15509035 -0.07235838 0.1466267 0.009978771 0.18785606 -0.43427253 0.2634525 0.27644992 -0.053349856 0.43570477 0.31464103 0.28344497 0.059513606 -0.15803367 0.029375432 -0.060800306 0.18665175 0.03028787 -0.021045601 -0.18154915 
com.marquee.dingrui.marqueeviewlib.MarqueeView.dp2px 0.09805859 -0.39710125 0.24999082 0.33149877 0.010839222 0.37456676 0.3087848 0.2552271 -0.4256369 -0.025346635 -0.34742722 0.06821605 -0.15630811 0.32218525 0.16560349 -0.3903113 0.19746318 -0.16638207 -0.12198211 0.030158862 0.09706009 0.31210005 -0.006551842 -0.03928163 0.27208763 -0.3720179 0.034435395 0.11920237 0.34181497 0.14767773 0.15614498 -0.056794528 -0.13003862 -0.40662876 0.46833158 -0.034460552 -0.28143337 -0.024345556 -0.24497595 -0.05289128 0.047117528 -0.539309 0.1847332 0.06747972 -0.0042786426 0.056962706 -0.27210915 0.0798745 -0.11628271 0.09760949 -0.047782827 0.013127146 -0.08504381 -0.45316184 0.3049608 0.3725702 0.33085617 0.032140657 0.17478923 0.05117047 0.15358864 -0.46497363 0.100676134 -0.120443866 0.037310917 0.2651173 0.23202962 -0.23780103 -0.12886265 -0.0561269 0.09130938 -0.28664583 -0.05495901 0.40430465 0.31435582 -0.11313566 -0.15518428 -0.1010361 -0.089096 -0.034130517 -0.4266675 -0.09116826 -0.3661281 0.30616438 0.34030607 -0.63289976 0.2860348 -0.23027793 0.24593048 0.25489792 0.015103434 -0.037452854 -0.21996482 -0.16517524 -0.23375656 0.21421954 0.26026678 0.19712329 0.31568858 0.15651184 -0.045368347 -0.14028206 -0.52096975 -0.1250412 0.19919294 -0.17822005 0.22052369 -0.23274256 -0.42560604 0.0980891 0.102891184 0.16017865 -0.18457663 -0.058793236 -0.3709101 -0.014429246 -0.30571055 0.22219792 0.22621922 -0.079593025 0.045656964 -0.13780017 -0.4019083 0.14687216 -0.09081537 0.12138887 0.16003391 0.026779586 
com.marquee.dingrui.marqueeviewlib.MarqueeView.setTextSize 0.017102515 -0.033491306 -0.36812374 -0.081987396 0.10785702 -0.0063505317 -0.034471314 0.05382807 -0.027825875 -0.4734646 0.3232762 0.24105568 0.1690066 0.1312677 -0.5102341 -0.15691102 -0.07820509 0.26100758 0.22996205 0.26861104 0.19256444 -0.10360086 0.25254995 0.6296185 -0.097826056 0.23620623 0.060624294 0.07471403 0.09770941 -0.71046954 -0.08244129 0.042072803 -0.2706197 -0.19608735 -0.22384942 0.17933343 0.055067647 -0.07250474 -0.34754995 -0.2566476 0.16615893 -0.0068534515 0.07982143 0.026987229 0.5500829 0.20289198 -0.2959374 0.41107953 0.3455331 -0.8129004 0.09534106 0.30790973 0.1726313 0.21197127 0.052378926 -0.082677394 0.4097995 0.22859485 -0.5461632 -0.06254425 0.25287426 -0.13936584 -0.58619666 0.5043329 0.27980316 -0.34916353 -0.40163267 -0.12259805 -0.14971578 0.020916825 -0.012041946 0.56474966 -0.22396596 -0.06847378 0.2318886 -0.24500476 -0.3564908 0.29588184 -0.46048254 0.009161154 -0.2886807 0.26835755 0.11443218 -0.025265198 0.10472713 0.045675974 0.032142177 0.20500003 0.048860844 -0.10851213 0.2971785 0.13048425 -0.081763096 0.16355689 0.06761547 -0.33264235 -0.08128868 0.1500603 0.45894188 0.22674909 0.44477865 0.2929119 -0.13901998 0.38781244 -0.06272986 0.11788823 -0.4390611 0.6013624 0.542997 -0.2379087 -0.036084637 0.22286771 0.09139747 -0.161671 -0.02925061 0.06351568 -0.03069875 0.63908696 -0.082476705 0.17399755 0.2584809 -0.00552762 -0.012202525 0.326603 -0.1743431 0.11868192 0.22760645 -0.14249887 
com.marquee.dingrui.marqueeviewlib.MarqueeView.setRepetType 0.004393088 -0.16063225 0.12120791 -0.4571946 0.15624978 0.0023145122 -0.21570005 0.14761755 0.1920874 -0.436665 -0.1251169 -0.03809924 -0.056489423 0.2473444 0.26355973 0.053905956 -0.22330314 -0.38638175 0.024118306 0.07324749 0.1137089 0.17176884 0.12825263 0.14337197 0.1265981 0.07964655 -0.08884326 -0.109129995 -0.077523366 -0.23321763 0.09262999 -0.23508747 0.039306942 0.12797303 -0.21518165 0.03405374 -0.0027598727 0.101704575 -0.29527548 0.32570955 0.20411256 -0.065359965 -0.0078101465 -0.24194331 0.51365125 -0.10992548 -0.51853025 0.0625452 0.10218355 -0.2767929 0.27964267 0.23981492 0.008247817 -0.30634853 0.050320953 -0.14323486 0.17549802 -0.06043767 -0.09801068 -0.07975295 -0.037711814 -0.5334921 -0.05900603 0.14317444 -0.14061037 -0.2224549 -0.09080299 0.020405786 0.10552215 -0.45307857 -0.44839686 -0.18857434 0.15961519 -0.30675086 -0.10233142 -0.23396236 -0.33319274 -0.21554117 -0.21992034 0.12513323 -0.29210627 -0.017994775 -0.31919867 0.11775393 -0.039991416 -0.045775373 -0.065515354 0.2509933 0.19058941 -0.13120757 -0.06543361 0.20510596 -0.18878879 -0.027836686 -0.6023108 -0.38542035 -0.07769275 0.036849074 0.4190416 -0.011071141 0.009936508 0.105552465 -0.2946575 -0.15353999 0.061420295 0.10871753 0.068975255 0.36882412 0.44440624 0.12744108 -0.19226412 0.26032105 0.07800763 0.35423955 0.3352711 -0.059135035 -0.14637507 -0.075099885 0.28968847 -0.07164109 -0.28397125 -0.55761576 0.05509404 -0.0037722075 -0.06282866 -0.04772443 0.1001172 -0.36769864 
com.marquee.dingrui.marqueeviewlib.MarqueeView.setTextSpeed -0.08323744 -0.10835445 -0.20422496 0.28973782 0.17802967 0.22095972 0.21341518 0.10857826 -0.2969495 -0.33104116 0.047596414 0.12148233 0.07797782 0.17405179 -0.2912288 -0.42347223 0.04553328 0.07394561 0.19917694 0.113236204 0.17442562 0.09639022 0.14181186 0.39316344 -0.0029234854 0.015337806 7.1392664e-05 0.14715464 0.27161098 -0.2962669 -0.08894925 -0.034718577 -0.28166395 -0.3659012 0.18971328 0.053044546 -0.049894065 -0.0926276 -0.16897422 -0.34344733 0.10849263 -0.20510964 0.10771831 -0.13187768 0.3602634 0.0708401 -0.24166974 0.28291568 -0.091704585 -0.4456925 -0.08168432 -0.035249725 0.2586394 -0.07016734 0.18288212 0.055403404 0.30307636 0.22384568 -0.27079707 -0.0439773 0.22220317 -0.38664168 -0.118920974 0.30866835 0.21208338 -0.12263819 -0.14371796 -0.059005238 -0.045245357 0.12772343 0.13486375 0.22921126 -0.073776 0.07205275 0.22927089 -0.22484863 -0.40183747 0.2703984 -0.29473487 0.06976074 -0.3419083 0.010364468 -0.011081134 0.058884956 0.19809355 -0.10659524 0.16068818 -0.07361792 0.14091323 -0.08843475 0.2643362 0.06791292 -0.15885405 0.021989513 0.021387208 -0.017662171 0.023319228 0.37552124 0.46763784 0.40323126 0.22214167 0.19591336 -0.20232242 0.12372247 0.01900762 -0.13525397 -0.13523541 0.33430687 0.049325623 -0.091573335 0.038303718 0.31505272 -0.096130654 -0.22702588 -0.19762735 0.05832248 -0.18716663 0.5020103 0.039770097 0.15277313 0.18581991 -0.122673556 -0.33438733 0.26015696 -0.11456815 -0.1513327 0.38773096 0.13004987 
com.marquee.dingrui.marqueeviewlib.MarqueeView.setTextColor -0.09927589 -0.117413975 -0.04666254 0.22703442 0.117484085 0.24065524 0.2229654 0.073262446 -0.23498349 -0.32922083 0.05475758 0.14775683 0.14186218 0.14584477 -0.25168288 -0.25598684 -0.0029076159 0.0830055 0.107715674 0.11327291 0.26308253 0.023122998 0.14370567 0.3297717 -0.016055044 -0.023861865 0.00850487 0.11642797 0.24719314 -0.33711222 -0.037505306 0.06684611 -0.19960675 -0.40483838 0.18702751 0.045066193 -0.14383431 -0.077519335 -0.2664592 -0.32916766 0.06014392 -0.19276115 0.120323054 -0.02526565 0.34018272 0.2107561 -0.22496 0.2554273 0.00085174356 -0.40393633 -0.06674 0.02615171 0.2231273 -0.10157812 0.11597675 0.21224234 0.33495826 0.23648416 -0.21722436 -0.058703247 0.27594694 -0.32729936 -0.2392789 0.23451151 0.20247547 -0.15768388 -0.13727865 -0.11355938 -0.07012654 0.12959944 0.11073473 0.30131158 -0.13224724 0.10514431 0.3254436 -0.17911261 -0.357707 0.20986454 -0.2261909 -0.025887864 -0.37227935 0.054430626 -0.023590993 0.119170845 0.22244187 -0.15268524 0.12822215 -0.103150114 0.14712754 -0.020533122 0.26087937 0.00978666 -0.11308154 0.020750932 -0.03882971 -0.006381972 0.12161198 0.24396774 0.43691766 0.2254494 0.19546534 0.16496551 -0.25418574 0.15722735 0.1043908 -0.09758014 -0.13678637 0.23835568 0.015315569 -0.13319017 0.081747554 0.2148376 -0.03426192 -0.298664 -0.15738954 0.15671776 -0.18536957 0.54841566 0.027837716 0.17150049 0.19932114 -0.13860317 -0.22346416 0.21934071 -0.0107669 0.02617879 0.27895072 0.032521624 
com.marquee.dingrui.marqueeviewlib.MarqueeView.stopRoll -0.026479917 -0.435043 0.19443664 0.3512071 0.06555563 0.284896 0.33512023 0.18452315 -0.39950672 -0.22397558 0.0042769937 0.16233085 0.19944301 0.08351673 -0.3717566 -0.3393125 0.12523639 0.17548442 -0.047484703 0.05707098 0.35388613 0.2120635 0.08770712 0.4856059 0.094545156 -0.10057859 -0.21612383 0.22531447 0.46162888 -0.46301565 -0.0048639225 0.30265424 -0.2989983 -0.69238985 0.338077 -0.08475621 -0.31397325 -0.16501339 -0.500008 -0.42331526 -0.114466935 -0.334654 -0.04090368 0.29543382 0.3548125 0.3987577 -0.25437304 0.2586274 0.0423898 -0.33080015 -0.08827303 -0.07369167 0.22733581 -0.30116084 0.35796162 0.4462244 0.36280277 0.07254969 -0.078484446 0.0044790753 0.40025252 -0.38244298 -0.39002 0.12815186 0.14360322 -0.07521613 -0.14437117 -0.20278662 -0.2780043 0.2481993 0.352186 0.2923732 -0.1578987 0.36161298 0.6636504 -0.14221556 -0.45929828 0.14085321 -0.1627768 0.020055909 -0.4634709 0.106248274 -0.08776228 0.12200284 0.45527226 -0.4323508 0.11472795 -0.15940647 0.061607394 0.1349625 0.2459614 0.009133718 -0.20763204 -0.07964147 0.055760436 0.1449197 0.08418357 0.1811202 0.5085646 -0.16701719 0.18801364 0.17143041 -0.41768324 0.21857288 0.22913411 -0.17561933 -0.14463301 -0.12103854 -0.1890694 -0.27311736 0.3000502 0.23116969 -0.18485549 -0.48094463 -0.30568653 -0.009092479 -0.23065554 0.683703 -0.24504341 0.29161406 0.3406785 -0.034117047 -0.26105052 0.32202128 -0.114336565 0.3953594 0.2758909 0.007370678 
com.marquee.dingrui.marqueeviewlib.MarqueeView.continueRoll 0.1796227 -0.48387575 0.041551728 0.027126944 0.12654193 0.053403046 0.22263485 0.228185 -0.3334119 -0.2661113 -0.2185468 -0.03268216 -0.077130795 0.13524267 0.15469617 -0.34141612 0.28035784 -0.2565831 -0.28467366 -0.14054535 0.2608686 0.38841593 0.07571461 0.1663186 0.29025966 -0.17765947 -0.23047367 0.08700001 0.2431827 -0.16748418 0.2121804 -0.08309647 -0.17296858 -0.29823816 0.16803801 -0.080021426 -0.26193577 0.07589923 -0.27521 0.16358146 0.041252345 -0.54484075 -0.020428011 0.10498958 0.24819864 -0.0069214157 -0.3466857 -0.09271852 -0.091053545 -0.10988847 0.22602007 0.1623365 -0.03507605 -0.45719436 0.38014612 0.06443562 0.31489497 -0.1759428 0.055378124 0.039024074 0.16304173 -0.5959584 -0.051092297 0.13061535 -0.2300185 0.13793764 0.066512786 -0.056205615 -0.043102708 -0.09069611 0.24392287 -0.07353046 -0.08457239 0.13518032 0.30361 -0.19898352 -0.32050824 -0.08677621 -0.106634706 0.2336998 -0.4492134 -0.06442556 -0.36890012 0.08384211 0.3411229 -0.58483696 0.18295278 0.09959683 0.1606751 0.1441712 0.046591412 0.08133577 -0.3140292 -0.3320319 -0.255125 0.09940087 -0.09338252 0.06839616 0.46899766 -0.0721487 -0.026793933 -0.022559691 -0.54156286 -0.14730886 0.0986752 -0.018729895 0.11841819 -0.0541525 -0.097614534 0.006426597 -0.04605552 0.30468038 -0.21826276 0.2716726 -0.25505018 -0.14900446 -0.25608945 0.091335274 0.06582012 -0.16319841 -0.17524679 -0.3916695 -0.118782625 0.20126644 -0.21548592 0.12934463 0.226821 -0.09534589 
