Variable_N 128
ActionBarActivity 0.0022580593 0.0058733984 -0.0009024956 0.005967541 0.0057948185 0.0017164641 -0.00015350591 0.0002770064 -0.0008225625 -0.005877872 0.0023718986 0.002904975 0.004465708 0.0039114645 -0.0065353243 -0.003550158 -0.0040470334 0.0056459755 0.003574283 -0.0032196143 -0.004675294 6.3651e-05 -0.0023854792 0.005865357 -0.003108688 -0.00027877363 -0.0051302128 0.0054657613 -0.00017419877 -0.0010319807 0.0009825027 0.001153562 0.0054730605 0.00029029968 0.004397703 7.552302e-05 -0.0031078118 -0.003661067 -0.006066038 -0.0037710029 -0.0047699893 0.0007892495 0.00017566045 -0.00160588 -0.001094358 -0.003532818 -0.00313572 0.0015902618 -0.0029478497 0.0051476145 -0.005048147 0.0019755159 0.0036874986 -0.0023185476 0.0012232211 -0.001043865 0.0003903575 0.0028233326 -0.0024253945 -0.0012413842 0.0028101318 -0.005600236 -0.005910676 0.001307202 -0.0010723972 0.0004880197 0.0044668764 -0.0061849365 0.004171005 -0.0017652725 -0.005468472 -0.005174241 -0.00042842163 0.00059166795 -0.004999631 0.004355806 -0.0044453 -0.0019289023 0.0014989086 -0.0012240723 -0.00085083005 0.0027896566 -0.0020716263 0.005200407 0.0010859459 -0.0059819287 -0.0024851966 -0.004964733 -0.0015626593 0.0017986461 -0.0028410307 0.005959495 -0.0016943618 -0.0054114675 0.0015522919 0.0042669605 0.004889339 -0.0024757886 0.0061569493 -0.003737504 0.003904525 0.005068831 -0.0046188594 -0.0042887456 -0.004321094 -0.0028011247 -0.0027430656 -0.005405122 -0.002331377 -0.0009149592 -0.0050344155 -0.0025221969 0.0010786074 -0.0038485928 0.0018782284 -0.005274837 0.004537338 0.005258678 0.0042723673 0.0022145 0.004024074 0.0038158935 0.003392184 0.0014235416 -0.0009258669 0.0024717145 -0.0016350783 -0.002832746 
com.github.ShinChven.migratetogradle.MainActivity -0.0033245094 0.00015406568 0.0062238825 -0.0018017029 -0.0071376814 0.0017870684 0.001857337 -0.0009588062 -0.005173047 -0.0077410587 0.0024255586 -0.0029306137 -0.0011737769 -0.005576751 0.007336049 0.0065069892 0.0066449903 0.0055069057 0.0061728596 -0.004249937 0.0065900655 -0.00018774884 -0.0066456203 0.0019768837 -0.001585892 -0.0048986627 -0.003957174 -0.0025979714 0.005539529 -0.007856837 -0.002451514 0.0033669171 -0.004104298 -0.0015663399 0.0021265221 0.004855428 -0.002866712 -0.003720653 0.004183144 -0.0025140536 -0.0011382392 -0.0065001803 0.00026871142 -0.0032605866 0.0012685512 -0.002132087 -0.0030966785 -0.0044580474 0.00025248248 -0.0010421812 -0.0068278518 -0.00058619224 0.0030303195 -0.00041849795 -0.001085636 -0.0015276017 0.0010608793 0.0075477427 0.0024725005 8.47458e-05 -0.0020306306 -0.0069428543 0.002868792 -0.001646555 -0.0036625168 0.004414259 0.00750106 0.0043438403 0.0030773936 0.0020676313 -0.0003468289 0.007138246 0.0026253583 -0.003359753 0.007281958 0.0035892266 -7.4364674e-05 0.0007735449 -0.004385721 0.003043248 0.002379316 -0.0006333182 -0.002161293 0.0014067988 0.0006629605 -0.0053530075 0.0006952927 0.0035067587 0.0032269568 0.005372501 0.0024357135 0.00497595 0.00080482237 0.0042013396 -0.00809258 -5.579473e-05 -0.0005975746 0.004888103 -0.0013058126 -0.0033413097 -0.008011877 0.0022519217 -0.0007084852 -0.0041726236 -0.007251469 -0.0067441356 -0.003190758 0.0049211998 0.0060020774 0.0056477776 -0.0016553565 0.0056987586 -0.0020542291 0.0042926874 -0.0058136242 -0.0013801925 -0.004451556 -0.0024809563 -0.0047813337 -0.0036539747 0.0037130394 0.0011436627 -0.0010035175 0.0025541345 0.0013468501 -0.0054664137 -0.0021676302 -0.0013290404 
android::test::ApplicationTestCaseApplication -0.00042323815 0.0037107125 -0.0006986475 0.003527369 -0.0037769992 -0.00055518415 -0.0038548908 0.003121185 0.005059275 0.006069716 -0.002089815 0.0037465263 0.0039782496 -0.0017058788 -0.000514229 0.0021293266 0.0017519018 -0.0041165515 -0.00073970854 0.002397839 0.003625232 -0.0035176969 0.0043197065 -0.0059962487 -0.0011718938 -0.0047836676 -0.0020011486 0.003696195 -0.00013271393 -0.0038261882 0.0024326832 0.0045819357 -0.0020349298 -0.0046394668 -0.0004359792 -0.002476696 -0.00075858907 0.004395494 -0.0017082127 -0.004372035 0.0045367945 0.00015977354 -0.0032441579 0.0049554687 -0.003209399 -0.00013904626 0.0025507966 -0.0024819814 0.0052839606 0.004878978 0.0037257813 -0.0044705784 -0.0027723522 -0.0053706486 0.005848741 0.004286824 -0.0041502784 -0.005627215 -0.0022779782 0.0025075704 0.0045305043 -0.0030500954 -0.0014359462 -0.0055860276 0.0057350867 0.0046571116 0.0032209984 0.0034014992 0.0054433807 0.0040234243 0.0026206376 0.003162105 -0.00027929677 -0.0013714675 -0.0051008062 -0.003980539 0.0057099927 0.0051900903 0.0018652104 0.004917694 -0.0047371895 0.0013356938 -0.0022777717 0.0037056697 0.0024711979 -0.0034937735 -0.003193153 0.0014828696 -0.00082064455 0.0034167923 0.0053990395 -0.0034528708 0.0048628557 0.003059178 0.005540519 -0.005391773 0.001622323 0.0010860483 0.0041123424 -0.00072008435 -0.00059531635 -0.003636007 -0.004848776 0.005493801 0.00072893 -0.0051481714 -0.00076480606 -0.00044153928 -0.0010382428 0.005003385 0.0012050645 0.0010666546 -0.0021469966 -0.00498499 0.0006849309 -0.0050497777 -0.00526739 -0.0054607093 -0.0051388023 0.0011884586 -0.0050670835 -0.0033356778 0.0021106051 0.004155272 -0.0047979155 -0.00283983 -0.00096128514 -0.0038716854 
com.github.example.libmodule.lib.ApplicationTest -0.0019310265 -0.0008212978 -0.00020576971 0.0023484756 -0.005522685 6.223162e-05 -0.004318669 0.0025678594 -0.0073237116 -0.0054128 0.006370345 0.005673939 -0.0019157889 0.0041584196 0.005603069 0.0044239317 2.6496005e-05 -0.003586618 -0.004706175 -0.006219223 0.0010561714 0.004542927 0.0036055297 -0.0009168987 -0.0024667988 -0.0036904856 -0.0058285147 -0.007509991 0.002441541 -0.008173804 -0.0003179444 0.0036339886 0.0017432568 0.0056211264 0.0037420534 -0.0011483361 0.00064663455 0.0023290215 0.0044553005 0.005819552 -0.0043327063 0.00082185236 0.0062931664 0.0054581026 -0.0027390353 -0.0017258695 -0.001851871 -0.0058825007 0.0020129213 -0.0019221705 -0.008091381 0.0009483365 0.007267175 7.986646e-05 -0.006825104 0.0018014824 -0.0039062616 0.004534917 0.005739969 -0.0011011559 0.005387695 -0.0077933217 -0.00021716279 -0.001201427 0.00036048208 -0.0039327713 0.007445219 -0.00014127408 -0.0018411746 0.005455576 0.0047134254 0.008041272 0.00010985047 0.0019909202 0.0026660312 -0.003437351 -0.00059321546 -0.0014890438 -0.007846938 0.006908018 0.005042103 -3.6449484e-05 -0.0036755956 0.005464835 -0.006324871 0.003134843 0.0019832735 0.0004609634 0.004821556 0.0029081313 0.007130833 0.0041519534 -0.0063727503 -0.0014233575 -0.004680353 -0.0069373553 0.0035992994 0.0019686355 -0.0052003693 -0.004885143 -0.008013921 -0.001264706 0.0012700688 0.0016183731 -0.0028865708 -0.0035931086 -0.004243876 0.004008854 -0.0026170528 0.0077601415 -0.00025632718 0.0012212205 -0.0058988086 0.0026156842 -0.008294396 0.0029850174 0.0005207702 0.00267297 -0.0023082392 -0.002689972 -0.0024825805 -0.0018960488 -0.00066812336 0.001067567 0.0029510173 0.0050983955 -0.0008507282 0.0025147337 
