Variable_N 128
com.faizmalkani.floatingactionbutton.sample.MainActivity -0.031140683 -0.15238456 0.23178115 -0.10787676 0.12496363 -0.23048322 -0.30638888 -0.011886144 -0.06869114 0.24432142 0.11428983 0.05176321 0.18669876 -0.02108034 0.11303636 -0.06405594 -0.11152973 0.078004435 -0.008527414 0.33610868 0.13061689 0.20341119 0.078091115 0.008227913 -0.034031883 -0.2955546 0.11526985 -0.14176117 -0.07772769 -0.21314585 -0.031140666 0.08163651 -0.16036257 0.13427952 -0.046720196 -0.061328057 -0.10449336 0.18187834 0.08066513 0.30744842 -0.14323577 -0.054034986 -0.067352876 -0.17055787 0.25994363 0.043062534 -0.17144586 -0.021045143 -0.24027881 0.12760824 0.11649422 -0.18544358 -0.037845545 -0.19401394 0.067274235 0.04813638 -0.038111847 -0.122935124 0.10801056 0.09709208 -0.13033009 0.06775792 -0.33961153 -0.37169716 -0.34301746 0.036348633 -0.18723248 0.16829124 -0.04160129 -0.071446925 0.15019856 -0.042060338 -0.3077453 0.15101571 0.021985129 -0.09709301 0.09077644 0.022653291 0.05482008 0.27526936 -0.043248642 -0.076140426 0.20591044 0.01972803 -0.049485125 0.09412594 0.037305783 0.080845185 -0.17215002 -0.11947892 0.033332247 0.12707585 0.19272266 0.07320255 0.1312191 -0.31303355 0.08874685 0.08048523 0.25703362 -0.098628335 -0.39540437 -0.23116197 0.15171663 -0.07039896 -0.028716877 -0.28071615 -0.04275419 -0.0137563115 0.035890516 -0.1353076 -0.14965151 -0.15207358 0.09222889 -0.29608876 -0.26811895 0.05003629 -0.08704299 0.098620705 -0.16577965 -0.060991384 0.12320592 0.27267253 0.15979668 0.04450084 -0.21464413 -0.18360098 0.22146496 0.26375222 
com.faizmalkani.floatingactionbutton.sample.MainActivity.colorToggle 0.14506085 0.21610512 -0.11134996 -0.005334895 0.29864913 -0.1669682 -0.22515708 0.01697087 -0.47035453 0.01931981 0.41985634 -0.0025126804 0.3127661 0.09762014 -0.5786669 -0.050302204 -0.12753366 0.53735965 -0.25771856 -0.17769079 0.113205895 0.43134877 -0.47644505 -0.20524246 -0.019453552 -0.19958217 0.24710661 0.039805546 0.38714042 -0.1267856 -0.35528278 -0.20255743 0.30360925 0.20568864 -0.08651894 0.02612769 0.40320566 0.0950604 0.40550858 -0.088014506 -0.18677366 -0.1900185 -0.25960293 -0.085940994 0.0936654 -0.075156815 0.08601846 -0.08628033 -0.22176279 0.080393896 0.09938306 -0.15632524 -0.06964411 0.29546368 0.38815594 0.10963704 0.0857362 -0.034301955 -0.2702218 0.15047474 0.25057247 -0.48628387 -0.5925827 0.038328435 0.03596764 0.101992525 0.20240116 -0.23199646 0.052729122 -0.2181196 -0.07659971 -0.4319845 -0.061621 -0.33880174 -0.3027023 0.14866199 0.24494512 0.10638922 0.38835794 -0.11840217 -0.11627033 -0.081102975 0.12676 0.47282973 0.35690525 0.14967057 0.070939705 -0.14408796 -0.16633148 -0.07129348 -0.21322544 -0.30757886 -0.07569583 -0.03929786 0.018326733 -0.46992868 -0.051123254 0.17425805 -0.068559095 -0.3216225 -0.09663532 -0.13233034 -0.19753292 0.14561771 0.17921028 -0.24054243 0.19579378 0.067811266 0.18422776 -0.02784204 -0.5690892 -0.24010164 0.38557395 -0.19355053 0.17107204 0.22565491 0.12598777 0.34081796 0.44323236 0.06969573 0.18969151 0.1921717 0.428744 0.52162725 -0.009103794 0.011511696 0.07801496 0.0065872152 
ActionBarActivity 0.13365474 0.10824229 0.025518715 0.014123622 0.25761747 0.17997195 -0.16558781 -0.09992923 -0.2978664 0.03508777 0.19891359 0.11467634 0.2123407 -0.09123109 -0.12105794 -0.16628832 -0.116897844 0.23801075 0.11566234 0.2736394 0.014851983 0.14387597 -0.01483294 0.14018464 0.037568916 -0.33293658 -0.14395648 0.095012635 -0.012061938 -0.18044916 -0.065509625 -0.022426484 0.17072865 -0.026744172 0.10506637 -0.0064392155 -0.30054772 -0.11203111 -0.2216951 0.038310185 -0.41484272 0.005560314 -0.11295173 -0.0747441 0.25357884 -0.101777054 -0.22580844 -0.019596148 -0.23940663 0.41018444 -0.019931225 -0.18330118 -0.00593577 -0.0355373 0.010926878 -0.035131827 0.020076705 -0.18797833 0.11797883 0.15581204 0.075895734 -0.13124385 -0.41687247 -0.23609038 -0.28602925 -0.037616443 -0.17915945 -0.24219926 0.20645821 -0.15853101 -0.15990512 -0.18620563 -0.10352551 0.050765913 -0.09147385 -0.01782523 -0.17747812 0.08277939 0.33867422 0.25509953 -0.071207106 0.0359932 0.08097991 0.004098332 -0.0155369025 -0.036441308 -0.0024796238 -0.26591283 -0.21359077 -0.19282298 -0.05003842 0.28386796 -0.10166042 -0.1115577 -0.066006206 -0.1263255 0.069689274 -0.010771297 0.469312 -0.08753584 -0.16957264 -0.15995468 0.0066184914 -0.13989393 -0.12667656 -0.23892084 -0.104879856 -0.14904979 0.0036953108 -0.23870301 -0.2950502 -0.2052763 0.18893728 -0.2543806 -0.065136224 0.020286523 0.056577142 0.1633024 0.109057926 0.059986018 0.2307108 0.27012113 0.082728684 0.11002264 -0.05952927 -0.20998728 -0.119149 0.28202784 
com.faizmalkani.floatingactionbutton.FloatingActionButton 0.25855532 0.021030072 -0.12826465 -0.07331509 0.21823952 0.1393674 -0.016328244 0.12155615 -0.13311018 0.15147023 0.092530794 0.09099336 0.15206711 -0.19045007 -0.13852707 -0.024787039 0.043272816 0.14485054 0.052289583 -0.14903745 -0.24136683 0.23910907 -0.13120706 -0.26711637 -0.03527721 -0.07473535 -0.10086468 0.32373524 0.2874154 0.056114785 -0.08891939 -0.23336351 0.017095605 0.3800505 -0.26403072 -0.27178594 0.17008048 -0.030621154 0.28085214 0.12547237 -0.21347496 0.02315294 -0.12716115 -0.07660514 0.11691981 -0.098555535 -0.13347672 -0.21777329 -0.03670482 0.28690225 0.15816748 -0.01492927 -0.16683134 0.13045923 0.08108286 -0.010270164 -0.057669386 0.18407193 -0.07375288 0.1776599 0.08931927 -0.3116781 -0.2639287 0.22994094 -0.07421463 -0.06402973 -0.0005081349 -0.1299218 -0.09125882 -0.029249575 -0.108702555 -0.19836845 -0.15062407 -0.1429356 -0.016588338 -0.08681773 -0.026638016 0.042542063 0.018559849 -0.09724445 0.1307409 -0.15280461 0.08942092 0.2562804 0.2552751 0.25377044 -0.052564915 0.08909544 -0.1972063 -0.1228345 0.06726429 -0.067933224 -0.12634271 -0.08511305 -0.23781143 -0.147042 0.057874497 0.2124854 -0.1478888 -0.19667737 -0.30217865 -0.0981269 0.024439145 0.044107936 -0.005844907 0.2596344 0.12486948 0.17273547 0.04865075 -0.00988118 -0.25222522 0.015736582 0.11557128 -0.0823802 0.13197018 0.13329355 0.038191 0.24839939 0.26714104 0.060909186 0.08513051 -0.15091696 0.32708782 0.3590046 0.14193916 -0.006898341 0.18575247 -0.07309533 
com.faizmalkani.floatingactionbutton.FloatingActionButton.setColor -0.031988654 -0.27815834 0.39485282 -0.086907454 0.44125146 0.29611647 -0.08383514 -0.18541607 -0.116001554 0.33945772 0.29392514 0.27969903 0.19071361 0.08591074 0.026191045 0.20035765 -0.23576427 -0.27394783 0.08787403 0.18776014 -0.15123282 0.21245871 0.33813873 -0.4343427 0.0064445413 -0.1849502 -0.17706786 0.01424546 -0.04279657 -0.10872491 0.15427117 -0.17968944 0.028552203 0.27524212 -0.40771067 -0.2107246 -0.28928676 -0.005216707 -0.008383292 0.45175016 -0.38625732 0.026228977 -0.13916676 -0.11953669 0.0828034 0.17505892 -0.396076 -0.26002136 -0.33288905 0.39821327 -0.2597962 0.035378527 -0.07465401 -0.24178734 -0.090248026 0.113014236 -0.12794176 -0.04964469 0.24599034 0.024898414 -0.18158728 -0.3518849 -0.6348615 0.066233665 -0.46377248 -0.17661199 -0.10268085 -0.080463655 0.20179029 -0.22918506 -0.2945316 -0.015538228 -0.14802742 0.15754315 -0.31974688 -0.36629614 -0.2642971 -0.047141835 0.29787308 0.26620007 0.23036195 0.027144518 0.3509473 0.3772532 -0.12958047 0.028334746 0.030856762 0.3438859 -0.26953584 -0.34354755 -0.038099978 0.4572849 0.011839024 0.033087954 0.03426511 -0.17179723 0.2758806 -0.12989935 0.43646893 -0.4355998 -0.08225165 -0.22717568 0.29759592 -0.10180739 -0.117321566 0.20593679 -0.12591374 0.11737582 0.037629403 -0.24540013 0.07176308 -0.06689245 0.09093055 -0.33245495 -0.27582955 0.22397438 -0.1878423 0.28236893 0.05609003 0.17061706 0.11771016 0.038064122 -0.11944081 0.5056238 -0.120089404 -0.1711075 -0.026478251 0.33290058 
View -0.06971949 -0.15773028 0.05901209 0.094774194 0.37288606 0.06102117 -0.032074995 -0.0426027 0.04141621 0.32757586 0.1937128 -0.040809978 0.35372615 -0.0035134272 -0.13718751 0.12906277 -0.1445878 0.12854071 -0.009791112 0.05596827 -0.070934065 -0.051230647 0.047642976 -0.24586616 -0.30440632 0.07149461 -0.049565434 0.040343646 -0.041549586 -0.0035393923 0.26122108 0.019464968 -0.06684135 0.062152162 -0.0031851898 -0.25366354 0.049257122 -0.08487065 -0.010874507 0.01978998 -0.12009536 4.1738986e-05 -0.12731837 -0.17251986 0.007754357 0.2056591 -0.16293219 -0.13533103 -0.031120725 0.21023308 -0.20487285 0.042608246 0.15225804 0.08402513 -0.013763458 0.3503811 0.10526678 -0.007524764 0.14446911 0.07658713 -0.0149901975 -0.18283623 -0.24573834 -0.07619875 -0.17924464 -0.10377542 0.15293372 0.053573567 0.14589371 -0.03451094 -0.11738619 0.22650681 -0.092909515 0.32494682 0.087914005 -0.0010465293 -0.06438861 -0.12263862 0.2942532 0.030703878 0.18382384 0.15073025 0.39822513 0.13095076 -0.22995898 -0.018566532 0.022365421 0.15143195 -0.22645286 -0.03345658 -0.02063259 0.31307527 -0.1972659 -0.005568394 0.18502267 -0.08213696 0.2536844 0.11513471 0.08580902 -0.47085622 -0.1878679 -0.16784646 0.2332192 0.14510678 0.13447957 -0.08303352 -0.11377588 0.109256946 0.06777905 -0.1501206 0.07855586 -0.05441841 -0.08901487 -0.21943259 -0.10997619 0.15975706 -0.027918655 0.25638962 -0.17487147 0.18524864 0.08146148 0.22068825 0.30963424 0.2232334 -0.053552378 0.18228672 -0.08436068 -0.19019781 
com.faizmalkani.floatingactionbutton.FloatingActionButton.setDrawable -0.051250555 -0.26634726 0.3759068 -0.08241588 0.4244721 0.28315246 -0.076661274 -0.1790426 -0.09562991 0.33760667 0.27435946 0.25803864 0.1935207 0.06682997 0.06402774 0.20375009 -0.23809299 -0.24477352 0.10176378 0.20115957 -0.13238616 0.17618236 0.3553594 -0.38181883 -0.021250105 -0.1891622 -0.16883983 0.0049467487 -0.0633283 -0.105920576 0.16971107 -0.16639373 -0.0049670516 0.24962372 -0.3851231 -0.19545946 -0.30848265 -0.011144464 -0.017726209 0.4352628 -0.3638966 0.037477884 -0.13146155 -0.1265803 0.08908119 0.16511925 -0.39765203 -0.26155847 -0.30995718 0.39114696 -0.26955634 0.041910954 -0.054619215 -0.24906802 -0.09109261 0.14226392 -0.10022517 -0.057681624 0.25415644 0.05425613 -0.19868265 -0.32532302 -0.5967651 0.046275407 -0.46201137 -0.18186797 -0.11001706 -0.041563567 0.19716585 -0.21148154 -0.28432673 0.011148217 -0.15434499 0.1896023 -0.27301535 -0.3625143 -0.24805215 -0.04833784 0.27680552 0.26677325 0.21941018 0.05172578 0.33636484 0.3578432 -0.15724266 0.042806756 0.03261485 0.32475808 -0.26785156 -0.31309345 -0.04722681 0.47316363 0.010454201 0.05088363 0.0456294 -0.16216056 0.26546925 -0.10454858 0.43859357 -0.43108392 -0.08155767 -0.22668569 0.306102 -0.07945332 -0.10727817 0.16032265 -0.12692602 0.107569665 0.023631327 -0.24608418 0.08807349 -0.079313464 0.079821035 -0.33025748 -0.28545895 0.20637539 -0.17776813 0.28588578 0.019408766 0.15121633 0.12656085 0.06117597 -0.1017917 0.46641734 -0.1255394 -0.16595484 -0.027150655 0.32292026 
Activity -0.23008266 0.20592572 -0.26503763 -0.2417401 0.18361051 -0.5659457 -0.31409672 -0.0667182 -0.2395978 -0.05190822 0.32572705 0.10105343 0.5611865 0.28326255 -0.5489745 0.24818215 0.08100461 0.48693627 -0.31122524 -0.23244841 -0.06487098 0.0056096 -0.34260738 0.07691696 -0.308309 0.0029516944 0.42175728 0.004369959 0.14938554 -0.282467 0.21642737 -0.101578556 -0.16832282 0.37344012 0.21844059 -0.0069378535 0.6318437 -0.33221048 0.49131095 0.18023622 -0.17899284 -0.22995585 0.012566061 -0.28194967 0.1880144 -0.31853783 -0.17391215 0.16972929 -0.31675398 0.13844135 0.16107231 -0.1074589 0.49628407 -0.22264872 0.42337203 0.16448142 0.49323198 0.010437871 -0.02069976 -0.30419245 -0.19860718 -0.4241265 -0.29856896 -0.30841595 -0.33290327 0.50160587 0.328953 0.31956547 0.31312093 0.098745786 0.33208564 0.21797428 0.16949724 0.1780374 0.25581005 0.17288025 0.10513222 0.40600652 0.22952032 -0.25594038 -0.062429123 -0.008265336 -0.010462237 0.48054478 0.14703926 0.021457652 -0.12751192 -0.29270563 -0.11437515 0.37972534 -0.22189139 -0.5095862 0.21559945 -0.16751023 0.53539574 -0.2895236 0.27197054 0.40943566 -0.25256875 -0.25025293 -0.305414 0.016652193 0.025529439 0.18072823 0.5049289 -0.3798357 0.11881606 0.06413465 0.5753044 0.27817982 -0.10675681 -0.2749181 -0.010600592 -0.32388368 0.042629674 -0.095432796 0.38096663 0.45179984 0.08527654 0.56254333 0.20664413 -0.12222625 0.8514357 0.050352186 -0.24676818 0.21399829 0.07401577 -0.35639316 
com.faizmalkani.floatingactionbutton.sample.About 0.16338249 -0.117372505 0.35621285 -0.24225932 -0.14321645 -0.03347373 0.212747 0.027739987 -0.01821743 0.060490828 0.29901853 0.17715248 -0.19732071 0.14447026 0.15382698 0.39277703 -0.47011 0.022007791 -0.21740144 -0.12233529 0.23697983 0.48751932 0.4445095 0.040507462 -0.009138531 -0.39174494 0.35114065 0.5255037 0.22760986 -0.11545488 -0.5624334 -0.27620947 -0.16536474 0.39678708 -0.5852556 0.3598345 -0.009672445 -0.17195918 0.6100788 -0.03745671 -0.03574021 0.20812954 -0.21975167 0.18169521 0.202316 -0.2565918 -0.31186542 -0.3919308 0.33306184 0.34673244 0.02427024 0.14453393 -0.31110123 -0.030611968 0.35540643 0.037774637 -0.26240176 0.20893966 0.07183115 0.4330541 -0.06966878 -0.3471271 -0.7627552 0.405291 -0.4391025 0.080439866 0.20873311 -0.25186676 -0.3971088 -0.22517687 -0.31981477 -0.27926257 -0.6131288 -0.30792248 -0.37401843 -0.35084668 0.4109355 0.19994642 -0.2875064 -0.49177092 0.4144318 -0.1480966 -0.32849902 0.65002954 0.40076488 0.51985675 0.21090774 0.00010850255 -0.35624507 0.1316248 -0.43442515 0.022025377 0.19404966 0.23610349 -0.49100572 -0.5061685 -0.25085825 0.28975388 -0.39094394 -0.26949129 0.06600997 0.13046497 0.3114966 -0.10652412 -0.06114571 -0.09820237 -0.08423563 -0.00025228653 -0.11532627 -0.055860233 -0.65458864 -0.27070123 0.3242742 -0.2875196 -0.31409776 0.27116638 -0.10589192 0.35374075 0.36153454 -0.39037567 0.025966903 -0.11207332 0.12085721 0.7987104 0.26747748 -0.40461144 0.49128884 0.33630756 
com.faizmalkani.floatingactionbutton.sample.MainActivity.hideFab 0.1856365 -0.1571543 -0.16198789 -0.008102097 0.49215126 -0.23258986 -0.3938071 -0.23260556 -0.27271938 0.023720324 0.16308697 0.26888558 0.56012684 -0.245761 -0.34044868 -0.44697723 0.116156854 0.28766575 0.2847047 0.3633964 -0.24567899 0.21134324 -0.37641507 -0.019043213 -0.029231938 -0.22801873 -0.10991065 0.0863814 0.16690059 -0.15483427 0.15227403 0.035173275 0.2320557 0.49265215 -0.0008641089 -0.47007838 0.20076224 0.059319064 -0.24563871 0.36198896 -0.4572934 -0.15088858 -0.009589294 -0.3391229 0.35260165 -0.057710465 -0.10104564 0.071017556 -0.526535 0.37351462 0.30742496 -0.17531104 0.06305641 -0.037435062 0.12097494 -0.021344444 0.0275112 -0.0018453829 0.13991523 -0.26714697 0.20126152 -0.11995869 -0.6381708 -0.39942876 -0.5745596 0.05786548 -0.11990946 -0.23099063 0.2431633 0.13319065 0.100987405 -0.13861884 -0.13879086 0.06475297 -0.16936085 0.32230955 -0.41482815 -0.0147068305 0.46075183 0.42894682 -0.10979403 -0.35409075 0.43965068 0.0071927854 0.07195968 -0.04984722 -0.0009995147 -0.07256442 0.016642278 -0.31860048 0.17413391 -0.002850103 0.101182796 -0.24678126 0.050646864 -0.14104389 0.29820824 0.022666572 0.42186657 -0.0788392 -0.66545546 -0.26555175 -0.038541548 -0.2570538 -0.12918195 -0.07877979 -0.26583293 -0.10969774 0.247894 -0.2968583 -0.36543113 0.026046641 -0.038557515 -0.37505236 0.04367394 -0.11811898 0.083873205 0.12009747 0.36674395 0.2755592 0.20129447 0.04491297 0.64380234 0.21079148 0.04892465 -0.026360268 -0.1099009 0.19395293 
com.faizmalkani.floatingactionbutton.FloatingActionButton.hide 0.25375602 -0.114657424 0.53062576 0.044410344 0.17215402 -0.062070437 -0.3249411 0.1113162 -0.10025435 0.3722313 0.3275527 0.012010592 0.2659328 -0.0962403 -0.11417881 -0.2718901 -0.16788487 0.06657044 -0.12766373 0.40602183 0.15201768 0.56890815 0.1681886 -0.05709273 0.10330706 -0.48602286 -0.055195022 0.21591862 -0.3329629 -0.26295704 -0.35864508 0.21133709 0.03182274 -0.088097066 0.149592 -0.068832174 -0.4360605 -0.059204467 -0.122813284 -0.115630955 -0.5299311 0.17916998 -0.3030595 -0.10073674 0.41443124 0.24896331 -0.3660834 0.17057438 0.06967476 0.5043324 0.16779031 -0.43174216 -0.4053983 0.23228167 0.057333425 -0.06261447 -0.34089223 -0.36657673 0.18882407 0.3000577 0.3799911 0.18130842 -0.71016914 -0.4646318 -0.37194028 0.04562087 -0.17512643 -0.39405248 -0.04820785 -0.27004564 -0.17215109 -0.20051725 -0.57267857 0.16368875 -0.12554888 -0.19954528 0.16131006 -0.01492608 0.2443726 0.031030687 0.2532001 0.07821501 0.27579063 -0.08277436 -0.13051438 0.044925388 0.15015045 -0.090841524 -0.4595211 -0.1948876 -0.05039577 0.5813448 -0.13647974 -0.08314802 -0.22625044 -0.41660407 -0.036291044 0.10803799 0.28099355 -0.14288059 -0.65187836 -0.3575377 0.27244118 -0.53703606 -0.24915493 -0.47806048 -0.4578294 -0.31683257 -0.1736835 -0.3760662 -0.54239255 -0.4081148 0.15608965 -0.47198367 -0.38410458 0.37409958 -0.29156137 0.16550633 -0.25330022 -0.213593 0.24991791 0.6735897 0.06410945 0.3827002 -0.08942059 -0.30273485 0.19957083 0.33202502 
com.faizmalkani.floatingactionbutton.sample.MainActivity.showFab 0.16206934 -0.1409777 -0.1513218 -0.013888154 0.4565811 -0.24335392 -0.38650417 -0.21748689 -0.26203912 0.01624958 0.16500844 0.25228062 0.53508604 -0.2220308 -0.3236232 -0.42048034 0.10769428 0.27869856 0.25817385 0.34570175 -0.22795083 0.20805942 -0.36331263 -0.003214977 -0.03212469 -0.21781966 -0.09066248 0.07066634 0.15575281 -0.1598966 0.14476691 0.03992614 0.21164767 0.4679269 0.008093972 -0.4348256 0.20219487 0.056523245 -0.22195703 0.351626 -0.4296325 -0.14491895 -0.007463332 -0.32989097 0.3414242 -0.06733052 -0.09924896 0.081796505 -0.50747555 0.34872308 0.30135986 -0.1677487 0.06852536 -0.05105358 0.120823 -0.02153884 0.03651262 -0.0010478775 0.13303962 -0.25896218 0.1808317 -0.10711777 -0.60813993 -0.39427835 -0.5528786 0.075386435 -0.110910036 -0.20412311 0.23567489 0.12742424 0.11152515 -0.13349266 -0.1364002 0.06852967 -0.14515701 0.30921945 -0.38339317 -0.008487177 0.43362075 0.40232995 -0.11259737 -0.3365221 0.4082736 0.013499455 0.070405535 -0.04550189 -0.0074596745 -0.07806844 0.019727513 -0.28849837 0.16056006 -0.01816328 0.10711671 -0.23095344 0.06476255 -0.14204486 0.28758264 0.027971609 0.39840266 -0.07052001 -0.63775605 -0.25085256 -0.03917799 -0.24239212 -0.114343785 -0.09944134 -0.25296184 -0.1035933 0.24707858 -0.27175844 -0.34875935 0.013876473 -0.03459993 -0.35990828 0.032023787 -0.118926845 0.080579504 0.11960604 0.34062463 0.2605567 0.19209963 0.043390814 0.62551063 0.19488767 0.036398597 -0.021332512 -0.09330871 0.17902932 
com.faizmalkani.floatingactionbutton.sample.MainActivity.onCreate 0.2413854 -0.10560386 -0.1905859 -0.07513215 0.35208786 0.5069868 0.036086533 0.07146638 -0.16578622 0.31051305 0.07186608 0.037360877 -0.0659012 -0.16649094 0.2483715 0.01902812 -0.39174008 0.3282392 0.35058954 0.19671993 -0.06247789 -0.019783998 0.21372038 0.15665586 -0.4048473 -0.16901904 -0.14103682 0.376477 0.46285492 0.15232947 0.3637804 -0.17421919 -0.28005943 0.35726437 -0.10132882 -0.14749439 -0.002312541 -0.07315352 -0.0062555084 0.32358623 -0.14856993 -0.14480792 -0.022035422 -0.055266775 0.24562857 -0.46629813 -0.23809005 -0.47256452 -0.16451748 0.6038083 0.07483923 0.29930502 0.279923 -0.41444734 -0.099481784 0.13887505 0.044065073 0.47835204 0.235487 0.27584508 -0.4156603 -0.56456804 -0.34063208 0.058532692 -0.49909526 -0.38789463 -0.02680993 0.03546923 -0.09658077 -0.17600346 -0.18651246 -0.05005741 -0.36360738 0.14988662 0.04973167 0.030780822 -0.46541652 -0.07218046 0.2707939 0.47218835 0.022220602 -0.18146908 0.23309001 0.045500346 0.16522016 0.2066886 -0.20723788 -0.10552377 -0.45947894 -0.32512128 0.11792164 0.3792999 -0.29157418 -0.059947763 -0.25185567 -0.11485545 0.3494903 0.20892406 0.52752846 -0.50218076 -0.26146284 0.1394172 0.31659946 0.35687244 -0.21757574 0.1972927 0.3570631 0.25713757 -0.12825789 0.026491247 -0.45109192 0.012904916 0.09269021 -0.24720238 -0.045827243 -0.2938841 0.2739676 0.20590377 0.01627682 -0.039815105 0.27207837 0.09636652 0.39469764 -0.08492698 -0.15564516 -0.117590144 0.2657365 0.06387375 
com.faizmalkani.floatingactionbutton.FloatingActionButton.listenTo -0.21133034 -0.0063365875 -0.0067679957 -0.3302235 0.46959868 0.29053843 0.060718574 -0.22506332 -0.141247 0.056469377 0.015549048 0.32804942 0.20678455 -0.29427677 0.20742327 0.09316703 -0.22325085 0.07207016 0.37501296 0.1536549 -0.4019886 0.0363801 0.23777446 0.13695225 -0.1283398 -0.35669875 -0.1818274 0.047945973 -0.22237478 -0.093479745 0.06287458 -0.3015359 0.10679978 0.2975849 -0.5214174 -0.24541984 -0.47939533 0.10789659 -0.1916274 0.42844 -0.38594687 0.30951446 -0.22984104 -0.2165063 0.18544403 -0.25102085 -0.6404034 -0.448123 -0.3234482 0.57891554 -0.2541982 0.07639742 -0.20810598 -0.375232 -0.074945435 0.35094503 0.17269057 -0.24973342 0.112403445 0.50994474 -0.11640505 -0.22312473 -0.5480883 0.3072644 -0.57300615 -0.17998616 -0.4052852 0.078460045 0.26574248 0.06529908 -0.34960216 0.054122113 -0.121437825 0.28263277 -0.08630095 -0.46785292 -0.12881476 0.106719 0.030293621 0.12118926 0.14265715 0.13552941 -0.12690392 0.60416615 -0.270675 0.41885313 -0.086707525 0.037892293 0.05009973 -0.03299327 -0.1674489 0.23095647 0.064844385 0.1513492 0.18216379 0.10453256 0.103455335 0.16635627 0.45198855 -0.16656283 0.029347701 -0.3858694 0.25522515 0.25019315 -0.08049868 -0.20150392 -0.35632142 -0.08749464 -0.06624553 -0.38239312 0.12717657 -0.38729924 0.32566753 -0.313583 0.03595024 0.29308242 -0.09034247 0.35429168 0.33087704 -0.1911909 0.4042758 -0.0831086 0.20170794 0.46060607 0.14972107 -0.22495662 -0.1572623 0.44169125 
com.faizmalkani.floatingactionbutton.FloatingActionButton.onTouchEvent 0.18884152 -0.12183111 -0.14991067 0.17009744 0.44210532 0.016143182 0.15611699 0.0391584 0.14542258 0.31898236 0.1937062 -0.0066272467 0.6584177 -0.23547558 -0.34892726 0.19430567 0.14393707 0.14863244 -0.04245827 -0.23966244 -0.36652195 0.0026516486 0.00723061 -0.63653785 -0.29940388 0.21263254 -0.21429838 0.44727 0.047292396 0.007954558 0.16821404 -0.25320956 -0.014905656 0.3793419 -0.2136378 -0.527547 0.21137969 -0.37705317 0.35795572 -0.11575362 -0.28803498 0.174906 -0.19377984 -0.18938875 -0.013976406 0.37330177 -0.2526713 -0.23860712 0.17589134 0.37299648 -0.1967002 -0.06632901 0.043451626 0.4684367 0.117733404 0.4031337 0.037988935 0.0026710804 0.13715203 0.11887609 0.17180152 -0.3049621 -0.24697502 0.15141927 -0.070051104 0.029510831 0.29332313 -0.11046114 0.15777384 0.08064166 -0.21347637 0.24130948 0.016771413 0.23225756 0.22929554 -0.11835942 0.036614425 0.017362356 0.116329014 -0.457534 0.4555472 0.1466875 0.46585813 0.31506568 -0.056090567 0.1720517 0.16235426 0.29336697 -0.3467256 0.08601561 -0.056475002 0.24297012 -0.30325818 -0.031555735 -0.08149461 -0.085858874 0.15604255 0.3551931 -0.46162274 -0.53696334 -0.4186316 -0.2976997 0.21138597 -0.031388268 0.32440156 0.27484876 -0.16207857 0.25505456 0.2615073 -0.20041439 0.17355104 0.14384255 -0.2458397 -0.108963385 -0.028731588 0.37019664 -0.0664028 0.50539905 0.021554219 0.43528447 -0.08354353 -0.13361946 0.5629992 0.63447344 0.2975164 0.28835016 -0.06996526 -0.41402698 
com.faizmalkani.floatingactionbutton.FloatingActionButton.darkenColor -0.108954825 -0.40838265 0.34696302 -0.20432279 0.42004186 -0.24842007 -0.2233922 0.20891476 0.23676161 0.41809186 0.15244806 0.114977196 0.17353691 0.10287303 -0.34623894 -0.10210476 -0.0700871 -0.26007736 -0.07342809 -0.30420884 -0.54164875 0.5010574 -0.09495497 -0.478281 -0.2968297 0.21165276 0.094985954 0.18222071 -0.1796319 0.26763168 0.27172172 0.12035379 -0.10719242 0.57507527 -0.21593222 -0.6477479 0.49752036 0.25577998 0.05994902 0.30084014 -0.14916106 0.051724404 -0.20863453 -0.31655547 -0.0121390065 0.11378154 -0.28597936 0.12524696 0.01222871 0.2566417 0.32617286 0.20535526 -0.31577507 -0.09385681 0.021324366 0.21451539 -0.22708087 0.24808134 -0.06463738 -0.24240208 0.3210387 -0.24608235 -0.63876766 0.2557486 -0.3839768 -0.024457006 0.2809893 -0.020927142 -0.08925087 0.089689314 -0.08091034 0.22093761 -0.3833438 0.31225997 -0.31590924 -0.0772204 -0.09370837 -0.2948676 0.14374666 -0.24548171 0.5270824 -0.12853816 0.42997664 0.552193 -0.18160261 0.144368 -0.21573885 0.49422768 0.029453898 -0.03080481 0.12143568 0.037179794 -0.11432477 -0.19879626 0.24867435 -0.027452642 0.43035865 0.2331239 -0.13312855 -0.45627394 -0.6145099 -0.0911476 0.46109024 -0.046147924 -0.19000895 0.1104229 -0.47424448 -0.05287965 -0.107562155 0.1169937 -0.18699263 -0.2827739 -0.13281609 -0.40902695 0.08077688 0.32820117 -0.24164307 0.13120979 -0.073437735 -0.13956417 0.35731497 0.071298 0.584986 0.5178798 -0.1205042 0.3757843 0.35520494 -0.36224988 
