Variable_N 128
ReactPackage 0.6177472 0.7295032 0.37487087 0.48701605 0.60607845 0.091825895 0.06942295 0.43258384 -0.4184754 0.40202287 0.29399583 0.08993521 -0.079904124 0.08560727 -0.618798 -0.2624408 0.18404722 0.37169787 -0.13405423 -0.5631219 -0.099022605 -0.40902215 0.48484144 -0.64689803 -0.16369481 -0.34653986 -0.048901714 -0.0667153 -0.653835 0.22996084 -0.25111353 0.048357546 0.29530346 -0.19635308 -0.11800306 -0.48915645 0.7992568 0.16469452 -0.28972358 0.6744456 -0.8700045 -0.6898586 -0.099547416 0.515284 -0.015788887 0.15720186 -0.15799083 -0.3104966 0.24397202 0.08644696 0.50280297 -0.12578705 -0.41065803 0.45178372 0.49723852 0.8261259 0.57416934 -0.2344013 -0.05805385 -0.4550947 0.20685294 0.67377657 -0.43344286 -0.4719453 0.6126139 -0.13891035 -0.12753657 0.41065994 0.5856136 -0.16471882 -0.5953169 0.12527308 0.63750964 0.32906362 0.6628212 0.109965906 -0.57101494 -0.4235472 -0.14790596 -0.58939314 0.08545629 -0.040705573 -0.56510603 -0.036220096 0.87847215 -0.13142492 -0.20799886 0.36061648 0.5181362 -0.3667062 0.20185842 0.33565584 0.74412394 0.22675326 -0.3207977 -0.48945853 -0.3251538 0.115483746 0.4200195 -0.14637966 -0.30828568 0.17630638 0.53600615 -0.106210336 -0.0807898 -0.039141104 -0.23848866 0.5733221 -0.34270102 0.5706985 0.49147078 0.67481667 0.26432177 -0.28358686 0.43536642 0.3815085 -0.34092432 -0.57128453 -0.310052 0.2702446 0.57864344 0.15319283 0.34332818 -0.46328798 0.21530817 0.14940771 -0.5893955 -0.3027485 
com.hieuvp.fingerprint.ReactNativeFingerprintScannerPackage 0.18919449 0.18016432 -0.12658674 0.51736104 0.60370755 -0.06594114 -0.29545704 0.2727104 0.11373092 0.17562477 0.22447884 -0.02120487 -0.24144265 0.39031032 -0.7278704 -0.471202 -0.22378536 -0.14174555 0.4232543 -0.497335 0.32943022 0.3509364 -0.12197462 -0.32853103 -0.26222154 -0.38888985 -0.2973752 -0.64305335 -0.37236837 -0.5639199 -0.30948088 -0.084086135 -0.03365253 0.2643744 -0.7518042 -0.42961985 0.28935164 -0.51770324 0.030424904 0.83534247 -0.9322677 0.19872351 -0.2558304 0.7422703 0.052691005 -0.15456744 0.5078583 -0.36563754 -0.02417783 0.0050964537 -0.22012034 0.63043034 -0.436211 0.95916694 0.19881715 0.21005802 1.1011161 -0.21595167 -0.52763385 -0.5204499 0.21545781 0.66039854 0.327522 -0.3126605 0.530232 0.04675568 -0.42280233 0.5372736 0.4549905 0.17679274 -0.56674886 0.25728533 -0.06815552 -0.16824137 0.16728178 0.14263833 -0.98894364 0.09078775 -0.14324734 -0.581419 -0.36664724 -0.22645557 -0.6745298 -0.030623734 0.3300973 0.5717381 0.11026499 0.7752594 0.18277037 -0.08396669 -0.14088692 -0.066733554 0.73973083 0.35709196 -0.8600674 -0.035135716 -0.40214074 -0.5519626 0.78963214 -0.6245141 0.40431535 -0.26538476 0.16968098 -0.037714057 -0.8197018 0.36231494 0.29264945 0.5125271 -0.018657345 0.55309606 0.22609107 0.17384866 0.9095229 0.058558453 0.031837605 0.0038374334 0.35491887 -0.54854923 -0.051300745 0.8405084 0.22167197 0.14761004 -0.26616064 -0.19463658 -0.5706802 0.40603012 -0.33612853 0.15125561 
XCTestCase 0.450501 0.38049763 0.17394833 0.085169435 -0.044750817 0.38759485 -0.42562318 -0.2949933 -0.3809311 0.3337427 0.391932 0.27178946 0.027710509 -0.26806086 -0.35669985 -0.44865927 -0.50429624 -0.19726855 0.7462389 -0.6019055 0.7484177 0.2112161 0.5510812 -0.29239643 0.011302096 -0.29951963 -0.51031995 -0.26976633 -0.15157388 0.29821202 0.5636803 0.10015835 -0.1573837 -0.01829499 -1.0023893 0.15433091 0.13408558 0.26215976 -0.2261149 0.75353575 -0.886569 -0.3881 -0.6039092 0.007948628 0.55008006 -0.27738026 -0.39217514 -0.41108268 -0.47989598 -0.47933334 0.16305861 0.12600699 -0.35588247 0.3312372 0.7002469 0.48017332 1.189665 0.043702878 0.17457677 -0.58925945 0.18536657 0.5871722 0.2612784 0.4361568 -0.10283208 0.10962957 0.30592835 0.11884729 -0.0025610067 -0.4969056 0.16064996 0.61137766 0.24584088 0.5379527 -0.2047586 -0.53696674 -0.61295646 0.15425207 0.71273446 -0.5219345 -0.6232089 0.0151095465 -0.15620793 0.1438818 -0.02193012 0.45655608 -0.03201292 -0.11161172 0.71149045 -0.4061685 -0.2868841 0.4100626 0.50347716 0.03912876 -0.3767978 0.17539226 -0.060374014 0.6079122 0.537925 -0.1628938 -0.28194165 0.31650424 -0.0784202 -0.013129944 -0.42479312 0.43515202 -0.36700213 0.64673346 0.53585005 -0.12005685 0.011399864 0.35881048 0.15708174 0.2982273 0.18107942 0.36635092 -0.038630936 -0.57064193 0.113604106 0.95261985 0.62920344 -0.26834503 -0.00028687506 -0.45408615 0.07280344 0.06170449 -0.2660706 0.49532342 
examplesTests 0.22150485 0.4087695 0.8983845 -0.5181147 0.89206445 -0.08708283 0.7925087 0.2705942 0.20935264 0.015591362 -0.17960367 0.3587094 0.2987499 0.4228526 0.041180044 -0.07417314 0.18756232 -0.45119894 0.08136269 -0.5861811 0.1063311 -0.3315141 0.12734981 0.4525117 -0.64493287 -0.39192373 -0.3328281 0.0039765835 0.52238214 -0.1848288 -0.058247603 -0.2521195 -0.364006 0.032731805 0.030847289 0.42399707 0.44460544 -0.7291328 -0.32637352 0.56724656 -0.024650019 -0.8843184 0.20097919 0.15372409 0.12302524 -0.18570012 -0.13967967 0.19768019 -0.25852054 0.70583755 -0.19840872 -0.065047406 0.4734852 0.3425312 0.04821025 -0.032776963 -0.27955785 0.63120186 0.008871326 -0.35598558 0.14605027 -0.32937112 0.25002682 0.3580908 0.72653675 -0.281636 -0.45042604 0.09434408 0.5239324 0.6120995 -0.5369328 0.12560333 0.52867675 -0.6231933 -0.16219603 0.13742805 -0.7165499 -0.4348838 0.2626209 0.16176695 -0.040556498 -0.15109861 -0.21597663 -0.6156472 0.5005027 -0.7010674 0.21677533 -0.1407146 -0.15144476 0.5799282 -1.0171525 0.026689032 0.47936988 0.45227823 0.21874642 -0.11278533 0.12889697 0.89894444 -0.05080423 0.1664059 -0.111748986 0.3332342 0.5476235 -0.5560194 -0.00011364314 0.52562183 0.670764 0.7565449 0.5335069 0.004529752 -0.039881304 0.72911423 0.7089792 0.16709265 0.09974553 0.38621575 -0.34939364 -0.009783304 0.0027032492 0.59157056 -0.15092522 -0.42028895 -0.37162995 -0.26536727 -0.24069868 0.7529565 0.47858107 1.293502 
ReactActivity -0.4884899 -0.13900429 0.8595826 -0.5163268 0.5903729 -0.37306172 0.5803079 -0.25563058 -0.3867304 -0.4627062 -0.019056719 0.38055357 -0.23278597 0.6126261 0.58716863 0.4762259 0.3980027 -0.40488994 -0.16335866 -0.52293 0.8885759 0.2421703 -0.12640382 0.21256262 -0.004699881 0.17769325 -0.3142378 -0.73932123 -0.122473404 -0.8548672 0.51615393 -0.15154746 -0.11731949 -0.20044535 -0.064002536 -0.4233754 -0.3929113 -0.23011865 0.5099436 0.33905703 -0.6920479 -0.34479165 -0.30837312 -0.10780511 -0.049514394 0.19199677 0.80602586 0.0015382492 -0.3626823 -0.0648958 0.43975466 0.23800811 0.090024434 0.073004335 0.14325836 0.09179087 0.1268997 0.6258085 0.6877835 0.25866893 0.115856625 -0.39042902 0.62650305 0.37071618 0.07593734 -0.6047763 -0.4530253 -0.4959214 0.19455434 0.61965567 -0.34521604 0.10129473 -0.22039895 -0.6090511 -0.34877753 0.6021174 -0.9114448 -0.42042994 -0.58426917 0.5377281 0.027020752 -0.16366398 -0.68820226 -0.69649535 -0.26877356 -0.7798137 -0.38281414 0.62620324 -0.122328505 0.31035918 -0.4418839 0.6765363 -0.4450028 0.49759033 0.09865265 0.20562743 -0.13779026 0.38807353 0.29988396 -0.48736924 0.41832018 0.67913467 -0.31123373 0.2046582 -0.14445749 0.17934358 -0.20797972 -0.41908792 0.107285485 0.16331384 0.33682525 0.5018507 0.77547985 -0.16049333 0.2860038 0.56345767 -0.142589 -0.25932026 0.30140793 -0.23456703 -0.16954555 0.0067026797 0.25686496 0.35222924 0.40806007 0.41973308 0.572206 0.8980799 
com.examples.MainActivity -0.074825436 0.63162863 -0.029918332 0.4881417 0.40634245 -0.017764997 0.20974657 -0.25268996 -0.33793294 0.012127914 -0.31992307 0.0863352 0.049303737 0.4161874 -0.7789811 -0.10030813 0.13126394 0.26345962 0.45460916 0.047916256 0.5498703 0.21708457 0.047830667 0.09155192 0.1618001 -0.46579373 -0.6898302 -0.7578225 -0.7440794 -0.18790254 0.4351252 -0.5205148 0.402294 -0.1543471 -1.0077829 -0.42915842 0.021915698 0.1362102 -0.23146701 0.7126118 -0.9774369 -0.49543574 -0.47197893 -0.3013146 0.36324966 -0.14943583 0.461153 -0.7387059 0.13011855 -0.40420294 0.4332805 0.15300225 0.6234215 0.27121913 -0.30290973 0.43199342 1.2494879 -0.48094758 -0.4161814 0.2262742 0.5408058 0.49125266 0.3106446 -0.27814966 0.27093405 0.14816408 0.09272988 0.66016424 -0.21590453 -0.1593422 -0.62103057 0.6299641 -0.22875 0.47002152 -0.14524901 -0.32148898 -0.2857025 0.2911216 0.6739838 -0.065446906 -0.7630006 -0.011595375 -1.1567938 -0.19348682 0.6955906 0.8564504 -0.016840205 0.3796314 0.042713054 -0.093681686 0.18129553 -0.07997714 0.31368634 -0.13289842 -0.41391152 0.0853737 -0.63073885 -0.0040819743 -0.23748685 0.19108923 -0.8136195 0.24126568 0.07420313 -0.16320097 0.13451537 -0.17578289 -0.30588087 0.45376953 0.3336102 0.25748554 0.5255186 0.40765563 1.0210242 0.070932664 0.52940077 0.5360773 0.06921673 -0.10827893 -0.16400747 0.56529075 -0.35346946 0.018929597 0.4277426 -0.84239805 0.15487924 -0.16031027 -0.6496609 -0.2546046 
examples/ios/examples/AppDelegate.h -0.011977935 -0.13174123 -0.008378046 -0.0706192 -0.28531703 -0.20832545 -0.36230233 -0.369449 0.30125043 0.0930163 -0.005243485 0.3818417 0.19334836 0.6048013 -0.056327216 0.0598216 0.27546123 -0.028117744 0.097808324 -0.56455064 0.7134418 0.030145984 0.6827114 -0.27799252 0.1214348 -0.118342824 -0.29622003 -0.22923528 -0.052795496 -0.17011403 0.5467467 0.010752835 0.26644203 -0.08305255 -0.33018985 -0.17413658 -0.065019965 -0.4344867 0.3208214 0.042137634 -0.36767244 -0.07852329 -0.43461213 -0.7438446 0.42328447 -0.64750654 0.22541331 -0.42038962 0.006128174 -0.14489262 0.2114424 0.021886423 -0.008386359 0.2934752 -0.08087133 -0.06947853 -0.038565874 -0.113886185 0.19250967 -0.09041121 0.60700554 -0.33465728 -0.1303706 0.5040245 -0.1591686 -0.16095108 -0.24867822 0.0041273152 -0.27671212 0.14118029 0.08201814 0.3770456 -0.081955075 0.28580537 0.10662672 -0.5792307 -0.6999338 -0.42856652 -0.091065265 0.27065054 -0.6081769 -0.52730566 -0.42827883 -0.40935096 -0.23039085 -0.15650453 -0.052906804 0.06884976 0.8309339 0.10143113 -0.22807719 -0.131677 0.22703712 0.33532873 -0.5458068 0.20141931 -0.14291893 0.4748537 0.21191268 0.19413738 -0.43278635 0.049482483 -0.1659145 0.12993588 0.091122866 -0.15781172 -0.5377697 0.028251935 0.091841355 0.14904614 0.0067212684 0.327501 0.062047496 0.47254294 -0.031893276 0.40060812 0.04769412 -0.54490453 0.72233164 -0.072493255 0.08234855 -0.22858942 0.29540786 0.04693566 0.09804727 0.47935733 -0.020965286 0.41654304 
React/RCTBridgeDelegate.h -0.3957008 0.1923934 0.32353026 -0.25674948 0.26538372 -0.084982276 -0.27978033 -0.4292062 -0.09312894 -0.367373 -0.20566691 0.33291742 0.016328081 0.28421482 -0.5727686 -0.09319225 0.026015189 -0.30225575 0.75774574 -0.34920922 0.9951539 -0.14136933 0.68922555 0.34819603 -0.2687277 -0.1766783 -0.15324284 -0.11294146 0.2958307 -0.16305102 0.750427 -0.46755955 -0.25214046 -0.24666262 -0.3954768 -0.013587911 0.10220398 -0.46708065 0.32192567 0.43091053 -0.89189094 -0.25035876 -0.8158326 -0.45780426 0.35984483 -0.82255656 0.04163563 -0.3766913 -0.26287445 -0.006608694 0.16244039 -0.31381702 -0.09440397 0.07031277 -0.07562284 0.061265625 0.10156439 0.0015840979 0.26213592 0.010010802 0.43161306 -0.13381287 0.26230708 0.5845891 0.18475167 0.124906674 -0.35242918 -0.1261054 -0.016229913 0.23943436 0.06567761 0.6472229 0.30170375 0.38128525 -0.014870339 -0.36530167 -0.8067336 -0.5733921 0.1340143 0.23250152 -0.17780556 -0.45273858 -0.49072206 -0.69718283 -0.24290626 -0.012308445 0.290293 -0.11143436 0.6802099 0.06476604 -0.70921946 0.042434085 0.30522582 0.46227244 -0.3533673 -0.1649202 -0.21715745 0.87287796 0.1002199 0.19830804 -0.49500203 0.20496784 -0.07047556 -0.010494855 -0.21046087 0.24033839 -0.5080608 0.5516721 0.30071473 -0.13671054 -0.051004354 0.6561579 0.27377042 0.34452617 -0.12833412 0.18889192 0.24081121 -0.57813185 0.20058013 0.464119 0.36416322 -0.68926847 0.44593784 0.13408203 -0.17538331 0.5747227 -0.053669643 0.65566134 
AppDelegate.h -0.057098657 -0.40684515 0.49289683 -0.4194435 -0.28807282 -0.21534973 -0.043893028 -0.035551157 0.32333 -0.0499191 0.050899357 0.4133156 0.31282648 0.5727719 0.0109093925 0.23199673 0.026734125 0.013474825 0.10260207 -0.40039262 0.50395787 -0.08084454 0.33763787 0.041775692 -0.12524113 0.12230127 -0.3582212 -0.04395428 0.62031484 0.13893755 0.54375935 0.3765014 -0.033890594 0.048217528 -0.4024724 -0.14042787 -0.028847631 -0.21680261 0.24167363 0.3221838 -0.3617844 -0.09151428 -0.5474892 -0.45839384 0.37383452 -0.7181086 0.1155276 -0.73150444 -0.25097233 -0.13694523 0.2976407 -0.2960539 0.23304766 0.65586394 -0.2407703 -0.24878633 -0.107115164 -0.20630144 0.39322156 0.023069024 0.41782504 -0.09151885 -0.20690759 0.79279286 -0.0034685873 -0.47308964 -0.3666599 -0.09536094 -0.3373349 0.35375613 -0.19246548 0.46600178 -0.13543686 0.49012238 0.028908115 -0.2361055 -1.0344691 -0.54076713 0.031095887 0.9684772 -0.6806757 -0.4569447 -0.7268921 -0.5828966 -0.2212886 -0.022020917 0.09561379 -0.02762621 0.7539113 0.39169896 -0.9692399 -0.130178 0.3027707 0.520735 -0.81024915 -0.028685236 0.065924264 0.66355425 0.053482067 0.14422049 -0.3641882 -0.08237885 0.29045314 -0.035687167 -0.4589548 -0.036288626 -0.5256063 0.175917 0.27534285 -0.059147228 0.01319077 0.14542945 -0.004404139 0.40074563 -0.20602956 0.5822425 0.030345546 -0.22435088 0.61829346 0.66840214 -0.19669275 -0.30979288 0.11348977 0.009443632 -0.18875667 0.29787862 -0.36014134 0.89581805 
examples/ios/examplesTests/examplesTests.m -0.04290782 -0.25583282 0.2522126 0.13767995 -0.24357846 -0.66018236 -0.18536884 -0.8167503 0.30577752 0.5208827 0.16258436 0.064296134 -0.11996515 0.38546106 0.23688298 -0.2720795 0.7054533 0.33866274 -0.08280771 -0.07449241 0.37364298 -0.373029 -0.20061573 0.04014361 0.1089936 -0.10354096 -0.031062072 -0.47157055 -0.012702736 -0.55297655 -0.0294542 0.17492907 0.24864782 0.05071589 -0.5766479 -0.23867705 -0.09989694 -0.05658888 -0.12235616 -0.07313482 0.09308767 0.18252173 -0.29433686 -0.04567875 0.45206353 -0.31555152 1.1242146 -0.8875056 -0.1607013 -0.75712407 0.5234528 -0.35759366 0.6597576 0.69877094 0.36735195 0.22516222 0.3437958 -0.46309906 0.32431445 0.37497783 0.3191219 -0.24134333 -0.1451908 0.115665495 0.21746111 -0.19717635 -0.39338973 0.114179246 -0.2726748 0.6547375 0.15748873 0.027546974 -0.018241571 0.7279441 -0.0822652 0.14267237 -0.64015234 0.20936744 -0.24566507 0.7588926 -0.41517562 -0.148165 -0.8196261 -0.17524448 -0.14884074 0.19654869 -0.44626084 0.22900258 0.5526028 0.08825689 -0.31389162 0.247266 -0.20667778 0.096969955 -0.24217463 0.6081416 -0.43412024 0.25604004 0.028261995 0.35088113 0.06281523 -0.26512718 0.31164315 -0.050185397 -0.10678078 0.22555417 -0.4927519 -0.3427616 0.1468878 0.15822627 0.5607218 -0.15463422 0.069210276 0.7493742 -0.42799494 0.7090562 0.41057733 -0.19868787 0.5648953 -0.31339103 -0.07680292 0.044339597 -0.28333488 0.27479982 0.1518782 0.10093607 0.22344492 0.20521575 
UIKit/UIKit.h -0.5736622 0.28906962 0.36376673 -0.26553324 0.41242445 -0.1445314 -0.124150135 -0.3630354 -0.18514188 -0.49362403 -0.40165415 0.3243437 -0.014854233 0.40735194 -0.6587079 0.10550133 0.009302739 -0.46679646 0.75795573 -0.2326865 0.99200326 0.07914566 0.5121439 0.5126743 -0.22082537 -0.16596083 -0.16790982 -0.26344675 0.20380834 -0.2221078 0.73390776 -0.61914337 -0.27929047 -0.20998332 -0.4113274 -0.09468834 0.039529316 -0.564239 0.36985236 0.44555858 -0.99190223 -0.2795739 -0.77655905 -0.48656362 0.40901536 -0.764694 0.074434735 -0.32927173 -0.2669152 0.08710683 0.22968525 -0.23910779 0.07879192 0.020256035 -0.361352 -0.0044615217 -0.010065973 -0.054771617 0.24466535 0.23142494 0.51383346 -0.13004768 0.43172464 0.47939518 0.19190605 0.022989584 -0.36403218 -0.08858399 -0.02444181 0.29981247 -0.19335626 0.70955783 0.07920445 0.16661982 -0.0048386054 -0.26997325 -0.791712 -0.644153 0.13115728 0.2636982 -0.099908024 -0.40105638 -0.6205651 -0.9042758 -0.1422864 -0.03002474 0.36075622 -0.009630983 0.5693 0.17764324 -0.64360344 0.0010266168 0.301525 0.49597284 -0.3768503 -0.31539914 -0.18546401 0.7172289 -0.014196665 0.071596086 -0.60607535 0.3123379 -0.16106668 -0.07470464 -0.24507535 0.13721515 -0.4493543 0.5788809 0.24353868 -0.07623394 -0.019845868 0.78184724 0.5250433 0.1292136 -0.054834038 0.14296882 0.24585004 -0.5254741 0.1256737 0.48711205 0.20687746 -0.71182317 0.65309954 0.09763547 -0.16174687 0.6873995 -0.031073809 0.70457476 
examples/ios/examples/main.m 0.060224243 -0.0137905665 0.24678236 -0.065875165 -0.13471198 -0.083121896 -0.31941473 -0.20163399 0.2772181 -0.12490849 -0.091566496 0.2739998 0.5181107 0.31787643 -0.40162662 -0.30156085 0.036352765 0.061884373 0.43872666 -0.3107633 0.5784923 -0.62545407 0.75005585 0.096854925 -0.29313383 -0.14058469 -0.06248477 -0.040801384 0.547845 -0.009953996 0.4532442 0.033416834 0.2891277 -0.07321566 -0.57727945 0.135807 0.1022027 -0.28501752 0.11950397 0.0867432 -0.24129464 -0.072822236 -0.5698902 -0.49763396 0.6042641 -0.86105376 -0.049150832 -0.71683866 -0.20400687 -0.31095323 0.25245494 -0.36099607 0.1210942 0.69969857 -0.025431193 0.11851315 0.12953886 -0.4157173 0.15890743 -0.11421781 0.5416284 0.05622539 -0.28858304 0.6061866 0.4124982 0.22062598 -0.40876427 0.11955704 -0.17555344 0.045438647 0.22675924 0.6322318 0.45834407 0.6313036 -0.062564164 -0.30267906 -0.886987 -0.40549546 0.33285737 0.8170021 -0.39138773 -0.56234545 -0.63143915 -0.6127556 -0.06746957 0.12987147 0.054625195 -0.18290369 0.81118095 0.0037581488 -0.66998416 0.00045010395 0.51292723 0.14327614 -0.59297425 0.19690526 -0.10951801 0.826508 -0.16025582 0.4399357 -0.54489416 -0.15043539 0.22853066 0.028354246 -0.11324171 0.24175121 -0.86821127 0.3439848 0.3049285 -0.14073452 0.29312375 0.16247694 -0.07082018 0.62331825 -0.31182107 0.43935606 0.028474778 -0.519127 0.55576366 0.612074 0.18706593 -0.56218433 0.25387144 0.014492023 -0.33148167 0.4886234 -0.416939 0.465927 
UIResponder -0.31316227 0.26903164 0.721949 -0.28672722 0.40112728 -0.02627864 0.42529207 0.13595062 -0.042203825 -0.15379284 -0.0516392 0.5369715 -0.2509364 0.21605326 0.32157478 -0.2928505 -0.032358434 -0.22234653 0.14137281 0.150682 0.17988713 -0.41698867 -0.4092347 0.44145316 -0.3775867 -0.008551263 0.18188444 -0.11247728 0.58594674 -0.4500071 0.12527405 0.039381135 -0.51377046 -0.03842139 -0.0206757 0.21107736 -0.036108434 -0.13956799 0.25406262 0.21733952 0.014029138 0.16701968 -0.36170527 0.17933884 -0.26632753 -0.14723648 0.0053782924 -0.29568368 -0.45575365 0.23538963 0.29798466 -0.60350734 -0.18025252 0.5496898 -0.574539 0.06409602 0.047930293 -0.06667034 0.519611 0.19228326 -0.2124197 0.041317478 0.04590805 -0.007997442 0.33313772 0.11532021 -0.4489159 0.015955219 0.48684552 0.19722478 -0.2589007 0.497027 0.027553696 -0.3433175 0.0853286 0.7201327 -0.6928489 -0.52638346 0.041225135 0.6403944 -0.28219706 0.09468668 -0.29193905 -0.34371772 0.6036308 -0.20826428 0.14275354 0.0966648 0.06883264 0.61847436 -0.8230571 0.4919949 -0.052742597 0.5606951 -0.040909696 -0.20084175 0.44893727 0.5151054 -0.2668964 0.011715122 -0.01642606 0.14298514 0.033668235 -0.22145937 -0.48195308 0.209449 0.22322379 -0.06068522 0.10663713 -0.32881024 0.009097778 0.20979431 -0.122502804 0.10093462 -0.17803256 -0.13890472 0.08984955 -0.24011609 -0.2067663 0.44629982 -0.06967865 0.036529448 0.16968298 0.10952603 0.037161373 0.30641973 -0.3749864 0.808474 
AppDelegate 0.3959759 0.8237634 0.087801464 -0.16447806 0.6851326 0.44825977 0.42206445 0.21207263 -0.10659291 -0.040689334 -0.42704126 0.6246735 0.19345735 -0.058935203 -0.33462667 -0.078299806 -0.44533703 -0.79935014 0.6835315 -0.37548506 0.36493582 0.2578252 -0.1750769 0.6194702 -0.5316602 -0.6434416 -0.3359984 -0.771852 -0.40185457 -0.39353982 0.14006558 -0.6667153 -0.010880122 0.08008048 -0.8110608 0.35005397 0.50776184 -0.40978965 -0.4674792 -0.1173064 0.010311209 -0.7056086 0.22010675 0.3341237 0.3537304 0.55345744 -0.15830497 0.406176 -0.8057679 0.032274146 0.06551493 0.043886255 0.2529301 0.67531 -0.41255495 0.44168958 0.22513308 0.24244578 -0.3015729 -0.41665047 -0.08842113 0.06261346 0.38282043 -0.46368682 0.62048167 0.024049792 0.07188009 0.6001419 0.35643902 -0.44878224 -0.73648655 0.8051446 0.5697987 -0.8684426 -0.39063224 0.39239872 -0.60691446 0.029514296 0.47883198 0.057904277 0.2749619 0.32464445 -0.15474805 -0.6021546 0.7040469 -0.032500472 0.08290151 0.60517263 0.07292146 0.18625997 -0.5241005 0.5724009 0.41169903 0.0005573132 0.29197806 -0.21382746 -0.425404 -0.15777782 0.10573974 -0.14754549 -0.03432568 0.7985123 0.19565932 -0.49050233 -0.47534946 0.6124279 0.6014647 0.4624434 0.4398688 -0.1096398 -0.5309597 0.45998544 0.88486916 -0.14395104 0.24560164 0.27628425 -0.5432675 -0.08942943 -0.067176916 0.74370897 -0.47155347 0.36299485 0.3142992 -0.3704683 -0.17511928 0.97606856 -0.019838247 0.95061344 
RCTBridgeDelegate -0.3244853 0.27304897 0.74386275 -0.3073855 0.40733612 -0.040301025 0.44226193 0.1387665 -0.027692549 -0.15417807 -0.062025364 0.54514915 -0.25501534 0.23664126 0.33340493 -0.29924348 -0.014853858 -0.23057984 0.13748631 0.15095405 0.20043296 -0.42499146 -0.4089907 0.4669156 -0.39966905 -0.013953579 0.17574775 -0.1138665 0.61212575 -0.4471173 0.13753 0.031999014 -0.5239497 -0.041813936 -0.017637406 0.21307601 -0.049385507 -0.1426429 0.26157165 0.21774973 0.01332977 0.1573743 -0.37402105 0.15574637 -0.2747543 -0.164531 0.0056995144 -0.30902958 -0.4614877 0.242024 0.29674205 -0.626279 -0.17300396 0.54322124 -0.59185755 0.058302473 0.038186673 -0.060073495 0.5440191 0.21169715 -0.21128854 0.023690687 0.038159244 0.009104333 0.33629566 0.1231417 -0.45848954 -0.0010875042 0.48612857 0.21453674 -0.2704468 0.5029583 0.029132007 -0.3413591 0.087527834 0.72939485 -0.7188919 -0.55027246 0.047041614 0.66742206 -0.2952129 0.089398764 -0.31139484 -0.35458627 0.60812354 -0.21891813 0.14344549 0.08201947 0.06763839 0.63875484 -0.84357536 0.4973173 -0.058772594 0.58392847 -0.036211796 -0.19780597 0.45608842 0.5509305 -0.28641227 0.031312183 -0.031853065 0.14655977 0.024285292 -0.22579041 -0.47144026 0.20646931 0.23488396 -0.056553923 0.120774396 -0.3415634 0.003261855 0.22161326 -0.12861896 0.116519004 -0.18217048 -0.13066478 0.100681566 -0.25465867 -0.20414458 0.4448376 -0.07987201 0.021992156 0.18140997 0.113178685 0.043912683 0.30801067 -0.37935713 0.8395927 
UIApplicationDelegate -0.32750356 0.2747201 0.7395133 -0.29564014 0.4067176 -0.02776734 0.43867686 0.13798626 -0.047983017 -0.16317077 -0.049488835 0.5533624 -0.26920065 0.21302503 0.32204986 -0.30359548 -0.03283821 -0.22899725 0.15154423 0.16144554 0.19302566 -0.4194828 -0.42934558 0.4522772 -0.39437437 -0.008443121 0.19595525 -0.123985104 0.6013394 -0.46695316 0.13263635 0.0327586 -0.53071105 -0.042050745 -0.03922377 0.20687526 -0.04113215 -0.12787676 0.2693326 0.22427025 0.0047003855 0.1706719 -0.37762192 0.18738773 -0.28259963 -0.14695454 0.02354529 -0.3203608 -0.46837395 0.23286206 0.3098261 -0.6263371 -0.19092347 0.56852376 -0.5936702 0.06967333 0.062092535 -0.075610965 0.53715503 0.20830803 -0.22882864 0.052047417 0.036550675 -0.012809995 0.33225888 0.12781742 -0.45855698 0.013005005 0.49497086 0.20011757 -0.27661386 0.51264286 0.028347626 -0.338047 0.102159746 0.7531563 -0.7208635 -0.5406504 0.03533673 0.65593755 -0.29257083 0.10116437 -0.31622887 -0.34968692 0.61751187 -0.20085488 0.14538135 0.109343424 0.067645185 0.63616693 -0.8367205 0.51487094 -0.05426322 0.5832789 -0.041430198 -0.21245734 0.45524418 0.5243484 -0.27311167 0.0057524424 -0.022047674 0.14831056 0.02611836 -0.22570276 -0.5023654 0.20944472 0.23605005 -0.07199199 0.100607455 -0.33308065 0.005671757 0.21347164 -0.12388336 0.10602466 -0.18896374 -0.14055358 0.09920547 -0.25669208 -0.21726376 0.45666015 -0.07217742 0.04257402 0.18275905 0.11149472 0.037191276 0.30281013 -0.40335438 0.82271475 
examples/ios/examples/AppDelegate.m 0.2439816 0.14388312 -0.24847235 0.17078629 -0.0058214054 0.060553893 -0.23919742 -0.40845364 0.5556825 0.26756784 -0.39223218 0.3922258 0.44851452 0.27606112 0.035200927 -0.39521736 0.35577786 -0.021398291 0.30443114 -0.4874372 0.47998625 -0.5232595 0.8979282 -0.16855082 0.15254031 -0.40658003 -0.25587106 -0.2863145 -0.01582002 -0.156455 0.21085797 -0.15928139 0.6095939 0.06300072 -0.42119005 0.33097547 -0.09548008 -0.4329254 0.31466886 -0.0076536075 -0.07170924 0.4129491 -0.5123977 -0.7755211 0.5233874 -0.6004038 -0.18297133 -0.06797037 -0.27772507 -0.28059492 0.24110976 -0.11415576 -0.06926143 0.5914385 -0.021003118 0.33512077 0.18146348 -0.31507662 0.10629189 0.060130358 0.31654733 -0.29978684 -0.44574988 0.32431832 0.43082112 0.52743167 -0.26910496 0.25720975 0.03229516 -0.26092768 0.5617704 0.5629025 0.42649528 0.4338738 0.094857186 -0.62186784 -0.5187323 -0.14439823 0.4750423 0.33765966 -0.5948721 -0.6435156 -0.26902607 -0.26713973 0.36071253 0.08769593 -0.03714641 -0.37264377 0.7222828 -0.167714 -0.38387826 0.07624196 0.150972 0.017671205 -0.26970434 0.4379133 -0.21540934 0.81299245 -0.124983534 0.5361512 -0.7259538 -0.18969077 -0.35222003 0.008136575 0.32056388 -0.009909944 -0.66134185 0.247652 0.35921252 -0.19558658 0.39322048 0.48978308 -0.22908673 0.7479899 -0.07732284 0.14316584 -0.055907495 -0.64192677 0.46938083 0.014266246 0.33909345 -0.2468676 0.29840717 -0.2707581 0.016788011 0.4046555 -0.20313968 0.09794024 
RCTBridgeModule 0.3006982 0.5941045 0.16038685 -0.056002647 -0.04894073 0.11877867 0.6384587 0.20374158 0.40103495 0.3164386 -0.23843728 0.7431922 -0.04576183 0.4521356 0.7000719 -0.37647417 1.0562663 -0.2837 -0.5254591 -0.72630835 0.33126312 -0.1357409 0.12041586 -0.26645663 -0.18607423 -0.47910026 -0.40535173 -0.5107825 -0.19391261 -0.24173035 0.1760094 -0.20892335 0.2740763 0.0693416 -0.27617103 -0.4435031 -0.15432173 -0.48761645 0.53229696 -0.2591377 -0.04436332 -0.4321248 -0.21168528 -0.6721589 -0.5926069 -0.25079694 0.21711141 0.0937984 -0.006937305 0.44095373 0.04460233 0.12925087 -0.1636301 0.40996784 -0.16433984 0.4952474 -0.044187892 0.4392129 0.28076282 0.21489257 -0.108246595 -0.5102523 -0.4851013 -0.20531559 -0.054752145 0.1981355 -0.3537086 -0.1626893 0.33835402 0.22269575 -0.11419333 -0.06787101 0.29362804 -0.54157597 0.47800764 0.07096006 -0.9198016 -0.7202793 -0.19015068 0.0919738 -0.40796152 -0.27425122 -0.027542649 -0.21653707 0.60212684 -0.585751 -0.4146345 0.15060885 0.02119615 -0.059693083 -0.082481064 0.18913618 0.19784425 0.3171292 0.092061274 0.18643278 0.07852435 0.47572538 0.0068162656 0.16165543 -0.27096963 -0.04792832 -0.3941262 -0.124502055 0.51218295 -0.25115675 0.65245986 -0.24221358 0.2828718 0.20272887 0.040407192 0.30765143 -0.09313114 0.39556533 0.40924513 0.57551587 -0.1113958 -0.53819436 -0.22812815 -0.4581425 0.15931481 0.03790206 -0.03692093 -0.14703558 0.63900346 0.42713237 -0.004764229 0.4847613 
ReactNativeFingerprintScanner 0.32426685 0.7303632 -0.34712783 -0.02871211 -0.039840847 0.045893375 -0.24614768 -0.30256513 -0.18241894 -0.23445174 0.18062606 0.09121128 0.17733416 -0.3376499 -0.93193686 0.09586333 -0.018518824 -0.46252117 0.43654475 -0.36194482 0.58970934 0.39492193 0.24264714 -0.50657606 0.301507 -0.014534147 -0.35192892 -0.77769023 -0.5870241 0.16323394 -0.3535663 -0.60194397 0.30615819 0.39636484 -1.3476274 -0.46149963 0.62057173 0.14534168 -0.5187451 0.29453677 -0.74654686 -0.76614755 0.130758 0.08120167 0.5726806 0.6833797 -0.07142588 -0.45974618 -0.44079223 -0.72157085 0.013087936 0.33401245 0.31704313 0.9403889 0.35863423 0.96566904 1.2086071 0.069736786 0.03252274 0.10001138 0.031849056 0.8579359 0.28285518 -0.2329005 0.13521662 0.1917406 0.4016147 0.93986636 0.44603443 -0.2586838 -0.87946755 0.6270224 0.24083436 0.3197714 0.2524298 0.43658078 -0.16324411 0.058594227 0.7992076 -0.33897558 0.10554008 0.32517347 -0.69611543 -0.40319875 0.4316521 0.42607686 -0.3318765 0.2773654 0.013216452 -0.23312783 0.35460138 0.23350815 0.81911546 0.019633248 -0.17864312 0.094683394 -0.86629033 -0.549432 0.093774386 -0.55531645 -0.39313275 0.40067628 -0.21128722 -0.5457681 -0.74876255 0.7122522 0.16005372 0.6305367 -0.22628859 0.027349692 0.1526092 0.7505306 0.95508254 -0.028133092 -0.086260095 0.70248723 -0.27922156 -0.50053126 0.2566756 1.0485438 0.058610335 0.1153617 0.47567064 -0.9269383 0.028489344 0.29124787 -0.44269222 0.080108546 
NSObject 0.30636275 0.58458775 0.16949864 -0.051841237 -0.058357462 0.11893319 0.65005696 0.2117392 0.40830812 0.32328078 -0.23185927 0.74271053 -0.040975463 0.4643389 0.7182619 -0.37311554 1.0728732 -0.2793003 -0.54372185 -0.7394256 0.32538956 -0.13324182 0.11869407 -0.27863112 -0.19437489 -0.4740464 -0.41579747 -0.518565 -0.20109436 -0.23330715 0.17791708 -0.19282986 0.28541327 0.069254845 -0.27979594 -0.45907813 -0.16017285 -0.48215866 0.5350709 -0.26889956 -0.035186008 -0.4452065 -0.2104019 -0.68266094 -0.5960778 -0.2498933 0.2257141 0.086992905 0.0012764204 0.43777958 0.047638737 0.13332409 -0.15805997 0.41523364 -0.16194128 0.49811953 -0.04276114 0.44815534 0.28958094 0.2185066 -0.10356263 -0.51704025 -0.4974346 -0.20216848 -0.06796226 0.18521003 -0.36363024 -0.16979249 0.33531758 0.22894433 -0.11881657 -0.082873076 0.29186162 -0.54692626 0.47957668 0.07460702 -0.93740606 -0.72358334 -0.19758512 0.10378367 -0.41450435 -0.27480158 -0.039091974 -0.21695064 0.59742504 -0.5862739 -0.4339574 0.16313873 0.0137320375 -0.06454231 -0.0764287 0.18872626 0.1999781 0.32376617 0.09004069 0.19163418 0.07598638 0.4698148 0.009613208 0.15735947 -0.2698648 -0.049606487 -0.38700154 -0.12395036 0.52237976 -0.25824746 0.650099 -0.25532502 0.29789317 0.20538707 0.0485997 0.30045304 -0.094400465 0.39554495 0.41454637 0.59747005 -0.112989426 -0.5401826 -0.2268971 -0.46157086 0.15160736 0.037721906 -0.044079557 -0.15310289 0.64814055 0.4249913 0.0011825833 0.48700687 
ios/ReactNativeFingerprintScanner.h 0.56422824 -0.32987997 -0.06813487 -0.09193871 -0.2231134 -0.027264608 0.2734098 0.1494062 0.31501642 0.25783545 0.29702848 0.5378126 0.05497892 0.17568874 0.45047194 -0.16520205 0.5659833 0.55885094 -0.6707286 -0.4605336 -0.15707982 -0.5859178 0.15083975 -0.7990461 -0.029154582 0.19855306 -0.2613507 -0.32343563 -0.08285372 -0.05863923 0.023641061 0.34455848 0.13664606 0.30166996 -0.5175544 -0.33123562 0.15001096 0.4145435 0.04878698 -0.03241801 -0.03409384 -0.11480486 0.100872666 -0.2882484 -0.20746303 0.08448254 0.48686355 -0.6531289 -0.069165714 -0.38227367 0.19049612 0.17943586 0.041779984 0.9825534 0.41594857 0.5258598 0.7310842 -0.21769725 0.32834068 -0.0048817615 -0.15199286 0.15725741 -0.5818105 0.45434037 0.14328822 -0.23057051 -0.11473518 0.49654526 0.010959362 0.15409584 -0.2217512 -0.015725685 0.22273497 0.66669816 0.13284819 0.19095966 -0.6279597 -0.011716219 0.17401306 0.275935 -0.80945665 -0.22540128 -0.6722407 0.32502615 0.28122607 0.24178983 -0.33713114 0.19794917 0.27417266 0.14464772 -0.29114333 0.30273917 0.010915079 0.17056227 -0.34058422 0.2375075 -0.17864001 0.19357032 -0.095282845 0.11163074 -0.08832201 -0.13460529 0.30083492 0.027114905 0.17781936 -0.048549756 -0.2713969 -0.31231195 0.12550679 0.030840809 0.077843904 -0.09686566 0.12044432 0.5339929 -0.19288573 0.49870718 -0.16696884 0.11916327 0.24343374 0.36985764 -0.2553656 0.50482583 -0.4785283 -0.33277258 0.08883452 -0.40534627 -0.63115054 -0.009593349 
ios/ReactNativeFingerprintScanner.m 0.46506247 -0.17090733 -0.23821706 0.09463423 -0.22965722 -0.0011399114 0.16020004 0.09913878 0.16074736 0.14784664 0.3202315 0.33801174 0.2554804 0.023738565 0.061153974 -0.07380399 0.47703412 0.56370723 -0.489506 -0.45514858 -0.1710221 -0.41585627 0.21847206 -0.86654633 0.1284203 0.06478402 -0.4400472 -0.37363377 -0.16869117 0.14408417 -0.11219859 0.20081286 0.30488175 0.3244516 -0.7883005 -0.46976858 0.36726475 0.35428262 -0.018217223 0.31652415 -0.40438876 -0.024524212 -0.09881893 -0.024999848 -0.003607114 0.020841198 0.48088858 -0.6919554 -0.08351001 -0.56272787 0.23389806 0.39061555 0.07633574 1.0419952 0.52722913 0.6631943 1.0058912 -0.26220992 0.06751506 -0.040136047 -0.13542943 0.59478337 -0.4148386 0.24810112 0.29963788 -0.13643888 0.052027825 0.60782504 -0.054200858 0.004692872 -0.1389169 0.04046398 0.19235979 0.93207836 0.19171384 0.032375608 -0.5932469 0.14535859 0.4470965 0.17427915 -0.7037069 -0.35404593 -0.7602549 0.27474207 0.32347822 0.62269306 -0.32196727 0.18832771 0.33773726 -0.28226736 -0.33949158 0.0030784388 0.14665046 -0.023597108 -0.5113537 0.1844998 -0.4620133 0.07871027 0.16737491 -0.067907535 -0.120487295 -0.32720402 0.4335309 0.0010115128 -0.1251651 -0.01616822 -0.3104675 0.04243383 0.09501994 0.14041176 0.2587973 -0.18126394 0.26077953 0.5173945 -0.073206306 0.62330943 -0.13072291 0.11678186 0.11487049 0.66999376 0.047199063 0.3993591 -0.42830074 -0.53378487 -0.035738792 -0.5123281 -0.76585966 -0.29414693 
ReactNativeFingerprintScanner.h 0.7576811 -0.16764885 -0.1831129 -0.11359947 -0.14211962 0.06537285 0.34672433 0.1248707 0.29855993 0.23352906 0.32152972 0.8398746 -0.33453006 0.10121869 0.5024145 -0.42642564 0.65103 0.4754031 -0.64534146 -0.59568316 -0.08582342 -0.65742487 0.18580316 -0.7668133 -0.27728134 0.2174436 -0.2015376 -0.4888737 -0.37966198 -0.25778338 0.2830538 0.05477478 -0.07629677 0.25489196 -0.577443 -0.3612952 -0.022020787 0.6446464 0.014938948 -0.27892438 -0.10391479 -0.43409064 0.2158696 -0.55901814 -0.29156393 0.41501114 0.5067828 -0.585221 -0.10858918 -0.31723243 -0.05358569 0.22839531 -0.16444458 0.90564215 0.41775775 0.6984931 0.97170764 -0.03195788 0.43087333 -0.044604935 -0.09959868 0.029204724 -0.52821875 0.6957211 0.07257742 -0.05506766 -0.09103776 0.6702007 0.13008976 0.0927733 -0.49597245 0.0774916 0.4442103 0.6191216 -0.044419844 0.28806987 -0.55435264 0.03305574 0.2394539 -0.2278545 -0.9395904 -0.02419878 -0.6572613 0.5816675 0.31555554 0.2828601 -0.2782189 0.3254231 0.15928836 0.2447393 -0.029329399 0.56139433 -0.057907205 0.32270864 -0.07408944 0.14676246 -0.23014803 0.15384145 -0.31558216 0.3232892 -0.1334402 0.32227212 0.09003685 -0.013514262 0.51496077 0.09343404 -0.23946606 -0.3683244 0.2904187 -0.08064086 -0.2244228 -0.014395011 0.34035093 0.55153984 -0.20016995 0.31096038 -0.17212719 0.14909844 0.11773288 0.3746766 -0.46094683 0.6907019 -0.5597415 -0.42481312 0.24081004 -0.31184185 -0.594651 -0.005659679 
RCTBridgeModule.h 0.57914984 0.027944744 0.048122182 0.014517846 0.21995293 0.2415953 0.47640663 0.19587423 -0.003909682 0.3951501 0.037328523 0.3855989 0.2185359 0.1295641 0.29904377 -0.07146651 0.32266787 0.22779855 -0.4711461 -0.3556077 -0.19914562 -0.38602233 -0.07876823 -0.99103564 0.20872921 -0.06642804 -0.252695 -0.56074023 -0.2711301 -0.20280775 -0.346327 0.28225538 0.20090765 0.393767 -0.7488576 -0.07787884 0.56415373 0.028636515 -0.12115363 0.35260183 -0.050248623 -0.08237111 0.37477306 0.34179038 -0.40873507 -0.005498172 0.5163041 -0.4689083 -0.14641556 -0.32872418 0.5121768 0.35900515 0.36210027 1.1800625 0.5471674 0.7092692 0.90049905 -0.4728167 -0.047597 -0.060828466 -0.40516362 0.2962961 -0.41420707 -0.24693963 0.30267 -0.34869358 -0.056980867 0.63959575 0.40713665 0.11064853 -0.18274601 -0.07517368 0.02815394 -0.013277359 0.43638378 0.3333206 -0.6731206 0.010530532 0.075688094 0.16551146 -0.52304566 -0.089694746 -0.5923361 -0.066176735 0.6786369 -0.07742601 -0.43352482 0.37027556 0.17311874 0.16790952 -0.3613643 0.515173 0.3428606 -0.09393579 -0.27157694 0.33929566 -0.026044292 -0.02490735 0.15342079 -0.43358308 0.073277205 -0.30933097 0.29389316 -0.110220775 -0.08823483 0.019320857 0.1896213 -0.23169777 -0.16496824 0.29865155 0.3576391 0.4654087 0.44711676 0.20478289 0.01973114 0.5018526 -0.35454464 -0.08392634 0.08728892 0.32557574 -0.0431496 0.47740674 -0.46608993 -0.4424894 -0.059608642 -0.38367432 -0.5661247 0.082025304 
LocalAuthentication/LocalAuthentication.h 0.553906 0.020592475 0.035413735 0.0027826207 0.2086096 0.23302802 0.45479375 0.18512325 0.0049419347 0.3693741 0.031511057 0.37434173 0.20009603 0.11868436 0.30290082 -0.0729009 0.31371203 0.21692595 -0.4466874 -0.3316151 -0.19007678 -0.36916324 -0.077339135 -0.936293 0.19682088 -0.055253956 -0.23777589 -0.533637 -0.25456172 -0.20356105 -0.32723457 0.26328442 0.19072264 0.37924534 -0.7087087 -0.06323091 0.52021277 0.030876912 -0.1159406 0.32581627 -0.027777405 -0.07290658 0.35911736 0.31214666 -0.39179265 -0.002891388 0.4929755 -0.43243435 -0.1420449 -0.30792353 0.47652248 0.34161758 0.33890808 1.1160804 0.52342933 0.674117 0.8535359 -0.44294336 -0.039377 -0.059498955 -0.39240146 0.26641923 -0.39179805 -0.22534302 0.28150582 -0.32007694 -0.053936545 0.6074258 0.3869621 0.102281936 -0.16672403 -0.0752426 0.03155225 -0.011226593 0.40240794 0.31960618 -0.6353048 0.012224952 0.0831935 0.15743577 -0.5029524 -0.08621779 -0.55390126 -0.051003512 0.6419807 -0.07898153 -0.4089838 0.34580147 0.15537573 0.16494407 -0.34918967 0.49810776 0.315614 -0.090778336 -0.2525151 0.32389522 -0.022057477 -0.014968507 0.14210436 -0.40633962 0.067481056 -0.29215395 0.26578277 -0.10572519 -0.07302099 0.01585425 0.18174814 -0.23177224 -0.15113279 0.27166337 0.329896 0.43759263 0.42072916 0.19866797 0.017212622 0.4662643 -0.3326696 -0.07944931 0.077388726 0.30350053 -0.050833154 0.46388012 -0.4516973 -0.42259407 -0.050338224 -0.36318582 -0.53805864 0.08601894 
React/RCTBridgeModule.h 0.6035517 0.040396847 0.0667599 0.009555004 0.26087478 0.2405846 0.51279247 0.2160823 -0.01920895 0.41255355 0.0417959 0.4179735 0.20049573 0.1538967 0.32594603 -0.075506456 0.3253876 0.21321696 -0.48738557 -0.3709748 -0.20336841 -0.39694104 -0.09657378 -1.0117756 0.20275435 -0.06284726 -0.25368485 -0.59081763 -0.3153833 -0.2380209 -0.35716844 0.2895274 0.19102992 0.40634504 -0.7572366 -0.068734676 0.57985806 0.024596998 -0.13536365 0.34277004 -0.03621981 -0.11437263 0.40664002 0.35383078 -0.42443913 0.024336021 0.538979 -0.47629288 -0.15640351 -0.31733197 0.52477366 0.36089855 0.372501 1.2212075 0.548763 0.7341279 0.9166005 -0.47631449 -0.038477674 -0.07600222 -0.40250158 0.2812587 -0.41536665 -0.25858438 0.2989762 -0.38166928 -0.07265675 0.6608896 0.45069966 0.12708831 -0.22126062 -0.07169044 0.01905015 -0.07428531 0.4429658 0.35178652 -0.7109677 -0.0026025665 0.049315024 0.15005554 -0.5403808 -0.0649104 -0.61398363 -0.07738135 0.7178786 -0.11190231 -0.44383872 0.4118287 0.17643087 0.20503072 -0.36591634 0.5582315 0.36168495 -0.06922388 -0.27078673 0.3435741 -0.008415745 -0.03895292 0.15872344 -0.46226716 0.083213 -0.2756626 0.2901868 -0.119743355 -0.07404328 0.023212446 0.21744575 -0.26268882 -0.16518515 0.30377924 0.35011542 0.5146512 0.48339984 0.1870008 0.036248315 0.51050216 -0.37732467 -0.10162458 0.09200125 0.32346 -0.070649214 0.51605254 -0.47619268 -0.45936128 -0.04655855 -0.36147788 -0.56899595 0.12390824 
RCTUtils.h 0.6677648 0.13820247 0.054734778 -0.08715596 0.39330313 0.256292 0.61242837 0.25293535 -0.041056108 0.31538084 0.108275026 0.6888493 -0.2546165 0.1578376 0.4552616 -0.28192663 0.33174103 0.07976313 -0.4342764 -0.42877394 -0.1556438 -0.44883877 -0.12355293 -0.75491756 -0.14538689 0.03618008 -0.08633776 -0.6674066 -0.52257085 -0.45882645 -0.03646102 0.07408334 -0.13246374 0.29260033 -0.5547915 -0.00905906 0.26567158 0.25307146 -0.11795119 -0.036307983 0.046543572 -0.45047092 0.5159021 0.020734748 -0.46761176 0.45536852 0.46451423 -0.29653984 -0.1817006 -0.10292667 0.170891 0.28431654 0.119419046 0.95918375 0.37137955 0.71097374 0.8910499 -0.16945806 0.16875945 -0.13567631 -0.27020165 0.0065159723 -0.31316078 0.06355867 0.121950075 -0.26886487 -0.10285307 0.67366594 0.5631566 0.122160956 -0.54814446 0.05250837 0.16445126 -0.29943654 0.16795374 0.4499495 -0.5953987 -0.022063987 -0.005803954 -0.28385863 -0.5870861 0.20964462 -0.52920526 0.15273984 0.66799694 -0.16428737 -0.2739678 0.51103497 -0.0013245987 0.43718195 -0.109830804 0.8023612 0.23546933 0.17456067 0.046197228 0.20407987 0.08493629 -0.050557263 -0.12873447 -0.23940107 0.055558775 0.32640114 0.032781966 -0.14321548 0.31809288 0.1731458 0.26916933 -0.41534755 0.057293735 0.044962276 -0.027261956 0.558145 0.61311924 0.13092263 0.04826543 0.19568062 -0.36921725 -0.06610117 -0.0011461311 0.24604474 -0.38011715 0.7007827 -0.48609093 -0.44878536 0.17168544 -0.16325514 -0.40860432 0.25063923 
LifecycleEventListener 0.15521763 0.48152456 0.15017927 -0.38828427 0.48327598 0.19788353 0.6198824 -0.33412015 -0.055991746 0.10208602 -0.32908818 0.9273288 -0.5287787 -0.0486272 0.42708007 -0.4316787 0.9431974 -0.29829323 -0.38873506 -0.23123544 0.37175515 -0.6124772 0.0597796 -0.3589707 -0.18369618 -0.32153255 -0.08710953 -0.3478642 0.0495391 -0.7283109 0.17164513 -0.77970386 -0.42440698 -0.0013629779 -0.2808724 0.012192529 0.22966546 -0.05709313 0.36004865 0.3332302 -0.114937365 -0.16204225 0.30680132 0.1354076 -0.8633406 0.08494686 0.6723191 0.19663164 -0.09007865 0.16487642 0.30461553 0.03441805 -0.14238836 0.35134867 0.67126477 0.6834144 0.37571338 0.20125137 0.30793655 0.14580101 -0.825927 -0.28061375 0.040940527 0.17211945 0.53409916 0.28481838 -0.1735992 0.4140463 0.64903617 0.3614955 -0.003599202 0.06678239 0.5849554 -0.014845973 0.20582436 0.6060829 -0.45302564 -0.33792534 -0.06325701 -0.26842678 -0.13864194 -0.3234189 -0.11180041 0.087563895 0.38865092 -0.64047116 -0.1773884 -0.07430623 0.13005665 0.41724965 -0.5609824 0.8389139 -0.41188267 0.4494729 0.6268371 -0.05009836 -0.22244102 0.72910917 -0.19293939 0.27019235 0.34825265 0.13065949 -0.14562689 -0.13167569 0.26252574 0.19917673 0.55251354 -0.049202073 -0.116334535 0.1118583 -0.10494908 0.7073152 0.41523507 0.28487825 -0.12858 -0.18155478 -0.12142635 -0.093949586 -0.3191769 -0.108313255 0.078415 0.21126163 -0.39566863 0.23949552 0.2530874 -0.20171236 0.06290147 0.14932802 
com.hieuvp.fingerprint.ReactNativeFingerprintScannerModule 0.1095385 0.39451623 0.3475668 -0.4126217 0.5897204 0.3719724 0.59600395 -0.16866872 -0.44508344 -0.3936606 -0.11236395 0.67548704 -0.3344006 -0.4727475 0.061372988 -0.22023414 0.37236074 -0.015078706 -0.03509469 -0.25942203 -0.021798704 -0.6689705 -0.017736232 -0.4073001 -0.4573792 -0.0595418 0.32217413 -0.086105146 0.36059293 -0.4405671 0.14760357 -0.7316573 -0.7413241 -0.3537033 -0.6438527 -0.16447636 0.63615066 0.11412311 0.12004867 0.73190933 -0.75102234 -0.5886747 0.005215108 0.61553204 -0.9169089 -0.15217887 0.58999974 -0.32412326 -0.34213287 0.15838431 0.190145 -0.014298394 -0.11552997 0.42208034 0.6177616 0.7893642 0.8201411 0.028753866 0.005620997 0.14704044 -0.8363238 0.447805 0.024666471 0.14833008 0.6522885 0.31564224 -0.24128394 0.03493862 0.7441147 0.49672225 -0.24170709 0.048756387 0.83678716 0.48771316 0.4326132 0.9099082 -0.38243935 -0.2215501 0.07420662 -0.4479039 0.10225336 -0.031878315 -0.35401562 -0.2352883 0.3805484 -0.39923036 0.2191148 0.18582638 -0.16841452 0.19277647 -0.7703618 0.7515594 0.048550926 0.26238912 0.42452958 -0.51536596 -0.13208227 0.5298974 0.03220883 -0.02532574 0.19733986 -0.005368404 0.34970933 -0.48897204 -0.35175627 0.5373096 0.26756775 0.32496867 -0.21653375 0.21454859 0.026071185 0.25709662 0.6875246 0.0071564326 -0.30472738 -0.14105412 0.008956242 0.071309246 -0.7202636 0.48717427 0.34640872 0.009736597 -0.61102325 -0.05813178 -0.11665042 -0.32117882 -0.41561264 0.18574117 
ReactContextBaseJavaModule 0.14393425 0.47081318 0.15351255 -0.3871763 0.48109087 0.19431046 0.6170301 -0.34513792 -0.06359291 0.085681796 -0.3268353 0.9281882 -0.5148216 -0.056820445 0.42860854 -0.42406866 0.92815524 -0.2918233 -0.38433287 -0.23851271 0.36175212 -0.6214485 0.070159875 -0.34721377 -0.19226645 -0.3121579 -0.077167615 -0.33813158 0.061577242 -0.7269076 0.17772277 -0.7766499 -0.43658295 -0.021370044 -0.2915678 0.019345004 0.22678342 -0.05805949 0.35673797 0.32912278 -0.12080899 -0.18232079 0.28486347 0.13067032 -0.8560181 0.07494374 0.6755456 0.17260689 -0.10022167 0.16748957 0.3015691 0.024523266 -0.13245769 0.34616423 0.6581107 0.68083245 0.38204658 0.20816274 0.3085928 0.155444 -0.81507283 -0.26468512 0.04688156 0.18291461 0.5292085 0.28000575 -0.18422006 0.39056137 0.6437018 0.36335918 -0.0013857684 0.0738932 0.5904865 0.0050740335 0.19327073 0.6002134 -0.45324036 -0.3383758 -0.05571057 -0.26823592 -0.14156163 -0.32083046 -0.118451454 0.074231535 0.37489137 -0.63566005 -0.15903717 -0.07071828 0.13443075 0.41309395 -0.56345224 0.83052886 -0.40307602 0.4590542 0.6280358 -0.06264594 -0.2118272 0.7328034 -0.19060655 0.28229734 0.33451417 0.13661669 -0.13371186 -0.13899049 0.25428194 0.21075144 0.5291909 -0.04025753 -0.09932025 0.11176826 -0.110293634 0.6789834 0.42118478 0.28563735 -0.1513355 -0.18415667 -0.10462875 -0.09558748 -0.31698003 -0.09675979 0.08780582 0.1974406 -0.39530703 0.2421006 0.2460356 -0.19068782 0.058584947 0.16536555 
React/RCTBridge.h -0.31529745 -0.13056964 0.28824595 -0.36524528 0.1366686 -0.33745125 0.062999435 -0.47193834 0.22859289 0.16129054 -0.09671136 0.35396862 -0.15592235 0.63502276 0.04655983 -0.15838604 0.47917697 0.07087336 0.28353652 -0.10929404 0.76186174 -0.23363796 0.19795746 0.3106831 -0.2002502 -0.15886328 -0.20024051 -0.24016477 0.20829281 -0.32676396 0.4210845 -0.2570952 -0.19431251 -0.16094972 -0.16826844 -0.063982345 0.10748111 -0.39775452 0.07833221 0.062752634 -0.16032295 -0.22115597 -0.34692222 -0.53080714 0.04508529 -0.66934466 0.5607527 -0.43412536 -0.20674707 -0.051832594 0.17806245 -0.5448059 0.35686117 0.016401563 -0.24701649 -0.16598994 -0.14362265 -0.052106656 0.3060268 0.17639036 0.15996704 -0.65247196 -0.04666908 0.27337453 0.10562273 -0.11199632 -0.41003913 -0.13504122 -0.10277594 0.5607517 -0.13044767 0.33448827 0.060197126 0.28530318 0.15152225 -0.06619572 -0.6853045 -0.37042844 -0.04219091 0.51488227 -0.35890582 -0.1793481 -0.59894836 -0.5548506 -0.039626904 -0.23610693 -0.03715889 0.038635068 0.37551022 0.5701434 -0.5677457 0.118890375 -0.1060739 0.45336777 -0.11210025 0.14833708 -0.25379547 0.7364687 -0.16212808 0.37384158 -0.3779156 -0.00016483344 0.1080223 -0.16353354 0.09629718 0.046516813 0.020415131 0.07255202 0.17294079 -0.053164594 -0.10525672 0.4277688 0.21685347 0.571706 -0.19401197 0.34089753 0.29102796 -0.3034449 0.43081957 -0.17715794 -0.28604716 -0.20945555 0.1774286 0.16245943 -0.018175589 0.3460563 0.09389079 0.6772995 
React/RCTBundleURLProvider.h -0.33229077 -0.13806963 0.2957174 -0.38369578 0.1491315 -0.35884914 0.06662557 -0.50630516 0.24130842 0.18460771 -0.10259498 0.3754058 -0.17404887 0.6726493 0.046558104 -0.17699419 0.5169365 0.08183132 0.3070312 -0.10422707 0.81749177 -0.2526264 0.205838 0.33319065 -0.21041729 -0.17535692 -0.21645735 -0.26155138 0.20836648 -0.34320563 0.43920818 -0.281855 -0.20097417 -0.16845563 -0.1799258 -0.06957312 0.122933626 -0.41251513 0.074247226 0.0605959 -0.16566564 -0.24074943 -0.36124852 -0.5635315 0.04326508 -0.7073555 0.606957 -0.4577121 -0.21273221 -0.060414325 0.18682277 -0.5843744 0.3927238 0.009449245 -0.2590331 -0.17889489 -0.14272319 -0.055403113 0.3255734 0.19130675 0.15135284 -0.70704246 -0.059111778 0.2758182 0.11861764 -0.108735 -0.42964467 -0.13972428 -0.106767826 0.6028452 -0.14042056 0.35140327 0.06679615 0.30584484 0.16148761 -0.0653227 -0.7217359 -0.3794902 -0.03972268 0.5387782 -0.37926966 -0.18651882 -0.6438587 -0.5818413 -0.04087392 -0.25033766 -0.050934475 0.049846485 0.38356593 0.6148521 -0.59567535 0.13133943 -0.12114793 0.47683704 -0.10796757 0.17243224 -0.28701845 0.7776587 -0.18520184 0.40245235 -0.40504816 -0.0064731385 0.118828945 -0.17406037 0.11905432 0.051936414 0.036545232 0.07607263 0.18463762 -0.058233757 -0.10804545 0.46129414 0.24221915 0.6140838 -0.2013961 0.36514127 0.31087425 -0.31412724 0.45537645 -0.20224497 -0.31243467 -0.21892011 0.18033876 0.1700322 -0.014407667 0.34985074 0.1027575 0.7119613 
React/RCTRootView.h -0.43601114 0.12940781 0.09311989 -0.19835745 0.30498818 -0.35894716 0.10258871 -0.419952 0.018456422 0.09334136 -0.23674119 0.13875033 -0.23101215 0.60656637 -0.42161733 -0.097804576 0.38900033 0.026262404 0.48834845 0.15437467 0.76525396 0.06789727 0.022517154 0.5060277 -0.14745454 -0.24434018 -0.27399215 -0.42054945 -0.099145405 -0.19741996 0.24966778 -0.6063843 -0.15231419 -0.13634709 -0.345443 -0.2632651 0.21838772 -0.32142314 -0.14067873 0.13791467 -0.4137582 -0.37866706 -0.25042444 -0.44668472 0.1715612 -0.51272047 0.5579901 -0.43850082 -0.16976061 -0.1300919 0.17203844 -0.47727883 0.57293934 -0.18777493 -0.48640803 -0.117705494 0.025377877 -0.18212625 0.08549563 0.3663077 0.20483686 -0.4049329 0.18459524 -0.06364894 0.19411765 -0.031520095 -0.22625002 0.061328836 -0.12595738 0.46643198 -0.52822775 0.43940288 -0.066586256 0.30813745 0.19186693 0.016006783 -0.45771587 -0.2051416 0.20404491 0.24188675 -0.15517718 0.039177038 -0.79003805 -0.6781481 0.1409698 0.06275664 0.003726595 0.17711875 0.13083693 0.50309855 -0.20076424 -0.014963125 -0.023574878 0.34797037 -0.09860674 -0.045634534 -0.5071723 0.36790326 -0.30834818 0.25769106 -0.61482316 0.069666676 0.099129096 -0.31897375 0.045381274 0.027266467 0.15678838 0.35069838 0.08185117 0.06995766 -0.073803194 0.52016366 0.64471155 0.30205363 -0.07250466 0.2914511 0.35614148 -0.23205812 0.21883424 -0.01192297 -0.45731437 -0.21460572 0.4740603 -0.06574475 -0.10593751 0.34048906 -0.016340407 0.40140775 
ReactApplication 0.16529039 0.042281587 0.12678178 -0.23584104 0.50749826 -0.004102777 -0.013918459 -0.44286844 0.35233402 0.16140026 -0.14444245 0.9424943 0.07558072 0.5294344 0.8533076 -0.021664215 0.24131107 0.116181575 -0.27966493 -0.6788353 0.30167407 -0.49707362 0.49367973 -0.7408161 0.2293892 -0.10635675 0.14117277 -0.3497116 -0.14590096 -1.0311347 0.3458332 -0.06512752 -0.19441661 -0.14391065 -0.02708548 0.5138887 0.3043363 -0.7118865 0.25725916 0.13077362 0.17646359 0.31052762 0.04784205 -0.49908012 0.104833715 -0.3535338 0.194808 0.05733019 -0.37675992 0.3471411 0.27187678 0.23846659 -0.27179605 0.47895575 -0.12673831 0.14483751 0.1048743 0.014960219 0.38384303 -0.35723108 0.058137964 -0.59178406 -0.10398809 0.2713405 0.30357504 0.0483304 -0.24826832 0.2895848 0.38900465 0.051098704 0.23336014 0.3072099 0.13820119 -0.30351275 0.2176984 0.031671993 -0.25663996 -0.2663005 0.16188504 -0.07355342 -0.8016765 -0.37615126 -0.044465043 -0.031044405 0.6822878 -0.7977785 0.09699501 0.16191766 0.49361214 0.7626069 -0.3756729 0.6976792 -0.3561183 0.14611624 0.18081796 0.2235654 0.1611585 0.843563 0.10424695 0.08701784 -0.34288803 0.37673733 -0.37206733 -0.1270573 0.39001682 -0.17759283 -0.22900146 -0.24173068 -0.30515978 0.098838225 -0.16663991 0.45158923 0.13048436 0.62226945 -0.14913091 -0.33471105 -0.25417748 -0.32896295 0.6535291 -0.62629884 0.15646839 0.27795056 0.06557819 0.01834411 0.3554234 0.5459526 0.09856477 0.564194 
com.examples.MainApplication -0.49006 0.31620777 0.58078516 0.051765613 0.26732558 -0.5233218 0.07457077 -0.1832973 -0.3138172 -0.2001109 0.4303278 0.36233672 -0.499322 0.5474551 -0.27324623 0.4670612 0.26631448 -0.5779557 0.107928716 -0.36603525 0.3031038 0.46956208 -0.34089342 -0.37273574 0.0366123 -0.099627025 0.119017065 -0.34550104 -0.311043 -0.77800494 0.11784917 -0.17182815 -0.4027854 -0.07201078 -0.08928844 -0.60073954 0.38371557 -0.8634868 0.4394089 0.6064265 -0.98583263 -0.40978688 -0.3390853 0.5057996 0.012621585 -0.008050005 0.8905797 -0.5385444 0.24062331 0.18705995 0.3440644 0.27190813 -0.20065394 0.6757573 -0.06026669 0.08519259 0.21633576 0.061028197 -0.22485742 -0.061066747 0.66310084 0.19370067 0.5437305 -0.10881543 -0.23053634 -0.7848867 -0.32343775 0.32957402 0.324741 0.8547079 -0.666439 -0.038931888 -0.5609945 -0.46415743 0.22836742 0.01016855 -0.9841428 -0.66381705 -0.81143385 -0.2686096 -0.35502002 -0.13097267 -0.5693209 -0.5134665 0.2185393 -0.17924578 0.18473867 0.7750171 0.57137597 0.10805613 -0.56117576 -0.25613868 0.42345962 0.7492247 -0.7068972 -0.30481666 0.13652436 -0.41985145 0.9593958 -0.7879295 0.40911606 0.40807903 0.21706042 -0.14327589 -0.8410407 0.11700621 0.5504653 -0.14834715 -0.2763711 0.36312667 -0.014121158 0.7956346 0.8578083 -0.096498474 0.2835076 0.5212503 0.030773804 -0.36118788 0.102332935 -0.023536991 0.31466225 0.3974619 -0.042227816 -0.12624532 0.15722086 0.664545 0.20114638 0.80966854 
Application 0.16655551 0.05214146 0.13377504 -0.23375398 0.521068 0.0018347222 -0.012769683 -0.4309171 0.3476021 0.16422665 -0.13670297 0.95055634 0.06885656 0.527177 0.85291845 -0.025039895 0.22718708 0.111823395 -0.27667192 -0.6724856 0.29777274 -0.5015123 0.48388264 -0.74835896 0.22442679 -0.109919816 0.14715116 -0.36079448 -0.1408544 -1.0398179 0.3402936 -0.06835416 -0.20389682 -0.1353958 -0.024150617 0.51823825 0.31419414 -0.71489954 0.24934036 0.13758002 0.17871478 0.3161148 0.052407883 -0.4858174 0.10139527 -0.34695464 0.18714556 0.057404853 -0.3789386 0.35588682 0.27652395 0.24366078 -0.27544916 0.4954415 -0.13276802 0.1518892 0.109905384 0.011021067 0.3762831 -0.36619833 0.049546883 -0.5798274 -0.095886044 0.2668566 0.3093416 0.05402619 -0.24719311 0.30713716 0.3978784 0.049002975 0.22463718 0.3136228 0.13418968 -0.30965889 0.21670447 0.042873465 -0.24983971 -0.26437315 0.16986547 -0.08562077 -0.8008457 -0.3716084 -0.039510798 -0.025092848 0.7019225 -0.79677767 0.10566459 0.1676232 0.48842844 0.77319396 -0.3749422 0.70825833 -0.35095593 0.14009 0.17645022 0.21450648 0.15966345 0.83874255 0.101497 0.07837261 -0.3426116 0.3802881 -0.3737515 -0.14064354 0.38009405 -0.17251624 -0.21854366 -0.23909186 -0.3143999 0.098344214 -0.16974765 0.45433444 0.1423976 0.62215954 -0.14489959 -0.34886482 -0.26069656 -0.3195604 0.64812183 -0.61759067 0.15940511 0.28920677 0.062035665 0.012887735 0.3574907 0.5433368 0.08570827 0.5712801 
XCTest/XCTest.h -0.39354396 0.32451573 0.15011442 -0.039246175 0.40503624 -0.19297777 0.068629846 -0.16973792 -0.27294183 -0.19636272 -0.23879318 0.033755917 -0.115713 0.32492685 -0.68352413 0.052163605 0.04994615 -0.21530586 0.571193 0.054459874 0.5939941 0.26551893 0.061782893 0.4344185 -0.117332555 -0.19007355 -0.24644332 -0.3925497 -0.12917599 -0.046034146 0.21258266 -0.5926302 -0.14358278 -0.07552135 -0.46415204 -0.31210348 0.18202995 -0.24163985 -0.04304872 0.41965446 -0.8224314 -0.34489045 -0.3510098 -0.15044749 0.3405032 -0.3405895 0.22429523 -0.3330538 -0.17347918 -0.11295122 0.19577248 -0.113248 0.30260992 -0.060230866 -0.34257263 0.05630223 0.24919681 -0.16061658 -0.012640877 0.28053036 0.31266356 0.14129403 0.42598835 -0.0018935874 0.26894835 -0.025649568 -0.10038374 0.12266338 -0.032287575 0.22225112 -0.5477753 0.46039304 -0.06946689 0.22007653 0.046387326 0.009540969 -0.45515975 -0.20392376 0.3029726 -0.008842901 0.004342136 -0.026948463 -0.69898605 -0.64832187 0.13990973 0.2510415 0.13937429 0.18699533 0.12949494 0.11013442 -0.16972291 -0.06716531 0.19478257 0.25195518 -0.26033804 -0.29360673 -0.36896068 0.16614524 -0.08399064 -0.07695222 -0.5121803 0.1874026 0.045998223 -0.22617298 -0.24290425 0.09612669 -0.06042604 0.57760376 0.08673885 0.1162451 0.0696075 0.51987153 0.7695122 -0.051161055 0.066480376 0.19739664 0.21927057 -0.22083037 -0.045634974 0.45330402 -0.10984542 -0.33114234 0.5347633 -0.17950763 -0.1937179 0.36408502 -0.13383785 0.26936293 
React/RCTLog.h -0.3798589 0.31089556 0.14502306 -0.05015148 0.39416578 -0.1833684 0.0725559 -0.17030005 -0.25773764 -0.19081447 -0.23400699 0.040843237 -0.11445553 0.32179445 -0.65736693 0.05228473 0.05413234 -0.19896217 0.5469757 0.051647626 0.5773008 0.25216177 0.061879624 0.41840717 -0.113055974 -0.17915484 -0.2408507 -0.3824711 -0.13008496 -0.04617083 0.21234336 -0.5753068 -0.13326642 -0.08164243 -0.45386383 -0.30283377 0.17846023 -0.2321922 -0.041840922 0.39659813 -0.7891645 -0.34872675 -0.3371088 -0.15553978 0.32232225 -0.3291806 0.23282787 -0.3242572 -0.17341235 -0.110123985 0.1953134 -0.11252916 0.3020159 -0.056934766 -0.33254668 0.051208083 0.24431123 -0.15348804 -0.013312361 0.27816495 0.2959264 0.12392574 0.40472284 -0.0022006275 0.26161644 -0.021550564 -0.09404721 0.117066056 -0.03806283 0.22498068 -0.53365535 0.45322788 -0.06752904 0.22241151 0.049236592 0.015151608 -0.43655685 -0.19774368 0.29568118 0.0036786187 -0.00026089104 -0.01903792 -0.68934506 -0.62888914 0.14038433 0.23753345 0.13513419 0.18900375 0.11738416 0.11500467 -0.16037257 -0.064581364 0.18548243 0.24369314 -0.25089142 -0.28181812 -0.36424166 0.16491833 -0.08999615 -0.062938735 -0.50502145 0.18761456 0.045570917 -0.22417964 -0.23351976 0.09527967 -0.059338327 0.5522081 0.07870232 0.114094935 0.067501456 0.50226843 0.7490195 -0.047127865 0.0627093 0.20080948 0.20521452 -0.21381775 -0.03862527 0.43151933 -0.11707974 -0.31549355 0.5123579 -0.18444209 -0.18146883 0.34219414 -0.1310528 0.2671086 
com.hieuvp.fingerprint.ReactNativeFingerprintScannerModule.authenticate -0.09489539 0.8044963 0.019733131 -0.19335656 0.44564497 0.26667598 0.39418423 -0.5397878 -0.5141268 -0.38286227 -0.23619424 0.66235965 -0.3411286 -0.15537551 -0.07156304 -0.30491504 0.58884525 -0.25436056 -0.06373614 -0.36370718 0.40125 -0.4565206 0.3804336 -0.26492277 -0.016558833 -0.47867224 -0.15120254 -0.08692912 0.0061577666 -0.6101748 0.13474268 -1.1115336 -0.48134235 -0.48360944 -0.36402866 -0.027989957 0.5436209 -0.25687724 0.15683796 0.69798577 -0.78191 -0.390589 -0.12482962 0.31786633 -0.5472667 -0.30940917 0.5086738 -0.019760579 -0.19790643 0.1642191 0.43823782 0.03506408 -0.27401355 0.013861223 0.43637738 0.8264022 0.56649244 0.3988787 0.17197798 0.013322311 -0.5297599 0.297048 0.5132223 0.014738436 0.5363889 0.46974525 -0.14238596 0.20770992 0.7446206 0.1631321 0.1523024 0.37961403 0.66428095 0.11003025 0.24061094 0.4505942 -0.27380958 -0.51599836 0.08892169 -0.70362157 0.056143828 -0.40447658 0.13189949 -0.27343807 0.3470375 -0.5529195 -0.0246744 0.042531244 0.23825654 -0.06114731 -0.45739025 0.39643022 -0.21173048 0.50509757 0.6542693 -0.35531214 -0.33461285 0.6910252 0.17091744 0.33380753 0.06697674 0.10701301 0.025226712 -0.2669903 -0.091318294 0.35699213 0.3106202 0.608824 -0.19493279 0.48857486 -0.22667317 0.5736198 0.4589103 -0.015688736 -0.16519457 -0.21296525 0.048192233 -0.29066142 -0.529265 0.24029768 0.585024 -0.39807352 -0.15160556 0.2102563 0.11500566 0.08705182 -0.039151866 -0.1246047 
com.hieuvp.fingerprint.ReactNativeFingerprintScannerModule.release 0.26419306 0.72627205 0.2759249 -0.23408844 0.626503 0.4068305 0.28756827 0.058333002 0.25163797 0.1200297 -0.4267372 0.68856 -0.43845075 -0.34622312 -0.173813 -0.37515363 0.69562536 -0.40159386 0.38976002 -0.1501067 0.61594945 -0.15183587 0.062908806 -0.36565268 -0.34900266 -0.39913943 0.052518975 -0.46647447 0.30022055 -0.273512 0.3204542 -0.81662077 -0.16824433 0.13068818 -0.5836235 -0.49458766 0.31754717 -0.27716935 0.4994904 0.8081608 -0.6967103 -0.016178748 -0.08384079 0.24947998 -0.7595447 -0.16954388 0.16592696 0.43789765 -0.086643234 0.35703665 -0.05839456 0.22077942 -0.4536414 0.36516574 0.6082174 0.46319935 0.43881834 -0.09931949 -0.2790338 0.18394218 -0.7609723 -0.11112725 -0.3080282 -0.08213218 0.72801346 0.7246958 -0.00783445 0.23437804 0.52001256 0.41258326 -0.24099103 -0.12927417 0.7981664 0.35159314 0.66333354 0.5219739 -0.5139447 -0.11201918 0.24379575 -0.13958701 0.18693928 -0.19303602 -0.38700992 0.050390992 0.700423 -0.32063037 0.11381686 -0.21484827 -0.2541788 0.062198706 -0.53511524 0.6633683 0.11331407 -0.18084712 -0.009536857 -0.26597998 -0.4833825 0.67189056 -0.014449823 -0.240906 0.10458724 -0.1751817 -0.31541067 -0.3458729 -0.26588562 0.09158487 0.63379025 0.40184832 -0.40455997 -0.08656202 0.4644859 0.8277367 0.52097154 0.24885833 0.40388274 -0.056006905 -0.20826046 -0.12517601 -0.6557033 -0.03741787 0.45206517 0.18390857 -0.04120042 -0.3305612 0.057144295 -0.24189138 -0.25682676 0.17397606 
