Variable_N 128
dubbo.common.service.HelloService 0.0031402532 -0.15697147 -0.1254501 -0.08295074 -0.10856874 -0.07265112 -0.047296334 0.011571572 -0.098573394 -0.18481801 0.03812454 -0.055286612 -0.05475422 0.043450754 0.06350167 -0.014352023 -0.11803604 -0.0104855895 -0.15734486 0.058963303 -0.030016864 0.06593132 0.022810666 0.21114522 0.0736547 0.1031139 -0.0050397385 0.029518045 -0.008370319 -0.10193845 0.11385214 0.024182288 0.11908298 0.00059961894 -0.0612315 -0.10044165 -0.063229054 0.1156908 0.09924802 0.03331635 -0.023045996 -0.02541864 0.067150325 0.059485964 0.19269423 -0.043720905 0.08019544 -0.0448532 -0.11808246 -0.019012416 -0.08411661 0.02552318 0.20475781 -0.03185161 0.08352157 0.1265412 -0.118728094 0.030951757 0.0667291 0.035573974 0.26133686 0.09480221 0.16222525 0.059399307 0.0047114296 -0.012232095 0.03821544 -0.14994487 -0.11032848 -0.09790977 -0.16370869 0.09280834 -0.12079821 0.11789303 -0.08082771 -0.065740705 0.04958642 -0.03585506 -0.08934937 0.117905125 0.12603188 -0.0053126537 -0.09879568 0.18636946 -0.093294576 -0.06682348 0.040850423 0.08789164 0.04729548 0.1485847 -0.3014507 -0.0032066167 0.12299023 0.03505398 -0.090200335 0.14975762 -0.11420147 -0.17776687 -0.14790511 0.010180807 0.16620044 -0.041882172 -0.07228518 -0.19120194 -0.20583099 0.11458801 0.1068215 -0.10855694 0.02328837 0.13029109 -0.08088077 -0.028046798 0.060409244 -0.14882287 -0.14733271 0.03716675 -0.12638697 0.039684393 0.024243725 -0.23504372 -0.050020643 0.045714706 -0.0365427 0.14238304 -0.01208584 0.024340667 0.08117497 -0.16311279 
dubbo.provider.service.impl.HelloServiceImpl 0.0073164613 -0.19070365 -0.14545348 0.08006687 -0.18945494 0.04188879 -0.0021579738 0.13814175 -0.16886322 -0.19421948 -0.06925676 0.009183526 -0.057301972 0.019652566 -0.0045073954 -0.0944613 -0.33353072 -0.03157949 -0.19196694 0.16443898 0.053652164 -0.1454453 -0.116545476 0.15828432 0.013118202 0.14912543 -0.0073317247 -0.027739713 -0.06586418 -0.13155371 0.025419423 0.2536507 -0.09813623 -0.09086441 -0.30317023 -0.18973821 -0.061839044 0.18054622 0.17378466 -0.2389993 -0.0048703915 0.049558345 0.12623656 0.15695263 -0.028272053 -0.33585048 0.08355894 -0.122679815 -0.32864502 -0.1601005 -0.17742291 0.056309577 0.34228897 -0.025114926 0.23138426 0.077604696 -0.122716665 -0.13916327 -0.005049803 -0.19296062 0.27146626 0.1270057 0.03837301 0.23537017 0.09367468 -0.056129877 0.06843919 -0.156554 -0.090148695 -0.19341108 -0.2259069 -0.14933833 -0.12235851 0.24012898 0.013293587 -0.17519243 0.05997267 0.06906528 -0.20241955 0.050793756 0.11963733 0.041038286 -0.3294231 0.19203553 -0.09312022 -0.058681726 -0.13139002 0.2225542 0.1083279 0.2656191 -0.4330717 0.28163996 0.0862646 0.048077412 -0.0040181223 0.20574908 -0.054844495 -0.04321485 -0.13507137 -0.03012008 0.22221762 0.115930684 0.012645444 -0.281556 -0.16736189 -0.09365449 0.2558924 -0.33169484 0.084214516 -0.019854648 -0.09303525 -0.09593979 0.10536402 -0.18955097 -0.2867878 0.035169926 -0.05268202 0.062328324 -0.14083466 -0.2618393 -0.087509945 -0.113159336 0.046713743 0.06410585 -0.26452276 0.0629385 0.06569383 -0.31576985 
io::netty::channel::ChannelInitializerSocketChannel 0.070573196 0.058906034 0.09097258 0.042348653 -0.0656002 0.017351065 -0.078394465 0.011206643 -0.14027715 0.072771445 0.013572076 0.005717115 -0.0018372475 -0.057117425 0.037609607 -0.021041147 -0.106741354 0.019157153 0.020521034 0.052617982 0.10513071 0.04287358 -0.047816284 -0.037470475 -0.024213837 -0.1385717 -0.05808548 0.11552136 0.057536665 0.06816907 -0.00021730551 0.13467385 0.005689561 0.06778227 -0.039972372 -0.07514369 -0.1351799 -0.008039969 -0.00011425829 0.022268059 0.036836047 -0.007280649 -0.018017842 0.16405143 -0.015605763 -0.18022121 -0.03495507 0.030286651 -0.05710061 -0.023984369 0.0521319 0.010106891 0.037551075 -0.014109299 -0.07452088 0.027696043 -0.022991022 -0.05329392 0.061932366 -0.09671223 -0.15767503 0.011104829 -0.13867235 0.019623144 -0.0007806178 0.02014728 -0.09920133 0.06482148 -0.028967341 0.05008558 -0.046673298 -0.0648464 -0.0068436777 -0.02236282 0.030943967 0.0050696293 0.0060248165 -0.13687098 -0.0064838347 0.06784213 0.1797916 0.03555549 0.025633506 -0.0007538424 0.11858693 -0.07373988 -0.032988228 -0.1136434 -0.08440458 -0.09568203 0.022894634 0.02770352 0.1394766 -0.048289344 -0.121824965 -0.01778162 -0.045158084 -0.024627969 -0.04985427 0.009931268 0.049038623 -0.092987254 -0.013154027 -0.06746672 0.018956345 0.00010753305 0.11344305 -0.007725505 0.09334522 0.052560367 -0.08767363 0.07360274 -0.004362467 -0.08622323 0.04862858 0.020122554 0.12948182 0.020051192 0.0021748613 0.030458169 0.038216896 -0.037361886 0.12657216 0.091028504 0.037839405 -0.023186287 0.0042641163 -0.019123865 
netty.DispatcherServletChannelInitializer 0.144677 0.02177708 0.036648765 0.19869642 -0.12463198 0.115128204 0.0050288537 0.049496282 -0.25333858 0.009803563 0.08777742 0.03283725 0.051881123 -0.031889524 0.05273241 0.043981582 -0.3991396 0.17265739 -0.10416023 0.20034498 0.15710792 -0.095199406 -0.1365206 0.056221172 -0.099873595 -0.11164768 -0.07719253 0.22608075 -0.054592345 0.0068767024 0.015464782 0.28372717 -0.023694864 0.059224285 -0.14036146 -0.20574585 -0.2535042 0.06386036 0.07360285 -0.09163626 0.15852197 -0.01920941 -0.021861482 0.28017384 -0.042263027 -0.46274868 -0.11329737 -0.055210404 -0.29075044 -0.1406706 -0.16930369 0.013581039 0.24478157 -0.17080653 0.03765969 0.06132502 -0.14829476 -0.22959635 0.111916326 -0.29751396 -0.07505373 0.085971 -0.053461358 0.17000268 0.13683736 -0.050649226 -0.008761825 -0.010412795 -0.17170657 -0.105279036 -0.20608535 -0.2062509 0.03767784 0.049493138 -0.06368051 -0.22984895 0.07769249 -0.07578243 -0.31382677 0.08233201 0.353195 0.117413566 -0.25950935 0.29363915 0.08861226 -0.10459966 -0.08057954 -0.042366352 0.03145347 0.16809352 -0.34803852 0.20760643 0.13959411 -0.09598849 -0.16637152 0.09312546 -0.04866276 -0.16560334 -0.2810262 0.037555415 0.27621153 0.06020819 -0.1363705 -0.27346638 -0.043196667 -0.09525463 0.32376868 -0.22533597 0.06142138 0.06717211 -0.24272832 -0.03923152 0.057879522 -0.24682394 -0.12841702 0.13885863 0.12453764 0.16399711 -0.05243509 -0.15910538 -0.03020077 0.03433124 0.13959229 0.10396182 -0.09200799 -0.06651231 -0.036288466 -0.17954044 
ChannelInitializer 0.06433036 0.056538124 0.082832836 0.03618233 -0.05708038 0.022243077 -0.07093942 0.007877654 -0.12773183 0.06202066 0.009879344 0.002826905 -0.0033732024 -0.054572783 0.03390989 -0.020368544 -0.10184535 0.019645508 0.018212235 0.04150469 0.09459049 0.03471555 -0.04320297 -0.03509851 -0.021367183 -0.12499731 -0.04951452 0.09910138 0.054006305 0.056517743 0.002735415 0.12236348 -0.0006728863 0.06885883 -0.03543455 -0.07128113 -0.11758261 -0.009999592 -0.0017329348 0.0129678575 0.039208148 -0.0077732373 -0.012945658 0.14977638 -0.018065773 -0.16694228 -0.033190005 0.025695557 -0.054784138 -0.016300224 0.043263745 0.006173579 0.037892062 -0.01415878 -0.06827187 0.023584258 -0.014641231 -0.045619585 0.058048125 -0.09141379 -0.13981888 0.0079244785 -0.1256017 0.016669165 8.968091e-05 0.019152498 -0.08888978 0.054483872 -0.02046179 0.03763706 -0.039273605 -0.057607897 -0.004079053 -0.019252134 0.03298507 0.0031444256 0.001115154 -0.12161883 -0.010106357 0.059427302 0.16041361 0.034644064 0.019759001 0.0012760079 0.1036129 -0.06882897 -0.031790577 -0.1014399 -0.07713477 -0.0876517 0.017982455 0.032162163 0.12439919 -0.04323957 -0.10848216 -0.02059926 -0.042404678 -0.024021933 -0.04218596 0.007025452 0.04214287 -0.08081756 -0.014930293 -0.06708144 0.020589417 0.0014639776 0.10126043 -0.013404709 0.08329085 0.04584352 -0.07328646 0.06834035 -0.0022504628 -0.079350695 0.041784998 0.02383953 0.11306233 0.02023529 0.003146396 0.021521023 0.0303435 -0.031164702 0.1127236 0.07916373 0.036116682 -0.02431161 0.0006485595 -0.0160921 
netty.MyServer 0.21089134 0.004043764 -0.016308803 0.08198062 0.04784029 0.11958644 -0.068888694 -0.1680644 -0.112358555 -0.027100256 0.13122304 0.0945798 0.022038316 -0.039807566 0.08765729 0.04248531 -0.1276641 0.17067595 0.019015145 -0.037913658 -0.031202128 -0.035622537 0.07554043 0.051895447 0.10921295 -0.17461269 -0.06296162 0.12051792 0.0412407 -0.0113239335 0.05642288 0.09726471 -0.024640903 0.26501465 0.091055624 -0.1971676 -0.039931152 0.06816307 -0.111724555 0.0538264 0.21964954 -0.042740796 0.003986818 0.23198622 0.10061769 -0.23958677 -0.03715964 0.049210608 -0.08700129 0.08765792 -0.105518475 -0.1551217 0.202941 -0.053823322 -0.06407031 -0.09066946 -0.01405673 -0.17252798 0.25345325 -0.21568632 -0.101217784 0.14420113 -0.1296162 0.1263019 -0.009759922 0.07641638 0.031274844 -0.07133642 -0.020769043 -0.19244027 0.076571226 0.04333896 0.04717508 -0.052194886 -0.046333443 -0.20176147 -0.12713403 -0.14034247 -0.2950878 0.018662037 0.28456467 0.23635921 -0.14358656 0.24969243 -0.13937394 -0.049841743 -0.06586462 -0.08894594 -0.06917274 -0.0117177535 -0.17417768 -0.023245681 0.09336277 -0.09694049 -0.06261199 -0.12807557 -0.22645466 -0.1279439 -0.1779111 0.043491017 0.04252704 -0.005234918 -0.17289513 -0.20896423 -0.036662947 -0.032063905 0.035474554 -0.11643798 -0.02775135 0.1491966 -0.14550616 0.09905593 -0.06279723 -0.08342169 -0.016922077 0.099870406 0.14432667 -0.0063504507 0.06498186 -0.31769907 -0.014803941 0.15103474 0.08597478 0.025484834 0.041922808 -0.015400958 0.08257671 -0.107861236 
netty.MyServer.main 0.27813438 0.08609304 0.06403855 0.1398004 0.040386993 0.17446664 -0.078449175 -0.20431703 -0.16826925 0.044901274 0.16756381 0.13127482 0.05942678 -0.08652979 0.09995248 0.084578134 -0.19522893 0.22313862 0.08821415 0.0013443816 0.0010210008 -0.02135568 0.07744765 0.002872998 0.07673555 -0.27551684 -0.08435455 0.19382028 0.061505772 0.04187463 0.0155007895 0.17277291 -0.042636085 0.33287236 0.122390755 -0.24565409 -0.099692725 0.047935322 -0.13736163 0.055608977 0.30388856 -0.044246297 0.0023347745 0.2997542 0.033141006 -0.34238428 -0.09603186 0.06578514 -0.11038596 0.07201187 -0.09409324 -0.17531042 0.19504581 -0.0667512 -0.12334433 -0.11796097 0.010688966 -0.23367691 0.29587898 -0.31343862 -0.25808457 0.14748617 -0.2399462 0.15102845 0.028359488 0.06379772 -0.028169412 0.00641474 -0.036545444 -0.18367307 0.12692106 -0.010659037 0.108244106 -0.111219324 -0.01713095 -0.21789049 -0.13297492 -0.21474431 -0.35452795 0.010127242 0.38073987 0.28084937 -0.13328117 0.24840271 -0.08336466 -0.08024052 -0.08094775 -0.14441372 -0.10958762 -0.08647572 -0.12017463 -0.00433747 0.12773375 -0.16421482 -0.10313944 -0.18482767 -0.24964786 -0.12324685 -0.22933507 0.08536529 0.027688848 0.010690843 -0.18696602 -0.20593198 0.0076316525 -0.09054959 0.08219211 -0.14073338 0.005658131 0.16804366 -0.19198202 0.12702543 -0.09415936 -0.11387322 0.036040768 0.09912314 0.2686894 0.021798924 0.08281072 -0.30057597 0.0040180893 0.16926958 0.13043272 -0.00975935 0.07431023 -0.03885263 0.057847682 -0.08015934 
netty.MyServer.MyServer 0.2672604 -0.0007913486 0.011583072 0.08288053 -0.023831476 0.14300464 -0.09957878 -0.16009565 -0.25933558 -0.10659164 0.18253845 0.09912081 0.031061247 -0.084056616 0.1260508 0.004478436 -0.25992537 0.22233655 -0.04300021 0.011442026 0.054655284 -0.016714813 0.06975785 0.1627078 0.10554423 -0.18963769 -0.087373875 0.22584328 -0.0026089984 0.049036007 0.08988273 0.24816255 0.033714127 0.28878003 0.060726553 -0.28675076 -0.11488967 0.15359472 -0.07992074 0.017946847 0.2817275 -0.09637508 0.016152188 0.36074612 0.15698254 -0.42395392 -0.026982158 0.014207793 -0.14559573 0.048368253 -0.17157367 -0.0957117 0.2926914 -0.11746269 -0.062038425 0.020212667 -0.1067588 -0.17915489 0.30949056 -0.27267843 -0.043065455 0.21269347 -0.1292116 0.1339503 0.0061428198 0.070293404 0.03293372 -0.11493185 -0.09920982 -0.24553122 -0.0406687 0.010837538 0.015882764 0.03332657 -0.105533116 -0.2798249 -0.08702225 -0.21686745 -0.41137233 0.06630885 0.4635799 0.28670448 -0.24900727 0.37470546 -0.11152534 -0.10788408 -0.11447522 -0.1585675 -0.0051554474 -0.024973055 -0.33112407 0.06652349 0.23194246 -0.1342195 -0.20338494 -0.028937967 -0.2640409 -0.25547552 -0.3285965 0.083576836 0.15915018 -0.06643492 -0.24659507 -0.35953248 -0.15984073 -0.01837888 0.20954537 -0.23139457 0.017790753 0.25549078 -0.20963661 0.11527299 -0.03145373 -0.22057617 -0.11912945 0.15161408 0.20445128 0.07683664 0.062659 -0.3973578 0.039167807 0.16065273 0.18492612 0.16546793 0.016156154 -0.08954433 0.106341295 -0.2035405 
io::netty::channel::ChannelInboundMessageHandlerAdapterHttpRequest 0.021992978 0.108033255 0.0181991 0.11396636 0.04813233 0.049102373 -0.12470315 -0.12081559 -0.025961274 0.056868657 -0.0555205 -0.025389237 0.072239816 0.0040317364 0.026484558 0.036076885 -0.09853492 0.101107724 0.13312525 -0.026315063 -0.0695991 -0.09373621 -0.051745784 -0.07242551 0.043307032 -0.10334421 -0.030651774 0.0017567173 0.08799095 0.056502294 -0.06120613 0.10461274 -0.059749536 0.09971158 0.0013420196 -0.055714644 0.020384148 -0.09986993 0.02451964 0.037473924 0.14056434 -0.09578896 0.034445994 0.08271832 -0.154248 -0.042810455 -0.033626456 0.030830076 -0.005599311 0.110730916 -0.061085474 -0.0676 -0.0011210947 -0.08139428 -0.043828174 -0.06406418 0.059227176 -0.14387392 0.13208246 -0.16669486 -0.22718084 -0.013859379 -0.12209303 0.060915466 0.023642417 -0.02665514 -0.04153313 0.072859496 -0.067708224 -0.03731435 0.13091367 -0.11352922 0.13578977 -0.041407835 -0.00021487007 -0.025198193 -0.03672756 -0.06226193 -0.035131738 -0.012423526 0.015420693 0.020720351 -0.040313065 0.008350838 -0.007600926 -0.014230077 -0.030317465 -0.023377944 -0.027288875 -0.04121661 0.043540083 0.007524392 -0.056987174 0.012046357 0.04825143 -0.10269027 -0.02029798 0.02988837 -0.064755656 0.02915528 -0.032902375 0.058209084 -0.083063304 0.048924 0.1284247 -0.07126133 0.027653666 -0.12074203 -0.083420634 -0.022795921 0.035068106 -0.006823524 -0.038355015 -0.07861307 0.0095710205 -0.04454964 0.15573591 0.062584944 -0.025275093 -0.037676692 -0.07455129 0.025640128 0.018198678 -0.09987875 0.04876387 0.04776558 0.06790402 0.017034484 
netty.ServletNettyHandler -0.08304461 -0.18025814 -0.1726408 0.11890067 -0.23209214 0.024261693 -0.03496063 0.1528201 -0.23415555 -0.16458139 -0.1092074 -0.11225206 0.050523058 0.044734593 -0.050800752 -0.08804496 -0.41681987 -0.016632268 -0.31381404 0.20387578 0.078191645 -0.1193801 -0.14498974 0.2628312 -0.09560105 0.12679411 -0.12367753 0.047445994 -0.09670441 -0.07378692 -0.021084266 0.29344127 -0.040108472 -0.08758328 -0.36795753 -0.19299471 -0.2230343 0.2495135 0.14032291 -0.27649468 -0.017711565 0.063590474 0.12456318 0.17793581 0.041653335 -0.4259926 -0.0044626035 -0.080407 -0.376555 -0.21123794 -0.27757707 0.052948907 0.3987501 -0.17462684 0.27435988 0.12384033 -0.24342331 -0.18866375 0.029947165 -0.207073 0.28980783 0.18950935 0.18640208 0.2712952 0.1729097 -0.014868859 0.08747828 -0.14013216 -0.109781906 -0.13792004 -0.38200653 -0.18010111 -0.11018192 0.2921649 -0.002486083 -0.2791356 0.096116334 0.028846793 -0.18446231 0.0726078 0.14142087 0.047788866 -0.38204703 0.3551451 -0.026855266 -0.16160914 -0.15876023 0.23748592 0.16253382 0.3814145 -0.53442764 0.3359062 0.12178258 0.09310993 -0.029987896 0.28827947 0.06330512 -0.094386734 -0.2945273 2.9781379e-05 0.3585007 0.08889154 -0.014314831 -0.34664327 -0.1121255 -0.034313723 0.27928612 -0.3857914 0.11000087 -0.020444259 -0.1899252 -0.057657905 0.19763215 -0.25243706 -0.36302766 0.08430934 -0.14512353 0.16945511 -0.21122275 -0.29006773 -0.17318012 -0.10571733 0.13671575 0.2004967 -0.32533446 -0.0013187345 0.00919435 -0.3468468 
ChannelInboundMessageHandlerAdapter 0.023497503 0.09507339 0.020884456 0.106495485 0.039314114 0.052681208 -0.11108276 -0.11047293 -0.025276342 0.050175067 -0.04826344 -0.022683797 0.066020355 -0.0013562436 0.02656736 0.03569798 -0.08712639 0.089390546 0.11968108 -0.022732249 -0.06259114 -0.089225 -0.045885712 -0.059627596 0.037148613 -0.09266968 -0.029143441 -5.987406e-05 0.0787244 0.047984984 -0.051419213 0.09614915 -0.059528504 0.094982885 0.0054485933 -0.058488797 0.01756852 -0.08908501 0.022306407 0.027643302 0.13321407 -0.08522173 0.031509977 0.07547867 -0.138604 -0.045528237 -0.02784644 0.021123627 -0.003500098 0.09906902 -0.059979305 -0.06005655 0.00072407845 -0.07081697 -0.045095775 -0.06257184 0.053685166 -0.12954076 0.1217028 -0.15195334 -0.20475566 -0.007727712 -0.10846015 0.052675832 0.02770332 -0.025729338 -0.031208117 0.061807107 -0.06284051 -0.035997592 0.11791437 -0.102079034 0.124085605 -0.038594496 -0.004051774 -0.02889098 -0.028790118 -0.051575933 -0.036220517 -0.016330922 0.016834615 0.019495895 -0.034656864 0.011844996 -0.008598089 -0.0088153165 -0.032203585 -0.026918264 -0.022536004 -0.03898241 0.041442145 0.0062353704 -0.048219495 0.008987854 0.03934926 -0.096426785 -0.021940667 0.026437432 -0.060374778 0.024943838 -0.025547002 0.05408894 -0.07367593 0.038228568 0.11469442 -0.065917775 0.029645367 -0.111431345 -0.07757268 -0.016927233 0.03204687 -0.010089608 -0.037693866 -0.07352373 0.0076596136 -0.03782045 0.14477 0.05860111 -0.021022303 -0.040386103 -0.065640464 0.023731984 0.014319033 -0.08933143 0.048260164 0.042972185 0.059310064 0.012215477 
