Variable_N 128
ApplicationTestCase 0.06860304 0.24358794 0.009034832 0.29246864 -0.21918061 0.0013146783 -0.086505726 0.16727696 0.3002209 0.23472351 -0.17110564 0.1899042 0.136289 0.06322231 0.022598522 -0.015307501 0.17850149 -0.09468511 0.0917092 0.037107237 -0.027253313 -0.10167968 -0.0005201313 -0.1799152 0.05509519 -0.29167435 -0.07590312 0.06770231 0.06729188 -0.23539406 -0.028011091 0.08539586 0.021250315 -0.19529018 0.0224868 -0.048140448 0.08049379 0.13153955 0.05219251 -0.15013592 0.18440904 -0.02629057 -0.004725467 0.19658288 -0.075809546 0.06615104 -0.13189879 -0.105117075 0.2319517 0.23168604 0.22109962 -0.08538001 -0.17876285 -0.19232203 0.06140527 0.2049961 -0.16536659 -0.19625156 -0.08910198 -0.07178907 0.04530714 -0.051500782 -0.13023694 -0.096626274 0.07534683 0.16690966 0.16685015 0.25822073 0.13751268 0.07936321 0.14114267 0.14026088 0.0036651967 0.078437634 0.06716146 -0.01869843 0.2019271 -0.0049081636 -0.042080235 0.010746557 -0.048198402 -0.022390971 -0.25296775 0.18683557 -0.021328665 -0.021536563 0.06847522 0.08794987 -0.15783882 -0.03541743 0.04709885 -0.049999136 -0.010180707 0.10981732 0.18345162 0.031615324 0.111214966 -0.003972888 0.12828474 0.070664264 0.041937683 -0.008045014 -0.2874837 0.0776172 0.1277002 -0.04860553 0.0031260373 -0.10334714 -0.025731113 0.04966019 -0.17847066 -0.01621259 -0.046627373 -0.08190539 -0.1445 -0.079126626 -0.2433831 -0.18118167 -0.1570694 0.11743708 -0.18516678 0.021635022 0.017826367 0.021667492 -0.1968986 0.035780374 -0.10938726 -0.07137908 
com.technotalkative.navigationviewdemo.ApplicationTest -0.02093134 0.0579221 -0.062412824 0.19218652 -0.17833734 0.1444199 0.051990382 0.025684228 0.052087385 -0.057143196 0.23252697 -0.074438654 -0.15356214 -0.1915828 -0.031734936 0.27825424 -0.12283903 -0.080309026 -0.05746175 0.10507231 -0.077753715 -0.119980015 0.07226355 0.24013688 0.26394597 -0.004053733 -0.0013529068 0.06343808 0.030264776 -0.09465159 -0.078363225 0.032778542 0.032010082 -0.06461537 -0.004589084 -0.04466276 -0.02564882 -0.09128724 0.061156955 -0.07033338 0.10082614 -0.12974855 0.06008069 -0.10935192 -0.22369108 -0.0653156 0.04277976 0.011526845 -0.10927366 -0.24257036 0.003991442 -0.020396756 -0.24196886 0.17493549 -0.010104505 0.0798696 -0.029293504 0.14910224 -0.06654024 -0.05597146 0.16689323 0.031378374 0.062359203 -0.15738021 0.47684062 -0.17996022 0.16835703 0.1745404 0.031804707 0.112040885 -0.1684536 0.10665709 -0.0927641 -0.068755895 0.06706483 -0.09184004 0.23171942 0.041584082 0.12968248 -0.12205389 0.04876384 0.0040774182 0.11155632 -0.16131411 0.067943275 0.08564096 0.2576456 0.008602447 -0.0743215 0.085875206 0.016433269 0.0394434 0.048831385 -0.0979336 0.07174645 -0.0852993 0.006467359 -0.07693394 0.032198947 -0.07250751 -0.16052976 0.06493695 -0.11574489 -0.06253107 -0.041004978 0.17507365 0.084812604 -0.050272755 -0.23512338 -0.109156005 -0.111087635 0.035471965 0.13478865 -0.21200955 -0.032688584 0.1650913 -0.011516955 0.043500096 -0.16994485 0.07211864 -0.26625952 -0.034775242 -0.03588015 -0.022789862 0.10808149 -0.06700834 -0.0683645 0.020653361 
android::test::ApplicationTestCaseApplication 0.05961498 0.23828201 -0.0050246026 0.29063815 -0.21946572 -0.0033072461 -0.09211418 0.16838333 0.30495685 0.24566631 -0.17630917 0.18470213 0.155058 0.07018413 0.015875313 -0.018663341 0.17614529 -0.08835098 0.09274682 0.043429814 -0.011333782 -0.101502754 0.00054593006 -0.18890871 0.053036336 -0.2865777 -0.08533536 0.08337915 0.05232602 -0.24642862 -0.024356974 0.08725911 0.021129683 -0.20866859 0.01763814 -0.052081544 0.07981937 0.15082364 0.054015055 -0.15604924 0.1890411 -0.020642892 -0.0066493023 0.20642465 -0.081495844 0.066779345 -0.12822339 -0.12001245 0.23236568 0.2329592 0.22898301 -0.08581591 -0.18172073 -0.20052655 0.072455294 0.20811164 -0.17367022 -0.20086421 -0.09213294 -0.07272464 0.059343535 -0.061504543 -0.13362943 -0.09677206 0.09082162 0.1837678 0.16389124 0.26296073 0.14750345 0.07908423 0.1477942 0.1523299 0.012071167 0.078550346 0.064203076 -0.013937953 0.2048617 0.011490138 -0.044217132 0.026848413 -0.05453214 -0.032527134 -0.25673085 0.18880334 -0.029175846 -0.020791834 0.06928435 0.09226934 -0.15551795 -0.0234517 0.056590576 -0.056981683 0.0038118418 0.12388812 0.17935576 0.022588845 0.13020542 -0.0044431244 0.13259944 0.06481012 0.04527698 -0.023871977 -0.29831713 0.093952395 0.13063474 -0.06773646 0.00510992 -0.09610535 -0.03469939 0.056877594 -0.17069969 -0.024981448 -0.042052697 -0.083527386 -0.13647245 -0.09436601 -0.2570548 -0.1858943 -0.16506857 0.122367896 -0.18717533 0.012377842 0.023853965 0.0378305 -0.20034614 0.025827935 -0.11713089 -0.07865496 
com.technotalkative.textinputlayoutdemo.ApplicationTest -0.013585601 0.0644106 -0.06864162 0.21131104 -0.19950733 0.17181131 0.07340999 0.030840702 0.047929496 -0.082468085 0.26748693 -0.08106947 -0.17379701 -0.23665488 -0.03211964 0.3111424 -0.12501715 -0.08969279 -0.072451875 0.11429944 -0.08602104 -0.14058451 0.0980135 0.27199203 0.2812096 -0.0060025426 0.016982736 0.059593547 0.045781672 -0.09756801 -0.105841465 0.044488814 0.026158901 -0.058548473 0.0018525178 -0.04449309 -0.036106635 -0.12191905 0.06468345 -0.08062791 0.105488166 -0.15884127 0.059952386 -0.124791466 -0.22166036 -0.065508336 0.05941682 0.024260286 -0.114585094 -0.2565732 -0.001277005 -0.03198256 -0.26103693 0.19210245 -0.020352071 0.099705316 -0.01871328 0.17259488 -0.06354735 -0.047849398 0.17670971 0.046409532 0.05811409 -0.17390798 0.5196338 -0.20219813 0.20143084 0.19526012 0.019181719 0.13085252 -0.17245412 0.10990914 -0.118123986 -0.07987675 0.058427855 -0.11466869 0.24261253 0.035930436 0.15511857 -0.13239922 0.05457731 0.02063178 0.1335291 -0.18151416 0.07315809 0.066120915 0.27234697 -0.00048372027 -0.085741974 0.0776834 0.020562263 0.0488476 0.046777308 -0.1137198 0.07743981 -0.08648236 -0.008782785 -0.059038423 0.033978008 -0.088985585 -0.18381019 0.09727139 -0.10869887 -0.08097417 -0.033283643 0.20776704 0.08159697 -0.0526902 -0.24667683 -0.117410555 -0.12600611 0.046928555 0.13521636 -0.2331468 -0.041414045 0.19754167 -0.004013046 0.048372228 -0.18409152 0.07397349 -0.29045835 -0.035304908 -0.031965632 -0.04072367 0.108019955 -0.077240214 -0.06505262 0.024015753 
com.technotalkative.navigationviewdemo.MainActivity -0.2565333 -0.16820338 -0.2895456 0.18224908 0.0483722 -0.16761039 -0.18255083 -0.04273495 0.22992228 0.28162497 -0.12016764 -0.3401962 0.1371 0.20392586 -0.14359246 0.10201944 -0.31974941 0.08641905 0.01578956 0.11251459 0.114800215 0.10896267 -0.254297 0.078060254 0.22946008 0.22521517 -0.32109007 0.24353728 -0.3323746 -0.33635908 0.12612365 -0.17687786 0.15087791 -0.3776452 -0.12338992 0.021700999 0.0375843 0.33179614 0.07204253 0.058666084 0.044736076 0.24351421 0.19406065 -0.016129801 -0.5103952 -0.09838494 -0.050459728 -0.43221474 -0.17395043 -0.47740737 0.30606738 0.375388 -0.44082287 0.05961582 -0.013296239 0.05509662 -0.22294146 0.11312932 -0.19431582 -0.35106313 0.42624807 -0.18455099 0.08195628 0.014493109 0.6064216 0.032252878 -0.3092027 0.32432985 0.31132013 -0.07304574 -0.19296375 0.28099412 0.20336698 -0.06173897 0.21982491 0.32357034 0.27816364 0.26405415 -0.20047925 -0.030420199 0.07984343 -0.38469815 -0.10502286 -0.15457265 -0.05900962 0.36666882 0.5185831 0.18301517 -0.027300991 0.38887 0.11617132 -0.14366193 0.1070782 0.15526965 -0.108734526 -0.13220006 0.47023368 -0.3713217 0.04551049 -0.05552281 -0.04354246 -0.49845472 -0.46994317 0.15437682 -0.037652683 -0.14308773 0.28170797 0.05620649 -0.35977244 -0.20647539 -0.05430234 -0.3376709 0.4462475 -0.016724102 0.054112993 -0.12804373 -0.39866683 0.18775487 -0.26033917 0.32632375 -0.11319099 -0.039815966 -0.094881386 0.33398098 0.3557744 -0.15457025 -0.34954664 0.0053999615 
com.technotalkative.navigationviewdemo.MainActivity.onBackPressed -0.25830993 -0.16551086 -0.23364033 0.12310264 0.16217689 -0.12648122 -0.012066666 -0.22095582 0.06912015 0.17776139 -0.14792792 -0.46244565 0.0977923 0.04302172 -0.15419048 0.05438539 -0.35935405 0.003961634 -0.0854456 0.14105643 0.083506934 -0.06492049 -0.23998594 0.21597517 0.24295981 0.32864708 -0.2152127 0.30108562 -0.40861812 -0.27895606 0.081181884 -0.18576102 0.063149944 -0.35385615 -0.15557055 0.0051083425 -0.09309224 0.33423164 0.10875535 -0.01345174 0.049477827 0.1390397 0.009768315 -0.050469063 -0.34783137 -0.045786493 0.18296121 -0.4323628 -0.26583624 -0.51818514 0.09237529 0.34796917 -0.32321903 0.21428673 -0.02033396 0.033782467 -0.09542214 0.23486283 -0.29121807 -0.21582662 0.46967256 -0.20791514 0.06804221 0.22862473 0.6628728 0.087344825 -0.26547065 0.23703645 0.15037814 0.06957836 -0.123942114 0.33466423 0.022915464 0.04768747 0.049419202 0.22672221 0.11659351 0.42811462 -0.20504633 0.08600395 -0.084405854 -0.3521566 0.11103444 -0.25714976 -0.019980302 0.1404596 0.49658358 0.120292164 0.13651055 0.39232746 0.034444213 -0.028525392 0.01818045 -0.011700931 -0.09083008 -0.06085536 0.5228919 -0.19290829 -0.016371707 -0.063867666 0.066507556 -0.4759146 -0.23851073 0.108067855 -0.051815074 0.015432087 0.23257427 0.0614967 -0.46070907 -0.13447389 -0.0070414655 -0.3789742 0.5001991 -0.08001082 -0.048987135 -0.07243374 -0.33737987 0.1356818 -0.16721281 0.19882435 -0.18120973 -0.036097955 -0.022833692 0.29826432 0.3719293 -0.23149134 -0.25429913 0.036050938 
com.technotalkative.navigationviewdemo.MainActivity.isNavDrawerOpen -0.17779021 0.17382869 0.13429753 0.46808508 -0.03237121 -0.053644706 -0.06836801 -0.121300206 0.29370973 0.18973225 -0.113112494 -0.25975332 -0.2463752 -0.20942378 -0.036916144 0.33707458 -0.32695764 -0.35688922 -0.21840437 0.12606427 -0.19168541 -0.15737875 -0.18995984 0.2279218 0.33185393 -0.008944021 -0.2187145 0.036732506 -0.095082834 -0.34343666 0.15848108 -0.078711666 0.030436419 -0.3876915 -0.081962936 0.06594806 -0.019647459 0.07222005 -0.05482029 -0.007961626 0.13020696 0.07378935 -0.018469676 -0.1764165 -0.5968968 -0.14001003 0.23661454 -0.3677811 -0.0638509 -0.5296299 0.16734295 0.3725119 -0.5641764 0.32311973 -0.14193772 0.16579653 -0.085233964 0.2546068 -0.4169844 -0.27492195 0.53869665 -0.14913137 0.07652442 -0.009921552 0.7331075 -0.24138974 -0.09518613 0.44223067 0.22525698 0.26702714 -0.28301647 0.21923652 -0.18071641 -0.08424225 0.039102267 0.09748993 0.43928885 0.2928826 -0.18002126 -0.25295395 -0.10385868 -0.15748833 -5.8956466e-05 -0.20352055 0.3279661 0.074576184 0.55954295 0.11170669 0.024708224 0.34702808 0.107587695 0.03788689 -0.17247377 -0.3318608 0.2697651 -0.056323472 0.1972931 -0.30543712 0.10510742 0.12017354 -0.028009174 -0.3462079 -0.33331883 -0.08198948 -0.2075151 0.28774533 0.23267536 -0.112089306 -0.36415154 -0.24899967 -0.339288 -0.19442354 0.4959682 -0.29834193 -0.26667008 0.15263452 -0.34009853 0.21331637 -0.3357612 0.23452236 -0.4215071 0.057776004 -0.20664942 0.1376042 0.4770755 -0.14691125 -0.19711009 0.14654914 
com.technotalkative.navigationviewdemo.MainActivity.closeNavDrawer -0.16155371 0.18272845 0.13835366 0.4592927 -0.041050866 -0.039014272 -0.052306153 -0.12599716 0.2795965 0.16881898 -0.10032456 -0.25474504 -0.2517653 -0.23314156 -0.038865864 0.3277854 -0.31138578 -0.35543358 -0.21607998 0.12207848 -0.19236448 -0.17918104 -0.1781391 0.24007457 0.32690784 -0.018709216 -0.19936034 0.036683585 -0.0809345 -0.32598653 0.13023712 -0.07045347 0.023619197 -0.36669984 -0.06834958 0.06467863 -0.031731587 0.053933945 -0.052496374 -0.02491679 0.12931429 0.047736593 -0.039424155 -0.17404546 -0.55742085 -0.12445712 0.2458388 -0.34865272 -0.06243664 -0.5026909 0.14323466 0.35059747 -0.5400567 0.32032213 -0.14004092 0.16859147 -0.07235224 0.25702217 -0.4054131 -0.23938072 0.52079445 -0.14336686 0.062021 0.000592605 0.70875335 -0.23037627 -0.07604636 0.43659365 0.20946112 0.2827372 -0.2632367 0.21212663 -0.19559008 -0.069918446 0.022371896 0.074277885 0.41943195 0.28803536 -0.17044201 -0.23595166 -0.12095796 -0.13658918 0.023328906 -0.19638245 0.3208305 0.0403092 0.5322773 0.10318374 0.03796965 0.33083126 0.10603717 0.063037805 -0.18201366 -0.33686227 0.27769458 -0.04947249 0.18465196 -0.270587 0.10230442 0.11626896 -0.026280103 -0.31118682 -0.29780242 -0.08215686 -0.19210951 0.29855707 0.2113946 -0.11055796 -0.3581669 -0.23513816 -0.33432326 -0.18522608 0.47335857 -0.3010341 -0.27677748 0.16137107 -0.323163 0.19350708 -0.32029557 0.20623684 -0.41700515 0.053546067 -0.19252956 0.11448399 0.45302507 -0.14276373 -0.17411248 0.13605888 
DialogFragment 0.050916046 0.2951476 0.22166659 0.5177682 -0.120586164 -0.15178375 -0.19692111 0.035100117 0.3422036 0.14139152 -0.10448194 0.15940583 -0.3669759 -0.054423913 0.120912895 0.21907648 0.11286922 -0.2640521 0.12890851 -0.17745723 -0.32132062 -0.010367252 -0.062158037 -0.021056695 0.04406864 -0.37993503 -0.13386902 -0.31403968 0.37390375 -0.109803416 0.15263492 0.09292944 0.027826248 -0.0497502 0.21245146 0.15429915 -0.09465108 -0.27226415 -0.19625549 0.07667726 0.053421203 -0.012389588 0.11026616 -0.07269185 -0.34787434 -0.011862807 -0.16805783 0.08716796 0.13891616 -0.09375054 0.286212 0.21567519 -0.38160533 -0.1328345 -0.22968712 0.3300458 -0.08002809 -0.09461583 -0.08722425 -0.086848825 0.06225338 -0.11890194 0.042930394 -0.25803906 -0.060125265 -0.28663546 -0.07369905 0.36239147 0.29037365 0.17640984 -0.21350625 -0.16856143 -0.16652311 -0.20803423 0.049773313 -0.17399698 0.43770918 -0.263496 -0.10516051 -0.2845091 0.0004161321 0.1851212 -0.24170068 0.20581141 0.3485775 -0.059500847 0.21646728 0.04787439 -0.13405418 0.06913147 0.2387175 0.050834034 -0.23809725 -0.13585238 0.44236678 -0.05893354 -0.22396918 -0.23722082 0.30550188 0.22356975 -0.24694295 -0.066038124 -0.32655963 -0.24459554 -0.039188616 0.20120116 0.015434607 -0.26374003 0.1857393 -0.2760468 -0.4168625 0.09091984 -0.16854087 -0.10718261 -0.26142463 0.13176173 -0.24650238 0.103566244 -0.21756715 0.1443911 -0.0251998 0.23952165 -0.28287032 -0.14111802 0.11806161 0.0963035 -0.025382645 0.01988491 
com.technotalkative.textinputlayoutdemo.FeedbackFragment 0.14759383 0.113929346 -0.12986168 0.29464376 -0.22164328 0.08725379 -0.2006347 0.24316528 0.0892474 0.11347936 0.38199332 0.13391791 -0.22977269 0.09660246 0.011778568 0.5320016 -0.26378447 -0.19488533 0.084615685 0.07815442 -0.12670042 -0.076053314 0.09955399 0.24682203 0.5210574 -0.055593558 -0.03901904 0.04880402 0.07313285 -0.055835783 0.12079999 -0.023448993 0.052934095 -0.044554573 -0.02815919 -0.25912252 0.12482663 0.1082638 0.11444496 -0.057077017 0.16610663 -0.061102636 0.33642927 -0.22238797 -0.5916012 -0.21593314 -0.2844911 0.14507252 -0.21523689 -0.42699227 -0.026310714 -0.1541201 -0.33164415 0.1189005 0.10547489 -0.08245023 -0.2100218 0.06525924 -0.11643292 -0.33520192 0.08994101 0.28289217 0.27634975 -0.49578604 0.66535944 -0.39676312 0.24639858 0.19400169 0.14854833 0.01351626 -0.41493964 0.2623485 0.12645131 0.007409143 0.31956118 -0.08853982 0.5106189 0.049828134 0.1779535 -0.2898054 0.37677494 -0.008285175 -0.058455803 -0.27531323 0.24989668 0.5342084 0.37035334 0.11188115 -0.21405223 0.272426 -0.16998239 -0.27806365 0.32690367 -0.102805324 0.15958923 -0.078772336 0.050414465 -0.3481875 -0.16893405 -0.07331754 -0.32668015 0.00023617306 -0.5182662 -0.073484816 -0.22763008 0.06992441 0.34591177 -0.11009581 -0.35534406 -0.13593484 0.044189315 0.24469925 0.19099316 -0.3640913 -0.08872824 0.16359243 0.1230744 0.04807985 -0.16864716 0.21243626 -0.45354787 -0.02226214 -0.02603463 0.14983937 0.06001748 0.09321816 -0.22171472 0.14954211 
com.technotalkative.floatingactionbuttondemo.ApplicationTest -0.01175959 0.059061777 -0.07426408 0.20527343 -0.20113663 0.16107506 0.046518996 0.04511825 0.051972352 -0.06858503 0.26307154 -0.06624538 -0.16807736 -0.20841819 -0.035718 0.30079007 -0.13370453 -0.08169256 -0.054298617 0.10889905 -0.07861595 -0.120828174 0.09119734 0.2520097 0.2808642 -0.006189659 0.004555226 0.06306669 0.04945963 -0.09265068 -0.09425548 0.0369498 0.03635576 -0.05614778 0.0020796172 -0.046283677 -0.023424132 -0.10440404 0.06272364 -0.07676641 0.10900681 -0.14049792 0.07673289 -0.12405429 -0.24233463 -0.07342879 0.03694965 0.021802604 -0.112770244 -0.2536133 0.004369852 -0.031291064 -0.2540568 0.18033668 -0.009507796 0.08510201 -0.04000964 0.1582632 -0.062357634 -0.060612183 0.16331856 0.0424109 0.06735625 -0.1861859 0.5042164 -0.19916047 0.18291073 0.18412754 0.036346935 0.108550824 -0.18629943 0.10527859 -0.09604381 -0.07601828 0.07770613 -0.0974854 0.25139794 0.030692229 0.14864518 -0.14095472 0.062450495 0.011545508 0.11153904 -0.16441543 0.07533635 0.10112623 0.27226636 0.00801513 -0.090660594 0.09101763 0.01427225 0.035756644 0.05659662 -0.0975769 0.077469386 -0.09450448 -0.0064964877 -0.08156476 0.03632044 -0.080983944 -0.18678585 0.08027613 -0.12932533 -0.07055875 -0.036990635 0.17996351 0.09249579 -0.05491453 -0.24478267 -0.114188716 -0.114387535 0.046843972 0.1403104 -0.22682846 -0.027789302 0.18108055 0.0020982467 0.045342356 -0.17681983 0.08320401 -0.2847418 -0.039183382 -0.034287214 -0.028578771 0.10635026 -0.060051356 -0.07626686 0.01791656 
AppCompatActivity -0.105429575 -0.005787973 -0.15594777 0.06828813 0.023985174 -0.034161493 0.117064305 -0.15732445 -0.06688493 -0.03646571 0.026944373 -0.17974332 0.033553086 -0.046677742 -0.081481576 -0.0024472417 -0.03946727 0.020763852 0.022411006 0.046299838 0.054894492 -0.1338404 0.01012475 0.13893785 0.12923807 0.11398959 -0.030485168 0.099235065 -0.15213524 -0.06757366 -0.06457925 -0.023014316 -0.041939784 -0.1357058 0.010424419 -0.0032460552 -0.103724524 0.14385453 0.0806702 -0.10366629 0.082900226 -0.09375725 -0.046865683 -0.05257124 -0.033423495 0.08003077 0.1453202 -0.12993939 -0.16854179 -0.1914626 -0.04575815 0.060857322 -0.037824493 0.12886085 -0.031330533 0.07419985 0.050488837 0.16164695 -0.12255308 0.008227542 0.20169148 -0.06660259 -0.053788725 0.16662244 0.26099432 0.09422057 0.0016391188 0.12253368 -0.031063657 0.12669939 0.046789464 0.17869121 -0.10189174 0.09681561 0.031691175 -0.04291641 -0.0062238914 0.21598102 -0.06141082 0.13479267 -0.122540206 -0.0971468 0.08242855 -0.10443905 -0.034145158 -0.091066785 0.19150679 -0.0257294 0.11823735 0.14178453 0.039165623 0.08981795 0.02332749 -0.053804286 0.04067765 0.041006267 0.23690894 0.055886768 0.044938643 0.017249156 0.056606237 -0.085887186 -0.02615316 0.036123354 0.049341694 0.04099109 0.029155925 0.07155405 -0.21521825 -0.07187439 -0.03986923 -0.09561519 0.098163575 -0.09135527 -0.0955997 0.05511291 -0.0833229 0.029872844 -0.022542447 -0.005074923 -0.08980414 -0.03948415 0.041218627 0.075397484 0.060629383 -0.12825042 -0.014021425 0.047280658 
com.technotalkative.floatingactionbuttondemo.MainActivity -0.026511084 0.06914647 -0.054829463 0.19260482 -0.15139778 0.09675306 -0.052533 0.06034426 0.09242538 -0.0022442883 0.17806658 -0.051839482 -0.11832982 -0.11430159 -0.028758937 0.27692044 -0.18361191 -0.08685419 -0.01590466 0.09028181 -0.06492587 -0.06288634 0.028024552 0.18362492 0.2624475 0.0002453451 -0.042075444 0.05513962 0.02009345 -0.13933648 -0.037186354 -0.00577747 0.067998074 -0.10828985 -0.0134613095 -0.0533746 0.03455716 -0.032561336 0.038043726 -0.02065976 0.1020174 -0.032523964 0.100749984 -0.1262527 -0.33099633 -0.09072886 -0.012357001 -0.056455195 -0.08716192 -0.25938395 0.07978954 0.05359339 -0.29617918 0.120010465 0.015990522 0.027629111 -0.09545612 0.12721816 -0.08694027 -0.13545918 0.1804976 0.028938996 0.07358713 -0.19554268 0.44753736 -0.18611674 0.098172836 0.2093144 0.12332519 0.07300694 -0.20552918 0.10481816 0.0075436975 -0.06865817 0.13430893 -0.0015665907 0.25746197 0.057901774 0.07650736 -0.15814291 0.08672694 -0.06930762 0.025938092 -0.13788907 0.07607019 0.1919702 0.28960884 0.047021925 -0.07302054 0.14958563 0.02252736 -0.019866502 0.05971805 -0.077611916 0.060374476 -0.109783806 0.046127472 -0.16595429 0.022177828 -0.018014416 -0.13902305 -0.012625886 -0.23186503 -0.018778833 -0.06494181 0.08282576 0.12711127 -0.026595818 -0.23119025 -0.14725205 -0.08369943 -0.008330026 0.19702603 -0.17799209 -0.022713374 0.114104986 -0.056911077 0.05838366 -0.18200266 0.11221346 -0.24209328 -0.029334038 -0.054388825 0.061189104 0.16388191 -0.038620055 -0.10956464 0.012743941 
com.technotalkative.snackbardemo.MainActivity -0.022718186 0.050801314 -0.049583837 0.15363841 -0.115154594 0.06566819 -0.042960748 0.04449394 0.075408176 0.00953842 0.13130558 -0.050335567 -0.08879128 -0.079251245 -0.026096849 0.21053043 -0.14315823 -0.06449851 -0.01467229 0.07099345 -0.051381104 -0.045281574 0.016365198 0.14221507 0.20392372 0.0032639548 -0.0386037 0.052151658 0.007772646 -0.112325996 -0.019280186 -0.013144996 0.046528053 -0.09350591 -0.0144717945 -0.0414803 0.025266157 -0.006343212 0.0298128 -0.023053017 0.08135727 -0.027406082 0.07793881 -0.09372294 -0.25752273 -0.06592434 -0.0048479196 -0.05075151 -0.070925064 -0.20759688 0.062145222 0.04635636 -0.23218857 0.09379733 0.010990852 0.027158981 -0.07839443 0.099109896 -0.075825796 -0.11129715 0.14973575 0.015687617 0.05569569 -0.14248809 0.3609159 -0.13815002 0.06854748 0.17044996 0.095933616 0.05744966 -0.15847543 0.09211227 0.0030610082 -0.05007762 0.1029824 0.008102489 0.2076062 0.055798702 0.050237637 -0.11332144 0.06214548 -0.061130054 0.015266327 -0.108413704 0.05944694 0.15143871 0.23328747 0.043360904 -0.052714553 0.12394846 0.012981389 -0.02219756 0.05148994 -0.055229664 0.048422493 -0.0827281 0.05202344 -0.12718858 0.013580571 -0.016177103 -0.10986512 -0.02835381 -0.1864709 -0.015288629 -0.055382058 0.06557185 0.10980546 -0.022043783 -0.18319258 -0.11121923 -0.0695682 -0.014108366 0.15629739 -0.14369994 -0.026363276 0.08728131 -0.05229736 0.05007368 -0.14502317 0.091156855 -0.19232005 -0.025111351 -0.045438055 0.050375905 0.12464845 -0.031930227 -0.095895074 0.014898838 
ActionBarDrawerToggle -0.23933525 -0.020705277 -0.0076948334 0.23125687 0.18524593 -0.123780526 0.04574656 -0.3030837 0.117542624 0.16189194 -0.26341894 -0.43852863 -0.03438607 -0.11473212 -0.110785246 0.045364335 -0.30125594 -0.17307685 -0.19083238 0.120082915 -0.040843192 -0.17130002 -0.26322246 0.20879607 0.1941497 0.21318606 -0.18451752 0.20048033 -0.3217998 -0.28815922 0.1160066 -0.14126824 -0.0026439496 -0.3549438 -0.13187149 0.0666029 -0.14789373 0.23821208 0.020552073 -0.03421485 0.053387683 0.07923414 -0.14574292 -0.06786908 -0.29193425 -0.0132026505 0.33909073 -0.4413001 -0.1821516 -0.45319745 0.045356434 0.39103916 -0.31938073 0.28739485 -0.10592368 0.11863812 -0.010949644 0.26786625 -0.38562748 -0.13678761 0.5056845 -0.255029 0.019389318 0.32322627 0.56657934 0.04885684 -0.23990925 0.2817738 0.098343626 0.22637388 -0.07275076 0.26428136 -0.16443291 0.063592315 -0.086046055 0.13958557 0.117463574 0.43822458 -0.26987317 0.045135114 -0.24380079 -0.24237873 0.13223271 -0.21282531 0.12490354 -0.09571809 0.45394567 0.09132071 0.21130729 0.34646648 0.07318773 0.1012667 -0.17287946 -0.20894201 0.08750996 0.009488759 0.42222664 -0.107806005 0.039452147 0.057089034 0.1453547 -0.4480521 -0.104667544 0.0130131915 -0.09348497 0.17454109 0.1592218 -0.0064666425 -0.38679126 -0.12565134 -0.14773393 -0.36936006 0.47943127 -0.13478102 -0.2109394 0.0007095256 -0.3661164 0.13139935 -0.17592064 0.116907895 -0.22392327 0.03141277 -0.08445654 0.18808223 0.398518 -0.23211327 -0.15976083 0.07779073 
com.technotalkative.textinputlayoutdemo.MainActivity -0.0356762 0.05512961 -0.053351343 0.17044324 -0.11454429 0.06983627 -0.045208693 0.03406316 0.083232746 0.009893435 0.13872868 -0.06687864 -0.10289307 -0.09525848 -0.025682535 0.23420855 -0.16179664 -0.075888276 -0.02232343 0.08169453 -0.056270625 -0.057784174 0.007293008 0.15687822 0.22842762 0.013018116 -0.04457048 0.058660023 0.0011079825 -0.12523457 -0.022150919 -0.013777974 0.056990013 -0.11133994 -0.013796904 -0.04144713 0.019145533 -0.013879197 0.035572104 -0.017431907 0.082722284 -0.027318966 0.08072275 -0.10148141 -0.28630567 -0.07980172 0.006725286 -0.06656172 -0.07944547 -0.24162301 0.06696913 0.058240954 -0.26253244 0.118130326 0.0097647505 0.03241272 -0.08235016 0.11489774 -0.09191373 -0.11836189 0.16944006 0.014150897 0.06027156 -0.14640139 0.4004987 -0.15560319 0.06916739 0.18991663 0.10745513 0.06548737 -0.1706025 0.10556232 -0.0053021307 -0.05358716 0.10866233 0.010374376 0.22148067 0.063179396 0.05142996 -0.12678018 0.067823805 -0.06636507 0.023955327 -0.12448983 0.06794588 0.15847728 0.25834075 0.04878032 -0.051699057 0.14174026 0.01988634 -0.015580333 0.045244392 -0.06696907 0.051541116 -0.09129946 0.054672416 -0.14329112 0.022137268 -0.014987112 -0.112026505 -0.032090936 -0.19489333 -0.01828822 -0.059675366 0.07902144 0.11611119 -0.02259622 -0.20325013 -0.12668002 -0.079722255 -0.018523047 0.18091819 -0.15324752 -0.026436543 0.09236268 -0.065304086 0.05521332 -0.15932411 0.100726105 -0.20903 -0.028252441 -0.050611738 0.056829005 0.1542669 -0.043755405 -0.10710775 0.015549228 
com.technotalkative.snackbardemo.ApplicationTest -0.013436701 0.066205546 -0.06597354 0.1992619 -0.18338226 0.14086977 0.03954947 0.03749916 0.054056626 -0.054814845 0.22963387 -0.0638087 -0.14456575 -0.18696614 -0.033750903 0.2787667 -0.11951897 -0.080245666 -0.04927939 0.0968064 -0.076012634 -0.117584385 0.07596328 0.23101647 0.25890094 -0.008077817 0.0006735294 0.059686854 0.039031874 -0.09596102 -0.08175111 0.03592312 0.03246623 -0.068922326 -0.0021324304 -0.04685531 -0.023938714 -0.08948867 0.06059399 -0.06677001 0.10541007 -0.12641001 0.0688485 -0.10443803 -0.22520505 -0.06832081 0.027104164 0.014005006 -0.10393697 -0.23539993 0.017379222 -0.020361641 -0.24728204 0.16273998 -0.011775725 0.0867019 -0.03703465 0.13698035 -0.069205955 -0.06481381 0.15946253 0.040922996 0.056786884 -0.16458824 0.4675151 -0.1823853 0.16994575 0.18556657 0.038407624 0.11108159 -0.1674421 0.101175316 -0.08849875 -0.068008535 0.071150586 -0.09093553 0.23505262 0.038794186 0.12761457 -0.12878078 0.056739632 0.0033079775 0.09618536 -0.15449117 0.07049464 0.0847935 0.2524505 0.00829903 -0.08548066 0.08512537 0.018419588 0.029190881 0.052657444 -0.088038936 0.071876444 -0.084918186 0.007869083 -0.07489659 0.03531864 -0.07293225 -0.16584602 0.06858476 -0.13298595 -0.06102674 -0.033911034 0.16880701 0.086820096 -0.045626488 -0.22358575 -0.105851606 -0.11033181 0.03898418 0.12798761 -0.20349723 -0.037182674 0.16556089 -0.0108579425 0.04305423 -0.17259912 0.076276235 -0.26236632 -0.034692697 -0.037817277 -0.014440195 0.1033028 -0.059037164 -0.07682363 0.023012495 
