Variable_N 128
com.github.florent37.glidepalette.GlidePalette 0.005516192 -0.058289103 -0.04107549 -0.12168213 -0.021904055 -0.057126336 0.23441371 -0.119819716 0.003717815 0.23346643 0.17496197 -0.18011332 0.12917927 -0.048713274 0.019279707 -0.07067555 0.36104828 0.25529498 -0.13459179 -0.32276717 0.16528909 -0.43220016 0.1176354 -0.10976337 -0.32640755 -0.23753016 0.2278059 -0.06566586 0.28030038 0.27630106 0.13600668 -0.16054608 0.067922615 -0.31827548 0.22164327 0.17060538 0.05369106 -0.13807362 -0.29594848 0.05139137 -0.105660915 -0.19465636 -0.056338068 0.038597766 -0.09128692 -0.022246849 0.29802418 0.04435555 -0.14966014 0.13464601 -0.11017446 -0.18805838 -0.10126788 -0.0024502645 0.278845 0.2093226 -0.117107056 -0.022848481 0.44665232 -0.07601951 0.2093426 -0.09363095 0.011174593 -0.10201414 0.35729596 0.25227717 0.08396422 0.39453587 -0.21965733 0.10837891 0.39437303 0.42514452 -0.35986903 0.3305319 -0.21460094 -0.22265993 -0.044382278 0.34948453 0.074451186 -0.04208012 -0.09123586 0.12176743 -0.121338315 -0.4979637 -0.24447069 0.1280157 0.29048455 -0.32229874 -0.19076806 0.18593426 0.26841795 0.15424396 0.64745265 -0.046573397 0.12841807 0.0023665885 0.37752888 0.4339971 0.6333426 0.5392816 0.20810004 -0.123044424 -0.11414801 -0.2909027 -0.06522969 0.30445778 -0.09262224 -0.25720632 -0.27308187 -0.6356211 -0.13213897 0.28625417 -0.17557594 -0.24755557 -0.19795553 -0.07698497 0.18446326 -0.1924572 -0.22326486 -0.29797313 -0.01198852 -0.26733455 -0.23705947 -0.3532911 0.05919499 -0.03326304 -0.068206035 0.046276566 
com.github.florent37.glidepalette.GlidePalette.onResourceReady -0.28028437 -0.2092441 0.07349001 0.47158048 0.3086871 0.122109905 -6.755854e-05 -0.26090983 -0.07474444 0.25629717 -0.2528609 -0.38461906 0.2305416 -0.16747233 0.12942465 -0.15273991 -0.027278703 -0.022415942 0.24423394 -0.19202924 -0.3354542 -0.24401674 0.14910313 0.05214569 -0.44853914 0.09867921 0.5952851 -0.015044396 0.4637911 -0.07902271 0.15352084 -0.37113667 -0.07352451 -0.2980924 0.61732155 0.41763854 0.12269842 -0.13306542 -0.44666448 -0.018212775 -0.04862417 0.18436407 0.040427834 -0.5585975 0.18700422 -0.23371424 0.5092616 0.03324809 -0.10128747 0.05502335 -0.5112476 0.0834363 0.14816755 0.18905807 -0.35257056 0.5725645 0.12525472 0.12699446 0.5095399 -0.08080945 0.5924191 -0.09639499 0.16934812 0.013859667 -0.046604224 0.14052558 0.059353422 0.5126604 -0.0850738 0.54902714 0.5297634 0.57948565 -0.10554168 0.55503166 -0.23813987 0.29077113 -0.0028777388 0.2757869 -0.2033652 0.41660613 0.045567345 -0.02401252 -0.07472936 -0.6213481 -0.16329744 0.36316797 0.35493717 -0.33659062 -0.044896137 0.4208427 0.22356956 0.41636857 0.52806646 0.2612148 0.4071411 -0.21579556 0.3336844 0.04130766 0.80567056 0.3222527 0.14358257 -0.37156105 -0.18094926 -0.48663017 0.16447364 0.1286845 -0.008503135 0.018620823 -0.24328753 -0.8551195 -0.13787797 0.03338338 0.2344419 -0.50060827 -0.34269243 0.36155024 -0.120153 -0.15752336 0.46577102 -0.032203343 0.42304176 -0.31491464 -0.2664813 -0.10100637 0.081335716 0.24692944 0.25592133 0.029559206 
com.github.florent37.glidepalette.sample.GlidePaletteMainActivity 0.08245487 -0.4052114 -0.07114021 -0.057062227 0.21305102 -0.042394668 -0.096699044 -0.118673936 -0.027833095 0.05185157 -0.31234944 -0.36602014 0.5241056 -0.06471978 -0.1422261 0.20645313 0.2349489 0.15884477 0.03083459 -0.0057568834 0.20251696 -0.12565958 -0.23407346 0.23820749 -0.28834635 -0.23056768 0.37538797 0.30374682 0.40625405 -0.2208427 0.02125793 0.10499439 -0.09190587 -0.24470396 -0.26530072 0.07008807 -0.27616757 -0.08566533 -0.15729296 -0.17382732 -0.29937747 -0.010069486 -0.19697694 0.21818148 0.25254747 -0.22127283 0.39895087 0.010162222 0.090340905 0.2944663 -0.28778684 -0.3482645 -0.27596322 0.08472854 -0.12295304 0.014957509 -0.1266456 0.2779174 0.25899696 -0.46179095 0.24230638 0.0071267155 0.3497207 -0.097839646 0.03828249 0.29250175 0.13150488 0.65068126 -0.22919933 0.114444524 0.6299069 0.61299515 -0.05130345 0.41290948 0.024495946 0.23911083 0.08744313 0.01379578 -0.55239457 -0.28197384 0.35295877 0.30138144 0.19530824 -0.061420973 -0.08830114 0.0033963076 0.5512804 -0.26112986 -0.40607053 -0.20272803 -0.16016358 -0.037031952 0.4632489 0.057949364 0.31855506 -0.17211594 -0.050494567 0.42374548 0.5964283 0.2272332 -0.20013912 -0.22188441 -0.09526307 -0.34630266 -0.0030331067 -0.21316436 0.043377813 -0.36042222 -0.28350854 -0.24966773 -0.14810698 -0.23457487 0.16645688 -0.25027 0.19533432 0.3112129 0.33015192 -0.16274953 -0.14429392 -0.22932044 0.045654293 0.0642249 0.33739865 -0.02617921 0.1685276 0.40272415 0.10929039 0.0040620943 
com.github.florent37.glidepalette.BitmapPalette.start -0.06089178 -0.2465796 -0.4670739 -0.15065967 0.04124355 0.38871586 -0.092449926 -0.29325455 0.119246714 0.6233466 0.19216076 -0.1289638 -0.14791837 0.15347663 -0.022875773 0.12712707 0.1634537 0.11404891 -0.027013384 -0.7541515 -0.08327473 0.053665455 0.07770159 0.081546985 0.052273437 0.29407895 0.7438744 -0.27263695 0.2666233 0.28819337 0.5581922 -0.4696647 -0.44254714 -0.34166184 -0.090835385 0.19260406 0.42667866 0.31554997 -0.3409576 0.122177675 0.31390825 0.14503734 -0.095735274 -0.31021243 -0.19762006 -0.29247883 0.18865925 0.028610999 -0.1649586 0.18972178 -0.13025056 -0.2698344 0.30813795 0.25249112 -0.053286295 0.20339228 -0.40217704 0.0895126 0.20200887 0.09578181 0.36561546 -0.03113081 -0.32559705 0.5262685 -0.3541258 -0.03642709 0.25798738 0.68365926 -0.26255664 0.22791028 0.2854643 0.4862968 0.23145357 0.32670388 -0.29374343 -0.18642583 0.1499929 -0.103543095 0.32623082 0.19454971 -0.57672566 0.34927195 0.47157982 -0.5316241 -0.032824393 0.3258421 0.35102308 -0.34428057 0.2943388 0.051544216 0.006778835 0.015914474 0.6571265 -0.11695251 0.22808069 -0.25057393 -0.053131495 0.47161442 0.49793217 0.37261796 0.55837345 -0.15419057 0.27766043 -0.4948291 -0.32745326 0.2592839 0.025269479 -0.39108306 0.08854952 -0.4660617 -0.21718372 0.20881508 -0.41564617 -0.36197573 -0.13501503 0.06856015 0.2261874 0.089957744 -0.1186672 -0.36866355 -0.042215683 0.0037862852 0.098477624 -0.37135747 -0.043958377 -0.15501584 -0.20118882 -0.0892692 
com.github.florent37.glidepalette.BitmapPalette 0.11781088 0.005988824 -0.1607645 0.38267934 0.21325603 0.42790332 0.3672232 0.10604603 0.18570095 0.5634843 0.0088754445 0.0104354 0.0132386545 -0.076984785 -0.024565907 -0.37897453 -0.026411932 -0.07708343 0.2107897 -0.57269543 -0.22723421 0.027452216 0.1905783 0.020619404 -0.088745475 0.25924835 0.69478935 -0.18460283 0.35183915 0.24587318 0.26410207 -0.6075139 -0.3601526 0.09293156 0.41735923 -0.014016819 0.33740133 0.03725579 -0.14239885 -0.17014557 -0.014222952 0.39677286 -0.020657139 -0.4639594 -0.29515696 0.053477 -0.01244947 0.13624907 -0.055719975 0.069545895 -0.4544053 0.19999172 0.08196033 0.07717894 -0.04598301 0.34120706 -0.21354567 0.23332119 0.4372829 0.21927711 -0.002345885 -0.3538207 0.008141786 -0.13970487 -0.313655 0.1514811 0.07352673 0.28525177 -0.36667463 0.58025736 0.22580108 0.22501624 0.16088626 0.23927005 -0.7023821 -0.24312598 -0.19225924 0.16999765 0.6035539 0.20562835 -0.30805948 -0.029204747 -0.092374496 -0.7415789 0.026101122 0.5019832 0.08169811 -0.28630987 0.44702154 0.43730995 0.32308045 0.2080627 0.37468755 0.54527676 0.46729365 -0.21163273 -0.095684014 -0.31364173 0.2863027 0.3439704 0.23660442 -0.41057855 -0.080608435 0.23198704 0.031422123 -0.2296368 0.18078907 -0.22935432 0.26898265 -0.3841131 0.012010461 -0.10899233 0.001391207 -0.12257394 -0.29549116 0.20726487 -0.14510648 -0.12296355 0.4207412 0.12639567 0.19638331 -0.15664814 -0.39672577 0.012683239 0.025825903 -0.13802138 0.19493295 -0.3947806 
ArrayListcom.github.florent37.glidepalette.BitmapPalette.com.github.florent37.glidepalette.BitmapPalette.CallBack -0.09121015 -0.21030544 -0.16960782 0.19810127 0.045589156 0.06904891 0.37936106 -0.23616377 -0.19027875 0.16151945 0.041911114 -0.25513205 0.23046751 -0.160735 -0.27739066 -0.2970545 0.43079022 -0.19536433 -0.1786358 -0.3011537 -0.10644546 -0.5327659 0.07450223 0.051515806 -0.27732044 -0.2940767 0.31236443 -0.03836865 0.15101346 0.3348756 0.1281748 -0.45617774 -0.2998758 -0.3951685 -0.09433051 -0.049814407 0.2371651 0.25216514 0.13079104 -0.41663393 -0.30874264 0.2625754 -0.07266026 0.16046967 -0.18753454 -0.007574482 0.3147903 0.051375832 -0.39848855 -0.19212048 -0.38835943 -0.058218915 0.027931971 -0.34033942 0.19972283 0.2956672 -0.3078384 -0.0046840454 -0.0015733317 -0.37022072 -0.06008537 -0.32441056 0.058368623 -0.2630082 0.32271585 -0.027299102 0.39080378 0.32936892 -0.48193604 0.13473453 0.41274434 0.26095408 -0.28067204 0.2000981 -0.23122293 0.2823078 -0.36291444 -0.1491826 -0.20726803 0.12232847 -0.13740677 0.60545117 -0.6139988 -0.44663388 -0.0358997 0.6653444 -0.14604175 -0.101800345 0.2981901 0.027710177 0.08465748 -0.20412104 0.2982107 0.14169435 0.27841157 0.09991436 0.44133943 0.33562055 0.11429079 0.6323346 0.058800943 -0.1991834 -0.17532584 -0.6796378 -0.38189268 0.26323998 0.1871296 -0.51376325 0.053707246 -0.37821442 0.1795968 -0.0881386 -0.26951927 -0.06639823 -0.52098525 0.25776467 -0.297824 0.1226583 -0.20746382 0.17593318 -0.08870659 -0.15826298 -0.13714133 -0.14485621 0.24434175 0.07625869 -0.39625648 -0.14066921 
LinkedListcom.github.florent37.glidepalette.PaletteTarget -0.070666134 -0.1843476 -0.20780925 0.20813341 0.04899038 0.07285581 0.42342114 -0.26250324 -0.16470125 0.2102216 0.040486943 -0.22931384 0.1536791 -0.20243332 -0.23594688 -0.34656915 0.38958395 -0.15729979 -0.1661441 -0.34935498 -0.14718339 -0.5193771 0.1223368 0.03644193 -0.28806305 -0.28305414 0.3683345 -0.09230459 0.18772864 0.35208288 0.15743232 -0.4516575 -0.3182748 -0.4012561 -0.007103175 -0.05550008 0.22565559 0.28794938 0.10187983 -0.42238173 -0.25246665 0.26010108 -0.07019229 0.11324834 -0.21231315 -0.013763841 0.3604726 0.036080394 -0.42228314 -0.12852094 -0.37768131 -0.05284795 0.05872293 -0.33047864 0.17474262 0.30482537 -0.30108005 0.007588289 0.023661628 -0.34520152 -0.06739341 -0.32872966 0.06080363 -0.24899848 0.30307043 -0.049483564 0.39723566 0.37996247 -0.5058479 0.15393512 0.44889206 0.24601533 -0.24216712 0.22798711 -0.29427257 0.23955709 -0.34922528 -0.1304914 -0.13279383 0.16702734 -0.19793236 0.57538396 -0.6126788 -0.50793713 -0.01074777 0.6692697 -0.14085066 -0.12856358 0.3077496 0.041805472 0.12989692 -0.15615799 0.36209252 0.16690807 0.28155842 0.049830157 0.44432163 0.31324977 0.116847746 0.6731769 0.1100441 -0.24007756 -0.18918502 -0.6413302 -0.41213328 0.2538046 0.1734888 -0.57009494 0.061640654 -0.40668133 0.17792094 -0.091578126 -0.25238654 -0.060277876 -0.554237 0.26867267 -0.3305527 0.13715495 -0.16889891 0.11973007 -0.052327424 -0.1632786 -0.17017971 -0.12667133 0.2547744 0.05676716 -0.41688117 -0.18931237 
com.github.florent37.glidepalette.BitmapPalette.apply 0.016202897 0.20694968 -0.5660493 0.15719582 -0.14261779 0.117077366 0.22175619 -0.24794789 -0.06127631 0.3027843 0.32341826 -0.19661091 0.18935636 -0.2901681 -0.104386725 0.46863353 0.39861444 0.35943833 0.07240923 -0.50034064 -0.31368536 -0.398538 0.12535338 0.114724636 -0.2175375 0.19792596 0.11067916 0.06839834 0.4868999 0.10082316 0.43674436 -0.63398385 -0.13403736 -0.3455969 0.10359316 0.47302374 0.30026877 0.25348482 -0.08241288 -0.0865256 -0.18217224 0.2875972 0.5108191 -0.3700184 -0.12552604 -0.031603534 0.12393557 0.42820725 -0.44859868 -0.29127207 -0.29073656 -0.21332368 0.36551106 -0.16941768 -0.09144258 -0.16620085 -0.34062365 0.36752188 0.16215295 0.22743472 0.25370073 -0.18426281 0.22607744 0.011269627 -0.28742275 -0.17050596 0.10767891 0.06589622 -0.1551148 0.5466213 0.06563816 0.35935715 0.4793353 0.7851788 -0.18437085 0.23618254 -0.26732326 0.40687832 -0.048870444 0.24888057 -0.38037816 0.62284625 0.24783683 -0.51109123 0.25218865 0.36834964 0.32512417 -0.49910882 0.36306593 -0.15508845 -0.0034529408 -0.058299318 0.3126868 0.047373343 0.36529315 -0.4070289 0.097863086 0.14035147 0.82009715 0.25754958 0.21937601 0.1770098 0.37694287 -0.60478127 0.3548746 -0.11590461 0.016641036 -0.34282032 -0.15505467 -0.48672566 -0.02333407 -0.08953022 0.03938863 -0.22152562 -0.41884294 -0.145406 0.059169374 -0.5664489 0.5119899 0.2569116 0.19158964 -0.21933284 -0.18689218 0.10747526 -0.1555339 -0.0802594 -0.24627833 0.2755806 
com.github.florent37.glidepalette.BitmapPalette.getColor -0.1035321 -0.094537325 -0.19269516 -0.43826273 -0.005657397 0.3903713 0.075240575 0.029387202 0.12539308 0.15180074 0.5873375 -0.3685805 -0.24142598 0.18243988 -0.22453728 0.42614406 0.3954776 -0.025154479 -0.34228235 -0.3550135 -0.17071576 -0.5649232 0.26231486 -0.116463564 -0.54111487 0.16590354 0.6305594 -0.30312663 0.25579438 0.43154454 0.47514254 -0.67675984 -0.16459115 -0.110342674 0.28522542 0.09431249 0.3607309 -0.2709912 -0.17411321 -0.21701638 -0.29464328 0.4123001 0.01547507 -0.3768828 0.1229666 0.06842857 -0.01711897 0.31610587 -0.4373044 -0.45049092 -0.5198177 -0.21995948 0.093929574 -0.014430807 0.042596832 0.18076898 -0.28482425 0.26993245 0.44649062 -0.23026925 0.27859247 0.11278752 -0.2965706 0.26629472 0.25169763 -0.19190529 0.25091767 0.54019165 -0.45378852 0.58144176 -0.010821337 0.7920749 0.110215425 0.2941165 -0.2782606 -0.15499893 -0.30738083 0.16844839 0.4401575 0.117623486 0.051289026 0.31674024 0.35884348 -0.2764563 -0.08071297 0.5034508 0.18748663 -0.36690888 0.04243271 0.39246735 0.24940348 -0.2260926 0.49770957 0.145037 0.055786707 -0.25928023 0.36409232 0.68531096 0.74956495 0.08861566 0.35689464 -0.41250277 0.2720474 -0.5172725 0.0759366 0.42495117 -0.089926556 -0.10525976 -0.11434833 -0.58369416 -0.27644956 0.11277669 0.104456976 -0.048224315 -0.29992726 -0.2901093 -0.14947638 -0.10165363 0.26728925 0.059315115 0.0004547311 0.07836809 -0.04953321 -0.08730992 -0.15911233 0.100302756 0.012893339 0.415567 
AppCompatActivity -0.017698253 0.13522124 -0.18408996 0.18971165 0.08026151 -0.0065197893 0.0609028 -0.28792676 -0.1264613 -0.08663912 -0.10065755 -0.1518754 0.026076544 -0.19212341 -0.15954342 -0.0038530682 0.026521986 0.26570824 0.2941261 -0.19125508 0.21973872 -0.14937477 0.35238692 -0.150168 0.018592654 -0.24741715 0.033885133 -0.15294665 0.07555201 -0.004867738 -0.20922801 0.083923385 -0.24981873 -0.17536408 0.1667905 0.05902452 -0.27200395 0.5579522 -0.055998065 -0.2052094 0.06930179 -0.04370546 -0.27676812 0.026051382 0.08413373 0.24296536 0.5044312 -0.23817095 -0.19063343 0.10391656 -0.20033969 0.12679464 0.10843885 0.09124372 -0.07823685 0.12258516 0.33325425 0.3804242 0.11601996 -0.26091188 0.35593095 0.06315008 -0.07219423 0.28437328 0.12831996 0.1937925 0.26267132 0.571813 -0.04205027 0.22898437 0.45442504 0.42792213 -0.10454277 0.31782243 0.16515346 -0.3038766 0.14059688 0.4045153 -0.37148443 0.106731735 -0.075272776 -0.16073036 -0.109322324 0.058356855 0.18484981 -0.37232262 0.4443229 -0.4120718 -0.16317432 0.10343713 0.10645041 0.3426289 0.47747216 -0.2409485 0.022747705 0.12089284 0.3674243 0.3404787 0.37360564 0.34362763 -0.07966377 0.047693968 -0.07004068 -0.14470676 0.011114421 -0.18050465 -0.12752345 0.04042139 -0.14794147 -0.40514067 0.06074069 -0.00788055 0.06903788 -0.1864354 -0.2014211 0.22525737 -0.03578123 0.14108527 0.03883735 -0.3442786 0.19725178 0.07433792 0.061539024 0.17241299 -0.037415892 -0.091739535 0.14723307 0.121761695 
ArrayListPairView,Integer -0.44479883 0.140961 0.27349445 0.2559103 0.36048636 0.036480125 -0.1942129 -0.35673207 0.4630375 0.3168817 -0.30588868 -0.6555886 0.11433299 0.24510904 0.03648234 0.06321824 -0.24327482 -0.3490465 0.8831464 -0.06674896 -0.16747913 0.058667384 -0.017032852 0.15361176 0.15154925 -0.25613743 0.5632164 -0.06219672 -0.16506958 -0.46337935 0.18028435 -0.23931949 -0.11315366 0.14629892 0.18747604 0.15104556 -0.065841086 -0.24644047 -0.17739727 -0.45418942 0.32313904 0.27842945 -0.31618768 -0.22265807 0.7583103 0.004887477 0.18074216 -0.061597817 -0.6784945 0.14001052 0.019652009 0.08364918 0.30798876 -0.11415208 -0.22185762 0.5629208 -0.37385243 0.7045536 -0.07825025 -0.36372292 0.8442617 0.3649951 0.17052938 0.6312044 -0.44237494 0.027667282 0.21773267 -0.08693508 0.20826828 0.14913857 0.0120608825 -0.1443434 -0.027424803 -0.37665254 0.09418613 0.30070543 -0.07192984 -0.28561857 -0.67635137 -0.3518125 -0.4236211 -0.019194227 0.27620515 0.23211582 -0.15048675 -0.22916818 0.3695716 0.04360263 -0.11527976 0.14771806 -0.13184986 0.047172874 0.11057123 0.24527936 0.3349689 0.20477526 -0.1031476 -0.14113164 -0.11546706 0.0893644 -0.3512357 -0.3533291 0.24013636 -0.37437755 -0.1477751 -0.14440408 -0.4346092 0.24178994 0.1637376 -0.52378047 0.3160515 -0.12513389 0.04284965 -0.6961436 -0.23508085 0.75589556 -0.25648767 0.1645568 -0.033447992 -0.14036016 0.65555483 -0.11285478 0.07619015 0.32347938 -0.02498112 0.3308562 0.41734895 0.1264172 
com.github.florent37.glidepalette.PaletteTarget 0.17202458 0.4546656 -0.16483247 -0.32487252 0.25066555 0.634237 -0.2633014 0.18065616 0.7198201 0.11711704 0.2663649 -0.5867283 0.5818604 0.5611017 -0.42114496 0.7175003 0.5459449 0.11427407 0.7094631 -0.6780612 0.31402248 -0.13004488 -0.09289178 -0.28255358 0.5316201 0.42673197 0.052675016 0.14927708 -0.15411517 0.27940503 0.40502155 -0.73248404 -0.67373633 0.41732123 -0.44701016 0.6460618 0.5575341 -0.095156744 -0.055760626 -0.06426428 0.0983341 0.5533344 0.14593455 -0.09941401 0.38871357 0.09314796 -0.46067676 0.546081 -0.7773724 -0.62155694 -0.09601971 -0.19668782 0.19159827 0.22878957 0.37776846 0.070475236 -0.7371661 0.90391487 0.13513264 -0.3968854 0.669265 -0.29478303 -0.21668857 0.6464261 -0.6898807 0.32909247 -0.13034835 -0.48326185 0.33061475 -0.13751933 -0.39501247 0.29976094 0.22534533 -0.3595737 0.53956497 -0.27300346 -0.46615562 -0.18711883 -0.7150968 -0.70739186 -0.35532016 0.48246258 0.35537004 0.57303256 -0.18822454 0.33450314 0.1318909 -0.3221724 0.38908273 0.4488609 0.22682135 -0.16498512 -0.3816985 0.049066976 0.17079477 0.4917742 -0.14926198 0.3364989 0.10003943 -0.003454719 -0.51463646 0.16497144 0.64341056 -0.56386137 0.3051579 -0.32293844 -0.1781949 0.40481576 0.6274196 -0.16844183 0.5592759 0.13651922 -0.57323503 -0.4724877 0.056959365 0.036319494 0.15130048 -0.61119705 -0.107306495 0.5131071 0.43779036 0.2791042 -0.37466052 -0.1454166 -0.092852354 -0.17807226 0.72315377 0.5706551 
ArrayListPairTextView,Integer -0.45716417 0.14107618 0.28086868 0.2602136 0.36211488 0.030254308 -0.2008452 -0.3670646 0.46538413 0.3218634 -0.30454716 -0.664192 0.1068996 0.24862619 0.04753722 0.06830029 -0.2463857 -0.3569714 0.88944495 -0.06281854 -0.18259154 0.05488404 -0.008381381 0.15316357 0.13972159 -0.2514719 0.56818396 -0.06928146 -0.17261228 -0.46229792 0.19061562 -0.2552283 -0.111986816 0.13455582 0.19830704 0.16378593 -0.051899716 -0.2509467 -0.18810701 -0.45032677 0.33298793 0.2834633 -0.31549278 -0.23619667 0.7694406 -0.000658541 0.18016593 -0.05636776 -0.69706315 0.135083 0.022460725 0.08077735 0.32121193 -0.11808709 -0.21961848 0.57620615 -0.38370687 0.70185214 -0.084110565 -0.3638707 0.8612155 0.3718764 0.16559306 0.642796 -0.44708306 0.019259477 0.21895424 -0.09131907 0.21159936 0.15062033 0.011262437 -0.14723411 -0.028190788 -0.3832219 0.09094944 0.31349462 -0.07751247 -0.29341906 -0.6846874 -0.33955264 -0.4341196 -0.016172757 0.27239436 0.22388408 -0.15817587 -0.21879432 0.36787784 0.046366353 -0.11627485 0.1568122 -0.13144252 0.040063135 0.11939652 0.24885304 0.33513537 0.2133718 -0.0955399 -0.14337158 -0.11344426 0.09993709 -0.34891886 -0.3580101 0.24959826 -0.39926195 -0.15439542 -0.1219575 -0.44397625 0.24275792 0.15712099 -0.5397305 0.3202191 -0.12442023 0.04075872 -0.7081791 -0.2492215 0.7578005 -0.26776397 0.1694808 -0.034355987 -0.13644466 0.66766876 -0.12449959 0.0720361 0.3159393 -0.02585449 0.33435684 0.42029747 0.1381307 
com.github.florent37.glidepalette.GlidePaletteTranscodeType -0.007892625 0.4024869 -0.6739458 -0.25272483 0.23907423 0.0152126625 0.65216756 -0.11728323 0.50928795 0.32030657 0.55841815 -0.576114 0.33916 0.20446733 -0.090592794 -0.04346973 0.6367718 -0.10383486 0.30691218 -0.48439905 0.67814964 -0.41915625 -0.2537669 0.12034934 0.55363405 -0.38075688 0.17941616 0.20442232 -0.104240015 0.19787857 -0.15526798 -0.52087677 -0.35042027 0.34607378 -0.03952786 -0.38561332 -0.093628876 -0.1831701 0.46815974 -0.7197048 -0.46103337 0.18957947 0.12337243 0.41235134 0.042822942 0.33296552 -0.26529828 0.5281131 -0.36126438 -0.107580125 -0.016520442 -0.46925628 0.06766625 -0.4005157 0.08575022 -0.23019297 -0.4146619 0.99673724 -0.225613 -0.089239545 -0.28235185 -0.46876267 -0.080840334 -0.14560632 0.023306541 0.49399406 -0.3673161 -0.34905815 -0.59429735 0.39896733 -0.116305664 -0.19161858 -0.11087405 0.08758459 -0.2942855 -0.55223536 -0.62477297 -0.037282325 0.22820169 -0.77693146 -0.5151192 0.39006355 0.122068405 -0.013769218 -0.09000405 -0.25283504 0.25627646 -0.014244398 0.08609964 -0.32991204 0.16072664 -0.3261117 -0.2552257 0.17528756 0.40233976 -0.16509013 -0.5729733 0.061206315 0.08812447 -0.01162778 -0.1967115 -0.18839805 0.09288514 0.59973615 0.17116217 -0.673205 0.21987969 -0.24094743 0.8151742 -0.03019685 0.043706436 -0.19274575 -0.34865895 -0.26936474 -0.05896959 0.2225207 0.37095383 -0.5699048 0.15176103 0.35420796 -0.098969504 0.09316136 0.17281285 0.67352504 -0.4250088 -0.29115507 0.3233666 -0.47345102 
RequestListener 0.14984004 0.020189373 0.358675 0.2979411 0.14306563 0.36582866 0.08106436 0.38326746 0.16038333 0.2692339 -0.13062058 -0.09748035 0.6527965 0.4119271 -0.56921434 -0.10340693 0.17501438 -0.32084635 0.48709303 -0.3801473 0.2303343 0.08294274 -0.0044881855 0.029090792 0.17069867 -0.14932133 0.27617428 0.043346193 -0.147222 0.0683948 0.06462956 -0.49573505 -0.2845461 0.2355103 -0.4491462 -0.036026347 0.39518628 -0.028558401 0.11276491 -0.3167921 -0.2007237 0.30255988 -0.44551176 0.10099615 -0.038990226 0.41597804 -0.38654628 0.033376515 -0.22163224 -0.29227337 -0.36546946 0.35430166 -0.19437176 -0.044710938 0.58270186 0.42183682 -0.56721073 0.36511666 0.25028607 -0.10854026 0.24876492 -0.1396728 -0.040048804 -0.011828122 -0.25631955 0.48477662 0.32932612 -0.16445169 -0.024112033 0.1972098 -0.024854263 0.16112858 -0.29141667 -0.49873737 -0.222378 -0.20124198 -0.28733757 0.061341036 -0.18589835 -0.4694213 -0.09112996 0.039024454 -0.25374535 -0.13353807 -0.14111932 0.20682485 0.14932401 -0.1615949 0.3647727 0.47048464 -0.0076077916 -0.07496933 0.15623155 0.39472523 0.4418148 0.67764187 0.01042698 -0.1782928 -0.07182769 0.4378047 -0.3764186 -0.09287299 0.07403813 0.022056736 -0.004076474 -0.21538667 -0.013874337 0.19423027 0.18626383 -0.28834638 0.35033593 -0.0024953785 -0.34515914 -0.23217867 -0.17318214 0.3475139 0.03354202 0.09021785 -0.41570058 0.2689213 0.043066576 -0.15605614 -0.25829938 -0.22010486 0.04040031 -0.07023927 0.4246266 0.042127334 
com::bumptech::glide::request::RequestListenerTranscodeType 0.14226554 0.021317279 0.36300144 0.3104031 0.13700359 0.36609733 0.085558034 0.3837019 0.16847758 0.28948885 -0.13019751 -0.091128096 0.6448994 0.41946748 -0.56975067 -0.11376797 0.1664738 -0.34276035 0.48954648 -0.3876209 0.21176341 0.095199995 -0.004605645 0.037689984 0.16379131 -0.14671215 0.2879114 0.034985222 -0.15033498 0.06162421 0.07454486 -0.5132851 -0.28198612 0.24610011 -0.4430249 -0.0503374 0.405319 -0.031266697 0.117266744 -0.32689995 -0.19822408 0.3144779 -0.4473009 0.09222649 -0.04223168 0.42477107 -0.39462635 0.03059395 -0.22386901 -0.29902625 -0.37189472 0.36479864 -0.18780245 -0.061655056 0.5851318 0.43618518 -0.5824864 0.3574208 0.2514219 -0.10172774 0.24698873 -0.1369712 -0.035948522 -0.010328888 -0.26959223 0.47596887 0.3409177 -0.17358556 -0.03177692 0.20834453 -0.030938016 0.14920212 -0.2873714 -0.5124536 -0.24861625 -0.19027048 -0.28827068 0.05643405 -0.16842613 -0.46037364 -0.10559721 0.036760353 -0.2548001 -0.1497487 -0.13618565 0.21523035 0.14482433 -0.15945768 0.37516883 0.47441947 -0.012764837 -0.0761822 0.15848804 0.41110384 0.4543576 0.67849493 0.011973736 -0.19980171 -0.08692978 0.4408972 -0.37122205 -0.10357825 0.07478226 0.02524801 -0.007571546 -0.21140815 -0.01877125 0.19137476 0.19289646 -0.29577073 0.35219064 -0.010984944 -0.3421773 -0.23332863 -0.18449579 0.3515119 0.019417334 0.10264377 -0.41357303 0.2757061 0.046626635 -0.16572677 -0.26224852 -0.21535073 0.037527602 -0.07260804 0.42266405 0.03585019 
RequestListenerTranscodeType 0.14733931 0.011733364 0.3680052 0.30124274 0.1365529 0.3751802 0.072691515 0.38624159 0.15837494 0.27495822 -0.1344275 -0.09467087 0.65202916 0.4206123 -0.5786662 -0.092437826 0.16607524 -0.33011723 0.48425043 -0.3824094 0.21161392 0.09315679 0.0019393153 0.024274584 0.15674236 -0.13813324 0.29050747 0.031155987 -0.13987352 0.06674168 0.08201631 -0.49955717 -0.28778982 0.23444073 -0.45435748 -0.03372104 0.4053817 -0.027113086 0.105120175 -0.30853823 -0.19612344 0.30861017 -0.45248833 0.0848315 -0.03297405 0.41850743 -0.38852173 0.03024996 -0.22089861 -0.3018018 -0.3777969 0.3611622 -0.19316217 -0.040693816 0.5854463 0.43270364 -0.5726201 0.35492775 0.26093242 -0.10975651 0.26425096 -0.13178599 -0.039162874 0.0017156706 -0.2675448 0.476192 0.34117922 -0.15931888 -0.021715036 0.19466192 -0.02059263 0.17647552 -0.28259403 -0.4992666 -0.22808665 -0.19234644 -0.27894148 0.05803272 -0.18904738 -0.46242782 -0.0892585 0.040427916 -0.2479119 -0.1372288 -0.14097199 0.22587787 0.15322678 -0.17269515 0.37351465 0.486482 -0.0093070185 -0.074684545 0.16284747 0.39657253 0.44820595 0.68253183 0.024735026 -0.17890434 -0.07334756 0.44447795 -0.36965513 -0.09873536 0.07606482 0.008323565 -0.00380405 -0.20630115 -0.015914056 0.1965318 0.17685272 -0.30011642 0.35440338 -0.0038688178 -0.3374153 -0.23358336 -0.1794882 0.34506154 0.018308887 0.09606794 -0.4170231 0.2715661 0.05347566 -0.15721639 -0.26199403 -0.2280771 0.05027935 -0.07047062 0.42257917 0.055669013 
com.github.florent37.glidepalette.BitmapPalette.crossfade 0.03046633 0.122704156 -0.47920004 -0.24982919 0.08532543 0.2894693 0.32206574 -0.089074016 0.2146947 0.19737706 0.45765653 -0.30097556 -0.12434529 0.05164942 -0.14852327 0.09881534 0.37871134 -0.031581808 -0.04708557 -0.43689424 0.13638633 -0.35521027 0.08549007 -0.034268055 0.028375376 0.011577524 0.40097955 -0.12578955 0.093672134 0.34851226 0.17045683 -0.5184043 -0.40088367 0.058822714 0.07987321 -0.15825371 0.13338895 0.08460656 0.1373781 -0.39314917 -0.2260907 0.3676346 0.03941898 -0.020986976 -0.028881975 0.13727708 -0.03302759 0.29777065 -0.33944473 -0.20193431 -0.27162606 -0.24075599 0.132015 -0.13218893 -0.013288286 -0.0768014 -0.25360852 0.5000393 0.02329554 -0.16829334 -0.07185765 -0.18077783 -0.20044081 0.11486221 0.046065044 0.011965452 0.05965542 0.24967395 -0.5024662 0.40334368 0.0040598996 0.2779259 0.1606782 0.22624698 -0.26667944 -0.31930602 -0.3509684 -0.03621981 0.35721684 -0.1363651 -0.26692736 0.34824777 0.1511061 -0.11464004 0.08192462 0.20129041 0.116299905 -0.18910821 0.17844386 0.00951669 0.17211571 -0.24113967 0.13998929 0.12083493 0.14821829 -0.22689623 -0.075998455 0.36074015 0.24763256 0.068991214 0.14357832 -0.2361133 0.17031187 -0.033289324 -0.03326953 -0.13996297 0.11898754 -0.28479636 0.37574017 -0.14661308 -0.032258928 -0.10526896 -0.11730696 -0.010498029 -0.19788072 -0.03966619 -0.042308185 -0.14421734 0.23653594 0.13709861 -0.040313907 0.1822468 0.05226967 0.26954508 -0.19604895 -0.1336135 0.006539867 -0.10051047 
com.github.florent37.glidepalette.sample.GlidePaletteMainActivity.onCreate 0.08525272 0.39554554 -0.622781 -0.36008787 0.18113275 -0.36048123 0.75686234 -0.5909522 0.2862364 0.06730284 0.35693973 -0.69756186 0.053501993 -0.29558635 0.32183513 -0.23939219 0.6868948 0.59545577 0.22494143 -0.38488364 0.69516945 -0.90921855 0.0851006 -0.20563167 -0.02835427 -0.7040847 0.09982668 -0.0022580335 0.25286236 0.31103316 -0.14691056 0.068043076 -0.1756475 -0.24444255 0.5804519 0.05586176 -0.62572247 0.071903735 -0.17434838 -0.45215112 -0.11687637 -0.32892674 0.0023471895 0.48241088 0.27144504 0.1070902 0.84952134 0.11348541 -0.52052146 0.42790368 0.08590597 -0.6767116 -0.0028037 -0.105966814 0.08432044 -0.17095393 0.123751946 0.7031607 0.16303231 -0.50562096 0.25307024 -0.2517976 0.13251229 -0.059434604 0.62676233 0.5669137 -0.26042542 0.4543359 -0.43520018 0.07005999 0.67732817 0.24537711 -0.48175693 0.67400503 -0.05956303 -0.62013406 -0.28919286 0.30869105 -0.2775778 -0.47874674 -0.4132221 0.23227966 -0.22675082 -0.14186095 -0.21593407 -0.48069885 0.6204937 -0.4091912 -0.61160064 -0.23369154 0.5499701 0.22281721 0.6777754 -0.23787762 0.14105056 -0.13354562 0.27335975 0.82092893 0.69845456 0.6843252 -0.08466275 -0.20430174 -0.29961917 -0.063434325 -0.09439423 -0.18231575 -0.16894571 -0.6405656 0.12674779 -0.6839303 -0.03753767 0.111192994 -0.20123737 -0.38174716 -0.2709738 0.16511625 0.2004489 -0.48439425 -0.05544664 -0.5751579 0.26145402 -0.022077713 -0.084811896 0.3342499 -0.15561585 -0.18821372 0.059980173 -0.17018068 
com.github.florent37.glidepalette.GlidePalette.with -0.043934964 0.23057383 -0.36730546 0.0508142 0.44550905 -0.028745178 0.17386232 -0.35615948 0.35360754 0.21131954 -0.08713398 -0.5969893 0.28270736 -0.09399695 0.1161344 0.009266101 0.13111845 0.3911386 0.6499312 -0.35853687 0.63496554 -0.1740301 0.1100101 -0.06873631 0.20618658 -0.3687849 0.38785645 0.0819463 0.28453913 -0.17406671 -0.32305545 0.0480962 -0.26700997 0.09140454 0.47300592 0.03138485 -0.5700813 0.06102756 -0.212742 -0.32606673 -0.045940146 -0.108316116 -0.24681112 0.058035318 0.3787083 0.14698136 0.55927 0.013482548 -0.08298321 0.5148394 -0.161873 -0.2266429 0.022228714 0.19336307 -0.31614468 0.119591646 0.31423277 0.98394614 0.37623754 -0.30143908 0.49352428 -0.07864632 0.07857256 0.26310018 -0.0020234291 0.68962634 -0.19567472 0.6293796 -0.20062412 0.48575523 0.64242786 0.52011544 -0.15191205 0.5524696 -0.010673792 -0.6517622 0.105693325 0.5289891 -0.30075 -0.40115818 -0.14628614 -0.30600306 0.32864383 -0.006290166 -0.055652034 -0.7622403 0.95630866 -0.514764 -0.58945924 0.032626 0.2675736 0.5104479 0.5604801 -0.07454665 0.29463226 -0.22721472 -0.14895812 0.30345955 0.8082597 0.17942356 -0.21461445 -0.25143045 -0.11496157 0.37857607 0.29679582 -0.690918 -0.11999214 0.03891365 0.12703666 -0.6209243 -0.11180797 -0.06793508 0.1609248 -0.61931294 0.10155718 0.45551425 0.44651356 -0.408556 0.29947105 -0.4695828 0.40779638 0.09205576 0.17310762 0.5029526 -0.25171697 -0.03930505 0.72497076 -0.2172144 
