Variable_N 128
ApplicationTestCase -0.48616105 0.16538282 0.21164921 1.0736922 -0.62180865 -0.2780628 0.06363172 0.32256633 0.6553966 0.2672289 -0.5903695 0.72999746 -0.5644457 -1.2172953 0.716131 -0.1880084 0.8148618 0.10107248 0.14833918 0.31331784 -0.081331775 -1.0229031 -0.10106169 0.19576204 0.7409087 -0.93502206 0.14804356 0.70555663 0.5714844 -0.062006366 -0.13051939 -0.20626496 -0.07255043 -0.64223915 0.26730388 0.6801361 0.4990359 1.0559665 0.18274017 -0.106517486 0.18606214 -0.24488765 -0.4979445 0.33238328 0.484135 0.6487169 0.45687136 -0.13831967 -0.09263391 0.47848916 0.5408109 0.48520082 -0.43090466 -0.30538228 0.58460534 0.47418064 0.033527367 -0.8549919 0.060486704 0.31440386 -0.09430052 -0.71672636 -0.656101 -0.056998283 0.64830875 0.3321095 0.68824387 0.86671793 -0.0029358254 1.0873911 0.5660437 1.5531378 0.49231803 0.48465425 -0.18953006 -0.39411372 0.6483492 0.68242717 -0.075013325 1.1362597 -0.0021068752 -0.3606973 -0.33872855 0.05780378 -0.2539385 0.17410105 -0.120339386 0.02152673 -0.5511076 0.1325084 0.28050113 -1.099539 0.81472963 0.22344784 0.5915182 0.02636646 0.58593625 -0.03801966 0.7174025 0.28473094 0.5856979 -0.08487991 0.07343714 0.9666107 0.09261965 -0.27222532 0.96499103 -0.6080399 -1.0587724 -0.007609686 0.16727884 0.75333315 0.40786797 -0.7979662 -1.13539 0.3684427 -0.8694928 -0.55286026 -0.35839146 0.40370452 0.20964219 -0.106312625 -0.104271665 -0.7078562 -0.2864979 0.7319497 -0.1869802 -0.011959007 
de.morrox.fontinator.ApplicationTest -0.050371815 -0.5637285 -0.4405054 0.18229721 -0.6145379 0.09083476 -0.3497401 -0.2162216 0.5829279 -0.40574887 0.40195835 -1.1567906 0.2194378 -0.3767199 -0.83710504 -0.4256331 -0.022285607 0.04635244 0.2978803 0.15308422 -0.41044906 0.4108604 0.028594952 0.08985553 -0.7586114 -0.3545701 0.63701403 -0.42253393 0.36548296 -0.7009836 0.7074417 0.86040837 -0.21134268 0.4460698 0.55180895 0.0238866 0.78053796 -0.23226732 -0.19696292 -0.6080323 -0.5858933 1.0543944 1.1479973 0.54970926 1.0361423 1.036671 0.48541284 -0.5631583 -0.80764914 0.09399741 -0.11396724 0.67050207 0.23701434 -0.29877198 0.6971319 0.17519677 0.812663 -0.31604064 -0.20389433 0.7536906 -0.080699 -0.90868556 0.32982033 0.6393874 0.18437557 -0.2901213 -1.00686 -0.38678908 -0.22741215 0.84495616 -0.36218855 -0.20777552 0.53619105 0.48793522 -0.25708655 0.006570783 -1.3643523 0.015602597 0.31199193 0.49394575 -0.66832286 0.64429104 -0.3410359 -0.53741 -0.3711925 0.5697462 -0.0012091973 -1.1466274 1.1558436 -0.5370201 -0.1169707 -0.03592487 1.2684339 -0.046531565 -0.37601152 -0.18543231 0.8651384 -0.8700946 0.581051 -0.6505332 -0.89383703 -0.2686137 0.1462253 -0.25663072 0.6793684 0.70531726 -0.4982813 1.5214287 1.5087956 0.57385427 0.9790302 0.009892789 0.24752901 -0.62991905 -0.49245566 -0.5153171 0.30377626 0.14040314 0.7254753 0.19596614 0.6334219 -0.89420766 1.4980688 -0.158345 -0.6704086 -0.12444454 0.75581694 -0.18238448 
android::test::ApplicationTestCaseApplication -0.49223566 0.16224717 0.20908652 1.0412381 -0.62307304 -0.2650916 0.07008767 0.31579125 0.6461296 0.2559458 -0.592429 0.71595293 -0.5582456 -1.202981 0.7046153 -0.17808624 0.79987425 0.08539453 0.13005947 0.30881155 -0.07493703 -1.0102075 -0.10236442 0.20363326 0.728098 -0.92366296 0.13172245 0.7010481 0.5630519 -0.063115135 -0.12721744 -0.19953126 -0.06528291 -0.6347011 0.26703525 0.6655446 0.4833107 1.049152 0.16978383 -0.11098232 0.19405293 -0.23826334 -0.4930075 0.32495186 0.4589411 0.64491475 0.46087116 -0.13618565 -0.10211449 0.46301833 0.5201741 0.48061183 -0.41542646 -0.32417873 0.5794203 0.46888432 0.039127823 -0.85172784 0.072505906 0.32438624 -0.07984077 -0.7025856 -0.65769637 -0.06092959 0.63891995 0.32647797 0.66922253 0.85705775 -0.00079157826 1.0842688 0.5649431 1.5363022 0.49327597 0.4732758 -0.19042814 -0.39622554 0.65402764 0.6709239 -0.0681807 1.1280624 -0.009418332 -0.3545709 -0.32464996 0.051859118 -0.2496875 0.17463604 -0.11884438 0.017167117 -0.5345766 0.14123371 0.29756987 -1.0873175 0.8083458 0.2211536 0.57359236 0.013966151 0.57723564 -0.05390683 0.70658016 0.27918276 0.59238285 -0.095157735 0.07128831 0.95069176 0.09037456 -0.28278634 0.9526725 -0.5968695 -1.055281 0.00047314892 0.17985108 0.76525885 0.40948802 -0.7914757 -1.1258999 0.35656705 -0.85099775 -0.5489356 -0.3633811 0.39649907 0.20845194 -0.1117507 -0.108881816 -0.7021269 -0.28901163 0.72109514 -0.17786086 -0.008748546 
de.morrox.fontinator.FontCheckedTextView -0.45894435 -0.53289914 -0.18916565 0.8780095 0.19314045 -0.11994167 -0.5460557 -0.6123052 -0.24481672 -0.42964843 0.4507401 -0.33758387 -0.34624043 0.03387073 -0.52927804 -0.03986818 0.56204236 0.027932433 0.12026544 0.7342786 -0.4357907 -0.033534437 -0.09691226 0.28692937 -0.007592995 0.108113825 0.5180441 -0.45067203 0.2858271 -0.03421598 -0.124092676 0.18367143 0.47032273 0.054875456 0.049003232 -0.23647898 0.7974633 -0.16085918 -0.055996094 0.27304858 0.10794573 0.6540001 0.47898182 0.38426036 0.7097497 0.23763607 0.02503455 0.37315363 -0.12511927 -0.12102116 0.15916535 0.4853362 -0.21380328 0.56947464 0.20134506 -0.41544083 -0.017540786 -0.17349157 -0.38380158 -0.24354096 -0.34500948 -0.7454236 -0.43756795 0.42395878 -0.28256002 -0.19464923 0.039946694 0.17400134 0.5126092 -0.3087858 0.20649163 0.37372193 0.07137026 0.5252205 -0.2269623 -0.27531216 -0.2896235 -0.10526393 -0.004749895 0.4886729 0.38304988 0.6783509 -0.48245698 -0.14438035 0.091841534 0.25815532 -0.24588288 0.19991994 0.30552942 0.55129385 -0.2136775 -0.42466712 0.70854795 -0.17585783 -0.42397502 0.10077016 0.17650482 0.44960085 0.01573907 -0.27694216 -0.61216253 -0.2965344 -0.36099792 0.44286332 -0.0009692132 0.32455146 0.8907794 -0.15473896 0.3185095 0.108625725 0.52060694 -0.5583272 0.44254392 -0.12720433 -0.39996853 -0.08441477 -0.07303081 0.19875908 -0.05506715 -0.28403416 0.55575 0.1916664 0.06135364 0.06722784 0.24285738 0.47994706 0.47530237 -0.4178582 
de.morrox.fontinator.FontCheckedTextView.setText -0.27749312 -0.16095468 0.23343325 1.2709165 0.3492386 -0.075831555 -0.08367204 -0.4658576 -0.24405603 -0.02197342 0.60806 -0.20431456 0.19167413 0.2410315 -0.46998635 -0.13623528 0.2147849 0.3446253 0.22961847 0.39479867 -0.40193018 0.9288249 -0.23138507 0.024827447 -0.30600503 0.25076982 0.28769678 -0.34538135 0.5539245 -0.15153545 -0.26873967 0.66961116 0.17267582 0.4734901 0.338851 -0.45036402 1.0652502 -0.97050387 -0.3360104 0.06351812 0.15015389 1.1882027 0.62741756 0.6799057 0.53877735 0.16542263 0.19744095 0.422859 0.2346377 -0.28323776 -0.2292919 0.32643154 -0.33807462 0.37711915 0.069575675 -0.018263537 -0.113721296 0.24919587 -0.7464749 -0.17593867 -0.29409075 -0.6237359 0.118820116 0.08076854 0.017900493 0.1474826 -0.042255834 -0.20914038 0.4546244 -0.64232874 -0.26223326 -0.07900486 -0.27400175 -0.25156513 0.37942234 -0.45848423 -0.13150136 0.4324211 -0.025127714 0.30260623 -0.33697343 0.32563502 0.15923437 -0.2133925 -0.16888636 0.80780196 -0.42592356 -0.1161766 0.384989 0.27379847 -0.4578072 -0.35494623 0.7547855 -0.05492814 -0.04514783 0.45852843 0.25095925 0.3229796 -0.028329322 0.3390773 -0.49684525 -0.48462725 0.06974807 0.3520952 0.07182584 0.4819075 0.09607375 1.0510023 0.8889535 0.6645933 0.0919983 -0.26555735 -0.037196986 0.105504654 -0.2441282 0.3836184 -0.06465994 0.097953826 -0.26007506 -0.16374122 0.8516386 -0.27290627 0.9651493 0.19441089 -0.5169201 -0.109304555 0.36450997 -0.3995603 
CheckedTextView -0.14450991 -0.033961978 -0.18176778 0.9514883 0.3128391 0.28575665 -0.75063515 -0.69373715 0.4842675 -0.06550656 0.40612483 -0.009876594 -0.19375779 -0.40996835 -0.22658126 -0.19571896 0.2379448 0.5911735 0.40154478 0.38357404 -0.6276185 0.30985418 0.15332246 -0.21888016 0.04166018 0.18731105 0.16341761 -0.3104803 0.27710962 -0.67731017 -0.31671205 0.55473685 0.40915638 -0.24026746 -0.2738516 -0.35176423 0.4378967 -0.09713977 -0.1366768 0.086300716 0.10994879 0.90682095 0.0412838 0.72629964 0.1360793 0.13342534 -0.08861338 0.3279206 0.7087176 -0.14110711 0.28833956 0.34840953 -0.46223727 0.38353088 0.42758474 -0.29877135 -0.4288055 -0.011720517 -0.02618969 -0.56641173 -0.22836712 -0.4897862 -0.24091767 0.17638299 0.24613711 0.12009408 0.5285459 0.22176863 0.07460348 -0.16961639 0.30672696 0.67596555 0.058583997 0.46739423 0.44847205 -0.1971062 -0.44025344 0.61191404 0.19210958 0.3469704 -0.16774876 0.8455209 -0.6079043 -0.11773005 -0.4203955 0.42689067 -0.2605558 -0.31255582 0.30929235 0.51788574 -0.40066087 -0.616655 0.52981126 -0.0543455 0.04878507 0.08248554 0.14807014 0.8008632 -0.34625152 0.1261163 -0.6360098 0.1036206 -0.17561337 0.8022723 0.111356385 0.6884951 0.21354125 0.33864453 0.26732713 0.5143179 0.19179185 -0.20432615 0.3594145 -0.33532494 -0.34825367 -0.102989554 -0.32710057 0.19135137 -0.096740656 -0.16356952 0.23476198 -0.14188085 0.38164145 -0.19672431 -0.29089585 0.21961822 0.17723909 -0.33818644 
de.morrox.fontinator.utilities.Typefaceable 0.038655087 0.33359045 0.39652368 0.08647682 -0.41067058 0.21323416 -0.37316617 -0.11487876 0.22353634 -0.16046125 0.24488074 0.16095409 -0.02699016 -0.21343534 0.5097118 0.19147399 0.059137397 0.112617984 0.26795125 0.07586596 -0.145499 -0.06719805 0.10890248 0.06947553 0.059653185 0.024526665 0.02102856 0.05434488 0.33375856 -0.095659934 0.09220387 -0.03861297 -0.4512006 -0.18522978 -0.027817206 -0.06813184 0.13632657 -0.04958133 0.050916936 -0.19356291 -0.016192708 0.09513568 -0.07029826 0.43687308 -0.045837227 -0.06461252 -0.006250249 0.1524711 0.21807736 0.3648179 0.18195708 0.13477714 -0.3352814 -0.0038603984 0.17559065 0.6042558 -0.08399698 -0.039807647 0.0033063006 -0.09596465 -0.19182749 0.2613389 -0.0015150278 -0.01225916 0.24166255 0.1930252 0.14811355 -0.41075557 -0.14491147 0.052483786 0.34700128 0.24132928 -0.13049707 0.38574412 0.44757557 -0.08737251 -0.1854127 0.15959275 -0.07021648 0.06310058 -0.4834129 0.23853879 -0.44616103 -0.25652057 -0.40926808 -0.27519467 0.11967559 -0.31047508 0.15770428 -0.12910026 -0.011242468 -0.19303574 0.23832548 -0.050264016 -0.040065557 -0.56783855 -0.057072293 0.2501358 -0.04401557 0.12421325 0.044954117 0.12615356 0.023487195 0.4316432 0.008021841 0.0021042682 -0.21477737 0.38050148 -0.00702396 0.38558578 -0.2002744 0.007002156 -0.386833 -0.0967038 -0.24914862 -0.14321975 -0.560116 0.11599757 -0.049018733 0.012067802 0.0686296 -0.16994894 0.46593887 0.3629832 -0.3232453 -0.025506409 -0.007392602 -0.07494371 
de.morrox.fontinator.FontCheckBox.setText -0.6366159 -0.22267179 0.15518862 1.1923238 0.021590676 -0.46613124 -0.064565495 0.25243062 0.27811125 0.4675413 -0.21556991 -0.7433888 0.19048487 0.15553209 -0.85538113 -0.50527495 -0.14321935 0.16105108 0.0473817 0.27584898 -0.111576095 0.7495884 -0.5290643 -0.02509327 -0.26760378 -0.27060342 0.09487601 -0.35584366 0.92588687 -0.08207242 -0.19620658 0.76052517 0.05187088 0.525914 0.42048454 0.112417914 0.8396268 -0.49135238 -0.427428 -0.10226556 0.36907122 0.61392814 0.88459706 0.5042599 0.4042198 0.57941556 0.36458233 -0.11182302 -0.11410745 0.08663085 -0.11924855 -0.066379935 0.1000657 -0.36602327 0.15079962 0.014465099 0.41582865 -0.22785576 -1.0975097 0.4215811 0.16131166 -0.9587371 0.5068336 -0.23189835 -0.01715933 -0.2810045 -0.18666425 -0.06393854 0.23323022 -0.039429713 -0.4983106 0.043577567 -0.68795305 -0.87566584 0.0052554444 -0.4351207 0.36410722 0.022353983 -0.111093745 -0.012849329 -0.7639042 -0.45110804 0.48028058 -0.17640005 0.5984206 0.6717411 -0.446666 -0.2714769 -0.05790551 0.2375225 -0.2673722 0.12686138 0.47902396 -0.25855252 0.32588017 0.5010694 0.71076334 0.2947408 0.6802118 0.43568596 -0.10170407 -0.5612844 0.5445839 -0.2394701 0.11153796 0.091872215 -0.36199814 0.5203228 0.94065636 -0.014285638 0.03196727 0.12941292 -0.019745046 0.20953557 -0.12161076 0.32968563 0.37122455 -0.2243062 -0.64184153 -0.065257795 0.47429398 -0.2884133 1.0655241 0.2174044 -0.1684791 0.16102086 0.0040577194 0.2380615 
de.morrox.fontinator.utilities.TypefaceLoader.inject -0.20918222 0.14877956 0.7090147 -0.15313447 -0.11839791 -0.29833764 -0.12623525 -0.13527752 -0.5287791 0.02997133 0.11500272 0.33261862 0.15865 -0.2514794 -0.18484955 -0.46855122 -0.19847615 0.063963115 0.00065140444 0.51038736 0.08367311 0.2282479 0.22723256 0.20978609 0.3658676 -0.18637891 0.05140209 0.14078225 0.49663246 0.5780964 -0.23236805 -0.4920938 -0.1869328 0.31599367 0.41351244 -0.23743483 0.10397583 0.26843622 -0.43886667 0.046887476 -0.036587562 0.82929695 0.07891976 0.34076315 0.14488955 -0.069944 0.41386965 0.17956883 -0.1952961 -0.38725892 -0.2619977 0.3843963 -0.076440655 -0.37863457 0.4137845 0.38927662 0.10858506 -0.35592118 -0.12468385 0.17604427 -0.28898743 0.15939051 -0.38973415 -0.09376703 0.007658529 -0.12087095 0.5787774 -0.23141101 -0.68705845 -0.03745748 0.15928005 0.19866617 -0.0031680877 -0.040433954 0.30193666 -0.43662682 0.26318982 0.33463743 -0.24129163 0.25150907 -0.4286692 -0.19678174 0.47743663 -0.33774304 0.012582475 0.55641806 -0.3907759 0.14071806 0.21212666 -0.08843237 0.10872885 -0.27199575 0.2800495 -0.07844589 -0.36028543 0.14154842 0.039017912 -0.1896648 -0.104146846 0.4592452 0.5176752 -0.11337403 -0.07112733 0.6054689 -0.37808293 -0.3499263 -0.020060208 -0.27850387 -0.071164735 0.3981708 0.32308686 0.5521715 0.32454926 0.06245966 0.10513939 0.33744162 -0.08698527 0.6449638 -0.10617657 -0.037667952 0.4681203 0.10488959 -0.3206115 -0.65275896 -0.26336855 0.45881543 -0.09870422 0.22410938 
de.morrox.fontinator.FontEditText.setText -0.3391225 -0.12265046 1.3458267 0.5935793 -0.18091257 0.06648188 -0.012369171 -0.01476421 -0.30686614 0.5626054 -0.11910727 -0.1102335 0.4151292 -0.031719938 -0.162653 0.36359158 0.026416454 0.30340746 0.21018696 0.9442387 -0.13559358 0.79067916 -0.09870797 -0.037266526 0.017439539 -0.24130008 0.3816321 0.21148768 0.38487747 -0.2280055 0.679872 0.012550634 0.50972795 -0.021589115 0.9433042 -0.079335265 0.93057615 -0.977439 0.11831607 -0.17704333 0.30243486 0.61950284 0.0915858 0.26561058 -0.027396671 0.5785952 0.3322397 0.25585634 0.07821071 -0.4523665 -0.17648037 0.42749682 -0.08532352 -0.1469374 -0.3145011 0.21437013 -0.13934693 0.13259937 -0.7421055 -0.3531361 -0.19485319 0.15751384 0.60004175 -0.9982207 0.30846873 0.36636263 0.532657 -0.5557082 -0.26870722 0.13592087 -0.46116307 0.321058 0.027528921 -0.42567974 0.26412612 -0.66834724 -0.7679151 0.023384707 0.21981099 0.0037722364 -0.8865896 0.37035528 0.14245337 0.017289456 -0.40238297 0.11312296 -0.7622701 0.043904524 0.54999197 0.13561176 -0.098685466 -0.15456133 0.36869916 -0.73229617 0.31945297 0.3509249 0.3155361 -0.11676405 0.010818769 0.055387992 0.14066802 0.005774548 0.36879617 -0.03171425 0.2934856 -0.03186701 -0.023474984 0.32983986 1.3954945 -0.05048812 0.36837462 -0.24609697 -0.3522305 -0.025737036 0.40601715 0.34063593 0.029932722 0.23229097 -0.05389119 -0.48057875 0.3271322 -0.07567829 0.54374 0.24276705 -0.24027178 0.00885172 0.5663794 -0.4959556 
de.morrox.fontinator.FontButton.setText -0.18021885 -0.2943118 0.53265697 0.36425528 -0.24884517 -0.32202762 0.17514434 0.45719853 0.6250956 0.2057386 -0.103389576 -0.2098033 -0.27070254 -0.048844215 0.49687356 -0.31728178 0.014045343 0.6609863 -0.026928509 0.5038909 -0.31908613 0.25898966 -0.036660656 -0.0065172925 -0.34763294 -0.009952859 0.3279777 0.412082 0.88827246 0.20734623 -0.32986355 0.8582651 -0.12479293 0.10432722 0.390293 0.13293141 1.0806049 -0.54254633 -0.3842597 -0.13840537 0.12233142 0.75365925 0.52218145 -0.3405505 -0.13451041 0.24895768 0.39578116 0.7734373 0.3072307 -0.57606995 -0.17237638 0.1811181 -0.15471348 0.34530768 -0.32504568 0.9847422 0.076568395 0.46936664 -0.5048628 -0.06280559 -0.24728727 0.3998532 0.34694204 0.1407057 -0.12803856 0.19136108 -0.023932409 -0.10081191 0.40744102 -0.3854709 -0.25059137 0.48949817 0.035499357 -0.24109282 0.09771534 -0.19991487 -0.052513063 0.40407756 0.4377207 0.46340036 -0.7391362 -0.14469668 0.94331664 -0.66882986 0.16242188 0.3398493 -0.76753014 -0.4330568 0.14627036 0.38503 -0.31364796 -0.7948967 0.9614398 0.19898142 0.28389326 0.4120741 0.37500274 -0.027638564 0.012815622 0.25378683 0.34565336 -0.06662642 0.6169776 -0.37971112 0.24137664 -0.30989897 -0.34238207 0.48763445 1.0832657 0.6389434 0.19033328 -0.19632824 0.12871258 0.6678977 0.21199764 -0.046525396 -0.036871586 -0.60828567 -0.21939029 -0.08226902 0.7151312 -0.15064275 1.0117774 0.45618922 -0.7439593 0.029533593 0.573234 0.0008935737 
de.morrox.fontinator.FontTextClock.setText -0.13703166 -0.06297672 0.9627564 0.15626487 -0.5663053 -0.22383833 0.33109143 0.050313078 -0.1298621 0.50474703 -0.49991158 -0.66748005 0.44904202 0.007485942 -0.5546067 0.43838066 0.01939031 -0.42397228 -0.45433578 0.9682489 -0.5032568 0.7324813 -0.019328399 0.3238374 0.006228326 0.52115834 -0.21133116 0.3802754 0.71550226 0.5483995 0.20957638 0.2844794 0.1909022 -0.5424108 0.39503402 -0.39135972 0.24746157 -1.0481759 -0.4072384 -0.34517944 0.41988015 0.17843574 1.0526564 -0.022773655 0.17147164 0.78552955 0.20985378 -0.08580762 0.1279754 0.0799265 -0.31680724 0.07496183 0.15598886 -0.82294726 -0.13184153 0.6634391 0.14777158 -0.022739487 -0.15856138 0.36435157 0.27476576 -0.4428711 0.18289436 -0.22303566 0.3320436 0.30564666 0.13258044 -0.6719451 0.03140974 0.028451871 -0.23551132 -0.16481502 -0.4225106 -0.36524352 0.36393762 -0.6703139 -0.5237234 -0.74565196 0.14325522 -0.1535134 -0.6375436 -0.17985673 -0.03954813 -0.34643203 -0.38280648 0.8293386 -0.30103913 -0.38518426 0.23388262 -0.13332254 -0.37561157 0.36117634 0.22226594 -0.21424758 -0.66396314 0.40109983 0.65114033 -0.73500764 0.18653846 0.3653366 0.38864213 0.04291552 -0.17133242 -0.3200813 0.13316406 -0.58907247 -0.24800634 -0.041341808 1.2156404 0.28122053 0.19229627 0.5459201 -0.6757914 -0.085031524 -0.052958295 -0.41246426 0.50006294 0.22853869 -0.1018631 -0.7290935 0.5961394 -0.5209073 0.71713966 0.23070112 -0.4321822 0.25909993 0.550723 0.09812451 
de.morrox.fontinator.FontAutoCompleteTextView.setText 0.09956608 -0.50404143 0.36194307 -0.0644056 -0.120609045 -0.18976186 -0.3730726 0.053586096 0.4379963 -0.036876004 -0.36302528 -0.5615623 0.080404446 -0.49381268 -0.39139688 -0.44203275 -0.5917729 0.4171048 0.4169979 1.0554123 -0.4022843 0.7968541 0.1864564 0.2107503 -0.31788182 0.29735747 0.17887785 0.32335076 0.5906678 0.07738126 -0.29552528 -0.22809806 0.092719436 -0.1828469 0.24793124 -0.27136502 0.76235414 -0.86020255 -0.71690166 -0.01359916 0.05529121 0.1841 0.77999467 -0.109948866 0.24313542 0.572901 0.66185343 -0.018672919 0.10495242 -0.013298695 0.027237086 0.19791786 0.42327657 0.44161358 0.009067586 0.9115851 0.26594305 0.22667085 -0.88796276 0.42185763 -0.3859779 -0.7674845 0.08584671 0.09871709 0.17269136 0.55601156 -0.058831185 -0.3151445 -0.040159214 -0.0758369 -0.7644537 0.074343495 -0.11809528 -0.028231053 -0.17697671 0.1330191 -0.6714238 0.18023099 0.5973296 0.55811286 -0.6329276 0.40707856 0.23922011 -0.38866395 0.13531458 0.3845195 -0.76413214 0.017962588 0.20185736 0.6082792 0.41181898 -0.33773538 0.5121597 0.14030446 -0.33305937 0.53116345 0.38702598 -0.6135303 0.3132661 0.11235605 0.009583865 0.17694862 -0.05453264 -0.25677758 0.24466102 -0.57389915 -0.29317787 0.17229378 1.381806 0.06318038 -0.17570668 -0.19122288 0.15739 0.3724799 0.35433125 -0.13883749 0.21733211 0.045147076 -0.16359922 -0.3060484 0.17946947 -0.42901745 1.229431 0.035879705 -0.28941733 0.3647357 0.54330844 -0.15939653 
de.morrox.fontinator.FontTextView.setText -0.17540286 0.11884596 1.283797 0.54781675 0.079249784 0.32609025 0.21102913 0.21557936 0.046408545 0.57593036 0.0019596608 -0.07828405 -0.09004003 0.5266574 0.27860487 0.22473991 0.69291747 0.10129815 0.03933723 0.30260304 0.020952616 1.1454762 0.20671745 0.10553062 0.1585571 0.58146846 -0.14136094 0.36340815 0.61060876 0.16619673 -0.12921731 0.51438624 -0.18905705 -0.2492497 -0.04832625 -0.61261827 0.8249661 -0.93551856 -0.4757909 0.10105731 0.37743634 0.62284243 0.79050046 0.012938526 0.00040364964 0.41244382 0.061578825 0.22958817 0.6686683 -0.4672171 -0.3820857 -0.038003087 -0.3207968 0.0021415297 0.12170973 0.20883408 -0.19945043 0.18644133 -0.5632524 -0.16815728 0.19234996 -0.58864623 0.0057049505 -0.34809643 -0.109086975 0.31023762 0.37203488 -0.3665314 0.7105481 -0.5329369 -0.6510428 -0.114994824 -0.63314146 -0.4128673 0.71475476 -0.21018022 0.013144847 0.24151418 0.15147147 0.20479174 -0.5565133 -0.025384065 0.27653268 -0.04113145 0.11132853 1.0150471 -0.43365556 0.051482294 0.35110927 0.4188605 -0.21484718 0.31092283 0.49866864 -0.04166766 -0.09320718 0.74958307 0.5570568 -0.43097502 0.22947349 0.48833284 -0.15116568 -0.11034376 0.21480542 0.17113088 -0.14415522 -0.5717236 0.059247885 0.23558035 0.9153393 0.2919008 -0.3924695 0.47369477 -0.43869513 -0.10269625 -0.3984802 0.5025567 0.26877925 0.33825296 -0.29886204 -0.56473964 0.7372128 -0.35860032 1.179152 0.10132755 -0.53737664 0.3636151 0.118525445 -0.18045428 
de.morrox.fontinator.FontSwitch.setText -0.06922029 -0.029120505 0.75008893 0.6897669 0.33313045 0.23593938 -0.097307466 -0.36545765 -0.5017362 -0.24722132 0.17904873 -0.8263354 0.055536043 -0.45227125 -0.59366864 0.02544843 -0.2668998 -0.45446724 0.03403517 0.62600946 -0.57502836 0.9533501 -0.50869614 0.3257569 0.032969598 -0.20750338 0.13961889 -0.3240506 0.60499066 0.26356995 -0.059059925 -0.09354965 0.05815903 -0.034562055 0.6183132 -0.5497947 0.7490613 -1.2076603 -0.49740642 -0.48720175 0.51294905 0.35085407 0.54398406 0.3352476 -0.12073862 0.39690155 0.021272046 0.15743423 -0.32587877 -0.2428744 -0.36819458 0.29350722 0.32171988 -0.059262935 0.094714604 -0.009541193 0.29294342 0.3697872 -1.054854 -0.10228757 -0.46155277 -0.5945527 -0.28852883 -0.3361154 0.38011545 -0.15915999 0.643979 -0.41692442 -0.28549665 0.12713453 -0.7181406 -0.1541005 -0.58551663 -0.545711 0.17074569 -0.24095055 -0.36339015 -0.29018012 0.39799646 -0.0838962 -0.7665345 0.6797979 -0.07267099 -0.34498107 -0.4410937 0.47012419 -0.2668596 0.05368023 0.13200499 0.4123816 0.3258969 -0.031404536 0.3758687 -0.4942671 -0.22370641 0.21473843 0.5743021 -0.08025341 0.37260035 0.5261735 0.08514103 0.3051479 0.12551431 -0.015749095 -0.12880947 -0.0013452206 -0.016790159 0.35387564 1.3155725 -0.34847283 0.03686138 0.16533625 -0.34830523 -0.25180963 0.28927898 0.37919387 0.034410294 -0.12263522 -0.3033951 -0.5874242 0.0063227382 -0.32182834 0.95798016 0.3621599 -0.2950817 0.141113 0.6197218 -0.17576711 
de.morrox.fontinator.FontToggleButton.setText -0.061001904 -0.2391366 1.092908 1.020721 -0.14588423 -0.5956815 0.22292933 0.42768234 -0.24633697 0.28307644 0.012679942 0.073572956 -0.13335378 -0.049996026 0.059681047 0.27866513 -0.11953921 0.3137186 0.0745228 0.7980128 -0.4594664 0.9534911 -0.024755476 -0.20825356 0.055502497 0.17856564 0.08878821 0.63695574 0.54863214 0.49231535 -0.3275053 0.28133535 -0.41222975 -0.14887537 0.37547773 -0.26050246 0.8909051 -1.0407987 -0.42488867 0.11084058 0.037903 0.50294435 0.060634267 -0.20782691 -0.056225736 0.14560486 0.023765925 0.24347357 0.6168704 0.3556633 0.022787603 0.50735897 -0.3294585 0.36146167 -0.38092467 0.42826563 0.37184495 0.29053155 -0.71616286 -0.23933439 -0.28154752 -0.58891195 0.25817767 -0.4799901 0.42787513 0.6481723 0.42678735 -0.26403534 0.052753724 -0.5590406 -0.7523483 -0.26299807 0.04722197 -0.9523709 0.36446875 -0.93163806 -0.16355483 0.30680674 0.078337796 0.2159509 -0.55712265 -0.37165385 0.36595938 -0.050845664 -0.3476578 0.35658017 -0.7102478 -0.3402619 -0.23004234 0.24847132 -0.53271335 -0.032525666 -0.040882073 0.4528565 -0.029488545 0.6274504 0.27080515 0.05177937 0.27914047 0.60955435 0.29473382 -0.07796867 0.113600336 -0.19469652 0.15344706 -0.4072557 -0.31695738 0.217879 1.1020571 0.3377321 -0.13178419 -0.062315192 -0.59136117 0.5384088 0.35673317 0.18034491 0.12142912 -0.055919904 -0.016863808 -0.47636107 0.52168745 0.04312719 0.79494905 0.0008149482 -0.38997746 -0.32191557 0.22218013 0.14914203 
de.morrox.fontinator.utilities.TypefaceLoader 0.15061723 -0.23244375 0.23842503 0.1626136 -0.028361106 -0.013443907 -0.18746127 0.13967846 -0.33297056 0.30463767 -0.054848295 -0.29950297 -0.20705462 0.1668571 -0.19101842 -0.17959853 0.03796126 0.07132847 0.118255556 0.081010364 -0.19719191 -0.020548766 -0.21101604 0.06508529 0.20004976 0.46621457 0.28772095 0.053626727 0.509171 0.22035728 -0.23170194 -0.11150467 0.021718679 0.37994006 0.053203467 0.13540496 0.047760606 -0.42520007 -0.1844415 0.0020805723 -0.39490655 -0.057561856 0.28273302 -0.18905093 0.4717279 -0.19280873 0.17716853 -0.30330133 -0.39061275 -0.05454367 -0.14500229 0.04771534 -0.40970474 -0.06934562 -0.07936027 0.13839628 0.4989435 -0.17282373 -0.31663343 0.18105304 0.4231746 -0.37825027 0.050833676 -0.19175027 -0.077153124 -0.09892967 0.1826156 -0.30451998 0.07355354 -0.36468276 -0.30484486 0.066828705 -0.038020447 -0.31175125 0.41937378 0.031805914 -0.47911334 -0.20695224 -0.04861148 0.12828463 -0.45498794 -0.035542477 0.18378699 -0.5408356 -0.09224493 0.4009176 -0.5497196 -0.1517377 0.41352487 0.13800472 0.03713735 -0.16721575 0.12243742 -0.3629712 -0.060044408 -0.06556996 0.08349531 0.21859735 -0.5178295 -0.10321554 0.045205664 -0.14730439 0.451739 -0.15013584 -0.13269551 0.09062117 -0.37533975 0.5876711 0.4991787 -0.18781595 -0.20102167 -0.0018404145 -0.21248601 0.4920279 0.05175978 -0.036683787 0.2517876 0.5724615 -0.0011941917 -0.13651367 0.337851 -0.28304106 0.29185733 0.033469226 -0.3122075 -0.19905992 -0.17584048 0.021936217 
de.morrox.fontinator.FontChronometer.setText -0.11045626 -0.039380964 1.0412964 0.25734207 -0.41260627 -0.40810618 -0.11394446 0.418513 -0.46253574 -0.22142246 0.08393557 -0.6636357 0.56486344 0.12553942 -0.35013485 0.5351698 -0.024330597 0.055622883 0.107442446 0.74319065 -0.34586573 0.8124651 -0.14268395 0.27249008 -0.045280945 -0.31381336 0.30467057 -0.0037629697 0.89954996 0.5632038 0.28267458 -0.03574632 -0.34699637 0.027300568 0.6517249 -0.40328094 0.8869666 -1.1732715 -0.73692864 -0.28642926 -0.07484867 0.8127061 0.93750036 0.3825643 0.12021614 0.37853137 0.29037884 0.11909889 -0.18374014 0.0656597 -0.071328074 0.38347524 0.040722825 0.14622676 -0.19054739 0.21278223 -0.272176 -0.29444775 -0.9026528 0.52001363 -0.19608113 -0.5226119 0.3609194 -0.28516778 0.34727764 -0.0059474874 -0.0191315 -0.51735234 0.25384805 -0.47884554 -0.40596715 -0.4761028 0.02168695 -0.7060836 0.28203154 -0.72710115 -0.4632045 -0.7478897 -0.047158338 -0.26605278 -0.78267115 -0.025372641 -0.30809945 0.19968466 0.15931621 0.28346372 -0.2150407 -0.25450152 0.062301505 -0.37754503 0.007322303 0.15078872 0.22609079 0.4630485 -0.8843049 0.4442469 0.29267457 -0.47938263 -0.0024738312 -0.0625604 -0.116239846 -0.034087278 0.041495424 -0.55816674 0.19142726 -0.27443188 -0.61334056 0.22838843 1.3110623 0.10806808 -0.09249879 -0.1914857 -0.27731583 -0.14473872 0.5713794 -0.16093795 -0.36298594 0.18178894 0.12257907 -0.25836697 0.08598738 -0.63654786 0.62715656 0.4453247 -0.16524847 0.14402981 0.18374215 -0.15457772 
de.morrox.fontinator.FontRadioButton.setText 0.0070015504 -0.14055857 0.40467763 0.30048394 -0.40630308 -0.34874603 0.8511734 -0.03325141 -0.02197567 0.09488782 -0.19876052 -0.4018569 0.03021847 -0.17269997 0.014065511 -0.04601956 0.18326013 0.4765153 -0.12997673 0.4409977 -0.030297456 0.358784 0.035727184 0.0126056485 -0.4853542 -0.10331373 0.428391 0.34191608 0.8917207 0.34087768 0.09857456 0.7343787 0.37361413 0.017738998 0.36707488 0.1720713 0.4706518 -0.89070576 -0.36600918 -0.32473317 0.47012404 0.9374005 0.7436019 -0.1374048 -0.0025398165 0.33008862 0.25448433 0.38881624 -0.061815407 -0.3342123 -0.5261072 0.21685322 0.16162144 -0.5257916 -0.5765341 0.7211393 -0.30056974 0.17744428 -0.34459114 0.47390172 0.13157201 0.28147158 0.5392914 -0.12386612 0.24006824 0.15159884 -0.0045790086 -0.48991635 0.36509228 -0.30573428 0.25910878 0.23907074 -0.112985924 -0.19193724 0.07921724 -0.5119322 -0.38351816 -0.099736206 0.17712824 -0.054523956 -0.6632134 -0.2307966 0.85947967 -0.62147784 0.1379727 0.51721287 -0.3860098 -0.46789563 0.18848705 -0.13905053 -0.94081485 -0.6445595 0.5830023 0.19121914 0.33666244 0.60918015 0.32704294 -0.59954625 -0.46073616 0.36942366 0.31716505 -0.13168186 0.6302295 -0.36562836 0.40130743 0.20043153 -0.30371404 0.9019091 1.144098 0.6871818 0.24681129 -0.11245404 -0.14110856 -0.085736856 0.08347909 -0.1306824 -0.27055517 -0.03308314 -0.26352233 -0.44002166 0.9314852 -0.5930644 0.6834484 0.41477922 -0.66529506 0.09331631 0.51578444 -0.11790746 
de.morrox.fontinator.FontRadioButton 0.1679699 -0.15580902 -0.11278495 0.072250895 -0.047995854 -0.43483308 -0.0782841 -0.15788585 0.76269823 0.43956077 -0.16158171 0.06188219 0.017113855 -0.5441122 -0.030687366 -0.37287825 -0.012379777 0.7732028 0.084416136 -0.082890615 -0.5378541 -0.21339196 0.55694175 -0.45938537 -0.1298656 -0.14556453 0.20606242 0.31063157 0.25134397 -0.38679215 0.75729996 0.7120263 0.4928314 -0.0052488693 -0.34715754 0.57296914 0.55886686 0.48139536 -0.3640509 -0.4366364 -0.2124209 0.5131906 0.7981525 -0.4941917 -0.0378415 0.0056321085 0.20298274 -0.11203767 0.16841733 -0.32958812 0.4134247 0.124665484 -0.32373098 -0.24334542 -0.1674646 -0.22877428 -0.0038746966 0.17058572 0.53610766 0.06176138 -0.11705557 -0.27481863 0.29925567 -0.55115247 0.030119166 -0.18443248 0.23656473 0.090843 -0.3187329 0.59454006 0.45941493 0.7611979 0.13552342 -0.09854996 -0.110099144 -0.3349776 -0.27912763 0.30364546 0.6224764 0.055467192 -0.7797199 0.19791546 0.055835694 -0.639063 0.21482703 0.706367 -0.5397779 -0.5407438 -0.008254929 0.14500938 -0.4471358 -0.4630454 0.74516934 0.50752497 0.5848542 0.59145886 0.6623396 -0.21667042 -0.037248477 0.15514003 -0.39257798 0.3497151 0.19349697 0.09130179 0.73331213 0.21544312 -0.12486596 -0.27094826 0.67841 0.51233023 0.619715 -0.11495635 0.39468607 -0.39564922 0.013255778 -0.732607 0.110882066 -0.083599426 0.44108173 0.37027177 0.014029298 -0.120684825 0.068235144 -0.58424807 -0.0012634329 0.29507422 0.25612414 -0.22668962 
de.morrox.fontinator.FontAutoCompleteTextView 0.33786893 -0.32495418 -0.32964924 0.61189556 -0.054656215 -0.27805153 -0.24995674 0.0712113 0.5910806 0.03958419 -0.19904314 0.09145795 -0.28493458 -0.80801857 -0.2822238 -0.93354046 0.078403436 0.047804546 0.50417984 0.579404 -0.09575674 -0.2747129 0.22847389 0.19147053 0.11272468 0.02597946 0.0523545 0.21881928 0.5238315 0.54320514 -0.36122808 -0.34415928 0.06250164 -0.46624094 0.08269429 0.0865071 0.223963 -0.48500657 -0.02521887 -0.14648551 0.31543022 -0.6655816 0.18628027 -0.548775 0.4980547 -0.090267986 0.25076008 -0.04154091 0.3048581 0.57534397 0.20073982 0.088475026 0.481731 0.23317343 -0.25735292 1.0955269 -0.18971665 0.075297415 -0.5286522 0.34623915 -0.1880444 -0.26784322 0.26506007 0.4249623 0.65672714 0.59396714 0.59762496 0.17357656 0.23463985 0.32077613 -0.11503968 0.38938877 -0.2083022 0.37090397 -0.40381747 0.60192615 0.15712835 0.22913422 0.42325306 0.30846784 0.055968586 -0.060564313 0.3225372 -0.2243519 0.019349487 0.4348862 -0.41844514 0.34384665 -0.45742795 0.41207874 0.087300606 -0.6524001 0.76666296 0.035946157 0.46060267 0.64953667 0.35614344 -0.060382284 0.4032319 -0.24183527 0.07375722 0.08815034 0.27520317 0.18482837 -0.1946271 -0.5114565 0.30595252 -0.41510767 0.44231138 -0.44635776 -0.36603644 -0.31404334 0.12999919 0.103901 -0.4568888 0.33452266 -0.16528335 -0.42449802 0.057313357 0.023072798 0.14244072 0.21321814 0.84984416 -0.23586023 0.09161567 0.7371224 0.21382378 0.1880844 
de.morrox.fontinator.FontToggleButton -0.19339074 -0.6103795 0.3957273 1.1308562 -0.5119095 -0.93509525 -0.016799832 0.39187112 0.008208316 0.21437196 0.13488814 -0.032556098 -0.7090337 -0.3039213 0.034693867 0.036027204 0.18014114 0.15387867 -0.0563535 0.45384836 -0.42797065 -0.44731063 -0.059154984 -0.20476608 0.360967 -0.09487967 -0.05945734 0.32833892 0.33683616 0.7098299 -0.1915627 0.35188508 -0.58823293 -0.4436648 0.12231605 0.20880227 0.4065256 -0.461759 -0.006981848 0.22954269 -0.19974509 0.011840854 0.06552302 -0.8483921 0.38114578 0.17051359 0.1937852 0.13081305 0.47964773 0.78249276 0.55027527 0.674215 -0.21775424 0.27314717 -0.37187877 -0.0040200544 0.5905462 -0.02818205 -0.6513462 -0.2716145 -0.2393529 -0.6381784 -0.17175506 0.15334868 0.3824978 0.40114564 0.57392204 0.1206945 0.30074924 -0.2907362 -0.3553491 -0.008891784 0.07977762 -0.3213187 -0.1493909 -0.51242214 0.20361638 -0.1457974 -0.14662874 0.2108313 0.36155903 -0.71188974 -0.016020982 0.26373234 -0.081732154 -0.026608856 -0.5727608 -0.066639766 -0.88418674 -0.06340286 -0.46313554 -0.10553559 -0.060783718 0.6150733 0.13414396 0.52033156 0.36825383 0.18533213 0.6728459 0.26094437 0.11418745 0.079322405 -0.16434564 -0.23142935 0.19071345 -0.42975318 0.5826788 -0.6027536 -0.02964357 0.0033647842 0.19376151 -0.4574667 -0.40965748 0.32220176 -0.17870443 -0.0083354125 -0.050886147 0.017426647 0.15001343 -0.04244679 0.16369133 0.3629047 -0.0020767115 -0.42307624 0.050482236 0.14310952 0.1892965 0.28247443 
de.morrox.fontinator.FontButton -0.20503023 -0.70729727 0.0769089 0.024420181 -0.19880968 -0.5396688 -0.063657045 0.019716047 0.54878134 -0.31169495 -0.336238 -0.07925841 -0.41458958 -0.16594003 0.13578038 0.33727956 0.5548855 1.1354655 0.040735878 0.17097488 -0.41608077 -0.4413492 0.6042885 -0.83319044 -0.44595784 -0.50415367 0.30866507 0.18666922 1.0182252 -0.22102454 0.3256849 0.4052574 0.38229138 -0.19566888 0.055185735 0.09127768 0.44127735 0.1578089 0.028018335 -0.1340735 0.20270327 0.57048243 0.4692509 -0.4883863 -0.16007711 0.41243857 -0.11086455 0.36714086 -0.15498298 -0.35786638 0.15621929 0.6611829 -0.13198905 -0.08624581 0.085711636 0.110623494 -0.78766215 -0.6118633 -0.012114222 0.030964276 -0.11871599 -0.15360267 0.092188686 -0.18748677 0.54715484 -0.52137804 0.29642794 0.196869 -0.013453811 -0.18910974 0.0075560035 0.60103136 -0.20225024 -0.24285501 0.3592227 -0.18901946 -0.6741005 0.4522354 0.46156827 0.12000814 0.021272471 0.09279077 -0.2605027 0.33529758 0.20996721 0.14325488 -0.27606648 -0.4054288 -0.5172848 0.4489337 -0.7795563 -0.87943023 0.65770245 -0.091936275 0.0141479615 0.6230797 -0.09806346 0.2008112 -0.63765067 -0.4074253 -0.038089957 0.23267457 0.1815205 -0.09208731 0.45346338 0.27692726 -0.36746287 -0.16305983 0.39189708 -0.14486061 0.3457478 -0.1186341 0.5666853 -0.1572427 0.5226597 -0.2565417 -0.3587217 -0.2766876 -0.2912788 0.11650021 0.15633574 -0.4735306 -0.36669225 -0.04198848 -0.3704445 0.32560667 0.5911552 0.1434426 
de.morrox.fontinator.FontChronometer 0.21145889 0.1101806 0.14600861 0.4566488 -0.5932822 -0.81124455 0.0612039 -0.03762083 -0.20253128 -0.6857106 0.3109087 0.011191819 0.1926136 0.08031112 0.0070677237 0.060983248 0.456637 0.2655021 0.28188998 -0.0051098694 0.020058632 -0.27851972 0.3369535 -0.029430432 0.09500397 -0.6579141 0.39753428 -0.31326368 0.87260026 0.78656995 0.49976778 -0.15722007 -0.63525563 -0.03913858 -0.19169943 -0.07350159 0.3909214 -0.68293643 -0.395456 -0.4000886 -0.06771192 0.46507508 0.7817227 -0.2613332 0.47384185 0.07785565 0.022648972 -0.11969343 -0.25450313 0.5744831 0.24182388 0.23861162 -0.17125101 0.040186916 -0.37385935 0.019971484 -0.5439045 -0.53419125 -0.65635365 0.745325 -0.12526909 -0.37610403 0.44004655 0.19865514 0.47926328 -0.31103858 -0.056837507 -0.13464542 0.46398267 -0.21542417 0.037733566 -0.050034903 0.0009206285 -0.22532514 0.049989827 -0.15487675 0.01567985 -0.43899232 -0.28287396 -0.42291397 -0.17992029 -0.42472437 -0.25880402 0.37211692 0.47873676 0.061417717 0.1557716 -0.024202324 -0.93008983 -0.6470787 -0.55345994 -0.20289716 0.40345344 0.7933674 -0.22193842 0.6667468 0.33885223 -0.34778032 0.20500806 -0.16819762 -0.36135513 -0.116434954 0.124221854 -0.03037238 0.52090174 -0.060899615 -0.14186452 0.08680836 0.28179678 0.09129535 -0.12439562 -0.6086553 -0.2810658 -0.62153774 -0.19401827 0.059770428 -0.7828457 -0.049862437 0.024931734 0.38124204 0.089982346 -0.35617653 0.3434829 0.12538461 0.28823006 0.24135484 -0.18259567 0.20539281 
de.morrox.fontinator.FontTextView 0.042376395 0.09181312 0.6669917 0.34811154 -0.2564041 0.07049591 0.038996473 0.20667498 0.27268812 0.3430887 -0.059677638 -0.15793896 -0.7060895 0.27500454 0.5071102 0.14121504 0.98969305 -0.058294967 0.010375971 0.20111385 -0.08023179 -0.22196437 0.15852104 -0.006159818 0.45143583 0.19494511 -0.21800002 0.0054299203 0.55675673 0.4330289 -0.03693139 0.5642467 -0.53111017 -0.58773947 -0.48930782 -0.21537898 0.5556292 -0.3891892 0.0027189732 0.13662589 0.023664242 0.09034256 0.7579037 -0.69277817 0.3689291 0.5018215 0.08160431 0.19229993 0.38276467 -0.28028324 0.03006646 -0.011194548 -0.32239276 -0.11016678 0.12357974 -0.22616227 0.13167876 0.09101541 -0.262356 -0.15878285 0.15491264 -0.4980585 -0.5338782 0.260588 -0.26472545 -0.20127852 0.35061345 0.124804035 0.7755855 -0.35622135 -0.22892588 0.4911408 -0.5641437 0.21358202 0.3337862 0.38462543 0.31002158 -0.02336123 0.2728714 0.07140966 0.30818474 -0.17795894 -0.038750347 0.05565375 0.4526505 0.586653 -0.20337631 0.57744616 -0.3182949 0.4133921 -0.02460151 -0.093028724 0.6169918 0.11709495 0.08351016 0.3591429 0.81738913 -0.49000302 0.54411274 0.057126675 -0.26138607 -0.057369832 -0.20916632 0.10594467 0.16027172 -0.56742126 0.7450283 -0.7256343 -0.115887225 -0.08385814 -0.17173013 0.10728435 -0.2688198 -0.2249958 -0.8201374 0.30030414 0.19671486 0.005331427 -0.1478597 -0.0631828 0.3632461 -0.041418202 0.53482044 -0.3092218 -0.04742981 0.93189204 -0.14604291 0.029833315 
de.morrox.fontinator.FontCheckBox -0.5142364 -0.056579873 -0.1372783 0.8073398 -0.15444644 -0.4289078 -0.434979 0.08634132 0.7454273 0.47722876 -0.63338387 -0.45347083 -0.14690372 -0.21597111 -0.6063452 -0.5249455 0.27038738 0.5562523 0.15674518 0.1900318 0.055006653 -0.04739796 0.12267299 -0.08329241 0.124874786 -0.3797135 -0.17504656 -0.33677614 0.72880644 -0.28096768 0.2795743 0.46286485 0.31356394 -0.29012772 -0.33004066 0.36784428 0.09821429 0.09271877 -0.3769825 -0.13182226 0.41378605 0.106871806 0.6614876 0.18908182 0.18248245 0.5370305 0.087879956 -0.46593285 0.14543015 0.21591625 0.48274654 -0.344538 0.0018907511 -0.48550987 0.38150018 -0.4710779 0.08483467 -0.6993787 -0.44699842 0.39897954 0.29740807 -0.81926364 0.30255774 -0.36247456 0.2284766 -0.29618517 0.26381826 0.31677014 0.26038578 0.493956 0.13692045 0.70467085 -0.5633803 -0.39579043 -0.27960655 -0.0958464 0.21325444 -0.099010974 -0.094432145 -0.11892185 -0.4801047 -0.31701884 -0.088879324 -0.046854828 0.7461618 0.38387817 -0.3691523 -0.2386033 -0.5564319 0.12984659 -0.23706223 -0.07799856 0.18815887 -0.38858464 0.46806583 0.6264062 0.670207 0.41989815 0.48404393 0.094289914 -0.1510122 -0.23320112 0.54091036 0.07316507 0.0544394 0.052899454 0.07742317 -0.46953434 0.27714843 -0.4632572 0.06900871 0.31275332 0.1939498 -0.39364862 -0.21150166 -0.009691533 0.23046127 -0.0019532507 -0.52715725 0.106968604 -0.052027114 -0.1199009 0.26449943 -0.31537136 0.52502745 0.7092354 -0.18029545 0.33411017 
de.morrox.fontinator.FontSwitch -0.02477722 0.09215937 -0.13621174 1.1397437 0.35013035 -0.028887054 0.07554901 -0.58549464 -0.1550014 -0.7574512 0.27279344 -0.23549537 -0.6464423 -0.5987864 -0.35917836 -0.49532932 0.15506312 -0.46222764 0.21029358 -0.053501915 -0.46024486 -0.04127625 -0.26290298 0.120778784 0.11943395 -0.5266802 0.12337502 -0.64582485 0.40185326 0.43343773 -0.10761984 -0.057433758 -0.29603106 -0.24542189 -0.30483335 -0.29624784 0.6539211 -0.6795343 -0.13280436 -0.6311304 0.35314953 -0.14168578 0.49900618 -0.3360495 -0.07373857 -0.2469796 -0.24244423 0.22688965 -0.33574498 0.42763102 -0.11375755 0.39385268 0.1129439 -0.11717208 0.11197574 -0.25260687 0.22388555 0.31200427 -0.8967207 0.08887137 -0.36231917 -0.77605176 -0.5196387 -0.061578732 0.47519094 -0.38242558 0.6979375 -0.0364179 -0.19412428 -0.058516257 -0.0672447 0.41948476 -0.38151762 -0.15207079 0.0896925 0.31845206 0.23324105 0.18651126 0.16015542 -0.30732277 0.084917665 0.43363547 -0.23528422 -0.20406975 -0.32009122 0.27885893 0.044444706 0.2608117 -0.74126804 0.38981396 -0.0074742464 -0.5508979 0.41715217 0.06397803 0.2135354 0.17002994 0.5487839 0.2929011 0.51331097 0.35879466 -0.2510562 0.16279115 0.066412844 0.26400083 0.18133233 0.4244675 0.5300565 0.2211916 0.06614376 -0.4267495 -0.114653036 -0.17823143 -0.2791034 -0.41182193 -0.10872886 0.6376648 -0.06892923 -0.50585717 -0.3222265 -0.06595011 0.03608875 0.13579595 0.6490142 0.03727897 0.11235533 0.42097983 0.4210743 0.15105152 
de.morrox.fontinator.FontTextClock 0.18352753 -0.16296852 -0.040602095 0.52520174 -0.63945913 -0.61083657 0.522847 -0.36903995 0.079781614 0.13579819 -0.1697785 -0.018524803 0.1376794 -0.094775 -0.4508444 -0.047303382 0.5546728 -0.3229195 -0.10605241 0.2082651 -0.23007685 -0.3465401 0.36117694 0.107363045 0.02398663 0.21839274 -0.1635311 -0.0012524762 0.44508654 0.5417626 0.25881138 0.23100288 0.20822649 -0.62721914 -0.11726914 -0.012504831 -0.31819692 -0.5755707 0.17324139 -0.39969367 0.3151205 -0.28159612 0.77391666 -0.6212131 0.5235673 0.41161335 0.13606106 -0.36213 0.19094966 0.8468313 -0.14457001 0.20052287 0.20086484 -0.894533 -0.32121485 0.55245066 -0.01832996 -0.23533772 0.20320657 0.4609908 0.45824072 -0.4983057 0.25638372 0.18920387 0.5052374 0.2632904 0.24189793 -0.26650387 0.20507713 0.29897636 0.20303227 0.1368203 -0.37528637 0.29696372 0.039838478 -0.068909414 -0.027736543 -0.48430943 -0.045989342 -0.15997025 0.18530631 -0.35485 0.10511882 -0.057765696 -0.33202878 0.6226216 0.13623352 -0.17355123 -0.63330436 -0.36469358 -0.97589225 -0.066324 0.20920187 0.13333623 -0.0008418086 0.6737082 0.6895107 -0.64009094 0.4357445 0.16528383 0.12726955 -0.3042795 -0.28704622 0.1960922 0.31533805 -0.2539291 0.38680658 -0.066990316 0.25353697 0.17195344 0.28608683 0.04880825 -0.49072063 -0.41220513 -0.8335596 -0.21415608 0.26900283 0.11779721 -0.2002754 -0.36803773 0.65126747 -0.14169975 0.5085464 -0.38926747 -0.15560001 0.2683226 0.38064498 0.2665001 
de.morrox.fontinator.FontEditText -0.23327604 0.055050656 0.47077498 0.97777027 -0.05091713 -0.3525313 -0.088984735 -0.41239408 0.003902175 0.36054608 -0.06662081 0.5960224 0.21519816 -0.22664599 -0.2338664 -0.045729402 0.3190203 0.5800576 0.62350297 0.50349706 0.09935791 -0.19290173 0.14690165 -0.25642723 0.24759255 -0.5641081 0.4176049 -0.13264656 0.17270827 -0.30182952 0.7895347 -0.17359355 0.566931 -0.20630008 0.3347421 0.23464635 0.63688505 -0.48455423 0.58849883 -0.24829146 0.11192195 0.015589643 -0.24482627 -0.11001781 0.40087146 0.27657652 0.38863015 0.13707882 0.28866285 0.19833584 0.2955023 0.25800073 -0.23848428 -0.14019878 -0.31771886 0.08089754 -0.43114072 -0.09289646 -0.46252444 -0.22127892 -0.2172267 0.066234276 0.59666353 -0.6710259 0.5281205 0.44132078 0.7136136 -0.15559255 -0.16750318 0.20532507 0.070418224 0.91252816 0.08500484 0.11502117 0.015764412 0.006346655 -0.4146754 0.5458032 0.12441904 -0.07800377 -0.106884345 0.08177476 -0.040513575 0.4599724 -0.23853083 -0.12273233 -0.70812315 0.37839225 -0.19502133 0.07796203 -0.34472734 -0.7404121 0.48969015 -0.57604736 0.9926543 0.5324596 0.17616968 0.3320104 0.24773413 -0.07508101 -0.23963332 -0.11094145 0.20945922 0.47433916 0.39692855 0.38695562 0.52756435 -0.11722717 0.15338899 -0.30652505 0.1793164 -0.61928594 -0.16235077 -0.2359107 -0.0850859 0.6860199 -0.23519626 0.08297781 -0.24417819 0.13996203 0.23498675 0.19126579 0.08209979 -0.31842753 0.23212752 0.2740625 0.20679474 -0.3587373 
de.morrox.fontinator.utilities.TypefaceLoader.createLetterSpacing -0.3557763 0.095595255 0.36899537 -0.02163917 0.06605867 0.034196764 0.4688467 -0.076373704 0.12247698 0.23753452 0.11455009 0.24586266 0.2885929 -0.5435856 0.32017702 0.057428923 0.2808736 0.55442965 -0.254184 0.09528837 -0.42825565 0.040781677 0.20422937 0.43654582 0.13076153 0.33935207 0.2390789 0.31139925 0.25096396 0.6310909 -0.18256772 -0.04879484 -0.23041101 0.041378874 0.4317744 0.42308086 0.13510473 0.121499754 0.024702828 0.3004035 -0.038863804 0.097282924 0.08100338 0.3502319 0.51503 0.48681712 0.39377728 0.41755235 -0.5198224 -0.31464216 -0.033882085 0.04895684 0.2891827 0.3714686 0.3248059 0.35042188 0.17397946 0.3742145 0.034928747 0.03959614 -0.30922544 -0.23572768 0.05644076 0.0987443 0.10825975 -0.2715133 0.12416117 -0.24445435 -0.64842147 -0.00493706 0.0355106 0.19290611 -0.20610242 -0.05839323 -0.04565911 -0.5112725 0.1532592 0.044574015 -0.4106893 0.025524678 0.043270677 0.0047541503 0.21037503 -0.3195052 0.0061510275 0.27649456 0.26273623 0.06437221 -0.08084591 -0.34787637 -0.0241773 -0.09884111 0.31076205 -0.07162886 0.009528654 -0.14410298 -0.07462704 0.098746754 -0.028233271 0.4449433 -0.122239724 0.1704495 0.30880663 0.37987733 -0.27433133 0.14595349 0.16598798 -0.15035751 -0.24683692 0.054369174 0.01729146 0.3205495 -0.18890099 -0.3692775 0.21044943 0.3716447 -0.14523368 0.27494305 -0.12085134 0.030417645 0.35016972 -0.16936013 0.01331011 -0.0092666615 -0.10711928 0.29548666 -0.08634416 -0.00029793067 
de.morrox.fontinator.utilities.TypefaceLoader.setFont -0.6243296 -0.123660706 0.15887102 0.1402697 -0.058202736 0.35305697 0.21972045 0.09967734 0.017990751 -0.21321826 -0.13581324 -0.09213792 -0.64048445 -0.55431134 0.05674621 0.26269117 0.27748805 0.26471388 0.048263136 -0.40380064 -0.22928505 0.16647764 0.16829424 -0.06395882 0.3637593 -0.14496002 0.5010204 0.16224076 0.37799186 0.2532759 0.21952322 -0.48289192 -0.44137058 0.44322684 0.19972993 -0.14068373 0.14275695 0.55006266 -0.17580383 -0.5301565 0.13986462 -0.022145716 0.176385 -0.26503998 0.5730568 0.12419549 -0.27110603 -0.7906102 -0.19336316 -0.184117 0.38348517 0.18462723 -0.28783482 -0.047991965 0.78093225 0.1299156 0.4976006 -0.17958023 -0.04899544 0.4352569 -0.19468112 -0.099846944 0.22566304 0.01800086 0.20485462 0.36243993 -0.017538479 0.022307089 0.061991055 0.09142633 -0.0066665392 -0.11808803 0.056951247 0.160011 -0.22253492 -0.3381347 -0.52165306 0.7799302 -0.3373209 0.23434892 -0.2644721 -0.0236994 -0.34764406 0.23318377 0.10116418 0.24596372 -0.19498721 -0.16642039 0.34941474 -0.19767186 0.298517 -0.34741268 0.42870125 -0.6194684 -0.150287 0.29043925 -0.45627785 -0.44148427 0.20675018 0.30957168 0.26140365 -0.03804593 0.30018613 -0.1860171 -0.16796802 -0.09700559 0.35618463 0.13679665 -0.038711734 -0.029554032 -0.16888742 0.4741968 -0.45677948 0.05699889 -0.19660597 0.22438417 -0.061966345 0.098039664 0.37265584 0.43391317 0.25472346 -0.23122248 -0.22886549 -0.25849003 -0.30689356 -0.39574102 0.15659611 0.1333051 
de.morrox.fontinator.FontToggleButton.setFont -0.38642353 -0.1342246 0.7396642 0.8890819 -0.662746 -0.17649847 0.4093295 0.38604903 0.09216356 0.1374944 -0.04207874 0.37093517 -0.31983924 -0.12707768 0.04339455 0.70584327 0.21815905 0.3935021 -0.09140939 0.34116715 -0.96640164 0.13323078 -0.009175335 0.14544573 0.6892702 0.37592405 0.360972 0.9650179 0.40468016 0.41134307 -0.7661701 -0.033112798 -0.31297007 -0.200448 0.042379208 -0.30143532 0.64509845 -0.43102488 -0.53477275 -0.32365093 0.29693064 0.1711733 0.03817747 -0.6235175 0.034534283 0.15118194 -0.06740189 -0.4069872 0.3202776 0.54782456 0.43364787 0.57983994 -0.72167104 0.27985555 -0.7048024 0.14019316 0.59804755 0.041384447 -0.37309128 -0.3299349 0.23990646 -0.72618484 0.4510882 -0.5314812 0.47863138 0.65584487 0.63524616 0.31614426 0.28444225 -0.61364204 -0.26457232 0.35376304 0.55863935 -0.6749039 0.38959637 -1.0651708 0.044561688 0.04157142 -0.16904873 -0.009212036 -0.7998365 -0.38019237 -0.0034310897 0.03228557 -0.4433674 0.30880463 -0.5132205 -0.3225493 -0.25471362 0.398812 -0.17223376 -0.32261842 0.07080201 0.52346647 -0.036895446 0.48704985 -0.04639058 0.2574832 -0.12983227 0.6531729 0.2928675 -0.119082645 0.24113445 -0.2612603 0.24683152 -0.37963966 -0.016704869 -0.1497934 0.36537835 -0.00801734 -0.2305706 -0.06807755 -0.73538536 0.32018074 -0.13799337 -0.07337131 -0.13285662 0.20929731 -0.13013625 0.0075338343 0.16168399 -0.16232917 0.38394785 -0.48267457 -0.43008986 -0.70884883 -0.18636888 0.45042762 
ToggleButton 0.09186316 -0.24857554 0.3991215 1.0266572 -0.52994734 -0.45563343 0.1264679 0.33979535 0.2980047 0.41186678 0.29124352 0.50132567 -0.54873806 -0.37944245 0.4286058 0.21177065 0.23061168 0.26931038 0.26772532 0.34677646 -0.35931674 -0.15707463 0.2870705 -0.7381112 0.13071956 -0.14254738 0.02321519 0.7196493 0.23524462 0.032968905 -0.292549 0.56094843 -0.5208651 -0.5362481 0.058343455 0.16368163 0.6167855 0.034315158 0.3652523 0.20480666 -0.09312007 -0.033136953 -0.36784506 -0.18747416 0.17152877 -0.032192577 -0.28876308 0.079811275 0.8068049 1.027012 0.34755114 0.78093773 -0.637705 0.11443993 -0.18418048 0.44950402 0.36468473 -0.044216357 -0.17215727 -0.61119485 -0.025556639 -0.47476378 0.09395819 -0.29923645 0.49751014 0.5619044 0.62582797 0.08138284 -0.0020088353 -0.16116644 0.0547392 0.27634814 0.0377037 -0.18005726 0.37509343 -0.7137968 -0.027014965 0.575631 0.09231974 0.20066866 -0.15981638 -0.51766205 -0.066764496 -0.0940798 -0.5644183 -0.07988377 -0.1684903 -0.33472216 -0.20018378 0.33363274 -0.8689331 -0.2866213 -0.053087845 0.4539722 0.5453254 -0.14492399 0.11590448 0.35323954 0.30773243 0.1899541 0.06487421 -0.1646923 -0.18986838 0.32020262 0.32501307 -0.08152766 -0.092932686 0.01125995 0.31274065 0.4142413 0.047778036 -0.3296566 -0.50669914 0.28084192 -0.2492319 -0.20176119 -0.24215169 -0.070850596 0.26286656 -0.19850545 0.46838927 0.35465747 0.4278587 -0.20292513 -0.41680655 -0.3010913 -0.09191247 0.22239217 
de.morrox.fontinator.FontCheckBox.setFont -0.87092984 -0.17100537 -0.33432373 1.1151252 -0.2724234 -0.1066242 0.11780641 0.18728483 0.41478935 0.03500491 -0.089387916 -0.3715879 -0.111856095 0.116597265 -0.84998137 -0.24420159 0.23889238 0.08371246 -0.10236586 -0.22971578 -0.56148964 -0.012605154 -0.42197937 0.4742229 0.26651213 -0.12054789 0.52674526 -0.12065656 0.69680613 -0.036422938 -0.76911503 0.32151923 0.15587819 0.6057147 0.10591099 -0.075907156 0.7810438 0.11386761 -0.6040514 -0.49322757 0.5451828 0.31101474 0.82679117 0.079483695 0.5018327 0.38742375 0.13980827 -0.63634753 -0.5649029 0.18064798 0.091911815 0.024272153 -0.27219185 -0.14297724 -0.18581231 -0.2782434 0.59539694 -0.40015024 -0.81441045 0.26089808 0.5501832 -1.1763831 0.57900786 -0.1740682 -0.10488061 -0.39554045 -0.02575419 0.586805 0.5212371 -0.13928734 -0.1511824 0.5390557 -0.060079794 -0.6098829 -0.101178 -0.418114 0.6332632 -0.19598803 -0.33496755 -0.056980614 -0.82575476 -0.32369608 0.1906308 -0.20578429 0.44433197 0.6126518 -0.21949433 -0.21425423 -0.059444185 0.46597493 0.0818907 -0.19155939 0.7206518 -0.080968015 0.21772118 0.3830578 0.36668608 0.55310863 0.2650859 0.379885 -0.20292556 -0.65790886 0.64793885 -0.16192824 0.05821166 0.1849449 0.010907627 0.18325838 0.4163405 -0.43158403 -1.0499061e-05 0.021117153 0.0065906867 0.0679259 -0.50610745 0.20103171 0.18176153 -0.04063742 -0.7252349 0.39177155 0.25683746 -0.38364577 0.6867717 -0.2256844 -0.115531124 -0.27210775 -0.24399337 0.49180573 
de.morrox.fontinator.FontChronometer.setFont -0.4536216 -0.003412361 0.5390518 0.2438818 -0.6458982 0.014324107 0.07118836 0.20528068 -0.19067097 -0.5267108 0.074458614 -0.29169115 0.3246828 -0.104142174 -0.47417197 0.87945545 0.270521 0.16422877 -0.013507831 0.28657585 -0.9003829 0.08371065 -0.13981235 0.5819984 0.55903745 -0.19015683 0.58656776 0.1822538 0.6903734 0.4333959 -0.14609964 -0.41150922 -0.13090079 0.03806452 0.3170652 -0.528196 0.71041054 -0.52412874 -0.8149647 -0.73339987 0.21235369 0.45951155 0.8400521 -0.045195937 0.2566874 0.32057872 0.15141103 -0.47601926 -0.4671639 0.12948251 0.3557525 0.45224655 -0.2613879 0.19028416 -0.42750803 -0.18791127 -0.12215082 -0.43254215 -0.5371225 0.42468652 0.14405277 -0.69292444 0.473632 -0.2777275 0.44393823 0.022046372 0.17829624 0.17830426 0.4273497 -0.503476 0.06258835 0.1380666 0.5023992 -0.4026508 0.19956939 -0.7861466 -0.20397516 -0.76733655 -0.19834344 -0.43541542 -0.8345696 0.10219749 -0.6932214 0.38530928 0.06639248 0.30970684 -0.030868875 -0.08521153 -0.026892005 -0.07576079 0.42777562 -0.28940222 0.42500335 0.47802746 -0.83683467 0.45578542 -0.09189867 -0.23442556 -0.34342936 0.0007036885 -0.17814253 -0.07228505 0.067295425 -0.5386504 0.2966282 -0.1388856 -0.1270496 -0.21993491 0.46188796 -0.25566337 -0.16396034 -0.21556084 -0.2917455 -0.37781835 0.11024799 -0.25575438 -0.5572767 0.26881158 0.03572465 0.27734894 -0.29029465 -0.7298326 0.09183226 -0.1503254 -0.0930798 -0.21163277 -0.113314345 0.095881276 
de.morrox.fontinator.FontTextClock.setFont -0.45824966 -0.025444768 0.42301327 0.20852599 -0.7128584 0.15533414 0.45490178 -0.25730696 0.020921966 0.13920294 -0.39494547 -0.2310158 0.24068423 -0.19301991 -0.76845294 0.70679086 0.28468123 -0.3729406 -0.53499794 0.59877115 -1.0244206 0.02712567 -0.020775126 0.6968982 0.6141346 0.6483953 0.12285558 0.5069037 0.39711604 0.44083107 -0.20037915 -0.13065003 0.51021624 -0.47834495 0.10596261 -0.5659189 0.17058304 -0.47767955 -0.46524438 -0.76592165 0.65260166 -0.084751755 0.908748 -0.38776183 0.32085192 0.6245719 0.08630435 -0.5563129 -0.136882 0.13348 0.03820045 0.22352333 -0.17460002 -0.69648033 -0.47021922 0.22917022 0.20226292 -0.1401663 0.20493424 0.20658505 0.54023254 -0.55426335 0.30176786 -0.19263814 0.40672565 0.35470894 0.3763074 0.0057149483 0.18891321 -0.02573136 0.26253018 0.45623907 0.18239893 -0.0064750845 0.25370592 -0.7031823 -0.30561164 -0.79499876 0.018338805 -0.32466763 -0.6104918 0.033145588 -0.40989503 -0.1753079 -0.56045085 0.8524044 -0.19709688 -0.18401872 0.23702732 0.17903839 -0.0031332627 -0.11014473 0.47563648 -0.18111981 -0.63658625 0.4012286 0.24808323 -0.44087693 -0.21065864 0.34916264 0.25806588 -0.0036300851 -0.17466693 -0.22990681 0.18330623 -0.37652087 0.30628026 -0.49386808 0.44658804 -0.07303677 0.21065213 0.4017739 -0.5855506 -0.28436056 -0.47018784 -0.4763516 0.30396318 0.3564644 -0.11772664 -0.22423866 0.28890455 -0.52464974 0.1465439 -0.36395308 -0.28695494 -0.0436782 0.3339379 0.25846282 
de.morrox.fontinator.FontSwitch.setFont -0.37206557 -0.025070682 0.27832127 0.6422716 -0.002690571 0.60891664 -0.055939473 -0.3826069 -0.16902956 -0.50237864 0.13286437 -0.46571025 -0.21780545 -0.59541315 -0.6950391 0.19789681 -0.051938172 -0.36694893 0.0035762114 0.20392935 -1.0417345 0.23060702 -0.4596393 0.6560846 0.59870136 -0.07372842 0.42884582 -0.10785415 0.44849253 0.146941 -0.5117347 -0.48612377 0.23450004 0.023893429 0.27850848 -0.6321641 0.5999447 -0.5868999 -0.58105135 -0.9047747 0.6951667 -0.057013303 0.44889134 -0.09658434 -0.06686935 0.19989733 -0.16600233 -0.436286 -0.60902554 -0.07856043 0.0074674743 0.38917518 -0.0005679373 0.007083515 -0.23296487 -0.26328287 0.45094663 0.118886545 -0.8070649 -0.18187834 -0.0051218797 -0.76664835 -0.034317706 -0.41509497 0.46825656 -0.14925152 0.8219854 0.25692815 -0.0999736 0.08523374 -0.33816838 0.4629254 -0.059660073 -0.34561756 0.1484181 -0.26196364 -0.10262818 -0.3826756 0.21901073 -0.28210953 -0.9125165 0.7161146 -0.3934961 -0.23848526 -0.49537918 0.41683885 -0.14088295 0.118725255 0.08327555 0.6972415 0.7108183 -0.38197106 0.5450062 -0.45271942 -0.18830574 0.14273517 0.19791034 0.25041118 -0.032821782 0.40302855 0.06045344 0.22001435 0.29615843 -0.07336197 -0.07083993 0.071884274 0.23978329 -0.033571552 0.69606423 -0.8208438 -0.09198142 0.0963889 -0.36246616 -0.30654633 -0.05145538 0.25465223 -0.08528871 0.02019389 -0.3491486 -0.08422483 -0.32105643 -0.39692962 0.5941042 -0.17192277 -0.17608733 -0.20278507 0.30722138 0.18592143 
de.morrox.fontinator.FontEditText.setFont -0.61454856 -0.25906038 0.86901665 0.5395734 -0.46182233 0.37237468 0.09373543 -0.14155518 -0.10529738 0.25524363 -0.05675585 0.19435567 0.14425129 -0.07859998 -0.3516767 0.6362061 0.30635023 0.40972212 0.13913214 0.49495408 -0.690912 0.08132176 0.014887842 0.24101266 0.56661814 -0.008881208 0.7420253 0.40153965 0.2009476 -0.22911386 0.22299363 -0.41624463 0.7230802 0.12755011 0.6380648 -0.2057036 0.84086657 -0.46425194 0.053131506 -0.57693845 0.5018139 0.27978888 0.11441516 -0.3324616 0.11916716 0.4885429 0.16391356 -0.36030123 -0.3464722 -0.38109803 0.090235636 0.6044274 -0.4167379 -0.07202276 -0.6989104 -0.12689054 0.07227384 -0.07954346 -0.44373652 -0.5053779 0.2563478 -0.10387659 0.8367525 -1.026019 0.3400687 0.24685645 0.76673627 0.07050494 -0.08505698 0.033340067 -0.23317021 0.79875076 0.5007092 -0.25253478 0.24170429 -0.6564939 -0.61003506 -0.08621705 0.080374524 -0.19966967 -0.9878727 0.4160393 -0.12301169 0.10353102 -0.5021795 0.1792014 -0.6561737 0.15767881 0.48136258 0.43586552 0.21310754 -0.47657588 0.59582806 -0.75748986 0.30824694 0.38028088 -0.040461883 0.111815885 -0.41020262 -0.039644625 0.016654555 -0.0735304 0.5007943 -0.059711512 0.3224241 0.03843504 0.28806722 -0.051916365 0.8982692 -0.61542684 0.34021273 -0.36251536 -0.37102377 -0.1068799 0.030780274 0.22886808 -0.004248676 0.46969432 -0.095480256 0.028515218 0.074691154 -0.19258429 0.13806932 -0.35737285 -0.19472179 -0.38062146 0.30175233 -0.14587988 
de.morrox.fontinator.FontAutoCompleteTextView.setFont -0.22371608 -0.49299133 -0.13507386 -0.13456698 -0.43040395 0.23248929 -0.29065236 -0.11897805 0.7588456 -0.28737587 -0.36296317 -0.1850793 -0.07892531 -0.60319275 -0.5561975 -0.19893095 -0.31484365 0.50172776 0.29703948 0.6487647 -0.92465484 0.06557947 0.25424296 0.56066024 0.24923523 0.5014665 0.3989276 0.509968 0.34810993 -0.08588548 -0.7554684 -0.57310414 0.35245284 -0.1765875 -0.045073546 -0.41156533 0.58165616 -0.27137154 -0.75763136 -0.4065885 0.34668553 -0.12791194 0.670405 -0.48194385 0.2927008 0.5211784 0.54503053 -0.54193056 -0.20041828 0.061010424 0.35238555 0.3059285 0.15096813 0.45470238 -0.29423016 0.60579157 0.41754863 0.034051545 -0.527959 0.2396095 0.033138815 -0.9052608 0.23487844 0.08119085 0.27858114 0.54325277 0.19253892 0.34184787 0.066606686 -0.073334135 -0.3622996 0.6855771 0.38777584 0.22319302 -0.18986103 0.08512787 -0.38728616 0.060517594 0.43343046 0.3719649 -0.7469551 0.5207449 -0.06527849 -0.30702356 -0.037067723 0.43016768 -0.5848777 0.11926088 0.15717421 0.89623284 0.798734 -0.6795115 0.71060437 0.11591154 -0.33615023 0.45762208 0.044273335 -0.29989585 -0.095385574 0.07797666 -0.050981056 0.09454409 0.034222443 -0.18275012 0.27597064 -0.47109985 0.072886065 -0.24214302 0.696374 -0.36164302 -0.16774774 -0.20470756 0.18859392 0.19600968 -0.06686784 -0.242158 0.11303333 0.22943144 -0.27411127 0.18954848 -0.138271 -0.50175273 0.80850905 -0.5712089 -0.24710146 0.052845936 0.2654491 0.15473384 
de.morrox.fontinator.FontButton.setFont -0.31420752 -0.30194527 0.14279911 0.28006452 -0.49506068 0.04987349 0.42756414 0.3104626 0.64683115 -0.2048324 0.02056965 0.11091805 -0.59488016 -0.16756274 0.39388305 -0.008970621 0.37233993 0.54730374 -0.13638034 0.061166577 -0.75746846 -0.4520916 0.03215229 0.44154468 0.25293145 0.16949527 0.7381496 0.53087103 0.6984916 0.35413745 -0.7115248 0.37634754 0.012173578 0.09462754 0.09646642 -0.059668574 0.8901709 -0.18197978 -0.42421392 -0.56024534 0.30484498 0.3178486 0.47712514 -0.95368814 0.041662864 0.059867546 0.1571693 0.23726958 0.0001590505 -0.4550615 0.032973297 0.29520702 -0.3965001 0.45601904 -0.78515506 0.66875106 0.19832999 0.40038416 -0.22828028 -0.17533857 0.13138771 0.30429825 0.5579782 0.18036246 -0.10721407 0.18958345 0.19547549 0.40947255 0.6595343 -0.4541957 0.04719587 0.8986611 0.53645295 0.022967154 0.016256902 -0.1196638 0.073123895 0.11083493 0.2846273 0.22822176 -0.6789391 -0.00052923814 0.6569521 -0.52242297 0.0037120662 0.3151948 -0.57628524 -0.25647542 0.06826987 0.5733337 -0.06903883 -1.0809468 1.1372765 0.25645474 0.26117337 0.46230665 0.050209768 0.09228813 -0.3306437 0.17796737 0.2596493 -0.106137104 0.73576826 -0.40277058 0.25232518 -0.22989967 0.14371014 0.072086275 0.5594762 0.1255423 0.12485718 -0.37265807 -0.0019316857 0.49404773 -0.20856355 -0.05813037 -0.12504539 -0.41431063 -0.17541578 0.24312897 0.5156614 -0.1549964 0.61926997 -0.07527641 -0.5440257 -0.29771668 0.38867298 0.24858867 
de.morrox.fontinator.FontRadioButton.setFont -0.31739596 0.046188865 0.0156669 0.33956516 -0.6445352 0.2353423 1.1393545 -0.10951437 0.086419225 -0.31069535 -0.14646861 -0.028602183 -0.30168113 -0.371779 -0.05933335 0.33637246 0.4666124 0.20754738 -0.35217717 0.050832182 -0.5474592 -0.2561998 -0.077111065 0.5603807 0.16488339 -0.01959142 0.7909781 0.53612745 0.6379207 0.27454138 -0.5618811 0.34871417 0.4931494 -0.07506151 0.13823794 -0.13520929 0.339248 -0.25590238 -0.4583952 -0.7343738 0.77881336 0.5484949 0.48488867 -0.36636037 0.013836505 0.12449971 -0.08614223 -0.061215296 -0.23855302 -0.14642702 -0.26378465 0.32400984 -0.12762201 -0.41547588 -0.87826306 0.38156727 -0.122648 0.118279725 -0.07281552 0.2399812 0.5097516 0.14910227 0.58720213 -0.12697159 0.19393772 0.25781605 0.14664997 0.1484439 0.60948783 -0.37933233 0.7839501 0.7681082 0.48784557 0.07102752 0.031845693 -0.65118223 -0.04681213 -0.34706384 -0.041956097 -0.2073515 -0.6602088 -0.026383948 0.42698905 -0.46519965 -0.091968484 0.33200613 -0.044253387 -0.35205963 0.2312195 0.19310407 -0.5734504 -0.91694814 0.6164178 0.34782812 0.25999987 0.37774202 -0.081278585 -0.25637874 -0.7835022 0.44265205 0.3647586 -0.23007639 0.6213472 -0.3588148 0.41387922 0.35261512 0.16638464 0.49153498 0.41554514 0.37058243 0.16318469 -0.17865108 -0.23234583 -0.2235749 -0.3367767 -0.2002401 -0.46063924 -0.012833429 -0.32050988 -0.20024513 0.6527115 -0.5145612 0.21037535 0.025732435 -0.52015245 -0.35110164 0.26045945 0.13189554 
de.morrox.fontinator.FontCheckedTextView.setFont -0.46504045 -0.0826266 -0.20868497 1.1001832 0.0026469792 0.19635648 0.14332406 -0.46410218 -0.097724825 -0.35607716 0.62703186 0.22107677 -0.031629693 0.20066795 -0.48179087 0.11070787 0.5126906 0.3443768 0.16286372 -0.10706704 -0.7462048 0.13364996 -0.08472639 0.40346053 0.18326697 0.25297007 0.76491743 -0.068026744 0.34442425 -0.17304549 -0.6369065 0.18312547 0.33988446 0.6126178 0.08163393 -0.54795825 1.0415155 -0.34439194 -0.48626086 -0.39336243 0.25821298 0.8413519 0.6357512 0.14817064 0.6817466 -0.020030122 0.07034572 -0.17670928 -0.24984337 -0.19265795 -0.0024123508 0.40729272 -0.6867229 0.45740014 -0.36002257 -0.3054147 -0.017968178 0.039598204 -0.5195912 -0.21635786 0.121734574 -0.8110236 0.36890292 -0.029683998 -0.042729624 0.0462664 0.06734336 0.3926665 0.69870776 -0.6782382 0.080034904 0.46230474 0.35851622 -0.039343774 0.25981683 -0.38894612 0.077678986 0.2498695 -0.16365705 0.19457269 -0.4815219 0.3569875 -0.0928017 -0.15775684 -0.21946456 0.71378434 -0.32073426 0.007522708 0.38706687 0.48014593 -0.10484852 -0.6918835 1.0390038 0.14346702 0.007445465 0.44549593 -0.05440283 0.4495037 -0.41754687 0.21443237 -0.57659525 -0.575641 0.20405756 0.32493964 0.16236556 0.5703412 0.37819672 0.6879901 0.41287923 0.23156267 0.050867636 -0.42913413 0.008144516 -0.043505132 -0.55654144 0.27414608 -0.2601311 0.25690424 -0.30781963 0.37025496 0.59515595 -0.41880798 0.5395233 -0.30469468 -0.42047575 -0.5029084 0.08964849 -0.15395778 
de.morrox.fontinator.FontTextView.setFont -0.47909346 0.1518186 0.83746797 0.5307197 -0.22450453 0.6686469 0.33844048 0.07095283 0.29717687 0.3067225 0.009502621 0.2758161 -0.24715726 0.3695286 0.1299846 0.5173322 0.9557821 0.20988172 -0.052383233 -0.13722236 -0.5087857 0.40270245 0.24227811 0.45078847 0.72532636 0.69961774 0.16871843 0.5287946 0.4255944 0.06799934 -0.5219963 0.12577404 0.05092448 -0.19306533 -0.3504573 -0.6700857 0.66596985 -0.3567632 -0.56150424 -0.36198747 0.6400522 0.27856654 0.7515504 -0.39670068 0.04851536 0.2867639 -0.07868822 -0.3507836 0.32449874 -0.3612735 -0.026597327 0.032509062 -0.6315412 0.025686698 -0.2308097 -0.12912557 -0.07069932 0.018787026 -0.2382431 -0.29771516 0.6068397 -0.72300905 0.25282755 -0.47183582 -0.026767096 0.24405225 0.623775 0.25537276 0.83829415 -0.54815537 -0.20962824 0.48769298 -0.15176079 -0.20385014 0.6624525 -0.28614354 0.2637085 0.076704 -0.03587222 -0.04359766 -0.741666 0.07305726 -0.05030622 0.04837513 0.0024183912 0.9952069 -0.25709492 0.13549258 0.2614249 0.63908803 0.13681658 -0.05328872 0.6661156 -0.028215837 -0.04059518 0.7097698 0.20819415 -0.11604214 -0.19014157 0.4907504 -0.2085569 -0.16140679 0.35855663 0.1861208 -0.080877714 -0.43470085 0.3891031 -0.16140893 0.2852207 -0.16191582 -0.4391476 0.4016633 -0.4634513 -0.29245344 -0.7391421 0.3590641 0.105165824 0.48963588 -0.39837474 -0.060899623 0.36721694 -0.4450082 0.71761197 -0.42572334 -0.4517465 -0.011778635 -0.18193987 0.111318305 
de.morrox.fontinator.utilities.TypefaceLoader.TRANSFORM.findByValue -0.45845908 -0.433646 -0.049182232 0.15032387 0.17066383 -0.09200983 0.1202014 -0.23962408 0.03592898 0.18148021 0.28750345 -0.16462643 -0.10377001 -0.32693797 0.2722745 0.5234382 0.21354881 0.64993197 0.124569334 -0.26192418 -0.39935446 -0.058674436 -0.1710967 -0.29865208 0.14959 0.56092757 0.25502953 0.28983557 -0.027137008 0.44471687 0.1800245 -0.28561115 -0.1641102 0.4774042 0.0008432234 0.8477479 0.13773651 0.051579274 0.17334776 0.14627735 0.094136514 -0.336874 0.32984027 -0.0838897 0.60027534 0.4525765 0.25386617 -0.24026859 -0.6200055 -0.013467738 0.38243684 0.3649882 -0.2262786 0.35502213 0.15259306 0.24701665 0.3108143 0.046844598 0.18404162 0.16250084 -0.12693807 -0.42658526 0.44818464 0.12747131 0.33750993 -0.3373849 0.30336538 0.07570623 -0.0047794827 -0.059380095 -0.10294676 0.0023207285 -0.39781737 0.26064587 -0.13216929 -0.53587294 -0.32278648 0.31585804 -0.28332376 -0.01902955 -0.33802596 -0.22972596 -0.075453974 -0.20132056 0.0929759 0.4179843 0.08668293 -0.058106206 0.051894534 -0.1646757 0.11330903 -0.24333273 0.38618925 -0.6759544 0.035937417 -0.035743043 -0.35244352 -0.052398544 -0.01211707 0.3753956 -0.10809749 0.29254887 0.596173 0.0060965177 -0.4006667 -0.18874937 0.22807024 0.24644656 -0.14020224 -0.40133908 -0.32832247 0.37438944 -0.47853258 -0.36276045 -0.34989804 0.026321111 -0.3721019 0.18644974 0.16007394 0.2763177 0.2402285 -0.5200679 0.16293585 0.2219266 -0.45317593 -0.07488483 -0.2340375 0.10197119 
de.morrox.fontinator.utilities.TypefaceLoader.TRANSFORM -0.1562882 -0.6159896 0.5232947 -0.1065566 -0.050096385 0.5647094 -0.15929136 -0.15391873 -0.03326088 -0.28089523 0.4433766 -0.043263797 -0.48453653 -0.39192495 -0.54288405 -0.08438447 -0.022203207 0.46652597 0.23360546 -0.05792911 -0.60068095 0.31038424 -0.23776779 0.34281293 0.9636255 0.60826355 0.46157014 -0.34270924 0.6995265 0.15134536 -0.33277646 -0.2114579 -0.34703782 0.37948337 -0.14823703 0.034692258 -0.21812399 -0.019962704 -0.1567409 -0.12383654 -0.22899055 0.25105616 0.13730785 -0.11727915 0.46423635 -0.14720118 -0.11403322 -0.44049713 0.21441329 -0.0074599073 0.19598235 0.8033543 -0.18666792 0.10974421 -0.12993047 -0.025303202 0.66087526 -0.22409716 0.11533992 0.27430806 0.33904457 -0.02097911 0.8293982 0.009808538 0.082533196 -0.115058325 0.14530644 -0.012725754 -0.40181118 0.06633841 -0.06668211 0.3174491 0.13545106 -0.15871654 0.69063437 -0.48231962 -0.53307986 -0.065848246 -0.091262706 -0.43653688 -0.7094534 0.44814405 0.24979992 0.17065677 0.2520208 0.6007376 -0.019724524 -0.43745622 0.51503015 0.46055874 -0.23337886 -0.19926855 0.19661818 -0.50166786 -0.20791835 0.14419536 -0.26108727 0.052883018 -0.2140885 0.081029356 0.026560977 -0.20785028 1.0124987 -0.21901013 0.08109834 -0.038289238 -0.11822151 0.26333946 0.12029055 -0.34914374 0.029127203 0.17290145 -0.13211274 0.12400975 -0.4918779 0.29021782 0.4490918 0.69001025 0.68008566 -0.42821816 0.4946403 0.34205738 0.5451228 -0.9871868 0.24585105 -0.030697357 -0.22311208 0.58967143 
Switch 0.08051231 0.020491296 0.26656628 0.70039445 -0.09655291 0.5017253 -0.36246908 -0.12446339 -0.11015974 -0.29939464 0.43858686 -0.842808 -0.6455118 -0.76662475 -0.24422093 0.103422716 0.13245639 -0.8116504 -0.046806883 0.23510055 -0.6860405 -0.36812237 -0.50914043 0.111022234 0.32305637 -0.6570801 0.1737565 -0.43019488 0.42073867 0.11229525 -0.21470731 0.12409977 -0.5036127 -0.43602595 0.41831514 -0.19364385 0.6251847 -0.19626327 0.020214297 -0.361097 0.30686113 0.023193879 0.3622962 0.20539917 0.08615625 0.28065056 -0.22137727 0.10123744 -0.39306608 0.22896464 -0.0568842 0.5667311 0.06419194 -0.2910881 0.3042678 -0.36217588 0.54053956 0.1256443 -0.7951732 -0.5518885 -0.2770357 -0.55178165 -0.7797685 -0.00086578075 0.10762721 -0.60615313 0.8603415 -0.1242686 -0.24566755 0.4042709 0.06621918 0.2770729 -0.36976272 0.045553897 0.122987896 0.09146619 -0.15890114 -0.6261513 0.32441938 -0.12312857 -0.3177119 0.5959661 -0.76656365 -0.3770349 -0.49000055 -0.12360419 0.23173241 0.18948752 -0.0041138297 0.34641364 0.3492421 -0.10576649 0.39731082 -0.20548518 0.032307602 -0.72965294 0.70828915 0.27462748 0.44558045 0.08460791 -0.18145254 0.42815265 -0.10070874 0.1840616 -0.0032392505 0.27267623 0.33495983 -0.20000996 0.46862563 -0.5128631 0.3000262 -0.22992682 -0.22715814 -0.57178736 -0.23794392 -0.047304325 -0.4163328 -0.18776205 0.12319261 -0.2677933 -0.36818737 0.050991196 0.35895088 0.20619333 -0.1528916 0.49970907 0.1952426 -0.09142896 
CheckBox -0.61516345 -0.2813496 -0.08374462 0.4591929 -0.3172417 -0.33539197 -0.08466604 0.13716134 0.31119293 0.24007921 -0.31424463 -0.4323767 -0.28682044 0.035173945 -0.49922338 -0.20063803 0.10608835 -0.40338498 0.07997788 0.3958126 0.15328711 -0.19123863 -0.349932 0.1244727 -0.058070146 -0.6258104 0.4886208 -0.031391878 0.55743915 -0.42385215 0.040496603 0.2107481 0.35856333 0.17438859 0.1717148 0.45693633 0.6532368 0.80702144 -0.06815884 0.1630003 0.26392728 -0.0668774 0.7996698 0.44694856 0.6379867 0.69495374 0.23085676 -0.25144127 -0.4230558 0.41949013 0.11152086 0.36980158 -0.0022900987 -0.43622953 0.012931404 -0.22112532 0.11935289 -0.6629369 -0.68002856 0.26350513 0.24876907 -1.1119881 0.33866173 -0.34137455 -0.6052611 -0.59089893 -0.50510836 0.27106008 0.36247927 0.5771204 0.24052136 0.6822073 -0.44498736 0.14232193 -0.38567373 -0.3308367 0.27359185 -0.46304786 -0.022927009 0.26027948 -0.3891038 -0.2285492 -0.26061556 0.07109785 0.79966795 -0.17041118 0.04060717 0.17938189 0.2235346 0.53602904 -0.20889913 0.38090736 0.49544272 -0.16113365 0.27673882 -0.11750489 0.68408877 0.07198735 0.9447315 -0.0629113 -0.0356878 -0.34940642 -0.027167944 -0.004170537 0.44783068 -0.22926447 0.19123209 -0.4593901 0.43417478 -0.15553635 0.34781453 -0.079459466 0.22399361 -0.3936871 -0.58012164 -0.2123734 -4.5047353e-05 -0.14577371 -0.4000701 -0.36717418 0.3735248 -0.024280487 0.3993287 0.2953402 0.4892116 0.55868196 -0.018254455 0.14164095 
AutoCompleteTextView 0.30794942 -0.37003422 0.09045306 -0.07622776 -0.6508474 0.14978617 -0.6009504 0.23271075 0.7475249 0.08620856 -0.18940027 -0.3973939 -0.46540076 -0.89790297 -0.12062462 -0.3174107 -0.17767778 -0.11793876 0.41359034 0.91208214 -0.39246383 -0.55386597 0.12924874 0.12485227 0.1168149 -0.03655919 0.109687775 0.33785442 0.41817984 0.052581154 -0.46426177 -0.17709215 -0.307946 -0.82707214 0.27913475 0.03140482 0.312385 -0.009596265 0.005759645 0.07302008 -0.072932675 -0.41771019 0.35038581 -0.17205065 0.6640942 0.50112903 0.45021272 -0.09178464 0.24778758 0.684815 0.39226377 0.39540732 0.37265056 0.11122294 0.16595188 0.9526016 0.48152685 0.0040178564 -0.57192105 0.04750418 -0.19718952 -0.45544797 -0.35048255 0.49536285 0.105840564 0.48769993 0.30812162 -0.16013971 -0.060518485 0.30564475 0.10127452 0.58541566 -0.036158018 0.838989 -0.21442497 0.40248373 -0.5696063 -0.19868484 0.5157109 0.52318525 -0.040157016 0.32175675 -0.32189745 -0.3468834 -0.043283377 -0.2817504 -0.251886 0.2603241 0.20440456 0.48799393 0.37326494 -0.46204665 0.49397787 0.17112504 -0.0069207964 -0.4228688 0.4176325 -0.36083242 0.4727141 -0.34781018 -0.027748384 0.27034298 -0.42579126 0.0006547254 0.18060552 -0.4943071 0.2217152 -0.5787004 0.3656255 -0.12220407 -0.018607534 -0.4713387 0.08185111 0.15130037 -0.33043826 -0.48506346 -0.23899779 0.1346263 0.20402937 -0.24410287 -0.051419757 -0.009356622 0.708018 -0.16220231 -0.20659149 0.7550885 0.21972908 -0.05712403 
de.morrox.fontinator.FontCheckBox.FontCheckBox -0.096753 -0.10408173 -0.09585879 1.3375337 0.28210974 -0.81495595 -0.09269371 0.5057391 -0.3083425 0.0138280215 -0.317347 -0.34709576 -0.73540133 -0.23502448 -0.4045802 -0.6747049 0.35484105 -0.46479714 0.123892285 -0.24142918 0.43808806 -0.015536382 -0.5788241 0.2557269 0.12551165 -0.7405866 0.5819428 -0.43500555 0.9685361 -0.075118065 -0.10158662 0.30717978 0.03452776 0.37704185 0.0141823515 0.40586534 0.42201656 0.18426087 -0.54869944 0.0022562323 -0.68896866 -0.06911725 0.35889387 0.33963746 0.79215384 -0.057539374 0.11497451 -0.4106549 -0.21443646 0.50229186 -0.29118687 -0.014918463 -0.4691352 -0.26852494 0.2452158 -0.45886374 0.13614537 -0.939199 -0.4938149 0.9854971 0.48262203 -1.4242722 0.13207036 -0.19068731 -0.24218029 -0.52197486 -0.43567196 0.22181028 0.4611517 0.6535746 -0.3644566 0.38431293 0.11904836 -0.7064001 0.04334708 0.15596612 0.07779518 -0.22734025 -0.016417734 0.7378441 -0.13285519 -0.39279538 0.037568644 -0.06177941 0.32577235 0.40908203 -0.51058435 -0.7513685 -0.046489853 0.18690151 -0.5802483 -0.02212581 0.41339257 0.22426213 0.3879426 0.43675217 0.9104595 0.3367728 0.71685976 -0.0074920175 0.011777577 -0.53089005 0.84226435 0.19764526 -0.021548983 0.4304202 -0.15494654 0.44266966 0.41389075 -0.19803636 0.061011422 0.5269135 0.563188 -0.0991914 -0.57019377 0.40790972 0.30171463 -0.29257888 -0.22261682 -0.35099268 0.8187877 -0.20273544 0.49848658 -0.23155563 0.46662605 0.2525086 -0.08615868 0.17906572 
de.morrox.fontinator.FontCheckedTextView.FontCheckedTextView 0.21185943 0.01323382 -0.01024184 1.3430612 0.5869234 -0.3209697 -0.043065462 -0.19904673 -0.76481277 -0.3531192 0.4330288 0.2438058 -0.67132527 -0.15902387 -0.004465781 -0.27842474 0.66230154 -0.25707516 0.30650777 -0.15714668 0.12832989 0.1355037 -0.24868861 0.2773253 0.0871807 -0.23055659 0.79174525 -0.3331126 0.4712938 -0.2175867 -0.17274557 0.1357927 0.20126428 0.36049178 0.0053952555 -0.16157483 0.6289311 -0.208485 -0.37560156 0.109254055 -0.8366023 0.44490296 0.08026471 0.42880002 0.91803044 -0.38445908 0.008904118 0.037838336 0.049003515 0.040053565 -0.3890169 0.3266965 -0.86927766 0.38993093 0.15282887 -0.50172484 -0.36507618 -0.35648298 -0.17527314 0.2801009 0.062475577 -1.0433922 -0.18960193 0.0039253808 -0.20254262 -0.064144485 -0.22806452 0.07813687 0.6007067 0.035887055 -0.15374117 0.29546097 0.5271698 -0.046171837 0.36981007 0.1649044 -0.40563497 0.25377417 0.04419161 1.000836 0.24528477 0.3521818 -0.29495534 -0.06271514 -0.47016728 0.48113075 -0.51276875 -0.45183298 0.42352664 0.18339112 -0.6338597 -0.48211324 0.69632006 0.34764177 0.14299238 0.3829185 0.41807738 0.3416288 -0.00065214204 -0.056272514 -0.3694426 -0.3922874 0.3157059 0.7497274 -0.021491097 0.82763565 0.32355946 0.9085391 0.32173115 0.42727876 0.103524655 0.11663713 0.4536004 -0.21181603 -0.6119448 0.4953109 -0.12440684 0.057135858 0.10557348 -0.3371459 1.0734174 -0.24415858 0.30620658 -0.2727493 0.039768595 -0.08945053 0.23783933 -0.4583652 
de.morrox.fontinator.utilities.TypefaceLoader.get -0.24318962 -0.40660435 0.4060716 0.22219738 -0.21091658 0.1313964 -0.45322248 0.084866345 -0.003906886 -0.4381291 -0.09362852 -0.30397955 -0.5261307 -0.47518465 0.53829 -0.14802848 -0.46500286 0.14014009 0.45930648 0.051727157 -0.051782742 0.41922814 -0.33607528 0.32758844 0.44484988 0.0860829 -0.27288413 -0.6053353 0.20845544 0.13856284 0.48604974 -0.18913141 -0.027724532 0.21060607 -0.0042428575 0.32910103 0.4092914 -0.41845256 0.23851934 0.32075512 -0.46752295 0.3229594 -0.39329818 0.08443396 -0.34393078 0.28434643 0.13132241 0.38604456 -0.05510221 -0.25122565 -0.39464977 0.5930538 0.025184557 -0.24446028 -0.044410575 0.09895487 0.4104873 -0.40501538 0.46597904 0.15388511 0.22705889 -0.18594342 -0.20141757 0.2887073 0.0019571048 -0.081561536 -0.23794717 -0.14461315 0.1530254 0.5262534 -0.18343762 0.12698427 0.39250854 -0.29188088 0.5718184 -0.05160558 0.018947892 0.314195 -0.04393467 0.28551048 0.012339374 -0.3597983 -0.12949342 -0.12841852 -0.06849408 0.053688742 0.05263803 -0.6003408 -0.14146705 -0.30565253 0.14294337 -0.33751413 0.061682258 0.13466609 -0.15747772 -0.4167872 0.22741757 -0.37157065 0.07380902 -0.3049416 0.06763333 -0.20094845 0.4531938 0.053891644 0.09150624 0.02960334 -0.07186838 0.7815302 0.005033689 -0.3212498 0.18563074 0.2366311 0.038249712 0.1770259 -0.7649224 0.3531739 0.22049125 0.092037976 0.3905505 0.032002795 0.63180256 -0.23035078 0.27958867 -0.45076144 0.13047373 0.546085 -0.10114071 0.102571726 
de.morrox.fontinator.FontRadioButton.FontRadioButton 0.43352437 0.036622196 0.2625969 0.53909135 -0.21682385 -0.6816021 0.808814 0.21582462 -0.539677 -0.14562362 -0.32658932 0.13758513 -0.81477785 -0.44338065 0.44943914 -0.24181509 0.68495893 -0.21201864 -0.06942014 0.022442563 0.60729057 -0.3602662 0.012093397 0.15905796 -0.10082029 -0.6510665 0.7804447 0.3029997 0.88147193 0.1912051 0.29379785 0.40605333 0.38134253 -0.17586786 0.05346614 0.45612165 0.07601335 -0.046695054 -0.31264392 -0.15516433 -0.5089961 0.31953835 0.13012053 -0.19776379 0.36494064 -0.25329304 0.0065600686 0.13068995 0.041351188 0.13590963 -0.64700896 0.31636664 -0.47145268 -0.62137127 -0.42072293 0.2568304 -0.5820284 -0.57499504 0.28893274 0.8811507 0.45869744 -0.070480704 0.20074674 -0.23186514 -0.020106291 0.022242442 -0.23580606 -0.22703145 0.5180861 0.45652395 0.51366884 0.64460415 0.62592554 -0.0044796206 0.16754927 -0.09992393 -0.54439163 -0.23273154 0.22255068 0.6921561 -0.052026525 -0.28325823 0.42770383 -0.42713043 -0.16298373 0.2426281 -0.47168997 -0.88087463 0.25661677 -0.17652337 -1.3495237 -0.675788 0.47514346 0.5806881 0.50158095 0.5056792 0.5780846 -0.5050174 -0.27270392 -0.04450601 0.5066523 -0.21958934 0.7701539 0.17111331 0.35349163 0.4481089 -0.049131677 0.7057952 0.5357532 0.6846255 0.41468966 0.30806714 0.38401547 -0.35826156 -0.44740644 -0.05091893 -0.27781993 -0.09870123 0.1465074 -0.7473817 1.3279403 -0.3129346 0.039204665 -0.060777552 -0.03863787 0.18734683 0.40423903 -0.16647658 
de.morrox.fontinator.FontAutoCompleteTextView.FontAutoCompleteTextView 0.56832147 -0.28656873 0.14175367 0.27632365 0.1067814 -0.26016432 -0.68021643 0.26807895 0.34452924 -0.007152141 -0.63881636 -0.20366943 -0.4538005 -1.1440125 -0.009929317 -0.41652125 -0.08030642 0.3759821 0.55071664 0.57726276 -0.37646955 0.004260829 0.18961643 0.3272322 0.19981886 0.25004023 0.189329 0.31853187 0.5818494 -0.10647517 -0.20969717 -0.5261616 0.18550774 -0.6324931 -0.15476339 0.08463884 0.13231581 -0.54602504 -0.71381384 0.04439526 -0.854202 -0.6679992 0.18063599 -0.18098699 0.5532834 0.16376196 0.6089164 -0.40938348 0.15926653 0.37169498 0.2296283 -0.025047444 -0.07452759 0.517363 0.2673061 0.4025862 -0.002058701 -0.31412855 -0.17420651 0.7650057 0.0396066 -1.343916 -0.3049328 -0.0016748288 0.5528941 0.545829 0.18387756 -0.03533797 -0.056408685 0.48267615 -0.62789685 0.53774256 0.46613452 -0.014603642 0.1048948 0.6652498 -1.0011528 0.018062733 0.6922102 1.0017633 -0.11802626 0.5540503 -0.5248739 -0.2885872 -0.4100938 0.38135082 -0.88167053 -0.4254973 -0.022684636 0.469941 0.47281545 -0.6633547 0.31116462 0.37356892 -0.14289515 0.44164768 0.46315506 -0.19276872 -0.0373743 -0.28638193 -0.12479624 0.42232102 0.25415066 0.21249922 -0.0035619994 -0.024406608 -0.19749579 0.030270154 0.552385 -0.36346638 -0.45024195 0.31160218 0.5226635 -0.02677462 0.07495753 -0.11450768 0.09102007 0.1503154 0.14210245 -0.21505167 -0.026990524 -0.6515628 0.5910867 -0.59896857 0.07105281 0.50137407 0.18829007 -0.2677613 
de.morrox.fontinator.FontEditText.FontEditText 0.17802869 -0.028107 1.1037713 0.84319466 0.12730151 -0.049652327 -0.3285608 0.24492386 -0.4896362 0.46139926 -0.4486045 0.10382048 -0.23660222 -0.64154655 0.20728935 0.45680156 0.48437837 0.26042178 0.32984945 0.41281414 -0.14053155 0.028635724 -0.11209914 0.037923455 0.4908782 -0.3614587 0.48481154 0.19970788 0.4177401 -0.44261777 0.8184385 -0.31875154 0.7283644 -0.35885254 0.48410067 0.2625068 0.43376836 -0.6734447 -0.028107714 -0.12146848 -0.68808573 -0.14759848 -0.360617 0.022284316 0.18063278 0.14510609 0.24309239 -0.16230366 0.0022516015 -0.23765014 -0.05706492 0.26076108 -0.6301589 -0.054791614 -0.18778275 -0.5311281 -0.46766245 -0.46041134 -0.014059354 0.02710242 0.28997746 -0.5743954 0.18043718 -1.1798757 0.55400914 0.18473457 0.6793249 -0.2016955 -0.14820814 0.67060304 -0.4283776 0.73978734 0.69564426 -0.5782422 0.55613595 -0.08612744 -1.1668634 -0.20990238 0.46052983 0.48722655 -0.39490065 0.5221074 -0.66770273 0.13363494 -0.8339236 0.1361273 -0.96009207 -0.43506932 0.31181055 0.106551126 -0.017064657 -0.46845677 0.17379814 -0.34663266 0.4529626 0.3874755 0.44436407 0.19183724 -0.44581488 -0.42643812 -0.046235807 0.2967959 0.698235 0.28456274 0.1506964 0.53228426 -0.0060440456 0.19082241 0.7441182 -0.56754565 0.1355875 0.20124155 0.16235714 -0.4155797 0.20056422 0.26919422 -0.044817675 0.2942309 0.29555067 -0.37472168 0.08417988 -0.4117029 -0.19953063 -0.4201329 0.18390407 0.13201843 0.24598919 -0.6341563 
de.morrox.fontinator.FontTextView.FontTextView 0.32636204 0.3036248 1.1120673 0.9134999 0.24057971 0.18427329 -0.14981404 0.41491878 -0.10870825 0.58332205 -0.30279988 0.17562276 -0.6608011 -0.07909845 0.6782422 0.36136463 1.1655036 0.02963957 0.17093568 -0.14143163 0.0141391205 0.32914048 0.12066621 0.16780546 0.7092044 0.48933858 -0.20437378 0.2761143 0.6087027 -0.04713882 0.094759725 0.28279337 -0.07721941 -0.70282793 -0.508927 -0.21119016 0.25925228 -0.6955198 -0.4645653 0.1867967 -0.623575 -0.16307291 0.2560147 -0.12799513 0.26134983 0.067826554 0.037726223 -0.15627788 0.7058899 -0.10877398 -0.18583344 -0.20109107 -0.9011212 -0.021218559 0.29512176 -0.5009602 -0.44248137 -0.39993864 0.21200196 0.16787302 0.6683095 -1.234532 -0.44822964 -0.48062035 0.21878807 0.20828031 0.5545624 -0.0680269 0.7720894 0.038535662 -0.5160748 0.36639202 0.0021904828 -0.4756253 1.0721934 0.30154678 -0.32693103 -0.014341706 0.31059903 0.6198697 -0.030508358 0.051088057 -0.59832925 0.10042912 -0.42212462 1.0061992 -0.58160233 -0.40522903 0.06337209 0.26290175 -0.14823018 0.006640066 0.2524949 0.27900875 0.051830176 0.642883 0.74809164 -0.08638464 -0.10645236 0.036601122 -0.31597382 0.1256343 0.4466473 0.5725654 -0.24536894 -0.022025049 0.15551712 0.08902128 0.08255328 -0.14286804 -0.59473395 0.9397648 -0.070420876 -0.5221978 -0.7634557 0.4356639 0.17576231 0.41855508 0.048757218 -0.43512127 0.49466646 -0.6295457 0.46206397 -0.582058 -0.121266685 0.54508007 -0.28505132 -0.30734342 
de.morrox.fontinator.FontTextClock.FontTextClock 0.3484803 0.08912224 0.7086594 0.4025696 -0.24213178 -0.34837836 0.0614971 0.13302407 -0.26208842 0.42596817 -0.74748844 -0.23443891 -0.052210473 -0.65881425 -0.21701789 0.48430666 0.5090473 -0.35246104 -0.2946024 0.48869652 -0.4749843 -0.08859806 0.044931047 0.41121712 0.51842415 0.38260028 -0.13424996 0.34515417 0.6272364 0.35250953 0.4993996 -0.06661678 0.48750737 -0.9298617 -0.028863082 -0.021458998 -0.2872164 -0.7433393 -0.40037018 -0.35817337 -0.49237335 -0.5964443 0.49033475 -0.2702579 0.4034002 0.34272763 0.17516153 -0.40405828 0.13389827 0.27550805 -0.12610382 -0.08151359 -0.3191102 -0.7136122 -0.05892824 -0.009680655 -0.32240447 -0.52297455 0.6545104 0.700893 0.61920494 -0.8977769 -0.11232623 -0.39601484 0.7139144 0.22729948 0.3905742 -0.3239812 -0.008951282 0.625601 -0.0713636 0.36992946 0.24605995 -0.35682285 0.5783432 -0.09227722 -0.8915866 -0.873858 0.3748494 0.19437721 -0.075486936 0.043184206 -0.76808244 -0.14067787 -0.854839 0.863283 -0.4934704 -0.7385044 -0.03983897 -0.21874031 -0.33589 -0.06570056 0.13463499 0.054790113 -0.3953433 0.5119258 0.7059295 -0.4028901 -0.24701689 -0.116218306 0.16718704 0.37889636 0.14337088 0.100128464 -0.0036242025 0.008691426 -0.06675506 -0.3384248 0.40578032 -0.21826157 0.018013146 0.9190418 -0.16625802 -0.5747347 -0.24125206 -0.368999 0.36284724 0.2825316 0.27380344 -0.5516976 0.31850046 -0.7198603 -0.09447019 -0.49808106 0.06792659 0.4663077 0.30112106 -0.09507628 
de.morrox.fontinator.FontSwitch.FontSwitch 0.36611882 0.12543537 0.546221 1.1147778 0.58969754 0.14847375 -0.45497766 -0.13913321 -0.60423595 -0.26878676 -0.07567078 -0.50784665 -0.5404611 -1.0604019 -0.21992831 0.13775377 0.20983231 -0.5022343 0.18878357 0.1323167 -0.64329445 0.21694945 -0.5363127 0.4358388 0.5891307 -0.22473834 0.14180197 -0.34882048 0.56744164 0.084272705 0.068249926 -0.3926162 0.20485523 -0.47084388 0.1421375 -0.22909917 0.277092 -0.9879624 -0.5457688 -0.42090154 -0.45084515 -0.5095053 0.016239703 0.1711834 0.12788945 -0.034592085 -0.07583653 -0.2246751 -0.2557587 0.13015589 -0.15604432 0.12901993 -0.25691572 0.087500095 0.24051958 -0.6774594 -0.009048344 -0.18624362 -0.35170075 0.19701323 -0.0011592517 -1.352953 -0.65912104 -0.48112643 0.7349617 -0.19750766 0.8637212 -0.064379655 -0.1612715 0.6405006 -0.6488027 0.29785317 0.054423694 -0.65323114 0.5051294 0.28802505 -0.6859749 -0.478352 0.5481578 0.3321248 -0.23456873 0.7949924 -0.9607462 -0.18195654 -0.97754014 0.49948516 -0.43759435 -0.4132984 -0.15149342 0.3463178 0.40960634 -0.33573896 0.17591625 -0.1566613 -0.07674995 0.19526629 0.67579794 0.36114633 0.009705402 0.057950363 -0.15152463 0.5671985 0.42061037 0.38732445 -0.32054108 0.5453598 0.0837568 0.18823157 0.5510955 -0.87025017 -0.26550218 0.59683764 0.017910365 -0.634858 -0.019990878 0.38088593 -0.05490537 -0.04351768 0.04613836 -0.45179302 -0.21000583 -0.5967496 0.32620767 -0.2962665 0.14612062 0.283421 0.27094042 -0.29624048 
de.morrox.fontinator.FontToggleButton.FontToggleButton 0.38734835 0.0035980127 0.9474913 1.2417371 -0.014814534 -0.71833044 -0.07735589 0.6931994 -0.31001073 0.34090868 -0.33829516 0.34402087 -0.67799294 -0.6067382 0.51486427 0.41541773 0.3906453 0.3216227 0.1980002 0.30202603 -0.41803098 0.096011154 0.044612765 -0.14972793 0.5505239 0.06539871 0.12440715 0.67995846 0.5541633 0.33008462 -0.10799386 -0.020403514 -0.30678147 -0.59942305 -0.05441769 0.08870421 0.34664762 -0.73367614 -0.49016422 0.12309862 -0.8759914 -0.27190784 -0.36347213 -0.43439806 0.19228761 -0.17196155 0.026946865 -0.15804486 0.6034199 0.62242365 0.23815778 0.25241226 -0.87074167 0.35464394 -0.18143666 -0.17185602 0.04423345 -0.2670011 -0.04866759 0.079323284 0.1549595 -1.1773794 -0.15636964 -0.63024753 0.7114887 0.55715895 0.6642616 0.001673066 0.15916942 -0.06951379 -0.62332636 0.20330885 0.6215941 -0.9474788 0.6183085 -0.33388257 -0.5335803 0.07677523 0.20940728 0.6234976 -0.070268266 -0.30694163 -0.47550058 0.09839929 -0.77801 0.29432774 -0.91020477 -0.72772497 -0.51360244 0.04861103 -0.40854937 -0.3394042 -0.21183163 0.7606347 0.14507833 0.6047042 0.40390855 0.33830276 -0.0978561 0.19193983 0.12706177 0.2588535 0.34451842 0.15795879 -0.010026657 0.07882801 -0.23536125 -0.027753074 0.32149056 -0.12015632 -0.4020494 0.36042583 -0.23781948 0.10782616 0.13971454 0.10980328 -0.06429267 0.08477029 0.23615797 -0.27260154 0.21717843 -0.3296603 0.03762144 -0.5926631 -0.05572799 -0.15111715 -0.13444465 -0.0064794174 
de.morrox.fontinator.FontChronometer.FontChronometer 0.32977715 0.15906094 0.8102025 0.5377422 -0.1932845 -0.47909215 -0.38112655 0.55803454 -0.57025903 -0.25693727 -0.15937643 -0.27091828 0.05840382 -0.5055316 0.051456038 0.65934956 0.49084237 0.08061377 0.25769523 0.23595314 -0.41269436 -0.025474241 -0.07790609 0.40718606 0.53292805 -0.33936837 0.38899538 0.010874319 0.8420742 0.44230953 0.40970123 -0.42965838 -0.1734833 -0.37138122 0.21173649 -0.051529318 0.3747038 -0.853938 -0.75382185 -0.2680727 -0.94436586 0.0028720426 0.44142574 0.17201003 0.4352472 0.03145782 0.2584419 -0.2740711 -0.2612969 0.32481956 0.13260746 0.20252015 -0.47929215 0.2482123 -0.058292687 -0.39654127 -0.5901507 -0.80586505 -0.15675434 0.79665625 0.23838548 -1.1598412 0.011911337 -0.4122151 0.67855376 -0.11740528 0.26012918 -0.172615 0.2979959 0.026059821 -0.24972121 0.04112483 0.63499606 -0.6915919 0.5524442 -0.19402748 -0.7472141 -0.9169626 0.05460614 0.107256554 -0.28973925 0.09060381 -1.1096442 0.32544863 -0.32104385 0.3086441 -0.31900215 -0.5895923 -0.23440224 -0.50669384 0.11640436 -0.236241 0.112480484 0.75628674 -0.686279 0.4348795 0.35955986 -0.11663056 -0.41982365 -0.4454476 -0.33741578 0.25615513 0.32359752 -0.09695 0.010816859 0.2732745 -0.4472233 -0.010459416 0.4643805 -0.40763694 -0.35404664 0.21729739 0.07632131 -0.6308776 0.26011485 -0.12995796 -0.5325718 0.3257305 0.40401375 -0.057963263 -0.14155634 -0.94774574 -0.107040145 -0.25762537 0.22345753 0.30056867 -0.2059599 -0.26971015 
de.morrox.fontinator.FontButton.FontButton 0.39088434 -0.117141806 0.312371 0.56243277 0.07906646 -0.73023134 0.2162315 0.6280172 -0.11757461 -0.21423113 -0.14359593 0.2936223 -1.1123096 -0.34694552 0.8454197 -0.5037296 0.65876645 -0.05720398 0.0720199 0.0010228325 0.27073705 -0.59490037 0.0149845835 0.24905944 0.042840682 -0.539754 0.88823694 0.24554075 0.9384006 0.35823154 -0.11525361 0.27068442 -0.13358358 -0.027608976 0.07352967 0.34596512 0.6532798 0.08640369 -0.36152118 -0.110197976 -0.8834463 -0.056959607 0.11664793 -0.6267779 0.4578152 -0.45562583 0.12239044 0.46404734 0.17538121 -0.14700724 -0.33866426 0.1829894 -0.6970357 0.39713645 -0.23263532 0.5424948 -0.3578155 -0.18149312 -0.030722616 0.46857047 0.015751848 -0.0022942105 0.052353125 0.13021867 -0.33254394 -0.049167078 -0.1760763 0.11282701 0.6457542 0.21470112 -0.08774247 0.78074247 0.67129165 0.019268278 0.0608335 0.48932597 -0.32078457 0.11803776 0.46988007 1.085613 0.055775948 -0.0903356 0.4508759 -0.41068688 -0.07831917 0.07086926 -0.8364321 -0.61765367 0.060083084 0.24905811 -0.6772067 -0.92648464 0.97596794 0.545756 0.39426106 0.49165496 0.5542992 0.020583555 0.11864871 -0.23238075 0.42111734 -0.063098684 0.7849395 0.110244006 0.079144925 0.012256001 0.037191804 0.21076003 0.53136706 0.3821359 0.18410918 0.051337186 0.59069055 0.33112562 -0.17130953 0.1820109 -0.10980084 -0.6703553 0.1910725 -0.33614448 1.0676701 0.056947306 0.32062906 0.044141576 -0.01145371 0.17901824 0.53103256 -0.09376937 
de.morrox.fontinator.utilities.TypefaceLoader.TypefaceLoader 0.08282016 -0.43858767 0.45534638 0.09624404 -0.112827525 -0.009713466 -0.19276434 -0.0717446 -0.18618599 -0.35685658 0.23675494 -0.17682923 -0.36204073 -0.20849629 0.26251933 0.02546371 0.25041196 0.18648866 0.06098846 0.20616391 0.30235082 0.13358626 -0.70261 0.04304358 0.13553968 -0.17850721 -0.47281918 -0.17862064 0.5808053 -0.1176207 0.35626674 0.32876924 -0.5810276 -0.03605688 -0.0006503664 0.48041868 -0.11194423 -0.50915045 0.025064027 0.3999207 -0.48697624 0.19222172 -0.32588738 0.22442931 0.013407166 0.11428508 0.4606748 0.12770467 -0.0116313705 0.12810965 0.026012115 0.67545706 -0.097411804 0.1083941 0.11877219 -0.24498422 0.33099043 -0.37340072 0.09492423 0.75104684 -0.1660608 0.19102985 -0.15007764 0.11662815 0.46777484 -0.06143161 -0.4055871 -0.02753585 -0.3600955 0.3873882 -0.37456158 0.07862466 0.30347586 -0.2531293 0.46485627 -0.25376427 -0.22008707 0.016412338 0.26772285 0.27298597 -0.12005459 0.31087938 0.35959348 0.10761863 -0.15505831 0.47427195 -0.06098531 -0.42202565 0.21719167 0.2811116 0.25334457 -0.13950293 0.007818623 -0.2072294 -0.33330452 -0.06843893 0.12989825 -0.41961673 0.2115328 -0.29896313 0.25078988 -0.3401096 0.7014245 -0.070624 0.22387093 -0.23774081 0.036817096 0.769987 -0.39584908 0.14881578 0.17539129 0.67654395 0.36969534 -0.22212899 -0.5127884 0.35577667 0.01721946 -0.13077147 0.39649156 -0.15865637 0.14953136 0.20361756 0.5896279 -0.3801235 0.051227584 0.20439497 0.019850425 0.016792063 
Button -0.036488604 -0.34332898 0.2534757 -0.3570347 -0.6504015 -0.24153087 -0.021228936 0.20618038 0.38846415 -0.10125751 -0.07339911 -0.36954176 -0.75227493 -0.28234354 0.59197074 0.09672267 0.3609593 0.31509805 0.057301275 0.36420336 0.13553232 -0.665222 0.24397995 -0.23260309 -0.24191344 -0.634354 0.7801878 0.44212368 0.5951876 -0.12311317 0.31461245 0.36662954 0.03990004 -0.21166474 -0.0066537424 0.5835252 0.49587563 0.6204138 -0.023757584 -0.12522659 0.19414784 0.47197092 0.44495645 -0.23004802 -0.029802363 0.33145922 -0.038241334 0.19612688 -0.2338708 -0.15741214 0.10420881 0.54222065 -0.26586324 -0.10400357 -0.18040918 0.3686093 -0.0780617 -0.26145622 -0.13634712 -0.067234434 -0.16729157 0.44673052 0.15942419 -0.081573635 -0.31809816 -0.43018532 0.11320837 -0.0039220424 0.16040823 0.27959037 0.5102848 0.80932516 0.16905573 0.63643914 -0.3331918 -0.19310245 -0.686031 -0.19135961 0.283899 0.30691072 -0.5969717 0.18566398 0.056067206 -0.5596547 0.35516876 -0.5275006 -0.20062974 -0.3504616 0.42348105 0.16500524 -0.5576307 -0.4647014 0.6861177 -0.014812415 0.28810683 -0.3220906 0.26563862 -0.20510519 -0.09070878 -0.1597253 0.2181921 0.36062393 0.40540445 -0.13210712 0.4149916 -0.07928027 0.045823757 -0.15929526 0.8388381 0.26191553 0.58834606 -0.33466998 0.20899421 -0.25953916 0.10732762 -0.7366768 -0.5878271 -0.08308027 0.14448912 -0.30598217 0.32663858 -0.0693405 0.1617706 0.56977147 -0.15830329 0.3688711 0.45742574 -0.13451171 
TextView -0.004662242 0.23415247 0.6729918 0.51928157 -0.30016166 0.64280397 -0.10032281 0.19879664 0.80809945 0.6192086 0.2836616 0.22461176 -0.68124384 0.13482957 0.7314561 -0.0252564 0.9113523 0.007859679 0.24150144 -0.099582456 0.14761232 -0.022438632 0.41378245 -0.2744673 0.26228797 0.17489909 -0.28794923 0.44159052 0.44087416 -0.27043945 -0.08282969 0.7342083 -0.41612643 -0.6557973 -0.42775407 -0.17038049 0.42778766 0.1311334 0.106273964 0.20536628 0.37567753 0.20397359 0.2561188 -0.01077782 -0.097232565 0.0920842 -0.2005326 0.15597107 0.83794975 0.19523112 -0.010786887 0.24847859 -0.46883306 -0.34676072 0.24892677 0.22319888 -0.21107498 -0.10205396 -0.19284995 -0.62014455 0.39026862 -0.2754148 -0.22076266 -0.18018319 -0.1333286 0.08235781 0.62130755 -0.07549339 0.5175073 0.01762933 0.28653762 0.54560536 -0.52933913 0.31541616 0.7234307 0.16521814 0.23730025 0.38880402 0.176962 0.21824647 -0.33183283 -0.0025096994 -0.09678532 -0.26849806 -0.074228846 0.45267877 0.030393876 -0.007636518 0.34637055 0.5663331 -0.35963956 0.09567201 0.50440764 0.052938398 0.55029356 -0.111862555 0.45416263 0.060011677 0.14668559 0.04583913 -0.26981485 -0.024387104 0.17860955 0.6389442 -0.1146667 -0.34481806 0.19803153 0.038540717 0.09102267 0.33054814 -0.22514491 0.17824838 -0.23121399 -0.4204394 -0.9781738 0.14939378 -0.31779683 0.3452602 -0.13063763 -0.29294324 0.47676978 0.023298504 0.8851465 -0.017187284 -0.4827219 0.51882654 -0.18545236 -0.08634711 
EditText -0.31812003 -0.14083052 0.76181746 0.7451215 -0.5748456 0.16416311 -0.66498274 0.058298636 0.014080062 0.62476593 -0.11435087 -0.10910118 0.13683318 -0.36405668 -0.22119428 0.3394669 0.33874422 0.10136984 0.3724763 0.95270175 -0.17498413 -0.36299908 -0.08068528 -0.2762715 0.2377487 -0.51556677 0.27595174 0.09103422 0.13344835 -0.53554994 0.6881807 -0.100018315 0.4032738 -0.36333492 0.8085291 0.23208241 0.5727139 -0.13461077 0.66525 -0.077351354 0.22984213 0.21361782 -0.116384484 0.40755522 0.45081678 0.5563013 0.28365445 0.019960007 0.0076096836 0.13152333 0.43204516 0.5216952 -0.1171272 -0.36668164 0.00312624 0.05210251 -0.12528035 -0.3240952 -0.5334605 -0.5447439 -0.06747644 0.025211625 0.12788069 -0.6041599 0.4410205 0.26476973 0.7453779 -0.20626558 -0.1919337 0.49887645 0.30644223 0.7026061 0.1425535 0.4451401 -0.033703975 -0.4414251 -0.5909328 -0.15253566 0.10876309 0.10698877 -0.2909641 0.30742496 -0.75295895 0.15589276 -0.37020034 -0.41053188 -0.40266702 0.35604066 0.39441153 -0.025446845 0.16504586 -0.27424312 0.39530766 -0.6942987 0.47408682 -0.35084325 0.28896686 0.32475975 0.064088896 -0.5192273 -0.13058953 0.09676225 -0.08444179 0.29416975 0.2810854 0.2007918 0.46649414 -0.39660704 0.39060798 -0.2686055 0.47626954 -0.5220847 -0.16805325 -0.41964972 -0.15170382 -0.078995 -0.47326303 0.30371633 0.25079262 -0.118530415 -0.12981997 0.10604696 -0.13385406 0.043552548 0.0033490646 0.52261496 0.1887351 -0.4421687 
TextClock 0.05302313 -0.04322003 0.41965163 0.22013906 -0.9965915 -0.021741284 -0.048038322 0.07870527 0.21138361 0.48356324 -0.14292009 -0.5263963 -0.028641704 -0.21527939 -0.34548882 0.23512347 0.33820522 -0.80063486 -0.3043418 0.68473774 -0.35444638 -0.50443465 -0.05832678 0.012533576 0.26919353 0.0020480077 -0.1588021 0.319818 0.47051156 0.37008494 0.32714352 0.44083542 -0.13889094 -0.77082324 0.3796222 0.005175259 -0.06312734 -0.07164654 0.32654056 -0.34253353 0.19980021 -0.269755 0.56462127 0.0057048956 0.525253 0.5851333 -0.08079042 -0.091144234 0.076427735 0.7792404 0.035482198 0.4003319 -0.044070803 -0.995635 -0.025358608 0.5628906 0.13822575 -0.5148395 0.012841975 0.03701314 0.35148948 -0.128911 -0.11274829 0.2320898 0.36065942 0.14544031 0.29366875 -0.3680445 0.0040548397 0.5107199 0.4804166 0.2515869 -0.24278083 0.43750003 0.2116141 -0.35023642 -0.44655752 -0.9284013 0.088082395 -0.23501483 -0.15680411 -0.3010237 -0.5314835 -0.23826496 -0.5114476 0.19850637 0.07785763 -0.23545201 0.28524226 -0.25759694 -0.54521453 0.2871914 0.3940242 -0.28111568 -0.24198657 -0.4995917 0.67476946 -0.31271452 0.29427966 -0.29069352 0.2443821 0.18117572 -0.3558562 -0.062652186 0.16272883 -0.35066468 0.0429733 -0.52089334 0.35447606 0.18685688 0.43578598 0.1145599 -0.6107423 -0.39464456 -0.60498494 -0.7192691 -0.1472726 0.240213 0.34388012 -0.46354792 0.3486155 -0.1760187 0.31262195 0.2821132 -0.30044785 0.5275057 0.27098858 0.14463247 
Chronometer 0.0628113 0.11137465 0.5660163 0.12827592 -0.96655965 -0.24663463 -0.43764213 0.48700425 -0.11495462 -0.31447163 0.3658172 -0.5375635 0.12893935 -0.30815837 -0.04397112 0.45271182 0.2689761 -0.16977297 0.2918568 0.3654836 -0.18702202 -0.5403915 -0.015499749 0.0580234 0.1477968 -0.9473353 0.4685251 -0.21462166 0.74968946 0.37447622 0.5683301 -0.08102715 -0.6391417 -0.19551452 0.55434674 0.09008183 0.5645402 -0.20767526 -0.11529299 -0.3936931 -0.21179779 0.325507 0.80605924 0.37487784 0.38396117 0.1677759 0.060041163 -0.05325719 -0.27815035 0.6218465 0.30407372 0.58084655 -0.045437995 -0.22028448 -0.12406689 0.28154528 -0.31281015 -0.6103418 -0.6639977 0.3651349 -0.09832341 -0.18164524 0.30885586 -0.06986221 0.33217415 -0.40659148 0.20920075 -0.25150552 0.22792672 0.049608536 0.4975069 0.09950795 0.023731465 0.19108981 0.0640668 -0.40856126 -0.39052758 -1.0605937 -0.120842 -0.45613968 -0.42263472 -0.04851536 -0.82724166 0.2320054 0.3186462 -0.39451575 0.3300677 -0.099497356 -0.05677459 -0.591717 -0.08237347 -0.047404774 0.41990012 0.45010692 -0.46385106 -0.35481912 0.28053507 -0.32084954 0.063357145 -0.6147072 -0.26178065 0.02601443 -0.093807146 -0.30052412 0.2061545 -0.09511924 -0.25864092 -0.30804393 0.600426 -0.19102314 0.07305249 -0.6279166 -0.16291533 -0.53040564 0.04531857 -0.50608987 -0.9638438 0.1919648 0.44456562 0.09995809 -0.19822548 -0.34661356 0.1865389 0.3133967 0.032367818 0.5341634 -0.09659175 -0.035130244 
