Variable_N 128
Activity -0.0030593069 0.0027646744 0.00012180203 -0.002883864 -0.0014627494 -0.0033095563 -0.0019266742 0.000765702 -0.0011550512 -0.000105509265 0.0023259597 0.0004653067 0.0019675132 0.0036600516 -0.0018239605 0.0041531725 -0.00021721995 0.0016652672 -0.0031323095 -0.0020779786 0.0010136941 -0.00033389416 0.0007057368 0.0026568072 -0.0018870878 -0.0010503503 0.003313442 -0.00021666728 -0.000829912 -0.0029811119 0.0016568836 -0.00039503156 -0.00408137 0.00065160857 0.0027186607 0.0030804505 0.0012956421 -0.004202545 0.00399349 0.0011293964 -0.0015217143 -0.0011093218 0.00043899406 -0.0009698789 0.001952301 -0.0035350618 -0.0032672365 0.0018754879 -0.00094860315 0.001808056 0.00067528756 -0.00071770104 0.0035858455 -0.003887217 0.0025244707 0.000298741 0.0037030783 -0.00026061016 0.00046195558 -0.0010077611 -0.003608869 -0.0027715212 -0.000697424 -0.0026711053 -0.0026638953 0.004542855 0.0017994458 0.0040862155 0.0015891817 -0.0006225399 0.0025815375 0.002431468 0.00030588693 0.002615699 0.0033538337 -0.0013380022 0.0014370208 0.00426391 0.00010279827 -0.0022964925 0.00019888284 0.0019486161 -0.002723226 0.0033424376 0.0005025792 0.00040843769 -0.0018049843 -0.003357771 -0.0024124205 0.003952931 -0.002486021 -0.0022100469 0.0017999774 -0.0014512367 0.0038352937 -0.0018173063 0.0014325917 0.0030593746 -0.0015171618 -0.0015289698 -0.00086077844 0.0016597399 0.0014878376 0.00079980376 0.0031543623 -0.003969184 0.0009549435 -0.0004090608 0.0029180602 0.0034228603 -0.00012775548 -0.0037616314 0.0005309831 -0.0028977683 -0.0017900371 -0.0010531653 0.002482857 0.0037725458 -0.0026619604 0.0030263432 0.0022042359 0.00039133395 0.0036497393 -0.0020255935 -0.0040195077 9.784809e-05 0.0023123336 -0.0019083498 
com.uberspot.a2048.MainActivity 0.0026246395 -0.0032353261 0.0039980724 -0.0012153395 0.0045624003 0.0033395826 -0.0036595454 -0.0013961634 0.00071213004 0.0024794778 0.0012771385 0.002144526 -0.0023624331 0.0017209697 0.002400568 -0.003744836 -0.0010954217 0.0025617562 -0.0032972817 0.0038168542 -0.0028994137 0.0025510737 0.001120982 -0.0005253659 0.00025671892 5.438568e-05 0.0031003712 0.0031832147 -0.0026253674 0.0038801762 -0.0027095084 0.0032065664 0.002572563 -0.0018144257 0.0014071892 -0.0036307836 0.004007916 0.0008738216 -0.0010267962 0.0017661344 0.0008255861 0.0036024803 -0.0003053657 -0.0022624887 -0.0008505655 -0.00045253139 0.00020995704 0.003690938 0.0003908446 -0.0020258515 0.00022945685 -0.0009589982 0.0001283192 -0.002206653 -0.0023804829 -0.0043354514 -0.0009845919 -0.002009358 0.0014549453 -0.0033547597 0.0012555541 0.0045276685 -0.0017997744 -0.0008654574 -2.2977325e-05 -0.0046780054 -0.0016588876 -0.0029734978 0.0026206411 0.0020123706 -0.0033677567 -1.9293037e-05 0.0024834394 -0.0014001777 -0.000788116 -0.0004697732 0.0027237085 -0.0015722578 -0.0025791323 -0.0036740443 -0.00021801445 -0.0021374861 -0.0020000183 0.0001518611 -0.004238305 -0.003983198 -0.0010993062 0.0009457178 0.0005409761 0.0026211431 0.00025294992 0.0012092694 0.0015896854 0.0043789037 0.0014664576 -0.0042203013 0.0029091628 0.0024026013 0.0011479276 0.004495947 -0.002958468 -0.0027092542 0.0021952675 -0.00051364524 0.0005876288 -0.0023225567 0.0042799176 0.00049234566 0.0007188036 0.0025885007 7.9646285e-05 -0.004017558 -0.0023446104 0.0007033888 0.0028108885 6.9092304e-05 0.0031351796 -0.0032705718 0.0014751316 0.0028215686 0.0007560231 -0.0042997887 -0.0030178318 0.004406697 0.00057021016 0.00064880436 -0.0038686434 -0.0037633525 
