Variable_N 128
com.github.nisrulz.senseysample.TouchActivity 0.14738406 -0.22199474 -0.037257377 0.1048941 0.4353203 -0.46098348 -0.25476035 -0.15278013 -0.56231564 -0.7318022 -0.18303716 -0.114847764 -0.46018925 0.28696227 -0.10646327 0.07517653 -0.11178024 -0.32314792 0.61327225 -0.43819863 0.12593365 -0.16688757 0.36895245 0.1871064 -0.04648921 0.3644826 -0.4581357 0.15408169 0.08547533 -0.45447147 0.21759434 -0.16023055 -0.06823154 -0.079074636 0.4017899 0.03129371 0.1977442 0.014690291 -0.49487582 -0.10293017 0.329768 0.1607427 -0.30372754 -0.10710762 0.22949654 -0.099121615 0.15575232 0.44273913 0.007561959 0.2119056 -0.013576787 0.11048324 -0.11946758 0.024838982 -0.610489 0.16584082 0.17112829 0.330115 -0.51776993 0.14166874 0.08442208 0.686974 -0.17745516 -0.13538793 -0.057506394 -0.18792935 0.15141763 0.3848366 -0.049959414 -0.49218842 -0.14400905 -0.26465425 0.28703168 -0.9744644 0.2590485 -0.20054568 -0.27322558 -0.14195085 0.2863385 -0.026074868 -0.40417546 0.31787342 -0.39275643 -0.06297998 -0.11621928 -0.43017098 -0.23754995 0.45302132 0.17636724 -0.7103582 -0.096594445 0.19087915 0.5737278 -0.34570917 0.40983573 -0.00291795 0.68463427 -0.30832183 0.078901365 0.36284617 0.3506016 0.5864969 0.39512107 -0.03720024 0.37582234 -0.27373207 0.3416185 0.096978456 0.21331878 -0.5104888 0.07804499 0.22872883 -0.015429157 0.57511973 0.12279223 0.7415179 0.6967035 0.2232314 -0.32710528 0.60645247 0.21106713 -0.29315084 0.16721655 0.38046676 -0.7343293 0.17702046 -0.0071616084 0.05282537 
com.github.nisrulz.senseysample.TouchActivity.onCreate -0.055574242 -0.20094648 -0.30335975 0.43672004 -0.114721976 -0.37942347 -0.9677573 -0.03366738 -0.3949351 -0.5634936 -0.19129373 -0.5753236 -0.26078987 0.2702379 0.49157277 0.15461484 0.52599514 -0.2804108 0.24747176 -0.5757805 0.24425335 0.34425294 0.57399416 0.21552831 0.30639684 -0.24538508 -0.066384934 -0.26900667 -0.017105285 -0.45279777 0.5252906 0.20494992 -0.58200926 -0.027333738 0.7689509 -0.40338963 0.39068705 0.15272927 -0.22110462 -0.8190227 0.07396972 0.24721445 0.24981715 0.49869707 0.07416947 0.15651105 -0.3879209 0.76371473 0.20201899 0.14813563 -0.3183852 -0.16875459 -0.17416416 -0.751119 -0.37549353 0.11055753 -0.0045533525 0.04392561 -0.84107083 -0.20941913 0.15783471 0.49923068 0.16929896 0.19970524 -0.20973341 0.5132811 -0.10506326 0.7479684 0.0063260505 -0.050337713 0.3157508 -0.2640802 -0.690572 -1.0287071 0.4014309 -0.008290557 -0.0008886893 -0.60394335 0.80823576 -0.16178551 0.20594564 0.065092415 -0.42101306 -0.3473872 0.17847589 -0.7955999 -1.4664562 1.0365554 -0.4606811 -0.5547346 0.362439 0.38728973 0.7993813 -0.081450485 0.9842884 0.03332272 0.7462596 0.3360777 0.10438026 0.16019958 0.604599 0.5679798 0.033647157 -0.35657254 0.70958143 -0.31237033 0.4827633 0.20598385 0.20121081 -0.44485703 -0.10851762 0.7280743 -0.2490913 0.50663626 0.68699664 -0.15758653 0.15403043 0.04504532 -0.35271406 0.2770893 -0.7453689 0.090281196 0.31146187 0.7836474 -0.4524336 -0.069611795 -0.3053637 -0.37476626 
com.github.nisrulz.senseysample.MainActivity.onCreate 0.4832767 0.15449801 -0.18154168 -0.12912777 0.012988103 0.31701538 -0.77083105 0.040425837 -0.25014773 -0.30642954 -0.37717003 -0.648181 -0.4134493 0.40920126 0.6340074 0.08697645 0.17908202 0.36797884 0.023003647 0.16375034 0.36706784 0.4164152 0.6421179 0.11329266 0.2999788 0.08851429 0.25825033 -0.08686025 0.08232912 0.32649016 0.08787135 0.032354046 0.5256489 -0.08635324 0.39834484 0.12984191 0.2621272 -0.29970676 0.1656296 -0.3568775 0.13502719 0.33392435 0.7921683 0.41415074 0.13993794 -0.17193133 0.018996276 0.3412998 0.5524774 -0.2139609 -0.3932812 0.03021075 -0.4082949 -0.30844036 0.07645839 -0.24491052 -0.08429933 0.39961657 -0.51073515 -0.20272385 -0.21406642 -0.2441447 -0.14670143 0.55566704 -0.0022152318 0.13792963 -0.028073482 -0.09638871 -0.5618721 -0.034670297 0.26859257 -0.36062485 -0.84628224 -0.11637613 0.7118525 0.56114346 0.15349992 -0.11634004 0.330028 -0.39907464 -0.08152152 -0.087085664 0.018295808 -0.27985096 0.22440185 -0.13965672 -0.9759406 0.43085793 -0.68994313 0.43151554 0.33096942 0.72019935 0.34560788 -0.32768586 -0.008089593 -0.4413668 0.42916265 0.3127198 0.20892502 -0.29569483 0.038122565 0.0573545 0.0039579836 -0.4958856 0.29173946 -0.036472507 0.27892536 0.09793147 0.12211663 0.1854885 -0.4799962 -0.021741545 0.0242667 0.5230492 0.16890615 -0.00395922 -0.37975353 -0.2419885 0.10256453 0.47590947 -0.575507 0.47266713 0.28673068 0.08513725 0.0979643 -0.03592046 -0.15340936 -0.36576402 
com.github.nisrulz.sensey.Sensey.init 0.4357754 0.48659337 -0.4264682 0.54960823 -0.08643709 -0.07040113 -0.8374715 0.44379926 -0.73262614 -0.6717536 0.24705574 0.12899204 -0.2353041 0.47657603 0.21014275 0.0959181 0.029979989 0.4424329 -0.51147604 0.06481887 0.19831517 -0.13344574 0.24896005 0.016795572 0.43417594 0.50053847 0.066572614 0.25471252 -0.25725582 -0.17033914 -0.27107522 0.16214521 -0.10652402 -0.42744717 0.28596935 -0.2596837 -0.1314253 0.41746023 0.5738696 -0.16173355 -0.2945567 -0.45002457 0.3423405 0.22028995 0.49940816 -0.07423355 0.5112648 -0.020778686 0.30419862 -0.119750135 0.45190945 -0.074277245 -0.08863507 -0.37937137 0.20723887 0.5962079 0.63050056 0.22488715 0.40507758 0.19742572 0.07051111 0.33091146 0.054040287 -0.23944637 0.14090592 0.7721309 0.1250474 0.575615 -0.14999571 0.16510178 0.10152433 0.02993495 -0.306447 -0.09158862 -0.21845835 0.35964766 0.010945946 0.35575697 0.25548765 -0.6596768 0.13269953 0.8616421 0.17735374 -0.21662708 -0.09494658 0.27507728 0.5608487 0.72119194 -0.2509905 -0.08042377 0.5263313 0.42187667 0.626589 -0.6808173 -0.93529266 -0.079068005 0.54140943 0.17587432 -0.15351747 0.42744583 0.47780606 0.1061312 -0.5815013 -0.583403 0.25778115 -0.29753867 -0.45685136 -0.3974902 0.3983469 0.36208147 -0.40381077 0.43784732 -0.07466358 0.27434295 0.15155837 -0.3565532 0.18282196 -0.13521828 -0.26591986 0.34495088 0.5248117 0.4093935 0.34298113 0.4235934 -0.09636907 0.13305667 -0.26981515 -0.079749234 
com.github.nisrulz.sensey.Sensey -0.02327102 0.26665705 -0.119315684 -0.41602743 -0.027285283 0.09849612 0.1096873 -0.18682432 -0.23621456 -0.37755516 -0.18867204 -0.49913082 -0.47929677 0.20548956 0.07737062 0.087819844 -0.120345876 0.50169176 0.12679265 0.13801706 -0.08824853 0.057016775 0.18251388 0.45200056 0.30552536 0.8076295 -0.03092306 0.059912182 -0.24490732 0.17681722 0.14799747 -0.23846677 0.21511497 0.01252914 0.23633184 0.055527937 0.30203944 -0.20096587 -0.270737 -0.26779762 -0.5148084 -0.111743405 0.34111243 -0.116156936 -0.25854152 0.03411749 0.25085312 0.41802624 -0.007254234 -0.25110263 0.2683379 -0.023609756 0.41022223 -0.27300766 0.080110244 -0.116534695 0.023916354 0.08024452 -0.24183466 -0.32934883 -0.06571008 0.013014195 0.17615213 0.23797564 -0.225456 0.03084635 0.4485814 0.5591205 -0.13861746 -0.21081686 -0.04682338 0.006931192 -0.08861678 -0.018677011 0.56032944 -0.40110472 -0.530992 -0.17068562 0.28955936 -0.05708319 -0.0015434043 0.021034565 -0.2786286 0.020728825 -0.19064428 0.06796256 -0.2094114 0.29908147 -0.32794815 0.342033 0.045958366 0.4178791 0.17220822 -0.18806781 0.07191217 -0.034422074 0.35718176 0.18504675 0.3136937 -0.23055094 -0.039386492 0.10870646 -0.051900998 -0.5141393 -0.05668889 -0.23773864 0.39129663 -0.20564412 0.07119525 -0.56237614 -0.1098408 0.26339918 -0.27981487 0.08540658 -0.040397882 0.10910645 -0.01676268 -0.3626601 0.026228806 0.11341212 -0.2947077 -0.0995783 0.008487267 0.06355668 -0.47719526 -0.31684098 -0.047443744 -0.32231998 
com.github.nisrulz.sensey.SenseyTest.setUp -0.21594886 -0.06090043 -0.68600386 0.5354034 -0.67230695 -0.28722554 -0.91315985 -0.17188662 -0.40461507 -0.6325924 -0.17079495 -0.82016796 0.05560841 -0.51550174 0.0023372653 0.16346636 0.39226052 0.48072675 -0.2728154 -0.40590113 0.45586905 0.23351824 0.88843924 0.0024565011 0.25358194 -0.46075937 -0.0040871636 -0.35168958 0.4097307 -0.4028748 0.41314575 0.45073536 -0.52537006 -0.34622154 0.5030444 -0.14734367 1.0961268 -0.6593654 -0.08783886 -0.85845476 0.34250894 0.17963138 -0.16195688 0.39116913 -0.14392112 -0.33615592 -0.7754076 0.5172548 0.47622254 0.28448892 -0.2264211 -0.6081114 -0.50892055 -0.550771 -0.17613065 0.1227605 -0.016603326 -0.2457994 -0.7253648 -0.26186016 0.27219376 0.3299724 0.3731759 0.44881648 -0.45133284 0.267271 0.18645668 0.3136334 -1.0556124 0.05287467 1.019271 0.09124831 -0.5158151 -1.0292585 0.37712857 -0.462814 -0.21965891 -0.60657424 0.7967029 -0.36736822 -0.24817492 -0.13642427 -0.23718795 -0.24634995 -0.10151793 -0.6877337 -1.7383816 0.8529351 -1.0546056 -0.11922611 0.2879976 0.10548391 0.9281667 -0.14079732 0.61816967 -0.17359704 0.45090613 0.88076955 0.42402536 0.020207413 0.8155291 0.39845034 0.027195454 -1.1451063 -0.051598538 -0.29447085 -0.1674237 0.11148269 0.12921073 0.004369019 -0.1191016 0.66423213 0.03780368 0.7874406 0.4250001 -0.881557 0.098557435 -0.40480536 -0.33938006 -0.17209412 -0.82457983 0.1616581 -0.018903103 1.002101 -0.1019521 0.06346928 -0.67495257 -0.31865674 
com.github.nisrulz.sensey.SenseyTest -0.79699737 0.045193434 -0.21904376 0.56049794 0.023050422 0.042788386 -0.40484577 -0.23620541 0.11403169 -0.9120694 -0.09389349 0.3701848 -0.16677414 0.19114083 -0.72536427 -0.28895202 -0.13859558 -0.14421958 -0.10178643 -0.68040645 -0.0070507927 -0.41249895 0.62376773 0.0597787 0.079532124 -0.029060984 -0.64785296 -0.029238215 0.78648 0.05587464 -0.38982043 0.29958335 -0.13894597 0.07477438 -0.078866415 -0.16666968 0.27301955 -0.09511745 0.44617063 -0.11824012 -0.26446483 -0.38053527 -0.35434875 0.70537573 0.20381416 0.15651408 -0.27473342 0.060577966 0.21525502 0.14260015 -0.52217954 -0.111363724 -0.56040853 -0.16320606 -0.28676128 0.083255656 -0.16766548 -0.31831273 -0.21443006 0.042445615 -0.24130046 0.36049044 0.118589446 0.274021 -0.14255445 -0.05721765 -0.037034735 0.17058946 -0.3906268 -0.37544778 0.53701717 0.5628903 -0.06891292 -0.33864328 -0.24261346 -0.31317165 0.31603312 -0.4328507 0.333249 0.11044092 0.044490222 -0.18576616 0.30673718 0.004139102 -0.21790178 -0.78393906 -0.7982408 0.45895228 0.044404354 -0.076415904 0.29754868 -0.39174998 0.7669502 0.10029407 0.07961631 0.2458121 0.5568175 0.35098624 0.26089758 -0.4821495 0.35401773 0.84691954 -0.13839793 -0.09104824 -0.72714657 -0.22379401 0.50152963 -0.01630484 -0.036367234 -0.19205149 0.21020226 0.48272225 0.51806134 0.30829865 0.22374047 -0.5191572 -0.022617383 -0.19765586 -0.3325175 0.40688512 -0.20278709 -0.24960257 -0.004710336 -0.0410287 -0.6204639 0.81885767 -0.1923657 0.23982206 
com.github.nisrulz.sensey.SenseyTest.detectNoListenerWithStoppingTwoSameDetections -0.78269726 0.43674308 -0.6180936 0.9319092 0.31902158 -0.7817784 -0.8500121 0.3774042 -0.5663225 -1.3967643 -0.61916536 -0.8225406 -0.44649535 0.2547104 -1.0334452 0.42231533 0.5041865 0.40126047 -0.049559146 -0.946285 -0.56447285 -0.85940695 1.261108 1.1093268 -0.10364357 0.3072142 -0.28708553 0.26056948 1.0341794 0.47502473 0.060763367 0.73832285 -0.13380225 -0.5242633 0.54087865 -0.861229 1.0484796 0.437845 0.3626872 -0.20036408 -0.49705002 -0.14732188 0.7297583 0.60941976 1.2831637 0.5298738 -1.05909 0.42542157 -0.03536036 -0.33035564 0.2826949 -0.072231725 0.27134934 -0.3331521 0.5269003 0.6092388 0.6846126 -0.16682938 -0.34745675 0.12895945 -0.68906134 0.7991314 -0.78502584 0.04420702 -0.03627666 0.12263543 -0.36131343 0.43476754 -0.45304343 0.14727633 0.3243111 0.053465992 0.38776198 -0.812198 -0.029015325 -0.60067356 -0.88926893 -0.11296376 -0.19756736 -0.03120216 1.1728522 0.47895974 -0.34193507 0.008195397 -0.9462813 -0.12857223 -0.47734204 0.71209913 -0.46051598 -0.31160572 0.64391845 0.04318087 0.78440696 -0.81962955 -0.6014288 0.96486026 0.6945819 0.56516653 -0.22437808 -0.49827594 1.3973876 0.029065855 -0.33795783 0.1169381 -0.156856 -0.48444864 0.34512353 0.2838786 0.75172436 -1.023967 0.32176515 1.3857752 -0.12908834 0.47664237 -0.870647 -0.092311345 0.05297146 -1.3725102 -0.099261664 0.20397486 -0.8017582 -0.076456465 -0.019055348 0.935863 -0.558806 -0.2816871 0.12572205 -0.8596637 
ApplicationTestCase -0.520773 0.090076834 -0.68298376 0.7161282 -0.5047527 0.24596001 -0.24398857 -0.124155074 0.5652336 0.8938312 0.17409226 -0.706029 0.065378636 0.00781725 -0.29289448 1.0577818 0.27217886 0.3022786 -0.18651979 0.017560845 0.11099721 -1.139686 0.7086407 -0.60177696 0.60742736 -0.6172588 -0.029497014 0.3236304 0.19018982 0.8465367 0.10229928 -0.026298305 0.35829934 -0.49968776 1.1441907 -0.43543744 1.0171398 -0.07872638 0.26097175 -0.119606696 0.8677391 -0.33078957 0.22623181 0.43252045 -0.0032079567 -0.44213858 0.3668881 -0.42869294 0.6952226 0.7714598 0.4092554 0.40576467 -0.6799432 -0.066828065 -0.55623686 -0.05071526 -0.407155 -0.09994786 -0.9147456 -0.766862 0.3309161 -0.43042898 -0.4790235 0.029431863 0.5004356 0.50667304 -0.20734963 0.52939636 -0.19513875 0.7148634 0.7006058 0.80051506 -0.45017982 0.10670456 0.81028926 0.59065366 0.02245976 0.09768078 -0.06451623 0.2012955 0.42279962 -0.8395264 -0.2807777 0.71620846 -0.55692214 -0.2588962 -0.31482157 0.09885124 -0.2970741 0.03303921 -0.4151526 0.34901154 1.0025665 0.37806395 -0.47171584 -0.16112015 0.895503 -0.1926033 -0.0065535055 -0.8613026 1.1576322 -0.042267162 -0.057434123 0.99612236 0.8241456 -0.6097288 0.32295227 -0.3534881 -0.65490526 0.007362448 -0.6455996 0.044410188 -0.1212809 0.36958566 0.25495544 -0.32190153 -0.72819006 -0.6693224 -0.14340052 0.48603603 0.11460586 0.60397303 0.09200064 0.11918708 -0.2873326 -0.09641938 -0.87264997 -0.45697653 
com.github.nisrulz.sensey.ApplicationTest -0.66547745 -0.29274836 -0.53422076 0.84777486 -0.5071074 -0.80851305 -0.43956637 -0.26284626 0.011502904 0.11189458 0.61388165 -0.9482943 0.14744064 -0.52701664 -0.47516543 1.2982514 0.21747921 -0.012790866 -0.22258037 -0.7567434 0.36526 -0.9812343 0.31530365 -0.31538758 0.09772297 -0.5783293 -0.0017386437 -0.25643155 0.21357831 0.20870003 0.6158431 0.12623803 -0.4792044 -0.48982543 1.2189226 -0.6579647 1.4537557 0.18796003 -0.4059312 -0.22971076 0.3549466 0.07134605 -0.086484365 0.13080966 -0.20804676 -0.42502022 -0.13908136 -0.29071513 0.050111964 1.0647664 0.3381211 0.45333165 -0.6423872 -0.37474644 -0.619858 0.22374868 0.111002184 0.03524876 -1.1151469 -0.63662475 0.71682394 0.55015516 -0.040397964 -0.35861078 -0.019194264 0.0700302 -0.4571722 0.436608 0.39154097 0.015023714 0.3735899 0.06815145 0.338169 -0.78094316 0.7673078 0.29219425 -0.4977922 -0.40997306 0.34224448 0.18995143 0.5274899 -0.32283795 -0.64602005 -0.103138894 -0.8445863 -0.0978274 -1.1757672 0.28783205 0.106093004 -0.5566705 -0.54308975 0.18926263 1.0818202 0.31867635 0.04389826 -0.32410768 0.7251138 0.2119473 0.3624592 -0.39427 1.3912003 0.1626694 0.35688785 0.5346351 0.4095304 -0.32351997 0.4436204 -0.21911922 -0.35923457 -0.44333628 -0.44358632 0.52674747 0.45143053 0.7090657 0.80040795 -0.54658514 0.30031204 -0.15399125 -0.92170143 0.11874875 0.27196175 -0.0016058517 -0.18842569 0.44071436 -0.45363137 -0.049074702 -1.0075672 0.0056152465 
android::test::ApplicationTestCaseApplication -0.55797505 0.06322751 -0.6645129 0.7230725 -0.5446255 0.25796434 -0.23016104 -0.10569237 0.51902705 0.9115059 0.20098466 -0.63488346 0.09906541 0.020045944 -0.31875753 1.0520359 0.25349703 0.2543252 -0.2063618 -0.037830606 0.107363515 -1.129022 0.721696 -0.60565555 0.5686324 -0.60979235 -0.018452054 0.31393147 0.13169537 0.84589016 0.046257414 -0.055041805 0.3825044 -0.46632844 1.1316437 -0.37121347 1.0584106 -0.12133535 0.3106338 -0.04716107 0.863384 -0.30368108 0.2072403 0.4068249 -0.0029465565 -0.4034835 0.41993168 -0.4593932 0.7203017 0.8086877 0.38050044 0.42018312 -0.714603 -0.059017077 -0.5541748 -0.023716638 -0.40187025 -0.096973635 -0.91416705 -0.74488854 0.30112186 -0.4150933 -0.5461165 0.038025312 0.50514 0.5057665 -0.24671875 0.5410415 -0.19931199 0.6803683 0.6510899 0.8119599 -0.41027847 0.09256898 0.8184786 0.57139474 0.020605449 0.10121549 -0.036398876 0.18770602 0.34264335 -0.8465842 -0.2992106 0.7031806 -0.511616 -0.26089033 -0.33209628 0.14866106 -0.3082218 0.04733606 -0.41309127 0.26248968 0.9632725 0.37034896 -0.4665718 -0.17293032 0.8756724 -0.18570788 0.016795997 -0.8629661 1.1480777 -0.03393016 0.009937313 1.0149062 0.84183556 -0.63832486 0.3551228 -0.33976334 -0.68032455 0.06015912 -0.61347 0.06644876 -0.086570956 0.34595338 0.24269402 -0.32615557 -0.7522431 -0.6913148 -0.18531628 0.5325988 0.110439956 0.53419805 0.087168075 0.071351 -0.2920506 -0.07052354 -0.8516546 -0.41829243 
com.github.nisrulz.senseysample.ApplicationTest -0.6688462 -0.2837591 -0.5230159 0.8544939 -0.49469978 -0.8333251 -0.4147561 -0.268959 0.02180749 0.11457822 0.6117851 -0.9349804 0.15698664 -0.53664505 -0.46659905 1.3020904 0.21390475 -0.028045204 -0.22589578 -0.7648912 0.36901814 -0.96856165 0.2948838 -0.3198361 0.0945145 -0.578863 -0.0023454137 -0.2620565 0.22294727 0.19745716 0.6210982 0.13466214 -0.47896847 -0.4977446 1.2164732 -0.6529228 1.4601623 0.19428366 -0.41149914 -0.23772123 0.3495743 0.07786324 -0.097007096 0.13004987 -0.2353373 -0.41992122 -0.14859754 -0.2964428 0.043608103 1.082068 0.34061706 0.46139356 -0.65285516 -0.37527454 -0.6290796 0.24096657 0.102610886 0.04572492 -1.1170051 -0.6445339 0.73217446 0.5581942 -0.033929 -0.36920977 -0.029781204 0.06565618 -0.46025792 0.42135754 0.40998268 -0.00039068382 0.37134895 0.063106306 0.35945126 -0.7723705 0.7575771 0.29202 -0.5018822 -0.40082362 0.35667697 0.18240213 0.52597475 -0.33101 -0.6426269 -0.11317005 -0.8551918 -0.08508342 -1.1974013 0.28721684 0.11332142 -0.54786384 -0.53611386 0.18802924 1.068626 0.32293117 0.054229744 -0.34081686 0.70141166 0.22430587 0.37357116 -0.40661746 1.3766448 0.16983345 0.34648395 0.53918236 0.404586 -0.30873504 0.44661477 -0.22182268 -0.37300703 -0.45074922 -0.45983702 0.52491814 0.47042623 0.7166951 0.8023979 -0.5485219 0.32237414 -0.14584084 -0.9305761 0.08926476 0.26947716 -0.020676032 -0.19966006 0.4383779 -0.45585397 -0.049533926 -1.0003086 0.022149261 
com.github.nisrulz.sensey.SensorDetector -0.12772782 -0.2778322 -0.52531147 -0.42218065 0.014146898 0.24598609 -0.49075073 -0.30100933 -0.108695 0.31448367 -0.045673408 -0.34194922 -0.17401673 0.17869031 -0.19792481 0.33137977 -0.41804123 0.39596432 -0.3730783 0.30705208 0.053317107 -0.24703954 0.31853852 0.06663567 0.0737886 0.12140361 0.2162364 -0.12580514 0.17642857 0.42864108 -0.33316794 -0.03551987 0.5178585 0.055162337 -0.09435409 0.46867213 -0.18628779 0.11589873 0.47026503 0.16549398 0.17889258 0.13074298 0.17404151 -0.076331496 0.72749364 -0.21789691 0.067475416 -0.31094158 -0.018715195 -0.16546358 -0.40202096 -0.2277171 0.14460206 -0.03106509 0.36183143 -0.32584038 -0.058114335 0.16347423 0.4085789 0.170218 0.30358654 -0.092785865 0.48080015 -0.24825153 0.20592953 -0.23749045 0.04959262 -0.19469944 0.16088763 0.11259128 0.2079795 -0.23054707 -0.10818003 -0.038180623 -0.13183233 -0.077240214 -0.01087188 0.025930619 0.068721 -0.09272422 -0.27291104 0.12203139 0.060958385 0.23135214 0.15660764 -0.064693086 0.037260797 -0.027028158 -0.12300773 0.06903478 0.20001918 -0.115940824 0.67012495 -0.17844686 -0.16387428 0.0682512 0.23412456 -0.031377528 -0.24320264 -0.010299353 0.116189525 -0.4178572 -0.20479938 -0.3310753 0.29124963 0.11024654 0.08776839 0.4027147 0.35027102 0.007289771 0.07502403 -0.18625277 0.3633373 -0.05826659 -0.027819695 0.23517026 -0.32645988 -0.3003138 -0.3556482 0.4805758 0.13601556 0.4250544 -0.19651781 -0.42118135 0.35035515 0.40320772 -0.4099987 -0.38026774 
com.github.nisrulz.sensey.WristTwistDetector 0.0786736 0.3669581 -0.2260904 0.5298375 0.4858974 0.07227816 0.1641287 0.027520051 -0.6992923 0.10731022 0.57708114 -0.78678805 -1.1172047 -0.029235832 0.03387624 -0.19589616 -0.0120026525 0.3163284 -0.24430345 0.26623076 0.17978898 0.22780308 0.29718074 0.16792749 -0.030861195 -0.05145547 -0.11538618 -0.2756188 -0.009629719 0.41442835 0.260657 -0.04708091 -0.26698002 0.013761891 0.46506712 0.023394875 0.19899273 0.049569935 0.04804252 -0.53251725 0.4544518 -0.42538357 0.20342574 0.4370243 0.31432822 -0.18502297 0.0938312 -0.31322542 -0.7568877 -0.33441263 -0.04003557 0.7021417 -0.041895267 0.42501011 -0.6517283 -0.1362312 0.745366 0.012618004 -0.27712935 -0.2722204 -0.060836144 -0.62256277 -0.010504289 -0.08848765 -0.31850353 -0.2718498 -0.25494823 -0.055449814 -0.26675108 -0.44627196 0.5659006 -0.36839345 -0.25639823 -0.54469824 -0.5153059 -0.26923615 0.38940415 0.06735038 0.014830799 0.13173586 -0.47383517 -0.017083626 0.66185755 -0.4242869 0.53480685 -0.21063891 -0.5036092 -1.076984 0.35494858 0.18618505 0.32639256 -0.048228364 0.15607023 0.030402806 -0.026887683 0.011936133 0.64623016 -0.20409869 -0.79452175 -0.25128892 0.6651265 -0.42958128 0.19533685 0.82629657 0.39479724 -0.85999703 -0.15712912 -0.39221892 0.25619262 -0.51847714 0.06224319 0.115954116 -0.5249546 0.41801235 -0.47184694 0.39568496 0.11945181 -0.0052424334 0.32676452 -0.20877217 0.111944154 0.21352977 -0.08449009 0.0046588047 -0.39812675 0.24613853 -0.21560188 -0.35621837 
com.github.nisrulz.sensey.SenseyTest.detectListenerWithStartLightDetection -0.5702534 -0.09492846 -0.6907216 0.058570087 -0.28430352 0.028039917 -0.12140299 -1.1992544 0.014480098 0.03527734 0.61528844 0.124893755 -0.044395722 0.24482016 0.06998354 0.48316678 -0.29382962 0.2668033 -0.80180174 -1.2615618 0.57246274 -0.6140819 1.0575956 -0.2270391 0.609386 0.05652846 -0.33694288 0.31125692 -0.118544914 0.50532025 0.26205972 -0.7527898 -0.445734 -0.51712006 0.9425591 0.39433023 1.4994941 -0.8951898 0.17994224 0.07063409 -0.03101285 -0.23839654 -0.5892576 0.11381027 -0.5377363 -1.046821 0.79681146 -0.04006513 0.67820495 0.65685916 0.21046671 0.13081351 -0.68274105 0.022849765 -0.5164135 0.5763563 -0.121495515 -0.26568902 -0.8351758 -0.123975225 0.6239918 0.065626256 -0.6235339 -0.4887688 0.15898955 0.103912406 -0.69738215 0.011045709 -0.19149528 -0.45609275 1.2268796 0.60500073 0.066482164 -0.40081936 0.72174376 -0.21071617 -0.0777617 0.2051675 0.09798134 -0.2226995 -0.096483395 -0.07252368 0.09005471 0.378294 -0.28046462 -0.538476 -0.10611601 0.4029821 -1.055618 -0.07155113 -0.658325 0.1951048 0.8202393 -0.054545514 0.36503375 0.0018191093 0.6587172 0.40885776 0.5743966 -0.5429337 0.71208674 0.5372567 0.31694466 0.14888757 0.00072013534 -0.7839229 0.93379956 -0.017459352 -0.32197475 -0.037050694 -0.26140553 -0.18398358 0.24371298 0.6672778 0.54986525 -0.2648132 0.3501414 -0.86670756 -0.164979 0.46825626 -0.29005992 0.38964218 -0.8186413 -0.13099329 -0.10760428 -0.27279884 -1.2244513 0.06808501 
com.github.nisrulz.senseysample.MainActivity 0.3052666 0.3717602 -0.32828525 0.015218793 -0.005891415 -0.030856129 -0.07750082 -0.47973478 0.13672955 -0.49268374 -0.18105063 -0.42485875 -0.57693046 0.3545259 -0.025991557 0.33678406 -0.19272217 0.155748 0.1812692 -0.01250122 0.3831122 0.115471065 0.2054694 -0.21948652 0.4010778 0.28989887 -0.07647376 -0.024101134 0.03266839 0.022281412 -0.30858585 -0.16298412 0.23450808 0.27675772 -0.047247447 0.5504142 0.20638189 0.032043662 -0.00981567 -0.57550114 -0.29138094 -0.43275216 0.3521747 -0.41257113 -0.0034707594 -0.20810372 0.14577492 0.12657933 0.15523945 -0.08009228 0.14815806 -0.02735925 0.28183624 0.33923057 -0.09510749 0.16648887 0.23687273 0.37476426 -0.15017137 -0.1108122 -0.29710588 -0.23609526 -0.20675747 0.31321847 -0.019220158 -0.18151626 0.051906865 0.17570062 -0.26419586 -0.23744209 -0.1939917 0.013585603 0.053130362 -0.3382484 0.13483363 0.04870153 -0.17183669 -0.1365943 0.37330812 -0.30435967 -0.22069362 -0.1900075 -0.018414984 0.07236226 0.12491672 0.34075722 -0.3023053 0.28728747 0.12645651 0.28684893 -0.18168436 0.09837459 0.51150656 0.18538012 -0.30814368 -0.1799062 0.24894217 0.03413861 0.023429338 -0.54134446 0.027406022 -0.01571572 -0.037943013 -0.08502535 0.08071001 0.37265 0.08559218 -0.1409566 0.26890412 0.17843048 0.09467899 -0.06978885 -0.16192003 0.47576368 -0.2261959 0.045167983 0.16458043 0.6676999 0.21293727 0.5093299 0.2585269 -0.122281976 -0.23405467 0.19564697 -0.40339768 0.39342803 -0.28047454 -0.10003143 
com.github.nisrulz.senseysample.MainActivity.onPause 0.2963387 0.32155195 -0.09412062 -0.20878427 0.27786642 -0.033629067 -0.09566983 -0.20032537 0.036818255 -0.16869558 -0.8266529 -0.48642087 -0.443071 0.56268615 0.29126558 -0.1551741 0.22794484 0.6992568 -0.05280749 0.14746544 -0.28258434 -0.33327478 0.13956504 -0.093461215 0.11452615 0.15118833 -0.20924816 0.46145725 0.29968312 0.38308382 0.018139662 -0.10118171 0.6493322 -0.15001734 -0.17486055 0.43895745 0.1261244 -0.048200466 0.08099898 -0.453901 -0.27602273 -0.40401393 0.71276015 0.2086356 0.4108822 -0.23788911 -0.30197224 0.04271037 0.08010384 -0.19501474 -0.43718 0.03874749 0.76099247 0.0025198772 -0.3278602 -0.08847638 -0.2408171 0.360508 -0.4204978 0.17223996 -0.06856883 0.20449567 0.022060204 0.7662036 0.10644105 0.01690712 0.16592349 0.32474655 -0.022624113 -0.087297745 -0.15987784 -0.09847708 0.068915434 -0.0517123 0.20810725 0.036844067 -0.2897035 -0.10227902 0.21350132 -0.52198195 0.36439368 -0.05140366 -0.3599467 -0.5400753 -0.15606403 0.06789612 -0.47293672 0.46381557 -6.477011e-05 0.31341043 0.28388768 0.32112002 0.87488097 -0.4740124 -0.090015955 -0.3614685 0.62232393 0.13426133 -0.14823127 -0.3727337 0.29916212 0.023506757 0.08113547 0.107863046 -0.28462487 0.11293535 0.073404334 -0.48046678 0.037118938 -0.5414747 -0.29974535 0.0608869 0.33678162 0.48817357 -0.006214742 0.44636345 -0.28660834 -0.51737076 0.475398 0.5073866 -0.47861588 -0.015840478 0.2059317 0.34649056 -0.35235792 0.041695885 -0.16559865 -0.7098737 
com.github.nisrulz.senseysample.MainActivity.onDestroy 0.9301697 0.3092141 -0.16805036 -0.3726123 -0.31751347 -0.063683935 -0.4521852 -0.16659014 0.09621537 0.09159059 -0.43671378 -0.9062544 -0.76473266 0.07228657 0.7433522 0.32503515 0.019289235 0.8572991 -0.38438264 0.7288163 0.18319975 0.28854692 0.5161547 0.08133297 0.09539582 0.04706688 0.37285584 -0.060844343 -0.20715785 0.26394427 0.1670564 -0.6368711 0.098886624 -0.023321059 0.22710237 0.39630675 0.102372386 -0.1495553 -0.1599477 -0.29161522 0.041564487 0.0818226 0.3258361 -0.05119893 0.35046953 -0.20691408 0.2802877 0.12898031 0.1638693 -0.36580595 0.013519411 -0.32337934 -0.050766084 -0.3637519 0.53376937 -0.36899132 0.073191196 0.59843713 -0.5180887 -0.029844962 -0.13352364 -0.20358473 -0.3342648 0.27486715 -0.15496887 0.009395908 0.03362279 0.21154027 -0.45492125 -0.2301021 0.10519009 -0.3711461 -0.40640065 -0.30655402 0.51174116 0.4807021 -0.056019265 0.105466776 0.27314028 -0.51475286 -0.3383558 0.10154873 -0.32846877 -0.5829012 0.27924457 0.06881985 -0.12965277 0.06746847 -0.611698 -0.10695291 -0.067762695 0.3838435 0.14506097 -0.37210158 -0.09701542 -0.29651254 0.26671827 -0.10540583 0.08694341 0.057171647 0.58626634 -0.048332114 0.14567904 -0.33123296 0.629164 0.107139945 -0.07615084 0.19167675 0.12361007 -0.071689405 -0.14765425 -0.19771431 -0.3016988 0.7602149 0.46144232 0.076402135 -0.060788836 -0.29075825 0.10414467 0.48942232 -0.41179833 0.32589957 0.6789964 -0.0298558 0.27282006 -0.049027212 -0.3260445 -0.44497392 
com.github.nisrulz.sensey.SenseyTest.detectListenerWithStartOrientationDetection -0.34757617 -0.15946543 -0.5300305 -0.084659785 -0.55513483 0.31288257 -0.41846383 0.12936369 0.16151774 0.49327454 0.94546944 -0.25803468 0.40793085 0.39324662 -0.019353168 0.54739386 0.31059268 0.5640185 -0.41476655 -0.6793489 0.67195153 -0.92078424 1.3598309 0.17033018 0.15058398 0.39249018 0.105532706 0.43576106 -0.007483065 0.1650367 0.050073538 -1.1798598 -0.7459396 -0.44399986 0.999358 -0.08767941 0.6042024 -0.7315416 -0.4401483 -0.3167991 0.3994824 -0.10144059 0.11460017 0.39179817 0.21929215 -0.7513602 0.37005088 -0.18073191 0.9259193 0.21216717 0.5070577 0.12549847 -0.8697423 0.14471366 -0.58086616 -0.7017518 -0.28584126 -0.24530867 -0.93783975 -0.020853356 0.75569636 0.46248665 0.20915645 0.06341631 0.45869428 0.06364683 -0.22080426 0.66983473 -0.079323396 -1.0128369 0.8739442 0.6005605 -0.3153629 -0.7866073 0.6123613 0.1407526 0.3461098 0.056579407 0.5887738 0.20996793 0.06625824 0.18057543 -0.0050351587 0.51092124 -0.50064796 -0.2077433 -0.0049637505 0.5202522 -0.5240148 -0.5219115 -0.76445854 0.2972058 1.1022946 0.09886631 -0.18720686 -0.076014884 1.2466037 0.2518674 0.6669604 -0.57057345 0.7186254 1.0310377 -0.16996473 -0.15580784 0.33115473 -0.3768815 0.40229452 -0.31926012 -0.23560524 -0.7003295 0.1483114 -0.21909174 0.2901737 0.86286473 -0.06578798 -0.62561077 -0.071497366 -0.6247903 -0.8580429 0.1919648 -0.13885057 -0.0233564 -0.61200994 0.07340086 -0.19808781 0.32390404 -1.326995 -0.23863299 
com.github.nisrulz.sensey.OrientationDetector -0.12659848 -0.19283715 -0.40420237 0.37898377 0.2980413 -0.16645089 -0.6457167 0.09946727 -0.36914065 0.7416244 0.7346229 -0.4485245 -1.1792119 -0.5831771 0.32803425 0.049024507 -0.46484694 0.91806984 0.45963973 -0.14314425 0.44189757 -0.2475792 0.43489578 0.09137808 0.5776705 -0.20503247 -0.27448335 0.018423356 -0.21694349 0.66211915 -0.46365952 -0.33656144 0.31291926 0.22619396 0.6379401 -0.44841304 0.2520557 0.062690295 0.016529482 0.48901954 0.13324316 0.23037182 0.35331503 0.16217865 0.49376553 0.22396229 0.32612723 -0.2066594 -0.27506757 -0.75040257 -0.20652546 0.6187303 -0.26400727 0.18254314 -0.46948206 0.0059090266 0.6904956 0.24664259 -0.75239986 -0.06590056 -0.22310293 -0.22674073 0.11671735 -0.35345665 0.105091654 -0.73448867 -0.92893326 0.08727326 -0.038636446 -0.5599957 -0.41001818 0.12382036 -0.44794667 -0.34705964 0.31166187 0.41166747 -0.1390619 -0.31196296 -0.46540353 0.16139506 0.17836995 0.39810216 0.69851565 -0.056845352 -0.073199496 0.1275714 0.26998508 -0.50675374 -0.071226515 0.13682655 -0.4319833 -0.045891616 0.009773562 -0.041958153 -0.097766615 0.13864991 1.0958341 -0.42505074 0.0033898887 0.46360928 0.27925697 -0.1511859 0.28377414 0.92736477 0.19065705 -0.13279259 -0.19411428 0.10372623 0.5318627 -0.60586095 -0.0076989895 -0.13015741 -0.6675983 -0.0002486149 -0.10909527 0.35373026 -0.10939535 0.16513273 -0.26546627 0.47304904 0.55652946 0.2875155 0.26148933 0.06182834 -0.22342962 -0.17726056 -0.16584204 0.3562209 
com.github.nisrulz.sensey.OrientationDetector.onSensorEvent -0.0806883 0.14554258 -0.40299612 0.47128856 -1.1432809 -0.5030332 -0.92234874 -0.35902357 -0.28056556 0.3491018 0.8479545 -0.328352 -1.1972888 -0.695633 -0.3861067 0.22586092 -1.0729394 0.9080602 -0.23675127 0.13561517 0.41638723 -0.13182345 -0.20131168 -0.70482355 0.76318896 -0.3314868 -0.27588797 0.11372959 -0.5928602 0.27857602 -0.3597303 -0.25916433 0.086391345 -0.13407055 0.8490139 0.1113124 0.28557307 0.053609785 0.49260896 0.2737382 -0.3816039 0.22414176 -0.69665956 0.29944244 0.29654187 0.28436166 0.61869425 -0.75684315 -0.14440884 -0.052262787 -0.3415665 0.10500064 -0.38783997 -0.2461344 0.058648534 0.26692805 0.5354447 0.43747315 -0.43045318 0.44274363 0.07244057 -0.08119768 0.14885147 -0.24061328 -0.056773 -0.11178428 -0.2649543 0.3508106 0.006639411 -0.20198482 -0.07152986 0.92980784 -0.4957606 -0.41179276 0.105021864 0.56496733 0.2849568 0.1296482 -0.14134637 -0.20663176 -0.5743147 0.13596945 0.3442867 0.010455645 0.15387952 -0.35554785 0.23224409 0.4622219 -0.09572399 -0.29147735 -0.44957647 0.035588775 0.7877051 0.43981594 -0.106783666 -0.52315086 0.93371433 -0.003586614 -0.041963022 0.62163264 1.0290946 0.42271826 -0.3730388 0.40669674 0.071859926 0.030531017 -0.59369445 -0.30888063 0.14832693 0.42301118 0.26075557 -0.21041691 -0.5368028 0.094662584 1.0158523 -0.55490685 0.0015199616 0.10884141 -0.60256726 0.26328516 0.79798216 -0.07060184 0.71242267 -0.41164932 -0.17542785 0.86127603 -0.8759714 0.63406986 
com.github.nisrulz.sensey.OrientationDetector.OrientationListener 0.1911631 -0.10099942 -0.18545605 0.4342202 -0.23906033 -0.374684 -0.3469741 -0.29637006 -0.20216562 0.54974484 0.43409252 -0.3343983 -1.1833817 -1.1285143 -0.009456094 -0.14916188 -0.6373758 0.88971406 0.43486196 -0.14275435 0.10668131 -0.6747798 -0.100244984 -0.06877556 0.7266416 -0.35500205 -0.46008736 0.034337416 -0.22404748 0.29847908 -0.04242512 -0.20834792 0.6484754 -0.5412448 0.44230476 0.2994319 0.39201802 -0.09322214 0.049527008 -0.08990256 -0.3619602 0.34672004 -0.41930333 0.396901 0.25187594 0.20990027 -0.3193632 -0.37152648 -0.60814774 0.102058426 -0.24914114 0.41135195 -0.034533024 -0.15804197 -0.0770613 0.54256046 0.3459043 0.08467892 -0.42879364 0.39455992 0.04028375 0.028476624 0.26240557 0.074310265 0.07044621 0.08134026 -0.14330934 -0.13303867 0.3306447 -0.48267174 -0.36549833 0.9003333 -0.03584432 -0.22393093 0.36414462 0.2819057 -0.01764791 0.13420498 -0.11785663 0.2672184 -0.4468992 0.20099263 0.06835991 0.28869697 -0.3964144 -0.05960048 0.02116357 0.23199621 0.15997997 0.034735538 -0.019996163 0.19932163 0.28998798 0.24820007 0.37184933 -0.1520056 0.9491157 0.07192435 0.075019516 0.17403483 0.21019174 0.4925683 -0.32334226 0.48126018 -0.21174246 0.25876218 -0.5422122 -0.32599834 0.2885499 -0.26746762 0.16746625 -0.627613 -0.35398433 0.06505976 0.26663864 -0.026016075 0.14203916 0.014362093 -0.4903038 0.35527292 0.21039118 -0.045441996 0.5697137 0.08493549 -0.0865864 0.5239145 -0.7755102 0.23235627 
com.github.nisrulz.sensey.OrientationDetector.OrientationListener.onTopSideUp -0.39388907 0.20242047 -0.19555745 0.06934571 -0.18804829 -0.25211415 -0.95596164 0.033503722 -0.32253417 -0.047920518 0.31299174 -0.20851436 -1.444419 -0.42951456 -0.34558082 -0.30442077 -0.415228 0.96907043 0.22115521 -0.14864439 0.072403595 0.002377082 0.2293488 -0.05121157 0.1463874 -0.038698126 -0.3015094 0.30006632 -0.17538181 0.9681123 -0.5914136 0.037814695 0.59133136 0.14049897 0.7673721 0.17272373 0.4114043 0.42805728 0.45443887 0.54487205 -0.63520294 0.38454834 0.34787598 0.74126667 1.1080359 0.58177406 0.17822577 -0.37361166 0.032493975 -1.1929651 -0.6313093 0.12226489 -0.053100415 -0.051592052 0.44434124 0.053223807 0.6958199 0.44182613 -0.76166713 0.26538378 -0.7642814 -0.3873007 -0.18377206 0.024267772 -0.0045659402 -0.73305994 -0.25800163 0.16951507 -0.0030463908 -0.40635082 -0.10665984 0.041487064 -0.5408444 -0.38985232 0.40047666 0.32860816 -0.106839016 -0.07014984 -0.8406669 -0.1793416 -0.025963414 0.38961855 0.5181613 -0.3093455 0.37362748 -0.3520072 -0.5418374 0.45671687 -0.40630543 0.24185713 -0.17699604 0.006406951 0.6238552 0.060980964 -0.13322057 -0.040233683 1.0566629 -0.010724475 -0.30720752 0.41315675 0.97727937 -0.09843832 -0.12102724 0.42847148 -0.011546664 -0.16007383 -0.091104895 -0.29811063 0.9111593 -0.13294494 0.41888347 0.06866076 -0.2740094 0.086019486 0.11791494 0.32217026 -0.58767575 -0.4537525 -0.35313398 0.9814003 -0.078619674 0.30473462 0.6025189 -0.48341218 -0.24581508 0.45174995 -0.32103357 -0.10145756 
com.github.nisrulz.sensey.OrientationDetector.OrientationListener.onRightSideUp -0.51156193 0.21390465 -0.18268858 0.047687083 -0.24957594 -0.33629447 -0.93002176 0.10358179 -0.36028194 0.09435911 0.36572832 -0.18141218 -1.3290874 -0.48116162 -0.30513814 -0.25836852 -0.3835489 0.9187112 0.24906193 -0.1733283 0.044035953 -0.03458003 0.21272169 -0.052953396 0.17512265 -0.0039234916 -0.19978978 0.34235913 -0.21362112 0.9194305 -0.55615515 0.054695778 0.5565593 0.09936903 0.9144602 0.113940984 0.43677324 0.41926104 0.4415665 0.49058178 -0.497877 0.500345 0.3706424 0.7596258 1.0823351 0.5854565 0.16738734 -0.31698588 0.011583879 -1.1882005 -0.5964764 0.17264692 -0.07321813 -0.057907052 0.43705183 0.042263564 0.7087146 0.44652444 -0.79890174 0.2516032 -0.792164 -0.3851488 -0.25259674 -0.08494531 0.020150846 -0.7128302 -0.2566393 0.13169962 0.1150785 -0.31411144 -0.104209706 -0.0066489773 -0.5718884 -0.36889124 0.39394048 0.288546 -0.032026816 -0.058543257 -0.8666172 -0.14071222 0.030825395 0.40501013 0.45006123 -0.29194856 0.3693996 -0.38266808 -0.5577312 0.42186803 -0.409369 0.18469238 -0.13889968 0.057099216 0.6310455 0.01958869 -0.068057306 -0.09805971 1.0622976 -0.02402564 -0.24093728 0.42258838 1.0352125 -0.0712951 -0.09415061 0.53867185 0.097560324 -0.18356505 -0.13545386 -0.2934167 0.864138 -0.15397604 0.42638716 0.04546655 -0.3272035 0.078532636 0.116788566 0.3550701 -0.63780665 -0.46313348 -0.42083955 0.87115353 -0.095830545 0.305548 0.54208696 -0.56499976 -0.20912442 0.48320904 -0.35264343 -0.15818454 
com.github.nisrulz.sensey.OrientationDetector.OrientationListener.onBottomSideUp -0.35086378 0.2139502 -0.20845039 0.03029776 -0.15179652 -0.1992295 -0.9076058 -0.0072380435 -0.23151177 0.045946684 0.37678722 -0.16320829 -1.3981471 -0.49131808 -0.30992654 -0.28724906 -0.3487113 0.99478555 0.26471418 -0.18655296 -0.011740608 -0.1439902 0.23880821 -0.013988328 0.20940797 -0.025812693 -0.30669916 0.3668971 -0.25869167 0.9776266 -0.5662755 -0.025017746 0.6143677 0.13816544 0.8503578 0.18580282 0.5311708 0.45350638 0.41511774 0.50920403 -0.64685076 0.39702845 0.34505302 0.7594994 1.0784668 0.5519895 0.18389614 -0.40605915 -0.06952225 -1.0905683 -0.6123186 0.17387734 -0.025165671 -0.1075158 0.4570981 0.13204852 0.6886377 0.4324183 -0.8262099 0.22201766 -0.7956315 -0.36593673 -0.24419907 -0.024775956 0.0759403 -0.6865544 -0.2846107 0.061102618 0.09876691 -0.38197517 -0.102802515 0.04574608 -0.48289424 -0.35801435 0.4638889 0.3767728 -0.0802996 -0.04127788 -0.90273046 -0.16578948 -0.085493736 0.37189764 0.4332869 -0.29580104 0.30034745 -0.29953468 -0.53410465 0.4366833 -0.38263217 0.3151716 -0.23954657 0.01826589 0.5789378 0.07173767 -0.11021148 -0.030410575 1.1121908 -0.027803216 -0.27310982 0.3417788 0.98548377 -0.16494206 -0.040639542 0.5062157 0.03973173 -0.17230368 -0.09940387 -0.37348562 0.8324891 -0.16658169 0.39503756 -0.008120628 -0.26009274 0.10867304 0.07293039 0.28543368 -0.5712526 -0.48319075 -0.36837134 0.9519688 -0.13230097 0.3248117 0.56081265 -0.48915285 -0.24168448 0.45106593 -0.4617427 -0.14644492 
com.github.nisrulz.sensey.OrientationDetector.OrientationListener.onLeftSideUp -0.3975584 0.14094827 -0.16918859 0.049225025 -0.2531976 -0.317377 -0.9273025 0.08550435 -0.44033077 0.0012551231 0.3334418 -0.2609494 -1.4314843 -0.44259146 -0.45566243 -0.269202 -0.41113806 0.93703586 0.2457028 -0.24496324 -0.02954108 -0.0002603826 0.12765858 -0.031957358 0.09855111 -0.0049249344 -0.29654947 0.2830913 -0.21942519 0.98715836 -0.6114139 0.07079196 0.5431057 0.14658113 0.7931372 0.07407299 0.44681793 0.49701056 0.38839483 0.5262681 -0.6500296 0.38975692 0.40647748 0.69279456 0.9754337 0.5603485 0.13586067 -0.28661764 0.01280862 -1.2166743 -0.602192 0.1894125 0.06431428 -0.04416692 0.49341032 0.07504039 0.74421406 0.3865842 -0.73737705 0.31948072 -0.8017921 -0.4154601 -0.26197785 0.005237506 -0.023370882 -0.7447564 -0.31395748 0.1966591 0.11672092 -0.31572244 -0.19631119 -0.024067117 -0.486833 -0.37274614 0.38167045 0.32842872 -0.18203732 -0.1320502 -0.90347147 -0.16690367 0.09952224 0.4524548 0.47379422 -0.34803587 0.34225342 -0.33692804 -0.5142301 0.4284414 -0.30212954 0.19316322 -0.19345221 -0.03062339 0.6548353 0.08149249 -0.1367696 -0.072579905 1.0463245 -0.011661864 -0.32256362 0.45356646 1.0092239 -0.12791437 -0.06887245 0.54578716 -0.10119865 -0.14477071 -0.134038 -0.37411132 0.928713 -0.10143866 0.45152262 0.104898706 -0.33124545 0.032470196 0.12341476 0.2902173 -0.6592368 -0.3814365 -0.28833 0.9000261 0.0023557523 0.35874572 0.5266878 -0.4254936 -0.2487228 0.39300835 -0.34406954 -0.18840961 
com.github.nisrulz.senseysample.MainActivity.onCheckedChanged 0.12014415 0.17043602 0.035545696 -0.1485113 0.18927354 0.27933988 0.11752151 -0.0057639736 -0.14888543 -0.58883756 -0.51328886 -0.2719132 -0.40874767 0.3523964 0.010732773 0.13490465 0.11439544 0.4656189 0.14198235 -0.2059868 -0.35860458 -0.28463793 0.2784561 0.41465533 0.06304201 0.66947234 -0.11987175 0.09964014 -0.19228642 0.6592719 0.0731951 -0.25480586 0.4515618 -0.24871898 -0.054739952 0.5348807 0.31813198 -0.37741172 -0.14932965 -0.20250411 -0.3848314 -0.07005325 0.44296086 0.25741175 -0.16634123 -0.16567917 0.1777639 0.11560585 0.20406511 -0.3574355 -0.07950474 0.08051533 0.3113402 -0.0815506 -0.032196198 -0.16789065 0.20035553 0.123302035 -0.12736379 -0.024428165 -0.21354812 0.12705049 -0.26292518 0.5809293 -0.29899305 -0.020361643 0.1044079 -0.028792068 -0.14867777 -0.6185687 -0.127805 -0.064074874 0.17318472 -0.22424906 0.5085816 0.017806878 -0.21478133 -0.012483455 0.24150679 -0.1974441 -0.2455822 -0.021972824 -0.18611369 -0.038980994 -0.108201884 0.07280542 -0.36527762 0.36342463 -0.325001 0.44162235 0.046627436 0.37329763 0.25433356 -0.33194566 -0.19124292 -0.49809182 0.46814382 0.19020283 0.43948984 -0.6715916 0.26627642 0.5423278 -0.088492505 0.06217609 -0.36258173 0.045707718 0.274374 -0.30931643 0.12789553 -0.26446396 -0.27962634 0.08431032 0.3315186 0.39405555 -0.2998588 0.4125384 0.0074385093 -0.26179156 0.44597456 0.034556348 -0.4554769 -0.0147379795 -0.04186022 0.038132433 -0.44056666 -0.13986738 -0.1710576 -0.62808293 
com.github.nisrulz.sensey.Sensey.startWristTwistDetection 0.9081547 -0.03257702 -0.4446177 0.008775306 -0.015396815 0.47824654 -0.35931832 -0.13059239 -0.2149539 -0.46503335 0.43305108 0.012966588 -0.55196327 0.3143614 0.33123407 0.009507117 0.08855775 -0.032678965 -0.3216408 0.062445894 0.3100253 0.018068355 0.8654424 0.10627571 -0.123567775 0.26374948 0.09085762 -0.3136718 -0.023797216 -0.076949045 0.11461409 -0.48017707 -0.2162687 -0.1515071 -0.07357391 0.35281342 -0.2587468 -0.113690645 -0.16658613 -0.55320007 0.042865004 -0.59824693 0.32583973 0.15246873 0.28521046 -0.37255475 0.016653432 0.37206033 0.31823087 0.14875299 0.2751588 0.3681181 0.29289645 -0.18404792 0.91620064 0.32590303 0.1448443 0.239558 -0.37812752 0.137556 0.005590234 -0.17505917 -0.28502995 -0.08778056 0.4126412 0.24824864 -0.06619843 0.830313 -0.050440744 -0.48188615 0.23545872 -0.11573459 -0.051793292 -0.34365273 0.72553 0.12067888 0.21756206 0.047915593 0.13821003 -0.30408713 0.0969347 0.57487994 0.006085133 -0.4298031 0.18066022 0.4407383 -0.48029786 0.38800195 -0.32958332 -0.29966342 -0.18300395 0.08573607 -0.25371313 -0.3570412 -0.388085 0.07485008 0.3186998 0.058633916 -0.16262761 -0.17353927 0.57429165 -0.080148436 0.43731734 -0.42450812 0.064715505 -0.3808983 0.500031 0.10939897 0.8733705 0.1251845 -0.36481765 -0.20388776 0.23998126 0.61892766 0.25760102 -0.2326815 0.19007719 -0.04980568 -0.14081505 1.3858082 -0.14475957 0.26604843 0.22543368 0.40125075 0.031492066 0.15362279 -0.33422035 -0.25214338 
com.github.nisrulz.sensey.Sensey.stopWristTwistDetection 0.7303148 0.16230892 -0.2518361 0.3205574 -0.15144819 0.09576019 -0.1004015 -0.4355234 -0.4097001 -0.6688786 0.34343502 -0.35956272 -0.43664676 0.6045243 0.13491085 0.08253516 0.08731767 0.090262935 0.014513083 0.40489745 0.034268938 0.010745987 0.72357166 0.14445443 -0.03975445 0.3562893 0.3933357 -0.1621266 -0.5203892 0.23940933 0.32154852 -0.8961979 0.046734635 -0.21995282 0.3465217 -0.087866865 -0.070598066 0.6446861 0.25250468 -0.713446 -0.22802748 -0.3085731 0.44521883 -0.14971116 0.21286483 -0.36631688 0.2879434 0.3093583 0.025823329 0.20267402 0.17968664 -0.21975435 -0.05028531 -0.237957 0.5754961 0.15174405 0.48207068 -0.20941386 0.008765558 0.20610613 -0.043009166 -0.6925919 -0.31935313 0.20297904 0.35834715 0.661419 -0.20142473 0.32123426 0.21995993 0.026682584 0.12121929 -0.19361438 -0.17345273 0.07706803 0.3096657 0.19298168 0.30928004 -0.049268156 0.047976293 0.13621575 -0.27291813 0.54908293 -0.19106337 -0.37526563 0.16208021 0.20680118 -0.070776775 0.27673775 -0.0756173 -0.4300798 0.34486726 0.54344195 0.3887414 -0.041942015 -0.4489898 -0.39254102 0.21972184 -0.28549775 0.07936847 -0.28422618 0.81032073 -0.31341496 0.17510037 -0.16340494 0.3140884 0.06026345 0.084227584 -0.2716275 0.4378775 0.10132241 0.014930835 -0.06596066 -0.119073644 0.09497156 0.15729482 -0.32838878 -0.16273195 0.23895933 0.06405441 0.7232327 -0.016912052 0.35154548 -0.09329535 0.05765503 -0.11132453 -0.06533761 -0.48900193 -0.111957744 
com.github.nisrulz.sensey.Sensey.startRotationAngleDetection 0.84169483 0.25427753 -0.2638373 0.04291638 0.001644518 0.42784905 -0.083413504 -0.2645975 0.45518422 -0.47031236 0.31324777 -0.18299514 -0.47051454 0.12437052 0.028567508 -0.27327767 0.32574752 0.024185061 0.14636618 0.007458131 0.2230009 0.015808083 0.40297863 -0.09895667 0.0823396 0.2118373 0.3787827 -0.29760468 -0.14530352 0.007852875 0.32763907 -0.38849667 -0.0041053775 -0.22039954 0.22545667 0.43864205 0.1145825 -0.03628972 0.026976518 -0.5154034 -0.12806338 -0.0668076 0.16630076 0.48543024 0.6750268 -0.5111156 0.026812317 0.1544766 -0.06544766 0.34699354 0.22234076 0.08985422 0.20156631 -0.3129128 0.745801 -0.27861816 -0.03631896 -0.03339933 -0.3822791 -0.24674577 -0.12924331 -0.82124346 -0.4212787 0.06537971 0.6088308 0.41526622 -0.14306317 0.3108113 -8.580819e-05 -0.35434783 0.19620861 0.23420857 -0.5087224 -0.4043538 0.6453907 0.3510112 0.13898908 0.26378313 -0.48333457 -0.15853634 -0.19825551 0.17849107 0.16862597 0.057521556 0.030893775 0.2577141 -0.67403275 0.54107684 -0.31491098 0.26889807 -0.19456168 0.36609313 0.045321267 -0.13090383 -0.14456995 0.14951578 0.23889607 0.038551442 -0.25650176 -0.43318984 0.61351186 -0.21918567 0.41836363 -0.01725468 0.4270547 -0.3801499 0.046975464 -0.27330148 0.40171617 0.5120511 -0.2583262 -0.550875 0.083361074 0.7501637 0.053414445 -0.14662568 0.2378723 0.051944666 -0.056716215 1.1027519 -0.5443872 0.33860248 0.5293268 0.37611857 -0.013931109 -0.01239417 -0.34120288 -0.46121463 
com.github.nisrulz.sensey.Sensey.stopRotationAngleDetection 0.7270515 0.20931241 0.21086636 0.12809892 0.14862825 0.6011969 -0.15907684 -0.45509607 -0.2306614 -0.46545702 0.46016973 -0.03843456 -0.9305463 0.26149717 0.02203877 0.15469126 -0.09371837 0.21616022 -0.21559215 0.27804863 0.3052721 0.22455333 0.3542917 -0.27476466 -0.2060181 0.31154948 -0.036685545 0.03121442 -0.2759144 0.52940685 0.42811885 -0.73695964 0.09444114 -0.14575414 -0.012358273 0.05921402 -0.030122956 0.38333735 0.048967168 -0.43381265 -0.66445214 -0.34047994 0.46773532 0.14033273 0.22694284 -0.4093115 0.38180906 0.29121903 0.44435802 0.23720972 0.04381356 -0.037692677 0.05293483 -0.017163403 0.56067115 0.19922204 0.43198502 0.09940612 -0.16186337 0.20546606 0.2327389 -0.48408937 -0.33059767 0.17864257 0.48486158 0.37293673 -0.26651657 0.5260857 0.07255829 -0.083647124 0.22350594 -0.33435977 -0.19684064 0.051730525 0.29377857 0.37406203 -0.12289766 0.47130248 -0.02315656 -0.043571774 0.065743156 0.60946476 0.058844917 -0.042199086 -0.012569529 0.28771526 -0.41410446 0.2625239 -0.23113947 -0.24263564 0.04414058 0.3697329 0.19683442 -0.14773338 -0.2720397 -0.2212331 0.37439653 -0.19074416 -0.10614683 0.036700837 0.2474047 0.06500618 0.22769803 -0.23416305 0.2836045 0.00013227078 0.46702462 -0.5258603 0.44110835 0.06416552 -0.12015465 -0.2731799 -0.086061046 0.24277504 0.28678146 -0.17538168 -0.057812173 0.050767887 0.10660895 0.9805763 0.058899608 0.5986037 0.29783338 -0.07700461 -0.20554802 -0.2165494 -0.5237545 0.059687186 
com.github.nisrulz.sensey.Sensey.startTiltDirectionDetection 0.42410085 -0.07624145 -0.50161386 0.07246685 -0.20859198 0.028341433 -0.07187248 0.2522513 -0.25405338 -0.24829412 0.35464504 -0.1382795 -0.4597731 0.008661966 0.10912581 0.13845459 0.43642804 -0.2596723 0.12796468 -0.05239558 0.48344588 -0.0637208 0.41560724 -0.04650682 0.10295626 0.006568635 0.2541186 -0.05900154 -0.39413157 -0.06689809 0.14646849 -0.2920713 0.23029958 -0.483761 0.27526593 0.3315737 -0.32086727 0.088462494 -0.03777493 -0.712074 0.109422415 0.33726567 0.089255996 0.20489028 0.45775044 -0.59240943 -0.013878087 0.022269502 0.15196575 -0.036819197 0.27551752 0.5195011 0.31247428 -0.3440359 0.5665983 -0.04025365 0.23703122 0.05974754 -0.38568163 0.15941823 -0.03538194 -0.61808723 -0.27406266 0.10158905 0.5333543 0.11311085 -0.16086908 0.88270915 0.25038823 -0.4490444 0.007776508 0.1738874 -0.48981073 -0.3788772 0.3420178 0.14890127 0.19988362 0.14498904 -0.009807157 0.043030888 -0.06650779 0.4811114 -0.11349113 -0.17015852 0.015556914 0.05619931 -0.24347831 0.63848895 -0.024339944 -0.19138022 -0.09327439 0.25915495 -0.25047827 -0.06446378 -0.27387017 0.16569205 0.29065526 0.0997281 -0.052720107 0.09782875 0.44326282 -0.21269508 0.28769353 -0.2179613 0.55404276 -0.091342114 0.31678155 -0.25608218 0.57356894 0.32877994 -0.16444558 -0.28506476 0.16216896 0.2748102 -0.020004343 0.27531093 -0.3170154 -0.28025946 -0.39938074 1.1413391 -0.04604942 0.093637876 0.28259656 0.57992375 -0.16624568 0.08257283 -0.2937642 -0.5129336 
com.github.nisrulz.sensey.Sensey.stopTiltDirectionDetection 0.5709685 0.105846286 -0.06139084 0.4487349 -0.67092216 0.15260191 -0.23187454 -0.22520065 -0.39573914 -0.21441619 0.114155516 -0.054128915 -0.53748757 0.40391964 0.18587719 0.07086186 0.21974517 0.09316935 0.028977847 -0.1730662 0.45540276 -0.026348528 0.5822803 -0.29303837 0.020235503 0.18094243 0.3229239 -0.37967 -0.49957496 0.2617719 0.19418544 -0.5314156 -0.027062258 -0.13679565 0.34696585 0.26160762 0.22982638 0.53955215 -0.101621434 -0.31850675 -0.32979745 -0.11011217 0.6159541 -0.26683614 0.37620017 -0.42807606 0.05207819 0.21285817 0.21051514 0.32608655 -0.17819951 0.07368835 0.29442897 -0.20333688 0.58657753 -0.39349633 0.48872268 -0.008726269 -0.17996907 0.23500216 -0.096364394 -0.38281864 -0.84383875 0.27660382 0.5976217 0.6629946 -0.07416242 0.47171837 0.0752295 0.12285057 0.072063185 -0.2279286 -0.5644014 0.20866401 0.3494731 0.19176705 0.04933297 0.29084364 0.15081136 -0.21060582 -0.15980664 0.55138373 0.07858994 0.021441586 -0.07907749 0.17712934 -0.08261211 0.19919522 -0.025992753 -0.07604999 0.11344854 0.42998427 0.15039913 -0.014158055 -0.41741273 -0.25870386 0.5433136 -0.1194829 -0.15456824 -0.070047155 0.5493283 -0.22268993 -0.017955117 -0.103862226 0.049195595 -0.07821092 0.402123 -0.3532938 0.30006766 0.41093037 0.1359783 -0.3278695 -0.4536314 0.46204907 0.07559355 -0.26720035 -0.45632726 -0.22057576 0.31857508 0.9893982 0.17198828 0.63369125 0.10705639 0.10532694 -0.10449572 -0.12966399 -0.32342002 -0.14501068 
com.github.nisrulz.sensey.Sensey.startStepDetection 0.5741728 0.11584077 -0.14934072 0.01245711 -0.14820364 0.25494176 -0.33109376 -0.44350636 -0.0915701 -0.41556615 0.4014113 -0.30646005 -0.49153742 -0.028326303 0.09064771 0.07634454 0.04177981 -0.12467247 0.03473344 0.32997105 0.033539794 -0.025858967 0.47427055 -0.15022346 -0.06909618 0.34009555 0.23835851 0.100039005 -0.14240833 -0.059857156 0.622246 -0.26289842 -0.16310069 -0.32413387 -0.060423564 0.110200025 0.10129432 0.22921647 -0.2622344 -0.6368493 0.1723733 -0.14650935 0.18282422 0.12878712 0.5139229 -0.32815886 0.05383071 0.25740275 0.0030275998 0.09802418 0.31632257 -0.10929157 0.3388125 -0.412708 0.9234167 0.13756177 0.20499304 -0.034276765 -0.006348454 -0.048956294 -0.15693547 -0.5254702 -0.2800575 -0.20901138 0.5781323 0.24352394 -0.19692183 0.60074 0.08057139 -0.15384074 0.40031683 -0.27023757 0.082205705 -0.16920513 0.5123466 -0.24642158 0.05650878 0.20123461 -0.27207446 -0.16107036 0.18049978 0.5309593 -0.5635369 -0.30672455 -0.051194046 0.18777317 -0.6432016 0.17326435 -0.47416705 -0.14913422 0.010616944 0.11849749 0.05954322 -0.2492487 -0.1910055 -0.0113043925 0.11517519 0.2007683 0.059046693 -0.23127495 0.70656306 -0.573493 0.6694528 -0.3429072 0.2361074 -0.33759823 0.23359907 -0.033263903 0.5394843 0.23422883 -0.14383122 -0.3522941 0.0592172 0.53006166 0.08291237 -0.31157947 0.13862966 0.012024274 -0.25472465 0.8635637 -0.2988845 0.31719354 -0.09915615 0.22066225 -0.22093955 0.34230453 -0.45745346 -0.12838258 
com.github.nisrulz.sensey.Sensey.stopStepDetection 0.68493986 0.06597127 -0.49069342 0.20441708 -0.358151 0.45082954 -0.015513424 -0.08966177 -0.3295154 -0.19988094 0.38520813 0.0647387 -0.33255723 0.16268711 0.0875234 0.06917748 0.44733858 0.1517726 0.024263132 -0.20182987 0.304356 -0.16558023 0.6382328 0.04782877 0.13407518 0.121228546 0.077873275 -0.37084356 -0.37137887 0.42379883 0.08088104 -0.46655378 0.07510415 -0.084324844 0.37237823 0.04470027 0.1888433 0.24877349 0.1867253 -0.18802866 -0.6298597 -0.23507147 0.4599043 -0.20181757 0.28733572 -0.6370867 -0.026545672 0.14314796 0.2778666 0.21893065 0.4108725 0.05567279 0.10705131 -0.17381966 0.7670936 0.23853768 0.172925 0.049632236 -0.2545042 0.21410637 -0.015021547 -0.43019307 -0.15316395 0.2609972 0.61851966 0.40305302 -0.34741592 0.35482708 0.07268065 -0.0083756205 0.11713564 0.24266623 -0.1799472 -0.24441452 0.45033753 0.29323536 -0.22931412 0.10939313 -0.08705872 0.16445227 -0.102274455 0.55528814 0.14605504 0.24677502 -0.040720847 0.36596593 -0.079608455 0.27831614 -0.25415573 -0.32742855 -0.23453669 0.69429743 -0.35691595 -0.006772565 -0.51077896 -0.071041696 0.18434992 0.15799949 -0.019405562 -0.08741566 0.2897879 -0.035694383 -0.023540452 -0.14699502 0.19758514 -0.10382443 0.07256716 -0.37648952 0.4610148 0.25717404 0.0050586136 -0.31159437 0.013153346 0.08764542 0.096447155 -0.2643886 -0.10820162 -0.19853944 -0.03936619 1.0860971 0.22290824 0.5418693 0.31743774 0.5056378 -0.24996468 0.002535599 -0.31922308 -0.4298648 
com.github.nisrulz.sensey.Sensey.startPickupDeviceDetection 0.8119803 -0.19911474 -0.15488599 0.58838546 -0.2659096 -0.033295132 -0.37143993 -0.04749789 -0.10362762 -0.6089276 0.27905074 -0.42514443 -0.7940898 0.012764364 -0.38974926 -0.36263323 -0.23081417 0.23452441 0.040008936 -0.25740775 0.41866046 0.059491184 0.52674645 -0.18298301 -0.10076135 -0.2133276 0.23068438 0.04421188 -0.06152334 -0.072561204 0.31721985 -0.2775913 -0.14683989 -0.24406405 0.19801074 0.07462066 0.26131567 0.29686993 -0.24631394 -0.5937553 -0.081417985 -0.07964521 -0.19257505 0.32554463 0.5015076 -0.38110563 -0.31242418 0.09289459 -0.053264417 0.09836108 0.023429092 -0.20420651 0.08496003 0.06388588 0.5586627 -0.75758606 0.3499185 -0.5833522 -0.52735335 0.09982285 -0.15042807 -0.8407966 -0.24684796 0.4443153 0.32447383 0.6721235 -0.1730674 0.6975324 -0.41226563 -0.16559416 0.2678643 0.0059434217 -0.24816245 -0.054750536 0.55210894 -0.10404444 0.21001342 0.14382966 -0.45993575 -0.061535235 0.070942484 0.5752441 0.36050808 0.03168153 -0.24225797 0.052488018 -0.10083712 0.5968357 -0.23599169 -0.09569257 -0.23273958 0.03329422 0.4769875 -0.075003035 -0.3373758 0.5820414 0.13216786 -0.3677707 -0.37106347 -0.013027938 0.78451 -0.084087506 -0.06884765 -0.3869817 0.09668085 0.11959877 0.0056997743 -0.101584755 0.7551245 0.32196227 -0.024356663 0.06138613 -0.2824123 0.5319533 -0.20560434 -0.35701048 -0.40886372 -0.10170081 0.08194956 0.9792436 -0.73451704 0.55072635 0.2372179 0.3904682 0.08502216 -0.3264475 -0.42760816 -0.2777421 
com.github.nisrulz.sensey.Sensey.stopPickupDeviceDetection 0.82112813 -0.06309349 -0.29786742 0.028464273 -0.22525822 0.4073419 -0.18237308 -0.24524628 -0.30698133 -0.3216016 0.17648292 0.04905955 -0.4788787 0.6098881 0.30222932 -0.12887874 0.016140623 0.036267783 0.19157949 0.10765339 0.07098277 -0.037512675 0.77388924 -0.06628272 -0.013810881 0.2366239 0.027458858 -0.11345792 -0.5060798 0.47386026 0.21669412 -0.51251256 0.016766831 -0.18857165 0.40654603 0.093250155 -0.040792428 0.41781244 0.1674734 -0.4218054 -0.32481048 -0.4628769 0.50372654 -0.0953206 -0.013383346 -0.37565085 0.33279905 0.24335827 0.28533393 -0.016459918 0.06837909 -0.14716607 -0.017034173 -0.09338275 0.65202487 0.2567769 0.24215935 0.22604147 -0.11347779 0.74220145 -0.032406013 -0.3892011 -0.48165804 0.19303009 0.5216311 0.46219906 -0.15030894 0.3573742 0.16099292 -0.1024253 0.23364961 -0.16072983 -0.00288916 0.15475816 0.44125286 0.26636663 0.3011987 0.27869976 0.09278194 -0.06803477 -0.02785007 0.57915586 0.079935126 -0.093867 0.2281644 0.105934516 0.018540913 0.16184568 -0.22070722 -0.48531073 -0.07137268 0.45284507 -0.10611536 0.0015124418 -0.39763057 -0.03734662 0.28662172 -0.015279459 0.01234216 -0.29313502 0.72984695 -0.04130792 -0.22148272 -0.022905786 -0.16536996 -0.11164724 0.3828543 -0.11324673 0.37933263 0.106823795 -0.17386794 -0.39935556 -0.07038202 0.053885143 0.07926502 -0.12333976 -0.25554457 -0.011449581 0.21177566 0.92935675 -0.13090493 0.50710493 -0.05717344 -0.017582908 -0.0527662 0.09304125 -0.3918367 -0.20429295 
com.github.nisrulz.sensey.Sensey.startScoopDetection 0.651338 0.1724204 -0.12955834 0.13768661 0.054567557 0.37444693 -0.32130668 -0.06617375 -0.25426114 -0.67007476 0.40764493 -0.31825 -1.0091617 0.1911743 -0.1141756 0.03825783 0.21554025 -0.16831186 -0.32971716 0.5997908 0.2922908 -0.0072288103 0.17512925 -0.010699953 -0.13697723 0.19042686 0.18285257 -0.054986827 -0.2773094 -0.088631935 0.46852374 -0.4573268 0.0854205 -0.26238412 0.13476738 -0.07936481 -0.18192063 0.21571715 -0.29456428 -0.82144856 0.056822777 -0.35325563 0.05675882 0.24905536 0.7006956 -0.45055598 0.28926292 0.29670894 0.03816407 0.0035110177 -0.17250228 0.03210769 0.23226012 -0.32073507 0.47315985 0.0035724824 0.43226916 0.017658934 -0.17068063 -0.32795846 -0.17389633 -0.36910203 0.13993073 0.015898371 0.28945294 -0.0816877 -0.22581966 0.632972 0.08997949 -0.2535759 0.30514243 -0.45274535 -0.28807658 -0.11119851 0.08007818 0.08822768 0.12835902 -0.05725615 -0.18598515 0.055730917 -0.12719671 0.5316381 -0.13169537 -0.5501439 0.48687208 0.1610841 -0.81673926 0.03295929 -0.02897021 -0.3136192 -0.107157215 0.38864085 0.21259919 -0.24252415 -0.31141967 -0.29332164 0.50021785 -0.22508956 -0.103950374 0.03807249 0.6173999 0.003394879 0.5866502 -0.7038808 0.5291594 -0.19893268 0.30201983 -0.48908487 0.8466582 -0.05084092 0.0025911545 -0.13040608 0.044151366 0.45831397 0.4541421 0.15983927 -0.1398093 0.03435051 -0.1844202 0.6488769 0.12311132 0.65157044 0.17958866 0.4557819 -0.42594606 0.28015625 -0.29005963 -0.007523437 
com.github.nisrulz.sensey.Sensey.stopScoopDetection 0.8529816 0.11455006 -0.054048732 0.11296898 -0.14282909 0.32132086 -0.2978833 -0.2977829 -0.1364078 -0.18135378 0.28527984 -0.022734625 -0.6841147 0.2795225 0.22359584 -0.047214884 0.11517892 0.15866642 0.15931304 0.1962193 0.15696885 0.07470001 0.5184456 -0.22587603 -0.0739482 0.14275871 -0.05477709 0.027571129 -0.47728467 0.5083158 0.22578283 -0.5522778 0.12674475 -0.24996084 0.07888772 0.20797116 0.19032197 0.28382322 0.29214808 -0.3258845 -0.47550872 -0.33536878 0.37684503 0.06855131 0.4494677 -0.21636952 0.41388974 0.10642061 0.31602636 0.1772958 0.16569392 -0.2015346 -0.060245905 0.022681205 0.4490605 0.08663182 0.21281679 0.15978365 -0.0110314945 0.31261903 0.058160458 -0.5806594 -0.20512 0.30734566 0.587611 0.36917904 -0.515768 0.23554967 0.04691224 0.025648268 0.022076521 -0.111388355 -0.053263098 -0.063937545 0.2281105 0.53068817 0.05388178 0.48260772 -0.012098743 -0.025465474 0.026352808 0.5084336 -0.11118299 -0.0043065753 -0.025592849 0.23864737 -0.29412067 0.34312925 -0.28197458 -0.25507304 0.0008670589 0.42939517 0.020748118 -0.022220615 -0.37742582 0.27446705 0.12776083 0.031709176 -0.033537325 -0.33186227 0.3788466 0.04726975 0.22107765 -0.051075183 0.2679257 -0.05293288 0.12836298 -0.15965666 0.30520856 0.25056243 -0.08621235 -0.37559974 0.025679387 0.18648511 -0.016873641 -0.24152836 -0.008269013 -0.015232751 -0.057954054 1.0137745 -0.22696553 0.59114254 0.37625372 0.16198143 0.067938566 0.058371034 -0.3507514 -0.25381714 
com.github.nisrulz.sensey.TouchTypeDetector -0.14807546 -0.5576672 -0.3403895 0.68007565 0.1458472 0.19451858 0.18993674 -0.5090636 -0.32557973 0.32859555 0.33226046 -0.33622828 -0.252132 -0.23479325 -0.5868386 0.2405634 -0.4285595 0.09941928 0.19792227 -0.090090856 -0.25134265 -0.61283463 -0.17637463 -0.4996711 0.08552194 -0.1340695 0.08969532 -0.31034088 -0.48466623 0.9892367 0.33705544 -0.42228138 0.34744647 -0.4375895 0.5875088 0.12349902 0.6897642 0.10732712 -0.14849511 0.83906925 -0.08868648 -0.0031928848 -0.44686761 -0.14218171 -0.06762232 -0.28530663 0.7567425 0.2803688 -0.03973861 0.34772494 -0.0131020555 -0.23928604 -0.20275111 0.29846427 -1.0527304 0.03129773 0.011011834 0.16357599 0.24996965 -0.015300862 0.539904 -0.12224289 -0.44711578 0.16566768 -0.117434815 0.4919398 -0.2566834 0.87699276 -0.44046876 -0.20654942 -0.30492553 0.5230673 0.32990673 -0.043891285 0.4315639 -0.27289698 -0.8688352 0.12105205 0.5201113 -0.05522863 0.25508508 -0.69713336 -0.015575507 0.35708138 0.39729485 -0.20448484 -0.23390895 0.35729668 -0.08002392 -0.42183864 -0.1503004 -0.28966835 0.8607478 0.3971751 -0.37239817 -0.60208684 0.24006711 -0.3699369 -0.47160974 -0.13255183 0.9867542 0.04380265 -0.04140049 1.0612285 0.6016927 -0.7897409 0.2676493 0.24012367 0.0053440207 -0.1472082 -0.21279426 0.52041936 -0.23647743 -0.08522581 0.54654783 0.43911546 0.25195357 0.47829083 -0.034490656 0.5454285 0.57613933 0.00018758273 0.28423595 0.011251181 -0.56876093 -0.005881855 -0.25180656 0.45034933 
com.github.nisrulz.sensey.TouchTypeDetector.TouchTypeDetector 0.013488871 -0.28377217 -0.41879424 0.54511327 0.24092937 -0.18732952 -0.46762183 -0.22206208 0.028232083 0.21038924 0.032947585 -0.69123375 -0.4830093 0.21050669 -0.113193266 0.77184975 -0.16412906 -0.06850223 0.25870192 -0.26010585 -0.23086959 -0.7550529 0.48236057 0.0005017435 0.43286958 0.07125288 -0.040492307 -0.5382589 0.026884053 0.8049291 0.27414215 -0.4601974 -0.10802396 -0.35077384 0.8724356 -0.3002572 0.2435683 0.6209943 -0.08183638 0.55789775 -0.34152713 -0.45244172 0.15361847 0.36708632 0.45340484 0.238362 0.6376982 0.28677002 -0.30765602 0.09535973 0.116361804 0.22740464 -0.009141194 -0.3771118 -0.6472692 0.071292564 0.30915132 0.091667935 0.2755369 -0.060502358 -0.063969836 0.077459484 -0.86971784 -0.16825517 0.029813383 0.63680416 -0.61725825 0.42539307 0.110943444 0.33034036 -0.20262529 0.6867594 -0.37131998 -0.32862347 -0.016743157 0.49700955 -0.5169029 0.29319036 0.3090542 0.238547 0.45720142 -0.59511495 0.08610404 0.4380827 0.013088696 -0.30773637 0.20368305 0.19288316 -0.056712225 -0.7252646 0.12503213 0.18251668 0.44934005 0.100237206 -0.35241055 0.22883298 0.4325957 -0.63761115 -0.6414447 -0.40406644 0.9530734 -0.036080167 -0.34261632 1.2362776 1.1539519 -0.65587443 0.45279443 0.5983863 -0.003910884 -0.41284674 -0.15966266 0.5045578 -0.84643763 0.14048092 0.27306262 0.46771985 0.36543736 0.38443977 0.025560346 0.18868242 0.23987846 0.24907161 0.13626821 0.3821749 -0.2972794 -0.41283205 0.05742127 -0.29873797 
com.github.nisrulz.sensey.TouchTypeDetector.GestureListener -0.3761381 -0.32997367 -0.26764378 -0.06610008 0.1511422 0.08470333 -0.032765258 -0.45229697 0.105176255 0.23088583 0.28519484 0.005751719 -0.1415173 0.086847916 -0.58815044 0.13572955 -0.43633586 0.17487471 -0.22597533 -0.19063011 -0.70080966 -0.85784096 0.26269388 -0.05748317 0.030664923 0.44067085 0.17708196 -0.56462365 -0.08789808 0.6553454 0.03449514 -0.57674414 0.21828888 -0.33674338 0.29808706 0.5860083 0.16584736 0.0489864 0.07498428 0.81181437 -0.27977648 -0.22932687 -0.523618 0.29544273 0.73003393 -0.19585568 0.6575931 0.0791883 0.13325296 0.026358996 0.5996288 -0.45186016 0.07136523 0.11583526 -0.34540695 -0.062316988 0.059152972 0.049107835 0.57083154 0.003953442 0.18070306 -0.057932455 -0.4193694 0.16966644 0.23056625 0.6127753 -0.2937089 0.8443442 -0.029538708 0.013583336 0.13506737 0.6229559 0.13021833 -0.15489073 0.17105147 -0.45348197 -0.7072121 0.47854474 0.39939648 -0.026610859 0.1803229 -0.4915628 0.25563586 0.624835 0.27593622 -0.32793346 0.41778284 0.5427979 -0.5103014 -0.57865286 -0.027528739 -0.14610381 0.64235944 0.13062784 -0.50253636 -0.038794544 -0.041711945 -0.48670214 -0.5826923 -0.34591484 0.89646894 0.1323665 -0.49805856 0.80966717 0.9615363 -0.8752987 0.25277326 0.48960856 0.29470226 -0.308508 0.23784044 0.20593189 -0.1355397 -0.09629107 0.3396583 0.54606134 0.37847137 0.093522005 0.07613964 0.78399813 0.10521518 0.033439565 0.12232004 -0.119615175 0.06111147 0.29775295 -0.046642233 -0.07625768 
com.github.nisrulz.sensey.TouchTypeDetector.TouchTypListener -0.015670875 -0.25730512 -0.44131294 0.5837864 0.323669 -0.18581992 -0.42533028 -0.24623999 -0.0149110295 0.16375321 0.0569576 -0.74821943 -0.4843295 0.20245835 -0.1281763 0.7235853 -0.096919745 -0.07938106 0.26591966 -0.23853756 -0.21823424 -0.74648964 0.53436315 0.048914168 0.3927305 0.09728329 0.017179139 -0.54751545 0.019144785 0.85747224 0.27383086 -0.52663565 -0.11668539 -0.34954694 0.8536117 -0.25244254 0.2626012 0.5736828 0.029052969 0.57648414 -0.3396343 -0.41740605 0.18352109 0.38446772 0.51485866 0.18228126 0.6496915 0.19836544 -0.34043062 0.14335038 0.12679441 0.24756555 -0.04587241 -0.40787646 -0.6468199 0.15214957 0.32185793 0.07562971 0.33354113 0.021676077 0.032402564 0.0673874 -0.9068435 -0.19464055 0.058363937 0.66563946 -0.6398504 0.377466 0.08452738 0.27350482 -0.15445036 0.73164177 -0.33527857 -0.42594838 -0.0709146 0.48975083 -0.5534038 0.39883262 0.30268887 0.2307595 0.38076723 -0.58007026 0.116104275 0.4656591 -0.06468193 -0.31908152 0.24733715 0.18596032 -0.076909006 -0.6828905 0.18304704 0.13547285 0.34928912 0.105813526 -0.32890028 0.25093824 0.40668517 -0.60996735 -0.667916 -0.4080076 0.9292808 -0.10280872 -0.2851608 1.2801076 1.1719917 -0.74740195 0.42082176 0.5248372 -0.13430549 -0.38920072 -0.16584589 0.47507748 -0.7824113 0.15031269 0.22250706 0.46821183 0.44420242 0.3476936 -0.015452123 0.21050245 0.217192 0.15727545 0.18659718 0.35416722 -0.30439764 -0.43359947 0.087306775 -0.30142808 
com.github.nisrulz.sensey.TouchTypeDetector.TouchTypListener.onThreeFingerSingleTap -0.53629255 -0.6224075 -0.18355876 0.12516274 0.2231054 0.032990012 -0.2785581 -0.36957303 -0.14600909 -0.13594145 -0.2792489 -0.12664068 0.080610394 -0.017470434 -0.6328301 0.1735172 -0.07567683 -0.056210365 0.31070086 -0.48807406 -0.834429 -0.6902982 0.18264441 0.085717686 -0.026927667 0.22285005 0.09996973 -0.37341684 -0.18897352 1.0054663 0.14123683 -0.12059673 0.38930362 -0.33396202 0.7435013 0.33559707 0.7041723 0.069555745 -0.0610102 0.8671359 -0.2702597 0.08924149 -0.09837147 0.37832987 0.13721335 0.29393908 0.5967276 0.46963182 0.08529967 0.058909345 -0.043712072 -0.27835947 -0.049771708 -0.30344614 -0.8849917 0.16694975 -0.19804898 0.2137416 0.07907893 -0.14149126 0.24863458 0.27871552 -0.7486235 0.13259842 -0.0085371435 0.4679074 -0.13985027 0.6746127 -0.41908196 0.11260672 0.10020361 0.42639306 -0.00093708676 -0.25167117 0.42670232 -0.16474767 -1.0505594 0.2894831 0.5578801 -0.2816435 0.29809523 -0.8398974 -0.07328837 0.3189705 0.12255944 -0.68312216 -0.58622736 0.9737976 -0.4382648 -0.17006522 0.044632845 -0.37779203 0.82389516 0.17351268 -0.04287788 -0.14563265 0.21011259 -0.0018734102 -0.52186346 -0.4507484 1.0817945 -0.06293004 -0.2279201 0.78820497 0.76146936 -0.99433625 0.56489694 0.5193893 -0.03424011 -0.36414182 -0.2107997 0.79374164 -0.21789575 -0.062446784 0.040539112 0.48143008 0.19116892 -0.049203336 -0.04113424 0.20911361 -0.42282444 -0.12917365 0.107383735 0.03193252 -0.19735225 -0.19317748 -0.047188003 0.060144708 
com.github.nisrulz.sensey.TouchTypeDetector.TouchTypListener.onTwoFingerSingleTap -0.49543062 -0.589754 -0.21807711 0.1318272 0.27474043 0.09042286 -0.2476209 -0.36927438 -0.16796634 -0.18773732 -0.3094833 -0.16218023 0.098949626 0.0325762 -0.65093136 0.19203913 -0.05473192 -0.0189795 0.2209927 -0.4845824 -0.8026928 -0.69195926 0.18779708 0.08626561 -0.047736526 0.20376454 0.055147566 -0.38569388 -0.14049558 1.035367 0.16179308 -0.093295015 0.38789862 -0.39775416 0.7035062 0.3432962 0.74266773 0.01447037 -0.04444977 0.82711005 -0.287834 0.04562581 -0.06440809 0.3409278 0.09992843 0.24046947 0.57481414 0.42502087 0.06941519 0.08120959 -0.058867432 -0.23638293 -0.06649781 -0.3173369 -0.8542909 0.2464224 -0.15048382 0.21233179 0.17799945 -0.09870136 0.1801615 0.26050475 -0.8339276 0.1483673 -0.026294239 0.43723756 -0.16232067 0.64582914 -0.4839121 0.0654641 0.09768655 0.44328716 0.00853395 -0.21550031 0.36547464 -0.14133443 -1.114556 0.31920448 0.56085056 -0.30527943 0.2798003 -0.86936474 -0.06691542 0.2460309 0.21072148 -0.65285397 -0.60932165 0.8999688 -0.47721693 -0.14854197 0.08531981 -0.3908176 0.76854044 0.12833929 -0.07765643 -0.17539367 0.124233864 0.072095454 -0.5017414 -0.46537253 1.0359582 -0.1111589 -0.21930735 0.7674806 0.7467557 -0.9907202 0.5656036 0.49024606 -0.059357934 -0.3379941 -0.26401696 0.7715909 -0.1807881 -0.03498847 -0.0082186535 0.49790174 0.21190964 -0.110388026 0.023446526 0.14684607 -0.3705912 -0.12206946 0.0497042 0.05481553 -0.18079217 -0.17395613 -0.06255045 0.056693107 
com.github.nisrulz.sensey.SenseyTest.detectListenerWithStartOrientationDetectionWithCustomSmoothness -0.34632403 -0.19807333 -0.5137712 -0.027441055 -0.59780794 0.30918 -0.44519734 0.17000057 0.10487254 0.45947343 0.97304565 -0.28825703 0.44203034 0.37243038 -0.07050812 0.62128353 0.32843253 0.5495077 -0.45614532 -0.74889535 0.66677237 -0.880855 1.3030039 0.17871115 0.14273566 0.31574017 0.066140994 0.48284215 -0.030373944 0.12218835 0.059573915 -1.0973053 -0.8084903 -0.39349616 0.97782415 -0.17319266 0.68162966 -0.68526286 -0.4561821 -0.3204655 0.4053615 -0.06735445 0.09515054 0.35546106 0.15043455 -0.6966112 0.36661774 -0.20345968 0.91538215 0.2796153 0.517339 0.1656119 -0.8851854 0.11585421 -0.5253385 -0.6609633 -0.23735937 -0.2947738 -0.958959 -0.069956355 0.7051435 0.47265303 0.21044187 0.055491004 0.42028904 0.11156693 -0.2723784 0.65299654 -0.09144508 -0.9594248 0.8135247 0.5591545 -0.2742972 -0.77194715 0.6555446 0.14411059 0.31738523 -0.043423608 0.5447487 0.2000145 0.067081094 0.20954397 -0.08407959 0.46806544 -0.5219514 -0.18392687 -0.04041725 0.5365147 -0.52509874 -0.5111333 -0.75749826 0.25534084 1.0896286 0.10359026 -0.18675607 -0.034426756 1.1966244 0.27922827 0.69035906 -0.5050683 0.71205103 0.9842155 -0.08206065 -0.19603501 0.2946294 -0.35183614 0.3970364 -0.33619198 -0.2507271 -0.60875076 0.16465788 -0.12286468 0.29106772 0.8513746 -0.021092901 -0.7425273 -0.09420965 -0.6236895 -0.8639397 0.15586466 -0.1272347 0.00823151 -0.61163366 0.106595755 -0.21632469 0.31519836 -1.3462574 -0.2328436 
com.github.nisrulz.sensey.ProximityDetector 0.14134628 -0.12525252 -0.5316641 -0.019239405 -0.21263215 -0.44503844 0.25325352 -0.09420982 -0.9223994 -0.11255568 0.2186642 -0.22222325 -0.34693974 -0.33128062 0.13339621 -0.4071591 -0.54423815 -0.07185494 -0.13335261 0.58099145 0.09122324 -0.3217603 0.24721028 0.5084939 0.12839909 0.6530068 0.48578885 -0.26884705 -0.05397143 0.44735965 -0.3820687 -0.99195164 0.1438819 -0.70514446 -0.44340274 -0.3593002 0.070154265 -0.06827527 0.13806026 -0.42294595 0.3436094 -0.4070733 0.36645672 0.3401384 0.082724765 -0.16583778 0.0019704956 0.69030344 0.14890188 -0.71087706 -0.5814896 0.037647363 -0.023378406 -0.12092412 -0.31454843 0.89395976 -0.00097456377 0.32274544 0.45696935 0.12465781 -0.26648065 -0.013891127 -0.26677915 -0.031034904 0.18259685 -0.5388127 -0.76842123 0.5111235 -0.0033649656 -0.21149956 0.048212785 0.070874035 -0.72026616 -0.07339579 -0.70966 -0.44233438 -0.0251604 0.02385107 0.6761555 -0.13397068 0.53970486 0.38514355 -0.42940742 -1.1433444 0.017643107 -0.3796115 -0.51333845 -0.44005996 -0.29903024 -0.24216841 -0.12703528 -0.31188822 0.21580921 -0.2586011 -0.42627546 -0.6873278 0.23538977 0.82573587 0.4589122 -0.07132008 0.2673636 -0.040512662 0.3664563 0.52004707 0.13310169 -0.4951797 0.0949671 0.98321056 0.09917448 -0.42639858 0.14433834 0.32356226 0.2843329 -0.09045255 -0.052985616 -0.15428214 0.06867387 -0.06836344 -0.36160216 -0.08458812 0.10380794 0.25894886 -0.56385046 0.17092088 -0.08908198 0.4527048 -0.41700506 0.22915539 
com.github.nisrulz.sensey.ProximityDetector.ProximityListener 0.1792282 0.019760318 -0.06899002 0.07643802 -0.16573116 -0.19286256 -0.49284658 -0.79823196 -0.53965497 -0.22850984 0.1914797 -0.16404203 -0.86557955 -0.5423082 -0.091781035 -0.242044 -0.5986637 -0.057862155 0.50621885 0.4848784 -0.45827514 -0.31401932 0.15095545 -0.13063489 -0.09697046 0.8306816 0.14927568 -0.68352413 -0.20286743 0.1662233 0.24503046 -0.544099 0.22936402 -0.69881254 -0.42413083 0.07041286 0.17270707 -0.0516855 0.096780404 -0.5817771 -0.44158283 0.069859795 0.18148002 0.19414178 -0.18597278 0.07839581 -0.05538876 0.55509555 -0.24925603 0.064183794 -0.309627 -0.4066246 0.16975708 -0.5158848 0.044692434 0.509576 0.347273 0.15498525 0.6192101 0.45003387 0.4094803 -0.013371952 -0.17405546 0.024226312 -0.13098757 -0.42854753 -0.034913257 0.14846355 0.15752904 0.14891997 0.12492956 -0.066901594 0.032595508 -0.20868666 -0.4673528 -0.3765353 0.023839867 0.33177945 0.63647795 -0.1859931 0.053138644 0.041070756 -0.29132098 -0.61317015 -0.055459008 -0.33752623 -0.74007636 0.17136055 -0.08039545 -0.045125436 0.43954235 -0.36492288 0.3035466 0.0012315686 0.27664664 -0.75059736 0.7627994 0.31530446 0.47568431 -0.06432203 0.29228768 0.34424898 0.17768936 0.37935972 -0.17257299 -0.36776733 0.10131831 0.21649817 -0.010549514 -0.46254244 -0.1175089 -0.16050476 -0.12925245 0.09624069 -0.068102896 -0.52998376 0.5235557 0.672165 -0.6122773 -0.18205073 -0.10007767 -0.23779054 0.08191348 -0.283825 -0.31388995 0.45478496 -0.53059787 0.3281424 
com.github.nisrulz.sensey.ChopDetector 0.17141186 -0.5248129 -0.4261723 0.26290464 0.50608784 -0.040591627 -0.16436541 -0.3684153 -0.7517796 0.5165699 0.23165143 -0.33940038 -0.8986954 -0.154656 0.19037966 0.00019253921 -0.3455378 0.44417515 -0.23376322 -0.40989268 0.106362164 0.24122524 0.43162614 0.016569356 0.13042167 0.12545636 -0.094306454 -0.8325962 0.95069313 0.6511485 -0.088089176 -0.029369041 -0.47081205 0.029681046 -0.08952054 0.20227583 0.24203654 -0.7604932 -0.059248388 -0.20761798 0.25836918 -0.7414554 0.60259175 0.07584551 -0.3745499 -0.2632129 -0.31621793 0.18621792 0.20534365 -0.52320987 0.24945477 0.7439754 0.258446 0.13900414 -0.14681004 0.59447676 0.10036753 0.11377166 -0.1815899 0.41909215 0.3865793 -0.3762803 0.018477164 -0.46189693 -0.27930284 -0.36647123 -0.45497254 0.45435786 -0.5100393 -0.17973965 0.34349394 0.13037822 0.009517004 -0.62500083 0.18585882 0.17447819 -0.39353487 0.21543726 -0.027556293 -0.2706438 0.56447834 0.44775376 0.67450666 0.028649915 0.057250768 -0.08093278 -0.26753175 -0.703803 0.00938943 -0.07152511 -0.14310989 -0.17148244 -0.014760792 -0.10404112 0.2773586 0.32353935 0.2849926 0.09088113 -0.38348988 0.02202546 0.0944979 0.10077105 0.030122919 0.7988148 0.14813673 -0.54397863 -0.35808152 0.3280235 0.80439115 -0.13061078 -0.7353273 0.022495309 -0.4544236 0.4433046 -0.17305462 0.3126133 0.27850756 0.37087932 0.17988308 0.60623515 0.38614175 0.56842196 0.15269782 0.24326028 0.376568 -0.21996714 -0.33185506 -0.44998968 
com.github.nisrulz.sensey.ChopDetector.ChopListener 0.7095816 -0.4300577 -0.42524314 -0.048185173 -0.22428083 0.096799076 -0.11101866 -0.16966219 -0.6107248 0.31756118 0.16977394 -0.30697513 -1.0384446 -0.4149913 -0.24243471 -0.0885629 -0.37725022 0.3179244 -0.20927212 -0.41774142 0.40426716 -0.28427655 0.24447136 -0.27324128 0.18340965 -0.0177649 -0.5384452 -0.8399369 0.032604247 0.21542104 -0.021004377 0.24087144 0.1322214 -0.356648 0.023878 0.45657364 0.18582872 -0.6752166 -0.08216865 -0.6165932 0.050425574 -0.5163473 -0.031074025 -0.102585845 -0.6654222 -0.4701757 -0.10914252 0.46920937 -0.41988093 0.3716769 -0.3532081 0.48620924 0.36506197 0.04292579 -0.25644588 0.0638475 0.18583485 0.12156612 0.11090284 0.5499309 0.5200474 0.024852604 0.025605071 0.13960351 -0.030593745 -0.27765992 -0.06255623 0.18363407 0.013065084 -0.07121506 0.012907895 0.5716542 -0.25681818 -0.27319396 -0.18705834 0.069198176 -0.42384273 0.083397806 0.82065284 -0.14650515 -0.01197265 0.22446176 0.7084157 -0.0021211833 0.17422721 -0.15867263 -0.4324256 -0.093083404 0.35451582 -0.42025495 0.06772307 -0.13070434 0.10419144 -0.28681323 0.20455536 0.23451562 0.5071467 0.2862789 -0.38702813 0.012845433 0.2089803 0.57764775 -0.2034142 0.30427325 -0.3475631 -0.6060116 0.058856245 0.10553022 0.35191852 -0.15763026 -0.6515815 -0.11282619 -0.18277872 0.37733394 -0.057832103 0.12208145 0.34064373 -0.14933728 0.2112014 0.3821262 0.12738033 0.23843242 0.14366204 0.74397933 0.24801302 -0.10399904 -0.28976375 -0.6092094 
com.github.nisrulz.sensey.MovementDetector 0.62235165 -0.1276157 -0.36514923 -0.33112752 0.23546816 0.09726229 0.13423447 -0.14440489 0.14908126 -0.817691 -0.43767682 -0.20259394 -0.38152328 -0.83146834 -0.4466701 0.37274635 -0.025120476 0.24679944 -0.22998396 0.5272288 0.14855614 -0.5115187 0.46920624 0.31371987 -0.11883942 -0.11281679 -0.04284509 -0.3757075 0.19089398 0.8055246 0.029646283 -0.58732605 0.36787957 -1.0077182 -0.44538668 -0.39357013 -0.2662751 -0.47661245 -0.08336205 -0.21938168 -0.08941225 -0.50022995 -0.08943511 0.15824883 0.043971375 -0.2868102 0.08952129 0.4668083 -0.034618862 -0.09856536 -0.25802565 0.13302079 -0.51555777 -0.2994468 -0.8492463 0.18519396 0.012364398 0.4714772 -0.10077333 0.22992048 0.18127485 0.27811596 -0.73062944 0.087891765 0.41972566 -0.4624798 0.03713328 0.5763893 -1.153016 0.032841023 0.24794906 -0.2267613 -0.39370126 -0.0040653334 -0.48035738 0.21362276 -0.24077658 0.80081457 0.7291978 -0.17578469 0.36361048 0.055349335 0.11490588 -0.36690032 -0.28420198 -0.04067721 -0.57883376 -0.47700533 0.45168462 -0.0022054615 -0.33897966 -0.5168667 0.03574532 -0.19761823 -0.4969437 0.19256689 0.7880334 0.04817994 -0.3632402 0.023749283 0.40356547 -0.24541979 0.34718427 -0.27224985 -0.052144244 -0.40101203 0.40246633 0.5717294 0.11310346 -0.2402095 -0.31581426 -0.046816032 -0.3071744 -0.07630627 -0.5540385 0.122798964 -0.030016022 -0.26967385 -0.2834639 -0.0035435632 0.16186896 0.088843934 -0.14299862 0.5922513 0.4255931 -0.035703424 -0.39125726 0.50965 
com.github.nisrulz.sensey.MovementDetector.MovementListener 0.6611552 -0.22413832 -0.61238897 0.27664587 0.06357321 0.21360311 0.15360127 -0.45223415 0.1213163 -0.8576528 -0.35246488 -0.31726122 -0.34514207 -0.3328003 -0.4407505 -0.3279464 0.15330034 0.24659252 0.19994667 0.6118029 0.21958993 -0.43818593 0.25715157 -0.07131311 -0.16964208 -0.31431395 0.45861515 -0.8485395 0.032506555 0.68193054 0.40370622 -0.33825603 0.24611193 -0.87429196 -0.14060809 0.22803763 0.12779443 -0.21851072 0.42362472 -0.5625729 -0.2930702 -0.60689217 0.2051747 -0.24156284 0.08605883 -0.15763664 0.055794477 -0.08409416 -0.30129528 0.40672937 -0.5299283 -0.40813693 -0.33809248 -0.22557743 -0.5235598 0.6227258 0.29141912 0.2159281 0.0735592 0.48996297 0.7255994 0.41445738 -0.08517968 0.13666509 0.06577525 -0.22186898 0.82989496 -0.11335945 -0.5447897 -0.32072228 0.06931119 0.3125637 -0.2769174 -0.33147264 -0.26515916 0.007109167 -0.5785692 0.5368149 0.7269254 -0.115841195 -0.5944548 -0.110253766 -0.060656045 -0.28078845 0.07601233 -0.25112116 -0.4852409 -0.13234676 0.3906633 0.04463634 -0.12017408 -0.18045057 -0.07733125 0.022031598 0.13777164 0.35366946 0.54160756 0.28752345 -0.22770742 0.030235156 0.4789904 -0.2058628 -0.22499667 -0.33324432 -0.03992513 -0.38063118 0.012477367 0.4023693 -0.4920831 -0.23960607 -0.55806905 -0.17055513 -0.058911856 -0.060700156 -0.4226001 0.08943009 0.61516136 -0.14671817 -0.39130816 0.37903026 -0.028489325 -0.28262597 0.5605566 0.44033897 0.28188798 -0.16828015 -0.5554026 0.20741232 
com.github.nisrulz.sensey.SenseyTest.detectNoListenerWithStopFlipDetection -0.7176545 -0.6146586 -0.62147915 1.2322042 0.7806577 -0.0627001 0.18991199 -0.614554 -0.67418057 -0.9343125 -0.031339694 -1.1692748 -0.4017261 0.35852057 -0.65327424 0.23855582 0.41795513 0.28069073 0.48657846 -0.52639127 -0.8982527 -0.49033403 1.0139949 1.0310106 -0.45628008 -0.1960588 -0.21309151 -0.49488994 0.41425964 0.9496994 0.35096452 -0.047326233 0.3008274 0.03729333 -0.12230683 -0.12112029 0.945052 0.28822893 0.08794848 -0.47824323 0.030568607 0.035423838 0.6683464 0.07440307 -0.4193793 -0.18641216 -0.5544662 0.48250794 0.38077223 0.6228775 0.519122 0.20828946 -0.3957356 0.22798997 -0.7787237 0.33521956 0.13791831 -0.78269887 -0.8489995 -0.77976775 0.6151198 -0.38491365 0.08966949 0.6675803 -0.08542995 0.82967407 -0.4997159 0.77593565 -0.63129 -0.30981737 0.0025172925 -0.3934823 0.47920087 -0.6053591 1.0274663 -0.63202554 -0.83873206 -1.0529056 0.29437494 0.048480622 0.37811425 -0.36124924 -0.2344691 -0.16663983 -1.0916656 -0.30985165 -1.0894773 0.23997958 -0.25340897 0.38278517 0.52801114 -0.4167731 0.6972509 0.25204226 -0.19744016 0.124792814 0.8378968 -0.065197974 -0.105759166 -0.9501813 0.6860727 -0.8030462 0.87900174 0.7518054 -0.8887293 -0.75706196 0.6634026 -0.32114294 0.067029744 -1.0455252 -0.25355783 0.89476436 0.1666852 0.19858828 -0.28792655 -0.28380102 -0.17903763 0.21537778 0.24974823 0.7764796 -0.2869815 0.11758906 0.019068234 1.0516521 -0.8599861 -0.5006969 -0.42344603 0.011355949 
com.github.nisrulz.sensey.RotationAngleDetector -0.19926013 -0.3361701 -0.8575475 0.14003812 0.2558881 -0.05229996 -0.6319555 -0.5050475 0.32988617 -0.046872854 -0.3788444 -0.42148653 -0.7767345 -0.2969552 -0.047662515 0.0004497438 0.46241036 0.0106037045 0.3432778 0.81792724 -0.10953102 -0.5346036 0.47415918 0.14731334 0.3329914 -0.13684046 0.07306228 -0.10027133 -0.29183185 0.44525766 -0.22185288 -0.16479145 0.62677836 -0.1898082 0.07992714 -0.15387739 -0.34569252 0.25565287 -0.433351 -0.50416505 0.68905354 -0.17264897 0.108412825 -0.17329578 0.17429604 0.18486498 0.590063 0.123278685 -0.38879177 -0.37009686 -0.24519919 -0.013776552 0.083990864 -0.5953837 -0.17395544 -0.024390494 0.13592197 0.09713571 -0.09884238 -0.46539813 0.73961747 -0.1725577 0.45299983 -0.5590248 0.16597435 -0.98487633 -0.4938968 -0.39261484 0.03078488 -0.20468909 0.46441895 0.22389545 -0.29761738 0.40539166 0.046248816 0.14119382 -0.19269711 -0.15392728 -0.31860584 -0.1450841 0.053317055 0.2536403 0.7818846 0.003921708 0.19125019 0.3280433 -0.41278857 -0.07374035 -0.27801207 -0.062256675 -0.30751914 0.22608256 0.108469516 0.35925427 -0.29894763 -0.13910456 1.1228853 -0.5059362 0.0447717 -0.22940257 1.0659078 -0.15776673 0.21779266 0.4205218 0.010692718 -0.28480646 0.053656753 -0.054458145 0.809814 -0.52605444 -0.42341533 -0.5763679 -0.67594445 0.6063707 -0.43424866 0.15261641 0.2764625 0.4777732 -0.062285524 -0.21053234 0.1990238 0.8061174 -0.35270956 0.6188173 -0.17938265 -0.09131023 0.3432609 0.8111396 
com.github.nisrulz.sensey.MovementDetector.onSensorEvent 0.2356801 -0.5186456 -0.3995988 -0.33554715 -0.42558664 0.52085626 0.06937522 -0.46832746 -0.092514075 -1.1221775 -0.2191146 0.026339456 -0.1792499 -0.54523075 -1.2389808 -0.1849826 -0.12185412 0.3857169 -0.26198292 0.6335601 0.021083327 -0.38144547 0.055876404 -0.11913331 -0.4913849 -0.1610243 0.39614144 -0.44624028 -0.34613946 1.4635311 0.28398213 -0.28220117 0.65083426 -0.7731113 0.26665634 0.48931897 0.4135879 -0.5036359 0.60942954 0.074154906 -0.26835278 -0.32341424 -0.006014166 -0.053966586 0.021213122 0.06860569 0.6588551 -0.10274441 -0.022215644 0.18285148 -0.94670975 -0.4364417 -0.6112772 -0.3094296 -0.46303406 0.5029992 0.21807598 0.47863287 -0.073032625 0.46159837 0.48629862 0.25454482 -0.4605569 0.026237007 0.21769515 -0.5765445 0.8653816 0.15950072 -0.9288683 -0.2132595 0.36569703 0.17138235 -0.49067837 -0.07293273 0.041861836 0.18222737 -0.74464613 0.6901244 0.55604434 -0.37339342 -0.6670141 -0.25417155 -0.14528884 -0.44817236 0.5039517 -0.6363424 -1.1464652 0.21648918 0.12173664 0.07204639 -0.40066388 -0.5311368 0.49270508 0.09328554 -0.032999847 -0.14101323 0.380445 0.65145826 -0.38647208 0.07224797 1.1853769 -0.35017225 0.027839744 -0.6270579 0.019449517 -0.7509157 0.22665754 0.52433157 -0.26700762 0.19712329 -0.49619538 0.16066384 0.30648154 -0.27019012 -0.27748707 0.091555506 0.06597041 -0.8019459 -0.5340357 0.34080407 -0.24692315 -0.26064697 0.29705805 -0.26579383 0.5498355 0.23996319 -0.9126794 0.45617124 
com.github.nisrulz.sensey.MovementDetector.MovementListener.onMovement 0.43642533 -0.15864852 -0.7435901 -0.45942867 0.29632238 0.41067967 0.17765133 -0.23375624 -0.08857509 -1.3652388 -0.38950083 -0.52935785 -0.10939297 0.27523884 -0.9567494 0.23233832 0.47083682 0.49826455 -0.3217689 1.0244019 -0.00047371065 -0.31045943 0.6854612 0.6574483 -0.49284744 -0.055223443 0.5163636 0.22819084 -0.13803752 1.67975 0.07634171 -0.78722703 0.5801799 -0.41773078 0.12646405 -0.24834044 -0.06444002 0.3296119 0.5794603 -0.25350237 -0.019827278 -0.18010579 0.8088042 -0.34346578 0.44072524 -0.08704778 0.34781232 -0.16411787 0.070717916 -0.12753041 -0.21845625 0.02561556 -0.65975845 0.09547217 -0.49258715 0.18558119 0.16325395 0.52384275 -0.6402423 0.29539925 0.58991104 -0.120124884 -0.5744155 -0.10691392 0.991204 -0.50587857 0.32150084 0.6615305 -0.8482342 -0.15566118 0.3192986 -0.8489159 -0.45006996 -0.026650429 0.14247833 0.28546885 -0.48642296 0.5282831 0.17122039 -0.21402353 -0.13043755 0.37408176 -0.044051535 -0.487786 0.102629006 -0.07654091 -0.62571347 -0.2800565 0.34599727 0.05593023 -0.5468582 -0.29679322 0.50813264 -0.025454024 -0.6420224 -0.0016405234 0.8317388 0.22305213 -0.74424577 -0.098823935 1.368957 -1.3146807 0.28447598 0.024092088 0.08355975 -0.71647763 0.49938217 0.26903942 0.15913159 -0.29771677 -0.2784659 0.15749708 -0.064372666 -0.23576234 -0.87019163 0.32358214 -0.33508977 -0.9109805 -0.20698094 0.68144476 0.028508356 -0.19542536 0.11482002 -0.12820014 0.35429564 0.045084193 -0.6851946 0.38241202 
com.github.nisrulz.sensey.MovementDetector.MovementListener.onStationary 0.50637925 -0.09194037 -0.7873281 -0.48474872 0.33539933 0.4590188 0.20293336 -0.2730791 0.018431306 -1.379969 -0.40754846 -0.5641506 -0.12160278 0.22600555 -0.9491568 0.3323826 0.39453357 0.57795143 -0.3827923 1.061069 0.077908285 -0.3031436 0.75583625 0.6645463 -0.44446146 -0.010431772 0.457389 0.18733579 -0.04894123 1.7744424 0.064470805 -0.8275264 0.591426 -0.43838575 0.07218209 -0.182777 -0.07125258 0.24946634 0.580494 -0.29659614 -0.08104517 -0.21144047 0.8598158 -0.34784183 0.46441483 -0.13913666 0.34151632 -0.16304377 0.026627494 -0.1308726 -0.20642304 0.044075213 -0.6505978 0.115261346 -0.43265346 0.15083724 0.1406633 0.5454364 -0.5795582 0.28410465 0.546878 -0.113829784 -0.5890638 -0.050954938 0.94832855 -0.5399774 0.3543517 0.67483735 -0.91673994 -0.19571152 0.27791697 -0.8169303 -0.46084434 -0.0563456 0.1751723 0.28271693 -0.4574085 0.51843 0.2626842 -0.19231185 -0.1237924 0.32561517 -0.045299828 -0.46672276 0.07304852 -0.02814841 -0.65130866 -0.31856868 0.3340031 0.122176535 -0.5156524 -0.31783298 0.48409522 -0.0035720665 -0.65587723 -0.0010585604 0.811523 0.20632008 -0.72520775 -0.18683502 1.3081359 -1.2943281 0.30700412 -0.008722735 0.06303234 -0.67078936 0.52974254 0.34735805 0.20592588 -0.28139806 -0.26938692 0.12375257 0.01320205 -0.16832668 -0.8618165 0.29941854 -0.3097256 -0.9268301 -0.20431657 0.7834799 0.0049476344 -0.21879749 0.14642712 -0.17043622 0.33946198 0.100324355 -0.74276584 0.2415994 
com.github.nisrulz.sensey.SenseyTest.detectNoListenerWithStopShakeDetection -0.32310113 0.4436484 -0.383352 0.47023442 0.38114586 0.5260704 -0.75567114 -0.96834075 0.83054864 0.23938356 0.08292663 -0.018493379 -0.10327544 -0.18995509 -0.099991634 0.32865357 0.57053155 0.9857524 -0.64927745 0.09128461 -0.5387796 -1.2026738 1.0759372 -0.33620048 0.5083395 -0.09837582 -0.5493627 0.36228943 0.31800956 0.23254903 0.85298836 0.09238824 -0.10340163 -0.22314015 1.0240104 0.21034656 0.4725212 -0.12849256 -0.18906952 -0.5442452 0.4277294 -0.4854912 -0.42446807 0.37324783 -0.07937794 -0.5892892 0.17628616 0.37458566 -0.083532974 0.4506181 0.6543927 -0.30274323 -0.15693119 -0.04427881 -0.80742574 0.363533 -0.07756659 -0.16140525 -0.47285214 -0.7724385 0.7252935 0.7617012 0.23142245 -0.33142895 0.44988406 0.12934087 0.31017548 0.42479444 -0.117209785 -0.32269084 1.2616944 0.31656614 0.09924261 -0.21229513 0.4841912 0.0351592 -0.6983118 0.31622893 0.65889055 0.15699282 0.26245603 -0.69886607 0.012197212 0.6384589 -0.82940155 -0.19327234 -0.08991095 0.46737683 -0.6849257 0.03228186 -0.13327987 0.25014114 1.3269291 -0.102519386 0.16368784 -0.12707251 0.7715973 0.22692895 0.37186357 -0.6460213 0.73083615 0.58210003 0.30447572 -0.25153613 0.6408507 -0.47962245 0.20400435 -0.28387803 -0.2176637 -1.1947702 -0.78223133 -0.24405587 -0.056016237 1.461875 -0.08871709 -0.6570391 0.65495604 -0.90191984 0.34165075 0.20889826 -0.29465634 0.21666181 0.38397646 0.76687884 -0.41820356 0.013729037 -1.1522233 0.04937529 
GestureDetector::SimpleOnGestureListener -0.20613213 -0.51115257 -0.30254322 0.34938058 -0.27030566 -0.21879424 -0.4325575 -0.3350434 -0.3904663 -0.15572968 0.022458766 -0.7182934 -0.10211617 -0.12649837 -0.82387143 0.54740226 -0.15143567 -0.12398513 0.010262473 -0.3136756 -0.801462 -0.3432613 -0.13636945 -0.019805409 0.05974704 -0.005223104 0.088241994 -0.8394638 -0.4446071 0.5174531 0.1287301 0.096918315 0.023687897 -0.12068975 0.48792067 -0.25940806 0.48199216 0.28669629 0.06512119 0.5679625 -0.35293058 -0.15807128 -0.14975256 -0.0072690216 -0.0015859071 0.26250723 0.6294046 0.32785037 -0.24866675 0.35149816 0.23063448 -0.051467728 0.07814292 -0.44168803 -0.48792064 0.2930535 0.2713473 0.080286644 0.3657772 -0.20490798 0.06642217 0.27633235 -0.45733583 0.20416048 -0.13930689 0.53252465 -0.7359059 0.7271052 0.0023070283 0.5712639 -0.53595984 0.22294147 0.07656954 -0.47736463 0.20003204 0.15100417 -1.0196215 -0.123468965 0.44484186 -0.090511434 0.37536064 -0.59060425 -0.20999274 0.025001032 0.12152515 -0.25528353 -0.35642394 0.6449646 -0.08786007 -0.35195816 0.06589242 -0.30408743 0.6006416 0.29183614 -0.18317768 -0.12239565 0.04338969 -0.22490668 -0.47230035 -0.1478951 0.9950181 -0.15487039 0.47818616 0.93041724 0.69716674 -0.8455137 0.1414649 0.26040363 -0.0844091 0.088353574 0.004581759 0.68972564 -0.41842607 -0.10039952 0.67471445 -0.1384094 0.29853502 0.59422016 0.048056975 0.17920758 0.42178622 0.102884494 0.27422163 0.49992806 -0.23909377 -0.020847598 0.0630905 -0.061929233 
com.github.nisrulz.sensey.FlipDetector 0.35137704 -0.22453068 -0.20353626 0.052009422 -0.48118955 0.44852176 -0.44073847 0.19284815 -0.62995774 0.4479628 0.39978814 0.5409946 0.04393925 -0.5645035 0.06532474 -0.35884866 -0.07051602 0.7559996 -0.03106583 -0.2816792 -0.3890304 -0.24098453 0.61361015 -0.28197417 0.031677835 0.118195675 -0.067278944 -0.34692883 -0.11784887 0.5974829 -0.46018812 -0.24208577 0.35143307 0.21520533 0.43043184 -0.21545726 0.22765034 -0.2981369 0.012241335 0.27004418 0.26416412 -0.820523 0.36709046 0.09645163 0.12639102 0.50245106 0.21511741 0.31546503 -0.1482217 -0.32251728 -0.26061037 -0.13864388 0.3815918 0.48345724 -0.86952865 -0.37192872 0.6237946 0.047986593 -0.666569 -0.15278207 -0.58155054 0.54887515 0.1635425 0.48044512 0.2897505 -0.45399567 -0.10689215 0.13329497 -0.3555572 -0.012764382 -0.110661276 -0.087413676 -0.2212913 0.3250683 0.05254803 -0.37270913 -0.19870262 -0.39438727 0.7766551 0.04256823 -0.3181033 0.45843357 0.13186711 -0.5157892 0.16219102 0.32346645 -0.474409 0.1128184 0.47992152 0.10261919 0.06827372 -0.72826225 0.4864729 -0.5090463 -0.15710305 0.36698338 0.5090169 -0.025172895 -0.089344285 -0.2792102 0.78397405 0.059961595 0.56906873 -0.34097272 0.07338108 -0.12278567 -0.35612792 0.781052 0.8256442 -0.16452307 -0.09540033 0.0728298 -0.7717146 0.26976615 -0.60682446 -0.22172293 -0.36737132 0.075982876 0.30311593 0.6494841 0.041004434 0.19834006 -0.21790116 0.709474 0.42810962 -0.17695184 -0.24452198 0.29994285 
com.github.nisrulz.sensey.FlipDetector.FlipListener 0.97560465 -0.33865723 -0.30498517 0.07316466 -0.6319107 0.15470491 -0.32323003 -0.06922231 -0.43901762 0.27829182 -0.120980166 0.59555817 -0.024144044 -0.40088472 -0.0694272 -0.47735554 -0.22365671 0.5411407 0.26649052 -0.5092898 -0.18429546 -0.4334243 0.20653877 -0.397448 0.11557685 0.21378127 0.09344944 -0.772465 -0.08636745 0.116059564 -0.012146585 -0.35243487 0.26089504 -0.12363882 -0.11808708 0.441605 0.4359227 -0.39186227 0.25200275 -0.07053299 -0.3412425 -0.053875882 0.0009958631 -0.44098243 0.12326162 0.01615621 -0.20065892 0.12138319 -0.5466332 0.60565245 -0.20978566 -0.13747114 0.31536457 -0.12862831 -0.8252915 -0.5011265 -0.008055767 -0.22066529 -0.36036813 0.28622943 -0.015820567 0.5232289 0.18613999 0.5086231 0.5143128 0.27466035 -0.31632164 0.37333372 -0.5157338 0.1429663 -0.31694728 0.05660644 -0.14834096 -0.3419818 0.046254203 -0.62948424 -0.44217658 -0.055638403 0.7316039 -0.24682297 -0.7528813 0.3237624 0.28940025 -0.08596189 0.17850281 -0.116605595 -0.5136177 0.31830677 -0.04562584 0.2247612 -0.07367242 -0.29976508 0.28092834 -0.6028337 0.19780576 -0.01835862 1.1199983 0.17596552 0.014957732 0.11369024 0.3256205 0.16055529 0.023101522 0.1225957 -0.37404627 -0.3107723 -0.5031948 0.4956821 0.4778938 0.00465926 0.01561072 -0.06710599 -0.7526204 0.12769304 -0.71053433 -0.31554943 -0.05743499 0.06753343 -0.2674267 0.13722622 -0.22452006 -0.17158446 -0.08714177 0.60993135 -0.0339144 0.2882153 -0.21309608 0.038695328 
com.github.nisrulz.sensey.LightDetector 0.16488916 0.5118208 -1.1026481 -0.44153923 0.11054644 -0.34552 0.21093906 -0.37952203 0.17221037 -0.41019475 -0.3760523 0.14300728 0.32807082 -0.4608328 0.24408658 0.16166547 0.06685609 0.25984555 0.15004024 0.7306332 -0.56112003 0.490152 0.37250018 0.29534695 0.5044222 0.1989363 0.00010920309 -0.041731585 0.40272984 0.9033429 -0.22892907 -0.50667304 0.5079585 -0.81781155 -0.0996182 -0.48718214 -0.19516082 -0.15674447 0.7072129 -0.37658486 -0.11311312 0.57376593 -0.24976113 0.035042744 0.12772176 -0.2995029 0.099949494 -0.2645604 0.04039938 0.052411806 0.8935604 0.12484438 -0.22820416 -0.3227877 -0.45514378 0.2778727 -0.7266669 0.41462657 -0.43087503 0.398795 0.44491118 -0.13238803 0.56813467 0.1003177 0.41460794 -0.2427003 -0.6455612 0.27292505 -0.68775094 0.08757814 0.06751136 0.3430681 -0.14603983 -0.37465784 0.0021402454 0.028731234 0.33716854 0.008720313 0.06942004 0.17067687 -0.3578016 0.45348158 0.12477466 -0.07661611 -0.49283952 -0.077269025 -0.37208524 0.35922283 -0.34327504 0.11047327 -0.07608077 0.21781038 -0.15988162 0.28068495 -0.27517372 0.012636056 1.017495 0.27786222 0.26594967 -0.14892504 0.81018233 -0.083062895 0.4779178 0.5266259 -0.34835675 -0.39872286 -0.5486053 0.5045523 0.68389255 0.288204 0.112417914 -0.35394782 -0.3305617 -0.07202071 -0.37753984 0.035651438 0.1706627 0.36240536 -0.43429795 0.55328083 0.14906232 -0.1723366 0.04147149 0.6180271 -0.17736608 0.22839658 0.4392253 0.020898852 
com.github.nisrulz.sensey.LightDetector.LightListener 0.09023661 0.48880798 -0.8237751 0.21989784 -0.27698985 -0.05274442 0.34399113 -0.5118922 0.011168014 -0.4911474 -0.17572384 0.027087217 0.19148886 -0.5059709 -0.13636404 -0.30395147 0.26593482 0.26759285 0.11990589 0.25981262 0.20737803 -0.026063142 -0.06212465 -0.17856008 0.2810584 0.30741608 0.3735549 -0.3521124 0.17958094 0.39512756 0.0009792902 -0.58937454 0.6785258 -0.5102056 -0.28381953 -0.10495273 0.26806694 -0.109858744 0.7711471 -0.39369366 -0.833956 0.5396102 0.15203977 0.09205039 0.22861134 -0.3408042 0.08444567 -0.24753682 -0.2840432 0.5925801 0.17004037 -0.557837 -0.052054446 -0.40670943 -0.2608837 0.08149353 -0.0927073 0.35178548 -0.22128984 0.16991407 0.7600141 0.19490601 0.562826 0.3334919 0.47264656 -0.21502867 -0.2281467 -0.3611761 -0.17731874 -0.054051906 -0.09641895 0.6076336 -0.25943768 -0.3619204 -0.39649174 -0.42479914 -0.3116351 0.09280212 0.27610898 0.115720734 -0.6617162 0.37714303 0.24872066 -0.086411595 -0.4514222 0.005137564 -0.5156894 0.56076765 -0.27915728 0.315951 0.14507003 0.16829538 -0.1304242 -0.16582789 0.30472392 -0.3488027 0.71974015 0.29374236 0.31437087 0.14150634 0.30862185 0.30351397 0.28036094 0.56978893 -0.1676556 -0.55108666 -0.30745754 0.032189243 -0.12165175 -0.17356184 0.08851989 -0.5296305 -0.26688606 0.25772944 0.1792076 0.02653727 0.7269655 0.3411061 -0.7859774 0.63656074 -0.063044935 -0.4237225 0.70656335 0.1909208 -0.6656503 0.30667502 0.14091772 0.2259056 
com.github.nisrulz.sensey.PickupDeviceDetector 0.5662627 -0.51528966 -0.72640944 0.38900027 0.6487431 0.08498775 -0.5677949 -0.13764504 -0.31829992 -0.21136041 0.26199743 -0.6693748 -0.70173985 -0.08150893 0.24585481 -0.13291793 -0.07146482 0.06685556 0.47019982 -0.21054833 0.16211997 -0.5643879 0.30475804 0.70267594 0.7109156 0.3949955 0.18154332 -0.6111696 0.4356763 0.56092185 -0.5234991 -0.49069473 -0.021782475 0.52786356 0.016259829 0.19807228 0.50013113 0.2549358 -0.025834093 -0.14921822 0.17864268 0.023383785 0.7387623 0.37640163 0.2559645 -0.2699724 -0.08933284 -0.33041474 -0.6348563 0.003368741 -0.32012 -0.00029239658 0.4708058 -0.6831692 -0.058783926 0.2998378 0.01554888 -0.16921432 0.030993463 -0.24088626 0.242086 -0.24790247 0.24322687 -0.27813724 0.11407853 0.12429614 -0.22268848 -0.5967187 -0.12322826 -0.17692176 0.30129853 0.36763948 -0.3449869 -0.3024218 -0.102582335 0.295586 -0.10857212 -0.3546034 0.07053347 -0.3047342 -0.5899394 0.3591816 0.4474343 -0.12579904 -0.51662457 -0.3154483 0.21404257 -0.2595995 0.33418092 0.43150938 -0.06956553 -0.3455232 -0.20915306 -0.09241043 0.15488394 -0.0074422266 0.4959197 0.0355564 -0.4834476 -0.29320085 0.052727688 -0.4841521 -0.429496 0.625126 0.44950518 -0.66161007 -0.23131268 0.37393206 -0.061395843 -0.25002068 -0.5950703 0.22922112 -0.18484679 0.6698893 -0.2656535 0.17255086 0.7202077 0.64868647 -0.12242857 0.5130949 -0.3567658 0.22415344 0.6454177 0.3373987 -0.20906362 -0.123405255 -0.38204905 -0.3048747 
com.github.nisrulz.sensey.PickupDeviceDetector.PickupDeviceListener 0.6895014 -0.07731353 -0.52359694 -0.07573809 -0.20685133 0.17203857 0.053334676 -0.35097313 -0.63997704 -0.15040284 0.22812147 -0.66949165 -0.19286636 -0.01516425 0.2220512 -0.42476204 -0.5516203 0.42632148 0.42238528 -0.1534387 -0.22086175 -0.14329179 0.532234 0.4455991 0.52851576 0.30401188 -0.11144164 -0.74802595 -0.2388468 -0.17092696 -0.09940935 -0.020862678 0.24029605 0.012145819 0.027661227 0.101559915 0.2982914 -0.33399558 0.19003396 -0.19165322 0.5901742 0.013339804 -0.09350817 -0.017396554 -0.10654097 -0.528717 -0.34866863 0.10580574 -0.85926133 0.5885938 0.068864055 0.20407438 0.23622216 -0.27374908 -0.03420488 0.030355817 -0.28485805 0.08598321 -0.08649345 0.41242564 0.20295124 -0.31664476 0.121176146 -0.039118353 0.3400433 0.29937944 -0.25641474 -0.048583716 -0.15781926 -0.6414292 -0.04764629 0.74619716 0.0660755 -0.5622272 0.29395086 -0.107420176 0.10109127 -0.3903966 0.28412572 0.15554093 -0.72688794 0.20682324 0.1541892 -0.10553589 -0.14707574 0.060414113 -0.19977957 -0.25389954 0.37929323 -0.1998387 0.48057193 0.20407416 0.19300881 -0.316623 0.07003417 -0.3187893 0.570178 0.70585793 0.042695716 -0.27052778 0.5449217 0.17787708 0.024638465 0.5906832 -0.111263 -0.7939255 -0.6085786 0.19837992 0.040111233 0.18532977 -0.3985496 -0.21571419 0.058529977 0.056507245 -0.36499855 -0.07432931 0.5779493 0.23042862 -0.011852931 0.5023179 -0.03001202 -0.49057713 -0.004260056 0.52699596 -0.10690448 0.23772372 0.082176015 -0.041687734 
com.github.nisrulz.sensey.RotationAngleDetector.RotationAngleListener 0.535131 -0.09044835 -0.067115515 -0.016343514 0.035047766 0.25461057 -0.3800583 -0.56585014 0.15384112 -0.22675563 0.06736295 -0.27902544 -0.8585007 -0.61459243 -0.2206369 -0.1429031 -0.058709107 0.26212928 0.17937651 0.12553135 0.152939 -0.71721065 -0.2519203 -0.40271336 0.47077233 0.17621882 -0.07531317 -0.3510067 -0.12659152 0.09965424 0.36019066 -0.033397216 0.26100934 -0.61431134 -0.15340272 0.0627781 0.07750311 -0.5750701 -0.3882994 -0.1656494 -0.07452014 -0.5577376 -0.27752003 0.23074102 0.4662062 -0.072981976 0.51431715 0.12900552 -0.45176446 0.079136424 -0.51233566 -0.32745197 0.12412575 -0.69376725 -0.68926615 -0.4310046 -0.14346866 -0.39432624 0.16712119 -0.3188926 0.4533571 0.07053855 0.5746046 -0.0010438215 0.42552906 -0.34387562 -0.28053498 -0.13518451 -0.0035723173 -0.39930698 0.09334617 0.49788347 -0.35054186 -0.02045154 -0.07466832 0.08407308 -0.3635731 0.1404126 0.03442794 0.009488963 -0.050486453 0.3836727 0.18386881 0.20370293 0.18779053 -0.06431292 -0.9000315 -0.053743538 0.019655515 0.02306447 -0.26791698 0.34095633 0.4821791 -0.38578734 0.26673517 0.07261013 0.8416841 0.013967736 0.009036635 -0.25611785 0.2881633 0.12673368 0.26587585 -0.16113971 -0.29972395 -0.48374146 -0.31043312 -0.06727307 0.28668076 0.057514604 -0.5461377 -0.6163111 -0.36876735 0.37370095 0.14672008 0.21654773 0.5440031 0.45876226 -0.25123864 -0.06828365 0.24330539 0.49253967 -0.11723495 0.7416526 -0.07396922 0.19538435 -0.21779163 0.41806808 
