Variable_N 128
Fragment -2.0968138e-05 -0.0018695198 0.0016314257 -0.0008169737 0.0042528748 -0.0028693064 -0.0036123903 -0.0024865556 0.00011231316 -0.0012638314 0.0023512652 0.0017952265 -0.0006691468 0.0014195387 -0.002178182 0.0042161606 0.002647151 -0.00038001555 0.001982698 -0.0030312624 0.0022457582 -0.0021046589 -0.0013643818 -0.004270076 -0.004351466 -0.0026288042 -0.003791591 -0.004429036 -0.0020434768 -0.0004749947 0.0016575049 0.00017061451 0.0032266227 0.0020560573 -0.0013555989 -0.0014841639 0.0022943474 0.0016022206 0.0024198692 -0.00031527548 0.002834508 0.003439929 -0.00051838806 0.0009737765 0.004264344 0.0037149047 -0.00036620168 0.0042968113 0.004036943 -0.0029395923 -0.004258075 0.0011601809 -0.0017246893 -0.00019708805 0.004270041 -0.001722028 -0.0001463051 0.0034482179 0.0032278118 -0.0026656874 0.0028003172 -0.00018118617 0.0031805362 0.0002470418 -0.0009776166 -0.0018148087 0.003334388 -0.001472836 0.0020516824 0.00084049755 0.0023765978 0.001774391 -0.0016706628 0.0017902098 0.0006390944 0.0034032788 0.0009588863 -0.0026101223 0.0030555672 0.0028893407 -2.3188028e-05 -0.0015435669 -1.7834183e-05 -0.0036101558 0.00390682 -0.0002496996 -0.0034066138 0.0032859768 0.0043605384 0.0017685966 0.0024340705 -0.0032595424 0.002255783 -0.0015055635 -8.666047e-05 -0.0034087761 0.0044089938 -0.003093297 -0.0011113781 -0.0033149652 0.00075188087 -0.0025707318 -0.003727896 -0.00016503004 0.001430263 -0.003021483 0.00257576 -0.0025214164 -0.00053677004 -0.0011864332 -0.0012577311 0.0019434587 0.0041408045 -0.0005872385 -0.002837545 0.0043755937 -0.0038477117 -0.0008265159 -0.0005371219 -0.00024935033 0.00218541 -0.00392118 -0.00020046116 -0.0011759999 0.00086472096 0.0019730534 0.0031953212 0.003724203 
com.example.kyrie.PathMorphFragment -0.0016249296 0.0030405219 0.0020237868 -0.0034272159 -0.0040088026 -0.0010824883 0.00030511225 -0.0003262864 -0.0016396224 -0.0012710125 0.0016476834 0.00025500133 -0.00037649873 -0.00016287257 0.0009849686 -0.0010588069 0.002326206 -0.000102150734 -0.003886555 -0.002677794 -0.0025530588 -0.0028114081 -0.0024857817 -0.004054265 0.0013874541 -0.0009691496 0.0010836072 0.003119903 -0.0041525667 0.0025216741 -0.0011765809 -0.0026235147 0.0010584125 0.0034826451 0.002707655 0.00025774477 -9.3203744e-05 0.0036561184 0.0027192382 -0.00060463883 0.0041017896 -0.0012397624 0.0028278993 0.0026365945 0.00040000526 -0.001376891 0.0018748798 0.0012115651 -0.0006580099 0.0045725135 0.0019689107 0.0003606876 -0.0009431005 0.0047255056 -0.00030172715 -0.0024185004 -0.00024287621 0.0040062424 -0.000568177 -0.0032748517 0.0028765625 0.0038084541 0.0014258954 0.00014917315 0.0004952204 -0.0030985835 0.00063434767 -0.0011601899 0.0020842378 0.0020045065 0.003912639 0.0005503401 -0.0041157966 0.00028609566 -0.0035413215 -0.0004639948 -0.00022177194 0.00074893935 0.004117274 0.0017945427 -0.00222136 0.004794895 0.0037549406 -0.0036199323 0.0034943796 -0.0001859964 -0.00064826664 -0.0035176997 0.0012057105 -0.0033911122 0.00040102584 0.0047442317 -0.0027417233 0.0032871072 -0.0019504324 0.0026701365 0.00056713267 -0.002666595 -0.001027592 0.00027117424 0.0042931694 0.0015393934 0.003058063 0.0043461123 -0.0026589062 0.0015355529 -0.00034316562 -0.0021474375 0.0029819913 6.4481545e-05 -0.0008249877 0.0028413835 -0.003566849 -0.0035376067 0.0044494094 -0.0012702426 0.0022482076 0.0021112596 -0.0017222199 -0.00421682 -0.0015159509 -0.001460352 -0.0036668938 -0.0033491547 0.0010157967 -0.0012030528 -0.0022683737 -0.00065435475 
com.example.kyrie.PolygonsFragment -0.0021485593 0.0028169898 0.0025809314 -0.0023900971 -0.002490488 -0.0018445773 -0.0023281048 -0.002257238 0.0020105117 0.00023261968 0.003980226 -0.0035727345 -0.0005834387 0.0026903525 -0.0019399896 0.0020379347 -0.0002466612 -0.0025125828 0.0018527326 0.0037370166 -0.004302809 -0.0016513412 0.0030587388 0.0025629865 0.0021050477 0.0010642082 -0.0009893591 0.0037148322 -0.004456962 -0.00035850808 0.0005056015 -0.0017083866 -0.0014224498 0.00011398013 0.0021991816 0.0025213487 0.00061170204 0.003100735 0.0044653844 -0.0014175226 0.0027616308 -0.0037288424 -0.0017200259 0.0015587 0.0029215273 0.0024065936 -0.003151447 -0.001598034 -0.0036607322 0.0008940493 0.002221801 -0.0020718288 -0.0032036845 0.0045190775 0.0031139548 0.0026201836 -0.0024146165 -0.0009733005 -0.0033335201 0.00033250407 0.0027962322 0.0010853559 -0.0010294671 0.0024290504 -0.0020161013 0.0022464795 -0.0030351735 -0.0033866358 -0.0017286413 0.004451051 -0.000759561 0.0026775082 -0.0030598058 -0.0023677107 0.0009122317 -0.0010877218 -0.00036985846 0.0013525521 -0.001528358 -0.0026461892 0.0020717657 0.002849927 0.001064009 0.0025343872 0.0023372457 0.0040568653 0.0028304476 0.0025033383 -9.127703e-05 -0.0036395204 0.0015932025 0.004888604 -0.00271861 -0.002326985 -0.0016209305 0.0019278883 -0.00265547 0.00035955003 0.0035770792 -0.0028997557 0.004452013 -0.0037448069 0.0013817453 0.0005384099 0.0015045012 0.0035924118 0.0005396561 -0.0014624418 0.0005656352 -0.001937974 0.0028030588 -0.0011304294 0.00033999904 -0.0033205524 3.127136e-05 0.0008408524 0.0045562033 0.0038383263 -0.0028289047 -0.00011512681 0.0039548846 0.0026834225 0.0016128999 0.001463762 0.0016028734 0.0005454811 -0.0030815369 0.004126076 
