Variable_N 128
MediaPlayer::OnCompletionListener 0.041129287 -0.037859153 -0.019819882 0.03130543 0.024639508 -0.0014504951 -0.008584083 0.0027112686 0.014191556 -0.029955067 -0.023979856 -0.026609069 0.04273389 0.01970992 -0.059372824 -0.009326252 0.06520469 -0.0050318018 0.06835567 -0.0341406 -0.06100199 -0.04852737 0.009964173 0.05764179 0.06484693 0.0400244 -0.038191695 -0.033709522 -0.020471798 -0.025253389 -0.038757097 0.010941449 0.034586236 0.036085296 -0.0071288547 -0.048903003 0.015265799 0.010371846 -0.0022556055 0.010177465 -0.0077287005 0.0712774 -0.055509195 -0.02764567 0.013307286 0.07723926 0.02922638 -0.02306939 -0.012092133 0.013249821 0.005672274 -0.049312532 -0.0051478297 0.042185266 -0.014454464 -0.03437326 -0.049027983 0.0013393001 -0.010336502 0.0020614804 0.03302006 0.017969 -0.025787162 -0.022009397 0.04077036 0.014454507 -0.062112276 -0.033815347 0.01082236 0.011219021 -0.026834555 -0.011617413 0.03095879 0.02689882 -0.022248268 0.017757403 -0.017767267 0.00041850927 -0.010310721 -0.019565042 -0.054868054 0.02939097 0.029677311 -0.018616442 -0.024269218 -0.012827876 0.051472034 0.058700345 -0.015719913 -0.029342635 0.0298885 0.021892205 0.007349915 -0.022971261 -0.0151234595 -0.026924819 0.024683837 -0.026108501 0.034692854 0.025793849 -0.011685762 0.017969966 0.02229363 0.031622183 0.03204916 -0.008399319 -0.018642552 0.08602057 -0.008716685 0.027104741 0.0149184745 -0.011120567 -0.0027444982 -0.03376833 -0.00077036227 -0.03733342 -0.056616835 0.00029513042 -0.0019565655 0.002290446 -0.027330363 0.009454844 -0.024884405 0.035798974 0.059394468 0.0037994338 0.04620213 0.0458049 
com.zhuyong.balloonrelativelayout.MainActivity -0.11508487 -0.054009743 0.10498695 0.08711709 0.1326203 0.07563586 0.2229117 -0.24917772 -0.09732951 0.12048097 -0.06287902 0.0063416692 -0.15600121 0.2877892 0.16499528 0.11307742 -0.23149496 0.15408249 -0.11659986 0.35567978 0.20146854 -0.11026432 0.23685329 0.10379755 -0.33098835 0.05351581 -0.045442145 -0.014241945 0.29175475 -0.07307206 -0.011004181 0.03140461 -0.23722994 -0.33577392 -0.08659653 0.12255066 -0.032429215 -0.0970338 0.14998679 -0.20708042 0.042750888 -0.30827865 0.166322 0.2708816 -0.03888985 -0.2717274 -0.19117644 0.30676192 -0.21255988 -0.077403374 0.27039158 0.09665994 -0.020038225 -0.16689326 0.054681852 0.29133323 -0.17837863 -0.11199864 -0.25847593 -0.0034422642 -0.17257631 0.13646203 0.06916178 0.33845022 0.14768258 -0.033782136 0.34668577 -0.037767407 0.037911747 -0.06282132 0.34635773 0.06929924 -0.25644007 -0.2140053 0.020039184 -0.056586877 0.004271195 0.18611243 -0.21134123 0.32794926 0.19026676 -0.22804351 -0.09644178 -0.19845572 0.22649716 -0.1514766 -0.11026458 -0.25841072 -0.12057904 0.1291757 -0.21779361 -0.13320388 -0.19312407 -0.009015043 0.1134015 -0.17872655 -0.08799701 0.16720408 -0.08226921 0.06617623 0.08418791 0.10957548 -0.12969883 -0.19515526 0.06733592 0.22472078 -0.22409624 -0.17796543 0.18439853 -0.1506224 -0.046266224 0.380492 -0.023772527 0.04062525 -0.3097124 0.104048505 0.242198 -0.22167839 0.00031296263 0.033904057 -0.17000301 -0.11475637 0.0048493 0.13090375 -0.17168534 -0.36892912 0.024970943 -0.27405253 
MediaPlayer::OnPreparedListener 0.047453765 -0.04563291 -0.017542224 0.029513981 0.026720043 0.0018861477 -0.007235355 0.008357657 0.012786699 -0.030108344 -0.026976947 -0.03028617 0.047738638 0.022070216 -0.066822395 -0.004789022 0.071809106 -0.006966596 0.07438471 -0.026652744 -0.06270538 -0.04951735 0.017953623 0.060430612 0.06907861 0.045925144 -0.043649264 -0.03296386 -0.023189344 -0.027896779 -0.04488195 0.014053782 0.029827971 0.031859454 -0.012958644 -0.055843852 0.01296533 0.00821769 0.0010490649 0.01311078 -0.0055882013 0.073031455 -0.05710589 -0.029462257 0.015881808 0.08048318 0.02969349 -0.028206747 -0.016224211 0.019145085 0.014316213 -0.05219944 -0.00443186 0.037666924 -0.011310374 -0.035341267 -0.05824733 -0.003110974 -0.018207224 0.0077876505 0.032253087 0.022653416 -0.029465143 -0.023779262 0.04341765 0.011231999 -0.06652995 -0.043020435 0.012362586 0.007767849 -0.028109422 -0.012844743 0.029686194 0.021887748 -0.022055471 0.023911774 -0.015509921 -0.0005892511 -0.014701857 -0.022807037 -0.057530437 0.03535157 0.028495276 -0.02115941 -0.018583888 -0.012249618 0.056016386 0.06007434 -0.020520948 -0.02840074 0.025650227 0.025671415 0.0043224273 -0.030315155 -0.0155911185 -0.026467113 0.02483994 -0.025565607 0.042668868 0.035052616 -0.01197897 0.023089318 0.023155374 0.029452207 0.03522322 -0.0075607393 -0.026801119 0.0912394 -0.007814433 0.024877002 0.019113842 -0.0072331945 -0.0037478043 -0.038048953 0.0027386055 -0.04048989 -0.057505395 -0.0051402804 -0.00023258863 -0.0021209414 -0.02644633 0.014893141 -0.03041522 0.03365457 0.06443318 0.0032107166 0.04453256 0.051247835 
AppCompatActivity 0.005816265 0.028379885 0.0012630242 0.015131843 0.045349497 -0.023907188 0.028772412 -0.03628201 0.01113996 -0.026988318 0.029214345 -0.037359048 0.02593418 0.099491805 -0.07395308 -0.006940692 0.051739197 0.04372092 0.094631724 0.053888302 -0.010639466 -0.06762139 0.08199912 0.08634789 -0.002868907 0.029709684 -0.047567353 -0.052630935 -0.004608346 -0.07891557 -0.015355829 0.012188024 -0.026683902 -0.03553224 -0.0032310598 -0.020222425 -0.018659936 -0.0075593004 0.031553745 -0.06088592 -4.6377754e-05 -0.049824838 -0.025139777 0.029269595 -0.015355529 0.072156794 -0.012599615 0.021266008 -0.046172094 -0.012071108 0.041754734 -0.02220391 0.0071034585 0.016648056 -0.06357991 0.06971794 -0.0832587 0.0042046728 -0.034102682 0.03198867 0.041682187 -0.00047618538 0.021412518 0.07677475 0.035184763 -0.020357268 0.028092729 -0.006982653 5.687269e-05 0.0041423794 0.011847299 0.002796825 -0.017474327 -0.035759296 0.015147875 0.0061820666 -0.025018435 0.014211673 -0.060449176 0.07751433 0.012102815 -0.062619336 -0.00045074726 -0.056930445 -0.0068075377 -0.042314094 0.0651049 -0.024253648 -0.02063753 0.010698216 0.023240168 0.01694714 0.004815693 -0.048542295 0.049994774 -0.03872215 0.0023682069 0.036418453 0.05582048 0.048860792 0.058680445 0.06548918 -0.024411283 -0.038916193 0.07901541 0.0103880875 -0.05249153 0.098942675 0.014494451 -0.015965775 0.03295599 0.043275345 -0.036543198 0.01396831 -0.0621681 0.006367098 -0.017985951 0.020753348 0.022933958 0.04549665 -0.042703696 -0.012604098 0.033323694 0.06813142 0.018983305 -0.086240865 0.072871074 -0.0032337154 
Handler 0.055351358 -0.039045107 -0.013765217 0.03415036 0.027242765 0.003108969 -0.009573221 0.012434319 0.00936407 -0.030490499 -0.021495404 -0.030370148 0.053576797 0.015272333 -0.06991782 -0.008070011 0.07725996 -0.0066469368 0.07767843 -0.042858526 -0.06382938 -0.05326232 0.0104134185 0.061981726 0.0759338 0.039194096 -0.046750527 -0.034021758 -0.029687885 -0.035577122 -0.044853613 0.018020047 0.038766105 0.04238932 -0.012611317 -0.05640461 0.0084133865 0.012582897 -0.0082008755 0.012684463 -0.00475773 0.075003445 -0.05767893 -0.035671532 0.013621191 0.08784196 0.0394205 -0.03251296 -0.012202906 0.019218134 0.0067746146 -0.05318022 -0.011605413 0.046699557 -0.011997404 -0.038065195 -0.053477444 0.0016852366 -0.008580502 0.0064850976 0.036385138 0.021202853 -0.033062622 -0.028963706 0.03980709 0.0135109015 -0.071597494 -0.041514706 0.0045261695 0.017401366 -0.038479704 -0.017093234 0.029658547 0.028554264 -0.026496315 0.026545346 -0.021755736 -0.009291126 -0.007256488 -0.02837637 -0.062783 0.03878631 0.034347773 -0.010541624 -0.023798216 -0.013442797 0.059174597 0.065559 -0.020829367 -0.033512868 0.033207852 0.020581134 0.008501569 -0.028622167 -0.01159112 -0.022815919 0.021030707 -0.027794106 0.04527742 0.027871203 -0.013328177 0.021979785 0.017429557 0.034462836 0.035305046 -0.015877055 -0.019534526 0.09464874 -0.020692432 0.02874507 0.02186504 -0.025884267 -0.0104968 -0.038540944 0.00781284 -0.03744316 -0.059617583 0.0034044236 -0.0033847096 0.0024259316 -0.019751433 0.010016335 -0.025147969 0.039681423 0.065128274 0.013000186 0.046979226 0.060005106 
OnPreparedListener -0.08424865 -0.03932214 0.114699066 -0.055447355 0.05514368 -0.034439225 0.19319145 -0.12014219 -0.18267334 0.23695856 -0.16302858 0.085689045 -0.17444149 0.27226707 0.31985104 0.09739107 -0.34001848 0.09374384 -0.2798947 0.32622877 0.24260673 -0.043658443 0.20905146 -0.012950165 -0.36465588 0.13828278 0.1348522 0.026348928 0.37225607 0.1337168 0.09605622 -0.036954008 -0.28498307 -0.23747285 -0.020989845 0.15092254 -0.07418593 -0.06019646 0.05716554 -0.18852611 0.1254897 -0.28528306 0.07998238 0.18793634 -0.06615607 -0.34064707 -0.18897775 0.3388352 -0.12428368 0.019132342 0.22245106 0.085632116 -0.0067559895 -0.30224767 0.15509178 0.13579184 -0.15245138 -0.122856095 -0.25370708 0.002087704 -0.12860213 0.14724295 0.10036588 0.28114927 0.0015635041 -0.007824579 0.3996996 -0.013894046 0.049997926 -0.068863586 0.33701855 0.110472426 -0.21653536 -0.14150049 0.0748932 -0.0038464544 -0.039861344 0.08798074 -0.1623119 0.2823544 0.09068736 -0.17282325 -0.12534437 -0.15634947 0.28564885 -0.0849508 -0.21260414 -0.11761716 -0.19507164 0.2361808 -0.2977326 -0.16987404 -0.2062497 0.04825425 0.060051013 -0.04573005 -0.019848067 0.16729425 -0.18458192 0.110033326 -0.03429812 0.036653645 -0.1322163 -0.09280464 -0.12761773 0.24618863 -0.19966015 -0.2512091 0.14107634 -0.12369301 -0.23205628 0.34394598 0.14640911 -0.009268317 -0.22648957 0.16321824 0.39375055 -0.2095057 -0.03574156 -0.10698341 -0.07342917 -0.20238455 0.009447795 0.03233169 -0.25298524 -0.4021225 -0.16367856 -0.29397812 
OnCompletionListener -0.02326669 0.08203167 0.024801053 -0.0124711795 0.045071222 -0.03622629 0.0420782 -0.047986574 0.015426935 -0.009589221 0.06301067 -0.028569069 0.0014545234 0.13557813 -0.054058794 -0.0061448994 0.013167142 0.06761557 0.07634246 0.108754925 0.031198477 -0.057040114 0.10920961 0.079958245 -0.06765076 0.014098546 -0.027576936 -0.049965452 0.015078045 -0.09407044 0.01868752 3.6776124e-05 -0.063328944 -0.07639543 0.0053102034 0.01569072 -0.03837051 -0.026072605 0.043597437 -0.10188681 0.0035386053 -0.13422632 0.0015621346 0.0722379 -0.041527234 0.043276705 -0.052515198 0.057393618 -0.043924127 -0.023863057 0.056556836 0.005803314 0.020114364 -0.014272811 -0.08742732 0.12830381 -0.08684169 0.00053895684 -0.029744176 0.04395963 0.037837844 -0.02355281 0.06547968 0.13167179 0.010818509 -0.047386162 0.100395285 0.02288435 -0.008255352 -0.009595151 0.034209296 0.0140105365 -0.04036864 -0.08038283 0.039541423 -0.0041491305 -0.028109174 0.011060847 -0.073932864 0.1341828 0.072409466 -0.123652175 -0.02608497 -0.07063833 0.004107554 -0.042680435 0.052636452 -0.081038155 -0.022604173 0.043371532 0.009870691 0.0018956021 -0.00031520042 -0.04726268 0.08300134 -0.035310913 -0.024714723 0.07576895 0.04832401 0.04152266 0.095412426 0.08332174 -0.05429184 -0.08444405 0.088511184 0.023455529 -0.057502843 0.07413446 0.03466774 -0.03476163 0.037132677 0.071919985 -0.042616278 0.05641181 -0.08560567 0.0390932 0.025273973 0.035654183 0.03359057 0.06859777 -0.03831587 -0.03151983 0.074755624 0.07174148 -0.025676843 -0.1355761 0.06588771 -0.05243091 
VideoView -0.11162156 0.08775103 0.02272115 -0.0019115673 0.07678496 -0.08945401 0.07073293 -0.15988553 -0.020817151 -0.049724814 0.10350102 -0.07388729 0.011357912 0.22821283 -0.1250233 0.003822945 0.049475696 0.119590834 0.15947062 0.2670296 0.05827694 -0.022120101 0.21455328 0.052250113 -0.066232935 -0.06735317 -0.13779065 -0.034446843 0.040659595 -0.17019027 0.0762054 0.08415733 -0.11503656 -0.12323188 -0.13216674 -0.080639146 -0.063692756 -0.0865858 0.1807196 -0.12980157 -0.08329285 -0.19188888 0.1315813 0.19371146 0.06782381 -0.081744015 -0.09210093 0.16222481 -0.17842947 -0.06017949 0.0799182 0.01150063 -0.08138168 -0.12842129 -0.067186564 0.2690467 -0.20557527 0.009843772 -0.16708878 0.07491033 -0.041961193 0.037400845 0.16057092 0.1577815 0.059893753 -0.02369183 0.15745895 -0.059171565 0.050317373 -0.06857125 0.1390104 -0.095660284 -0.18641393 -0.09610758 0.013258234 0.03967819 0.07870332 0.058344856 -0.20236969 0.2043059 0.08645573 -0.20398033 0.005789268 -0.1839487 0.06991999 -0.12479232 -0.05066466 -0.12007531 -0.014590827 -0.06020776 -0.09512485 0.042339277 0.06257011 -0.091548555 0.06314076 -0.17066392 0.04656586 0.132094 -0.030636143 0.12163398 0.14416902 0.15838312 -0.055914033 -0.21803638 0.13977244 0.073265366 -0.1773004 0.10908856 0.053667877 -0.14916377 0.08692068 0.20018196 -0.14889461 0.13172157 -0.23125069 -0.021199672 -0.047190193 -0.056694657 0.111135945 0.18147413 -0.19424431 0.034133386 0.15546165 0.03160499 -0.018386234 -0.22297652 0.12857176 -0.16463077 
com.zhuyong.balloonrelativelayout.CustomVideoView -0.15458786 -0.07965503 0.075688176 -0.043789964 -0.008262691 -0.022207791 0.09428725 -0.13314086 -0.14636795 0.19590198 -0.15885516 0.11546954 -0.2038279 0.23909757 0.25118968 0.14896812 -0.23709182 0.094313316 -0.2344781 0.27654967 0.24502514 0.002126469 0.13724886 -0.019253997 -0.3541399 0.155597 0.16741069 -0.044208102 0.32615894 0.17994562 0.13553725 -0.056843236 -0.27010146 -0.13133864 0.05008484 0.0684609 -0.014094532 -0.06735438 0.034274593 -0.06775468 0.1679249 -0.17636815 0.02963256 0.09495075 0.028857045 -0.30212408 -0.17435555 0.26441288 -0.17259508 -0.004504511 0.14608411 -0.009182324 -0.056495346 -0.26140863 0.13679725 0.099401645 -0.13813147 -0.08789576 -0.2149531 -0.026669962 -0.18597864 0.13923009 0.11957748 0.19273362 -0.01900993 -0.062302515 0.2971548 -0.006397072 0.015333457 -0.023312813 0.23405014 0.16089448 -0.12563685 -0.1264301 0.109211035 -0.04727288 -0.038226295 0.12610005 -0.19083059 0.19378933 0.08285339 -0.12510478 -0.09226167 -0.14686999 0.19932838 -0.10502319 -0.1836714 -0.06668461 -0.1546474 0.19365269 -0.28708118 -0.09217041 -0.10123622 0.08996048 0.09964981 -0.07872463 0.046582036 0.14836797 -0.18854977 0.12157577 0.010041512 -0.037138473 -0.0687546 -0.12224548 -0.14388485 0.25006393 -0.18822406 -0.13915744 0.16763163 -0.07562721 -0.24031968 0.33813018 0.14669234 0.065409794 -0.13374476 0.13610773 0.32466653 -0.11906987 -0.04877127 -0.14847077 -0.114877276 -0.17864089 -0.04230673 -0.026239244 -0.25761673 -0.35931322 -0.1846705 -0.20014057 
RelativeLayout -0.13483566 0.0010135944 0.1005593 0.038265664 -0.032010645 0.098592825 0.023696758 -0.12484057 0.019510787 0.09178309 -0.032655455 0.041250985 -0.05674314 -0.026789283 0.2304899 0.051245324 -0.20184514 -0.013649924 -0.20345066 0.048140936 0.15541865 0.07427683 -0.01047684 -0.09395878 -0.24096328 0.040720373 0.060734276 0.06523831 0.17141263 0.10673858 0.013847953 -0.072165355 -0.013723086 -0.21644235 0.022165077 0.1462405 0.0005907554 -0.07113744 -0.013132881 -0.10449009 0.059672657 -0.14207835 0.09665062 0.10013168 -0.015298352 -0.21130042 -0.11362286 0.113379635 0.030988911 -0.07525851 0.14800611 0.03923332 0.10697976 -0.13230108 0.06541115 0.038599536 0.03446043 -0.03169525 0.0061018686 -0.12451228 -0.058608446 0.022450311 -0.033992387 0.0887306 0.04328099 0.06715124 0.16521949 0.08836465 -0.033742093 -0.078197956 0.19777395 0.10731468 -0.11325249 -0.028991979 -0.0093516335 -0.02691705 -0.00094647764 0.095363885 -0.0036784604 0.18858993 0.048456438 -0.039946605 -0.09186572 -0.059103355 0.06522135 0.04949629 -0.13229653 -0.13992372 0.03765787 0.13131277 -0.15600894 -0.010378684 -0.13841048 0.05944305 0.00010844438 0.014077242 -0.08333426 0.057852652 -0.08765811 -0.05964755 -0.06748673 -0.008041224 -0.04381789 -0.046077516 0.024617147 0.0978435 -0.098537125 -0.092990346 0.10599958 0.008905953 -0.09645782 0.19369856 0.031159395 0.053506404 -0.03874105 0.002624338 0.1925009 -0.108774126 -0.032082353 -0.09083175 -0.014993961 -0.11318304 -0.10282646 -0.03611248 -0.14301087 -0.11125068 -0.09566559 -0.074959315 
com.zhuyong.balloonrelativelayout.BalloonRelativeLayout -0.18211061 -0.11511923 0.026745703 0.024570217 0.051158927 0.05585603 0.10998463 -0.19282568 0.025979554 0.042910147 -0.12485563 0.032880206 -0.12456069 0.038227137 0.27605164 0.14635427 -0.25590873 0.1347665 -0.2503643 0.2540498 0.13916898 0.058587976 0.09278468 -0.032480948 -0.32494655 0.11654144 0.12135665 0.07889764 0.2958468 0.089809455 -0.054341078 -0.031501226 -0.09792987 -0.29608238 0.06914431 0.09219811 0.023061661 -0.022044726 0.09002705 -0.08847406 0.078971826 -0.14874339 0.07589467 0.18272369 0.0402139 -0.23213433 -0.13612245 0.25268736 -0.1023383 -0.08072459 0.21575502 0.09052152 0.08845214 -0.09617441 0.060374234 0.16150916 -0.006918595 -0.07445291 -0.10097612 -0.13295937 -0.15426083 0.009951139 -0.0043409476 0.2375245 0.14921117 0.005315444 0.23784228 0.058627274 0.07232828 -0.13322532 0.2576455 0.046981633 -0.10240136 -0.111111075 0.08907089 -0.10336714 0.03890439 0.102512114 -0.07000468 0.27802968 0.17261086 -0.11170379 -0.16136685 -0.17791083 0.11895738 0.02614828 -0.09770837 -0.22719973 -0.005080114 0.17491922 -0.14157006 -0.024149626 -0.21081197 0.048440646 -0.001194598 -0.044951506 -0.06519273 0.08101618 -0.12425529 0.0021967948 -0.006151388 -0.037809454 -0.08740295 -0.033010498 0.07431269 0.124603964 -0.15181357 -0.18450078 0.1678739 -0.08262232 -0.16000094 0.314949 0.028459357 0.114415154 -0.19653687 0.03262531 0.22918415 -0.22085842 -0.032583933 -0.1137849 -0.13890731 -0.076549046 -0.10761485 0.05005512 -0.11664845 -0.17552502 -0.037040804 -0.22163852 
