Variable_N 128
com.mindorks.snaphelperexample.ui.base.BaseActivity -0.06971901 -0.6772376 0.14026166 -0.38253418 0.31936553 -0.05892417 0.4680058 0.6822916 0.036469158 0.12763312 -0.15530461 -0.20328552 0.11766687 -0.3845182 -0.046196245 0.13048737 -0.017594783 0.2696609 0.30230314 -0.682083 0.51987416 0.07542608 0.5295834 -0.5268643 -0.28206992 -0.47502849 0.7695505 0.43034896 -0.33824652 0.09553032 -0.09839104 -0.24783707 -0.13902633 0.103853256 0.13870361 0.0027529805 0.03309287 -0.095007546 -0.4289836 0.24664538 0.52178824 -0.24089554 -0.46713638 -0.35650295 -0.34826183 0.1709783 0.87017125 0.14254367 -0.03671718 -0.043096874 0.24652384 0.008734294 -0.21171454 0.24247181 0.13979645 -0.15999073 -0.11501203 0.22750215 0.4600299 -0.3621476 -0.10114293 0.29357135 0.027198032 0.39299917 -0.18531649 -0.08354047 0.08978279 0.41011938 0.5888343 0.15018848 -0.005724066 0.17964862 -0.17874111 0.16525203 0.4345637 -0.1551525 0.45433176 -0.1386239 0.40663412 0.006317494 0.22292075 -0.07785032 -0.19634183 0.042552184 0.1071225 -0.05513563 0.16979949 -0.5253096 0.35676742 0.20616977 -0.23118703 -0.25344682 -0.80316085 0.5199636 0.27438843 0.031177787 -0.017012874 -0.2611672 -0.31718463 0.35528958 -0.50118726 0.05227187 0.24696636 -0.43013346 0.2759142 -0.43334773 -0.16044793 0.23285517 0.18933113 -0.24964729 0.12632877 0.22429407 0.16955955 -0.0023877055 -0.07296357 -0.03444236 0.36632726 0.49727076 -0.7016545 -0.06888555 -0.5121041 0.0024517104 -0.02487059 -0.33146867 -0.0051126317 -0.44510472 0.47330317 -0.4668083 
com.mindorks.snaphelperexample.utils.DialogUtils -0.27292022 0.24426894 -0.30938485 -0.28446805 0.35573626 0.14932373 1.2767422 -0.09178651 0.62998974 0.27856445 -0.46227667 0.6271 0.041767117 -0.57950073 -0.90584916 0.6830095 -0.50136465 0.24314207 0.51594925 -0.48050284 -0.4747501 -0.113941535 0.41795775 -0.899913 -0.19655548 -0.46501723 0.68382347 0.36536497 0.06674532 -0.14760877 -0.09643637 0.11924967 0.5177732 0.4756613 0.2719615 -0.39579642 -0.29409313 0.04385183 -0.21662915 -0.49002233 0.25114164 -0.27457294 -0.0077887587 -0.140125 -0.27137613 -0.4227964 0.73384523 0.2400371 0.45609358 0.26665834 0.17687117 -0.019486215 0.32614356 -0.13634497 -0.17176403 0.14274453 0.078967534 0.72434205 0.42520547 -0.2887302 0.17929763 0.10892079 -0.10305045 0.45522046 -0.57570666 0.08838628 0.24193963 0.87504303 -0.21056299 0.073993646 0.59350693 0.6270757 -0.37372288 0.69422543 0.25867364 -0.5029878 0.6213645 0.19651215 0.42105928 0.39556286 0.3406889 0.35694832 -0.16307801 0.35894358 0.0023534633 -1.1125324 1.0347283 -0.38406643 0.56186134 0.21985014 0.47397548 0.061260737 -0.3953345 -0.13500156 0.39041004 -0.15722069 -0.57218194 -0.19678746 -0.450913 -0.013773783 -0.4570871 -0.10901126 0.4152408 -0.5796073 0.17855652 -0.25301325 -0.47344157 0.37542 0.46370932 -0.3549477 -0.45017794 -0.4939899 0.33033904 -0.06043288 -0.56181103 0.4293419 0.25637314 1.059691 -0.16425967 -0.33744806 0.3534195 -0.01293797 -0.023230765 -0.4697709 0.48553348 -0.85911334 1.2254822 0.058976743 
com.mindorks.snaphelperexample.injection.ActivityDependency.MainActivityDependency 0.46337715 -0.31975272 -0.8787914 0.6569278 -0.08145426 -0.9603293 -0.20927921 0.33795282 0.24793547 -0.27277425 -0.18691692 -0.19879709 -0.5867427 1.1475915 -0.056193862 -0.49239582 0.07274651 -0.55162525 0.35136533 0.7628112 -0.07500116 -1.3172035 0.06298006 -0.7422181 0.8702358 -0.47466582 -0.06985173 0.26497507 -0.19985212 0.22740798 0.028888837 -0.30863985 0.3507829 -0.38107282 0.03428124 0.083047956 -0.43962693 0.34358653 0.6413707 0.07054386 -0.96665096 0.8440541 0.3998783 0.39593416 0.564892 -0.5580856 -0.010602388 -0.30715576 -0.049286436 0.46219993 0.2065247 0.27310064 -0.68728757 -0.012007843 -0.07418529 -0.39700818 0.6919085 -0.13941109 0.11196192 0.20135362 0.3749229 0.0965411 -0.7600042 1.039798 0.6292003 0.8775721 0.73608834 -0.07376309 0.27565974 -0.61516285 0.32016686 0.26910576 -0.36512268 -0.29399613 -0.0005815773 0.76718897 -0.4128255 0.082761966 0.14076847 0.62446743 -0.0014246145 0.5714727 0.6912227 -0.49461234 0.055740144 0.39413926 0.23439988 0.111635275 0.111628935 0.35289818 0.3032996 -0.38271677 0.054069843 -0.90099984 -0.80299646 0.033669576 0.3369922 -0.27175412 -0.1621653 -0.37291774 -0.24089442 -0.628122 -0.74462086 -0.5944501 0.059131164 -0.24580787 -0.27116087 -0.102245115 0.5724182 -0.23947021 -0.13821957 -0.15475424 0.26135656 0.13865457 -0.11900947 0.086570665 -0.36547554 0.8412414 -0.089403026 -0.14605486 0.056517012 0.16529687 0.31983787 -0.25882155 0.5702816 -0.55658084 0.21913041 -0.17545876 
com.mindorks.snaphelperexample.injection.ActivityDependency.MainActivityDependency.MainActivityDependency 0.17849903 -0.21848749 -0.537884 0.34784272 -0.026757397 -0.60404116 -0.6592562 -0.045272946 -0.12020991 0.38194335 -0.32166123 0.0010170041 -0.4463297 0.24355172 -0.124238335 -0.118724465 0.33072108 0.036065087 0.4374679 0.67965233 -0.21897766 -0.41100192 0.20065746 0.25496516 0.38331345 -0.35141686 0.08352725 -0.02343407 -0.35532975 0.11722906 0.122484066 0.04422006 0.62126595 -0.008227214 0.062178053 -0.8330605 0.49772847 -0.056587394 0.54968053 0.24664855 -0.5679552 0.17794773 0.56641513 0.30980298 0.3237629 -0.62992966 0.4395595 -0.49750632 0.7900854 0.22540876 -0.17740631 0.1699416 -0.31893018 0.089820065 -0.674495 0.23892869 0.20406926 0.10069688 0.101937816 0.008751099 0.4933677 0.3739439 -0.24194835 0.77425957 0.40531504 1.2690576 0.61137986 0.69010144 0.528353 -0.49869564 0.21961328 -0.0303536 -0.27087075 -0.56632805 0.35248557 0.81455725 -0.70813805 -0.06424446 -0.073537216 0.3582842 -0.036004633 0.5246625 0.85336083 -0.38168657 0.15604858 -0.024445215 0.40411618 0.61861575 -0.44296926 0.95033807 0.121657774 -0.13740377 -0.25365216 -0.29161072 -0.4039856 -0.017895684 0.0315156 -0.14998846 -0.587112 0.20899215 -0.5761388 -0.61972356 -0.3278585 -0.4235607 -0.32592565 -0.5437098 0.06476293 -0.27849212 0.4512581 -0.9128216 -0.48257807 -0.4410876 0.19187301 0.70969117 -0.26506695 0.45242268 -0.011699883 0.73787105 0.47710446 -0.38279885 0.006999257 0.08330775 0.59515715 -0.3997779 0.58877933 -0.48513043 -0.27510282 -0.4210443 
com.mindorks.snaphelperexample.injection.ActivityDependencyMainMvpPresenterMainMvpView::getDataManager 0.2716622 -0.39256424 -0.7340102 0.2674278 -0.15677454 -0.98592216 -0.16380258 0.5140689 0.20166044 0.06624579 -0.13612977 -0.3548445 -0.31746972 0.8612176 0.37281144 -0.8136593 -0.18671972 -0.67943937 0.046501115 0.39711988 -0.35282558 -0.58084774 0.042465158 -0.084108286 0.58391243 -0.7792637 0.07646605 0.08224755 -0.4165163 0.10780062 0.31978357 -0.7588969 0.9410542 -0.72990566 0.3679382 -0.1646329 -0.06816932 0.8552469 0.68008876 0.16874649 -0.6632336 0.6465846 0.5003997 0.13912168 0.17765072 -0.4569118 0.3361948 -0.86678016 -0.026716745 0.031908967 0.12409399 0.4912689 -0.88483286 0.636977 -0.46568725 0.5114197 0.74310607 -0.17022781 -0.4625508 0.099476606 0.685488 0.111956805 -0.7383409 1.0480722 0.72831565 0.64966816 0.6512379 0.08650468 0.76357216 -0.67672765 -0.34855276 0.31537205 -0.22877453 -0.33807692 0.34872043 0.65224206 -0.6650378 0.16069591 -0.20299366 0.2341419 -0.17046282 0.33422327 0.82050395 -0.91849756 0.009506729 0.54652053 0.07675204 0.27952728 -0.16199432 0.37044492 -0.49145487 -0.56537265 0.44408318 -0.29307884 -0.54407364 -0.42222577 -0.3056768 -0.4968162 0.13124692 -0.2888454 0.28357503 -0.80265033 -0.16868033 -0.35054404 0.2527379 -0.51550037 0.2007431 -0.16781494 0.43047646 -0.68552417 -0.72659487 -0.28542888 0.2555281 -0.115156814 -0.055724878 -0.020899761 0.000626361 0.68057483 0.0038465695 -0.4348075 -0.06287581 0.547938 0.20382513 -0.4876365 0.5694238 -0.8507191 -0.44219485 -0.73173946 
com.mindorks.snaphelperexample.injection 0.16447607 -0.23209776 -0.5223014 0.34709275 -0.027330775 -0.62480223 -0.665572 -0.06797035 -0.099991806 0.39220956 -0.32778987 0.0024371378 -0.4447712 0.24010971 -0.12818065 -0.1272062 0.33888105 0.034225415 0.44088072 0.69247323 -0.24942888 -0.39072526 0.19862606 0.29053953 0.3904817 -0.3723912 0.10380559 -0.024906397 -0.36801344 0.12002268 0.11916732 0.036628284 0.6492562 -0.013176086 0.073122516 -0.84534067 0.5083343 -0.017640399 0.58353543 0.22407529 -0.57082045 0.14135301 0.5787389 0.2910881 0.3312312 -0.6419159 0.474657 -0.539409 0.78759164 0.2153846 -0.17435807 0.2009084 -0.34111834 0.09841928 -0.69359785 0.2605975 0.23073107 0.1164969 0.07925937 0.00524967 0.50734174 0.3812399 -0.24829395 0.77690566 0.4143034 1.2755133 0.62365234 0.71184826 0.5498796 -0.51676136 0.21034472 -0.005579229 -0.27319464 -0.56340104 0.37652072 0.8249815 -0.72458446 -0.069213845 -0.09454749 0.3521846 -0.061770536 0.53679913 0.87067306 -0.39902288 0.1465471 -0.030804014 0.4103336 0.6428931 -0.46871662 0.95819694 0.09205626 -0.14028907 -0.23867466 -0.29341885 -0.38881636 -0.05547057 0.013270499 -0.14926489 -0.58446866 0.22085245 -0.5593721 -0.6458585 -0.30481395 -0.42925712 -0.3271636 -0.56047016 0.09606511 -0.28219822 0.44502667 -0.93713665 -0.5073549 -0.45742154 0.20554923 0.7102634 -0.27822024 0.4814475 0.025035212 0.7266367 0.4951396 -0.3784034 0.0029664028 0.077070616 0.5766931 -0.42831057 0.5917103 -0.47383347 -0.2854584 -0.45845255 
com.mindorks.snaphelperexample.MyApplication 0.25897342 -0.29961187 0.5110197 -0.61238086 0.24487016 -0.6821791 0.24096996 0.85788155 -0.055336796 0.09600454 0.0037718352 0.34629768 0.19460024 -0.38615343 -0.043777682 -0.33508226 -0.3547744 -0.56894547 0.42149922 0.32111654 -0.6461307 -0.22686166 -0.37716717 -0.23771241 0.78190863 -0.4278547 -0.049244814 0.41570055 -0.5707868 0.44050232 -0.12947424 -0.146415 0.15107444 0.15562291 0.19664001 -0.38948375 -0.7858618 -0.29382718 0.22075728 -0.3631214 -0.47752547 0.48226184 -0.32741448 0.18992037 -0.3898245 -0.6521138 0.17857945 0.17576489 -0.34998417 0.48957157 0.26367223 -0.37070447 0.09673885 0.6478338 -0.1795093 -0.14518568 0.19562191 0.22899686 0.3960954 -0.1650866 -0.35334682 -0.17415878 -0.44808316 -0.56740963 -0.27484256 0.6433668 -0.13664417 0.3133685 -0.16558357 0.0744453 -0.42072555 -0.045591366 0.5868339 -0.17160746 0.36516678 0.2709006 0.11668998 -0.37020484 -0.08052505 -0.397417 0.18258826 0.24572346 0.2169325 0.19161995 0.3520052 0.21186113 0.49750262 0.41666976 0.25840256 0.54620427 -0.08025091 0.10490986 -0.17980681 -0.47262165 -0.69750077 -0.3830988 -0.42842647 -0.43913716 -0.5871073 0.053568292 0.02347002 -0.3857247 -0.30012468 -0.7589687 -0.06973116 -0.4909256 -0.4367922 -0.24717253 0.7320629 -0.08226527 0.22399765 -0.30913147 -0.18623966 -0.08856905 -0.2775503 0.09184916 0.47209787 0.43520468 -0.17519538 -0.52029485 0.19304368 -0.04131716 0.13819544 -0.6290033 0.721657 -0.2848586 0.0400435 0.40741125 
com.mindorks.snaphelperexample.MyApplication.onCreate 0.16493337 0.077664904 0.15529427 -0.5408649 0.41980934 -0.2128265 -0.25369993 0.113417156 -0.58784676 0.7525281 0.2904971 0.106783375 0.5930401 -0.631267 0.031726696 -0.33415285 0.17577712 -0.36874735 0.6735248 0.20584531 -0.56707186 0.16085762 0.15850441 0.11051631 0.21789964 -0.26219943 0.07918022 0.3001958 -0.8217263 0.06406098 -0.26988003 -0.101002425 0.85907054 0.39353573 0.61219835 -0.89691204 -0.07151761 -0.20496699 -0.27550942 -0.07819465 -0.3505703 -0.36692828 -0.24968107 0.096257314 0.1150293 -0.8742658 0.22116522 -0.07032969 0.5843139 0.13464755 -0.06347411 -0.9230433 -0.17211443 0.46826372 -0.54126364 0.18464217 -0.05863391 0.1659636 0.5806802 -0.44210017 0.0655651 0.057938278 -0.071458995 -0.32376423 -0.48451325 0.8193771 0.06250375 0.48163268 -0.23929904 0.36511987 -0.26498592 -0.17138496 0.6034253 -0.20491925 1.2239019 -0.035735574 -0.05230402 0.106174745 0.48952407 -0.2082626 -0.20637111 0.18073517 0.06258756 0.5086839 0.6059581 0.24112341 0.7781607 0.71587 0.29614618 1.2288412 -0.27356136 0.19064586 -0.52515054 -0.7826706 -0.4574148 0.18922836 -0.40294576 0.010089297 -0.6106247 -0.32184684 -0.8277641 -0.08654168 0.23770516 -0.5188641 0.20086366 0.106682815 0.4520046 -0.36575004 0.4411791 -0.72243935 0.085946195 -0.4941682 -0.21495333 0.561523 -0.49362144 0.111872554 0.6623151 0.106810264 0.07997806 -0.3586752 0.21828002 0.03734738 0.020836048 -0.28507102 0.75318813 -0.33467427 0.35226595 0.23864159 
com.mindorks.snaphelperexample.injection.ApplicationDependency.inject 0.11629487 0.11340179 0.36005273 -0.5419503 0.652069 -0.26692966 0.40633646 0.48259938 0.53204143 0.15100333 -0.07184942 0.75851727 0.38170716 -0.19149931 -0.42539975 -0.02618873 -0.98930806 -0.60069966 0.16642284 0.5684081 -0.35862273 -0.22171018 -0.29359522 -0.5382666 0.89723927 -0.70183897 -0.21100155 0.37823758 -0.41055566 0.14349893 0.1456421 -0.111196436 0.7505366 0.5994402 0.50115484 -0.38516945 -1.0275346 0.2394057 -0.4371532 -0.550344 -0.31937978 0.26800507 -0.40698263 0.13837995 -0.2501262 -0.9699946 -0.013405213 -0.08378324 0.20197222 0.34755465 0.19338664 -0.66138834 -0.20390078 0.3817905 0.08229308 0.0385122 0.21684717 0.7009814 0.10504266 -0.45744777 0.0072869495 0.2643388 0.16976084 -0.29409805 -0.566782 0.41305873 -0.20863472 -0.016595727 -0.63458705 -0.29863212 -0.24242109 0.04753493 0.41433358 0.4480334 0.62819695 0.046749502 0.3114541 0.3558337 0.17465639 -0.1638311 0.35248724 0.26671326 0.5322721 0.06028212 0.4029269 -0.654985 0.6670369 0.21545336 0.88814163 0.93001634 -0.062205598 0.3829377 -0.102271415 -1.1401695 -0.6971257 -0.60005414 -0.31500077 -0.17815684 -0.46117187 -0.3744566 -0.06614654 -0.48349217 0.08577914 -0.8492516 0.5301206 -0.44741407 -0.3282515 -0.099281296 0.7361767 0.07883607 0.35698745 -0.60289234 0.23702517 -0.05074865 -0.12279531 0.30262876 0.1713806 1.0590172 -0.025940238 -0.062701486 0.45121044 0.24815354 -0.18621564 -0.42175028 1.3356819 -0.44614145 0.22097974 0.20436901 
com.mindorks.snaphelperexample.injection.ApplicationDependency 0.124936886 -0.11371365 0.62185925 -0.41355157 0.46605104 -0.53226244 -0.20612071 0.35131648 -0.5221571 0.666859 0.09271734 0.29663602 0.5046565 -0.118691444 0.1601679 -0.50171477 0.028659739 -0.6110305 0.55621064 -0.12637047 -0.41482866 0.059952684 -0.023542652 0.069763236 0.38326493 -0.19703539 -0.12233209 0.26675057 -0.74187297 0.35279378 -0.102467924 0.21674196 0.68525296 0.46571258 0.5441307 -0.6311223 -0.29988265 -0.30728 0.17327213 0.23393677 -0.28504363 -0.1279209 -0.3324069 -0.14598887 -0.10337518 -0.9147441 0.24012814 -0.20074403 0.23893969 0.4182776 0.2000946 -0.7130248 0.16565743 0.47628257 -0.7543016 0.13847391 -0.08239936 0.21720664 0.5440539 -0.3575853 -0.1549907 -0.032321014 -0.2336996 -0.24011073 -0.31092247 0.8365686 -0.02947373 0.4522284 -0.21909697 0.22148754 -0.40101147 -0.12955186 0.39869186 -0.13079897 1.0928065 -0.035690438 0.1209927 0.105321005 0.26792747 -0.4528444 -0.11192298 0.13987018 0.32188934 0.28714755 0.7253121 0.0534701 0.4875105 0.46507752 0.22003081 1.380712 -0.36642963 0.3740617 -0.5822745 -1.0631942 -0.35035038 -0.046875525 -0.07560544 -0.1121164 -0.56244826 -0.19157013 -0.7007232 -0.4332593 -0.31059647 -0.42843732 0.037214912 -0.12303904 -0.025363151 -0.47590232 0.38459137 -0.5774143 0.084940046 -0.26513264 -0.017302804 0.31393465 -0.07170495 1.8558956e-05 0.35857368 0.40129864 0.15584561 -0.43503594 0.34233823 -0.0484701 0.246266 -0.5127475 0.58039695 -0.26252672 -0.06375511 0.23835768 
com.mindorks.snaphelperexample.ui.main.MainPresenter 0.4454708 -0.123583876 0.66779745 -0.22916941 0.41690058 -0.18878157 0.42991266 0.25234967 0.5721329 0.21084936 -0.09124236 0.54040706 -0.032285955 0.48298398 -0.3496672 -0.621239 -0.023383267 -0.64075166 0.51783 0.104169056 -1.1377666 -0.6009169 -0.5855563 -0.53803086 0.84584004 -0.61697215 0.17015095 0.25535005 0.073727295 -0.21874881 -0.15607019 -0.08738179 0.8618187 0.5116455 0.07803622 0.0005810908 -1.0210608 1.2552686 0.9776686 0.068247154 -1.3057027 -0.4475679 -0.08251334 -0.2601747 -0.28588226 -0.6607437 -0.19631208 -0.7962867 -0.0680272 0.11843171 -0.010269447 0.29068315 -0.7678609 0.117117 -0.23397614 -0.41547292 0.20954576 0.35692498 -0.108931676 0.2875658 -0.15201585 -0.2057727 -0.56201154 0.36466172 -0.18637963 -0.32164627 -0.088984646 0.28566107 -0.3204244 -0.44832826 -0.48042434 0.20680338 0.013734201 0.5357447 0.30138797 -0.4030317 0.10485949 0.8737607 0.2329934 -0.14108701 -0.44752777 0.42005354 0.18527046 -0.3590069 0.04300513 0.11300994 0.22373009 -0.046003785 0.1294639 0.3437758 0.54824495 0.2584976 -0.34534365 -1.140621 -0.3395578 -1.0130482 -0.13048485 0.09979704 0.038524408 -0.6418332 0.3780238 -0.5245827 0.12986511 -0.6710918 0.006613206 0.08571217 -0.54268616 -0.43785006 0.18087569 -0.28117964 -0.32662427 -0.46435377 0.019155197 -0.14004736 0.7463485 0.62473446 0.51736915 -0.1660527 -0.39286342 0.26906526 0.11014221 -0.14587407 -0.52650046 -0.7001829 0.64826536 -0.022749158 0.586457 -0.6778728 
com.mindorks.snaphelperexample.ui.main.MainPresenter.getAppList 0.3306791 0.2541076 0.34895015 -0.06358563 0.29997116 -0.0079172915 0.013059521 -0.30009228 0.12000087 0.703845 -0.28771985 0.5867782 -0.031491105 0.03569657 -0.15984635 -0.25471857 0.27492112 -0.05584262 0.45159954 -0.03338707 -1.007004 -0.037783142 -0.45210567 0.14330027 0.3601822 -0.62308663 0.035644405 -0.14416507 -0.17045455 -0.23373863 -0.04702356 0.022793718 1.3621821 0.36844927 0.097403854 -0.72884715 -0.0024576858 1.0998217 0.86268073 0.45198435 -1.0205764 -0.72299534 0.23095176 -0.3685977 -0.14562137 -0.73690665 0.07198408 -1.0841035 0.66247386 -0.1204416 -0.44702545 0.5924499 -0.4724477 -0.14388625 -0.8368338 0.11254445 -0.06753726 0.21630286 -0.42781988 0.18656477 0.10759745 -0.08846014 -0.24967532 0.7828602 -0.17992015 0.10228488 0.14179373 0.45643377 0.04982218 -0.39886278 -0.5144184 -0.0052180863 -0.034614805 0.262462 0.6345475 -0.24885859 -0.33901075 0.9069261 -0.19247036 0.040914454 -0.62569445 0.62247777 0.33731753 -0.06426548 -0.264082 0.08686969 0.41338053 0.24939182 -0.5997453 0.73918283 0.44873074 0.4427889 -0.47099483 -0.7368294 0.056183133 -0.89860517 -0.20653841 0.008719905 -0.13367362 -0.35248512 0.042002562 -0.651959 0.2465858 -0.17613985 -0.24717002 -0.042748254 -0.04215344 -0.40066686 0.061689153 -0.928513 -0.6515681 -0.6758459 0.14027531 0.583617 0.43705618 0.7361673 0.63455325 -0.15319797 0.1383554 0.23492965 0.03297988 -0.12089952 0.017340243 -0.71682936 0.44553688 -0.08239097 0.19835627 -0.79529464 
com.mindorks.snaphelperexample.ui.base.BasePresenter.getMvpView 0.57472116 -0.041120157 -0.19649543 0.51239073 0.1401382 -0.05123313 -0.13421394 -0.18071592 0.29026768 0.41572082 -0.35982776 0.2835082 -0.7072185 0.42498833 -0.17374575 -0.5910569 -0.13593416 -0.29808876 0.30512413 0.15601473 -0.8385674 -0.5930558 -0.72956187 -0.4024152 0.7693457 -0.6883772 -0.2472518 -0.27731398 -0.2172311 0.11431073 -0.04571506 -0.5744152 1.4461119 -0.062964715 -0.14378393 -0.22996601 -0.52770114 1.7028863 0.78550076 0.40783694 -1.2231573 -0.09514046 0.2783209 -0.06748639 -0.09827754 -0.87102574 -0.024540268 -0.9828061 0.2073114 -0.22254129 0.027870083 0.42150858 -0.9928137 -0.2931175 -0.31696445 -0.15139827 0.56322074 -0.21294394 -0.5072848 0.41591612 0.32286462 -0.32038325 -0.6110831 1.1107091 -0.06360581 0.14441226 0.016842218 -0.05933547 -0.3530851 -0.6858721 -0.4529527 0.1382569 0.061075885 0.4801621 0.5615327 -0.44418588 -0.34033224 1.3832178 -0.4354404 0.46186474 -0.47234732 0.23309664 0.06495253 -0.31710336 -0.40039814 0.27898234 0.25308847 -0.13905019 0.021173704 0.15554011 0.6521054 -0.06906832 -0.07538885 -1.014093 -0.13520707 -1.1226243 -0.31602797 0.1260145 0.4885982 -0.58594084 0.29352057 -0.49232203 -0.110189125 -0.23099853 -0.06877068 0.06913411 -0.48414984 -0.2832028 0.21239589 -0.15114352 -0.8205294 -0.6248979 0.14128542 0.028185692 0.58379364 0.37342572 0.17149101 -0.18960564 0.55035275 0.15792793 0.17554037 0.11968005 -0.35158285 -0.4491153 1.0228945 -0.5822612 0.21372083 -0.6148043 
com.mindorks.snaphelperexample.ui.base.BasePresenter 0.3560199 0.24162725 0.32309043 -0.057288162 0.3097182 -0.00047601762 0.009969701 -0.29760635 0.12186586 0.71402204 -0.31559506 0.58363307 -0.07305635 0.039539777 -0.17014438 -0.25140926 0.2551554 -0.05905514 0.44567907 -0.027132934 -1.0014999 -0.05790705 -0.44563964 0.13213865 0.3667272 -0.65149844 0.033802673 -0.1609095 -0.18934141 -0.23240688 -0.02726119 -0.0009795208 1.4010243 0.3759471 0.09243512 -0.77367043 0.0017462334 1.1222829 0.8666792 0.4616149 -1.0351104 -0.6881047 0.23698395 -0.36832345 -0.1558002 -0.7481541 0.0855827 -1.0949248 0.67641425 -0.12485055 -0.44817185 0.60303193 -0.47756422 -0.13094546 -0.82950985 0.12036141 -0.057358894 0.21786024 -0.4443053 0.2039619 0.120493725 -0.059546635 -0.2553345 0.8068345 -0.18223953 0.1325072 0.11793159 0.457704 0.05255931 -0.41157785 -0.5304495 -0.002891137 -0.035241272 0.2599682 0.65673566 -0.24900807 -0.36087725 0.9305538 -0.2008162 0.06770487 -0.60923475 0.6015341 0.35263443 -0.059140168 -0.27516025 0.08620823 0.425077 0.2633863 -0.60320485 0.73068815 0.46013758 0.41548914 -0.47914177 -0.7381595 0.04653781 -0.9093567 -0.2226509 0.008118056 -0.11941666 -0.35018572 0.0495963 -0.65488595 0.22399752 -0.18664289 -0.24450599 -0.054633066 -0.040795725 -0.39661127 0.07749063 -0.9379113 -0.6613439 -0.6849949 0.14620394 0.60135067 0.44895482 0.73836493 0.6514903 -0.1400553 0.15530266 0.21765448 0.03359091 -0.10473959 0.02467037 -0.7051824 0.47264746 -0.102678634 0.19354561 -0.80093926 
com.mindorks.snaphelperexample.ui.main.MainActivity 0.37782526 0.40929615 -0.18748128 -0.24125639 -0.6035593 0.39677012 0.6944528 0.372911 -0.27765325 -0.16653381 -0.32736203 0.4414948 -0.38377735 -0.2827224 0.10221015 0.08728451 -0.3460652 -0.0801096 0.23988912 -0.5756745 -0.23240356 -0.3092665 0.11730635 0.14909905 -0.22742127 -0.41050896 -0.022783892 0.21933211 0.3900897 -0.11383873 0.32038963 -0.3624405 -0.06335176 -0.0011104029 0.20304602 -0.14783828 0.22877987 -0.1472311 -0.27343726 0.06461629 -0.06958949 0.3896926 -0.16154225 -0.22943474 0.13711795 0.074179515 0.5363754 0.20163254 0.021788003 -0.038272314 -0.11806843 -0.63143665 0.03195629 -0.24167031 0.28075618 0.16986182 -0.16716373 0.11288596 0.6437214 -0.10339485 0.21685529 0.51031125 -0.051841352 0.35194206 0.045641612 0.39657867 0.010958467 -0.13227983 -0.3337778 -0.4128076 0.13240378 -0.7942151 0.043801915 -0.068677835 0.16325994 0.15952316 -0.10389967 0.1519788 0.12776771 0.33296356 0.29606172 -0.3823835 -0.11534933 -0.06320671 -0.15501891 -0.33549678 0.5382767 -0.07862173 0.010492921 0.19528042 0.42828926 -0.39643624 -0.69574016 0.4722555 -0.22983639 0.08016937 -0.29143068 -0.11270793 -0.5714734 0.32442865 -0.36453056 0.4195288 0.2042558 -0.22182202 0.007980345 -0.050154332 -0.56403285 0.00045972213 0.044150192 0.040041056 -0.20267631 -0.14859867 -0.058563106 0.37755242 0.0099045625 -0.12773483 0.077316925 0.5640086 0.07035138 -0.429846 -0.10715992 -0.41120136 0.089455284 -0.55211616 0.3832832 -0.47354257 0.06687778 -0.3307899 
com.mindorks.snaphelperexample.ui.main.MainActivity.onCreate 0.42913255 -0.067015655 -0.49455783 -0.15143867 0.09929438 0.1717606 0.96914595 0.649316 0.015920643 0.07203294 -0.4269276 0.075147934 -0.66932684 -0.19645637 -0.064514235 0.41150382 -0.35980886 0.22671944 -0.082050726 0.030470306 -0.02488466 -0.33722076 0.12911329 -0.31295937 0.025344117 -0.724836 0.5427198 -0.10981227 -0.14553715 0.05137072 0.20939511 -0.60708946 0.42385414 0.2120079 0.014168373 -0.8274127 -0.17037293 0.023323677 -0.109071456 0.07282203 -0.09021168 0.856965 0.00043061204 -0.26082233 -0.32995176 0.340946 0.5337415 0.035760168 0.29446986 0.09774022 -0.28778946 0.27642375 0.17672311 0.2221592 0.16823056 0.26973405 -0.031530667 0.60372305 -0.462152 0.108161174 -0.27884886 0.84563005 -0.272195 0.36671233 -0.1618204 0.33470336 -0.2565366 0.10492208 -0.044514325 -0.16990843 -0.21454915 -0.16796152 -0.09615959 -0.28524095 0.119721025 0.12242632 -0.08901882 0.14176272 -0.13966091 0.26685324 0.44976357 -0.19793497 0.2333608 0.25451484 -0.25518802 -0.2688734 0.3620613 -0.028679943 -0.006655708 -0.3094564 0.31159723 -0.71944135 -0.434034 0.51369464 -0.5168827 -0.17963944 -0.5137546 0.051239684 -0.4090442 0.19693048 0.07294469 0.3542146 -0.1504612 -0.29351592 -0.22147542 -0.14807282 -0.30768782 -0.2555628 0.321953 -0.029338783 -0.08526604 -0.36898658 0.05866696 0.40923914 0.45300198 0.13230045 0.45861614 0.71057606 -0.60813475 -0.6587793 -0.4018475 0.4011702 -0.08439494 0.11124135 0.61630744 -0.22646374 0.36524814 -0.25842452 
com.mindorks.snaphelperexample.injection.ActivityDependency.inject 0.31042346 0.06759047 -0.30963174 -0.24605985 -0.2085015 -0.09301958 0.9599388 0.6248577 -0.2913494 -0.2736505 -0.4551934 -3.0111623e-05 -0.19298816 -0.4341794 0.3046935 0.008954511 -1.1126357 -0.371719 0.19332185 -0.39355814 -0.13163173 -0.70402026 -0.22772026 -0.40152365 0.30375335 -1.214228 -0.26963454 -0.38888192 -0.6437387 -0.33461434 0.64833647 -0.5508181 -0.6484777 -0.28717595 0.2919537 -0.37229148 0.5094112 -0.14379953 -0.23474042 -0.48463747 0.47625923 0.1395704 0.0023006664 -0.5470949 0.17551476 -0.040480882 0.93440676 -0.060590606 0.49125454 0.35753006 0.7729965 -0.057165585 -0.19152954 0.2801414 -0.18727082 0.17952047 -0.10445989 0.4834794 0.041161112 -0.09434855 -0.5862077 0.5405694 -0.16956083 0.50437427 -0.052381124 0.5545352 0.0630034 0.256892 -0.5834585 0.27493855 -0.083792865 0.2410896 -0.28232417 -0.25602755 0.8013893 -0.0631035 0.41819456 -0.31157294 -0.27617717 0.6841262 0.34040648 0.15170346 0.3482206 0.39692956 -0.6533918 0.32819998 0.60694164 -0.26562983 -0.15577449 0.37703636 -0.054689378 -0.2921425 -0.6450278 -0.06705398 -0.5089672 -0.029488228 -0.7409553 -0.5296426 -0.6923076 0.5299762 -0.56097853 0.53988796 -0.5270765 -0.9148718 -0.29050785 -0.77792937 0.14007615 -0.040269077 0.27919984 0.32549754 -0.5946717 0.03963729 0.5815201 0.23993859 -0.09143243 -0.13325143 0.13369113 0.62551177 -0.2967807 -0.95070225 -0.022795858 -0.37059787 -0.16147202 -1.0321587 -0.0795341 -0.12481023 0.14323606 -0.20207132 
com.mindorks.snaphelperexample.injection.ActivityDependency 0.49667108 -0.038582917 -1.0418233 -0.39541835 0.20543812 0.26856473 1.135774 0.74089193 -0.033260707 0.19624315 -0.8188038 -0.19245248 -0.7465889 -0.35841572 0.08005933 0.603984 -0.98254573 0.085926875 0.11602491 -0.18381833 0.010384872 -0.9105 0.34447682 -0.46697348 -0.010123243 -0.75851923 0.23910372 -0.057174593 -0.15351386 -0.02543499 0.14666937 -0.36725459 0.32579198 0.08442651 0.36201525 -1.0890564 -0.0042134477 -0.4734411 0.17175831 -0.24596334 -0.29897794 1.006169 -0.2225204 -0.5166139 -0.38738558 0.13297395 0.50707585 -0.25270697 0.46539244 0.3974819 0.122913525 0.30004424 0.35970032 0.082196206 0.053009685 0.5926263 -0.16283825 0.18020932 -0.316925 0.3176402 -0.51246065 0.4268804 -0.50617176 0.46941772 -0.1962363 0.15172957 0.048018657 0.38732803 -0.28381464 -0.02033074 -0.3229475 0.19475038 -0.33638105 -0.03482024 -0.05819117 -0.29888356 0.05922016 0.45086998 0.032278363 0.13692899 0.3188622 -0.11829709 0.332275 0.5349421 0.033015758 -0.13715091 0.40308303 0.033638407 -0.1067085 -0.13882934 0.16326018 -0.83394426 -0.29170263 0.13080777 -0.45146656 -0.024616467 -1.0044366 -0.10823501 -0.6648677 0.3026051 -0.0795534 0.49962333 -0.6107978 -0.10266638 -0.14607233 -0.16080764 -0.21890958 0.1870469 0.61166495 -0.18337776 -0.49113145 -0.47376218 -0.02036765 0.22863244 0.28850886 0.027513381 0.7287887 0.721466 -0.3560729 -1.0670749 -0.106775306 0.22606121 0.24304934 -0.27841502 0.48054385 -0.38468063 0.4666825 0.11901963 
com.mindorks.snaphelperexample.ui.base.MvpPresenter.attachView 0.329135 0.17330222 0.2557828 -0.6464475 -0.16782632 -0.023709323 0.8858943 0.35225964 -0.5332027 -0.18660681 -0.57735056 -0.6491458 -0.044499792 0.059513953 0.008067246 -0.087766975 -0.25607866 -0.5668289 0.42895064 -0.50246215 -0.33528388 -0.71121144 -0.09558821 -0.27721664 -0.1705314 -1.0242828 -0.11655714 0.18675588 -0.4441977 -0.30433786 0.21134952 -0.83051145 -0.08176852 -0.29630363 0.15704176 -0.15037963 0.39255157 0.13656431 0.020866375 -0.121825054 -0.023569534 0.044480424 -0.19335061 -0.23177883 0.31073448 -0.26462322 1.4164188 0.42478245 0.09967728 0.1435179 -0.045654 0.02959859 0.4258281 0.34746668 -0.03627719 -0.19394891 0.1505584 0.42308652 0.65958214 -0.25491077 -0.54918814 0.356283 0.06381275 0.50679183 -0.20988442 0.8119687 0.5404978 0.13862398 -0.36793208 0.18833292 -0.109340206 -0.139056 -0.29693827 -0.42396158 0.71550995 0.058840707 -0.16018628 -0.14039734 -0.100925684 0.4590548 -0.19189973 -0.2347226 0.42685425 0.6078046 -0.25264922 0.47536036 0.7712242 0.4506775 -0.55055815 0.17196912 -0.27036104 -0.98504025 -0.9720483 -0.1718701 -0.22245504 0.25597352 -0.4219451 -0.09026781 -0.23474243 0.6863338 0.012964249 0.8034466 -0.03127703 -0.5314026 0.23156027 -0.41764998 0.096733876 -0.39507243 -0.09461977 -0.080455996 -0.46529555 0.25142464 0.043815944 0.41626593 0.14532997 -0.59628683 0.60151654 -0.31701317 -0.12033377 -0.8358773 -0.24126701 -0.34406292 0.18351744 -0.67822474 -0.33178428 -0.10241313 0.42296165 -0.36860758 
com.mindorks.snaphelperexample.ui.base.MvpPresenter 0.507538 -0.12811416 -0.30210707 -0.23483126 -0.31164938 0.059441306 0.8221255 0.21553631 0.30967915 0.032147646 -0.1669784 -0.37624723 -0.34904084 -0.13301447 0.027633037 0.13335733 -0.13525897 0.06493359 -0.35644004 -0.062976494 -0.09513565 -0.3516402 0.22162484 -0.15312983 0.19466025 -1.2333325 0.57531726 -0.2428505 -0.8809245 -0.16983613 0.69959277 -0.87920004 0.3452896 0.14135987 -0.02580075 -0.78801644 -0.14848413 0.24378401 -0.41138405 0.123399265 0.31319234 0.48040783 0.20554495 -0.42228875 0.051671732 0.30946118 0.74108577 0.14326033 0.1414783 -0.33063823 -0.12125729 0.51811826 0.032078836 0.4548757 0.2282999 0.008266697 0.26505727 0.9174769 -0.25848222 -0.13116655 -0.5569101 1.2927511 -0.18541771 0.4227477 -0.16311134 0.5669435 0.111445785 -0.11184851 0.13227206 -0.6793695 -0.4420289 0.0014115272 0.012482865 -0.29029727 0.21372326 0.1543815 -0.5282051 -0.33228272 0.10424062 0.20987882 0.48477465 -0.32325417 0.6260282 0.3821589 -0.51188326 -0.315934 0.71577984 0.43213028 -0.40521982 -0.29232138 0.56941503 -0.9141594 -0.42623872 0.3046265 -0.05347425 -0.20235302 -0.13527963 -0.12979035 -0.398689 0.30403385 -0.17407504 0.37890002 -0.16926175 -0.9827036 -0.27791718 -0.27178022 0.14924847 -0.19808207 0.1707465 -0.29212716 0.038387164 -0.12276109 0.18606195 0.5052646 0.36097017 -0.23638344 0.56938803 0.72670877 -0.47171652 -0.49825096 -0.13362512 0.3886781 -0.016833462 -0.18451184 0.3830984 0.106312916 0.53934395 -0.73692983 
com.mindorks.snaphelperexample.ui.main.MainMvpPresenter 0.65582526 -0.25606513 0.060383983 -0.27212074 0.49745572 -0.013106345 0.74540305 0.62595356 -0.17914218 -0.42797345 -0.59965557 0.13063651 -0.8434499 0.12102177 -0.45424035 0.27432552 -0.34349048 0.12150894 0.109123 0.08892082 -0.069062844 -0.47409892 0.05265745 -0.60744125 -0.19429943 -0.50959414 0.50412565 -0.11519244 0.130092 -0.30396426 0.2741602 -0.44991902 0.22171876 0.42186192 0.1701546 -0.79238474 0.10449375 0.5421742 -0.011301 -0.26250136 -0.039951462 0.6810479 -0.0776166 0.11120183 -0.33661234 0.18814798 1.0892826 0.07528942 0.6773048 0.35297915 -0.21522261 -0.0023292555 -0.16677576 0.64971447 0.2878461 -0.27113476 -0.02894673 0.88914645 -0.25513583 0.18264551 0.1755342 1.1452622 0.26461345 0.39287165 0.03909581 0.42138085 -0.5111402 0.1973836 0.0816154 0.15324086 0.3202446 0.005727408 -0.06687353 -0.38358828 0.70756733 0.4743785 0.07429702 0.31035498 -0.36770907 0.51745915 0.46641302 -0.16866022 0.6231482 -0.19166504 -0.296788 -0.21677233 0.1353818 0.060446996 0.15828449 -0.013239829 -0.10389063 -0.89782333 -1.0132023 0.50466394 -0.96810067 0.18385726 -0.5057781 0.07107119 -0.38338962 0.2312822 0.41127464 0.31263375 0.06392585 -0.40264443 -0.103981495 -0.3099116 -0.28965 -0.66635686 0.023709701 0.20092084 0.08648785 -0.33551064 0.3385102 0.8868249 0.4031644 0.40726966 0.12478468 0.5564867 -0.7447111 -0.46830615 -0.7040462 0.19094935 -0.25183663 0.10248345 0.39351687 -0.37533748 0.39661413 -0.6668262 
com.mindorks.snaphelperexample.ui.main.MainMvpPresenter.getAppList 0.50249565 -0.17402317 0.03832533 -0.26523975 -0.041879226 0.28959784 0.38912085 0.26713204 -0.32294008 -0.30899304 -0.46231148 -0.03239435 0.07945584 -0.30065227 0.2248016 0.24943574 -0.76268995 -0.23938732 -0.008824392 -0.18729217 0.0254125 -1.1609688 0.23760092 -0.7198368 0.03527483 -1.1751509 0.2651236 -0.21676469 -0.52593017 -0.3248059 0.43078047 -0.43344817 -0.61035204 -0.11068478 -0.13501911 -0.28808105 0.4981118 0.51402956 -0.3113429 -0.47457942 -0.30721104 0.07776423 -0.3243332 -0.3816291 0.110747665 -0.0010185698 0.7327763 0.13797715 0.47810334 -0.11615547 0.56679535 0.09897972 -0.45385945 0.55513203 0.27898437 -0.34790355 -0.008497635 0.564855 0.30108166 -0.4116401 -0.13236028 1.0302193 0.11418681 0.6303341 -0.076204374 0.3383335 0.44660738 -0.09493255 -0.1758594 -0.64718926 -0.14021876 0.29426238 -0.7245973 -0.3618249 -0.074291825 0.4269706 -0.17140733 -0.20473135 0.121436924 0.108563505 -0.15009059 -0.31110033 0.9410487 -0.25174356 -0.2643436 0.14977266 0.61794704 0.04152151 -0.44220236 0.77661437 0.42737672 -0.87957895 -0.39859378 0.25422198 -0.6056333 0.44947705 -0.4492526 -0.35410848 -0.5798304 0.46868545 0.3038599 0.26590306 -0.28470558 -1.2319312 0.17094432 -0.28611365 0.08430535 0.13626266 -0.25161704 -0.03612583 -0.12212183 -0.32767057 0.06907114 0.72160727 -0.1209138 0.028479526 0.13852282 0.35526803 -0.5083417 -0.81476647 -0.3264574 -0.30158606 -0.08084033 -0.979836 -0.030150583 -0.035356157 0.20411786 -0.66367847 
com.mindorks.snaphelperexample.ui.base.BasePresenterVextendsMvpView 0.13871121 0.2760726 -0.051571637 -0.052763782 0.8386975 -0.51234615 0.05010791 0.10144079 0.4927524 0.37909654 -0.56972384 0.30604607 -0.09411979 -0.042131897 -0.25487694 0.15944602 -0.38855833 -0.9612092 -0.35330588 -0.0023927225 -0.42011353 0.1515368 -0.32420033 -0.7058339 0.24898632 -1.0104778 0.11843178 0.07178737 -0.73226726 -0.18921235 0.037614647 -0.3705857 1.6383748 -0.25390488 0.25888717 -0.83223814 -0.27380157 0.9918218 0.011784184 -0.07864854 -0.99225205 0.23844624 0.04912661 -0.64993596 -0.24821083 -0.65145975 0.11180252 0.1867385 -0.3764002 0.3523338 0.2984859 0.5461203 -0.63832986 0.583666 -0.09995498 0.030962449 0.27558416 -0.24147116 0.103050604 -0.3458258 0.48183492 -0.45342758 0.22712144 0.112075284 -0.5232695 0.2286266 -0.1938068 -0.16144593 0.18442681 -0.000106635474 -0.3129421 0.38555887 0.23079193 0.39648288 0.8546819 0.046775497 0.24763979 1.2144234 0.31111297 -0.3438225 -0.4562561 0.122943915 0.41263142 0.124057576 0.14427662 0.25142193 0.9205832 -0.15066658 0.18367454 0.30825835 -0.020714138 0.21554078 0.3742189 -1.0487263 0.32804912 -0.7497986 -0.29487225 -0.3401463 0.7103004 -0.42264724 0.43842578 -0.76208234 -0.017803999 -0.40973586 1.1888045 0.067929536 -0.17443867 0.21300091 -0.1713658 -0.3998648 0.27507788 -0.47948304 0.2509647 -0.45776433 -0.5296702 -0.101913266 0.57983273 -0.4291649 -0.16815063 -0.31704804 0.7603854 0.37828845 -0.20463142 -0.17150919 0.7864742 -0.7120808 0.21368602 0.13141982 
com::mindorks::snaphelperexample::ui::main::MainPresenterV -0.19421811 0.20149533 0.18630962 0.082122885 0.3271161 -0.40502456 0.5152335 -0.056288734 0.5624653 0.12694742 -0.31148025 0.56842834 -0.2164479 -0.0141588645 -0.2971158 0.031810135 -0.57016945 0.08903189 -0.04632068 -1.2649479 -0.034981698 0.035152882 -0.21593288 -0.5652943 -0.23831227 -0.49108902 0.61915904 0.36061308 -0.41307113 -0.7432898 0.10869619 -0.13253637 1.1479235 -0.10167554 -0.1329715 -0.78398854 -0.37788463 0.75250375 -0.29547542 -0.26646584 -0.050687812 -0.17111953 -0.06764513 -0.8159716 -0.5612982 -0.5650013 0.43131602 0.43279094 -0.10630742 -0.3329873 0.48012137 0.67841685 -0.67325807 0.5062513 -0.4703372 -0.51322615 0.06885117 -0.09507757 -0.20984034 -0.63908195 0.20993108 -0.16097128 -0.0010167767 0.2601653 -0.78194845 -0.09731899 -0.52821344 -0.080751315 -0.15299523 0.1046174 -0.11432722 0.14530738 -0.06303895 0.605397 1.0428497 -0.7180076 0.9921604 1.068882 0.20799737 0.41592523 -0.19465096 -0.31039202 0.16478038 0.25535503 -0.22802359 0.07957857 0.6501313 0.12627725 0.47918692 0.35640994 0.13866545 0.13449614 -0.12729158 0.16391003 0.13881366 -0.27721077 -0.05754161 0.19839074 0.5485531 -0.7609906 0.018891774 -0.0745538 0.67935437 -0.22077565 0.6613722 0.6078624 -0.17043717 0.5167072 -0.4649954 -0.17015447 -0.23952943 -0.5484295 0.03048564 -0.3710899 -0.3780595 0.06472443 0.4823932 0.31896824 -0.31441548 -0.24918234 0.4305978 0.5534335 -0.7522757 -0.49383602 0.35882232 -0.95737046 1.0234339 -0.3122057 
OrientationHelper 0.9252211 -0.097498514 -0.38481376 -0.27997717 0.11415704 -0.44635472 0.2650826 0.5129993 0.9747394 -0.48062256 -0.83067644 0.08492919 -0.6544376 0.49536684 -0.11897294 -0.052324124 -1.0845819 -0.9164837 -0.31267175 -0.3127946 0.097792104 -0.927663 -0.7419765 -0.53533053 0.3788537 -0.7115774 -0.4557213 0.059366774 -0.35644206 -0.043390244 0.4279769 -0.7034492 0.85327244 -0.21428753 -0.060289703 -0.47149777 -0.5150291 1.081358 0.28734297 -0.5988026 -0.78961545 0.5037676 -0.25732592 -0.48817208 -0.06637816 -0.2981411 0.23304282 -0.5213166 -0.347612 0.16064261 0.12523593 0.58236086 -0.7156897 0.32049882 0.56574225 -0.27378714 0.50880414 -0.20470299 -0.31969303 0.10292646 0.1910412 0.4679611 0.009501705 0.92906934 0.11020576 0.18457481 -0.20207442 -0.8314084 -0.16263929 -0.5244797 -0.43593466 -0.23108976 0.26153785 0.18592684 0.3407468 0.12046041 -0.23622823 1.0088007 -0.3859575 0.5894095 0.20696735 -0.0991957 0.5306955 -0.33602986 -0.50111157 0.2885613 0.14787748 -0.108335264 0.23874706 0.1518195 0.49614587 -0.7632504 -0.33763784 -0.54113 -0.5702107 -0.59767085 -0.6372091 -0.4982337 0.2077149 -0.444093 0.35904256 0.016222464 0.20738643 -0.31374958 0.5901337 -0.10187793 -0.19471677 -0.054561943 0.32282326 0.2062881 -0.18368538 0.06360426 0.2869929 -0.062022112 -0.056080088 -0.077264555 0.5319763 0.42212132 -0.057549417 -0.050150253 0.28302768 0.21192387 0.11241761 -0.30097386 0.4568614 -0.4914088 0.05387006 -0.5318216 
com.mindorks.snaphelperexample.ui.common.StartSnapHelper 0.14205875 0.2256048 -0.6791453 0.081357665 -0.26098606 0.25144482 -0.10776718 -0.305678 -0.66901743 0.7063845 0.12689981 -0.23267505 -0.3018621 -0.54523206 0.40703136 -0.086616576 -0.14884308 0.80545783 0.13217312 -0.3400907 -0.49844918 0.2735253 -0.069490105 0.005991488 -0.30883393 -0.9568182 0.017278392 -0.5412168 -1.0584263 0.42330346 0.20812224 -0.88003147 1.2556998 -0.28993 0.40156928 -1.0001546 0.8158722 1.0048245 -0.2191294 0.6098465 0.1550446 -0.4955325 0.0656635 -0.034521952 -0.12812547 -0.7107558 1.2685676 -0.8176956 0.9332367 -0.6676739 -0.15657538 0.34433267 -0.30480948 0.22151344 -0.70763814 0.7648164 -0.022376146 0.40093213 -0.7495944 -0.26912302 0.0068770763 0.47365505 -0.28631395 1.115482 0.32439727 0.61956424 0.41379386 0.16831806 0.43268657 -0.70642024 -0.5742443 0.23474683 0.3407362 0.2297825 1.2369403 -0.3226625 -0.43898377 0.90875185 -0.6617729 0.20100446 -0.13123532 0.37851244 0.49664262 0.060597543 -0.5066027 -0.15169962 0.73525566 -0.056947436 -0.3074416 0.8370037 -0.26386455 -0.32191604 -0.6201966 0.10171597 0.30945954 -0.35174748 -0.6055858 -0.15352908 -0.5200354 0.06062721 -0.30403316 0.20467645 -0.008419144 0.048704248 -0.4707293 -0.26253426 0.13033783 -0.4662356 -0.0043844394 -0.5697364 -0.607864 -0.7457288 0.49134952 0.9853231 0.14150058 0.026078828 0.23174278 0.39162445 0.41381344 -0.30368844 -0.6054949 0.47832415 0.24395606 -0.2040593 0.9486682 -0.87048256 -0.13984908 -0.99650913 
LinearSnapHelper 0.9186958 -0.10007956 -0.38121784 -0.27526617 0.11895471 -0.4393811 0.25605693 0.50225145 0.9636504 -0.4823142 -0.83875513 0.06549857 -0.65643024 0.4866539 -0.12994607 -0.05040881 -1.0829796 -0.91248524 -0.30785125 -0.3022171 0.099431105 -0.93108284 -0.7386486 -0.53271997 0.37742674 -0.7112325 -0.46164927 0.05100266 -0.36040285 -0.04370966 0.4315368 -0.70824355 0.83590347 -0.20917214 -0.06629737 -0.46890223 -0.5063975 1.0841053 0.28238565 -0.6007153 -0.77857596 0.500695 -0.25872955 -0.48052427 -0.059221204 -0.29188934 0.23339424 -0.5142587 -0.33402705 0.16594107 0.11646519 0.5799855 -0.7085771 0.31826377 0.56750154 -0.27262485 0.51752645 -0.20056432 -0.3133168 0.10341816 0.1935492 0.47283995 0.018570436 0.9281079 0.11696692 0.19071011 -0.19219354 -0.82105815 -0.17107235 -0.521857 -0.43244326 -0.23055123 0.2531328 0.18006201 0.33427763 0.13128597 -0.25691035 1.0023658 -0.39300078 0.58932596 0.20516585 -0.09721943 0.53741765 -0.33906305 -0.49952903 0.27997893 0.14881065 -0.10039339 0.22500156 0.14580114 0.49740922 -0.7731171 -0.3394253 -0.5409592 -0.57196325 -0.594953 -0.63864493 -0.4981971 0.21377479 -0.42731056 0.36129382 0.01411138 0.1989944 -0.3204914 0.58097893 -0.10370207 -0.19664551 -0.06219407 0.3242411 0.21208552 -0.19214338 0.07178539 0.28897697 -0.047303267 -0.05202899 -0.0826154 0.5205577 0.41962984 -0.049810845 -0.050749406 0.28948572 0.21507455 0.11477861 -0.30136263 0.4514433 -0.4771228 0.050783105 -0.5345418 
AppCompatActivity -0.06496402 0.039259415 -0.35524416 -0.01724298 0.11120309 -0.10027515 0.7671238 0.14518231 0.24523717 -0.30901986 -0.09529639 -0.10357221 -0.19598879 0.077682085 -0.073192 0.09010858 0.11102706 -0.13551062 0.13409148 -0.60445243 0.15347306 -0.46088517 0.34599742 -0.8725357 -0.007380115 -0.52468324 0.4459811 0.27499032 -0.31135064 0.06718598 -0.030557936 -0.57788336 -0.24258289 -0.30077526 0.08043789 0.4266185 -0.44602987 0.5095238 -0.32674778 -0.15230784 0.38833585 0.07723382 -0.1872619 0.018628772 0.29059982 0.20946486 0.80839866 0.3050932 -0.6416527 0.17415476 0.1267066 0.19564997 -0.077049695 -0.19370602 0.23816551 -0.27032503 0.3402493 0.268459 0.23397243 -0.17025463 0.087196656 0.24588935 -0.4287692 0.3961516 0.13195252 0.49385783 0.04647029 0.05558706 -0.019827645 0.11851347 0.2867069 0.40442395 -0.28000966 0.16169089 0.34646583 -0.15203041 0.45215258 -0.044475093 0.035528094 0.7015327 0.08429981 0.12512374 -0.23011298 0.3245077 -0.085031815 -0.10412506 0.6253093 -0.34516028 0.649671 0.01441628 0.48219734 -0.4162347 -0.5029359 0.13391145 -0.039721463 0.10562103 -0.10799636 -0.08209707 0.15931073 0.13928717 -0.29096967 0.33147255 0.034092255 -0.3979547 0.14266045 -0.015146342 -0.32608452 0.07239452 0.118955545 0.20512259 0.11652027 0.080041096 0.17344566 -0.13515536 -0.4986582 -0.12847076 0.15267038 0.6093018 -0.49855375 -0.31343424 -0.2911638 -0.022103705 0.123586014 -0.057240777 0.25422746 -0.49977052 0.7843137 0.03656344 
com.mindorks.snaphelperexample.ui.base.MvpView 0.052804347 -0.23000006 -0.21240744 -0.033335127 0.2374478 0.2133653 0.57297623 0.50684994 0.013384723 -0.36109853 -0.27831292 -0.42469254 -0.20904286 -0.054649092 0.009474654 -0.074316464 -0.13098918 -0.29019618 0.2261091 -0.36628005 0.3104904 -0.64004797 0.20587082 -0.60877955 0.15118214 -0.5333739 0.13221955 0.18787421 -0.21424384 0.23246051 -0.07681645 -0.61309534 -0.31040177 -0.21845913 0.11735827 0.23538987 -0.31920317 0.5113003 -0.33408052 -0.1911177 0.2946735 0.24137805 -0.43148184 0.09997297 0.339827 0.3890179 0.64777017 0.087894 -0.263212 0.24055812 0.2639834 -0.2967386 -0.25001287 -0.15261686 0.38660467 -0.2060443 0.43149272 0.36882284 0.43220705 0.0020462705 0.037498966 0.35507378 -0.32716003 0.37051657 0.31188333 0.26774666 0.27099618 0.09383202 -0.19166024 -0.044164658 0.022284148 0.17450362 -0.12813416 0.019615665 0.2901571 -0.058986686 0.106315345 -0.034007948 0.10709802 0.51595956 0.01981284 -0.14287311 -0.2207833 0.10268092 -0.03150489 -0.27590057 0.20883784 -0.2617338 0.5293084 -0.05421554 0.34602642 -0.75508523 -0.66752464 0.08762214 -0.25156116 0.30121082 -0.23002268 -0.109993234 -0.07853747 0.06944505 -0.105375014 0.14556076 0.09902024 -0.54185796 0.15543194 -0.040619023 -0.48392743 0.012328086 0.40894896 0.30687657 0.0356717 0.17895657 0.22986323 -0.16612147 -0.15677473 -0.3418066 -0.0018375764 0.67264754 -0.24070472 -0.23617485 -0.027664607 -0.087646246 0.007427224 -0.09996074 0.2452466 -0.395297 0.4726413 -0.2634766 
com.mindorks.snaphelperexample.ui.main.MainActivity.showApps 0.8257733 -0.017126907 -0.2524026 -0.30433524 0.036641285 -0.2684034 0.6482325 0.11557488 -0.030896012 -0.18351652 -0.7181163 -0.5149053 -0.7999014 0.12897076 0.048590463 -0.38594443 0.26231426 -0.44375682 0.110779196 -0.6138767 -0.3506954 -0.87156796 0.7809521 0.08942621 -0.2891813 -0.17108808 0.48944658 -0.091509156 0.3279247 -0.41077787 0.29190642 -0.14418213 0.22852392 0.27537632 0.6989218 -0.80597377 0.089814276 0.2504137 0.6943665 -0.48903748 -0.15817516 0.42081064 -0.17878596 -0.63483435 -0.08164572 0.34074903 1.0676918 -0.017121853 -0.15907289 0.26113594 0.030927226 0.30405968 -0.06480926 0.3475327 0.4646773 -0.06400789 0.39292935 0.45199165 0.30828068 0.51387626 -0.07177397 1.0081909 -0.29903525 0.44948003 0.07688078 0.24975136 0.17771065 0.41556314 0.40469745 -0.008935448 0.05135548 -0.064042814 -0.2585456 -0.15034334 0.49395487 0.11092582 -0.48299047 0.19903384 0.24948077 0.16847382 0.056695987 -0.41038337 0.55314034 0.16389321 -0.2596645 -0.11671838 0.1745961 0.7848861 -0.07896985 -0.11437544 0.10405577 -1.1789625 -0.8759545 -0.026126238 0.08528473 0.27943262 -0.57517767 0.105374575 -0.31500664 0.16463244 0.03729339 0.4352087 -0.4786094 -0.35836482 -0.40937954 -0.121297315 0.02098887 -0.2223964 -0.28806418 -0.73610413 -0.00061508146 0.01494476 0.034014564 0.44132754 0.2072692 -0.23609892 0.620994 0.1296896 -0.24535689 -0.6764691 0.03827877 -0.15747844 0.4571232 -0.49184984 -0.08239731 0.00093576935 0.7997115 -0.7182403 
com.mindorks.snaphelperexample.ui.main.adapter.AppListAdapter.updateList 0.78875995 -0.021654893 -0.6132297 -0.13150989 0.26303256 0.13138618 0.99465585 0.116289206 0.33726636 -0.46634763 -0.0056604603 0.029225819 -0.0445706 -0.14460917 -0.24050798 0.3051574 -0.48249552 0.19307934 0.2998594 -0.031117471 -0.09541042 -0.5114978 0.46181336 0.07306194 0.088918984 -0.31732604 0.28966445 0.058764845 -0.13554184 0.108139165 0.3003374 0.28996727 0.25841865 0.5899821 1.19765 -0.5781532 -0.19872408 0.27724493 -0.38139564 -0.023119055 0.07011968 0.21437036 -0.05303376 -0.24927124 0.28132546 0.17081152 0.76608783 -0.48773143 0.49117097 0.09356271 0.16917017 -0.7322759 -0.15866068 -0.5769593 -0.104023986 0.34018853 -0.19001189 0.64447874 0.293697 0.2832667 -0.16845374 0.9065322 -0.38148734 0.062496234 0.29551354 -0.02685252 0.2948528 -0.041638125 -0.54901224 -0.47801697 -0.11407085 0.345361 0.014991382 0.33650562 0.6767174 -0.4016477 0.32649812 0.4773205 0.0702823 0.11199906 0.32104045 0.073377945 0.27218908 0.5936305 0.30730516 -0.6714263 0.1846007 0.3111286 0.16607182 0.31584698 0.0044080103 -0.3374191 -0.63552684 -0.49268386 0.067847006 -0.03327528 -0.007908267 0.002235212 -1.0838623 0.084069274 -0.837481 0.20879197 -0.30147782 0.027720852 -0.04953016 0.28379363 0.47247753 -0.08339347 0.64339286 0.17717604 0.22579236 -0.86209714 0.0389819 0.91565937 0.3259393 0.16380736 0.4734698 0.8490635 -0.15290833 -0.39689925 -0.09800247 -0.3021063 -0.23818749 -0.52769935 0.4879786 -0.059672132 0.46338537 0.06929101 
com.mindorks.snaphelperexample.ui.main.adapter.AppListAdapter 0.65244263 -0.23552662 0.16650158 -0.36570913 -0.041472986 0.298351 0.53168845 0.4188493 0.08169133 -0.03226866 0.13715947 0.009211763 -0.76242405 0.49257183 0.24977078 -0.44680947 0.41685727 -0.45479456 0.30931577 -0.9447782 -0.4459247 -0.6470289 0.39152232 0.0659421 -0.52393854 -0.22630863 0.23362339 0.13675295 0.4955049 -0.5814878 0.50781965 0.04033246 0.12167857 0.5108133 0.5937512 -0.46793556 -0.11231485 0.42068827 0.43574047 0.18224356 -0.1746356 -0.08994638 0.06462199 -0.26296157 -0.27830622 0.32573938 0.61295205 -0.50964195 -0.00999872 -0.021263517 0.31553572 -0.1278545 -0.5313611 -0.06587611 0.06252694 -0.164219 -0.30571842 0.27941105 -0.0058193738 0.5709282 0.056396488 0.60530245 -0.49253443 0.119859025 0.1932014 -0.3114714 -0.36367446 0.25104266 0.24518123 -0.12707283 -0.28314334 -0.0180828 -0.046687756 0.16242336 0.76627594 -0.37042516 0.21901958 0.59177303 0.4514463 0.00020623591 0.12383224 -0.08146428 0.2500159 0.08433841 0.014486879 0.08747842 -0.16619803 0.28558823 0.02664133 0.2245338 0.21374698 -0.54426855 -0.75668293 -0.20734158 -0.009500653 0.39587706 -0.12138102 0.25895306 -0.4165133 -0.3228839 -0.19567645 0.41026422 -0.015221234 0.16998266 -0.31472003 0.36673602 0.13487898 -0.047150955 -0.2111467 -0.4946324 -0.1466157 -0.2585417 0.048173502 0.1699965 0.2436022 0.09021734 0.53203183 0.094835065 -0.3996653 -0.23408134 -0.01979187 -0.23937835 -0.11041307 -0.5099299 -0.093920395 -0.1504783 0.5743171 -0.85437316 
com.mindorks.snaphelperexample.data.DataManager -0.089291535 -0.037771948 -0.047166355 0.27015048 -0.50170374 -1.3591793 0.18682893 0.15018338 0.32483354 -0.16670373 0.02322488 0.32098776 0.0810029 0.83520246 -0.17140295 -0.34700584 0.47344303 -0.7498099 0.36116776 -0.32309306 -0.5852542 -0.54959637 0.14705208 -0.89134234 0.28506488 0.043277573 0.9098655 0.8308299 -0.08702175 -0.07407902 -0.25003916 -0.32602724 0.42097592 -0.13273795 0.07179185 0.88628525 -0.41365677 0.08305636 0.82043177 -0.37125263 -0.8076037 -0.07253059 0.35611406 -0.043253515 0.17064834 -0.77888095 0.38249734 0.42909777 -1.1809489 0.31508017 0.5214399 0.10119118 -0.31008378 0.0396114 -0.47311017 -0.6019653 0.40138718 -0.17740698 0.91863936 -0.26793733 0.44585347 -0.6714593 -0.7909496 0.26015928 -0.15267299 0.98151726 -0.10250341 0.13074654 0.26505682 -0.13893075 0.46002427 0.1814795 -0.17018825 0.25829545 0.16208659 0.016960492 0.31538883 -0.24212466 0.39325133 0.1016312 0.25297654 0.109675474 -0.16662988 -0.18070579 0.33037588 0.5243216 1.1661212 -0.0418241 0.45593232 0.3135051 0.022037588 0.19247815 -0.11661035 -0.89854825 -0.19478598 -0.2362704 0.38002414 -0.26551563 0.62139076 0.117207676 -0.23736988 -0.29033715 -0.57394725 -0.5963897 0.5376601 -0.26553953 -0.096456945 0.3433716 0.13963956 -0.32948053 -0.1366262 -0.07980549 -0.29838148 -0.6710438 -0.97557104 0.02744784 0.21495947 0.06564041 -0.34960708 -0.3447184 -0.1370013 -0.2766115 -0.063041575 -0.7096126 0.18257327 -0.66803277 0.4251264 0.3196868 
com.mindorks.snaphelperexample.data.DataManager.getAppList -0.38425106 0.09065187 0.47106433 -0.037145227 -0.39782396 -1.1856527 -0.31636083 0.4302344 -0.1684687 0.2081838 -0.4026316 0.32794273 0.15432522 -0.056402836 -0.18652579 -0.21392517 0.53905517 -0.30680367 0.7533625 -0.40975302 -0.57970965 -0.09138975 0.29993182 0.30443627 0.045054875 0.022658318 0.64686376 0.65796596 -0.0044828006 -0.18616153 0.10129359 -0.16766559 0.45658252 0.26783374 0.09414782 -0.23739558 0.46662754 -0.20440054 0.49848694 -0.3875833 -0.5382638 -0.70314115 0.3279443 -0.14671153 -0.24229431 -0.8152843 0.7305579 0.6809316 -0.21795133 -0.14052458 0.111502014 -0.03556063 -0.29994348 0.37926674 -0.8126814 -0.14722486 0.28272116 0.287872 1.20469 -0.36673784 0.34248576 -0.44863117 -0.0008608186 0.06962253 -0.11498955 1.1894385 0.017406015 0.7043274 0.4103329 -0.08781058 0.15745558 -0.54089135 -0.04447251 -0.28605634 0.56795377 0.11965141 -0.449365 -0.37305176 0.13013004 -0.09316195 0.19358169 -0.0491556 0.37165865 -0.013347374 0.17387228 0.18529418 1.2478282 0.65377414 -0.31491324 0.7323024 -0.13591455 -0.0018507238 -0.9136976 -0.13301295 0.17120227 -0.21144176 0.15121466 -0.14015788 -0.09762581 0.46364656 -0.19029206 0.07610446 -0.20526356 -0.4969587 0.16208541 -0.57296616 -0.16337559 0.15625979 -0.06975846 -1.0488887 -0.43744338 -0.051145855 -0.27403578 -0.09740378 -0.7248876 -0.11178488 0.398449 -0.029601231 0.1440132 -0.520196 0.15737873 -0.16237013 0.119674526 -0.9845521 0.11311487 -0.30491632 -0.13038947 -0.030812576 
com.mindorks.snaphelperexample.data.local.DummyDataHelper -0.38488516 0.08959419 0.49813533 -0.052275624 -0.42493585 -1.1733546 -0.32393026 0.41842997 -0.19468297 0.22148421 -0.40775502 0.3572837 0.17154813 -0.043469947 -0.18328704 -0.21603636 0.52236176 -0.26850265 0.76507425 -0.4577574 -0.5827451 -0.07158247 0.27403113 0.3004788 0.035057824 0.03487436 0.6796962 0.67704326 -0.009291896 -0.21335177 0.10827211 -0.16885175 0.48466083 0.27461767 0.06964986 -0.23515765 0.46606806 -0.2095184 0.51391053 -0.3678039 -0.53581387 -0.7247189 0.3249453 -0.1643915 -0.26994073 -0.8376216 0.7316302 0.68696684 -0.20772377 -0.17741914 0.10296533 -0.030377543 -0.28545487 0.3960978 -0.84559065 -0.18135703 0.26845685 0.2902362 1.2035927 -0.3943616 0.3384932 -0.45528957 0.0004684919 0.09154389 -0.14909711 1.1900997 -0.013253597 0.69191 0.39945713 -0.11291916 0.16071178 -0.57187474 -0.035639264 -0.26832864 0.58684 0.093200214 -0.42653322 -0.33994237 0.12830931 -0.08840696 0.20975928 -0.07025164 0.34876597 -0.042493768 0.16780952 0.17959593 1.2682071 0.6582632 -0.31205326 0.73654604 -0.14266515 0.020778049 -0.9332075 -0.12060715 0.152127 -0.21190988 0.15606868 -0.13310091 -0.07922968 0.46086532 -0.18145074 0.064769484 -0.18152645 -0.489412 0.16052061 -0.5600734 -0.17866448 0.16537474 -0.084545165 -1.0601642 -0.46053737 -0.06823631 -0.30200422 -0.091714084 -0.71945614 -0.08634875 0.41348296 -0.007171335 0.13144018 -0.513737 0.1318682 -0.1570656 0.10296755 -0.9987537 0.11244617 -0.3292639 -0.11481441 -0.057927996 
com.mindorks.snaphelperexample.data.local.DummyDataHelper.getAppList -0.28141397 -0.106547676 0.3964609 -0.24458916 -0.8578112 -1.0488137 0.30777094 0.12248816 0.31648618 0.06318619 0.06821988 0.68464816 0.086418115 0.32052386 0.09069414 -0.76221 -0.045312155 -0.27490833 0.39381984 -0.9041407 -0.8691491 -0.11524033 -0.32326424 -0.23270138 0.12880264 0.033993747 1.1057483 0.88804555 0.023765786 -0.47151527 -0.14048314 -0.48785347 0.5839669 -0.35327217 -0.017314011 0.5995823 -0.5062403 0.28264657 1.0196675 -0.61110765 -0.28872633 -0.3755052 0.17859279 -0.35886145 -0.36109835 -1.0031961 0.7320104 -0.0003324774 -1.0131102 -0.2612726 0.48935762 0.5713947 -0.32778487 0.47049654 -0.6323886 -0.4780088 0.3539035 -0.12948751 0.29111853 -0.49820235 0.4205229 -0.54495573 -0.819692 0.3666549 -0.5124502 0.52544194 -0.4100866 0.30720735 0.4152697 -0.50326073 0.103834376 -0.16549551 0.089413814 0.6808677 0.5750023 -0.3863757 0.44476533 -0.066136844 0.010021816 0.16502933 0.24836676 -0.21089858 -0.30619714 -0.5740454 -0.18609604 0.25376415 0.9409927 0.23288445 0.4198335 0.20222911 -0.30060637 0.24222276 -0.11842873 -0.25390592 -0.32007566 -0.57894325 -0.122396775 -0.2563533 0.40360928 0.05122126 0.23619686 -0.35022566 0.28284606 -0.63395005 0.14343159 -0.47407192 -0.1272406 0.6006277 -0.042257138 -0.46414924 -0.74895686 -0.4014971 -0.31530342 -0.81185955 -0.95768005 0.45792463 0.6943759 0.37746897 -0.22724397 -0.1730073 -0.41427517 -0.2850483 -0.29776278 -1.0773885 0.3061618 -0.92973524 0.5583095 -0.6353212 
com.mindorks.snaphelperexample.MyApplication.getDataManager -0.14212795 -0.04241257 0.9739721 -0.18488769 0.58580124 -0.7183533 -0.02598995 0.38116422 -0.15553473 0.59208226 -0.2977501 0.6768524 0.39482978 0.20030262 -0.12612219 -0.2723954 -0.11099389 -0.56167394 0.41068393 -0.31097218 -0.33395302 0.14373736 -0.058823913 0.013794061 0.4679939 -0.28715348 -0.122167684 0.23110384 -0.585181 0.45279834 0.23770271 0.5652839 0.7357142 0.72995454 0.44153088 -0.5709325 -0.3434391 -0.22472836 0.3920922 0.44078624 -0.14981346 -0.14838727 -0.12863056 -0.24098292 -0.44905406 -1.008107 0.39191297 -0.09885016 0.11315193 0.46810523 0.2817001 -0.35499918 0.44318217 0.39064065 -0.9964363 0.16570455 -0.11093986 0.583143 0.49983424 -0.27205062 -0.23687932 -0.07258474 -0.09731318 -0.1314 -0.2589726 0.96881634 -0.09709852 0.62584114 -0.10780178 -0.08086245 -0.40498322 -0.0051940903 0.0178759 0.09222822 0.93754494 -0.043112606 0.2832742 0.23041676 0.046745513 -0.5542472 0.15107636 0.2731659 0.72584826 0.11580199 0.6728412 -0.5685095 0.5686866 0.26657918 0.06372755 1.4190569 -0.33995256 0.6921868 -0.59904665 -1.1608288 0.09270851 -0.4880008 0.23797059 -0.19189908 -0.45070952 0.085795596 -0.46267444 -0.7968979 -0.727287 -0.36617613 -0.06995758 -0.51688606 -0.50218856 -0.41432622 0.28292447 -0.67614067 0.07173605 -0.26923 0.22187999 0.09774488 0.20109093 0.07197963 0.01832784 0.8590374 0.30750743 -0.5538407 0.51259786 0.06886788 0.41322497 -0.76408726 0.57892036 -0.32329315 -0.411181 0.24577965 
com.mindorks.snaphelperexample.injection.ApplicationDependency.getDataManager -0.19345206 0.1894885 0.3150105 -0.3793252 0.6462202 -0.2706737 0.1416492 0.62665594 -0.16881333 0.46912107 -0.2476742 0.7170309 0.30338368 -0.84192115 -0.09579186 0.4052635 -0.9554586 -0.0990605 0.17522062 0.32560098 -0.26155382 0.12472182 -0.17823432 -0.32471138 0.6304777 -0.91285276 0.10462803 -0.012553264 -0.9810997 0.19187553 0.23288766 -0.11970878 0.581415 0.462703 0.20184666 -1.0790507 0.0057529774 -0.257804 -0.42302233 -0.2873753 -0.14502619 0.071837455 -0.03293924 -0.28729257 -0.52037424 -0.85527056 0.13388138 0.20976795 0.48699033 0.19038172 0.17935973 -0.17799614 -0.0048666014 0.76613957 -0.55028117 0.33481997 -0.22502361 0.4938412 0.071560025 -0.5147219 -0.27136433 0.20596664 0.22332707 -0.41505757 -0.6497937 0.9308786 -0.29130018 0.4044657 -0.36136845 0.17498577 -0.561925 -0.030258352 0.1360911 -0.22996326 0.65145874 0.15246893 0.35533324 0.09752303 -0.06756175 -0.27030918 0.25304016 0.3250438 0.5970856 0.4006818 0.22275831 -0.19058765 1.0381908 0.12782496 0.049801007 0.9656934 -0.041609097 0.5204173 -0.17903414 -0.25426942 -0.44444162 -0.6602604 -0.65732557 -0.2983519 -0.5701993 0.12245237 -0.2217409 -0.28654325 -0.45973217 -0.82297295 0.16492505 -0.52075726 -0.19083679 -0.1687639 0.38461083 -0.36885017 0.18120822 -0.6054331 0.07658097 0.33174503 -0.25048354 0.31293362 0.35342818 0.70432645 -0.12333536 -1.0118463 0.23087846 0.47875455 -0.083216704 -0.49386692 1.1108351 -0.20796417 -0.29126912 0.645673 
RuntimeException 0.77025026 -0.17411552 -0.46235102 -0.07474635 0.092245445 -1.080255 -0.34422538 0.65759 0.10514611 -0.037279926 -0.6205183 -0.4667271 0.15328018 0.17611866 0.016113313 -0.085702844 0.4726433 -0.2734496 0.45726347 -0.12209533 0.4730747 -1.082799 0.4024895 -0.432082 0.1186021 0.22409339 0.5939219 0.18603082 -0.28939515 -0.01305719 0.40120593 0.40805963 -0.17641652 0.8856986 0.22243245 -0.39143655 -0.17028943 -0.15302259 -0.05070096 0.22410709 -0.5101721 0.527148 0.1524597 0.47610024 -0.18434347 -0.5548 -0.085749485 0.5254547 0.6147779 0.51579523 0.13040401 -0.5037965 -0.06313453 0.29682532 -0.6177907 -0.5463404 -0.34268957 -0.08355858 0.97041076 0.2845996 0.45548666 0.21437092 -0.065412745 0.7673747 -0.06906998 1.2501628 0.40129584 0.8182499 0.42335612 -0.14204852 -0.1046134 0.23207384 -0.3285497 -0.689958 0.5735053 -0.054129716 -0.68341887 -0.34838375 0.07433616 -0.13469762 0.71464264 -0.12721549 0.7405875 -0.06256709 0.16673198 0.10925893 0.5690841 0.8586915 0.43266702 0.84655535 0.59205973 -0.5045984 -1.0997784 -0.8702123 -0.23476957 0.69597566 0.70802367 -0.67311484 -0.7580945 0.2043253 -0.53268695 0.0637676 -0.8806998 -0.81660914 -0.4082505 -0.514462 0.1959955 0.037404332 0.98666626 -1.0060337 -0.014417193 -0.08471163 -0.2405934 0.70175016 0.09066395 -0.017507903 -0.17093922 0.48923275 -0.56018597 -0.53932685 -0.34756234 0.20018598 0.8809394 0.12313431 -0.05484996 -0.47366193 0.57725334 0.21771295 
com.mindorks.snaphelperexample.ui.base.BasePresenterVextendsMvpView.MvpViewNotAttachedException -0.15544297 -0.17456116 0.16154468 0.12789004 0.14047334 -0.29296097 -0.22194362 0.21732654 0.30610675 0.51838726 0.22255479 0.30277705 -0.0030682988 -0.039866947 -0.10127016 -0.6371161 0.020050377 -0.26322246 0.58715016 -0.20708483 -0.260234 0.54703826 0.122295305 0.5511285 0.16440365 -0.37763935 0.45531872 0.4023551 -0.68193775 -0.32369664 0.19038284 0.19719839 1.6344918 0.5792035 0.7298001 -1.1439049 0.21753655 0.5510932 0.45597392 0.35364568 -0.74439573 -0.7458361 0.012771175 -0.52149445 -0.29316103 -0.6313798 0.31710002 -0.5621242 -0.07548801 -0.42849368 -0.06606466 -0.21680808 -0.9217761 0.59185207 -0.9311955 0.43218282 -0.35722482 -0.15820032 0.31847453 0.3047557 0.36578763 -0.17551976 -0.4034956 -0.22107868 -0.15096289 0.5548931 -0.62778646 0.62507236 0.27179798 -0.13510893 -1.0802317 -0.3958192 0.37137914 0.57409143 1.4182167 -0.7483112 0.4661744 1.2527491 0.73753107 -0.086241275 0.034380354 -0.14209849 -0.15088294 -0.12487374 0.3396971 -0.21552438 0.605486 0.05437824 0.24209519 0.5846564 -0.535003 0.866441 -0.3123424 -0.53556657 0.4092227 -0.86203146 -0.04507373 0.09856129 0.3282645 -0.23859222 -0.30108875 -0.78328115 -0.03345403 -0.405614 0.5094929 -0.013812695 0.35994932 0.16549441 0.2692089 -1.0687355 0.024177577 -0.38635638 -0.1953798 0.022345068 0.022909287 0.43619388 0.77042836 0.03889561 0.34682825 -0.41088995 0.31834048 0.3961234 -0.44213545 -0.18993416 0.81137896 -0.8643731 -0.45360687 -0.2828114 
com.mindorks.snaphelperexample.ui.base.BaseActivity.showLoading -0.061991163 -0.123698354 -0.08728298 -0.6213173 0.09385031 0.40326142 1.3863374 0.03298139 0.38586912 0.24897791 0.033601616 0.16732578 -0.02071433 -0.34842393 -0.50293094 0.28166044 -0.26920238 0.11693091 0.30463004 -0.9415001 -0.51720595 -0.04496815 0.5035152 -0.99621046 -0.3106833 -0.6824627 0.7024117 0.29687747 -0.4131288 -0.38896844 0.025315972 -0.121543944 0.3422271 0.49018893 0.61887115 -0.3377428 -0.30209666 0.014742633 -0.21508582 -0.24979253 0.3797633 -0.065689646 -0.424751 -0.2038667 -0.30358085 -0.04408368 0.82121444 -0.12234573 -0.09866067 0.29830784 0.5263943 -0.03203581 0.31313485 0.23331906 -0.102449685 -0.06682586 -0.2905841 0.7131777 0.2583648 -0.027796827 -0.05732224 0.17736651 -0.47823042 0.11272016 -0.3936234 -0.11320165 -0.42699543 0.6027798 0.12593721 0.32522395 0.2744795 0.6333031 0.055835105 0.8760887 0.46541256 -0.8229673 0.95326746 0.2991047 0.9313053 -0.024074038 0.23889567 0.034884788 -0.40084416 0.43275642 0.24914134 -0.6608356 0.8681292 -0.48587462 0.5822281 0.11793147 0.30175304 0.04620662 -0.4783508 -0.07787756 0.2797604 0.11346076 -0.32899722 -0.19162723 -0.24055985 0.05291582 -0.42489192 0.079764515 0.19252232 -0.66314656 0.19296281 -0.05788154 -0.41242 0.40899742 0.24343579 -0.16201228 -0.18888074 -0.22366704 0.27318653 -0.2836854 -0.33755106 0.123351134 0.5520472 0.6732117 -0.5201456 -0.10616723 0.10743025 -0.015254147 -0.13214794 -0.25126222 0.34595832 -0.9042742 1.1904837 -0.22315732 
com.mindorks.snaphelperexample.ui.base.BaseActivity.hideLoading -0.25441292 0.40774012 0.03164349 -0.35057744 0.4128539 0.29661015 0.838166 -0.2803816 0.18773544 0.26458457 -0.7269916 0.42220896 -0.12277499 -0.53525627 -0.7749623 0.3348198 -0.0062233103 -0.021161957 -0.04410633 -0.5967003 -0.47245985 0.05388431 0.063573375 -0.85475755 -0.3526516 -0.960475 0.8087409 -0.0872202 -0.048128087 -0.6415135 0.27160794 -0.62562984 0.29636934 0.19886166 -0.14775565 -0.37245315 0.17332552 0.7063294 -0.30402544 -0.48104534 0.21499178 -0.28889075 -0.008464653 -0.20653297 -0.27240434 -0.1486727 0.96979433 0.57097495 0.09917766 -0.18402636 -0.10977341 0.50562704 0.06661197 0.6401517 0.1059903 -0.44044545 0.09342124 0.88422 0.1535984 -0.5587693 0.29567462 0.44126868 0.23804227 0.42301935 -0.78162074 0.6708797 -0.2787809 0.6121435 0.20214315 0.1632861 0.62288845 0.4370415 -0.525153 0.26250184 0.49573773 0.11650336 0.33642432 0.11323667 0.21351588 0.70986605 0.16386065 0.007336196 0.26247025 0.095483586 -0.3362226 -0.49215263 1.1532828 -0.08125017 0.24193892 0.2286002 0.5697544 -0.31534404 -0.76272136 0.48263136 0.20022367 0.018838048 -0.65677893 0.019735418 0.2683635 0.4056039 0.24085268 0.14304104 0.6579092 -0.7336369 0.24746978 -0.50160336 -0.5311747 -0.022605035 -0.23366126 -0.50849617 -0.12461504 -0.30081335 0.40275624 0.13790445 -0.6971634 0.3010543 0.27643144 0.6055796 -0.5340084 -0.4144504 -0.09034315 0.1626443 -0.09618371 -0.33084488 0.45075488 -0.81169623 1.051658 -0.64691067 
com.mindorks.snaphelperexample.utils.DialogUtils.showLoadingDialog -0.19549477 0.118981056 0.52493614 -0.5256741 0.57621783 0.06509763 0.38548535 -0.21048787 0.18355347 -0.00047393303 -0.41498443 0.37371695 -0.2381487 -0.2709253 -0.6397457 0.48855925 0.1250028 0.21739605 0.19672012 -0.33378008 -0.2769128 -0.07806727 0.5435132 -1.0778648 -0.10830324 -0.7578038 0.78485334 0.39602274 -0.47623768 -0.48227888 0.17856371 -0.4220446 0.13370486 0.21875924 -0.29214567 -0.23725687 -0.3370487 0.66368574 -0.3714074 -0.17736158 0.41632244 -0.3702234 -0.06845255 0.1274875 -0.035883807 -0.28905153 0.92248315 0.5266504 0.12386769 0.114257626 -0.33068717 0.385217 -0.18514225 0.63189745 0.20754649 -0.5239458 0.34202203 0.7654658 0.42348737 -0.47460628 0.33240682 0.581751 0.51979417 0.07657576 -0.07009374 0.625316 -0.22427228 0.6668378 0.23077671 0.03078604 0.5479156 0.64673805 0.07281235 0.16184233 0.40827912 0.27469596 0.0838946 0.02520696 0.11799659 0.30676654 0.16032185 0.1774342 0.54455626 -0.17940894 0.028210128 -0.8255897 1.1356528 0.07839996 0.26920983 0.30243224 0.6366296 -0.25849712 -0.90712357 0.46557447 -0.17883131 -0.14140652 -0.326618 -0.08311779 0.011641589 0.22415043 0.2238747 -0.02931321 0.41483083 -1.1677451 0.04640766 -0.17926171 -0.707142 -0.2794126 -0.24035433 -0.35094225 0.38836065 -0.09695121 0.37609434 0.5408268 -0.41205645 0.59700596 0.14701499 0.6795389 -0.6083046 -0.0013796862 -0.33127663 0.07724848 0.13919899 -0.038664054 0.52635854 -0.39570853 0.9782355 -0.5848322 
ImageView 0.499455 -0.4604188 -0.25104094 0.2823773 -0.39785722 -0.19982535 -0.101071395 0.5845267 0.1580181 -0.044508815 0.14429869 -0.026049856 -0.57230824 0.72247225 0.4769599 -0.6786097 0.39312747 -0.23325965 0.46244237 -0.8609922 -0.031027317 -0.60459495 -0.15989418 0.13181463 0.02785449 -0.32236612 0.11717004 0.30431184 0.019578896 0.104919486 0.15934569 -0.41510347 0.668864 -0.12743837 0.24374002 -0.14190502 -0.043272287 0.9282592 0.5080047 0.5855875 -0.56487083 -0.20840442 0.047101814 -0.1471634 0.08464911 -0.07476322 0.48132312 -0.9278999 -0.098803006 -0.26049438 0.32633576 -0.08375478 -1.0345436 -0.5374713 -0.4365137 -0.087486655 0.02491397 -0.2738559 -0.081730455 0.37181512 0.38183403 0.05553743 -0.84201497 1.0385803 0.49621898 0.11832082 0.052110232 -0.16662118 0.32048053 -0.78476655 -0.63471025 -0.4303307 -0.006221819 0.12834573 0.856626 -0.42131442 0.014318007 0.7849632 -0.032550924 0.51774174 -0.09373954 0.07086471 -0.17581156 -0.32860717 -0.23965332 0.56357807 -0.116935626 -0.12202029 0.11791173 0.52562785 0.2977673 -0.33038315 -0.6698674 -0.2371484 -0.19297089 -0.06875411 0.2341641 -0.070305966 -0.028791329 -0.44581637 -0.57578486 -0.19044967 0.2044892 0.30725387 0.02430875 0.26612094 -0.0061571603 0.056793053 0.32575423 -0.3121615 -0.705713 -0.2807079 -0.046903003 -0.07014806 0.084104024 -0.106266685 0.29326048 0.41352764 0.09127168 0.014115675 -0.20334882 -0.10870274 -0.17332646 -0.7629134 0.16633138 -0.76114345 -0.054529753 -0.9847012 
com.mindorks.snaphelperexample.ui.main.adapter.AppListAdapter.ViewHolder 0.373483 -0.39956102 -0.011450485 0.030876407 0.50799316 0.23149338 0.1429043 -0.16597943 0.008359768 -0.17803386 -0.25834456 -0.24820045 0.2743137 0.11872263 -0.17873096 0.39433396 0.5968133 -0.011691184 0.22566192 -0.3945646 0.002447996 0.020431152 0.36027515 0.233835 0.076623626 -0.39683065 0.6015273 0.01183204 -0.8191837 0.23037153 -0.14282195 0.09249473 0.45679563 0.3773044 0.4371924 -0.599275 0.29064873 0.6867464 0.22488402 0.3826837 -0.07917825 -0.564069 -0.23236215 -0.027848428 0.535377 0.40959227 0.4910297 -0.95007175 0.3376592 0.24106759 0.15616444 -0.4666507 -0.34253898 -0.41166773 -0.8451701 0.24811566 -0.18944383 0.38404256 0.18145119 0.6031672 -0.22600701 0.36842385 -0.33751965 0.28754526 0.52032924 0.56665134 -0.12999856 0.56192493 -0.10425065 -0.24158007 -0.60814565 0.40757895 -0.088199906 -0.2207384 0.7072236 -0.3411284 0.34585026 0.2248867 0.17279509 0.2766796 -0.26284605 -0.009359662 -0.2514873 0.06126756 0.1909235 -0.14821832 0.13743936 0.25192496 -0.357742 0.49774572 0.30600545 -0.028165305 -0.60632634 -0.049053498 -0.1315228 0.10479911 0.06254455 -0.10793028 0.13904902 0.22073975 -0.837191 -0.5812984 0.091122925 -0.13194256 -0.08748716 0.56924266 0.4572118 -0.4469156 0.49778628 -0.2007999 -0.33734646 -0.5256357 -0.23764631 0.52191013 0.043388415 0.06649849 0.50890094 0.46799713 0.025532946 -0.35005143 -0.16944574 -0.181613 -0.50197655 -0.6018452 -0.2840508 -0.37309375 -0.251341 -0.42968342 
TextView 0.50320375 -0.45755225 -0.23263894 0.27508107 -0.37191707 -0.19663869 -0.10576419 0.5626475 0.17618045 -0.043457516 0.15708832 -0.036230452 -0.5628263 0.7240253 0.47343284 -0.66343164 0.38318196 -0.23969474 0.44761452 -0.83426315 -0.03165844 -0.59255135 -0.17110568 0.14316171 0.0413766 -0.32706776 0.10478362 0.29394457 -0.007898472 0.09876137 0.16639826 -0.39840934 0.6656849 -0.11621942 0.2430502 -0.16442423 -0.059525046 0.9311621 0.4986274 0.5763629 -0.5588388 -0.2097197 0.04889678 -0.15060955 0.08008922 -0.08182646 0.46913978 -0.9419073 -0.07799711 -0.25997746 0.3340021 -0.07245703 -1.0245224 -0.5385007 -0.44721812 -0.09011554 0.021932319 -0.2636218 -0.10898918 0.3740598 0.35807845 0.05467373 -0.8320829 1.0008273 0.47800374 0.10804568 0.04327071 -0.17086503 0.29296148 -0.77948254 -0.6549364 -0.4008778 0.00229936 0.122078575 0.8660854 -0.43157372 0.025947582 0.78856236 -0.048634604 0.5058566 -0.10354912 0.07338677 -0.14937516 -0.30207545 -0.2308379 0.5692247 -0.12392436 -0.09563327 0.10446869 0.53213334 0.2903968 -0.3176123 -0.6420735 -0.26332653 -0.1945802 -0.07429 0.2334908 -0.059954055 -0.02688197 -0.45249626 -0.5700411 -0.19692317 0.20167303 0.31383303 0.016333144 0.27813202 0.030822294 0.05796788 0.33228618 -0.2917004 -0.7039401 -0.29663533 -0.052376185 -0.061034583 0.0854929 -0.09237836 0.30968776 0.3981737 0.09609653 0.012302202 -0.18742992 -0.10670382 -0.19083996 -0.7600296 0.15991871 -0.72468805 -0.053846173 -0.9699476 
RecyclerView::ViewHolder 0.49869666 -0.45558542 -0.26540634 0.2960245 -0.4048065 -0.20982528 -0.116336904 0.5586234 0.15264907 -0.05505505 0.14901933 -0.041866597 -0.57987314 0.7110618 0.4864357 -0.6685325 0.37549388 -0.21071546 0.43917453 -0.84626174 -0.015505162 -0.5920493 -0.17508194 0.13562378 0.022989765 -0.30102533 0.09858157 0.2862975 0.013593796 0.11477141 0.15286475 -0.41326204 0.648619 -0.14424025 0.2349347 -0.12846576 -0.043074805 0.9134505 0.4954814 0.5710114 -0.5470383 -0.1933791 0.049541276 -0.15017347 0.07891829 -0.07019718 0.467107 -0.92057323 -0.0974371 -0.26963052 0.33684504 -0.07259427 -1.0210766 -0.5520597 -0.42797852 -0.09206419 0.03391229 -0.28695795 -0.105145805 0.3703707 0.37711504 0.04131556 -0.8332335 1.0277108 0.48693955 0.10292069 0.055890474 -0.19035035 0.30924067 -0.77702063 -0.62809706 -0.4238001 -0.00095205556 0.12363494 0.83655405 -0.42924628 0.008379974 0.7760324 -0.06597633 0.5162549 -0.09587223 0.069806695 -0.17503336 -0.3092829 -0.2520755 0.5782857 -0.13390042 -0.1255908 0.11772888 0.51055944 0.29273373 -0.32990897 -0.63675123 -0.23199038 -0.18591927 -0.07300247 0.23568708 -0.07181437 -0.0185718 -0.44655573 -0.5682812 -0.18080965 0.1888026 0.33533356 0.017549962 0.26601008 0.007920878 0.07442846 0.32310653 -0.2810823 -0.71199626 -0.27851754 -0.05407529 -0.071673945 0.07597505 -0.11507273 0.27820912 0.3893085 0.10794738 0.021913648 -0.2056395 -0.11356057 -0.17504781 -0.74573934 0.15896194 -0.7380016 -0.0595614 -0.96162874 
com.mindorks.snaphelperexample.injection.ActivityDependencyMainMvpPresenterMainMvpView 0.22653891 -0.5903636 -0.2967248 0.36687866 0.1624947 -0.7070055 -0.41069278 0.945068 -0.43309534 0.37216038 -0.076799475 0.55970633 -0.0035904495 0.48081207 -0.5682191 -0.57996315 0.50586754 0.27878106 0.9070143 0.40364552 -0.2372786 -0.52235174 0.97080135 -0.5723536 0.7086889 0.33918756 0.17635222 0.03463917 -0.4148902 -0.18425912 0.26564434 0.30558598 -0.16863781 0.41269222 0.38202202 -0.6396614 -0.0439296 -0.7437724 0.3608085 0.37393752 0.012838235 -0.28732514 0.43003458 0.24819505 -0.37979388 -0.07053581 0.33514407 0.579045 0.4710822 -0.13670573 -0.09776292 -0.06455861 -0.42403793 0.7413135 -0.22042161 -0.5173974 0.13339789 0.6996706 0.89091974 0.43594244 -0.49574044 0.28524384 -0.3547169 0.22475147 0.5051566 1.0100712 -0.090673745 0.4443429 0.16305743 -0.4868271 0.3842664 -0.5074236 -0.4184687 -0.060332883 0.19498433 0.02840346 -0.2683518 0.198901 0.6259018 0.51170224 0.5942187 0.57501024 0.7819066 0.26061955 0.5927289 -0.041129112 0.6911875 0.03080437 -0.06762031 0.49169743 0.31666997 -0.03907503 -0.9883291 0.08506053 -0.6022454 0.071122035 0.10198237 0.22584537 -0.49842492 0.114943564 -1.117305 0.070967264 -1.0947231 -0.5509981 -0.46815422 -0.61063564 -0.5889071 -0.62559825 0.041089952 -0.79863006 0.076204434 -0.24379967 -0.2821406 0.88471764 -0.12216117 -0.44529665 -0.049610816 1.2584018 -0.108521186 -1.0617383 -0.046025954 0.025770841 0.6928643 -0.83693373 0.48526734 -0.23496641 0.0013120141 0.52406883 
com.mindorks.snaphelperexample.injection.ActivityDependencyPextendsMvpPresenter?extendsMvpView.MainActivityDependency -0.22867839 -0.43662462 0.5463231 -0.7385979 0.006611709 -0.65950966 -0.011259186 0.26782873 0.15602225 0.5444661 0.027642956 0.43984613 -0.05766773 -0.7457561 -0.22993499 -0.37044016 0.47320083 0.19459945 0.2626378 -0.419657 -1.183022 0.84193337 0.149926 0.67854834 0.40786397 -0.43506098 0.9610366 0.11105076 -0.43961248 -0.12870798 -0.36059853 -0.38852298 0.86749053 0.21271998 0.7126604 -0.7729624 -0.064152166 0.8888376 0.67413396 -0.21816337 -0.06715325 -0.28319654 -0.29294947 -0.33638555 -0.72819877 -0.47410578 1.0431514 -0.53641605 -0.28859636 0.038199205 0.31084996 0.41434267 -0.46984726 0.74051917 -0.7702263 0.42615968 -0.060207 0.10059664 0.19875097 0.20464139 0.4963597 -0.35145965 -0.51942366 -0.34336317 -0.08037277 0.43513396 -0.7852612 0.89394313 0.702863 -0.5549183 -0.5840045 0.124956064 0.47427782 0.5367232 0.86208695 -0.64086825 -0.20751208 0.121962585 -0.117122896 -0.7038806 -0.33016247 -0.24469626 0.23899497 0.00068174687 0.48088014 -0.20322432 0.62847596 0.611453 -0.13519588 0.47125334 -0.008944468 0.04047559 -0.55316687 0.2671914 0.082395084 -1.0341011 -0.13091767 -0.06971625 -0.056799497 0.4750421 0.09620055 -0.42575237 0.49851558 -0.5501681 -0.11794083 -0.5221244 -0.33752882 -0.12715888 0.15491918 -0.33724642 -0.562296 -1.0000472 -0.048616763 0.19696447 -0.4465199 0.17037176 0.9474861 -0.030334491 0.157829 -0.17940101 -0.33573046 -0.20731074 -0.23555867 -0.9314096 0.86222696 -0.7096495 -0.13798119 -0.94601136 
com.mindorks.snaphelperexample.ui.base.MvpPresenterVextendsMvpView 0.49381134 -0.011726129 -0.5903905 0.28731868 0.15468636 -0.8746952 -0.09763817 0.4369372 0.23352115 -0.24593736 -1.1301457 -0.51598054 -0.80515504 0.69076943 -0.32607403 0.17484741 -0.3936399 -0.95019066 -0.104278736 -0.42795137 0.56882936 -0.79617035 0.10858243 -0.89998376 0.03020533 -0.2976584 -0.07944843 0.13294518 -0.3314517 -0.294318 0.24642335 -0.43481165 0.93398356 -0.2745157 -0.20605887 -0.64797693 0.21417962 0.31091267 0.13961706 -0.26529732 -0.61971927 0.74736935 0.32235342 -0.74075043 -0.0043623014 -0.26513267 0.46294725 1.0776547 -0.17956617 0.29206994 0.18764031 0.103929065 -0.507486 0.3360398 0.079426005 -0.7792543 0.82462376 -0.53730536 1.1518275 -0.17529409 0.73639226 -0.19666749 0.24582939 0.47242728 -0.5255605 0.77820885 0.38714504 -0.3228309 -0.15700787 0.19042726 0.24435413 -0.29637435 -0.2634429 -0.22933993 0.51162684 0.3325476 -0.5715482 0.9151123 -0.13189739 0.4343363 0.018869748 -0.2980306 0.6320908 0.37331256 0.18527628 0.40312967 0.9043808 0.16873376 0.113603674 0.1150436 0.3021112 -0.87531877 -0.5980892 -0.8421019 0.1190867 0.035141654 -0.22122945 -0.29610187 0.76194596 -0.13494615 -0.16560137 -0.02541734 -0.6080786 -0.13946694 1.2305316 -0.019734213 -0.2795064 0.2595714 0.011107923 -0.2664145 0.101310454 0.330592 -0.16042176 0.13415419 -0.4226665 -0.7684745 -0.11820625 -0.13533702 0.08042257 -0.7528454 0.86680996 0.13547459 0.37703684 -0.33505872 0.20800956 -0.4145276 0.43251377 0.41247228 
com.mindorks.snaphelperexample.ui.main.MainMvpPresenterVextendsMainMvpView -0.16864093 0.22567798 -0.268954 0.08278957 0.14000817 -0.44977292 -0.21853222 -0.3881068 0.008789071 0.78516674 -0.6787652 0.22426693 -0.3974499 -0.44350564 -0.108656146 0.19181666 -0.41496444 0.08669164 -0.24840158 -0.64711124 -0.15675539 0.6207397 -0.16882773 0.11930005 -0.20321882 -0.6794504 0.38291746 -0.19957855 -0.7811735 -0.25624093 0.19729827 -0.517941 1.7474169 -0.29804507 -0.010440841 -1.1187726 0.5315587 0.7490111 -0.047150258 0.06649332 -0.07820905 -0.06877917 0.25783643 -0.6918891 -0.388483 -0.7762046 0.49844962 -0.16025332 0.298934 -0.2903592 0.046008095 0.7665467 -0.37951946 0.4753996 -0.80777264 0.28740615 0.36030665 -0.30172497 -0.25414023 -0.49665293 0.8000095 -0.20913428 0.24231125 0.66005933 -0.6681812 0.5767 -0.25773922 0.07982911 0.3907678 -0.09802577 -0.110036194 0.014802953 0.016453227 0.16778061 1.0272778 -0.11256865 -0.22122948 0.971466 -0.34561685 0.16108103 -0.35425892 -0.1092019 0.38604438 -0.009833237 -0.20135823 0.02979254 0.8763664 0.14445132 -0.25473058 0.5563351 -0.035538066 0.009872019 0.11531014 0.10515507 0.3524233 -0.6933138 -0.6094799 -0.27617 0.48908183 -0.029803194 -0.052122544 -0.52779746 0.3968374 0.12099932 0.5531569 0.038413595 0.102270775 0.35320196 -0.31311113 -0.6825802 -0.6492869 -0.54255205 0.14791736 0.25775036 -0.73394114 0.26478612 0.482767 0.21068667 0.54960924 -0.39284405 0.37993622 0.54471135 -0.20913322 -0.41995034 0.6529518 -0.87873745 -0.007146562 -0.3552808 
com.mindorks.snaphelperexample.ui.base.MvpPresenterV -0.06644477 0.045829352 -0.29441753 0.6717953 0.450069 -0.9524564 -0.108494356 0.38033575 0.37485904 -0.10827526 -0.29017037 0.148449 -0.33097824 0.6479876 -0.34702173 -0.2049561 0.04172206 -0.32406846 0.16937965 -0.42310682 0.2806677 -0.61848366 -0.11019294 -0.9858468 0.29334486 -0.27150717 0.11415393 0.4655256 -0.2770792 -0.36228842 -0.03837917 -0.06154308 0.71924335 -0.42099068 -0.24136032 -0.44575995 -0.6174867 0.41903213 -0.29471174 0.15406498 -0.5863151 0.47534192 0.26594764 -0.10631724 -0.074833594 -0.61450595 -0.013167099 1.0449995 -0.12379644 0.14125946 0.48516098 0.2691717 -0.7910934 0.22903377 -0.33555588 -0.95584804 0.43974093 -0.35861295 0.41558293 -0.48724264 0.43153512 -0.6256311 -0.12819277 0.33110684 -0.34272072 0.3737991 0.31326526 -0.20658772 -0.042009413 0.036076162 0.33506423 0.16808751 -0.15160084 0.16881722 0.6531764 -0.09400487 0.52642846 0.7182787 0.3121563 0.52623105 -0.19200157 0.05459601 0.43921927 0.27312183 0.1465935 0.49319977 0.55744237 0.2615885 0.6161547 0.3847673 0.35457212 -0.025521021 0.034755602 -0.46101192 -0.120289095 0.26948148 0.6147077 0.07508518 0.54820925 -0.9436561 -0.20443991 -0.34566107 -0.009178299 -0.198232 0.8899095 0.508126 -0.5889055 0.3743517 -0.025268141 -0.13323592 0.12832303 -0.2460962 0.0133560635 -0.534408 -0.4034258 -0.57270616 -0.28403997 0.33537215 -0.21618 -0.20690915 0.8032016 0.48020458 -0.12021134 -0.30474782 0.35180834 -1.0129471 0.98217106 0.29296398 
com.mindorks.snaphelperexample.ui.main.MainMvpView 0.33264717 -0.26367685 0.065764084 0.16063365 -0.12792395 -0.26498297 0.7709122 0.8941015 -0.27557367 -0.1671485 -0.06773474 0.37238207 -0.05654328 -0.14004698 0.27113867 0.2581724 0.05470836 0.2931983 0.369305 -0.5778916 0.17168403 -0.39407066 0.17544529 -0.37672508 -0.13928115 -0.3712214 0.8958885 0.27863002 0.1844297 0.25823674 -0.1742471 -0.22701363 -0.10590927 0.18540719 -0.062198326 0.036029145 0.16432469 -0.019631883 -0.011866208 0.33098912 -0.39116347 -0.022572163 -0.13942021 -0.7357362 -0.27229995 0.25511134 0.66159636 0.33212093 0.010452959 -0.032608714 0.1250374 -0.0612915 -0.32761928 -0.3522921 -0.110441096 -0.17914702 -0.28704774 0.30977204 0.27287143 -0.371453 -0.31382844 0.50142413 -0.36090037 0.5205633 -0.24591343 -0.019959312 0.11409033 -0.078621544 -0.019181237 -0.09442962 -0.13910249 -0.45093176 -0.4805667 -0.2895961 0.19412428 6.133161e-05 0.40593755 -0.18813202 -0.048897237 0.11152597 0.16920249 -0.099361606 -0.2644542 0.24697627 -0.26544365 0.44561312 0.23710625 -0.49564144 0.074583925 0.31419155 0.10982696 -0.24084404 -0.81289893 0.46202585 -0.19958232 -0.16743048 0.15918392 0.008110555 -0.4875717 0.21937141 -0.51090276 0.43164366 -0.27110928 -0.16533805 0.067625135 -0.061852314 -0.10257314 -0.0080796005 -0.0071345945 0.055812508 0.009277379 -0.21585354 -0.21373287 0.34177083 0.42232135 0.021754397 0.3408548 0.13251597 -1.0126587 -0.5586255 -0.7988667 -0.27962348 -0.39763936 -0.76327014 -0.006477385 0.067140855 0.31042856 -0.1946273 
RecyclerView 0.36151147 -0.33725452 -0.38036332 0.37351155 -0.20735432 -0.39307052 0.63160473 0.77891904 -0.15235046 -0.3553125 0.026070716 -0.012915318 -0.3610357 0.2417089 0.23369983 0.29637402 -0.00023264087 0.10372227 0.059230745 -0.55727786 0.4936338 -0.54283756 0.31355667 -0.59753746 -0.32051286 -0.4138137 0.7065797 0.23882984 -0.11375474 0.24642709 0.059961695 -0.48313525 0.03930406 -0.019091489 0.0970497 0.0793768 0.18285498 0.0034570787 -0.39631695 0.23350321 -0.087534614 0.43984556 0.06286067 -0.3735415 -0.040561683 0.19347072 0.8437922 0.52183855 -0.20669635 -0.01928862 0.39326236 -0.18044215 -0.37917307 -0.33135656 0.00093342754 -0.3029722 -0.09727148 0.19359444 0.26794586 -0.38441554 -0.04758608 0.5925928 -0.37042317 0.5001902 -0.15189178 0.39448828 0.07559779 -0.45154336 0.04876508 -0.074937694 0.0687131 -0.25261483 -0.42330435 -0.28918123 0.41354224 0.11418269 0.43892062 -0.11540845 -0.0005403481 0.30722287 0.39679247 -0.1771691 -0.087950304 0.45243347 -0.13564561 0.49063864 0.3177949 -0.3221395 0.28089353 0.2549115 -0.010328678 -0.58133894 -0.47879547 0.24858959 -0.18333618 0.2080017 0.31219536 -0.012379732 -0.21755862 0.16393523 -0.6552425 0.5680774 -0.46824548 0.014809772 0.38537288 0.06576466 0.18156095 0.1846657 0.037054516 0.24204831 0.178881 -0.19555984 -0.15121318 0.2361486 -0.06087736 -0.3421763 0.12699959 0.3702902 -0.7186824 -0.71709573 -0.5660199 0.043907534 -0.30351773 -0.4713597 0.1216819 -0.31764656 0.28294915 0.10985444 
Application 0.22197612 0.006202212 0.1516617 -0.10872826 0.52155566 -0.3910856 -0.1669457 0.61686164 -0.1789541 0.31070158 -0.05508202 0.3436033 0.14631191 0.10334775 0.24008302 -0.17190377 -0.8391979 -0.6299777 0.12438857 0.23157603 0.16384737 -0.42030647 -0.23767458 -0.47055152 0.64284015 -0.49816045 -0.2570499 0.05480252 -0.7610481 0.08765748 0.1910705 0.025581617 0.5828444 0.3816186 0.21816783 -0.6999619 -0.286256 -0.34643263 -0.09022485 -0.040360577 -0.55604213 0.41194466 -0.21573293 -0.43931714 -0.11282927 -0.74092406 -0.4273485 -0.046744116 0.21388666 0.3810237 0.24269186 -0.36977994 -0.19101723 0.65743047 -0.31471968 -0.023715109 -0.17766212 -0.047322065 0.1021583 -0.33102664 -0.20795661 0.18743522 -0.0149857495 -0.16350205 -0.45894217 0.66912884 -0.3006077 -0.13286771 -0.5298349 0.25592783 -0.5394991 -0.25303572 0.12548335 -0.25377575 0.5823742 0.09795064 0.3415437 0.422052 0.31335083 -0.1481723 0.11194358 0.032343138 0.45863327 0.1684685 0.41576844 0.26975757 0.43921632 0.02300793 0.3587507 0.945207 -0.06992826 0.382564 -0.11157612 -0.8805183 -0.77133346 -0.2552651 -0.25930834 -0.09741941 -0.21887545 -0.40370655 -0.40638506 -0.28164396 -0.6883583 -0.61011225 0.42492083 -0.03631487 -0.045634005 -0.23135178 0.32433012 -0.17831022 0.33738783 -0.11211888 -0.009641216 0.20639321 0.14850907 0.032156345 0.15802296 0.4531647 -0.13500626 -0.7046299 0.39153022 0.394898 -0.0427851 -0.09983461 0.78347003 -0.08412582 -0.22993538 0.60998654 
Adapter 0.32960543 -0.37631634 -0.47881526 0.42480713 -0.4325921 -0.24028225 0.04298616 0.44767934 -0.20285356 -0.13487548 0.08240186 -0.18324542 -0.49475667 0.5511063 0.10197739 -0.24766421 0.7983715 0.20574059 0.63178474 -0.9330219 0.19286573 -0.6650078 0.54321384 -0.33867276 -0.3496115 0.069058254 0.4794268 0.37502402 0.107377246 0.11411248 0.05654999 -0.1613179 0.14780919 0.21014373 0.32251066 0.012529083 0.32366252 0.12462014 0.19887918 0.57717687 -0.19887121 -0.098990746 0.083489 0.02455898 0.2808632 0.13344507 0.6660439 -0.1399445 0.018930182 0.037427578 0.23824203 -0.42110068 -0.5557859 -0.54790056 -0.32320347 -0.4015235 -0.11427916 0.07545717 0.69329035 0.14643244 0.41373315 0.3158696 -0.6843884 0.9115973 0.55043966 0.5227493 0.22472629 0.12280536 0.43902767 -0.25026178 0.26947442 -0.33882987 -0.1914133 -0.011052 0.5277926 -0.17348936 0.03624789 0.17681484 0.4356366 0.497702 0.27309528 0.08163385 -0.30957296 0.0032436484 0.07728719 0.16786441 0.20752962 -0.17950529 0.2858946 0.5506723 0.4852433 -0.43938574 -1.1126685 0.096913196 0.018333334 0.5058012 0.5508173 -0.025070246 -0.2919475 -0.08797097 -1.1174699 0.22337197 -0.27692857 0.079433076 -0.053099252 0.18281259 -0.25099894 0.06940724 0.29469508 -0.42618012 -0.25667298 0.045975294 -0.046234105 0.27943256 -0.10309973 -0.2996324 -0.08806317 0.6643738 -0.19834897 -0.15814397 -0.32512903 -0.19465779 0.26637506 -0.46558413 0.0025676293 -0.7112856 0.37560543 -0.46398517 
RecyclerView::AdapterAppListAdapter.ViewHolder 0.31295073 -0.3937818 -0.41574302 0.4387163 -0.35675508 -0.21226622 0.029108586 0.4285267 -0.2042467 -0.12652358 0.09745043 -0.17130351 -0.51009476 0.6185403 0.064484075 -0.22607361 0.88215053 0.110306494 0.6313264 -1.0041188 0.14913386 -0.6468047 0.5727191 -0.35043937 -0.42835933 0.072871186 0.45212376 0.3660826 0.08090785 0.063138254 0.077837065 -0.122651905 0.18065332 0.2622227 0.3538142 0.011286737 0.34262574 0.21043372 0.2160624 0.6199192 -0.19187023 -0.17321225 0.12822479 0.060712494 0.29939187 0.14828971 0.6642639 -0.16649248 0.0036412776 0.08623384 0.28436306 -0.46045277 -0.63355243 -0.5443136 -0.38877958 -0.428985 -0.14429864 0.07628973 0.7390386 0.19307706 0.46116078 0.2988678 -0.683774 0.84790957 0.6031265 0.5504295 0.1612236 0.16985705 0.42831713 -0.16329224 0.2747964 -0.25662947 -0.18862428 0.0077304277 0.6114775 -0.1965682 0.09643992 0.23065332 0.50172615 0.45743787 0.24935666 0.10943211 -0.30267417 0.039109614 0.15254013 0.1414721 0.18112837 -0.15716848 0.26793042 0.6082886 0.502317 -0.42220184 -1.110158 0.013602607 0.053543247 0.5388333 0.58024526 0.0009818055 -0.24307658 -0.14010917 -1.1354876 0.22956805 -0.28632507 0.09656878 -0.026734317 0.27504408 -0.20006612 0.043064434 0.25432408 -0.4552603 -0.23719743 0.03487104 -0.033261202 0.28737438 -0.14495037 -0.29770103 -0.0938069 0.63085127 -0.19370267 -0.1863754 -0.2536554 -0.191064 0.24045017 -0.46011436 -0.03134506 -0.72371596 0.35682702 -0.43094426 
com.mindorks.snaphelperexample.ui.main.adapter.AppListAdapter.onBindViewHolder 0.3577626 -0.022813132 -0.11280303 0.008452897 0.3886715 0.42353383 0.6700039 0.41651335 0.068541445 -0.13243528 0.044119533 0.051827524 -0.12015942 -0.0770712 0.13904734 0.1405876 0.40936583 -0.28439116 0.4404433 -0.67450845 -0.059601936 -0.46829402 0.30097723 0.28694385 -0.22131218 -0.39965463 0.23180762 0.074650474 -0.17334016 0.25485235 0.15093724 -0.048160866 0.18734889 0.5261986 0.6355896 -0.5079653 -0.03782755 0.71065414 -0.026488489 0.24923232 -0.0061098184 -0.49241632 -0.11161928 -0.2351353 0.34369314 0.52908385 0.6829474 -0.5974181 0.14501174 0.111091256 0.0400301 -0.55896294 -0.45339867 -0.7375027 -0.2816373 0.39180964 -0.27455106 0.5592521 0.18557638 0.42532328 -0.20523888 0.7852554 -0.5911131 0.16125925 0.4492733 0.3492344 0.033539493 0.33347508 -0.45892406 -0.1475701 -0.67111427 0.032545608 -0.13617419 -0.0274176 0.9499918 -0.490195 0.30017585 0.36464688 0.06382242 0.3212503 0.08593314 0.15399215 -0.19057316 0.65133584 0.06176386 -0.36961326 0.024449037 0.15663402 0.100029364 0.5827049 0.47373664 -0.39593038 -0.9983042 -0.32089812 0.03837216 0.07503756 -0.14875172 0.22266077 -0.6160954 -0.1442103 -0.82004285 0.43240327 -0.017107213 0.08248878 -0.3064683 0.5110466 0.42227063 -0.36192098 0.4570753 -0.20291713 -0.064565726 -0.4633896 -0.041251168 0.5107974 0.115399614 0.03430004 0.5997695 0.60671127 -0.21821067 -0.65314305 -0.08435788 -0.19059317 -0.13028267 -0.43141866 0.17592713 0.054922953 0.12478977 -0.13200183 
com.mindorks.snaphelperexample.ui.main.adapter.AppListAdapter.ViewHolder.onBind 0.71032506 -0.23384012 -0.2991443 -0.27481988 -0.32071966 0.007907246 0.43576476 -0.42419812 -0.13841233 -0.45093378 0.15888652 -0.32583582 0.09912326 0.5633123 -0.37078077 -0.010711208 0.07669818 0.5015691 0.42617175 -0.42087886 -0.5318091 -0.3137845 0.18053955 -0.34423718 0.08902624 -0.13867985 0.54943925 0.27092737 -0.48167402 -0.33934006 0.015225376 0.107338965 0.35675597 0.3289742 0.73145264 -0.22613087 0.12475764 0.21679182 0.44669184 0.5001294 -0.38663402 -0.019196633 -0.17088896 -0.06888131 0.5017504 -0.05643912 0.415372 -0.7755519 0.4236067 0.17854518 0.16344738 -0.41318142 0.012164722 0.048116516 -0.70021826 -0.37884748 -0.38327685 0.25513747 0.44492924 0.36765164 -0.10041127 0.16301395 -0.5310684 0.32816103 0.6606042 -0.01314789 -0.15668584 -0.005036592 -0.11011197 -0.489319 0.17896852 0.45806846 0.4052424 0.45507532 0.3043911 -0.5761942 0.3203219 0.49882933 0.55228853 0.008109728 -0.036961947 -0.165157 -0.03633305 -0.25989476 0.47111303 -0.07020187 0.32097468 0.113043845 -0.28857347 0.12136288 0.048148256 -0.010747864 -0.73462147 -0.14013638 -0.34819916 0.20514587 0.5210962 -0.13150267 -0.18152815 0.17612441 -0.62291867 -0.27565923 -0.16445811 -0.21323048 0.060945418 0.5422187 -0.047094524 -0.2576406 0.401038 0.20410848 -0.26150158 -0.42772144 -0.0924994 0.78436285 0.5220893 0.09187677 0.32191512 0.2466613 -0.26864958 0.31174895 -0.5147402 -0.53064865 -0.41586238 -0.42668328 -0.22679901 -0.5471503 0.43578112 -0.7486705 
com::mindorks::snaphelperexample::ui::base::BasePresenterV 0.063756526 0.11399826 -0.15407664 -0.036187436 0.47969928 -0.531258 0.44666946 -0.3313348 0.34350386 0.43614253 -0.43665466 0.030995056 -0.1957084 0.08688194 -0.2643884 0.39662784 -0.1605738 -0.57139224 -0.3624521 -0.7878541 -0.24817938 0.36929974 0.20802534 -0.8189386 -0.26663223 -0.7672622 0.7821537 0.09400002 -0.7875012 -0.2773525 -0.053159617 -0.39411923 1.6301005 -0.00897068 0.2677094 -0.55204535 0.118939236 0.8058282 0.1024717 0.0077247783 -0.46592423 -0.083151124 0.0777238 -1.0110112 -0.26958397 -0.42896846 0.56294245 0.14445712 -0.4975875 0.179128 0.38284412 0.4819722 -0.4101261 0.33813417 -0.4599428 -0.07536844 0.21653461 -0.28357238 0.29484144 -0.35396007 0.541056 -0.36239558 -0.050128717 0.16009292 -0.8149829 0.26671267 -0.37430918 -0.03565123 0.2188131 0.3308488 -0.06271505 0.5831222 -0.08143794 0.46145108 0.8837359 -0.3268725 0.4472313 1.0640813 0.3304247 -0.2403726 -0.38404512 -0.080124885 0.0745365 0.3957041 0.3258841 0.27858207 1.0916829 -0.33510402 0.11855988 0.3275087 -0.082439505 0.1228974 0.08236315 -0.7382481 0.64476603 -0.6770783 -0.31587487 -0.21642467 0.9728343 -0.090019695 -0.1825274 -0.42673773 -0.14858726 -0.08821426 1.1490059 0.31576055 0.2168911 0.3230363 -0.35032377 -0.34057534 0.061784085 -0.37611857 -0.0065808725 -0.07784421 -0.6392856 0.012357658 0.6150894 -0.4281984 -0.2757962 -0.44119087 0.4114399 0.26678237 -0.43291605 -0.33385482 0.38831264 -0.6387898 0.45425186 0.15815176 
com.mindorks.snaphelperexample.ui.main.MainPresenterVextendsMainMvpView -0.11575442 0.12541118 0.09110209 -0.09544238 -0.3571253 -0.7032709 -0.095710196 0.27213845 0.2532805 -0.03584832 -0.7905769 0.1549643 -0.5341606 -0.08803548 -0.17383718 -0.2647593 -0.70929927 0.020446153 0.11019392 -1.1206107 0.047546532 -0.05503795 -0.54977834 0.23702411 0.012025383 -0.10732338 0.17025477 0.35565346 -0.10600005 -0.5814292 0.26305985 -0.53498393 1.0266465 -0.46540442 -0.32765117 -0.8157257 -0.05036944 0.53150976 0.034020934 -0.46492398 -0.04244341 0.05739279 0.04678953 -0.71682924 -0.52625334 -0.661277 0.49326113 0.596562 0.014091843 -0.5185303 0.20746538 0.5146375 -0.5267913 0.5354513 -0.44465032 -0.5285994 0.7028392 -0.32225636 0.3392205 -0.51925415 0.62482333 -0.4753519 0.23575166 0.4017535 -0.647021 0.167193 -0.14597388 -0.20085979 -0.065096036 -0.35195732 -0.052027583 -0.6828575 0.29055128 0.2917167 0.8412699 -0.42142007 -0.29443085 0.81687474 -0.5513673 0.47090206 -0.10124442 -0.6471756 0.31251186 -0.06367616 -0.43151772 0.09632132 0.6670743 0.631431 0.025313085 0.028074326 0.11433497 -0.45416048 -0.5078222 0.35688612 -0.034382444 -0.36431238 -0.29259866 -0.16639064 0.4343497 -0.3424628 0.3548108 -0.04195382 0.75336885 0.052613843 0.60317093 0.119251825 -0.5310853 0.56503195 -0.20063035 -0.18412636 -0.75622797 -0.18110487 -0.16536514 -0.2336222 -0.44860682 -0.31725177 0.29914206 0.29551792 0.44144613 -0.09669005 0.6182671 0.26384693 -0.33587822 -0.7401795 0.30134988 -0.7819917 0.46235767 -0.62366414 
com.mindorks.snaphelperexample.ui.main.MainMvpPresenterV 0.14802422 0.074809015 -0.9467504 0.6026202 0.018416477 -0.45213187 0.1734106 -0.7016931 0.15219276 0.46613002 -0.60827947 -0.25734803 -0.73364496 0.2664503 -0.29787132 0.40318856 0.25148764 0.030783413 -0.27733666 -0.5848787 -0.13593818 0.14885618 0.31160632 -0.7337241 -0.40629968 -0.74595064 0.74653786 -0.26649427 -0.6135952 -0.22527654 -0.0745133 -0.6513713 1.5991731 -0.4489661 -0.038363352 -0.443696 0.6914514 1.1243618 0.32414487 0.40772355 -0.4107715 0.017189749 0.5768888 -0.6200076 0.07915477 -0.35098734 0.79178447 -0.18586746 -0.022025231 -0.08017898 0.056435067 0.91827047 -0.5341936 -0.096051864 -0.66128314 -0.023636319 0.4432133 -0.44893548 -0.061609644 -0.102491416 0.9224394 -0.27370963 -0.26309827 1.1401633 -0.32542828 0.54782116 0.15406168 0.05690339 0.5764133 0.012899953 0.35748473 0.66107476 -0.461561 0.2827394 0.5946382 -0.086540215 -0.12331772 1.0173333 -0.13528986 0.44462568 -0.4124013 0.15673764 0.11781017 0.08294737 -0.1221048 0.3361789 0.9713032 -0.39608115 -0.27858326 0.1512169 0.22553177 -0.24403436 0.1112654 -0.18422322 0.69476193 -0.5119473 -0.3052456 -0.25229824 0.99821174 0.12986884 -0.29037046 -0.45059285 -0.16331747 0.18566255 0.73754174 0.17693393 0.228525 0.31588554 -0.28533417 -0.5475275 -0.55445236 -0.35591772 0.15046196 0.3378423 -0.6244469 0.17355402 0.24303553 -0.21043985 0.15267605 -0.31100008 0.036573164 0.24535559 -0.07660786 -0.3068094 0.25678602 -0.928736 0.42465526 -0.269132 
